1305031790.640468 0 0 0 0 0 0 1
1305031790.672866 0.00579253 0.00731532 0.00179349 -0.00922207 -6.86878e-07 0.00218474 0.999955
1305031790.709421 0.0103612 0.0148608 0.00318106 -0.0193357 0.000175716 0.00463185 0.999802
1305031790.739530 0.0146516 0.0215933 0.00403948 -0.0292197 0.00025176 0.0078357 0.999542
1305031790.773548 0.0206708 0.0282423 0.00481877 -0.0377413 0.000726655 0.0131381 0.999201
1305031790.809521 0.0285125 0.0371875 0.00520097 -0.0462342 0.00136803 0.0190539 0.998748
1305031790.839363 0.0364741 0.0440166 0.00635442 -0.0587098 0.00145214 0.0262243 0.99793
1305031790.871606 0.0454236 0.0489178 0.00721704 -0.0708303 0.00196073 0.0320257 0.996972
1305031790.909436 0.0454236 0.0489178 0.00721704 -0.0708303 0.00196073 0.0320257 0.996972
1305031790.941495 0.050677 0.0527099 0.00574762 -0.0782982 0.00734056 0.0398492 0.996106
1305031790.973696 0.050677 0.0527099 0.00574762 -0.0782982 0.00734056 0.0398492 0.996106
1305031791.009486 0.0510588 0.0560543 0.00157331 -0.0803345 0.0137093 0.0542303 0.995197
1305031791.041197 0.0510588 0.0560543 0.00157331 -0.0803345 0.0137093 0.0542303 0.995197
1305031791.073525 0.0510588 0.0560543 0.00157331 -0.0803345 0.0137093 0.0542303 0.995197
1305031791.109452 0.0510588 0.0560543 0.00157331 -0.0803345 0.0137093 0.0542303 0.995197
1305031791.141330 0.0510588 0.0560543 0.00157331 -0.0803345 0.0137093 0.0542303 0.995197
1305031791.173227 0.0510588 0.0560543 0.00157331 -0.0803345 0.0137093 0.0542303 0.995197
1305031791.209506 0.0536783 0.0436859 -0.00648169 -0.057565 0.0342382 0.0560686 0.996178
1305031791.241091 0.0522726 0.0320454 -0.0177734 -0.0262966 0.0551923 0.0557812 0.996569
1305031791.273558 0.0521747 0.0357859 -0.0298886 0.00417802 0.0749195 0.0589745 0.995435
1305031791.309764 0.0495205 0.0250696 -0.0405476 0.0283881 0.0958914 0.0631909 0.992978
1305031791.341415 0.0440436 0.0159814 -0.0505177 0.060162 0.118168 0.0674187 0.988874
1305031791.373525 0.0389651 0.0196892 -0.0596255 0.0876036 0.137002 0.0727638 0.984003
1305031791.409609 0.0326338 0.0134577 -0.0687098 0.111586 0.154373 0.0812623 0.978322
1305031791.441538 0.0269971 -0.00293808 -0.0782224 0.138463 0.166539 0.0904884 0.972062
1305031791.473230 0.0223732 -0.0139441 -0.087533 0.160055 0.177086 0.0985217 0.966083
1305031791.509595 0.0173386 -0.0286065 -0.097012 0.177833 0.184926 0.103732 0.960946
1305031791.541450 0.0104046 -0.0421561 -0.103942 0.197964 0.191241 0.106037 0.955507
1305031791.574034 0.00464755 -0.0473315 -0.109633 0.216757 0.197582 0.109059 0.949781
1305031791.609401 0.00201258 -0.0609855 -0.11887 0.229881 0.203906 0.11024 0.945211
1305031791.641229 -0.00600678 -0.0692093 -0.127291 0.246668 0.210845 0.107571 0.939749
1305031791.677621 -0.0127524 -0.0787288 -0.13685 0.265861 0.217143 0.103366 0.933532
1305031791.709275 -0.015624 -0.0879463 -0.149128 0.285773 0.224291 0.102505 0.926024
1305031791.741364 -0.0242889 -0.0965371 -0.159013 0.304966 0.233663 0.102181 0.917582
1305031791.776668 -0.0345382 -0.104078 -0.169805 0.323125 0.243917 0.101334 0.90875
1305031791.808429 -0.0465506 -0.118073 -0.182586 0.340105 0.254575 0.0991024 0.899833
1305031791.840375 -0.0618894 -0.128242 -0.192791 0.357921 0.265772 0.0981161 0.889737
1305031791.876494 -0.0618894 -0.128242 -0.192791 0.357921 0.265772 0.0981161 0.889737
1305031791.908433 -0.0618894 -0.128242 -0.192791 0.357921 0.265772 0.0981161 0.889737
1305031791.944357 -0.0618894 -0.128242 -0.192791 0.357921 0.265772 0.0981161 0.889737
1305031791.977200 -0.0716574 -0.13628 -0.196685 0.374911 0.270292 0.0997625 0.881154
1305031792.005506 -0.0783341 -0.138285 -0.197876 0.391034 0.276179 0.0982731 0.872445
1305031792.041730 -0.0870473 -0.148651 -0.207685 0.405 0.280838 0.0973476 0.864655
1305031792.076713 -0.108428 -0.162073 -0.20797 0.415325 0.288013 0.0964098 0.857473
1305031792.109497 -0.113136 -0.16858 -0.215096 0.421387 0.292421 0.0931703 0.853371
1305031792.141484 -0.114846 -0.171433 -0.220252 0.429834 0.294792 0.0923309 0.848419
1305031792.177376 -0.119116 -0.180579 -0.228263 0.433823 0.297286 0.0893623 0.845833
1305031792.209274 -0.122281 -0.184959 -0.233424 0.438145 0.300259 0.084047 0.843095
1305031792.241751 -0.121142 -0.188089 -0.243987 0.44205 0.302645 0.0793348 0.840656
1305031792.277507 -0.122257 -0.190864 -0.249207 0.4443 0.303476 0.0766681 0.839418
1305031792.309357 -0.120304 -0.190817 -0.253413 0.444784 0.302926 0.0759467 0.839426
1305031792.341029 -0.122009 -0.192998 -0.256306 0.443899 0.301442 0.077152 0.840318
1305031792.377088 -0.116907 -0.187748 -0.251677 0.439593 0.300374 0.0765488 0.843015
1305031792.409323 -0.10999 -0.17933 -0.247552 0.431922 0.300609 0.0790904 0.846654
1305031792.441590 -0.107401 -0.174078 -0.241025 0.4234 0.300091 0.0839649 0.850663
1305031792.477100 -0.10624 -0.172565 -0.239733 0.412412 0.297876 0.091579 0.856037
1305031792.509589 -0.0998456 -0.1654 -0.236787 0.399283 0.295525 0.0974516 0.862404
1305031792.541061 -0.10101 -0.158137 -0.226099 0.385261 0.29414 0.10557 0.86828
1305031792.577055 -0.090636 -0.144039 -0.222335 0.370332 0.291314 0.114198 0.874614
1305031792.609388 -0.0844933 -0.135556 -0.218403 0.352729 0.291165 0.120563 0.881062
1305031792.641219 -0.0768587 -0.12706 -0.215986 0.335027 0.291899 0.125028 0.887085
1305031792.677662 -0.0705751 -0.115851 -0.205849 0.319959 0.293212 0.130314 0.891443
1305031792.709219 -0.062568 -0.113734 -0.21096 0.301983 0.293442 0.136903 0.896636
1305031792.741510 -0.0531265 -0.0992234 -0.205481 0.286153 0.291977 0.14303 0.901337
1305031792.777507 -0.0449426 -0.0954706 -0.20574 0.268261 0.289465 0.148611 0.906731
1305031792.809440 -0.0391795 -0.0906844 -0.201397 0.250853 0.28862 0.154568 0.910977
1305031792.845359 -0.0320544 -0.0835839 -0.197826 0.234724 0.28768 0.160591 0.914525
1305031792.877574 -0.0271178 -0.0826568 -0.195831 0.217396 0.288172 0.16521 0.917824
1305031792.909293 -0.0208912 -0.0754806 -0.191935 0.202161 0.288414 0.171376 0.920097
1305031792.945340 -0.0133399 -0.0634929 -0.18793 0.188499 0.286193 0.180837 0.921878
1305031792.977564 -0.00581694 -0.0512238 -0.183617 0.175078 0.281875 0.192614 0.923468
1305031793.009530 -0.000378969 -0.0390482 -0.17831 0.160429 0.277834 0.203678 0.924979
1305031793.045243 0.00210801 -0.0250072 -0.171333 0.148435 0.275417 0.212223 0.925783
1305031793.077518 0.00575731 -0.0097109 -0.16656 0.138602 0.274295 0.220717 0.925654
1305031793.109651 0.00809006 0.00400573 -0.162272 0.128637 0.276224 0.228045 0.924742
1305031793.145401 0.0118382 0.0131362 -0.160548 0.118271 0.280305 0.235981 0.922905
1305031793.177537 0.0130332 0.0198372 -0.158834 0.108098 0.28534 0.241787 0.921105
1305031793.209609 0.0132287 0.030196 -0.15539 0.0986356 0.290892 0.246625 0.919146
1305031793.245617 0.0162111 0.0416049 -0.153958 0.0882832 0.295986 0.251534 0.91724
1305031793.277180 0.0189961 0.0536558 -0.152504 0.078228 0.300987 0.256222 0.915226
1305031793.309399 0.0238688 0.0678136 -0.151267 0.0688293 0.304822 0.260882 0.913393
1305031793.345594 0.0276581 0.0796183 -0.150096 0.0591557 0.308523 0.267478 0.910917
1305031793.377232 0.0259754 0.0901912 -0.144937 0.0501347 0.3122 0.274694 0.908053
1305031793.405708 0.0304703 0.0970285 -0.141793 0.039938 0.313668 0.282293 0.90572
1305031793.442259 0.0328802 0.103604 -0.137182 0.029438 0.31653 0.289295 0.902912
1305031793.474150 0.0338883 0.11609 -0.132182 0.020248 0.31974 0.29641 0.899721
1305031793.507244 0.0334135 0.124396 -0.126213 0.010331 0.322819 0.30564 0.895692
1305031793.545400 0.0324307 0.135065 -0.11951 0.00191142 0.325583 0.314023 0.891842
1305031793.577186 0.0306698 0.145884 -0.111334 -0.00698726 0.327617 0.323774 0.887575
1305031793.609703 0.0267038 0.15669 -0.102787 -0.0149942 0.330081 0.336174 0.881934
1305031793.645429 0.0219116 0.164175 -0.0943302 -0.0235877 0.331952 0.348654 0.87618
1305031793.677435 0.0188634 0.174655 -0.0859853 -0.0326161 0.332531 0.358799 0.871563
1305031793.709532 0.015778 0.180169 -0.0770165 -0.0428232 0.333512 0.370333 0.865904
1305031793.745574 0.0155305 0.189302 -0.0719206 -0.0519647 0.332999 0.381775 0.860615
1305031793.777364 0.0140801 0.19575 -0.0636579 -0.0617576 0.332704 0.392133 0.85541
1305031793.809469 0.0127054 0.199447 -0.0558208 -0.0725649 0.332513 0.402053 0.850014
1305031793.844756 0.0127054 0.199447 -0.0558208 -0.0725649 0.332513 0.402053 0.850014
1305031793.876455 0.00584894 0.198957 -0.0442845 -0.0795342 0.334389 0.412086 0.843826
1305031793.908753 0.000296539 0.199195 -0.0341271 -0.0852584 0.336728 0.421315 0.837758
1305031793.946431 -0.00371397 0.197413 -0.023675 -0.0908877 0.338364 0.430938 0.83159
1305031793.976745 -0.00371397 0.197413 -0.023675 -0.0908877 0.338364 0.430938 0.83159
1305031794.009162 -0.00254658 0.202156 -0.0242945 -0.0955138 0.337498 0.435682 0.828947
1305031794.044747 -0.00254658 0.202156 -0.0242945 -0.0955138 0.337498 0.435682 0.828947
1305031794.076455 -0.00254658 0.202156 -0.0242945 -0.0955138 0.337498 0.435682 0.828947
1305031794.112475 -0.00254658 0.202156 -0.0242945 -0.0955138 0.337498 0.435682 0.828947
1305031794.145599 0.00202435 0.198632 -0.0255431 -0.0962853 0.337097 0.438013 0.827792
1305031794.177734 0.00400201 0.193321 -0.0262605 -0.0946949 0.338954 0.439767 0.826286
1305031794.213866 0.00564357 0.18517 -0.0258806 -0.0915932 0.342439 0.439086 0.82556
1305031794.245539 0.00462931 0.174986 -0.025707 -0.0863696 0.348824 0.438816 0.823591
1305031794.277346 0.00462931 0.174986 -0.025707 -0.0863696 0.348824 0.438816 0.823591
1305031794.313708 0.00792568 0.164356 -0.0286269 -0.0771669 0.356903 0.434662 0.823246
1305031794.345350 0.00956568 0.153876 -0.0339874 -0.0676132 0.364511 0.429635 0.823392
1305031794.377641 0.0108183 0.14244 -0.0410173 -0.0557807 0.372106 0.423425 0.824097
1305031794.414154 0.00994017 0.139547 -0.0483731 -0.0416583 0.380199 0.412816 0.826617
1305031794.445415 0.00996633 0.132804 -0.0548616 -0.0322527 0.386495 0.403833 0.828553
1305031794.477731 0.0133571 0.12155 -0.064511 -0.022459 0.390771 0.39789 0.829746
1305031794.513643 0.0163949 0.114764 -0.0765929 -0.00808043 0.395332 0.393154 0.830107
1305031794.545650 0.0147378 0.107666 -0.084599 0.00535395 0.400649 0.389307 0.829392
1305031794.577340 0.0124616 0.0941604 -0.090502 0.015544 0.408441 0.384428 0.827738
1305031794.613627 0.0168775 0.0834047 -0.103359 0.0270572 0.41686 0.379408 0.825558
1305031794.645569 0.0174428 0.0755707 -0.11359 0.0400429 0.428795 0.373328 0.82168
1305031794.677507 0.0190253 0.0693611 -0.125687 0.0521167 0.44286 0.365153 0.817204
1305031794.713599 0.0173962 0.0688384 -0.13606 0.0650994 0.458767 0.355679 0.811657
1305031794.745368 0.0228238 0.0571262 -0.15458 0.0754848 0.474996 0.348434 0.804534
1305031794.776816 0.0227413 0.0461123 -0.173495 0.0894582 0.496063 0.339607 0.794095
1305031794.813463 0.020649 0.0339903 -0.19092 0.103541 0.518114 0.329209 0.782597
1305031794.846026 0.0147206 0.0302004 -0.205535 0.118609 0.539523 0.315407 0.771599
1305031794.873764 0.0106062 0.0245755 -0.221253 0.133251 0.559242 0.302461 0.76027
1305031794.910108 0.00615393 0.0136797 -0.239047 0.148015 0.577184 0.290031 0.748887
1305031794.945596 0.000313548 0.00596986 -0.253507 0.162655 0.592809 0.277556 0.738298
1305031794.977250 -0.00587791 0.00244057 -0.270811 0.174972 0.605748 0.266183 0.72911
1305031795.013538 -0.0155742 0.00141799 -0.276871 0.186347 0.618275 0.256348 0.719233
1305031795.045683 -0.0215276 -0.0043333 -0.288498 0.194783 0.626692 0.251415 0.711412
1305031795.077205 -0.0275717 -0.00695224 -0.300088 0.200601 0.633323 0.248951 0.704759
1305031795.113230 -0.0313289 -0.0128979 -0.301459 0.206848 0.642507 0.245324 0.695856
1305031795.145139 -0.0381722 -0.0241931 -0.310045 0.220856 0.652856 0.238185 0.684302
1305031795.177574 -0.045712 -0.0313583 -0.318126 0.23309 0.663475 0.229139 0.673027
1305031795.213517 -0.0534501 -0.0380301 -0.326278 0.244272 0.671921 0.224849 0.662039
1305031795.245440 -0.0609747 -0.045672 -0.33973 0.255991 0.677928 0.221415 0.652577
1305031795.277594 -0.0685282 -0.0564312 -0.350147 0.26593 0.683973 0.216469 0.643898
1305031795.312820 -0.0768663 -0.065741 -0.364431 0.273162 0.69023 0.211106 0.635924
1305031795.345404 -0.0835247 -0.0708896 -0.375953 0.279457 0.697718 0.204339 0.627168
1305031795.381033 -0.0916781 -0.0776503 -0.389101 0.283081 0.707439 0.195397 0.617426
1305031795.413248 -0.0978963 -0.0775092 -0.394333 0.285837 0.720172 0.185635 0.604308
1305031795.444944 -0.101776 -0.0744471 -0.394697 0.289956 0.731725 0.181443 0.589561
1305031795.480855 -0.103855 -0.069714 -0.394461 0.294771 0.740993 0.179966 0.575893
1305031795.509058 -0.104841 -0.06393 -0.391713 0.299192 0.749711 0.177675 0.562894
1305031795.543822 -0.104841 -0.06393 -0.391713 0.299192 0.749711 0.177675 0.562894
1305031795.580571 -0.105294 -0.0563039 -0.386452 0.302932 0.756738 0.174984 0.552232
1305031795.612694 -0.108528 -0.0575779 -0.393068 0.301838 0.763816 0.170746 0.544357
1305031795.644499 -0.109996 -0.0561691 -0.397124 0.301037 0.771467 0.165285 0.535627
1305031795.680455 -0.110269 -0.0584836 -0.397889 0.30297 0.778912 0.160621 0.525078
1305031795.713145 -0.110618 -0.0562859 -0.395847 0.304682 0.784548 0.157842 0.516468
1305031795.745356 -0.106718 -0.0539631 -0.392682 0.301956 0.789068 0.158752 0.510873
1305031795.781187 -0.103705 -0.0502774 -0.394248 0.293321 0.79499 0.161105 0.505964
1305031795.812774 -0.100837 -0.0442533 -0.392216 0.28682 0.799843 0.168713 0.499521
1305031795.844570 -0.0921159 -0.030763 -0.382868 0.284516 0.802475 0.179519 0.492806
1305031795.880527 -0.0861225 -0.0286192 -0.388113 0.277197 0.802161 0.194539 0.491787
1305031795.909127 -0.0775176 -0.0161946 -0.385657 0.270929 0.801073 0.208482 0.491341
1305031795.944316 -0.065943 -0.0111298 -0.378632 0.263821 0.800254 0.22163 0.490788
1305031795.980897 -0.0558825 0.00136861 -0.369411 0.255764 0.799304 0.235534 0.490123
1305031796.012654 -0.0477911 0.0131203 -0.36632 0.244419 0.799106 0.248516 0.489825
1305031796.045068 -0.0366145 0.0185413 -0.361992 0.235451 0.798144 0.263496 0.487954
1305031796.081241 -0.0243474 0.0333256 -0.344688 0.225758 0.797355 0.276723 0.4865
1305031796.113736 -0.0181998 0.0533379 -0.334198 0.219076 0.794096 0.292086 0.485904
1305031796.145545 -0.00890429 0.0609643 -0.32868 0.211034 0.790591 0.309012 0.484709
1305031796.179196 -0.00351496 0.0752833 -0.322156 0.205756 0.787485 0.323642 0.48248
1305031796.212249 -0.000471079 0.0905018 -0.315707 0.200081 0.784207 0.33856 0.479963
1305031796.244465 0.00308324 0.100271 -0.311335 0.1918 0.782155 0.352287 0.476802
1305031796.280467 0.00345778 0.113874 -0.306009 0.186989 0.781324 0.364294 0.471018
1305031796.312376 0.0040915 0.127145 -0.296737 0.182447 0.779763 0.376821 0.465498
1305031796.342290 0.00410931 0.139863 -0.288617 0.176978 0.776652 0.390605 0.46143
1305031796.380122 0.00448732 0.146764 -0.283914 0.171725 0.772886 0.404446 0.457801
1305031796.411800 0.00516991 0.155798 -0.274141 0.16607 0.769864 0.416666 0.454004
1305031796.444268 0.00479689 0.16381 -0.266089 0.159539 0.765012 0.431524 0.450656
1305031796.481198 0.00413098 0.169921 -0.258813 0.153793 0.760787 0.443527 0.448146
1305031796.512896 0.00257217 0.179507 -0.247637 0.147776 0.758365 0.45184 0.445966
1305031796.544633 0.0011322 0.189106 -0.233405 0.140246 0.755462 0.462455 0.442428
1305031796.581150 -0.00161611 0.197101 -0.225089 0.133694 0.751174 0.474004 0.439526
1305031796.613198 -0.00380431 0.20637 -0.215197 0.129007 0.746213 0.485451 0.436876
1305031796.649045 -0.00567446 0.215207 -0.206997 0.123591 0.738274 0.498775 0.436921
1305031796.679446 -0.00780875 0.222829 -0.20076 0.117687 0.729263 0.512319 0.438012
1305031796.712815 -0.00926037 0.229508 -0.193726 0.112577 0.721509 0.524671 0.437574
1305031796.749489 -0.0122151 0.237636 -0.186534 0.108679 0.714588 0.535998 0.436187
1305031796.781421 -0.015688 0.247464 -0.179428 0.10403 0.707464 0.546518 0.435878
1305031796.813561 -0.0190381 0.256347 -0.171499 0.100341 0.699569 0.558328 0.434518
1305031796.849638 -0.022171 0.264552 -0.16777 0.0981602 0.691297 0.56973 0.433452
1305031796.877643 -0.0264819 0.27312 -0.158375 0.0961919 0.684066 0.579003 0.433078
1305031796.913380 -0.0318551 0.283173 -0.15055 0.0925445 0.674746 0.589725 0.434024
1305031796.949604 -0.0350968 0.290322 -0.146883 0.0893768 0.66496 0.601402 0.433768
1305031796.980992 -0.0407113 0.298622 -0.138465 0.0866166 0.657562 0.609343 0.434525
1305031797.013555 -0.046118 0.30589 -0.131515 0.0825445 0.649833 0.618025 0.434682
1305031797.049352 -0.0517382 0.311926 -0.123957 0.0779834 0.644166 0.625362 0.433464
1305031797.081428 -0.0568138 0.317078 -0.116474 0.0723262 0.639089 0.631981 0.432358
1305031797.112264 -0.0623877 0.322157 -0.109731 0.067247 0.634018 0.638608 0.430905
1305031797.149559 -0.0678999 0.32745 -0.105555 0.0632477 0.627835 0.646773 0.428379
1305031797.181442 -0.0746142 0.333144 -0.100491 0.0620481 0.621308 0.655365 0.424998
1305031797.213717 -0.0815858 0.33908 -0.0966202 0.0619351 0.614363 0.663946 0.42178
1305031797.249736 -0.0874843 0.344503 -0.0939257 0.0618868 0.605711 0.673008 0.419935
1305031797.281280 -0.0942453 0.35001 -0.0918357 0.0617818 0.596094 0.681941 0.419299
1305031797.313591 -0.10179 0.354276 -0.0885801 0.061984 0.588388 0.688198 0.41993
1305031797.349653 -0.110382 0.359969 -0.0867718 0.0601126 0.582139 0.692626 0.421628
1305031797.381725 -0.117394 0.364469 -0.0838875 0.0588674 0.577543 0.697121 0.420716
1305031797.413444 -0.122651 0.36762 -0.0828407 0.0587767 0.572879 0.702911 0.417457
1305031797.449459 -0.127939 0.37067 -0.0818941 0.0592504 0.56963 0.706586 0.41563
1305031797.481250 -0.132016 0.373026 -0.0825023 0.0605562 0.566999 0.710029 0.413164
1305031797.511821 -0.135735 0.375415 -0.0841112 0.0625261 0.56514 0.712788 0.410659
1305031797.549595 -0.139702 0.377144 -0.0881879 0.0647626 0.564285 0.71434 0.408786
1305031797.577492 -0.140358 0.376309 -0.0947236 0.0689242 0.567496 0.712829 0.40629
1305031797.613482 -0.141412 0.375594 -0.101553 0.0741594 0.574519 0.708392 0.403248
1305031797.649463 -0.141332 0.373876 -0.109779 0.0802993 0.584541 0.702986 0.397083
1305031797.681494 -0.140609 0.370549 -0.117529 0.087128 0.597116 0.694624 0.391611
1305031797.711478 -0.144062 0.367642 -0.127143 0.090621 0.61113 0.683391 0.388952
1305031797.749330 -0.146584 0.365789 -0.140576 0.0936824 0.6239 0.673974 0.384359
1305031797.781348 -0.15244 0.361883 -0.14835 0.0932974 0.640597 0.659905 0.381386
1305031797.815855 -0.155976 0.357877 -0.158977 0.0920589 0.653893 0.649745 0.376539
1305031797.849306 -0.156982 0.351884 -0.17202 0.0925877 0.666565 0.640035 0.370774
1305031797.877576 -0.159089 0.345385 -0.182994 0.0944894 0.681383 0.628219 0.363496
1305031797.917116 -0.159641 0.338393 -0.19323 0.0978313 0.696381 0.617081 0.353119
1305031797.949871 -0.158636 0.331331 -0.203923 0.101848 0.712262 0.604688 0.34156
1305031797.981971 -0.158128 0.322461 -0.214728 0.105601 0.729084 0.589906 0.330599
1305031798.015269 -0.159557 0.314897 -0.22544 0.110444 0.745711 0.57498 0.317988
1305031798.049495 -0.163159 0.30918 -0.235788 0.115685 0.760729 0.560621 0.305961
1305031798.081417 -0.16413 0.301768 -0.246297 0.120825 0.77408 0.547517 0.293983
1305031798.114860 -0.164979 0.292689 -0.257799 0.124449 0.787786 0.533091 0.282348
1305031798.149092 -0.16658 0.284737 -0.266755 0.128754 0.799977 0.520135 0.270033
1305031798.180856 -0.166057 0.276756 -0.273299 0.133385 0.810433 0.508746 0.258041
1305031798.216938 -0.165807 0.268902 -0.280364 0.135742 0.819106 0.498946 0.248381
1305031798.249843 -0.168676 0.260457 -0.292513 0.136645 0.827718 0.489003 0.238928
1305031798.277285 -0.167633 0.251319 -0.299013 0.137111 0.838221 0.477223 0.225487
1305031798.317008 -0.165467 0.242153 -0.303448 0.137587 0.847951 0.465856 0.212198
1305031798.349326 -0.163139 0.230984 -0.310872 0.138236 0.8566 0.454853 0.200588
1305031798.381412 -0.159566 0.221095 -0.314684 0.138598 0.865176 0.443071 0.1896
1305031798.417238 -0.156408 0.212427 -0.317383 0.137267 0.873562 0.431379 0.178774
1305031798.449066 -0.154441 0.204204 -0.322568 0.137231 0.88133 0.420185 0.166943
1305031798.481517 -0.151048 0.196007 -0.324436 0.139756 0.889163 0.407792 0.153503
1305031798.517491 -0.148919 0.187815 -0.327769 0.140893 0.89701 0.3942 0.141875
1305031798.548782 -0.148779 0.180936 -0.331545 0.140469 0.904155 0.381739 0.130563
1305031798.581190 -0.149209 0.17149 -0.336106 0.141908 0.910499 0.370266 0.117293
1305031798.616969 -0.146875 0.158778 -0.342741 0.144523 0.916159 0.359032 0.104222
1305031798.649387 -0.147168 0.15022 -0.346156 0.146749 0.921048 0.34892 0.0916024
1305031798.681173 -0.140137 0.1417 -0.347663 0.150919 0.925199 0.339697 0.0763873
1305031798.717545 -0.135547 0.136332 -0.346835 0.157263 0.929343 0.32851 0.0605837
1305031798.749417 -0.135258 0.124351 -0.351653 0.162636 0.933007 0.317692 0.0460437
1305031798.780379 -0.134719 0.11386 -0.355173 0.164147 0.937197 0.305779 0.0348699
1305031798.816718 -0.138861 0.0970797 -0.36398 0.162474 0.94135 0.294578 0.0261885
1305031798.848499 -0.138535 0.0829515 -0.368283 0.159728 0.946154 0.281079 0.0165674
1305031798.880461 -0.141798 0.070867 -0.369717 0.157903 0.949878 0.269673 0.00859091
1305031798.916769 -0.142218 0.057008 -0.373051 0.157817 0.953048 0.258439 0.00176818
1305031798.948386 -0.140369 0.0483461 -0.373298 0.154253 0.956245 0.24859 -0.00206398
1305031798.977548 -0.144218 0.0352077 -0.377213 0.152128 0.958594 0.240654 -0.00639745
1305031799.016423 -0.147629 0.0170381 -0.382952 0.150592 0.960802 0.232504 -0.0111121
1305031799.048165 -0.149391 0.00869929 -0.381418 0.145429 0.96371 0.223329 -0.0154098
1305031799.084229 -0.155118 -0.000107298 -0.381595 0.139021 0.96601 0.217003 -0.0201733
1305031799.116275 -0.158969 -0.00634815 -0.379046 0.133617 0.967734 0.212048 -0.0259354
1305031799.148353 -0.157364 -0.00656378 -0.375811 0.128764 0.969364 0.206662 -0.0323248
1305031799.184133 -0.164657 -0.0102474 -0.371435 0.126358 0.970231 0.203293 -0.0368312
1305031799.216330 -0.172116 -0.0144367 -0.368078 0.127876 0.970157 0.201911 -0.0409294
1305031799.248919 -0.178127 -0.0161505 -0.364373 0.127489 0.96987 0.202911 -0.0438842
1305031799.282109 -0.18048 -0.0114831 -0.358872 0.125154 0.96986 0.203517 -0.0478487
1305031799.317052 -0.1898 -0.0133888 -0.354707 0.123231 0.969328 0.206161 -0.0520993
1305031799.345225 -0.192925 -0.00943134 -0.349995 0.120413 0.968846 0.208685 -0.0573538
1305031799.385836 -0.204032 -0.00687266 -0.343472 0.117365 0.968498 0.21094 -0.0611587
1305031799.417030 -0.211014 -0.00891273 -0.340179 0.116954 0.967192 0.215782 -0.065566
1305031799.449416 -0.219345 0.00123631 -0.332698 0.118192 0.965598 0.221564 -0.0675273
1305031799.485270 -0.228564 0.0106881 -0.323522 0.117744 0.963426 0.230957 -0.067866
1305031799.517032 -0.235876 0.0205617 -0.315925 0.115879 0.960849 0.242336 -0.0679349
1305031799.548193 -0.240882 0.03375 -0.306122 0.114184 0.958187 0.253367 -0.0681497
1305031799.581386 -0.240188 0.0402749 -0.300065 0.113137 0.954554 0.266778 -0.0696881
1305031799.617188 -0.242146 0.0523858 -0.29058 0.113579 0.950701 0.279826 -0.0704572
1305031799.649673 -0.248936 0.0618919 -0.281095 0.114531 0.946777 0.292533 -0.0701472
1305031799.685493 -0.252077 0.0713302 -0.271994 0.115865 0.942625 0.305146 -0.0701398
1305031799.717286 -0.255912 0.0862961 -0.259747 0.116982 0.938207 0.318355 -0.0687996
1305031799.749321 -0.259924 0.100222 -0.248747 0.119119 0.933541 0.331266 -0.067643
1305031799.785018 -0.26425 0.108319 -0.239588 0.12278 0.928524 0.343899 -0.0670911
1305031799.814639 -0.265188 0.123314 -0.225189 0.124684 0.923498 0.356801 -0.0655626
1305031799.849553 -0.267131 0.132266 -0.218807 0.127965 0.917334 0.371461 -0.0643354
1305031799.885163 -0.265698 0.148877 -0.204278 0.131412 0.911852 0.383627 -0.0639251
1305031799.916952 -0.26409 0.163819 -0.1932 0.132709 0.906091 0.396838 -0.0624967
1305031799.949350 -0.263399 0.171325 -0.188425 0.132685 0.899046 0.412573 -0.0624043
1305031799.985260 -0.261318 0.180901 -0.181114 0.135895 0.891852 0.426646 -0.0640765
1305031800.017573 -0.259587 0.191907 -0.174822 0.138549 0.8845 0.440891 -0.0638669
1305031800.049428 -0.257892 0.202958 -0.167353 0.140638 0.87702 0.455068 -0.0630046
1305031800.085033 -0.258009 0.214094 -0.157583 0.143156 0.870022 0.467621 -0.0624342
1305031800.117205 -0.256907 0.226351 -0.146301 0.144169 0.863235 0.479773 -0.0621121
1305031800.149430 -0.2568 0.235931 -0.138106 0.142603 0.855866 0.493237 -0.0622441
1305031800.185401 -0.258446 0.244956 -0.133445 0.141613 0.848449 0.505785 -0.0652807
1305031800.217472 -0.257032 0.256475 -0.123667 0.143036 0.840773 0.517485 -0.069647
1305031800.249376 -0.256354 0.269435 -0.112307 0.146677 0.83171 0.530573 -0.072365
1305031800.285574 -0.253886 0.278467 -0.105828 0.148538 0.821784 0.545211 -0.0731603
1305031800.317706 -0.253749 0.289431 -0.0960639 0.150079 0.812727 0.558138 -0.0737111
1305031800.353570 -0.253001 0.299467 -0.0899421 0.150663 0.803147 0.571448 -0.0755169
1305031800.386128 -0.249933 0.308944 -0.0835855 0.15051 0.793305 0.584658 -0.0786719
1305031800.417282 -0.247135 0.316836 -0.0783977 0.151261 0.783154 0.597441 -0.0827957
1305031800.453754 -0.246574 0.32592 -0.0737151 0.153238 0.772632 0.609951 -0.0867069
1305031800.485575 -0.244342 0.332266 -0.0702032 0.154924 0.762354 0.621737 -0.090876
1305031800.517739 -0.244197 0.339466 -0.0669253 0.158598 0.752341 0.632311 -0.0949377
1305031800.553340 -0.244375 0.345999 -0.0646461 0.162661 0.741998 0.64269 -0.0996515
1305031800.585490 -0.243241 0.351626 -0.0619964 0.165048 0.732595 0.652206 -0.103395
1305031800.617831 -0.242988 0.357167 -0.0588243 0.16602 0.724148 0.660808 -0.10668
1305031800.653624 -0.242405 0.362629 -0.0533351 0.167756 0.716009 0.668664 -0.109895
1305031800.685405 -0.241981 0.367944 -0.0517227 0.170362 0.707433 0.676629 -0.112641
1305031800.713947 -0.238398 0.371335 -0.0505206 0.173289 0.69921 0.683662 -0.116974
1305031800.753166 -0.234563 0.374125 -0.0502394 0.176268 0.691751 0.689695 -0.121374
1305031800.784054 -0.235034 0.377882 -0.0537526 0.17944 0.685452 0.694455 -0.125258
1305031800.816096 -0.236505 0.380268 -0.0594876 0.183242 0.680227 0.697467 -0.131352
1305031800.853919 -0.243178 0.383565 -0.0690226 0.185446 0.679008 0.697043 -0.136711
1305031800.885396 -0.248139 0.384359 -0.0803579 0.186852 0.680639 0.693106 -0.146358
1305031800.917427 -0.247463 0.381836 -0.0846336 0.187204 0.685805 0.685385 -0.157713
1305031800.953700 -0.254404 0.381306 -0.0987611 0.188242 0.691217 0.676921 -0.169001
1305031800.985467 -0.265717 0.380381 -0.114726 0.18644 0.703005 0.662562 -0.178982
1305031801.017256 -0.269504 0.373663 -0.120339 0.182008 0.717371 0.645079 -0.190066
1305031801.053202 -0.276341 0.370816 -0.125351 0.179247 0.730125 0.626881 -0.204473
1305031801.085709 -0.28261 0.363565 -0.13755 0.172592 0.743086 0.608807 -0.217689
1305031801.117929 -0.287954 0.358456 -0.142154 0.164586 0.75624 0.590788 -0.227996
1305031801.149557 -0.294752 0.35099 -0.151628 0.15396 0.767507 0.574824 -0.238342
1305031801.183875 -0.303894 0.33981 -0.165511 0.142976 0.77867 0.557486 -0.249882
1305031801.213176 -0.31064 0.329367 -0.175206 0.132895 0.790075 0.537978 -0.262108
1305031801.253746 -0.322515 0.316531 -0.18595 0.124689 0.799844 0.520167 -0.272265
1305031801.285341 -0.321564 0.305071 -0.198434 0.116808 0.808309 0.503406 -0.282091
1305031801.318014 -0.329358 0.292982 -0.206978 0.109634 0.817062 0.487318 -0.287944
1305031801.353094 -0.338374 0.278605 -0.21624 0.103713 0.824331 0.472557 -0.29396
1305031801.385194 -0.342183 0.264385 -0.227625 0.096421 0.830354 0.459235 -0.30053
1305031801.417407 -0.34494 0.247062 -0.24337 0.0896918 0.834964 0.448498 -0.306007
1305031801.453727 -0.350423 0.233603 -0.250233 0.085252 0.840456 0.436386 -0.30973
1305031801.485350 -0.351698 0.220646 -0.259313 0.0810332 0.845263 0.424445 -0.314342
1305031801.521131 -0.355383 0.204971 -0.271651 0.0768869 0.850058 0.41302 -0.317654
1305031801.550374 -0.360137 0.196563 -0.273046 0.0745455 0.856377 0.399199 -0.318907
1305031801.585137 -0.363782 0.188583 -0.276078 0.0699471 0.862674 0.385816 -0.319447
1305031801.621227 -0.366551 0.180361 -0.279306 0.0665324 0.868632 0.371505 -0.320992
1305031801.653135 -0.368481 0.169733 -0.285049 0.0632497 0.874385 0.356165 -0.323415
1305031801.685234 -0.370023 0.15793 -0.290944 0.0587857 0.880411 0.339225 -0.326109
1305031801.721833 -0.371741 0.147931 -0.293993 0.0515247 0.886791 0.321698 -0.327806
1305031801.752492 -0.374166 0.136511 -0.297794 0.0454923 0.892548 0.304236 -0.329741
1305031801.785189 -0.375593 0.120359 -0.304729 0.0387699 0.897355 0.289011 -0.331247
1305031801.821431 -0.378739 0.107995 -0.307567 0.0296536 0.901386 0.27563 -0.332644
1305031801.851024 -0.382945 0.0969373 -0.309019 0.0228816 0.90484 0.261217 -0.335419
1305031801.885594 -0.386789 0.0839592 -0.311621 0.0175364 0.908245 0.245991 -0.338042
1305031801.921490 -0.387888 0.077119 -0.314131 0.0126074 0.911228 0.231348 -0.340561
1305031801.953537 -0.390355 0.0706731 -0.312619 0.00896196 0.914227 0.219599 -0.340419
1305031801.985210 -0.394983 0.0648813 -0.311399 0.0070202 0.917186 0.209446 -0.3389
1305031802.019644 -0.400097 0.0527693 -0.312884 0.00779663 0.919154 0.200699 -0.338843
1305031802.053402 -0.403546 0.044504 -0.314555 0.00751708 0.920787 0.190793 -0.340138
1305031802.085036 -0.409993 0.0348024 -0.313974 0.00438468 0.921874 0.181883 -0.342123
1305031802.121342 -0.417767 0.0236777 -0.313113 -0.000350181 0.922779 0.171006 -0.345305
1305031802.153506 -0.422698 0.0160387 -0.312154 -0.00816942 0.92282 0.15963 -0.350507
1305031802.184646 -0.425739 0.0132956 -0.309706 -0.0140297 0.921666 0.149815 -0.357618
1305031802.219780 -0.431432 0.00831066 -0.306164 -0.0184551 0.919728 0.145491 -0.364132
1305031802.253201 -0.438737 0.00605338 -0.299702 -0.0221364 0.917456 0.143121 -0.370542
1305031802.285410 -0.4461 0.00550045 -0.29084 -0.0224054 0.914809 0.142197 -0.377363
1305031802.321392 -0.450289 0.0102704 -0.284352 -0.0219104 0.912045 0.143091 -0.383691
1305031802.353673 -0.453823 0.0131025 -0.280057 -0.022369 0.909284 0.147446 -0.388538
1305031802.385256 -0.459125 0.0120532 -0.275699 -0.0242807 0.90662 0.152013 -0.392864
1305031802.421381 -0.463546 0.0144786 -0.26936 -0.0264731 0.904102 0.153882 -0.397768
1305031802.449815 -0.466696 0.0172601 -0.265294 -0.0274545 0.901062 0.158191 -0.402877
1305031802.485366 -0.468957 0.0236312 -0.260549 -0.0283154 0.898391 0.162648 -0.406986
1305031802.521559 -0.470858 0.0236081 -0.259714 -0.0276834 0.895569 0.168926 -0.410675
1305031802.553684 -0.474524 0.0323626 -0.253074 -0.0271974 0.892444 0.178367 -0.413508
1305031802.585533 -0.477284 0.0376851 -0.249147 -0.0264314 0.88769 0.192812 -0.417289
1305031802.621150 -0.479633 0.0497219 -0.239464 -0.0253462 0.882643 0.207101 -0.421198
1305031802.651432 -0.479436 0.061411 -0.236217 -0.0226024 0.874497 0.22732 -0.427866
1305031802.685539 -0.480801 0.0767255 -0.226206 -0.016094 0.866029 0.247693 -0.434031
1305031802.721583 -0.481526 0.0917996 -0.217997 -0.00768936 0.85816 0.267277 -0.438252
1305031802.751226 -0.481983 0.106362 -0.210908 -0.00168423 0.850138 0.287243 -0.441309
1305031802.789007 -0.483938 0.122667 -0.201263 0.00576561 0.841529 0.306726 -0.444652
1305031802.821805 -0.485304 0.145069 -0.189285 0.0122765 0.832584 0.322563 -0.450119
1305031802.853857 -0.482347 0.163425 -0.181108 0.020262 0.822382 0.335719 -0.458879
1305031802.890975 -0.482617 0.1797 -0.170053 0.0285141 0.812402 0.348269 -0.466797
1305031802.921571 -0.483079 0.190538 -0.162854 0.0350464 0.802925 0.360818 -0.473174
1305031802.954186 -0.479195 0.208036 -0.15289 0.0399125 0.79377 0.370538 -0.480664
1305031802.989730 -0.475524 0.222503 -0.147046 0.0441737 0.783788 0.378892 -0.490067
1305031803.021911 -0.474299 0.232194 -0.140528 0.0478893 0.773194 0.387726 -0.499547
1305031803.053859 -0.475653 0.243097 -0.129662 -0.0514664 -0.762367 -0.396725 0.508683
1305031803.089624 -0.472079 0.254669 -0.123099 -0.0554063 -0.751586 -0.403523 0.518862
1305031803.122288 -0.465712 0.268474 -0.111643 -0.0599155 -0.741389 -0.409091 0.528581
1305031803.153738 -0.463737 0.277124 -0.100621 -0.0655493 -0.730673 -0.41662 0.536887
1305031803.189456 -0.463251 0.282467 -0.0924531 -0.0734845 -0.720189 -0.422408 0.545435
1305031803.222097 -0.462536 0.287709 -0.0819023 -0.0811395 -0.710463 -0.427418 0.553148
1305031803.253833 -0.457896 0.295017 -0.0724309 -0.0867208 -0.700176 -0.434154 0.560128
1305031803.289513 -0.455576 0.299755 -0.0644557 -0.0934223 -0.689811 -0.440163 0.567177
1305031803.317616 -0.451364 0.306019 -0.05817 -0.0995296 -0.679512 -0.445649 0.574243
1305031803.353839 -0.448343 0.312896 -0.0510881 -0.105336 -0.669714 -0.45192 0.57979
1305031803.393279 -0.444221 0.31981 -0.0455827 -0.111426 -0.659756 -0.45838 0.584973
1305031803.421427 -0.440172 0.324092 -0.0396785 -0.118408 -0.650853 -0.462777 0.590091
1305031803.449958 -0.435975 0.327477 -0.0321196 -0.123621 -0.643532 -0.466517 0.594093
1305031803.489758 -0.431435 0.331616 -0.025532 -0.127885 -0.635837 -0.470877 0.598024
1305031803.517807 -0.427328 0.335316 -0.0197431 -0.133356 -0.627742 -0.474293 0.602662
1305031803.553175 -0.422397 0.338285 -0.0133619 -0.138684 -0.621008 -0.476759 0.606479
1305031803.588621 -0.417701 0.341451 -0.00706694 -0.144617 -0.615011 -0.478369 0.609927
1305031803.617801 -0.414154 0.343879 -0.00113908 -0.150964 -0.609877 -0.481188 0.611325
1305031803.654299 -0.410361 0.34746 0.00543429 -0.155466 -0.60527 -0.486268 0.610755
1305031803.686328 -0.409066 0.348806 0.0126282 -0.160142 -0.599977 -0.491889 0.610268
1305031803.721631 -0.406543 0.350106 0.0189031 -0.16609 -0.593057 -0.496842 0.611429
1305031803.754202 -0.401882 0.353954 0.0250311 -0.174044 -0.586552 -0.502086 0.611208
1305031803.789665 -0.401182 0.354305 0.0327486 -0.185103 -0.580297 -0.509897 0.607451
1305031803.822228 -0.397246 0.355559 0.0400078 -0.194136 -0.574993 -0.515467 0.60497
1305031803.854272 -0.393001 0.358384 0.0478338 -0.202548 -0.569525 -0.523694 0.6003
1305031803.894274 -0.386899 0.361079 0.0563142 -0.209325 -0.563572 -0.533076 0.595315
1305031803.922306 -0.38224 0.362769 0.0639101 -0.216357 -0.557116 -0.540997 0.591721
1305031803.953878 -0.375603 0.365865 0.0713089 -0.223747 -0.550231 -0.548152 0.588823
1305031803.986986 -0.367672 0.36676 0.0824114 -0.232294 -0.54437 -0.555816 0.583755
1305031804.021991 -0.359168 0.370542 0.0920859 -0.240541 -0.539294 -0.561131 0.580029
1305031804.057867 -0.349745 0.373387 0.103176 -0.248936 -0.533889 -0.565351 0.577384
1305031804.090568 -0.341948 0.37649 0.111879 -0.256417 -0.527959 -0.570534 0.574457
1305031804.121807 -0.336615 0.378645 0.119968 -0.262358 -0.522691 -0.576182 0.570944
1305031804.159547 -0.331464 0.380036 0.127431 -0.26862 -0.517105 -0.579241 0.570022
1305031804.190025 -0.327363 0.381133 0.135457 -0.27427 -0.513112 -0.582079 0.568046
1305031804.221943 -0.32413 0.381163 0.141872 -0.278811 -0.510282 -0.582381 0.568075
1305031804.257543 -0.324523 0.380245 0.146204 -0.281081 -0.509431 -0.581524 0.568598
1305031804.289105 -0.328679 0.378596 0.146429 -0.282199 -0.508617 -0.579393 0.570943
1305031804.322186 -0.333983 0.375099 0.146021 -0.281026 -0.510814 -0.575093 0.5739
1305031804.357487 -0.34148 0.370048 0.144787 -0.27701 -0.516126 -0.569237 0.576931
1305031804.388583 -0.349919 0.362927 0.142099 -0.270756 -0.521909 -0.561073 0.582665
1305031804.420347 -0.362557 0.349721 0.143549 -0.262921 -0.530148 -0.55381 0.585756
1305031804.458421 -0.374965 0.337224 0.141721 -0.253917 -0.538079 -0.543077 0.592507
1305031804.488618 -0.38391 0.323461 0.138491 -0.241027 -0.54646 -0.532186 0.600054
1305031804.520334 -0.39028 0.310198 0.136844 -0.229352 -0.554602 -0.520393 0.607458
1305031804.553325 -0.401377 0.293743 0.130871 -0.218289 -0.561467 -0.509336 0.614558
1305031804.588603 -0.407786 0.279564 0.126139 -0.204561 -0.569377 -0.497556 0.621613
1305031804.620878 -0.416173 0.265384 0.11902 -0.191333 -0.575285 -0.485617 0.629774
1305031804.657048 -0.420443 0.254298 0.1119 -0.175757 -0.581403 -0.474137 0.637396
1305031804.689811 -0.424427 0.241409 0.106919 -0.159186 -0.587545 -0.465381 0.64255
1305031804.721742 -0.42975 0.226093 0.101954 -0.142556 -0.593139 -0.455999 0.648019
1305031804.761864 -0.435438 0.21033 0.0955738 -0.1241 -0.598447 -0.44504 0.654523
1305031804.794542 -0.439879 0.196756 0.0870653 -0.102684 -0.60332 -0.433527 0.661449
1305031804.822160 -0.443618 0.18176 0.0799899 -0.0796498 -0.608917 -0.421551 0.667212
1305031804.857799 -0.45021 0.167624 0.0685231 -0.0568769 -0.612318 -0.407595 0.675054
1305031804.889635 -0.455403 0.156608 0.0560969 -0.0320085 -0.615722 -0.391152 0.683273
1305031804.921987 -0.460862 0.143535 0.048938 -0.0114382 -0.619646 -0.374274 0.689802
1305031804.958018 -0.465262 0.134987 0.0368889 0.00538386 -0.621499 -0.360722 0.695406
1305031804.989454 -0.470655 0.125146 0.0249493 0.0194573 -0.623536 -0.347678 0.699961
1305031805.021251 -0.475157 0.114783 0.0102233 0.0307668 -0.625037 -0.33336 0.705162
1305031805.053799 -0.476851 0.108898 -0.0013568 0.0414585 -0.626249 -0.317819 0.710693
1305031805.088981 -0.481238 0.100481 -0.0159381 0.0505244 -0.626873 -0.303904 0.715625
1305031805.120822 -0.487218 0.0901154 -0.0254941 0.0575735 -0.628992 -0.290151 0.718935
1305031805.156816 -0.490889 0.0820802 -0.0364351 0.0641067 -0.63094 -0.277195 0.721781
1305031805.188114 -0.492344 0.0765391 -0.0440515 0.0708891 -0.632369 -0.267739 0.723464
1305031805.224830 -0.496987 0.0696096 -0.0547504 0.0786007 -0.632781 -0.260044 0.725112
1305031805.256506 -0.496599 0.0664107 -0.064006 0.0865473 -0.632523 -0.25181 0.727335
1305031805.288719 -0.498473 0.0595689 -0.0743199 0.0926793 -0.63226 -0.243429 0.729657
1305031805.324692 -0.503992 0.0476388 -0.0869594 0.10056 -0.630766 -0.237537 0.731846
1305031805.360488 -0.506238 0.0389245 -0.0981312 0.113278 -0.627473 -0.230826 0.73496
1305031805.392685 -0.507807 0.0235816 -0.107705 0.126168 -0.625166 -0.221426 0.737712
1305031805.426082 -0.50898 0.0200482 -0.12073 0.140036 -0.622264 -0.209222 0.741217
1305031805.455941 -0.509576 0.0055497 -0.136546 0.15367 -0.619774 -0.199429 0.743299
1305031805.488250 -0.512484 0.00970496 -0.154121 0.172836 -0.614549 -0.191664 0.745467
1305031805.524339 -0.513383 -0.000519733 -0.171404 0.19123 -0.609755 -0.184183 0.746797
1305031805.555936 -0.513383 -0.000519733 -0.171404 0.19123 -0.609755 -0.184183 0.746797
1305031805.587800 -0.513383 -0.000519733 -0.171404 0.19123 -0.609755 -0.184183 0.746797
1305031805.626288 -0.513383 -0.000519733 -0.171404 0.19123 -0.609755 -0.184183 0.746797
1305031805.653600 -0.513383 -0.000519733 -0.171404 0.19123 -0.609755 -0.184183 0.746797
1305031805.688826 -0.513383 -0.000519733 -0.171404 0.19123 -0.609755 -0.184183 0.746797
1305031805.724499 -0.511337 -0.0167658 -0.161819 0.189188 -0.608712 -0.181632 0.74879
1305031805.756662 -0.508716 -0.0296395 -0.152293 0.182471 -0.606544 -0.184096 0.75161
1305031805.788800 -0.508716 -0.0296395 -0.152293 0.182471 -0.606544 -0.184096 0.75161
1305031805.825010 -0.508716 -0.0296395 -0.152293 0.182471 -0.606544 -0.184096 0.75161
1305031805.856722 -0.504085 -0.018632 -0.123985 0.160834 -0.602139 -0.196053 0.75705
1305031805.888558 -0.504784 -0.013358 -0.113251 0.140362 -0.597509 -0.206123 0.762099
1305031805.924334 -0.503743 -0.0104292 -0.103088 0.121659 -0.592598 -0.215579 0.76652
1305031805.956398 -0.504025 -0.00537995 -0.0887716 0.104785 -0.587791 -0.223758 0.77036
1305031805.990628 -0.501374 -0.00159287 -0.0751295 0.0891002 -0.58333 -0.231131 0.773541
1305031806.026273 -0.496484 -0.000911247 -0.0610317 0.0747319 -0.577504 -0.23874 0.777115
1305031806.056329 -0.492177 0.000384371 -0.0434526 0.0630146 -0.570621 -0.245663 0.78107
1305031806.091003 -0.490894 -1.27193e-05 -0.0328137 0.052956 -0.56239 -0.25188 0.785792
1305031806.126194 -0.485252 0.00545294 -0.0160375 0.0453043 -0.55453 -0.259593 0.789339
1305031806.160305 -0.479616 0.0108351 0.00070721 0.0353366 -0.546928 -0.265197 0.793279
1305031806.186461 -0.473598 0.0194874 0.0145885 0.0247727 -0.538725 -0.271614 0.797112
1305031806.226737 -0.46905 0.0279059 0.0259238 0.0110877 -0.529656 -0.279578 0.800736
1305031806.256407 -0.464781 0.0324849 0.0397807 -0.00144835 -0.521899 -0.288122 0.802873
1305031806.292064 -0.458511 0.0391369 0.0541036 -0.0121762 -0.513789 -0.296996 0.804777
1305031806.324430 -0.453533 0.0434268 0.0683961 -0.0264614 -0.505286 -0.302694 0.807689
1305031806.356698 -0.450628 0.051182 0.0790291 -0.0398304 -0.496905 -0.308188 0.810259
1305031806.388772 -0.442654 0.0593065 0.0933037 -0.0540149 -0.490406 -0.313692 0.811284
1305031806.428086 -0.437649 0.0662274 0.104576 -0.0698907 -0.483209 -0.318229 0.812622
1305031806.458170 -0.436124 0.0710653 0.113253 -0.0828209 -0.476152 -0.320896 0.814522
1305031806.493660 -0.427953 0.0784804 0.125126 -0.0893509 -0.470066 -0.326511 0.815135
1305031806.531887 -0.421068 0.0860205 0.135925 -0.096805 -0.460603 -0.331231 0.817777
1305031806.556751 -0.412528 0.0943404 0.146292 -0.106657 -0.451869 -0.332572 0.820874
1305031806.594170 -0.403563 0.103252 0.157379 -0.117939 -0.444316 -0.337429 0.821471
1305031806.625910 -0.399578 0.108742 0.166162 -0.130844 -0.43508 -0.344202 0.821651
1305031806.660594 -0.394338 0.113895 0.174872 -0.143117 -0.426072 -0.347493 0.822939
1305031806.695601 -0.389802 0.119578 0.182307 -0.156807 -0.416667 -0.347893 0.825088
1305031806.725479 -0.384566 0.124295 0.189654 -0.171141 -0.409821 -0.348149 0.82556
1305031806.757877 -0.380728 0.129837 0.195148 -0.185764 -0.403478 -0.347246 0.825904
1305031806.793755 -0.376584 0.134827 0.200015 -0.199153 -0.398644 -0.347141 0.825175
1305031806.821694 -0.372882 0.140053 0.204318 -0.209993 -0.392794 -0.348044 0.824913
1305031806.857332 -0.367596 0.145976 0.20937 -0.218877 -0.385522 -0.349982 0.825214
1305031806.893667 -0.363899 0.151847 0.213257 -0.228596 -0.377183 -0.351952 0.825595
1305031806.925528 -0.360087 0.157386 0.216728 -0.238075 -0.369824 -0.352353 0.826074
1305031806.957342 -0.356655 0.163624 0.219417 -0.24909 -0.362709 -0.351381 0.826394
1305031806.994718 -0.353562 0.169228 0.222013 -0.259117 -0.356453 -0.35085 0.826259
1305031807.025349 -0.350869 0.173451 0.22464 -0.267558 -0.349819 -0.350556 0.826528
1305031807.057482 -0.347663 0.177354 0.227302 -0.274754 -0.342873 -0.349034 0.827722
1305031807.094797 -0.345356 0.181422 0.228281 -0.281422 -0.336101 -0.346959 0.82913
1305031807.125639 -0.344503 0.185553 0.228483 -0.286396 -0.329938 -0.345135 0.830663
1305031807.158021 -0.345702 0.189477 0.226956 -0.289811 -0.322814 -0.341587 0.833738
1305031807.193815 -0.346617 0.191816 0.226349 -0.291634 -0.316584 -0.337322 0.837221
1305031807.226069 -0.348484 0.193713 0.225194 -0.292132 -0.310509 -0.332904 0.841082
1305031807.258189 -0.352551 0.194042 0.223824 -0.291747 -0.303566 -0.328094 0.845627
1305031807.294600 -0.357275 0.192015 0.223067 -0.289449 -0.296975 -0.322717 0.850811
1305031807.325779 -0.362662 0.188258 0.2222 -0.285073 -0.289423 -0.315251 0.857662
1305031807.356999 -0.370352 0.181446 0.221291 -0.278883 -0.283234 -0.307072 0.864702
1305031807.394901 -0.375847 0.174581 0.219863 -0.269261 -0.278844 -0.298174 0.87226
1305031807.425389 -0.383367 0.166663 0.218062 -0.259396 -0.27413 -0.28996 0.879482
1305031807.456981 -0.383367 0.166663 0.218062 -0.259396 -0.27413 -0.28996 0.879482
1305031807.493776 -0.383367 0.166663 0.218062 -0.259396 -0.27413 -0.28996 0.879482
1305031807.525569 -0.388886 0.156807 0.216296 -0.228895 -0.271799 -0.280786 0.891567
1305031807.558514 -0.39373 0.149136 0.214456 -0.205198 -0.268613 -0.272636 0.900783
1305031807.593758 -0.399558 0.137958 0.213997 -0.182553 -0.263995 -0.264658 0.909361
1305031807.625726 -0.402611 0.127005 0.212167 -0.157456 -0.259553 -0.258607 0.91704
1305031807.657923 -0.406482 0.117871 0.2089 -0.138044 -0.255228 -0.2534 0.922817
1305031807.695218 -0.413058 0.107417 0.204044 -0.120187 -0.251427 -0.246406 0.928237
1305031807.725763 -0.419798 0.0930183 0.19918 -0.0992948 -0.248893 -0.238974 0.933319
1305031807.763921 -0.422994 0.0831638 0.193642 -0.0794361 -0.245396 -0.230757 0.938201
1305031807.794370 -0.428009 0.0696594 0.18792 -0.06015 -0.242916 -0.222767 0.942204
1305031807.825649 -0.43149 0.0568029 0.181592 -0.0420955 -0.243273 -0.212994 0.945346
1305031807.862767 -0.433834 0.0467946 0.17401 -0.0242119 -0.243669 -0.206452 0.947321
1305031807.895051 -0.436954 0.0357698 0.166982 -0.00810476 -0.242584 -0.201869 0.948861
1305031807.922091 -0.439475 0.0235423 0.160615 0.00732305 -0.241934 -0.195489 0.950367
1305031807.960371 -0.441129 0.012689 0.153353 0.0234278 -0.241955 -0.189609 0.951293
1305031807.990310 -0.443091 0.000765444 0.145534 0.0387847 -0.242823 -0.183622 0.951743
1305031808.025493 -0.443765 -0.0106197 0.137965 0.0533396 -0.244495 -0.175239 0.952191
1305031808.060837 -0.446994 -0.0225202 0.129527 0.0678668 -0.246188 -0.167549 0.952215
1305031808.094509 -0.448226 -0.0350784 0.120586 0.0830269 -0.248873 -0.160471 0.951534
1305031808.124869 -0.446599 -0.0477861 0.113299 0.0990481 -0.252251 -0.155295 0.94997
1305031808.160774 -0.44785 -0.0625486 0.10433 0.114141 -0.254663 -0.148977 0.948643
1305031808.193540 -0.450501 -0.0818824 0.093005 0.131179 -0.257101 -0.145626 0.9463
1305031808.224541 -0.451364 -0.0965801 0.0811949 0.148678 -0.259759 -0.142596 0.943444
1305031808.259528 -0.453575 -0.108781 0.0695868 0.161604 -0.263205 -0.139244 0.94086
1305031808.292602 -0.45657 -0.121874 0.0587111 0.172715 -0.266333 -0.136721 0.938373
1305031808.324524 -0.449872 -0.14348 0.0488189 0.184366 -0.269707 -0.132896 0.935738
1305031808.362374 -0.44816 -0.160468 0.0376494 0.197562 -0.271384 -0.128143 0.93322
1305031808.394090 -0.452226 -0.169985 0.0256262 0.211321 -0.272257 -0.122796 0.930667
1305031808.427040 -0.452611 -0.180674 0.0159091 0.223166 -0.273622 -0.118903 0.928003
1305031808.462622 -0.456509 -0.181725 0.0021046 0.235707 -0.273071 -0.113226 0.925772
1305031808.493893 -0.467112 -0.197747 -0.0233219 0.245443 -0.270464 -0.10545 0.924926
1305031808.524551 -0.47065 -0.219189 -0.0468834 0.253409 -0.269205 -0.0985051 0.92391
1305031808.561866 -0.47325 -0.231435 -0.0635474 0.262448 -0.269511 -0.0928923 0.921876
1305031808.590231 -0.478699 -0.250129 -0.09037 0.270349 -0.267791 -0.0885291 0.920523
1305031808.624717 -0.469182 -0.267263 -0.105758 0.279415 -0.263873 -0.0822409 0.919529
1305031808.661004 -0.461164 -0.276726 -0.11892 0.289204 -0.257373 -0.0755429 0.91892
1305031808.692608 -0.459263 -0.294891 -0.13814 0.296276 -0.249618 -0.0715267 0.919127
1305031808.724581 -0.444271 -0.304395 -0.14641 0.303712 -0.245057 -0.0703245 0.91802
1305031808.761035 -0.440903 -0.296975 -0.145528 0.314301 -0.237117 -0.0690977 0.916633
1305031808.792909 -0.440903 -0.296975 -0.145528 0.314301 -0.237117 -0.0690977 0.916633
1305031808.824645 -0.437128 -0.307025 -0.146534 0.320939 -0.225972 -0.0637923 0.917532
1305031808.860603 -0.427761 -0.319768 -0.152236 0.322334 -0.215115 -0.0621705 0.919761
1305031808.894236 -0.413926 -0.323522 -0.148977 0.320744 -0.205987 -0.0620008 0.922415
1305031808.924712 -0.413926 -0.323522 -0.148977 0.320744 -0.205987 -0.0620008 0.922415
1305031808.960766 -0.413926 -0.323522 -0.148977 0.320744 -0.205987 -0.0620008 0.922415
1305031808.994453 -0.413926 -0.323522 -0.148977 0.320744 -0.205987 -0.0620008 0.922415
1305031809.029773 -0.398854 -0.315121 -0.136623 0.306588 -0.199901 -0.0662781 0.928251
1305031809.063418 -0.38718 -0.30224 -0.123913 0.292069 -0.193301 -0.0695152 0.934076
1305031809.097271 -0.380058 -0.291345 -0.116394 0.278273 -0.184349 -0.0734907 0.939776
1305031809.131663 -0.370221 -0.284577 -0.112147 0.26504 -0.173821 -0.0791237 0.945135
1305031809.161507 -0.362015 -0.276594 -0.104597 0.253109 -0.162454 -0.0807305 0.950278
1305031809.194288 -0.359981 -0.269822 -0.101139 0.239785 -0.151775 -0.0791434 0.955617
1305031809.229538 -0.356355 -0.261154 -0.0940125 0.226435 -0.143117 -0.0782348 0.960273
1305031809.261343 -0.35141 -0.247947 -0.0862796 0.212116 -0.13636 -0.0772139 0.964599
1305031809.294460 -0.345836 -0.238567 -0.0787528 0.195666 -0.129054 -0.0768117 0.969103
1305031809.330064 -0.33413 -0.232306 -0.0701271 0.180947 -0.124231 -0.0756302 0.972679
1305031809.359534 -0.329889 -0.220076 -0.0656686 0.167886 -0.118095 -0.074067 0.975901
1305031809.393838 -0.322328 -0.208942 -0.0604147 0.153652 -0.113373 -0.0734252 0.978849
1305031809.428411 -0.319123 -0.199632 -0.0558248 0.139335 -0.109457 -0.0739991 0.981391
1305031809.462164 -0.316796 -0.190007 -0.0528835 0.127045 -0.106025 -0.0750493 0.983354
1305031809.493873 -0.320344 -0.183096 -0.0507279 0.115154 -0.102348 -0.073653 0.985312
1305031809.530074 -0.323137 -0.173035 -0.0487822 0.104844 -0.0997842 -0.0720642 0.986842
1305031809.563364 -0.323858 -0.164798 -0.0463944 0.0945901 -0.0976569 -0.0729551 0.988025
1305031809.594021 -0.328495 -0.158557 -0.0449824 0.0840805 -0.0935976 -0.0762064 0.989122
1305031809.631035 -0.330676 -0.153015 -0.0435606 0.074747 -0.0891995 -0.0779502 0.990141
1305031809.662949 -0.331879 -0.144121 -0.0423422 0.0672192 -0.0847832 -0.0786487 0.991014
1305031809.693782 -0.332863 -0.135321 -0.0413651 0.0586382 -0.0810886 -0.0789515 0.991843
1305031809.731309 -0.335379 -0.125776 -0.0414662 0.0492486 -0.077049 -0.0786037 0.992703
1305031809.758942 -0.33607 -0.11778 -0.0395898 0.0394813 -0.0740845 -0.0777273 0.993434
1305031809.793369 -0.335854 -0.109985 -0.0376063 0.0292203 -0.0710451 -0.0759919 0.994145
1305031809.830391 -0.336862 -0.100646 -0.0367696 0.0190916 -0.0664808 -0.0728168 0.994944
1305031809.861943 -0.337672 -0.0899841 -0.0361442 0.00918519 -0.0620713 -0.0707999 0.995515
1305031809.895169 -0.337213 -0.0833895 -0.0344408 -0.00214869 -0.0573406 -0.0701041 0.995888
1305031809.929860 -0.336724 -0.0758566 -0.0323664 -0.0120405 -0.0514177 -0.0690661 0.996213
1305031809.963228 -0.336071 -0.0662849 -0.0322581 -0.0216562 -0.0450821 -0.0666184 0.996524
1305031809.994224 -0.334688 -0.0584193 -0.0313366 -0.032205 -0.039694 -0.0653822 0.99655
1305031810.030062 -0.332287 -0.0506739 -0.0300711 -0.0437884 -0.0349217 -0.0639659 0.996379
1305031810.062155 -0.330829 -0.0478453 -0.0291678 -0.0556363 -0.0298005 -0.0626514 0.996038
1305031810.095183 -0.327261 -0.0404453 -0.0295143 -0.0641821 -0.0246011 -0.0595406 0.995857
1305031810.131056 -0.323411 -0.0326061 -0.0304508 -0.0733192 -0.0201316 -0.0563746 0.99551
1305031810.161700 -0.319601 -0.0268452 -0.0307144 -0.0831755 -0.0156286 -0.0563083 0.99482
1305031810.197185 -0.317024 -0.0234926 -0.031762 -0.0929148 -0.009597 -0.0568987 0.994001
1305031810.230520 -0.311593 -0.0171888 -0.0333201 -0.100368 -0.00437453 -0.056598 0.99333
1305031810.262762 -0.306854 -0.0113166 -0.0350376 -0.10973 0.000489288 -0.0570691 0.992322
1305031810.298074 -0.303434 -0.00549009 -0.0382733 -0.121671 0.0048252 -0.0592373 0.99079
1305031810.330937 -0.299437 -0.00248515 -0.0401156 -0.133683 0.00809697 -0.060839 0.989122
1305031810.362897 -0.295645 0.000550388 -0.0421555 -0.143631 0.0118623 -0.0600115 0.987739
1305031810.396861 -0.289112 0.00474378 -0.0444357 -0.15276 0.0151344 -0.0560594 0.986556
1305031810.429920 -0.280807 0.0107176 -0.046482 -0.162243 0.016535 -0.0517539 0.985254
1305031810.461399 -0.273935 0.0155567 -0.0486151 -0.173041 0.0177728 -0.0502151 0.983473
1305031810.496777 -0.266994 0.021074 -0.0508706 -0.185873 0.0198344 -0.0481453 0.981193
1305031810.529947 -0.262568 0.0226867 -0.0519363 -0.198721 0.0238308 -0.0461047 0.978681
1305031810.561970 -0.252256 0.0291537 -0.0552098 -0.206646 0.0271027 -0.0438444 0.977057
1305031810.598116 -0.247362 0.0349959 -0.0580787 -0.215919 0.0326955 -0.0409482 0.975004
1305031810.630327 -0.241404 0.0389502 -0.0600963 -0.223214 0.0369692 -0.037283 0.973354
1305031810.661881 -0.231678 0.0395748 -0.0584362 -0.228294 0.0396481 -0.0343003 0.97218
1305031810.698469 -0.22335 0.0357673 -0.0553766 -0.23093 0.0441329 -0.0291041 0.971533
1305031810.729616 -0.213938 0.0298272 -0.0503723 -0.229583 0.0492087 -0.0243324 0.97174
1305031810.762055 -0.204029 0.0267334 -0.0513161 -0.22349 0.0541379 -0.0205558 0.972985
1305031810.798335 -0.196939 0.0230884 -0.0541972 -0.215845 0.0600329 -0.0169501 0.974433
1305031810.826635 -0.191534 0.0171542 -0.0567019 -0.206122 0.0664678 -0.0140573 0.976165
1305031810.859437 -0.186262 0.0088203 -0.0587662 -0.192882 0.0748649 -0.0118264 0.97829
1305031810.896721 -0.18038 0.00578795 -0.06249 -0.175182 0.0847037 -0.0101375 0.980833
1305031810.931542 -0.177943 0.00153995 -0.0664313 -0.159585 0.0945566 -0.00814743 0.982611
1305031810.962074 -0.172641 -0.00320599 -0.069644 -0.141742 0.102025 -0.00625007 0.984612
1305031810.999156 -0.167623 -0.00790246 -0.073178 -0.11835 0.110111 -0.0031052 0.986843
1305031811.030567 -0.163976 -0.0046582 -0.0794214 -0.0978189 0.117744 0.00268715 0.988211
1305031811.062402 -0.1623 -0.0096433 -0.0834779 -0.0827791 0.123878 0.00552026 0.988823
1305031811.098594 -0.161999 -0.0208928 -0.0885111 -0.0666204 0.129738 0.00633938 0.989287
1305031811.130054 -0.160213 -0.0217553 -0.0961657 -0.0472332 0.135463 0.0111768 0.989593
1305031811.163124 -0.157196 -0.0234945 -0.100375 -0.0342794 0.141498 0.0128401 0.989261
1305031811.196680 -0.156023 -0.0295838 -0.103778 -0.0224138 0.147116 0.0132405 0.988777
1305031811.226245 -0.158236 -0.0374652 -0.107493 -0.00966234 0.153703 0.0133104 0.98798
1305031811.258835 -0.15602 -0.0424979 -0.113012 0.00303995 0.160577 0.0139237 0.98692
1305031811.297420 -0.153536 -0.0515503 -0.119698 0.015877 0.168721 0.0137806 0.98544
1305031811.330119 -0.154804 -0.0625593 -0.126933 0.0310872 0.177322 0.0141819 0.98356
1305031811.362347 -0.156327 -0.0699452 -0.135317 0.0494906 0.186341 0.0149343 0.981124
1305031811.399651 -0.162651 -0.0800865 -0.14239 0.0675246 0.194346 0.0159435 0.978476
1305031811.430784 -0.17362 -0.0875398 -0.14677 0.0879659 0.201726 0.0150851 0.975367
1305031811.466212 -0.180687 -0.094264 -0.153462 0.108176 0.208866 0.0140841 0.971841
1305031811.497813 -0.184484 -0.110058 -0.163087 0.124172 0.216095 0.0148713 0.96833
1305031811.530073 -0.194794 -0.119067 -0.169413 0.138111 0.224765 0.0130535 0.964487
1305031811.566308 -0.204719 -0.12263 -0.175292 0.152529 0.233322 0.0105741 0.960304
1305031811.598269 -0.212883 -0.135983 -0.183095 0.165408 0.240821 0.00814501 0.956336
1305031811.630831 -0.224535 -0.155121 -0.190779 0.179329 0.248747 0.00696637 0.951797
1305031811.663366 -0.240433 -0.173167 -0.194976 0.195497 0.255632 0.00733504 0.946773
1305031811.698740 -0.252249 -0.18271 -0.198703 0.210756 0.259711 0.00861316 0.942368
1305031811.733435 -0.262245 -0.199223 -0.207182 0.224297 0.262758 0.00905548 0.938385
1305031811.765703 -0.269115 -0.20848 -0.216578 0.237936 0.264686 0.00794166 0.934486
1305031811.799543 -0.27999 -0.216839 -0.221468 0.250295 0.267246 0.00969937 0.930504
1305031811.831559 -0.292896 -0.217867 -0.22191 0.264246 0.271068 0.0106705 0.925517
1305031811.866219 -0.301092 -0.226337 -0.229732 0.275757 0.272354 0.0124774 0.921751
1305031811.899601 -0.313857 -0.228672 -0.231336 0.287122 0.274113 0.0132376 0.91774
1305031811.929778 -0.322896 -0.23449 -0.237593 0.298316 0.275361 0.0130669 0.913791
1305031811.965910 -0.328578 -0.244368 -0.249772 0.308183 0.277057 0.0105165 0.910028
1305031811.997697 -0.335769 -0.253427 -0.260332 0.319695 0.279602 0.00857795 0.905287
1305031812.031513 -0.34199 -0.263267 -0.271185 0.330677 0.281366 0.00799028 0.90079
1305031812.067293 -0.348989 -0.269138 -0.278376 0.341014 0.282705 0.00713171 0.896513
1305031812.097226 -0.348654 -0.272344 -0.287179 0.351274 0.283234 0.00425517 0.892394
1305031812.131618 -0.353761 -0.273753 -0.290906 0.362666 0.286372 0.000846773 0.886828
1305031812.165747 -0.361666 -0.283707 -0.302328 0.371988 0.291514 -0.00109007 0.881274
1305031812.194229 -0.370698 -0.291297 -0.309546 0.3815 0.295988 -0.00142962 0.875698
1305031812.230599 -0.378956 -0.299533 -0.320794 0.389095 0.300334 -0.00331008 0.870858
1305031812.262258 -0.383957 -0.300007 -0.323131 0.398983 0.303752 -0.00274062 0.865182
1305031812.295017 -0.391825 -0.308453 -0.329718 0.404053 0.306141 0.000502807 0.861985
1305031812.329535 -0.395867 -0.31375 -0.337673 0.40787 0.30834 0.00124094 0.859399
1305031812.367033 -0.395241 -0.310761 -0.34123 0.413312 0.312432 -0.00134004 0.855311
1305031812.398919 -0.395331 -0.312025 -0.348106 0.419325 0.319706 -0.0031573 0.849673
1305031812.431444 -0.391861 -0.305464 -0.349391 0.427706 0.327635 -0.00644535 0.842426
1305031812.466128 -0.396198 -0.318835 -0.36229 0.425916 0.33527 -0.00631118 0.840327
1305031812.499545 -0.392947 -0.312722 -0.361993 0.422931 0.341643 -0.00830634 0.83925
1305031812.530582 -0.388152 -0.302593 -0.35875 0.417227 0.348454 -0.0108865 0.839275
1305031812.566690 -0.381814 -0.293875 -0.35931 0.409795 0.354967 -0.0115265 0.840199
1305031812.599029 -0.375705 -0.286631 -0.36163 0.40001 0.362109 -0.00864208 0.841899
1305031812.628645 -0.369685 -0.279199 -0.362469 0.387957 0.368758 -0.00636853 0.84467
1305031812.668061 -0.358125 -0.265104 -0.361379 0.378115 0.374249 -0.00299069 0.846734
1305031812.698746 -0.341283 -0.239052 -0.352164 0.366481 0.381539 -0.00282374 0.848594
1305031812.734013 -0.328673 -0.227533 -0.354875 0.352721 0.386175 0.00351489 0.852317
1305031812.767275 -0.318726 -0.212922 -0.351923 0.339995 0.391158 0.00815137 0.85518
1305031812.799489 -0.306179 -0.201128 -0.356865 0.325168 0.393731 0.013957 0.859678
1305031812.834132 -0.296373 -0.186311 -0.35353 0.31098 0.397257 0.0205132 0.863167
1305031812.866016 -0.285679 -0.166965 -0.347419 0.298211 0.399467 0.0269427 0.86647
1305031812.898960 -0.278749 -0.155913 -0.344897 0.284243 0.40219 0.0339475 0.869653
1305031812.934173 -0.272015 -0.147261 -0.346172 0.269792 0.404842 0.0415192 0.872692
1305031812.966151 -0.264958 -0.138597 -0.344935 0.254724 0.408129 0.0493129 0.87528
1305031812.999091 -0.259366 -0.130127 -0.345896 0.239421 0.410125 0.0584899 0.878097
1305031813.034784 -0.248616 -0.112441 -0.346203 0.225797 0.409495 0.0679603 0.881312
1305031813.066289 -0.240238 -0.0935816 -0.343205 0.212284 0.408753 0.0771582 0.884253
1305031813.098588 -0.234295 -0.0756421 -0.341563 0.19839 0.407588 0.0862138 0.887176
1305031813.135262 -0.228201 -0.0650014 -0.343234 0.184048 0.405236 0.0956381 0.890373
1305031813.166033 -0.221317 -0.057214 -0.345329 0.168687 0.401433 0.106009 0.893957
1305031813.196373 -0.215683 -0.0492402 -0.344535 0.152505 0.397809 0.114782 0.897394
1305031813.234674 -0.211092 -0.0369706 -0.343178 0.13911 0.393504 0.123248 0.90034
1305031813.267055 -0.206526 -0.0233867 -0.340768 0.125508 0.388566 0.131784 0.90327
1305031813.299198 -0.203334 -0.00889372 -0.337255 0.112607 0.384307 0.139825 0.905581
1305031813.333908 -0.202461 0.00270186 -0.334276 0.0990278 0.381656 0.146241 0.907274
1305031813.365437 -0.200801 0.0135542 -0.331229 0.0856647 0.38068 0.153002 0.907929
1305031813.398657 -0.198141 0.0267451 -0.330722 0.0727709 0.380221 0.16053 0.907946
1305031813.433247 -0.199141 0.0482817 -0.327673 0.0621393 0.380399 0.166376 0.907609
1305031813.466220 -0.200191 0.067389 -0.325099 0.0490234 0.380028 0.174241 0.907092
1305031813.498088 -0.199804 0.0828419 -0.324149 0.0347873 0.377777 0.182442 0.907077
1305031813.534016 -0.199339 0.0944337 -0.323201 0.0211753 0.375748 0.189931 0.906803
1305031813.566769 -0.198931 0.103231 -0.322435 0.00488267 0.375117 0.19644 0.905911
1305031813.598490 -0.200593 0.112588 -0.32168 -0.00972045 0.375446 0.202196 0.904468
1305031813.631475 -0.202522 0.119561 -0.320141 -0.0231037 0.376028 0.20764 0.902749
1305031813.661752 -0.206858 0.129843 -0.316092 -0.0349176 0.377337 0.212231 0.900753
1305031813.698286 -0.210237 0.136077 -0.312861 -0.0475894 0.37784 0.21759 0.898681
1305031813.730280 -0.215454 0.142594 -0.309765 -0.0593813 0.377363 0.222005 0.897098
1305031813.764797 -0.221434 0.149769 -0.305923 -0.0709025 0.376211 0.226394 0.895647
1305031813.799441 -0.227098 0.155385 -0.301014 -0.0836299 0.374542 0.230443 0.894215
1305031813.833945 -0.23456 0.164842 -0.295742 -0.0957585 0.372442 0.234446 0.892834
1305031813.867772 -0.24024 0.173691 -0.292434 -0.107136 0.369053 0.243071 0.890639
1305031813.899482 -0.247575 0.18345 -0.2832 -0.121301 0.366127 0.25161 0.887654
1305031813.934338 -0.256171 0.193003 -0.274819 -0.135576 0.363086 0.26184 0.883871
1305031813.965926 -0.256171 0.193003 -0.274819 -0.135576 0.363086 0.26184 0.883871
1305031814.003554 -0.256171 0.193003 -0.274819 -0.135576 0.363086 0.26184 0.883871
1305031814.033924 -0.256171 0.193003 -0.274819 -0.135576 0.363086 0.26184 0.883871
1305031814.066026 -0.256171 0.193003 -0.274819 -0.135576 0.363086 0.26184 0.883871
1305031814.102320 -0.264176 0.195697 -0.269427 -0.137753 0.364406 0.27113 0.880182
1305031814.134667 -0.264176 0.195697 -0.269427 -0.137753 0.364406 0.27113 0.880182
1305031814.166052 -0.264176 0.195697 -0.269427 -0.137753 0.364406 0.27113 0.880182
1305031814.202037 -0.264176 0.195697 -0.269427 -0.137753 0.364406 0.27113 0.880182
1305031814.234336 -0.264176 0.195697 -0.269427 -0.137753 0.364406 0.27113 0.880182
1305031814.265980 -0.262154 0.185469 -0.270703 -0.128915 0.370482 0.271289 0.878935
1305031814.302865 -0.262154 0.185469 -0.270703 -0.128915 0.370482 0.271289 0.878935
1305031814.334123 -0.262154 0.185469 -0.270703 -0.128915 0.370482 0.271289 0.878935
1305031814.365916 -0.262534 0.176213 -0.272817 -0.114084 0.381255 0.275683 0.875002
1305031814.402137 -0.265929 0.170186 -0.276828 -0.0959773 0.39376 0.277269 0.871128
1305031814.434097 -0.271322 0.168906 -0.281519 -0.0789188 0.40747 0.279821 0.865702
1305031814.466875 -0.274679 0.16709 -0.290874 -0.0641997 0.419391 0.281664 0.860613
1305031814.503242 -0.275929 0.161697 -0.296523 -0.047867 0.432837 0.283671 0.854337
1305031814.535346 -0.277901 0.157051 -0.302209 -0.0332066 0.447549 0.283094 0.847617
1305031814.567625 -0.280456 0.153715 -0.309018 -0.0189581 0.462916 0.282555 0.839948
1305031814.601706 -0.281272 0.150976 -0.317259 -0.00469696 0.47726 0.280862 0.832657
1305031814.635644 -0.279109 0.144019 -0.328441 0.0131858 0.49083 0.280055 0.824913
1305031814.667643 -0.290886 0.150591 -0.329467 0.0323193 0.509352 0.270966 0.816145
1305031814.702775 -0.293744 0.147636 -0.333001 0.0462201 0.521984 0.267095 0.808738
1305031814.734657 -0.296275 0.141532 -0.338221 0.0605731 0.53326 0.262002 0.802072
1305031814.766015 -0.303389 0.144368 -0.340698 0.0753486 0.544044 0.25368 0.796232
1305031814.801939 -0.306126 0.14035 -0.346403 0.0864668 0.552718 0.25003 0.79026
1305031814.834141 -0.310294 0.138605 -0.350577 0.0966873 0.560647 0.24411 0.785326
1305031814.866927 -0.312749 0.135191 -0.358265 0.104644 0.56803 0.238384 0.780747
1305031814.901856 -0.315688 0.130295 -0.366475 0.11426 0.576969 0.232575 0.774571
1305031814.934189 -0.320993 0.131206 -0.368873 0.124421 0.584834 0.224601 0.769443
1305031814.966026 -0.323893 0.127135 -0.372225 0.132297 0.589975 0.218796 0.765869
1305031815.002785 -0.327856 0.124737 -0.377485 0.141709 0.594385 0.213808 0.762176
1305031815.034070 -0.332409 0.125035 -0.380675 0.150571 0.5994 0.208583 0.757985
1305031815.066249 -0.335527 0.121995 -0.381822 0.158079 0.602839 0.20599 0.754429
1305031815.098276 -0.339278 0.117168 -0.383045 0.165813 0.603957 0.204048 0.752401
1305031815.134087 -0.343571 0.113872 -0.383983 0.174322 0.604221 0.201722 0.750891
1305031815.167703 -0.348017 0.112043 -0.384861 0.181698 0.604418 0.198925 0.749729
1305031815.200200 -0.351395 0.105346 -0.386304 0.18738 0.604964 0.1972 0.748344
1305031815.235479 -0.355295 0.100056 -0.387143 0.193465 0.605489 0.193576 0.747317
1305031815.269898 -0.359461 0.0960205 -0.388093 0.199395 0.606644 0.188183 0.746198
1305031815.303120 -0.364019 0.0933767 -0.388934 0.206503 0.608538 0.181358 0.744411
1305031815.335140 -0.368815 0.0913157 -0.390704 0.212792 0.610949 0.174243 0.742362
1305031815.369858 -0.372114 0.0889446 -0.390481 0.218205 0.614485 0.166801 0.739576
1305031815.402087 -0.376273 0.086764 -0.389954 0.225875 0.618459 0.159285 0.735606
1305031815.435520 -0.380587 0.0818074 -0.391155 0.230936 0.620679 0.154419 0.733199
1305031815.469069 -0.384221 0.0774842 -0.389685 0.235105 0.621619 0.150877 0.731814
1305031815.503584 -0.387908 0.0738869 -0.39145 0.238954 0.621748 0.147452 0.731156
1305031815.533867 -0.391579 0.0719718 -0.39207 0.241718 0.622424 0.144429 0.730274
1305031815.570080 -0.39436 0.0705779 -0.394364 0.244051 0.622819 0.142429 0.729554
1305031815.602977 -0.395741 0.0696147 -0.393447 0.245595 0.623807 0.140826 0.728502
1305031815.633580 -0.39746 0.0674217 -0.393394 0.247087 0.624212 0.14084 0.727648
1305031815.669542 -0.398918 0.0683356 -0.395713 0.247559 0.624085 0.140984 0.727569
1305031815.703270 -0.400252 0.0688126 -0.396133 0.247368 0.624251 0.142312 0.727232
1305031815.734736 -0.40043 0.0713844 -0.394937 0.247101 0.624363 0.142638 0.727163
1305031815.770261 -0.401259 0.0727778 -0.394961 0.246009 0.624543 0.143039 0.7273
1305031815.803102 -0.401822 0.0749473 -0.39389 0.245412 0.624795 0.143836 0.727128
