1305031790.640468 0 0 0 0 0 0 1
1305031790.672866 0.00531008 0.00867703 0.00187148 -0.00896799 -8.49578e-05 0.00307307 0.999955
1305031790.709421 0.0102406 0.0174663 0.00321985 -0.0188542 -0.000144406 0.00614015 0.999803
1305031790.739530 0.0144938 0.0230883 0.00456587 -0.0289266 -4.09743e-05 0.00891607 0.999542
1305031790.773548 0.0199417 0.0302209 0.00511344 -0.0372739 0.000713897 0.0145908 0.999198
1305031790.809521 0.0272942 0.0384186 0.00564052 -0.0462758 0.00157155 0.0207162 0.998713
1305031790.839363 0.0343183 0.0465456 0.00611873 -0.0583838 0.0023528 0.0284607 0.997886
1305031790.871606 0.0424568 0.0525347 0.00688574 -0.0699695 0.00299087 0.0347943 0.996938
1305031790.909436 0.0472844 0.0594341 0.00563596 -0.0797352 0.00725428 0.0448989 0.995778
1305031790.941495 0.0532585 0.06463 0.00445007 -0.0862846 0.0120115 0.0529423 0.99479
1305031790.973696 0.0532585 0.06463 0.00445007 -0.0862846 0.0120115 0.0529423 0.99479
1305031791.009486 0.0550504 0.070371 0.000706949 -0.0874894 0.0169705 0.0686533 0.993652
1305031791.041197 0.0561894 0.0692922 -0.00430181 -0.0829533 0.0231046 0.0829465 0.992827
1305031791.073525 0.0629615 0.0651539 -0.00942618 -0.0725381 0.0308268 0.0902762 0.992793
1305031791.109452 0.0629615 0.0651539 -0.00942618 -0.0725381 0.0308268 0.0902762 0.992793
1305031791.141330 0.0659231 0.0584524 -0.018385 -0.0518088 0.0464466 0.0984679 0.992705
1305031791.173227 0.0702422 0.0606595 -0.0287341 -0.0216946 0.0662787 0.100032 0.992537
1305031791.209506 0.0730666 0.0487483 -0.039289 -0.000553177 0.0865193 0.10317 0.990894
1305031791.241091 0.068859 0.0373044 -0.0515291 0.0290838 0.109191 0.102767 0.988266
1305031791.273558 0.0652754 0.0431118 -0.0621148 0.0591956 0.130385 0.105791 0.984024
1305031791.309764 0.0625853 0.0367048 -0.0721135 0.0839636 0.151903 0.110068 0.978652
1305031791.341415 0.0571042 0.0300486 -0.0828794 0.115059 0.174043 0.114055 0.97132
1305031791.373525 0.0507466 0.0281063 -0.0921085 0.140586 0.194494 0.118495 0.963518
1305031791.409609 0.0417826 0.0214995 -0.0986541 0.164139 0.211759 0.126961 0.955038
1305031791.441538 0.0355105 0.0134162 -0.108434 0.192565 0.224232 0.134392 0.945821
1305031791.473230 0.029853 0.0077791 -0.116016 0.215994 0.235217 0.142194 0.93691
1305031791.509595 0.0240228 -0.00467478 -0.124285 0.234319 0.243383 0.14775 0.929532
1305031791.541450 0.0163669 -0.0231233 -0.135081 0.251946 0.250551 0.14912 0.922773
1305031791.574034 0.0108262 -0.035014 -0.144822 0.26848 0.257506 0.150413 0.915961
1305031791.609401 0.00550504 -0.0498001 -0.153643 0.280638 0.264655 0.151483 0.910084
1305031791.641229 -0.00383543 -0.0606879 -0.160594 0.294941 0.272406 0.147796 0.903859
1305031791.677621 -0.0132825 -0.0701325 -0.166892 0.313346 0.279837 0.143592 0.89604
1305031791.709275 -0.0213249 -0.0762708 -0.175192 0.333772 0.288321 0.142125 0.886153
1305031791.741364 -0.0321583 -0.0832439 -0.18363 0.351789 0.298852 0.140214 0.875941
1305031791.776668 -0.0398094 -0.089392 -0.194189 0.369941 0.308087 0.139854 0.865255
1305031791.808429 -0.0439705 -0.0977759 -0.211787 0.387176 0.317431 0.138902 0.854423
1305031791.840375 -0.0552408 -0.103688 -0.220678 0.404787 0.329244 0.136671 0.842061
1305031791.876494 -0.0699626 -0.111983 -0.230192 0.421161 0.341007 0.135715 0.829409
1305031791.908433 -0.0699626 -0.111983 -0.230192 0.421161 0.341007 0.135715 0.829409
1305031791.944357 -0.0831316 -0.119851 -0.238854 0.435186 0.347416 0.137308 0.819184
1305031791.977200 -0.0931818 -0.125488 -0.246282 0.450008 0.353399 0.136618 0.808664
1305031792.005506 -0.101575 -0.130908 -0.254155 0.462108 0.359933 0.13361 0.799408
1305031792.041730 -0.110642 -0.137379 -0.260137 0.47517 0.365867 0.130371 0.78953
1305031792.076713 -0.13515 -0.155534 -0.256328 0.484273 0.373647 0.129205 0.780496
1305031792.109497 -0.14026 -0.161091 -0.264528 0.489479 0.378568 0.125487 0.775468
1305031792.141484 -0.144875 -0.167305 -0.273057 0.496567 0.381181 0.124087 0.769886
1305031792.177376 -0.149016 -0.173225 -0.280958 0.502238 0.382545 0.123253 0.765654
1305031792.209274 -0.151561 -0.177487 -0.293701 0.503907 0.386069 0.118298 0.763567
1305031792.241751 -0.156316 -0.183078 -0.302529 0.507313 0.389281 0.115107 0.760161
1305031792.277507 -0.159744 -0.18656 -0.305749 0.510584 0.390013 0.114734 0.757648
1305031792.309357 -0.158887 -0.184412 -0.305505 0.51181 0.38994 0.113296 0.757074
1305031792.341029 -0.15661 -0.182675 -0.306215 0.512164 0.388552 0.113655 0.757494
1305031792.377088 -0.154568 -0.181046 -0.303831 0.507833 0.387391 0.11535 0.760742
1305031792.409323 -0.15124 -0.178547 -0.304268 0.499496 0.38697 0.120196 0.765709
1305031792.441590 -0.145192 -0.170753 -0.302465 0.491457 0.385268 0.125451 0.770909
1305031792.477100 -0.1419 -0.165517 -0.296643 0.483138 0.382086 0.133453 0.776388
1305031792.509589 -0.137161 -0.159641 -0.290563 0.473487 0.378047 0.142918 0.782601
1305031792.541061 -0.131662 -0.153955 -0.287753 0.46096 0.37366 0.152789 0.790285
1305031792.577055 -0.12304 -0.142506 -0.283602 0.447293 0.370247 0.161696 0.797935
1305031792.609388 -0.117853 -0.136647 -0.28195 0.431617 0.368242 0.170347 0.805659
1305031792.641219 -0.110755 -0.12731 -0.27776 0.415397 0.368322 0.17632 0.812832
1305031792.677662 -0.10608 -0.121032 -0.274636 0.399085 0.369025 0.182645 0.819263
1305031792.709219 -0.100664 -0.114062 -0.269684 0.38249 0.36944 0.18756 0.825855
1305031792.741510 -0.094382 -0.107135 -0.266665 0.365517 0.368986 0.192269 0.832634
1305031792.777507 -0.0870525 -0.0958373 -0.261422 0.351089 0.365745 0.198786 0.83872
1305031792.809440 -0.0816567 -0.0925453 -0.257714 0.334516 0.364275 0.205912 0.844395
1305031792.845359 -0.0738151 -0.0802869 -0.25202 0.32069 0.361965 0.214038 0.848721
1305031792.877574 -0.0666604 -0.069281 -0.246051 0.306938 0.360551 0.220895 0.852641
1305031792.909293 -0.0576977 -0.0547347 -0.239769 0.294407 0.358434 0.229896 0.855569
1305031792.945340 -0.0494382 -0.0415475 -0.23429 0.282488 0.354204 0.240049 0.858555
1305031792.977564 -0.0450703 -0.0316825 -0.226914 0.269982 0.349753 0.250605 0.861383
1305031793.009530 -0.0393043 -0.0198376 -0.220276 0.256898 0.344184 0.262026 0.864224
1305031793.045243 -0.0340382 -0.00862767 -0.215322 0.244797 0.339457 0.272907 0.866236
1305031793.077518 -0.0297604 0.00375238 -0.210609 0.235132 0.337152 0.282256 0.866817
1305031793.109651 -0.0260928 0.0152819 -0.207088 0.22447 0.33745 0.290036 0.86696
1305031793.145401 -0.0254362 0.0278365 -0.200227 0.215537 0.341022 0.29732 0.86536
1305031793.177537 -0.0225304 0.0358243 -0.19756 0.205992 0.344208 0.304878 0.863792
1305031793.209609 -0.0207086 0.0527137 -0.191907 0.197881 0.347924 0.310467 0.862208
1305031793.245617 -0.0183442 0.0666027 -0.188226 0.188482 0.352052 0.31641 0.860476
1305031793.277180 -0.0167354 0.0783591 -0.183919 0.178634 0.35586 0.322635 0.858697
1305031793.309399 -0.0142508 0.0923396 -0.180188 0.169364 0.359092 0.328384 0.857049
1305031793.345594 -0.0117936 0.0990999 -0.17666 0.15906 0.361458 0.336597 0.854839
1305031793.377232 -0.0112882 0.111453 -0.170081 0.150428 0.363025 0.34439 0.852631
1305031793.405708 -0.0118557 0.124404 -0.159496 0.142572 0.364556 0.351305 0.850504
1305031793.442259 -0.0139238 0.137573 -0.149155 0.134827 0.366573 0.358319 0.84797
1305031793.474150 -0.0153782 0.148919 -0.138773 0.126342 0.369036 0.366002 0.844922
1305031793.507244 -0.0177549 0.156865 -0.128043 0.117332 0.371474 0.375411 0.841015
1305031793.545400 -0.0190701 0.162153 -0.117361 0.108698 0.373031 0.384933 0.837173
1305031793.577186 -0.0187998 0.1666 -0.108346 0.0990778 0.373462 0.395363 0.833305
1305031793.609703 -0.0187998 0.1666 -0.108346 0.0990778 0.373462 0.395363 0.833305
1305031793.645429 -0.0278019 0.171635 -0.092712 0.0917097 0.374355 0.409741 0.826777
1305031793.677435 -0.0328464 0.183786 -0.0784265 0.0846765 0.374004 0.420158 0.822447
1305031793.709532 -0.0366571 0.192662 -0.0669894 0.0762298 0.373153 0.431711 0.817662
1305031793.745574 -0.038426 0.201467 -0.0581296 0.0680838 0.371338 0.443528 0.812869
1305031793.777364 -0.038426 0.201467 -0.0581296 0.0680838 0.371338 0.443528 0.812869
1305031793.809469 -0.0396361 0.205691 -0.0505694 0.0578427 0.369437 0.45405 0.808708
1305031793.844756 -0.0396361 0.205691 -0.0505694 0.0578427 0.369437 0.45405 0.808708
1305031793.876455 -0.036486 0.208502 -0.0473201 0.0498215 0.368546 0.463148 0.804478
1305031793.908753 -0.0371464 0.210505 -0.0411302 0.0438027 0.369201 0.472814 0.798886
1305031793.946431 -0.038045 0.210085 -0.0361546 0.0379416 0.368686 0.482319 0.793725
1305031793.976745 -0.0344153 0.214622 -0.0375766 0.0314092 0.365945 0.488539 0.791472
1305031794.009162 -0.0390824 0.216042 -0.0329963 0.0272446 0.365547 0.496166 0.787053
1305031794.044747 -0.0412596 0.217359 -0.0298019 0.0243486 0.366351 0.502769 0.782571
1305031794.076455 -0.0412596 0.217359 -0.0298019 0.0243486 0.366351 0.502769 0.782571
1305031794.112475 -0.0393419 0.216639 -0.0312454 0.0232399 0.36609 0.506502 0.780316
1305031794.145599 -0.0359226 0.21437 -0.034683 0.0229083 0.365441 0.509951 0.778382
1305031794.177734 -0.0321168 0.211868 -0.0395544 0.0242332 0.366823 0.511274 0.776822
1305031794.213866 -0.0284177 0.205625 -0.0442723 0.0266601 0.370192 0.510938 0.775364
1305031794.245539 -0.026192 0.197174 -0.0514541 0.0301912 0.375356 0.510138 0.773276
1305031794.277346 -0.0244132 0.186059 -0.0567674 0.0367428 0.382933 0.507888 0.770754
1305031794.313708 -0.0233285 0.178811 -0.0638797 0.0449469 0.391378 0.502979 0.769295
1305031794.345350 -0.0204006 0.167309 -0.0737111 0.0526212 0.399546 0.498399 0.767589
1305031794.377641 -0.0151553 0.154526 -0.0858366 0.0619798 0.407816 0.49193 0.766714
1305031794.414154 -0.0157099 0.154799 -0.093182 0.0760179 0.417881 0.481487 0.766659
1305031794.445415 -0.0161687 0.151607 -0.0999078 0.0851895 0.425581 0.472725 0.766913
1305031794.477731 -0.0114976 0.14222 -0.116805 0.0933762 0.429877 0.466785 0.767202
1305031794.513643 -0.0105414 0.135084 -0.129772 0.106644 0.435293 0.461677 0.765507
1305031794.545650 -0.0128468 0.131372 -0.138778 0.119976 0.441158 0.456606 0.763214
1305031794.577340 -0.0123988 0.113093 -0.148852 0.128205 0.449263 0.452853 0.759375
1305031794.613627 -0.00835041 0.104038 -0.165725 0.137834 0.457935 0.447874 0.755451
1305031794.645569 -0.00847716 0.0978033 -0.178713 0.148995 0.469787 0.441791 0.749614
1305031794.677507 -0.00926405 0.0924656 -0.192065 0.158949 0.484138 0.434848 0.742464
1305031794.713599 -0.0106022 0.0896386 -0.204658 0.16857 0.499727 0.42729 0.734357
1305031794.745368 -0.0102783 0.0799031 -0.220298 0.177274 0.51723 0.420931 0.723785
1305031794.776816 -0.0129712 0.0722683 -0.235408 0.188113 0.539388 0.412108 0.709818
1305031794.813463 -0.0181665 0.0674627 -0.248524 0.199217 0.562916 0.400762 0.694858
1305031794.846026 -0.0248627 0.0623229 -0.261011 0.209314 0.585507 0.387878 0.680382
1305031794.873764 -0.0314912 0.057954 -0.275551 0.219342 0.606529 0.374587 0.666106
1305031794.910108 -0.0397256 0.0562738 -0.293279 0.23165 0.625151 0.360911 0.652126
1305031794.945596 -0.0491318 0.0495843 -0.307475 0.243254 0.642082 0.347735 0.638466
1305031794.977250 -0.0579323 0.0458451 -0.315681 0.250795 0.657959 0.334056 0.626577
1305031795.013538 -0.0667433 0.0404497 -0.328702 0.258746 0.669752 0.325163 0.615428
1305031795.045683 -0.0743872 0.0347872 -0.347486 0.264828 0.677853 0.320227 0.606495
1305031795.077205 -0.0823801 0.0325915 -0.360132 0.269108 0.684079 0.317762 0.598869
1305031795.113230 -0.0881686 0.0285814 -0.368502 0.27416 0.692505 0.313144 0.589248
1305031795.145139 -0.0947633 0.015279 -0.378332 0.282932 0.703475 0.30399 0.576769
1305031795.177574 -0.104229 0.00693882 -0.385615 0.293491 0.713885 0.295044 0.563187
1305031795.213517 -0.113834 0.00132155 -0.392244 0.301981 0.722732 0.288841 0.550487
1305031795.245440 -0.124765 -0.00351991 -0.405255 0.312393 0.728637 0.283963 0.539318
1305031795.277594 -0.134971 -0.0141531 -0.414715 0.320072 0.734757 0.278411 0.529315
1305031795.312820 -0.144048 -0.0205582 -0.425365 0.326032 0.741124 0.272524 0.519777
1305031795.345404 -0.152638 -0.02772 -0.435004 0.330015 0.748986 0.265385 0.509588
1305031795.381033 -0.16156 -0.0328856 -0.446195 0.331824 0.758277 0.257373 0.498666
1305031795.413248 -0.170225 -0.0286662 -0.455357 0.332128 0.769489 0.24858 0.485578
1305031795.444944 -0.174968 -0.018812 -0.45811 0.334383 0.779581 0.243222 0.470409
1305031795.480855 -0.177714 -0.0117943 -0.459272 0.337798 0.787091 0.241866 0.455939
1305031795.509058 -0.177397 -0.00825191 -0.452181 0.340087 0.795193 0.239055 0.44143
1305031795.543822 -0.180552 -0.0114325 -0.450528 0.341762 0.802204 0.237974 0.427827
1305031795.580571 -0.180447 -0.00797604 -0.44907 0.342813 0.80838 0.234935 0.416902
1305031795.612694 -0.180447 -0.00797604 -0.44907 0.342813 0.80838 0.234935 0.416902
1305031795.644499 -0.181165 -0.00312545 -0.44835 0.342065 0.814947 0.230228 0.407245
1305031795.680455 -0.181588 0.00134927 -0.446106 0.342429 0.821978 0.224212 0.396011
1305031795.713145 -0.181588 0.00134927 -0.446106 0.342429 0.821978 0.224212 0.396011
1305031795.745356 -0.180301 0.00243947 -0.449405 0.339012 0.825217 0.226486 0.390887
1305031795.781187 -0.180301 0.00243947 -0.449405 0.339012 0.825217 0.226486 0.390887
1305031795.812774 -0.180301 0.00243947 -0.449405 0.339012 0.825217 0.226486 0.390887
1305031795.844570 -0.171594 0.00765945 -0.44085 0.336347 0.825757 0.239609 0.384166
1305031795.880527 -0.162467 0.0138109 -0.436038 0.331577 0.824186 0.254649 0.382004
1305031795.909127 -0.153251 0.0247852 -0.430336 0.326715 0.821632 0.269011 0.381852
1305031795.944316 -0.142774 0.0325863 -0.425192 0.321551 0.818907 0.283139 0.381874
1305031795.980897 -0.129237 0.0448843 -0.410852 0.31421 0.816632 0.297515 0.381928
1305031796.012654 -0.118072 0.0557059 -0.40289 0.304963 0.814789 0.311822 0.381947
1305031796.045068 -0.107776 0.0640644 -0.400469 0.298959 0.811426 0.32844 0.379918
1305031796.081241 -0.0965139 0.0740871 -0.390647 0.292807 0.807299 0.344785 0.379021
1305031796.113736 -0.0851547 0.0802571 -0.38734 0.286766 0.801232 0.36397 0.378573
1305031796.145545 -0.0746848 0.0826304 -0.391011 0.279267 0.794948 0.382964 0.378691
1305031796.179196 -0.0676552 0.0920445 -0.388083 0.274455 0.789358 0.399137 0.377197
1305031796.212249 -0.0624175 0.10367 -0.382248 0.268078 0.784177 0.414474 0.376047
1305031796.244465 -0.0579541 0.110937 -0.382117 0.260872 0.779733 0.429571 0.373404
1305031796.280467 -0.0546831 0.118796 -0.377959 0.255783 0.776539 0.443052 0.367787
1305031796.312376 -0.0522752 0.130065 -0.366404 0.251651 0.77298 0.455534 0.362853
1305031796.342290 -0.050407 0.139351 -0.359324 0.245962 0.7673 0.469943 0.360426
1305031796.380122 -0.049491 0.147625 -0.352444 0.241671 0.762105 0.482329 0.357981
1305031796.411800 -0.0471334 0.156473 -0.335457 0.237485 0.758263 0.493063 0.354297
1305031796.444268 -0.0454785 0.16144 -0.326401 0.232111 0.750983 0.508331 0.351778
1305031796.481198 -0.045597 0.166795 -0.322665 0.227004 0.744211 0.520991 0.350981
1305031796.512896 -0.0442241 0.170944 -0.310907 0.220327 0.740611 0.529949 0.349437
1305031796.544633 -0.0442326 0.177611 -0.29936 0.213739 0.734975 0.541719 0.347374
1305031796.581150 -0.0438071 0.183764 -0.292107 0.208279 0.728541 0.553794 0.345196
1305031796.613198 -0.0443937 0.19034 -0.281283 0.20436 0.721713 0.56512 0.343521
1305031796.649045 -0.0457657 0.197751 -0.270544 0.200114 0.712511 0.577655 0.344379
1305031796.679446 -0.0469384 0.203808 -0.262302 0.195257 0.702239 0.590389 0.346664
1305031796.712815 -0.0495178 0.210834 -0.253932 0.191942 0.69299 0.601576 0.347894
1305031796.749489 -0.0520888 0.217877 -0.24526 0.188741 0.684815 0.611883 0.347856
1305031796.781421 -0.0551232 0.225095 -0.233081 0.185163 0.676938 0.621465 0.348209
1305031796.813561 -0.0581382 0.232595 -0.223233 0.182446 0.667477 0.632456 0.34812
1305031796.849638 -0.0606119 0.240394 -0.217484 0.181509 0.657924 0.643022 0.347437
1305031796.877643 -0.065177 0.248174 -0.206223 0.180255 0.649879 0.650794 0.348758
1305031796.913380 -0.0687245 0.255344 -0.19552 0.177804 0.639197 0.660945 0.350663
1305031796.949604 -0.0732153 0.263386 -0.189206 0.175894 0.628286 0.670865 0.352503
1305031796.980992 -0.0771053 0.268768 -0.179456 0.174239 0.619713 0.678806 0.353296
1305031797.013555 -0.0810484 0.274626 -0.171121 0.171609 0.611043 0.687172 0.353513
1305031797.049352 -0.0858424 0.279598 -0.162828 0.167713 0.604072 0.694389 0.353262
1305031797.081428 -0.0897522 0.283318 -0.155388 0.163091 0.597396 0.701455 0.352817
1305031797.112264 -0.0936323 0.287101 -0.148301 0.158641 0.590943 0.707873 0.352894
1305031797.149559 -0.0989931 0.290781 -0.140968 0.155344 0.583929 0.714581 0.352518
1305031797.181442 -0.105231 0.295429 -0.135657 0.15406 0.575611 0.722732 0.350138
1305031797.213717 -0.111751 0.299938 -0.130075 0.15405 0.566803 0.73035 0.348701
1305031797.249736 -0.117901 0.304421 -0.125764 0.154263 0.556707 0.738033 0.348693
1305031797.281280 -0.125361 0.309275 -0.120009 0.155177 0.546594 0.745205 0.349035
1305031797.313591 -0.132674 0.313073 -0.113741 0.155851 0.538884 0.749748 0.350988
1305031797.349653 -0.138727 0.316796 -0.109843 0.155041 0.531943 0.754617 0.351501
1305031797.381725 -0.145582 0.320982 -0.107143 0.153788 0.52591 0.759151 0.351365
1305031797.413444 -0.151389 0.324653 -0.105225 0.153138 0.520287 0.763909 0.349704
1305031797.449459 -0.156931 0.327927 -0.103621 0.153359 0.516264 0.767317 0.348105
1305031797.481250 -0.16142 0.330348 -0.102587 0.15415 0.513299 0.770076 0.346042
1305031797.511821 -0.16509 0.332709 -0.103761 0.155737 0.510367 0.772685 0.343847
1305031797.549595 -0.169298 0.334659 -0.104162 0.157653 0.509618 0.773441 0.34238
1305031797.577492 -0.171963 0.33594 -0.107797 0.160906 0.513684 0.770696 0.340977
1305031797.613482 -0.174296 0.33745 -0.114745 0.166288 0.520782 0.766845 0.336279
1305031797.649463 -0.176653 0.338833 -0.123935 0.171604 0.530432 0.762252 0.328884
1305031797.681494 -0.177118 0.337528 -0.13257 0.176339 0.543364 0.754845 0.322286
1305031797.711478 -0.179285 0.333791 -0.138899 0.178952 0.559591 0.744721 0.316581
1305031797.749330 -0.183733 0.334002 -0.150641 0.180487 0.573155 0.736155 0.311439
1305031797.781348 -0.18665 0.327625 -0.155196 0.178401 0.592448 0.723999 0.304965
1305031797.815855 -0.190644 0.324574 -0.164033 0.175266 0.606895 0.715275 0.298901
1305031797.849306 -0.194415 0.321754 -0.177412 0.173885 0.620144 0.706593 0.293107
1305031797.877576 -0.197159 0.317392 -0.190323 0.17418 0.634966 0.696975 0.284087
1305031797.917116 -0.19979 0.312144 -0.200897 0.175414 0.650328 0.686921 0.272843
1305031797.949871 -0.202374 0.308373 -0.215091 0.177085 0.665782 0.67613 0.261195
1305031797.981971 -0.20442 0.303019 -0.229327 0.178759 0.682647 0.663397 0.248882
1305031798.015269 -0.212464 0.301102 -0.241793 0.180362 0.699591 0.649273 0.237669
1305031798.049495 -0.216802 0.297526 -0.25105 0.182522 0.715954 0.635648 0.223711
1305031798.081417 -0.217718 0.292088 -0.2622 0.183704 0.730324 0.623264 0.210764
1305031798.114860 -0.219256 0.285255 -0.274541 0.183643 0.745189 0.609724 0.198004
1305031798.149092 -0.2218 0.279662 -0.28614 0.18489 0.757621 0.597968 0.185093
1305031798.180856 -0.222214 0.273407 -0.295052 0.186356 0.768312 0.587493 0.172683
1305031798.216938 -0.222751 0.267053 -0.305671 0.186955 0.776684 0.579201 0.162284
1305031798.249843 -0.226304 0.261216 -0.319607 0.185734 0.785497 0.570478 0.151828
1305031798.277285 -0.226543 0.254064 -0.328938 0.183919 0.795915 0.55992 0.138499
1305031798.317008 -0.224527 0.24614 -0.336054 0.181771 0.805753 0.54957 0.125276
1305031798.349326 -0.220023 0.237389 -0.341492 0.180997 0.815414 0.538379 0.111756
1305031798.381412 -0.217197 0.23062 -0.345905 0.179755 0.824899 0.526476 0.100265
1305031798.417238 -0.216417 0.223915 -0.352765 0.177291 0.833293 0.51604 0.0888423
1305031798.449066 -0.212997 0.219343 -0.352799 0.176961 0.842048 0.504076 0.0744747
1305031798.481517 -0.209645 0.213336 -0.355349 0.177006 0.850727 0.491201 0.0604516
1305031798.517491 -0.208461 0.204277 -0.364558 0.174784 0.858698 0.479245 0.0491105
1305031798.548782 -0.207191 0.197842 -0.369257 0.17131 0.866179 0.46797 0.0373014
1305031798.581190 -0.205208 0.190125 -0.377671 0.168937 0.87261 0.457627 0.0242935
1305031798.616969 -0.201827 0.183373 -0.382903 0.169568 0.878987 0.445562 0.0100889
1305031798.649387 -0.20486 0.175823 -0.388495 0.170723 0.884354 0.434463 -0.00352618
1305031798.681173 -0.203424 0.168179 -0.394331 0.172073 0.888493 0.425024 -0.0180719
1305031798.717545 -0.200439 0.159638 -0.401889 0.174565 0.892343 0.414866 -0.033738
1305031798.749417 -0.196717 0.149787 -0.409385 0.176943 0.896537 0.403028 -0.0498076
1305031798.780379 -0.194544 0.142599 -0.412123 0.176884 0.901148 0.390953 -0.0616392
1305031798.816718 -0.193612 0.128613 -0.422728 0.17252 0.906201 0.379361 -0.0715643
1305031798.848499 -0.194402 0.115626 -0.430989 0.16812 0.911422 0.366768 -0.0807901
1305031798.880461 -0.19284 0.103193 -0.43799 0.164841 0.915937 0.354582 -0.0903197
1305031798.916769 -0.196986 0.0867094 -0.447604 0.162938 0.919559 0.344324 -0.0964569
1305031798.948386 -0.194745 0.0759602 -0.451728 0.158817 0.923194 0.335155 -0.100801
1305031798.977548 -0.196335 0.0670165 -0.454894 0.155441 0.926228 0.327035 -0.104828
1305031799.016423 -0.200858 0.0507456 -0.464837 0.152248 0.928777 0.319829 -0.109102
1305031799.048165 -0.20846 0.0429631 -0.465112 0.147307 0.932226 0.310817 -0.112462
1305031799.084229 -0.217182 0.0280956 -0.472912 0.14012 0.934232 0.306494 -0.116782
1305031799.116275 -0.219762 0.0185197 -0.476656 0.133283 0.935791 0.30248 -0.122624
1305031799.148353 -0.226031 0.01082 -0.476621 0.127374 0.936929 0.299604 -0.127191
1305031799.184133 -0.232507 0.0027009 -0.478587 0.123715 0.937502 0.29754 -0.131355
1305031799.216330 -0.238275 -0.00120255 -0.477203 0.124628 0.937304 0.295867 -0.135618
1305031799.248919 -0.244314 -0.000804313 -0.471155 0.124988 0.936743 0.296102 -0.138613
1305031799.282109 -0.247749 -9.42926e-05 -0.464731 0.122952 0.93615 0.29717 -0.142114
1305031799.317052 -0.251006 0.00360359 -0.457392 0.120262 0.935496 0.298101 -0.146697
1305031799.345225 -0.254083 0.0104568 -0.445688 0.116734 0.934859 0.299409 -0.150886
1305031799.385836 -0.260329 0.0123838 -0.438581 0.113505 0.933745 0.302118 -0.154793
1305031799.417030 -0.267198 0.0129795 -0.430905 0.113368 0.931862 0.305946 -0.158676
1305031799.449416 -0.275702 0.0159636 -0.423085 0.114194 0.92923 0.312856 -0.16004
1305031799.485270 -0.282076 0.0217969 -0.411086 0.113706 0.926148 0.321894 -0.160326
1305031799.517032 -0.287091 0.0279614 -0.400112 0.113412 0.922245 0.332696 -0.160983
1305031799.548193 -0.290929 0.0316921 -0.39211 0.112336 0.917855 0.344843 -0.161265
1305031799.581386 -0.27921 0.0431183 -0.382614 0.110792 0.912951 0.35681 -0.164109
1305031799.617188 -0.285806 0.051313 -0.370065 0.111753 0.907635 0.369922 -0.163913
1305031799.649673 -0.29057 0.0601471 -0.357454 0.114865 0.90227 0.381864 -0.163995
1305031799.685493 -0.299256 0.0698199 -0.340387 0.118642 0.896956 0.393555 -0.162812
1305031799.717286 -0.300398 0.0789279 -0.326812 0.120833 0.890777 0.40712 -0.16177
1305031799.749321 -0.306255 0.0851623 -0.316717 0.123462 0.884431 0.420779 -0.159635
1305031799.785018 -0.309151 0.0922828 -0.304597 0.128052 0.878074 0.432863 -0.158805
1305031799.814639 -0.307851 0.102966 -0.289003 0.132325 0.871463 0.445121 -0.157828
1305031799.849553 -0.306375 0.115067 -0.27299 0.136433 0.86479 0.457202 -0.156493
1305031799.885163 -0.30524 0.126918 -0.255524 0.141357 0.858186 0.46811 -0.156229
1305031799.916952 -0.303153 0.140614 -0.239282 0.143499 0.851413 0.480411 -0.153979
1305031799.949350 -0.299821 0.151184 -0.229565 0.144773 0.843201 0.494421 -0.153623
1305031799.985260 -0.296813 0.159908 -0.219972 0.148958 0.834678 0.507048 -0.155003
1305031800.017573 -0.293263 0.170021 -0.209646 0.153282 0.82629 0.519327 -0.155078
1305031800.049428 -0.292453 0.178407 -0.202013 0.157256 0.817241 0.532677 -0.153765
1305031800.085033 -0.290165 0.187267 -0.192242 0.160615 0.808763 0.544693 -0.153022
1305031800.117205 -0.287082 0.197143 -0.181583 0.162927 0.800425 0.556316 -0.152601
1305031800.149430 -0.285604 0.206796 -0.171827 0.164643 0.791473 0.568205 -0.153643
1305031800.185401 -0.284465 0.214546 -0.161841 0.16476 0.782937 0.579053 -0.156721
1305031800.217472 -0.282409 0.223897 -0.149968 0.16634 0.773722 0.58989 -0.16036
1305031800.249376 -0.279571 0.234501 -0.138863 0.170124 0.762967 0.60209 -0.162565
1305031800.285574 -0.275779 0.242467 -0.129674 0.173519 0.751728 0.614836 -0.163627
1305031800.317706 -0.274278 0.251119 -0.121133 0.175651 0.740681 0.627482 -0.163722
1305031800.353570 -0.272054 0.259318 -0.112932 0.178211 0.729117 0.639519 -0.166267
1305031800.386128 -0.269429 0.267735 -0.103187 0.180529 0.717513 0.651155 -0.169062
1305031800.417282 -0.266837 0.275752 -0.0954467 0.183262 0.705754 0.662127 -0.17296
1305031800.453754 -0.26248 0.282816 -0.0886018 0.185214 0.693888 0.673146 -0.176324
1305031800.485575 -0.259434 0.288887 -0.0840162 0.187978 0.681966 0.683412 -0.180373
1305031800.517739 -0.256423 0.294637 -0.0777501 0.19231 0.670728 0.692 -0.185138
1305031800.553340 -0.254343 0.300182 -0.0725423 0.197139 0.659328 0.700175 -0.190203
1305031800.585490 -0.251662 0.304738 -0.0691362 0.199455 0.648787 0.708244 -0.194122
1305031800.617831 -0.250573 0.309146 -0.0658393 0.201146 0.638786 0.715839 -0.197654
1305031800.653624 -0.248 0.313487 -0.0618943 0.203365 0.628742 0.723029 -0.201383
1305031800.685405 -0.245718 0.317866 -0.0576949 0.206477 0.619675 0.729159 -0.204201
1305031800.713947 -0.243451 0.32171 -0.0556003 0.209672 0.611057 0.734664 -0.207159
1305031800.753166 -0.242891 0.325826 -0.0532997 0.213634 0.603407 0.739162 -0.209524
1305031800.784054 -0.246407 0.331378 -0.0554627 0.217264 0.596498 0.742787 -0.212727
1305031800.816096 -0.249297 0.335728 -0.0589544 0.221094 0.590863 0.744235 -0.219348
1305031800.853919 -0.249297 0.335728 -0.0589544 0.221094 0.590863 0.744235 -0.219348
1305031800.885396 -0.249297 0.335728 -0.0589544 0.221094 0.590863 0.744235 -0.219348
1305031800.917427 -0.250904 0.3351 -0.0646945 0.220043 0.595597 0.737315 -0.230676
1305031800.953700 -0.250904 0.3351 -0.0646945 0.220043 0.595597 0.737315 -0.230676
1305031800.985467 -0.250904 0.3351 -0.0646945 0.220043 0.595597 0.737315 -0.230676
1305031801.017256 -0.257473 0.331996 -0.0724063 0.213152 0.611347 0.722609 -0.242192
1305031801.053202 -0.264817 0.330593 -0.080011 0.206719 0.625193 0.707564 -0.256426
1305031801.085709 -0.271157 0.327505 -0.0927018 0.196616 0.640356 0.691912 -0.269341
1305031801.117929 -0.276603 0.323376 -0.102617 0.184091 0.655518 0.677222 -0.278884
1305031801.149557 -0.286189 0.318799 -0.113767 0.172245 0.6677 0.664164 -0.288782
1305031801.183875 -0.295812 0.311981 -0.128837 0.158667 0.680609 0.649695 -0.299153
1305031801.213176 -0.306224 0.304357 -0.143303 0.146254 0.693304 0.633631 -0.310567
1305031801.253746 -0.31712 0.293056 -0.162644 0.134478 0.704021 0.619025 -0.321059
1305031801.285341 -0.324829 0.283532 -0.181398 0.125183 0.713381 0.605716 -0.329431
1305031801.318014 -0.330572 0.273199 -0.199915 0.115878 0.722865 0.592322 -0.336441
1305031801.353094 -0.335416 0.262435 -0.217471 0.106866 0.731242 0.579725 -0.343196
1305031801.385194 -0.340434 0.250298 -0.235595 0.0985282 0.737994 0.568681 -0.349655
1305031801.417407 -0.344557 0.238159 -0.253919 0.0901271 0.744478 0.558471 -0.354598
1305031801.453727 -0.352817 0.227487 -0.266042 0.0850652 0.750718 0.548529 -0.358193
1305031801.485350 -0.358042 0.217506 -0.278429 0.0798227 0.756883 0.538161 -0.362131
1305031801.521131 -0.360826 0.208499 -0.293495 0.0766978 0.762978 0.526658 -0.366897
1305031801.550374 -0.362804 0.200285 -0.302553 0.0729832 0.770164 0.51473 -0.369559
1305031801.585137 -0.365498 0.193214 -0.305196 0.0682893 0.77837 0.501852 -0.370973
1305031801.621227 -0.368324 0.185984 -0.310499 0.0632599 0.786263 0.488766 -0.372689
1305031801.653135 -0.369491 0.181254 -0.314173 0.0588508 0.794155 0.47407 -0.375648
1305031801.685234 -0.372449 0.173045 -0.322592 0.052708 0.802369 0.458885 -0.377956
1305031801.721833 -0.376928 0.161106 -0.334273 0.0442445 0.809922 0.445266 -0.379218
1305031801.752492 -0.381392 0.14901 -0.342091 0.0362484 0.817813 0.430415 -0.380278
1305031801.785189 -0.382037 0.140641 -0.350618 0.0283274 0.825233 0.415391 -0.381625
1305031801.821431 -0.384745 0.13157 -0.356096 0.0186103 0.831142 0.402921 -0.382768
1305031801.851024 -0.389344 0.120314 -0.361179 0.00989988 0.836481 0.39009 -0.384748
1305031801.885594 -0.394311 0.108784 -0.364151 0.00312378 0.842488 0.37524 -0.386522
1305031801.921490 -0.3962 0.100535 -0.371101 -0.0029105 0.847157 0.362293 -0.388665
1305031801.953537 -0.398796 0.094836 -0.374145 -0.00574869 0.851524 0.3508 -0.389633
1305031801.985210 -0.402529 0.0879675 -0.377497 -0.00720251 0.855567 0.340881 -0.389555
1305031802.019644 -0.40695 0.0802543 -0.381264 -0.00697936 0.858809 0.331728 -0.390327
1305031802.053402 -0.413326 0.0713279 -0.383288 -0.00719615 0.861876 0.32218 -0.391557
1305031802.085036 -0.419663 0.0625485 -0.385649 -0.00922492 0.863966 0.312798 -0.394506
1305031802.121342 -0.429109 0.0497489 -0.386777 -0.0141266 0.866101 0.302985 -0.397328
1305031802.153506 -0.434802 0.0402828 -0.388457 -0.0234282 0.867388 0.293242 -0.40137
1305031802.184646 -0.441159 0.0310871 -0.391476 -0.0304878 0.866653 0.285447 -0.408049
1305031802.219780 -0.444648 0.0282315 -0.389545 -0.035642 0.864927 0.280195 -0.414875
1305031802.253201 -0.45088 0.0235924 -0.384542 -0.040076 0.862623 0.277801 -0.420834
1305031802.285410 -0.455707 0.02311 -0.37598 -0.0417226 0.859645 0.275877 -0.427974
1305031802.321392 -0.461101 0.0197079 -0.371394 -0.0413363 0.856439 0.278356 -0.432806
1305031802.353673 -0.463741 0.0222917 -0.366046 -0.0428559 0.852914 0.28268 -0.436798
1305031802.385256 -0.470432 0.0198827 -0.358213 -0.0451593 0.849786 0.286603 -0.440095
1305031802.421381 -0.471008 0.0264408 -0.350755 -0.0482222 0.846848 0.286553 -0.445433
1305031802.449815 -0.474213 0.0234441 -0.35103 -0.0488602 0.842288 0.29204 -0.450418
1305031802.485366 -0.475329 0.0269362 -0.345962 -0.0500898 0.838748 0.29648 -0.453974
1305031802.521559 -0.477474 0.0306965 -0.340395 -0.0501111 0.835446 0.301109 -0.457003
1305031802.553684 -0.478822 0.0394847 -0.329872 -0.0492808 0.831055 0.30933 -0.459602
1305031802.585533 -0.480341 0.0458523 -0.319935 -0.0481991 0.824846 0.321997 -0.462194
1305031802.621150 -0.480127 0.0538725 -0.309736 -0.0471627 0.817293 0.336186 -0.465604
1305031802.651432 -0.479237 0.0655228 -0.301815 -0.044413 0.806539 0.354923 -0.470693
1305031802.685539 -0.480902 0.0755877 -0.28759 -0.0365612 0.795013 0.373824 -0.476312
1305031802.721583 -0.480665 0.0845733 -0.279591 -0.0267364 0.783456 0.392205 -0.481309
1305031802.751226 -0.48078 0.0942029 -0.27318 -0.0208867 0.772045 0.412509 -0.483059
1305031802.789007 -0.479878 0.108821 -0.259513 -0.0132369 0.760265 0.430085 -0.486671
1305031802.821805 -0.479519 0.1229 -0.247762 -0.00663548 0.748184 0.444855 -0.49222
1305031802.853857 -0.475257 0.137985 -0.237203 -0.00053563 -0.735567 -0.455967 0.501034
1305031802.890975 -0.473065 0.150522 -0.223717 -0.00875339 -0.723302 -0.46646 0.509091
1305031802.921571 -0.471151 0.161256 -0.217163 -0.0142986 -0.711377 -0.477202 0.515767
1305031802.954186 -0.466434 0.174325 -0.208989 -0.0165584 -0.699646 -0.487384 0.522186
1305031802.989730 -0.459769 0.186704 -0.205486 -0.0192476 -0.687596 -0.494805 0.531046
1305031803.021911 -0.454238 0.197822 -0.197287 -0.0215153 -0.674915 -0.501566 0.540793
1305031803.053859 -0.447856 0.209156 -0.187589 -0.0228315 -0.662314 -0.507868 0.550353
1305031803.089624 -0.441312 0.219757 -0.179405 -0.025594 -0.649897 -0.512936 0.560247
1305031803.122288 -0.437572 0.226141 -0.16984 -0.0300524 -0.638362 -0.517112 0.569373
1305031803.153738 -0.434489 0.232886 -0.162257 -0.0351996 -0.625212 -0.523034 0.578192
1305031803.189456 -0.431292 0.236128 -0.153648 -0.0420968 -0.61337 -0.526872 0.586865
1305031803.222097 -0.424125 0.24227 -0.144118 -0.0459827 -0.602722 -0.530703 0.594109
1305031803.253833 -0.416541 0.245563 -0.129969 -0.0503405 -0.592671 -0.534944 0.600035
1305031803.289513 -0.411799 0.246336 -0.118929 -0.0563288 -0.582062 -0.538637 0.606549
1305031803.317616 -0.406782 0.253802 -0.113654 -0.0601695 -0.569907 -0.542799 0.613966
1305031803.353839 -0.401829 0.259461 -0.106062 -0.0647151 -0.558568 -0.547447 0.619771
1305031803.393279 -0.395889 0.264241 -0.0980395 -0.0707146 -0.547993 -0.550835 0.625527
1305031803.421427 -0.392448 0.266703 -0.0923626 -0.0770308 -0.537378 -0.554717 0.63054
1305031803.449958 -0.386747 0.269028 -0.0855894 -0.0809155 -0.528808 -0.557857 0.634516
1305031803.489758 -0.380941 0.271783 -0.0792088 -0.0845611 -0.51994 -0.560917 0.638659
1305031803.517807 -0.375348 0.273479 -0.0725898 -0.0896012 -0.511389 -0.562409 0.643544
1305031803.553175 -0.370259 0.274159 -0.0659726 -0.0944721 -0.503969 -0.563638 0.647613
1305031803.588621 -0.364791 0.275477 -0.0603808 -0.0995463 -0.497206 -0.564842 0.651022
1305031803.617801 -0.361413 0.276259 -0.0554118 -0.105871 -0.490842 -0.566755 0.653188
1305031803.654299 -0.356877 0.277727 -0.04905 -0.110734 -0.485152 -0.571239 0.652726
1305031803.686328 -0.354712 0.277678 -0.0424334 -0.115735 -0.478495 -0.575187 0.653305
1305031803.721631 -0.351889 0.280771 -0.0381848 -0.120867 -0.470169 -0.57773 0.656171
1305031803.754202 -0.347036 0.281895 -0.0324649 -0.130128 -0.462574 -0.580973 0.656934
1305031803.789665 -0.344334 0.281069 -0.0254451 -0.141036 -0.454788 -0.588033 0.653831
1305031803.822228 -0.339693 0.281802 -0.0193933 -0.149815 -0.448411 -0.592441 0.652301
1305031803.854272 -0.33502 0.282433 -0.012455 -0.159468 -0.441667 -0.599263 0.64837
1305031803.894274 -0.328742 0.282476 -0.00460389 -0.167787 -0.434434 -0.607509 0.643465
1305031803.922306 -0.32403 0.283102 0.00170213 -0.175499 -0.426566 -0.614093 0.640415
1305031803.953878 -0.317813 0.283697 0.00818218 -0.183856 -0.418553 -0.61998 0.63768
1305031803.986986 -0.31072 0.284072 0.015907 -0.193381 -0.411333 -0.625142 0.634513
1305031804.021991 -0.301394 0.283464 0.0247833 -0.202429 -0.404922 -0.63016 0.63084
1305031804.057867 -0.292808 0.282714 0.0340402 -0.212204 -0.398036 -0.633151 0.629012
1305031804.090568 -0.281558 0.281646 0.0435841 -0.220025 -0.391973 -0.636739 0.626506
1305031804.121807 -0.273695 0.281602 0.051207 -0.225934 -0.386076 -0.641176 0.623532
1305031804.159547 -0.267952 0.280777 0.0578979 -0.232234 -0.380284 -0.643085 0.622811
1305031804.190025 -0.261334 0.279624 0.0650198 -0.237488 -0.375752 -0.644911 0.621691
1305031804.221943 -0.257639 0.278867 0.0702191 -0.241089 -0.372708 -0.646803 0.62017
1305031804.257543 -0.256339 0.278605 0.0734538 -0.241882 -0.371166 -0.646149 0.621467
1305031804.289105 -0.257454 0.278603 0.0747197 -0.240846 -0.370858 -0.64394 0.624339
1305031804.322186 -0.260042 0.276824 0.0750651 -0.236935 -0.374383 -0.641239 0.626507
1305031804.357487 -0.263063 0.271045 0.0752444 -0.23051 -0.381116 -0.636083 0.63009
1305031804.388583 -0.269599 0.265209 0.0723831 -0.221971 -0.388202 -0.62945 0.635469
1305031804.420347 -0.281859 0.259355 0.0667896 -0.212241 -0.395827 -0.6212 0.642172
1305031804.458421 -0.292987 0.248859 0.0630293 -0.201815 -0.404183 -0.614027 0.647207
1305031804.488618 -0.30518 0.239302 0.0552905 -0.186683 -0.413266 -0.606705 0.652893
1305031804.520334 -0.30518 0.239302 0.0552905 -0.186683 -0.413266 -0.606705 0.652893
1305031804.553325 -0.31528 0.228548 0.0469895 -0.172168 -0.421863 -0.597426 0.659903
1305031804.588603 -0.324225 0.219935 0.0374728 -0.156281 -0.430013 -0.586882 0.668008
1305031804.620878 -0.324225 0.219935 0.0374728 -0.156281 -0.430013 -0.586882 0.668008
1305031804.657048 -0.330033 0.212555 0.0286598 -0.138672 -0.438265 -0.578025 0.674227
1305031804.689811 -0.338205 0.202316 0.019598 -0.12207 -0.445193 -0.571655 0.678316
1305031804.721742 -0.348754 0.191147 0.00984261 -0.104306 -0.451647 -0.565038 0.682545
1305031804.761864 -0.358247 0.178996 7.5711e-05 -0.0842574 -0.459324 -0.557241 0.686589
1305031804.794542 -0.363426 0.169703 -0.0103343 -0.061355 -0.467692 -0.547657 0.691065
1305031804.822160 -0.372713 0.159172 -0.0212861 -0.0367384 -0.475541 -0.538079 0.694969
1305031804.857799 -0.381116 0.149607 -0.0342791 -0.0116665 -0.482159 -0.527976 0.69902
1305031804.889635 -0.38689 0.141763 -0.0466714 0.0147552 -0.489328 -0.515222 0.703482
1305031804.921987 -0.394762 0.134065 -0.0581324 0.0373707 -0.495544 -0.501701 0.708051
1305031804.958018 -0.39844 0.134972 -0.0699205 0.0574106 -0.500505 -0.49006 0.711365
1305031804.989454 -0.406775 0.132426 -0.0850172 0.0731447 -0.504463 -0.479721 0.714167
1305031805.021251 -0.415778 0.125073 -0.0994344 0.0854411 -0.509038 -0.466362 0.718392
1305031805.053799 -0.422498 0.122429 -0.113979 0.0969634 -0.512273 -0.452661 0.723376
1305031805.088981 -0.431354 0.116211 -0.128637 0.106638 -0.515493 -0.440915 0.726973
1305031805.120822 -0.438518 0.110112 -0.14311 0.114665 -0.519562 -0.429263 0.729822
1305031805.156816 -0.445121 0.105705 -0.15553 0.122798 -0.523557 -0.41923 0.731475
1305031805.188114 -0.449522 0.10384 -0.164932 0.130561 -0.52648 -0.411517 0.732412
1305031805.224830 -0.455997 0.101883 -0.176662 0.138568 -0.528307 -0.404434 0.733569
1305031805.256506 -0.45975 0.0997389 -0.184925 0.146921 -0.529951 -0.39743 0.734585
1305031805.288719 -0.468511 0.0967088 -0.201843 0.15279 -0.530163 -0.389543 0.737454
1305031805.324692 -0.474527 0.0894648 -0.212998 0.162594 -0.529943 -0.385441 0.737671
1305031805.360488 -0.480942 0.0799391 -0.226648 0.175425 -0.52828 -0.380116 0.738687
1305031805.392685 -0.487987 0.0668351 -0.241243 0.188715 -0.527492 -0.37147 0.74037
1305031805.426082 -0.492249 0.0725632 -0.25472 0.204621 -0.526201 -0.360591 0.74244
1305031805.455941 -0.495734 0.0649262 -0.271228 0.219367 -0.526809 -0.35079 0.742494
1305031805.488250 -0.500483 0.063281 -0.288139 0.239446 -0.524973 -0.344699 0.74044
1305031805.524339 -0.502769 0.063393 -0.301805 0.259894 -0.523329 -0.33713 0.738191
1305031805.555936 -0.505323 0.0424102 -0.326033 0.276311 -0.52329 -0.329731 0.735593
1305031805.587800 -0.508184 0.0284878 -0.345691 0.2897 -0.522041 -0.323396 0.734141
1305031805.626288 -0.510568 0.0189078 -0.363566 0.302777 -0.522371 -0.316301 0.731717
1305031805.653600 -0.512602 -0.0123199 -0.386614 0.308452 -0.521461 -0.314559 0.730745
1305031805.688826 -0.509551 -0.0379545 -0.392505 0.310097 -0.520638 -0.311688 0.731865
1305031805.724499 -0.507187 -0.0569189 -0.39203 0.308759 -0.520178 -0.309457 0.733702
1305031805.756662 -0.501418 -0.0686838 -0.383628 0.303643 -0.517413 -0.311224 0.737037
1305031805.788800 -0.493269 -0.0732663 -0.367183 0.294761 -0.514626 -0.313661 0.741548
1305031805.825010 -0.493269 -0.0732663 -0.367183 0.294761 -0.514626 -0.313661 0.741548
1305031805.856722 -0.492999 -0.0832552 -0.367491 0.272081 -0.503135 -0.327128 0.752206
1305031805.888558 -0.488713 -0.0899688 -0.351188 0.252576 -0.496078 -0.336349 0.759593
1305031805.924334 -0.485211 -0.0880158 -0.335274 0.235621 -0.488966 -0.343973 0.76621
1305031805.956398 -0.4817 -0.0881775 -0.320335 0.219098 -0.482256 -0.349644 0.772771
1305031805.990628 -0.478475 -0.0917511 -0.307044 0.203305 -0.475375 -0.355687 0.778571
1305031806.026273 -0.471752 -0.0941577 -0.292983 0.190211 -0.467554 -0.360964 0.784167
1305031806.056329 -0.46696 -0.0965812 -0.279299 0.179328 -0.458972 -0.365679 0.789598
1305031806.091003 -0.464537 -0.102179 -0.268525 0.170047 -0.449567 -0.37022 0.794928
1305031806.126194 -0.458651 -0.101694 -0.253624 0.162869 -0.43914 -0.375431 0.799801
1305031806.160305 -0.450712 -0.101213 -0.237568 0.154055 -0.429379 -0.378732 0.805272
1305031806.186461 -0.442129 -0.098631 -0.221325 0.144078 -0.420105 -0.38325 0.809859
1305031806.226737 -0.432143 -0.0953428 -0.20483 0.131426 -0.409942 -0.38851 0.814699
1305031806.256407 -0.426575 -0.0953931 -0.19137 0.119282 -0.400462 -0.39416 0.81856
1305031806.292064 -0.420483 -0.0936731 -0.177261 0.108716 -0.389932 -0.400794 0.821887
1305031806.324430 -0.414077 -0.0928537 -0.163282 0.0954551 -0.380366 -0.403681 0.826591
1305031806.356698 -0.409138 -0.0901133 -0.150789 0.0823028 -0.370905 -0.406871 0.83073
1305031806.388772 -0.399613 -0.0854922 -0.136189 0.068952 -0.362898 -0.410402 0.833739
1305031806.428086 -0.392188 -0.0831783 -0.12409 0.0534322 -0.354671 -0.412557 0.837347
1305031806.458170 -0.388437 -0.0839579 -0.11419 0.0402746 -0.346925 -0.414186 0.840518
1305031806.493660 -0.379365 -0.080828 -0.102329 0.0334936 -0.339708 -0.418207 0.841772
1305031806.531887 -0.369534 -0.0784611 -0.0903402 0.026462 -0.329279 -0.421153 0.844692
1305031806.556751 -0.360964 -0.0727071 -0.0793614 0.0180832 -0.319446 -0.420489 0.849009
1305031806.594170 -0.351157 -0.0681775 -0.0673724 0.00686136 -0.310633 -0.423624 0.850884
1305031806.625910 -0.34462 -0.0652104 -0.0573912 -0.00537658 -0.300287 -0.427911 0.852462
1305031806.660594 -0.33728 -0.0628572 -0.0479542 -0.0165757 -0.290597 -0.429334 0.854957
1305031806.695601 -0.331304 -0.0600742 -0.0393868 -0.0291633 -0.280918 -0.427662 0.858685
1305031806.725479 -0.326388 -0.0579208 -0.0318954 -0.0431976 -0.273333 -0.425171 0.861773
1305031806.757877 -0.321223 -0.05598 -0.0248112 -0.0575741 -0.267046 -0.423201 0.863871
1305031806.793755 -0.315827 -0.0531325 -0.0181683 -0.0704704 -0.262676 -0.421586 0.865044
1305031806.821694 -0.310663 -0.0501811 -0.011665 -0.0809264 -0.257007 -0.420773 0.866227
1305031806.857332 -0.305523 -0.0446032 -0.00599737 -0.0893172 -0.248642 -0.419903 0.868263
1305031806.893667 -0.29997 -0.0409121 0.000247718 -0.0981511 -0.24054 -0.420588 0.86926
1305031806.925528 -0.296096 -0.0375688 0.00530186 -0.107544 -0.233088 -0.419489 0.870708
1305031806.957342 -0.291269 -0.0333812 0.0104263 -0.117761 -0.226297 -0.41688 0.872429
1305031806.994718 -0.286083 -0.0286676 0.0150369 -0.126631 -0.220616 -0.414954 0.87356
1305031807.025349 -0.282771 -0.0238023 0.0184439 -0.13405 -0.214136 -0.412243 0.875347
1305031807.057482 -0.279669 -0.0200237 0.0215592 -0.140206 -0.207414 -0.409585 0.877247
1305031807.094797 -0.276968 -0.0159049 0.0240271 -0.145844 -0.201365 -0.406474 0.879182
1305031807.125639 -0.276178 -0.0105721 0.0253402 -0.149551 -0.195429 -0.402958 0.881514
1305031807.158021 -0.275499 -0.00682871 0.0264825 -0.151337 -0.189701 -0.39822 0.884608
1305031807.193815 -0.276539 -0.00394963 0.0270601 -0.151843 -0.184176 -0.392773 0.888117
1305031807.226069 -0.278205 -0.00154525 0.027252 -0.150997 -0.178496 -0.386831 0.892021
1305031807.258189 -0.280007 0.000600903 0.0275515 -0.148246 -0.173506 -0.379687 0.896525
1305031807.294600 -0.282956 0.000199735 0.0274837 -0.142672 -0.168003 -0.372553 0.901457
1305031807.325779 -0.288593 -0.00139936 0.0264023 -0.135668 -0.162296 -0.363381 0.907308
1305031807.356999 -0.294696 -0.00570588 0.0249113 -0.126247 -0.158584 -0.354562 0.912797
1305031807.394901 -0.301744 -0.0103055 0.021359 -0.114308 -0.155294 -0.346274 0.918102
1305031807.425389 -0.309256 -0.0159023 0.0182451 -0.100903 -0.151658 -0.337453 0.92355
1305031807.456981 -0.322074 -0.0247544 0.0146935 -0.085038 -0.147465 -0.325796 0.929989
1305031807.493776 -0.331874 -0.0338934 0.00993754 -0.0602654 -0.145011 -0.314828 0.936068
1305031807.525569 -0.338976 -0.0422404 0.00395341 -0.0293163 -0.143241 -0.308079 0.940058
1305031807.558514 -0.341868 -0.0454325 -0.00061573 -0.00151466 -0.141568 -0.301718 0.942827
1305031807.593758 -0.349306 -0.053144 -0.00583087 0.0230657 -0.137305 -0.294013 0.945607
1305031807.625726 -0.353248 -0.0624438 -0.01217 0.0485124 -0.133727 -0.28875 0.946777
1305031807.657923 -0.358473 -0.0660535 -0.0182831 0.0698669 -0.130242 -0.281849 0.948007
1305031807.695218 -0.366948 -0.0714926 -0.0259358 0.089206 -0.127203 -0.274383 0.948987
1305031807.725763 -0.375616 -0.0815791 -0.035962 0.110911 -0.125357 -0.267125 0.949014
1305031807.763921 -0.379277 -0.0861123 -0.0444286 0.132652 -0.123409 -0.258678 0.94882
1305031807.794370 -0.386551 -0.0945322 -0.0546761 0.152801 -0.121988 -0.252124 0.947737
1305031807.825649 -0.390777 -0.102196 -0.0649056 0.171691 -0.12447 -0.243401 0.946459
1305031807.862767 -0.393188 -0.10674 -0.0743011 0.190435 -0.12658 -0.23879 0.943764
1305031807.895051 -0.395824 -0.112127 -0.0839858 0.206705 -0.126411 -0.234982 0.941317
1305031807.922091 -0.399509 -0.118631 -0.0946714 0.222755 -0.126554 -0.230728 0.938685
1305031807.960371 -0.404553 -0.12512 -0.106658 0.238459 -0.126947 -0.226485 0.935803
1305031807.990310 -0.407464 -0.131467 -0.117692 0.253825 -0.129282 -0.221462 0.932638
1305031808.025493 -0.410528 -0.138082 -0.128721 0.268351 -0.132589 -0.215548 0.929487
1305031808.060837 -0.413263 -0.145491 -0.140625 0.28262 -0.13643 -0.209058 0.926179
1305031808.094509 -0.416639 -0.155544 -0.155234 0.296718 -0.140909 -0.203986 0.922222
1305031808.124869 -0.417699 -0.16276 -0.167636 0.31259 -0.145105 -0.200805 0.917011
1305031808.160774 -0.41988 -0.168627 -0.179931 0.328532 -0.148814 -0.196674 0.911724
1305031808.193540 -0.425055 -0.18351 -0.200188 0.343504 -0.152225 -0.193787 0.906244
1305031808.224541 -0.428244 -0.189053 -0.215181 0.359579 -0.156372 -0.188806 0.900335
1305031808.259528 -0.431829 -0.192207 -0.229585 0.372003 -0.160113 -0.187294 0.894929
1305031808.292602 -0.431375 -0.196423 -0.24287 0.383204 -0.164569 -0.186129 0.889622
1305031808.324524 -0.430635 -0.20561 -0.258213 0.395084 -0.167888 -0.184401 0.884148
1305031808.362374 -0.430612 -0.217475 -0.276062 0.407304 -0.170808 -0.181488 0.87863
1305031808.394090 -0.432888 -0.224527 -0.293704 0.419286 -0.173412 -0.177484 0.873285
1305031808.427040 -0.428243 -0.227884 -0.304453 0.429889 -0.176455 -0.176308 0.867741
1305031808.462622 -0.426401 -0.234043 -0.317801 0.440754 -0.177496 -0.174659 0.862395
1305031808.493893 -0.432759 -0.232268 -0.332463 0.452477 -0.17702 -0.168782 0.857578
1305031808.524551 -0.430017 -0.238285 -0.350415 0.463636 -0.178881 -0.163147 0.852306
1305031808.561866 -0.433452 -0.242799 -0.368976 0.471447 -0.181054 -0.157582 0.848602
1305031808.590231 -0.436054 -0.253654 -0.40087 0.476993 -0.181324 -0.154456 0.846016
1305031808.624717 -0.43084 -0.263826 -0.427854 0.484296 -0.178621 -0.149305 0.843362
1305031808.661004 -0.417932 -0.271869 -0.446412 0.493437 -0.175448 -0.143082 0.839801
1305031808.692608 -0.41143 -0.282885 -0.465231 0.500774 -0.17066 -0.138391 0.837227
1305031808.724581 -0.406147 -0.287527 -0.478019 0.508394 -0.165954 -0.135119 0.834109
1305031808.761035 -0.402181 -0.29045 -0.487425 0.515705 -0.159042 -0.133169 0.831276
1305031808.792909 -0.39114 -0.292513 -0.485529 0.525858 -0.149915 -0.13126 0.826904
1305031808.824645 -0.38069 -0.296163 -0.490947 0.53362 -0.140453 -0.126129 0.824387
1305031808.860603 -0.365364 -0.307868 -0.504801 0.535716 -0.13082 -0.123336 0.825035
1305031808.894236 -0.358349 -0.304415 -0.49947 0.535897 -0.120744 -0.119817 0.82697
1305031808.924712 -0.349948 -0.303907 -0.495257 0.532287 -0.112015 -0.117155 0.830902
1305031808.960766 -0.333805 -0.30505 -0.493736 0.523345 -0.1039 -0.11716 0.837608
1305031808.994453 -0.319225 -0.303251 -0.485827 0.511103 -0.095366 -0.118565 0.845944
1305031809.029773 -0.299838 -0.297542 -0.472394 0.498706 -0.0889897 -0.118687 0.853983
1305031809.063418 -0.283466 -0.286223 -0.450459 0.48709 -0.0821079 -0.118282 0.8614
1305031809.097271 -0.26967 -0.277126 -0.432425 0.475086 -0.0740225 -0.119211 0.868679
1305031809.131663 -0.253652 -0.271337 -0.418613 0.463965 -0.0637221 -0.121136 0.875216
1305031809.161507 -0.237515 -0.267534 -0.406077 0.453241 -0.0526107 -0.121274 0.881531
1305031809.194288 -0.233514 -0.266573 -0.401069 0.44033 -0.0422362 -0.117948 0.889052
1305031809.229538 -0.230434 -0.261557 -0.392283 0.428143 -0.0333902 -0.113244 0.895965
1305031809.261343 -0.229152 -0.253579 -0.379461 0.415318 -0.0260426 -0.108385 0.902821
1305031809.294460 -0.220553 -0.243599 -0.365712 0.401271 -0.0187992 -0.104898 0.909739
1305031809.330064 -0.214331 -0.235146 -0.354379 0.388554 -0.0123213 -0.100013 0.915899
1305031809.359534 -0.211304 -0.223666 -0.341831 0.377255 -0.00629362 -0.09651 0.921046
1305031809.393838 -0.20876 -0.216989 -0.33214 0.364561 -0.000505829 -0.0949452 0.926326
1305031809.428411 -0.208187 -0.212254 -0.324393 0.351014 0.00450866 -0.093736 0.931656
1305031809.462164 -0.204716 -0.209773 -0.319704 0.337854 0.00740128 -0.0928688 0.936576
1305031809.493873 -0.206299 -0.205162 -0.31438 0.326686 0.0104882 -0.0889151 0.940883
1305031809.530074 -0.205928 -0.198818 -0.307777 0.31655 0.0118138 -0.0854008 0.94465
1305031809.563364 -0.20657 -0.191749 -0.301589 0.306752 0.0144873 -0.0849404 0.947881
1305031809.594021 -0.209185 -0.18569 -0.295552 0.296832 0.0183969 -0.0852096 0.950942
1305031809.631035 -0.211041 -0.182018 -0.290614 0.287557 0.0229001 -0.0852144 0.95369
1305031809.662949 -0.212288 -0.177176 -0.285721 0.279374 0.0272449 -0.0845966 0.95606
1305031809.693782 -0.210985 -0.171888 -0.280871 0.270487 0.0300388 -0.0835681 0.958619
1305031809.731309 -0.211003 -0.165735 -0.275801 0.261113 0.0328948 -0.0814124 0.961307
1305031809.758942 -0.210588 -0.158906 -0.270473 0.251709 0.0349461 -0.0791361 0.963929
1305031809.793369 -0.209938 -0.152615 -0.264997 0.242013 0.0372106 -0.075959 0.966579
1305031809.830391 -0.209531 -0.14591 -0.259599 0.232403 0.0400627 -0.0714433 0.969165
1305031809.861943 -0.211432 -0.138266 -0.255044 0.222227 0.0441746 -0.06777 0.971633
1305031809.895169 -0.210874 -0.133341 -0.250917 0.211091 0.0485688 -0.0650699 0.974088
1305031809.929860 -0.207985 -0.126329 -0.246352 0.201516 0.0532674 -0.0614524 0.976103
1305031809.963228 -0.206633 -0.120056 -0.242521 0.191386 0.0584685 -0.0572668 0.978097
1305031809.994224 -0.206126 -0.113228 -0.238928 0.180752 0.0635825 -0.0532392 0.980026
1305031810.030062 -0.203748 -0.105385 -0.23454 0.169906 0.067683 -0.048548 0.981934
1305031810.062155 -0.202253 -0.102394 -0.232434 0.158639 0.0717471 -0.0454257 0.983678
1305031810.095183 -0.198159 -0.0973432 -0.229748 0.149883 0.0754663 -0.0413932 0.98495
1305031810.131056 -0.195305 -0.0907827 -0.227874 0.140763 0.0790173 -0.036861 0.986196
1305031810.161700 -0.191353 -0.0836552 -0.22612 0.131565 0.0829177 -0.0347465 0.987222
1305031810.197185 -0.188052 -0.0789564 -0.225364 0.12237 0.0882337 -0.0332511 0.987995
1305031810.230520 -0.183753 -0.0733081 -0.224552 0.114698 0.0932148 -0.0315667 0.988514
1305031810.262762 -0.179149 -0.0665861 -0.224124 0.105356 0.097391 -0.0302823 0.989191
1305031810.298074 -0.174989 -0.0574151 -0.223755 0.0943351 0.101384 -0.02866 0.98995
1305031810.330937 -0.173431 -0.0514837 -0.224563 0.0827536 0.10531 -0.0276814 0.990604
1305031810.362897 -0.170785 -0.047361 -0.225621 0.0729884 0.109055 -0.0254203 0.991027
1305031810.396861 -0.165033 -0.0416435 -0.226398 0.0645898 0.111356 -0.0191634 0.991494
1305031810.429920 -0.160584 -0.0361991 -0.227432 0.0548302 0.113078 -0.0140439 0.991973
1305031810.461399 -0.153012 -0.0290018 -0.228103 0.0446718 0.11319 -0.0110179 0.992507
1305031810.496777 -0.147226 -0.0210533 -0.228616 0.0326588 0.114744 -0.00796955 0.992826
1305031810.529947 -0.14119 -0.016301 -0.229877 0.0203565 0.116931 -0.00337655 0.992926
1305031810.561970 -0.135058 -0.00975656 -0.23198 0.0114861 0.120759 -0.000339238 0.992615
1305031810.598116 -0.128389 -0.00160937 -0.233258 0.00274158 0.124512 0.00427301 0.992205
1305031810.630327 -0.120035 0.00637433 -0.233871 -0.00281507 0.126584 0.00978403 0.991904
1305031810.661881 -0.110673 0.00911612 -0.234277 -0.00757936 0.128491 0.0177205 0.991523
1305031810.698469 -0.101197 0.009212 -0.23447 -0.00864103 0.131001 0.026348 0.990994
1305031810.729616 -0.0926018 0.00649053 -0.236796 -0.00733595 0.134188 0.0339709 0.990346
1305031810.762055 -0.083894 0.00858322 -0.241275 -0.000529952 0.137561 0.0394761 0.989706
1305031810.798335 -0.0740885 0.0101732 -0.245243 0.00850054 0.14123 0.0442139 0.988952
1305031810.826635 -0.0676184 0.00574263 -0.250947 0.0185272 0.146661 0.047124 0.98789
1305031810.859437 -0.0599779 0.00185121 -0.258449 0.0316495 0.15304 0.0497544 0.986459
1305031810.896721 -0.0534974 0.00142809 -0.263715 0.0500017 0.16278 0.0519491 0.984024
1305031810.931542 -0.0502549 0.00124463 -0.269549 0.0656907 0.171521 0.0533114 0.981541
1305031810.962074 -0.0451386 -0.00432234 -0.276032 0.0827793 0.179081 0.0556208 0.978767
1305031810.999156 -0.0387435 -0.00940171 -0.284451 0.104821 0.187115 0.0570679 0.975061
1305031811.030567 -0.0362147 -0.00824749 -0.290424 0.123577 0.194722 0.0609765 0.97113
1305031811.062402 -0.0332132 -0.0124143 -0.296682 0.138283 0.200104 0.0636637 0.967876
1305031811.098594 -0.0316376 -0.0203563 -0.305704 0.154661 0.204797 0.0649334 0.964325
1305031811.130054 -0.0302947 -0.0221522 -0.31322 0.172843 0.210535 0.0675834 0.959809
1305031811.163124 -0.0301728 -0.0222477 -0.318163 0.185551 0.217021 0.0703313 0.955786
1305031811.196680 -0.0280318 -0.0256666 -0.325377 0.196506 0.221917 0.0701263 0.952481
1305031811.226245 -0.0268963 -0.0334861 -0.334611 0.207514 0.22719 0.07009 0.948899
1305031811.258835 -0.0268894 -0.0355274 -0.340092 0.220177 0.23452 0.0711174 0.944174
1305031811.297420 -0.0235236 -0.0396727 -0.349668 0.232294 0.242196 0.0714384 0.939296
1305031811.330119 -0.0247761 -0.0493525 -0.361156 0.246162 0.250258 0.0725959 0.933544
1305031811.362347 -0.0285813 -0.0589279 -0.373521 0.262192 0.259019 0.0750644 0.926569
1305031811.399651 -0.0377381 -0.0710807 -0.383128 0.278523 0.267396 0.0767757 0.919255
1305031811.430784 -0.0460938 -0.0785299 -0.390309 0.297114 0.274849 0.0769586 0.911185
1305031811.466212 -0.0551303 -0.0836766 -0.396876 0.315787 0.282187 0.0760059 0.902703
1305031811.497813 -0.0625435 -0.0851016 -0.403657 0.332508 0.290243 0.0740611 0.894266
1305031811.530073 -0.0696412 -0.0871306 -0.411428 0.345638 0.298623 0.0732908 0.886559
1305031811.566308 -0.0769613 -0.099911 -0.426966 0.355135 0.306619 0.0718113 0.880174
1305031811.598269 -0.0838738 -0.105276 -0.436881 0.367417 0.31424 0.0699494 0.872562
1305031811.630831 -0.0938967 -0.114079 -0.447404 0.380818 0.321419 0.0692204 0.86422
1305031811.663366 -0.107564 -0.120439 -0.452811 0.39747 0.327732 0.0690461 0.854308
1305031811.698740 -0.118402 -0.127054 -0.459476 0.411075 0.331068 0.0701303 0.846459
1305031811.733435 -0.12512 -0.131785 -0.470271 0.425001 0.332427 0.071436 0.838906
1305031811.765703 -0.139289 -0.138336 -0.474914 0.437005 0.336213 0.0698675 0.831328
1305031811.799543 -0.152008 -0.144532 -0.479324 0.447484 0.340399 0.0676894 0.824199
1305031811.831559 -0.163321 -0.152081 -0.48841 0.458321 0.343225 0.0677776 0.817034
1305031811.866219 -0.174045 -0.160943 -0.501691 0.468299 0.344412 0.068776 0.810769
1305031811.899601 -0.184697 -0.167298 -0.508952 0.478191 0.345254 0.070107 0.804499
1305031811.929778 -0.193152 -0.172213 -0.520777 0.48751 0.346162 0.0702105 0.798484
1305031811.965910 -0.204988 -0.17729 -0.527906 0.496764 0.348811 0.0681278 0.79178
1305031811.997697 -0.214029 -0.18241 -0.539908 0.506334 0.350806 0.0671159 0.784893
1305031812.031513 -0.224106 -0.188261 -0.549945 0.516038 0.352826 0.0666866 0.777671
1305031812.067293 -0.230064 -0.189505 -0.555977 0.525874 0.354328 0.0639788 0.770594
1305031812.097226 -0.233643 -0.191644 -0.572585 0.533688 0.355002 0.0609233 0.76514
1305031812.131618 -0.245186 -0.196615 -0.583283 0.54152 0.357437 0.0603832 0.758517
1305031812.165747 -0.257415 -0.20343 -0.594902 0.549528 0.362408 0.0598144 0.750401
1305031812.194229 -0.268702 -0.208796 -0.600728 0.558079 0.367379 0.0596713 0.741633
1305031812.230599 -0.277257 -0.211768 -0.60611 0.565342 0.372244 0.0582114 0.733781
1305031812.262258 -0.287556 -0.21512 -0.620756 0.5724 0.374316 0.0604927 0.72704
1305031812.295017 -0.294722 -0.219735 -0.630674 0.57777 0.375426 0.0637183 0.721925
1305031812.329535 -0.299888 -0.222198 -0.6382 0.582028 0.376463 0.0655485 0.71779
1305031812.367033 -0.303998 -0.22362 -0.648849 0.584502 0.380909 0.0654886 0.713427
1305031812.398919 -0.307778 -0.223842 -0.656462 0.587844 0.38918 0.065412 0.706187
1305031812.431444 -0.310044 -0.222754 -0.658617 0.593855 0.397132 0.065896 0.696621
1305031812.466128 -0.315047 -0.22876 -0.660255 0.594124 0.405446 0.0675102 0.691428
1305031812.499545 -0.314889 -0.2279 -0.657715 0.590758 0.412091 0.0690763 0.690227
1305031812.530582 -0.312489 -0.223265 -0.660788 0.583759 0.418127 0.0708462 0.69237
1305031812.566690 -0.309494 -0.21849 -0.665738 0.574662 0.424489 0.0731762 0.695858
1305031812.599029 -0.309494 -0.21849 -0.665738 0.574662 0.424489 0.0731762 0.695858
1305031812.628645 -0.305145 -0.21209 -0.668381 0.561973 0.430629 0.0775561 0.701947
1305031812.668061 -0.297525 -0.204288 -0.667744 0.550776 0.43633 0.0819459 0.706786
1305031812.698746 -0.286083 -0.191009 -0.671827 0.538809 0.440495 0.0878208 0.712697
1305031812.734013 -0.274966 -0.177331 -0.663818 0.527198 0.443784 0.0967234 0.718166
1305031812.767275 -0.263493 -0.163167 -0.650341 0.517653 0.446642 0.103865 0.722328
1305031812.799489 -0.251293 -0.149482 -0.641756 0.504697 0.448999 0.110214 0.729063
1305031812.834132 -0.240572 -0.137002 -0.635888 0.492412 0.449902 0.118755 0.735538
1305031812.866016 -0.228984 -0.121505 -0.628545 0.481208 0.449202 0.127674 0.741859
1305031812.898960 -0.217081 -0.105914 -0.621389 0.469631 0.448959 0.135453 0.748021
1305031812.934173 -0.201893 -0.0860705 -0.613519 0.458772 0.448815 0.142949 0.753431
1305031812.966151 -0.190906 -0.0710592 -0.607094 0.446172 0.449826 0.150788 0.758848
1305031812.999091 -0.182302 -0.0609417 -0.60724 0.433383 0.44781 0.162677 0.764971
1305031813.034784 -0.172898 -0.0454099 -0.599754 0.421 0.445612 0.172268 0.771046
1305031813.066289 -0.164273 -0.0301347 -0.588536 0.409317 0.443043 0.181651 0.776644
1305031813.098588 -0.157827 -0.0202877 -0.584666 0.39618 0.439141 0.192981 0.782914
1305031813.135262 -0.150053 -0.00847339 -0.58095 0.383966 0.43425 0.202916 0.789191
1305031813.166033 -0.14148 0.0037312 -0.580514 0.371531 0.426944 0.213009 0.796436
1305031813.196373 -0.135197 0.0133561 -0.577668 0.35808 0.420603 0.221829 0.803532
1305031813.234674 -0.129983 0.0252025 -0.568697 0.347103 0.414413 0.229634 0.809351
1305031813.267055 -0.126317 0.0394974 -0.556875 0.336509 0.408208 0.23653 0.814973
1305031813.299198 -0.123502 0.0493934 -0.549645 0.324471 0.402318 0.243903 0.820591
1305031813.333908 -0.121266 0.0638029 -0.537292 0.313628 0.398838 0.248784 0.825029
1305031813.365437 -0.117722 0.0713775 -0.532165 0.301186 0.39529 0.257177 0.82879
1305031813.398657 -0.113869 0.0851466 -0.526717 0.289477 0.392597 0.264669 0.831878
1305031813.433247 -0.113948 0.0947651 -0.514497 0.278011 0.391456 0.272087 0.833931
1305031813.466220 -0.113156 0.105755 -0.503337 0.265066 0.388441 0.281577 0.836402
1305031813.498088 -0.111894 0.115016 -0.498228 0.250934 0.383416 0.291287 0.839748
1305031813.534016 -0.11205 0.126852 -0.49242 0.238821 0.379362 0.29886 0.842456
1305031813.566769 -0.110814 0.135139 -0.489235 0.223618 0.376435 0.306611 0.845152
1305031813.598490 -0.11075 0.140951 -0.483984 0.209353 0.375121 0.31298 0.847053
1305031813.631475 -0.111517 0.147466 -0.479956 0.196928 0.373632 0.318928 0.848471
1305031813.661752 -0.112657 0.153285 -0.475889 0.184894 0.372167 0.324704 0.849631
1305031813.698286 -0.115059 0.157991 -0.470955 0.172476 0.370849 0.33068 0.850514
1305031813.730280 -0.118422 0.162257 -0.466766 0.161481 0.368434 0.336028 0.851625
1305031813.764797 -0.123619 0.166798 -0.459053 0.150915 0.366103 0.341192 0.852515
1305031813.799441 -0.128405 0.170297 -0.45167 0.138945 0.362893 0.345068 0.85436
1305031813.833945 -0.135066 0.176159 -0.443115 0.127007 0.359097 0.34935 0.85608
1305031813.867772 -0.1421 0.182349 -0.433193 0.113731 0.354969 0.354666 0.857481
1305031813.899482 -0.147759 0.187132 -0.422401 0.0990091 0.348879 0.362742 0.858428
1305031813.934338 -0.155107 0.194992 -0.411815 0.0844615 0.342464 0.370971 0.859049
1305031813.965926 -0.155107 0.194992 -0.411815 0.0844615 0.342464 0.370971 0.859049
1305031814.003554 -0.155107 0.194992 -0.411815 0.0844615 0.342464 0.370971 0.859049
1305031814.033924 -0.160994 0.202556 -0.406291 0.0759299 0.339733 0.377913 0.857903
1305031814.066026 -0.160994 0.202556 -0.406291 0.0759299 0.339733 0.377913 0.857903
1305031814.102320 -0.170209 0.21569 -0.406794 0.0721234 0.336215 0.382316 0.857667
1305031814.134667 -0.170209 0.21569 -0.406794 0.0721234 0.336215 0.382316 0.857667
1305031814.166052 -0.170209 0.21569 -0.406794 0.0721234 0.336215 0.382316 0.857667
1305031814.202037 -0.170209 0.21569 -0.406794 0.0721234 0.336215 0.382316 0.857667
1305031814.234336 -0.170209 0.21569 -0.406794 0.0721234 0.336215 0.382316 0.857667
1305031814.265980 -0.170209 0.21569 -0.406794 0.0721234 0.336215 0.382316 0.857667
1305031814.302865 -0.170209 0.21569 -0.406794 0.0721234 0.336215 0.382316 0.857667
1305031814.334123 -0.170209 0.21569 -0.406794 0.0721234 0.336215 0.382316 0.857667
1305031814.365916 -0.170209 0.21569 -0.406794 0.0721234 0.336215 0.382316 0.857667
1305031814.402137 -0.171207 0.212265 -0.414822 0.0891599 0.348036 0.38657 0.849403
1305031814.434097 -0.171207 0.212265 -0.414822 0.0891599 0.348036 0.38657 0.849403
1305031814.466875 -0.172444 0.210596 -0.421684 0.102199 0.360366 0.389925 0.841219
1305031814.503242 -0.170304 0.207298 -0.43199 0.115632 0.372583 0.393777 0.832317
1305031814.535346 -0.169775 0.204909 -0.441344 0.127841 0.388035 0.396869 0.821937
1305031814.567625 -0.169546 0.202557 -0.449564 0.139281 0.404106 0.399371 0.81105
1305031814.601706 -0.168717 0.2018 -0.45861 0.151537 0.418926 0.401147 0.800387
1305031814.635644 -0.165158 0.199793 -0.474739 0.166011 0.433302 0.40303 0.788832
1305031814.667643 -0.176513 0.207105 -0.472678 0.182653 0.45429 0.396656 0.776481
1305031814.702775 -0.177578 0.205924 -0.479677 0.193387 0.467336 0.395045 0.766902
1305031814.734657 -0.178077 0.204099 -0.489226 0.205901 0.4791 0.391687 0.758056
1305031814.766015 -0.183797 0.205542 -0.490398 0.219014 0.492023 0.38599 0.748971
1305031814.801939 -0.185564 0.205447 -0.49866 0.228473 0.501865 0.383761 0.740715
1305031814.834141 -0.188712 0.205875 -0.503939 0.237169 0.511096 0.378683 0.734255
1305031814.866927 -0.189932 0.20558 -0.511519 0.244261 0.520044 0.374507 0.72776
1305031814.901856 -0.192042 0.203958 -0.521298 0.252202 0.530425 0.370387 0.719623
1305031814.934189 -0.195556 0.206411 -0.524233 0.260836 0.540344 0.363677 0.712553
1305031814.966026 -0.197164 0.205056 -0.530928 0.267853 0.546655 0.359117 0.707431
1305031815.002785 -0.199927 0.204983 -0.536597 0.276244 0.552539 0.354386 0.701997
1305031815.034070 -0.202738 0.206427 -0.540861 0.284254 0.558349 0.350672 0.696043
1305031815.066249 -0.204985 0.20359 -0.545695 0.290568 0.56204 0.349425 0.691074
1305031815.098276 -0.207117 0.200343 -0.54966 0.297795 0.56388 0.34736 0.687531
1305031815.134087 -0.209606 0.196917 -0.552921 0.305325 0.564925 0.344845 0.68463
1305031815.167703 -0.212851 0.194942 -0.555344 0.312269 0.565924 0.342424 0.681883
1305031815.200200 -0.215407 0.191064 -0.559188 0.317764 0.566921 0.339465 0.679993
1305031815.235479 -0.218005 0.187011 -0.562801 0.323245 0.568222 0.335286 0.678396
1305031815.269898 -0.221271 0.183549 -0.566701 0.328546 0.570772 0.330095 0.67625
1305031815.303120 -0.224589 0.179655 -0.570921 0.334356 0.574114 0.32422 0.67341
1305031815.335140 -0.227877 0.177458 -0.574085 0.339521 0.578665 0.317492 0.670127
1305031815.369858 -0.230607 0.172391 -0.57929 0.343347 0.583477 0.312243 0.666462
1305031815.402087 -0.234436 0.168475 -0.584336 0.349241 0.588486 0.306275 0.661748
1305031815.435520 -0.237976 0.167143 -0.585698 0.35422 0.591891 0.301306 0.658338
1305031815.469069 -0.240631 0.161787 -0.588657 0.357417 0.593681 0.298082 0.656462
1305031815.503584 -0.243145 0.16057 -0.590045 0.361071 0.595136 0.293642 0.655145
1305031815.533867 -0.245692 0.15766 -0.594212 0.36381 0.595852 0.291811 0.653795
1305031815.570080 -0.247344 0.155216 -0.594771 0.365602 0.597338 0.289865 0.652304
1305031815.602977 -0.248435 0.153262 -0.595332 0.366967 0.59843 0.288646 0.651077
1305031815.633580 -0.249475 0.151648 -0.596623 0.367961 0.598941 0.288163 0.650259
1305031815.669542 -0.25036 0.152599 -0.595766 0.368698 0.599379 0.287776 0.649609
1305031815.703270 -0.250467 0.153808 -0.595831 0.368807 0.598988 0.288815 0.649446
1305031815.734736 -0.25056 0.154333 -0.595739 0.368333 0.598757 0.289581 0.649588
1305031815.770261 -0.250253 0.155359 -0.595872 0.367717 0.59852 0.290348 0.649812
1305031815.803102 -0.249877 0.157032 -0.594548 0.36747 0.598337 0.291328 0.649682
