1305031453.374112 0 0 0 0 0 0 1
1305031453.404816 0.00395706 0.0046725 -0.00924712 -0.00110321 0.00650252 0.00942928 0.999934
1305031453.436941 0.00759438 0.00831901 -0.0192222 -0.000232759 0.0107793 0.019023 0.999761
1305031453.473352 0.0122876 0.0146011 -0.0299765 0.00380693 0.0159477 0.0276179 0.999484
1305031453.505218 0.0164591 0.0195088 -0.0420294 0.00783638 0.0223195 0.036703 0.999046
1305031453.538301 0.01853 0.0240484 -0.0548339 0.0138155 0.0276812 0.0456708 0.998477
1305031453.574074 0.0208951 0.0309896 -0.0686098 0.0213968 0.0302376 0.0523018 0.997944
1305031453.605314 0.0216578 0.036519 -0.0827183 0.0289374 0.0326274 0.0575692 0.997389
1305031453.636951 0.020623 0.0422282 -0.0973781 0.0358734 0.0341473 0.0622317 0.996832
1305031453.673185 0.0159449 0.0510092 -0.110982 0.0444616 0.0319348 0.0630403 0.996509
1305031453.705487 0.00939906 0.0597567 -0.124727 0.051959 0.0276321 0.0588034 0.996533
1305031453.736856 0.00204397 0.0711442 -0.137762 0.0579407 0.0229205 0.0539158 0.9966
1305031453.773786 -0.00722435 0.0804689 -0.149949 0.062925 0.0163655 0.0476198 0.996747
1305031453.805041 -0.0173254 0.088064 -0.161929 0.0677533 0.00797371 0.0394981 0.996888
1305031453.840352 -0.0278769 0.09907 -0.172568 0.0720135 0.000708416 0.0328735 0.996862
1305031453.869618 -0.0393125 0.111881 -0.179771 0.0766957 -0.00868488 0.0269407 0.996653
1305031453.905519 -0.0529886 0.124149 -0.186212 0.0790073 -0.022438 0.020186 0.996417
1305031453.940012 -0.0669035 0.134861 -0.192706 0.078667 -0.0388981 0.015994 0.996013
1305031453.972592 -0.0814453 0.139083 -0.200375 0.0756159 -0.0535714 0.00647294 0.995676
1305031454.003179 -0.0963242 0.141404 -0.207055 0.0732327 -0.0650275 -0.00467327 0.995182
1305031454.040976 -0.112983 0.143303 -0.21275 0.0746309 -0.0748903 -0.0146543 0.994287
1305031454.072690 -0.129108 0.148687 -0.21656 0.0763308 -0.0842399 -0.0259031 0.99318
1305031454.104619 -0.146453 0.152626 -0.219354 0.0770905 -0.0934294 -0.0383479 0.991896
1305031454.141030 -0.163951 0.155026 -0.221593 0.0798593 -0.104878 -0.0522536 0.989895
1305031454.172688 -0.178866 0.16339 -0.222851 0.0822682 -0.118699 -0.0650927 0.987373
1305031454.204626 -0.193942 0.166997 -0.223711 0.0808167 -0.132923 -0.078817 0.984677
1305031454.240858 -0.212058 0.16425 -0.227204 0.0800564 -0.14598 -0.0942957 0.981524
1305031454.273489 -0.223839 0.166756 -0.228462 0.085308 -0.157601 -0.11121 0.977505
1305031454.304744 -0.235046 0.172936 -0.229404 0.0850836 -0.164213 -0.123731 0.974928
1305031454.340806 -0.251588 0.172493 -0.233115 0.0841797 -0.171026 -0.137128 0.972039
1305031454.372652 -0.261365 0.175549 -0.233935 0.0902898 -0.181548 -0.152578 0.967268
1305031454.401962 -0.269238 0.183362 -0.234551 0.093381 -0.189063 -0.164891 0.963507
1305031454.437248 -0.281131 0.185156 -0.236518 0.0937573 -0.199462 -0.180159 0.958628
1305031454.470741 -0.286973 0.18731 -0.235598 0.0962069 -0.209693 -0.197493 0.952769
1305031454.503859 -0.294925 0.191787 -0.236725 0.0976252 -0.213413 -0.214219 0.948174
1305031454.538424 -0.301428 0.198824 -0.23783 0.0972231 -0.218566 -0.230484 0.943214
1305031454.570323 -0.306868 0.208684 -0.239066 0.0956471 -0.223433 -0.243248 0.939021
1305031454.602019 -0.31501 0.217197 -0.241571 0.0930269 -0.231186 -0.258783 0.933237
1305031454.639284 -0.31924 0.22334 -0.241673 0.0911117 -0.243451 -0.272183 0.92647
1305031454.669573 -0.319451 0.232518 -0.240731 0.0865143 -0.256344 -0.279564 0.92122
1305031454.702030 -0.32312 0.241012 -0.242884 0.0796468 -0.268195 -0.284679 0.916889
1305031454.740764 -0.319428 0.246479 -0.241602 0.0757754 -0.281902 -0.290762 0.911179
1305031454.772865 -0.312543 0.252512 -0.239495 0.0714564 -0.290426 -0.289842 0.909141
1305031454.802574 -0.308678 0.259268 -0.239349 0.0668234 -0.2935 -0.282957 0.910674
1305031454.840500 -0.302505 0.269281 -0.238217 0.0638387 -0.295547 -0.27666 0.91216
1305031454.870269 -0.296632 0.277659 -0.236787 0.0598464 -0.293928 -0.27096 0.914661
1305031454.901065 -0.291895 0.286748 -0.236703 0.0569134 -0.289647 -0.264022 0.918236
1305031454.940240 -0.289118 0.297473 -0.237724 0.0545243 -0.284341 -0.257703 0.921828
1305031454.973081 -0.287278 0.306217 -0.239338 0.0511634 -0.279131 -0.251374 0.925354
1305031455.010759 -0.289088 0.316595 -0.242976 0.0490674 -0.275252 -0.245123 0.928301
1305031455.040446 -0.290841 0.330475 -0.245899 0.0498582 -0.273901 -0.241133 0.929703
1305031455.074282 -0.293678 0.341502 -0.248822 0.0498076 -0.270831 -0.239012 0.931151
1305031455.110340 -0.299036 0.351812 -0.253158 0.0521099 -0.26667 -0.238149 0.932447
1305031455.142700 -0.30351 0.363555 -0.256078 0.0550601 -0.262495 -0.237846 0.933538
1305031455.172771 -0.310636 0.372849 -0.259655 0.0542432 -0.257793 -0.234609 0.935713
1305031455.210307 -0.31964 0.38377 -0.263534 0.0518745 -0.253627 -0.228608 0.938467
1305031455.240960 -0.328766 0.392297 -0.267349 0.0512695 -0.249863 -0.223201 0.940809
1305031455.273001 -0.335522 0.404891 -0.268807 0.0513521 -0.246219 -0.217904 0.943004
1305031455.310303 -0.346393 0.411372 -0.272836 0.0434603 -0.240132 -0.209135 0.946948
1305031455.342381 -0.359044 0.420147 -0.277269 0.0376436 -0.236691 -0.197615 0.950531
1305031455.374120 -0.366555 0.431206 -0.279139 0.0309388 -0.235396 -0.190737 0.952497
1305031455.409213 -0.377322 0.435435 -0.283087 0.0207531 -0.22844 -0.184125 0.955763
1305031455.442380 -0.389768 0.439317 -0.28906 0.0125372 -0.220815 -0.173884 0.959608
1305031455.473168 -0.396538 0.440469 -0.292559 0.00615396 -0.219894 -0.163208 0.961755
1305031455.509397 -0.408565 0.445044 -0.299163 0.00230276 -0.216128 -0.153136 0.964279
1305031455.540835 -0.42481 0.445487 -0.307752 -0.00354432 -0.211913 -0.140402 0.967144
1305031455.572996 -0.441892 0.448089 -0.317019 -0.00549634 -0.210817 -0.127559 0.969152
1305031455.608802 -0.458959 0.452403 -0.327283 -0.00786863 -0.210217 -0.113142 0.971054
1305031455.641333 -0.477032 0.452573 -0.337486 -0.013039 -0.207345 -0.0998174 0.973075
1305031455.672887 -0.495432 0.449881 -0.348081 -0.012367 -0.203749 -0.0928926 0.974528
1305031455.707680 -0.512113 0.451113 -0.359409 -0.00842957 -0.200917 -0.0932657 0.975122
1305031455.742005 -0.529811 0.449297 -0.371422 -0.00679209 -0.196218 -0.0973738 0.97569
1305031455.773667 -0.546309 0.446515 -0.383574 -0.00589882 -0.189729 -0.100947 0.976616
1305031455.809109 -0.562952 0.438967 -0.39617 -0.00613331 -0.183109 -0.10008 0.977966
1305031455.838364 -0.577417 0.43674 -0.409127 -0.00313494 -0.179042 -0.0999339 0.978748
1305031455.872220 -0.591586 0.43274 -0.421803 -0.00311653 -0.176072 -0.10103 0.979174
1305031455.908418 -0.604458 0.429011 -0.433504 -0.00319668 -0.172712 -0.101631 0.97971
1305031455.939606 -0.617061 0.424802 -0.444249 -0.0039228 -0.168395 -0.102544 0.980363
1305031455.973594 -0.629299 0.422788 -0.454623 -0.00320327 -0.164173 -0.105238 0.980796
1305031456.008998 -0.639915 0.421759 -0.463489 -0.00445012 -0.159175 -0.108262 0.981286
1305031456.041930 -0.649271 0.421703 -0.470364 -0.00838689 -0.153342 -0.1138 0.981563
1305031456.073846 -0.662656 0.417408 -0.477946 -0.01787 -0.146297 -0.120823 0.981672
1305031456.108963 -0.677308 0.411523 -0.484956 -0.0242155 -0.140015 -0.124882 0.981944
1305031456.140836 -0.690348 0.4064 -0.490587 -0.0259954 -0.13447 -0.12643 0.982475
1305031456.173198 -0.702882 0.400014 -0.495231 -0.0270583 -0.12757 -0.126222 0.983393
1305031456.208934 -0.714789 0.39446 -0.499051 -0.0223741 -0.118826 -0.124269 0.984854
1305031456.240996 -0.720414 0.398047 -0.500961 -0.0161656 -0.110425 -0.122366 0.98619
1305031456.277928 -0.731833 0.39354 -0.502273 -0.0167567 -0.0982736 -0.119875 0.987771
1305031456.310040 -0.743685 0.386589 -0.502105 -0.0147091 -0.0870088 -0.115636 0.989364
1305031456.341659 -0.753578 0.384384 -0.501274 -0.00901397 -0.0766413 -0.109621 0.990973
1305031456.377115 -0.759286 0.388614 -0.4989 -0.00226307 -0.0664039 -0.105597 0.992187
1305031456.409172 -0.772213 0.381817 -0.495576 -0.00216767 -0.0528497 -0.101097 0.99347
1305031456.440717 -0.785232 0.380618 -0.49084 0.00443479 -0.0421886 -0.0942285 0.994646
1305031456.476027 -0.796096 0.38786 -0.484859 0.00690536 -0.0374256 -0.0868071 0.995498
1305031456.508911 -0.811285 0.391874 -0.477162 0.00219167 -0.0356741 -0.0806557 0.996101
1305031456.541832 -0.829275 0.393598 -0.468675 -0.00334601 -0.0344794 -0.0740828 0.99665
1305031456.576087 -0.844891 0.39038 -0.459488 -0.00712078 -0.0320005 -0.0690541 0.997074
1305031456.607930 -0.855776 0.397626 -0.449922 -0.00526677 -0.0283271 -0.0637268 0.997551
1305031456.640699 -0.867167 0.40901 -0.440293 -0.0135626 -0.0227408 -0.0593044 0.997889
1305031456.675835 -0.880816 0.402868 -0.429397 -0.0266237 -0.016076 -0.0519646 0.998165
1305031456.709099 -0.895161 0.402205 -0.419406 -0.0260586 -0.0116696 -0.0417923 0.998718
1305031456.740863 -0.906939 0.40992 -0.409939 -0.0291319 -0.0111583 -0.034091 0.998932
1305031456.777218 -0.926635 0.40443 -0.398788 -0.0367942 -0.0112068 -0.022817 0.998999
1305031456.808986 -0.941886 0.40696 -0.388462 -0.0322898 -0.0169829 -0.0156591 0.999212
1305031456.841050 -0.953644 0.417245 -0.378875 -0.0319555 -0.0194891 -0.00838351 0.999264
1305031456.878006 -0.967858 0.419357 -0.367808 -0.0379588 -0.0165578 -0.000689868 0.999142
1305031456.909883 -0.98137 0.417664 -0.357609 -0.040707 -0.0119905 0.00539591 0.999085
1305031456.942298 -0.992562 0.420686 -0.348558 -0.0364036 -0.00627725 0.010541 0.999262
1305031456.977139 -1.00169 0.428211 -0.34092 -0.0373989 -0.00160072 0.0133481 0.99921
1305031457.006193 -1.01567 0.429698 -0.333223 -0.0444996 0.00452612 0.0168004 0.998858
1305031457.042512 -1.0294 0.429243 -0.327216 -0.0472598 0.0099892 0.0206176 0.99862
1305031457.076011 -1.03956 0.433522 -0.323536 -0.0507319 0.0143544 0.0240776 0.998319
1305031457.108053 -1.05263 0.432108 -0.321038 -0.0598754 0.020984 0.0293707 0.997553
1305031457.142120 -1.06619 0.427427 -0.320346 -0.0640173 0.0287096 0.0350881 0.996918
1305031457.177463 -1.07846 0.426518 -0.322285 -0.0627706 0.0360846 0.0412767 0.996521
1305031457.209336 -1.08947 0.427789 -0.325993 -0.0619524 0.0427317 0.0459197 0.996106
1305031457.240792 -1.10376 0.424992 -0.329926 -0.0657328 0.0505304 0.0526637 0.995165
1305031457.277247 -1.11957 0.416494 -0.334153 -0.0652553 0.0593592 0.0607409 0.994248
1305031457.309693 -1.13322 0.415745 -0.341765 -0.0576842 0.0675411 0.0654622 0.993894
1305031457.342954 -1.14547 0.416981 -0.34988 -0.0542775 0.0768619 0.0689758 0.993171
1305031457.376037 -1.16113 0.412381 -0.357376 -0.0546628 0.0888009 0.0745718 0.991749
1305031457.407980 -1.17396 0.407943 -0.366655 -0.0501135 0.0989163 0.0817103 0.990468
1305031457.441357 -1.1886 0.40706 -0.376453 -0.046365 0.106475 0.0887577 0.98926
1305031457.476577 -1.20487 0.401267 -0.385096 -0.0464308 0.110515 0.0945407 0.988278
1305031457.508603 -1.22127 0.393669 -0.393647 -0.0460433 0.113607 0.0987607 0.987532
1305031457.543946 -1.23617 0.386576 -0.40296 -0.0429835 0.117562 0.10156 0.986923
1305031457.576581 -1.25146 0.38251 -0.412095 -0.0389829 0.122975 0.104465 0.986126
1305031457.607246 -1.26698 0.380677 -0.420336 -0.035257 0.12762 0.107533 0.985346
1305031457.643534 -1.28303 0.37503 -0.42712 -0.0341106 0.130742 0.110541 0.984644
1305031457.675414 -1.29838 0.374034 -0.433386 -0.0303101 0.133449 0.114172 0.983991
1305031457.707739 -1.31464 0.368353 -0.438565 -0.0352089 0.134962 0.116162 0.983388
1305031457.745071 -1.3309 0.354439 -0.442429 -0.0385345 0.137854 0.117227 0.982736
1305031457.773518 -1.34562 0.344682 -0.447547 -0.0361891 0.140984 0.116289 0.982492
1305031457.807824 -1.35951 0.331126 -0.452868 -0.0305997 0.146322 0.115604 0.981982
1305031457.842853 -1.37269 0.327263 -0.459368 -0.0209634 0.15423 0.114161 0.981194
1305031457.875920 -1.38742 0.319117 -0.46359 -0.0182687 0.162985 0.113548 0.979903
1305031457.906126 -1.40283 0.305187 -0.466122 -0.0122305 0.17145 0.11542 0.978332
1305031457.942604 -1.41858 0.297816 -0.467937 0.000691653 0.176512 0.118172 0.977179
1305031457.976744 -1.43511 0.294925 -0.467703 0.0091096 0.178926 0.121651 0.97627
1305031458.009019 -1.44937 0.284412 -0.466353 0.0134118 0.180867 0.122242 0.975789
1305031458.046303 -1.46243 0.274366 -0.46338 0.0213441 0.185293 0.121647 0.974891
1305031458.077315 -1.47877 0.275028 -0.457598 0.0307431 0.191267 0.122238 0.973411
1305031458.108896 -1.49329 0.275557 -0.449692 0.0324975 0.196252 0.123352 0.972221
1305031458.144808 -1.508 0.266145 -0.438973 0.0304405 0.201362 0.124444 0.971103
1305031458.178039 -1.52276 0.258585 -0.426895 0.0320206 0.204768 0.126178 0.970115
1305031458.209384 -1.54117 0.259129 -0.41228 0.0338194 0.206838 0.129881 0.969126
1305031458.245729 -1.55638 0.252943 -0.397638 0.0271529 0.205829 0.131453 0.969339
1305031458.277447 -1.56681 0.229908 -0.383488 0.0212871 0.203919 0.130889 0.969965
1305031458.308343 -1.58464 0.222612 -0.366273 0.0293077 0.2025 0.130101 0.970159
1305031458.343898 -1.59887 0.21748 -0.350657 0.0322196 0.198395 0.13155 0.970719
1305031458.376213 -1.60881 0.200086 -0.334571 0.0365186 0.194895 0.131187 0.971325
1305031458.407856 -1.62144 0.200312 -0.317088 0.0497987 0.193495 0.13273 0.970805
1305031458.443957 -1.62968 0.197831 -0.300924 0.0585036 0.193647 0.139339 0.969362
1305031458.476034 -1.63372 0.18875 -0.286875 0.0689058 0.198973 0.144117 0.966898
1305031458.508869 -1.63862 0.184578 -0.268795 0.0895207 0.210434 0.141939 0.963097
1305031458.544401 -1.65372 0.205182 -0.242901 0.113822 0.223633 0.137915 0.958129
1305031458.576178 -1.65799 0.212156 -0.222092 0.123345 0.232913 0.134644 0.955201
1305031458.608421 -1.66265 0.214608 -0.197542 0.133535 0.23976 0.129156 0.952891
1305031458.643659 -1.67101 0.234151 -0.168629 0.140712 0.241859 0.123909 0.952025
1305031458.676991 -1.67373 0.235851 -0.14378 0.135817 0.237702 0.125742 0.953541
1305031458.707780 -1.6747 0.237894 -0.121052 0.131072 0.223946 0.120638 0.958183
1305031458.744924 -1.66984 0.234251 -0.106313 0.127365 0.210427 0.110822 0.962921
1305031458.773802 -1.67179 0.236487 -0.0855668 0.132995 0.196606 0.100297 0.966229
1305031458.810621 -1.67228 0.24598 -0.0668365 0.13345 0.182288 0.0890954 0.970064
1305031458.842919 -1.66827 0.244782 -0.0552575 0.126692 0.172577 0.0850843 0.973102
1305031458.875889 -1.66643 0.233178 -0.0482229 0.124295 0.168352 0.0831742 0.974315
1305031458.910599 -1.66607 0.236159 -0.0394254 0.129782 0.169541 0.0740416 0.974131
1305031458.943997 -1.67129 0.242954 -0.0280315 0.131497 0.17534 0.0788136 0.972498
1305031458.976007 -1.67737 0.234417 -0.0204307 0.1239 0.180944 0.0916866 0.97134
1305031459.012560 -1.6879 0.212407 -0.0144225 0.120523 0.187288 0.0976126 0.969984
1305031459.044413 -1.70431 0.203424 -0.000863807 0.13122 0.186853 0.0995825 0.968478
1305031459.073657 -1.72457 0.192988 0.01431 0.140837 0.181667 0.107968 0.967215
1305031459.112711 -1.74789 0.177514 0.0311815 0.152732 0.169257 0.118465 0.966432
1305031459.144497 -1.76931 0.165281 0.047864 0.164281 0.147815 0.121074 0.967731
1305031459.176463 -1.7837 0.154607 0.0626398 0.17267 0.125319 0.1235 0.969138
1305031459.208791 -1.79405 0.151158 0.077137 0.179214 0.108117 0.129256 0.969271
1305031459.244159 -1.80413 0.147967 0.0917791 0.18227 0.0974607 0.137725 0.968665
1305031459.274941 -1.81358 0.15187 0.106689 0.183358 0.0975082 0.144734 0.967432
1305031459.311921 -1.81884 0.150802 0.115387 0.180326 0.108565 0.158371 0.964684
1305031459.344169 -1.82438 0.147786 0.121207 0.178723 0.126321 0.178094 0.959366
1305031459.374084 -1.83256 0.156811 0.130614 0.184579 0.149129 0.196087 0.951441
1305031459.408831 -1.84335 0.177997 0.144443 0.186881 0.172813 0.214226 0.943037
1305031459.443181 -1.84905 0.183167 0.147528 0.177566 0.202949 0.255506 0.928439
1305031459.473401 -1.85555 0.193967 0.150425 0.178416 0.232642 0.292002 0.910374
1305031459.510267 -1.87379 0.210517 0.167791 0.180108 0.253615 0.3168 0.896035
1305031459.544431 -1.88152 0.212706 0.174384 0.169855 0.268255 0.347538 0.882273
1305031459.576817 -1.8951 0.215648 0.181503 0.168017 0.281011 0.370458 0.869232
1305031459.611939 -1.91067 0.21786 0.19091 0.168404 0.287373 0.387062 0.859791
1305031459.643453 -1.92275 0.215062 0.195946 0.165453 0.288871 0.397656 0.855014
1305031459.675678 -1.93582 0.213141 0.202509 0.164384 0.295389 0.398601 0.85255
1305031459.711531 -1.95063 0.206907 0.209383 0.158404 0.306585 0.403645 0.84734
1305031459.743425 -1.96356 0.194428 0.212376 0.151805 0.315434 0.408541 0.842942
1305031459.776577 -1.97689 0.180742 0.216972 0.151031 0.322943 0.406309 0.841315
1305031459.812562 -1.99172 0.169118 0.223891 0.151491 0.327361 0.402695 0.841262
1305031459.844736 -2.00533 0.156442 0.231602 0.150331 0.328689 0.400763 0.841875
1305031459.877006 -2.01795 0.143539 0.241774 0.147296 0.328738 0.400308 0.842608
1305031459.911472 -2.02673 0.12758 0.247954 0.141841 0.324826 0.403557 0.843511
1305031459.943616 -2.03578 0.112529 0.253704 0.140333 0.322113 0.406426 0.843426
1305031459.979430 -2.04533 0.0975447 0.262398 0.13955 0.321263 0.410347 0.84198
1305031460.011909 -2.05213 0.0826876 0.267354 0.135672 0.319732 0.415421 0.840708
1305031460.043717 -2.05908 0.0647179 0.27324 0.133726 0.320211 0.42026 0.838429
1305031460.079449 -2.06613 0.05024 0.280902 0.134535 0.320406 0.421752 0.837476
1305031460.111951 -2.07328 0.0324777 0.291851 0.137712 0.316732 0.428177 0.835093
1305031460.144204 -2.07635 0.0156309 0.297836 0.142929 0.307807 0.436841 0.833065
1305031460.178730 -2.08091 0.00166128 0.30721 0.14979 0.300603 0.443609 0.83091
1305031460.208637 -2.07944 -0.00821746 0.310543 0.149599 0.29351 0.449699 0.830207
1305031460.243467 -2.07608 -0.0199752 0.310366 0.148173 0.292219 0.454101 0.82852
1305031460.279164 -2.07772 -0.0290074 0.315227 0.149844 0.299811 0.453327 0.825927
1305031460.311712 -2.07622 -0.0417314 0.318116 0.148423 0.308258 0.453361 0.82305
1305031460.342879 -2.07519 -0.0541103 0.322696 0.148415 0.317214 0.45441 0.81906
1305031460.377806 -2.07702 -0.0615331 0.330476 0.14801 0.326317 0.455999 0.814662
1305031460.409883 -2.07482 -0.0741723 0.333538 0.143371 0.335796 0.460894 0.808865
1305031460.444036 -2.07316 -0.0854492 0.338551 0.14124 0.345771 0.465173 0.802563
1305031460.479856 -2.07313 -0.0931372 0.345659 0.138988 0.35865 0.468121 0.79556
1305031460.508966 -2.07092 -0.10119 0.350142 0.132308 0.370966 0.474252 0.787377
1305031460.544245 -2.06959 -0.111451 0.354077 0.125274 0.380412 0.484293 0.777852
1305031460.579561 -2.06839 -0.121058 0.355959 0.118384 0.38905 0.489329 0.771481
1305031460.612190 -2.06735 -0.133642 0.362001 0.113647 0.39833 0.491202 0.766249
1305031460.644011 -2.06684 -0.144121 0.366766 0.110248 0.406623 0.493472 0.760913
1305031460.679350 -2.06689 -0.153891 0.372632 0.107883 0.414317 0.492888 0.757472
1305031460.711684 -2.06786 -0.163505 0.379837 0.104726 0.41872 0.494146 0.754669
1305031460.743767 -2.06784 -0.173582 0.387928 0.0995731 0.421797 0.494439 0.75346
1305031460.779201 -2.06581 -0.186442 0.395246 0.0953634 0.427128 0.494038 0.751262
1305031460.811318 -2.06472 -0.197241 0.403215 0.0921604 0.431451 0.49337 0.749628
1305031460.843836 -2.0633 -0.208707 0.413335 0.086755 0.434608 0.492105 0.749281
1305031460.879093 -2.06119 -0.21896 0.422859 0.0795861 0.439144 0.490329 0.748596
1305031460.911313 -2.05627 -0.231141 0.430094 0.071082 0.443318 0.489226 0.747713
1305031460.943375 -2.05072 -0.242797 0.436412 0.0643989 0.444585 0.489985 0.747069
1305031460.979083 -2.0442 -0.255501 0.442113 0.0601635 0.445143 0.492831 0.745215
1305031461.011290 -2.03637 -0.268382 0.446084 0.059489 0.44794 0.493496 0.74315
1305031461.043398 -2.02847 -0.281883 0.451695 0.059749 0.449983 0.49493 0.740938
1305031461.079602 -2.02359 -0.291277 0.459817 0.062602 0.451766 0.494481 0.739917
1305031461.111961 -2.01803 -0.299796 0.467638 0.0606392 0.450401 0.494722 0.740751
1305031461.144098 -2.0099 -0.311344 0.473575 0.0579224 0.450975 0.493972 0.741119
1305031461.179883 -2.00251 -0.321332 0.47797 0.0587358 0.45275 0.492338 0.741061
1305031461.211180 -1.99638 -0.329004 0.484274 0.0599695 0.454644 0.48862 0.742262
1305031461.246864 -1.99053 -0.336724 0.490427 0.0597662 0.456395 0.486777 0.742415
1305031461.278888 -1.98434 -0.343568 0.495252 0.0605029 0.457562 0.483824 0.743566
1305031461.311240 -1.97903 -0.348016 0.501414 0.061385 0.459402 0.477653 0.746343
1305031461.346875 -1.97279 -0.351618 0.508451 0.0609574 0.462912 0.472725 0.747347
1305031461.378850 -1.96657 -0.350916 0.514295 0.0562054 0.465765 0.469316 0.748095
1305031461.411130 -1.9566 -0.357114 0.51707 0.0481913 0.464731 0.471707 0.747793
1305031461.447015 -1.94816 -0.361349 0.52066 0.0460564 0.465214 0.470535 0.748366
1305031461.478901 -1.942 -0.360966 0.522854 0.041871 0.464505 0.472196 0.748006
1305031461.512120 -1.93233 -0.368688 0.520435 0.0376879 0.463405 0.47554 0.746791
1305031461.547338 -1.92782 -0.368522 0.519778 0.041189 0.465343 0.472336 0.747434
1305031461.578847 -1.92437 -0.367955 0.518202 0.039435 0.46772 0.470012 0.74751
1305031461.609662 -1.92082 -0.364746 0.514319 0.0375208 0.473885 0.465772 0.746379
1305031461.646970 -1.91787 -0.359986 0.510958 0.0348323 0.478482 0.465785 0.743563
1305031461.676203 -1.91449 -0.354597 0.506736 0.0324145 0.481541 0.465967 0.741581
1305031461.711212 -1.91302 -0.345812 0.502745 0.0315957 0.482211 0.469827 0.73874
1305031461.746919 -1.91074 -0.33937 0.497563 0.0307986 0.481163 0.476147 0.735403
1305031461.778616 -1.91125 -0.329621 0.494891 0.0307405 0.482836 0.478046 0.733073
1305031461.811319 -1.91213 -0.318488 0.489999 0.0289244 0.483581 0.482338 0.729837
1305031461.847090 -1.91296 -0.307262 0.485004 0.0280454 0.486575 0.486065 0.725396
1305031461.879162 -1.91824 -0.290625 0.48329 0.0299528 0.489886 0.490901 0.719813
1305031461.911121 -1.92386 -0.272726 0.482962 0.0314894 0.490006 0.5011 0.712602
1305031461.947264 -1.92616 -0.260159 0.47924 0.0284022 0.486231 0.511392 0.70799
1305031461.979223 -1.92983 -0.247193 0.477023 0.0244487 0.489177 0.513275 0.704739
1305031462.011791 -1.93786 -0.23112 0.480225 0.0206217 0.494396 0.517506 0.698094
1305031462.047463 -1.94244 -0.217953 0.479971 0.0180803 0.490807 0.529582 0.69161
1305031462.079285 -1.94721 -0.205943 0.479345 0.0193482 0.483666 0.541312 0.687514
1305031462.112081 -1.95286 -0.194221 0.478358 0.0201089 0.476784 0.551033 0.684569
1305031462.147634 -1.95801 -0.184831 0.478325 0.018812 0.472841 0.558965 0.680901
1305031462.179358 -1.96435 -0.175429 0.477454 0.0173027 0.469818 0.564549 0.678422
1305031462.212836 -1.97093 -0.167948 0.479283 0.013702 0.469464 0.564655 0.67866
1305031462.248986 -1.97904 -0.159467 0.48223 0.008657 0.469862 0.564722 0.678412
1305031462.280774 -1.98675 -0.1514 0.484999 0.00322997 0.468303 0.563615 0.680456
1305031462.311931 -1.99514 -0.143262 0.488993 -0.00218527 0.46628 0.560309 0.684567
1305031462.347816 -2.00313 -0.134895 0.491642 -0.0101429 0.464315 0.555701 0.689568
1305031462.379950 -2.01272 -0.126009 0.496069 -0.0168591 0.463294 0.55072 0.694105
1305031462.413016 -2.02106 -0.118635 0.50172 -0.024647 0.458798 0.548383 0.698694
1305031462.448295 -2.02954 -0.111337 0.50587 -0.0321964 0.45255 0.545557 0.704649
1305031462.480843 -2.03864 -0.104195 0.510033 -0.0389145 0.445407 0.543119 0.710718
1305031462.517041 -2.04744 -0.0969453 0.511692 -0.0471983 0.437209 0.541451 0.716555
1305031462.548959 -2.04744 -0.0969453 0.511692 -0.0471983 0.437209 0.541451 0.716555
1305031462.581088 -2.04744 -0.0969453 0.511692 -0.0471983 0.437209 0.541451 0.716555
1305031462.617123 -2.04744 -0.0969453 0.511692 -0.0471983 0.437209 0.541451 0.716555
1305031462.648708 -2.04744 -0.0969453 0.511692 -0.0471983 0.437209 0.541451 0.716555
1305031462.680788 -2.05653 -0.0910922 0.506701 -0.047929 0.436254 0.532069 0.724077
1305031462.716812 -2.05653 -0.0910922 0.506701 -0.047929 0.436254 0.532069 0.724077
1305031462.748732 -2.0677 -0.0849846 0.50296 -0.0485423 0.431134 0.523044 0.733616
1305031462.780885 -2.07728 -0.0770953 0.497183 -0.0497971 0.42508 0.513386 0.743816
1305031462.816821 -2.07728 -0.0770953 0.497183 -0.0497971 0.42508 0.513386 0.743816
1305031462.848525 -2.0868 -0.0672601 0.489058 -0.0517225 0.419413 0.509322 0.749673
1305031462.880471 -2.09461 -0.0559458 0.477772 -0.0535657 0.414786 0.506297 0.754153
1305031462.916800 -2.1017 -0.0432898 0.463746 -0.0548403 0.412801 0.502403 0.757746
1305031462.947939 -2.10788 -0.0324318 0.450672 -0.0542084 0.41081 0.500413 0.760187
1305031462.979943 -2.11104 -0.0229565 0.436235 -0.0527557 0.406378 0.498142 0.764152
1305031463.016121 -2.11461 -0.0139858 0.421445 -0.0479741 0.403139 0.494144 0.768764
1305031463.050783 -2.12131 -0.00385013 0.407439 -0.0423463 0.400933 0.485426 0.775771
1305031463.076870 -2.12865 0.00713396 0.393944 -0.0384323 0.396717 0.476581 0.783587
1305031463.116806 -2.13102 0.0153474 0.378891 -0.0385515 0.392631 0.469941 0.789627
1305031463.148565 -2.13611 0.023793 0.364743 -0.0355399 0.392418 0.460451 0.795443
1305031463.180505 -2.14312 0.0366713 0.351158 -0.0312894 0.39188 0.449429 0.802162
1305031463.217123 -2.1465 0.0485226 0.337145 -0.0327562 0.389832 0.442024 0.807201
1305031463.248719 -2.14398 0.0541442 0.324022 -0.0329127 0.387839 0.440035 0.809239
1305031463.278737 -2.14379 0.0663256 0.310217 -0.0275476 0.387484 0.431714 0.814076
1305031463.317110 -2.1438 0.0782022 0.297821 -0.0269389 0.386172 0.424647 0.818426
1305031463.348740 -2.13981 0.0845946 0.284867 -0.0272045 0.382054 0.423729 0.820822
1305031463.380514 -2.13687 0.0945804 0.27266 -0.021318 0.378665 0.41882 0.825075
1305031463.416326 -2.13652 0.110221 0.26063 -0.0163781 0.375044 0.412407 0.830057
1305031463.444773 -2.13242 0.121174 0.248139 -0.0165873 0.371957 0.409088 0.833079
1305031463.480415 -2.12745 0.134229 0.234921 -0.0158216 0.371021 0.405517 0.835254
1305031463.516994 -2.12745 0.134229 0.234921 -0.0158216 0.371021 0.405517 0.835254
1305031463.548505 -2.1206 0.142188 0.220247 -0.0156843 0.374112 0.404105 0.834562
1305031463.580684 -2.11761 0.151767 0.207967 -0.0113329 0.376687 0.404957 0.83306
1305031463.616671 -2.11761 0.151767 0.207967 -0.0113329 0.376687 0.404957 0.83306
1305031463.646147 -2.10761 0.153058 0.190528 -0.0120421 0.37465 0.404815 0.834037
1305031463.683908 -2.10005 0.159185 0.172847 -0.00452063 0.376439 0.401908 0.834711
1305031463.716110 -2.10005 0.159185 0.172847 -0.00452063 0.376439 0.401908 0.834711
1305031463.747849 -2.08679 0.161399 0.147289 -0.00881692 0.372844 0.399415 0.837483
1305031463.783912 -2.07597 0.165129 0.123187 -0.00451007 0.374583 0.394443 0.839096
1305031463.815883 -2.06756 0.168609 0.101143 -0.00368196 0.376988 0.383087 0.843274
1305031463.848094 -2.05708 0.170002 0.07643 -0.0073027 0.376656 0.372663 0.848056
1305031463.883817 -2.04665 0.16899 0.0525003 -0.00767927 0.377942 0.363647 0.851388
1305031463.917433 -2.03858 0.168385 0.0303164 -0.00729047 0.379765 0.353996 0.854642
1305031463.944435 -2.03102 0.167186 0.00937989 -0.00672202 0.377819 0.349485 0.857361
1305031463.983748 -2.02133 0.163454 -0.0135422 -0.00612472 0.373263 0.344079 0.861537
1305031464.015867 -2.01395 0.160222 -0.0354166 -0.00439333 0.370771 0.336241 0.865709
1305031464.047778 -2.00831 0.157557 -0.0556878 -0.00515102 0.368604 0.327917 0.869813
1305031464.083152 -2.00073 0.152776 -0.0780253 -0.00631957 0.367373 0.319524 0.873442
1305031464.115837 -1.99593 0.147427 -0.0982219 -0.00533188 0.369355 0.31011 0.876002
1305031464.147663 -1.99252 0.143767 -0.117128 -0.00187291 0.367801 0.306352 0.877991
1305031464.183566 -1.98804 0.136844 -0.134873 0.00477748 0.363588 0.305043 0.880187
1305031464.212447 -1.98457 0.129648 -0.151885 0.0152045 0.357759 0.301351 0.883722
1305031464.247602 -1.98348 0.130452 -0.166102 0.0272739 0.34899 0.296148 0.888683
1305031464.283694 -1.98308 0.131176 -0.178173 0.0356089 0.33604 0.293496 0.894242
1305031464.315699 -1.97901 0.131709 -0.194192 0.0400524 0.319447 0.289029 0.901561
1305031464.347553 -1.97041 0.132503 -0.213136 0.0426238 0.305931 0.283225 0.90795
1305031464.383465 -1.96188 0.130745 -0.231261 0.0459433 0.296943 0.276743 0.912758
1305031464.415539 -1.95333 0.135521 -0.250934 0.0498515 0.291876 0.266789 0.91714
1305031464.444269 -1.94554 0.136578 -0.269558 0.049331 0.290728 0.256822 0.920373
1305031464.487561 -1.93669 0.135289 -0.289011 0.0505527 0.287817 0.249042 0.923355
1305031464.513688 -1.92764 0.137431 -0.310941 0.0515675 0.285039 0.242122 0.925997
1305031464.548007 -1.92185 0.138064 -0.330241 0.0506413 0.284941 0.234129 0.928131
1305031464.584260 -1.91351 0.13546 -0.353041 0.0463627 0.28288 0.223282 0.931652
1305031464.615688 -1.9028 0.130664 -0.380412 0.0470088 0.287153 0.211428 0.933076
1305031464.648851 -1.89658 0.126225 -0.403201 0.0526382 0.300013 0.200027 0.931242
1305031464.684318 -1.88979 0.122007 -0.42452 0.0580559 0.312451 0.185295 0.929876
1305031464.716305 -1.88274 0.10766 -0.442545 0.0660986 0.324534 0.168175 0.928454
1305031464.748588 -1.87689 0.101106 -0.455518 0.0793427 0.331103 0.14919 0.928341
1305031464.784268 -1.87378 0.10326 -0.463829 0.0874631 0.3313 0.128607 0.930618
1305031464.816195 -1.86682 0.0930751 -0.468698 0.0921277 0.326269 0.111566 0.934138
1305031464.848283 -1.86141 0.0896362 -0.469283 0.101864 0.314387 0.0971273 0.938803
1305031464.884177 -1.85076 0.0932504 -0.471224 0.106591 0.298056 0.0823404 0.944998
1305031464.916391 -1.8353 0.0912795 -0.474554 0.101149 0.282104 0.0624369 0.951991
1305031464.952471 -1.81437 0.0794067 -0.4803 0.0947768 0.270127 0.0420888 0.957224
1305031464.984257 -1.79389 0.0703136 -0.483346 0.0948184 0.264271 0.0239566 0.959477
1305031465.015390 -1.77684 0.0757211 -0.480844 0.0980973 0.26285 0.00316981 0.959832
1305031465.048430 -1.76177 0.0722937 -0.475379 0.0976265 0.262127 -0.0175557 0.959922
1305031465.083338 -1.75555 0.0874912 -0.45945 0.101439 0.25743 -0.036085 0.96028
1305031465.115475 -1.73997 0.116728 -0.444554 0.0950354 0.245024 -0.0514022 0.963478
1305031465.151558 -1.72301 0.128189 -0.429692 0.0770268 0.232462 -0.0614147 0.967604
1305031465.183558 -1.70403 0.137648 -0.415995 0.0618234 0.219892 -0.0673073 0.971234
1305031465.215832 -1.6836 0.147188 -0.403849 0.05021 0.208178 -0.072415 0.974113
1305031465.251788 -1.6626 0.162807 -0.393041 0.0396957 0.19761 -0.0755068 0.976562
1305031465.283737 -1.64057 0.169768 -0.38393 0.031479 0.186478 -0.0707846 0.9794
1305031465.315985 -1.61886 0.187212 -0.376046 0.0310571 0.174446 -0.059091 0.982401
1305031465.351729 -1.59835 0.198865 -0.369236 0.0273812 0.159117 -0.0455512 0.985828
1305031465.383701 -1.57689 0.204356 -0.36455 0.0263986 0.140906 -0.0334307 0.989106
1305031465.416543 -1.55369 0.21403 -0.363327 0.0298877 0.122976 -0.0239281 0.991671
1305031465.452401 -1.52998 0.227067 -0.364777 0.0347492 0.108703 -0.0144031 0.993362
1305031465.483803 -1.51272 0.246676 -0.36714 0.0405945 0.097992 -0.00311613 0.994354
1305031465.516043 -1.49187 0.261573 -0.371313 0.0396963 0.0870213 0.00487901 0.995403
1305031465.551838 -1.47169 0.266621 -0.376022 0.039264 0.0767245 0.00895927 0.996239
1305031465.583570 -1.44844 0.281258 -0.384166 0.0465245 0.0668366 0.0123486 0.996602
1305031465.615685 -1.42587 0.300046 -0.392572 0.0536449 0.0608631 0.0190887 0.996521
1305031465.651645 -1.40709 0.318839 -0.400002 0.0608865 0.0543225 0.0292149 0.996237
1305031465.684759 -1.38809 0.337029 -0.408317 0.0676557 0.0436061 0.0368445 0.996074
1305031465.716279 -1.36474 0.355205 -0.416839 0.0745622 0.0359764 0.0413772 0.995708
1305031465.753153 -1.34423 0.376285 -0.424279 0.0840051 0.0310327 0.0496394 0.994744
1305031465.784387 -1.32395 0.401028 -0.431083 0.0933685 0.0257333 0.0570857 0.993661
1305031465.816591 -1.30325 0.421152 -0.437358 0.100083 0.0220252 0.0630828 0.992733
1305031465.852860 -1.2832 0.440011 -0.443528 0.11029 0.018287 0.0684952 0.991368
1305031465.884370 -1.26192 0.473798 -0.448693 0.123114 0.0162612 0.0701096 0.989779
1305031465.912828 -1.24296 0.497566 -0.452892 0.126916 0.0210171 0.0730283 0.988998
1305031465.952840 -1.22305 0.514275 -0.458383 0.132998 0.0275387 0.0750081 0.98789
1305031465.984183 -1.2024 0.53962 -0.46328 0.143656 0.0339651 0.0731061 0.986339
1305031466.016599 -1.18428 0.56463 -0.467613 0.150859 0.0372886 0.0708021 0.985311
1305031466.052655 -1.16697 0.594372 -0.470772 0.15775 0.0374949 0.069674 0.984304
1305031466.083913 -1.15308 0.62023 -0.474211 0.1567 0.0374324 0.0721636 0.984295
1305031466.116400 -1.14259 0.64015 -0.478971 0.152763 0.0348221 0.0738544 0.984884
1305031466.152540 -1.13207 0.658551 -0.486088 0.147679 0.0300914 0.0752932 0.985706
1305031466.184186 -1.12301 0.677824 -0.494975 0.143258 0.0238762 0.0785969 0.986271
1305031466.220477 -1.1138 0.696303 -0.5049 0.135734 0.0142607 0.0780382 0.987564
1305031466.252491 -1.10164 0.709351 -0.51778 0.125822 0.00576937 0.0741021 0.989265
1305031466.284389 -1.08922 0.717835 -0.532623 0.123719 0.00549226 0.0662301 0.990089
1305031466.320055 -1.07572 0.733075 -0.547118 0.125409 0.0120072 0.0545654 0.990531
1305031466.352082 -1.05963 0.74954 -0.561722 0.124121 0.0199632 0.0452083 0.991036
1305031466.384479 -1.04676 0.758648 -0.576539 0.1177 0.0267076 0.041912 0.991805
1305031466.420844 -1.03521 0.761195 -0.592605 0.117283 0.0288325 0.0403084 0.991861
1305031466.452369 -1.02045 0.778473 -0.60546 0.123747 0.0244375 0.0349947 0.991395
1305031466.483315 -1.00624 0.794196 -0.616213 0.123469 0.0189879 0.0311504 0.991678
1305031466.519548 -0.988179 0.804556 -0.625146 0.120231 0.0150398 0.0303007 0.992169
1305031466.552219 -0.966213 0.814683 -0.633818 0.119153 0.0164304 0.0294566 0.992303
1305031466.584438 -0.946385 0.831354 -0.641216 0.117032 0.0171641 0.0257035 0.992647
1305031466.620424 -0.926535 0.842332 -0.647231 0.108683 0.0160728 0.0233764 0.993672
1305031466.648654 -0.90571 0.84074 -0.65362 0.104028 0.0185361 0.0226196 0.994144
1305031466.684412 -0.883637 0.852277 -0.662044 0.109755 0.0189044 0.0146256 0.993671
1305031466.719744 -0.864405 0.869273 -0.667477 0.109554 0.0164225 0.00423628 0.993836
1305031466.748734 -0.844893 0.872162 -0.672593 0.103258 0.0143827 -0.00304565 0.994546
1305031466.784300 -0.830997 0.871485 -0.680547 0.105041 0.0169459 -0.0103117 0.99427
1305031466.819502 -0.811723 0.886619 -0.687245 0.110912 0.0131797 -0.0169612 0.993598
1305031466.851527 -0.795746 0.893351 -0.693211 0.107675 0.00836689 -0.0198461 0.993953
1305031466.883430 -0.784628 0.891567 -0.700037 0.10576 0.00231541 -0.0179588 0.994227
1305031466.919411 -0.768371 0.898574 -0.705298 0.109873 -0.0106563 -0.0201039 0.993685
1305031466.952451 -0.754651 0.903037 -0.712379 0.110258 -0.0237507 -0.0231552 0.993349
1305031466.984027 -0.733735 0.907603 -0.718204 0.111936 -0.0340623 -0.0260528 0.99279
1305031467.020424 -0.716132 0.911737 -0.7238 0.112694 -0.0391844 -0.0299089 0.992406
1305031467.052391 -0.701061 0.915445 -0.729651 0.113152 -0.0430102 -0.0345348 0.992045
1305031467.084130 -0.682623 0.920518 -0.734189 0.113446 -0.0462193 -0.0387945 0.99171
1305031467.120528 -0.66859 0.922196 -0.739505 0.11045 -0.0471641 -0.0448312 0.991749
1305031467.152363 -0.656293 0.92256 -0.744802 0.110065 -0.0489363 -0.0553748 0.991173
1305031467.184216 -0.644691 0.926185 -0.749608 0.111468 -0.051451 -0.062643 0.990456
1305031467.220466 -0.632496 0.92843 -0.754352 0.111995 -0.0563162 -0.0672624 0.989829
1305031467.252275 -0.619796 0.931404 -0.759041 0.112791 -0.062474 -0.0730372 0.988959
1305031467.284258 -0.605175 0.9332 -0.76372 0.114448 -0.0677697 -0.0786252 0.987991
1305031467.318028 -0.592051 0.937061 -0.768776 0.116446 -0.0728164 -0.0854858 0.986828
1305031467.349355 -0.57854 0.943248 -0.773497 0.117823 -0.0785742 -0.0901342 0.985809
1305031467.383844 -0.565125 0.950964 -0.777459 0.11549 -0.0851888 -0.0925977 0.985307
1305031467.420160 -0.553457 0.953181 -0.783518 0.110053 -0.0916769 -0.0973372 0.98489
1305031467.452057 -0.541331 0.952094 -0.790523 0.107832 -0.0970404 -0.100607 0.984293
1305031467.484357 -0.52493 0.958581 -0.795422 0.108414 -0.104801 -0.103542 0.983129
1305031467.520535 -0.507821 0.966943 -0.798665 0.105313 -0.112213 -0.109374 0.982016
1305031467.552164 -0.491941 0.963514 -0.803151 0.0996811 -0.11516 -0.115895 0.981514
1305031467.584354 -0.478368 0.964029 -0.808282 0.099679 -0.115978 -0.118012 0.981166
1305031467.618680 -0.466523 0.963818 -0.811971 0.0991859 -0.117976 -0.116971 0.981102
1305031467.651977 -0.456241 0.954506 -0.81537 0.0999595 -0.122631 -0.115339 0.980646
1305031467.686044 -0.440324 0.952287 -0.815769 0.106655 -0.128653 -0.112761 0.979468
1305031467.718326 -0.422705 0.950344 -0.812431 0.110493 -0.133261 -0.116295 0.978013
1305031467.752580 -0.411214 0.940302 -0.809912 0.11382 -0.135076 -0.121705 0.976723
1305031467.788562 -0.400031 0.935406 -0.805405 0.120053 -0.137246 -0.124712 0.975294
1305031467.820454 -0.388838 0.926526 -0.799073 0.123117 -0.140028 -0.127413 0.974166
1305031467.852678 -0.383212 0.912725 -0.792555 0.127256 -0.142283 -0.127792 0.973258
1305031467.888472 -0.372797 0.904643 -0.782791 0.13454 -0.148335 -0.125331 0.971693
1305031467.920800 -0.361297 0.897389 -0.771233 0.139533 -0.156804 -0.127338 0.969396
1305031467.952485 -0.353604 0.882539 -0.76033 0.14191 -0.163269 -0.130406 0.967574
1305031467.988523 -0.341749 0.871077 -0.747941 0.148406 -0.167781 -0.133609 0.965388
1305031468.020491 -0.327627 0.866172 -0.732695 0.150598 -0.17056 -0.136176 0.964202
1305031468.052668 -0.325729 0.848405 -0.721207 0.148666 -0.170498 -0.139066 0.9641
1305031468.088379 -0.318164 0.833283 -0.708824 0.152746 -0.173331 -0.142171 0.962503
1305031468.120522 -0.308024 0.823263 -0.695314 0.153533 -0.176814 -0.143513 0.961545
1305031468.152356 -0.297807 0.803648 -0.682263 0.151672 -0.180081 -0.145765 0.960895
1305031468.188327 -0.288047 0.789458 -0.670725 0.152625 -0.181862 -0.149185 0.959883
1305031468.220648 -0.278144 0.772182 -0.659729 0.150453 -0.182531 -0.152041 0.959651
1305031468.252517 -0.267623 0.751469 -0.650151 0.147525 -0.182613 -0.151269 0.960212
1305031468.288361 -0.253815 0.733991 -0.63948 0.146823 -0.182317 -0.150773 0.960454
1305031468.320522 -0.244773 0.711072 -0.632492 0.14413 -0.180747 -0.151435 0.961054
1305031468.352594 -0.233908 0.686733 -0.626415 0.14445 -0.179486 -0.148678 0.961672
1305031468.384700 -0.221195 0.673561 -0.619223 0.146574 -0.178786 -0.144687 0.96209
1305031468.420595 -0.212799 0.656594 -0.613996 0.142154 -0.178736 -0.144681 0.962763
1305031468.452605 -0.205681 0.631596 -0.610992 0.136778 -0.179787 -0.144216 0.963416
1305031468.488646 -0.19689 0.612651 -0.607571 0.134431 -0.180744 -0.142289 0.963854
1305031468.520786 -0.190149 0.592644 -0.604529 0.131032 -0.179702 -0.144934 0.964122
1305031468.552701 -0.187101 0.569247 -0.602654 0.131368 -0.178962 -0.15207 0.963115
1305031468.588614 -0.188321 0.547846 -0.603825 0.13505 -0.178219 -0.15971 0.961505
1305031468.620590 -0.188923 0.534758 -0.603222 0.133862 -0.17825 -0.162734 0.961158
1305031468.656644 -0.189235 0.511415 -0.601232 0.126706 -0.180914 -0.164877 0.961265
1305031468.688643 -0.193141 0.490037 -0.601454 0.126418 -0.185067 -0.167421 0.960072
1305031468.720560 -0.198648 0.471013 -0.602326 0.129687 -0.190164 -0.17037 0.958119
1305031468.756725 -0.201748 0.456598 -0.600992 0.132399 -0.195302 -0.170175 0.956749
1305031468.788562 -0.204246 0.439214 -0.600107 0.132988 -0.199037 -0.171934 0.955582
1305031468.817997 -0.209777 0.417723 -0.600031 0.136918 -0.200193 -0.178503 0.953579
1305031468.854887 -0.211965 0.406655 -0.599231 0.143439 -0.201311 -0.183428 0.951448
1305031468.889220 -0.210293 0.396118 -0.594719 0.143812 -0.20025 -0.187536 0.950815
1305031468.920539 -0.21218 0.382953 -0.592115 0.14034 -0.195199 -0.188678 0.952157
1305031468.956482 -0.212749 0.375888 -0.588815 0.136247 -0.189982 -0.184314 0.954658
1305031468.986011 -0.211952 0.376135 -0.582013 0.130074 -0.186418 -0.182833 0.956505
1305031469.020731 -0.214489 0.373338 -0.574957 0.113876 -0.184009 -0.188358 0.957964
1305031469.056318 -0.219435 0.363098 -0.569339 0.0951713 -0.180906 -0.192976 0.959675
1305031469.088069 -0.224972 0.355574 -0.56337 0.0821215 -0.179537 -0.198879 0.959932
1305031469.119984 -0.226413 0.349447 -0.553644 0.069842 -0.177196 -0.209432 0.959094
1305031469.155046 -0.225629 0.342002 -0.54327 0.057734 -0.169857 -0.218852 0.959124
1305031469.184648 -0.227034 0.334489 -0.533738 0.0472914 -0.160554 -0.225186 0.959832
1305031469.219541 -0.228665 0.328052 -0.524035 0.0398699 -0.151782 -0.229058 0.96068
1305031469.256002 -0.22934 0.324276 -0.512823 0.0352284 -0.148233 -0.231547 0.960818
1305031469.288263 -0.232613 0.322187 -0.50216 0.0300165 -0.144601 -0.234525 0.960827
1305031469.319772 -0.233902 0.319604 -0.489761 0.024992 -0.140468 -0.237 0.960976
1305031469.356116 -0.235849 0.323063 -0.477195 0.0202024 -0.137361 -0.238734 0.961109
1305031469.388556 -0.238926 0.317632 -0.465049 0.0127539 -0.129757 -0.242886 0.961253
1305031469.420278 -0.240325 0.317092 -0.452803 0.0117058 -0.117424 -0.247394 0.961702
1305031469.456563 -0.24041 0.322422 -0.439724 0.0125747 -0.106005 -0.253428 0.961446
1305031469.488520 -0.241377 0.328863 -0.42571 0.0131359 -0.0971305 -0.260221 0.960561
1305031469.520417 -0.242747 0.336732 -0.411668 0.01334 -0.0937813 -0.262589 0.960247
1305031469.556139 -0.244572 0.341547 -0.397852 0.00846386 -0.0945306 -0.263588 0.959955
1305031469.588500 -0.246075 0.348279 -0.383321 0.00194322 -0.0949823 -0.263807 0.959886
1305031469.620563 -0.246954 0.35554 -0.36881 -0.00617021 -0.0952709 -0.263446 0.959938
1305031469.656279 -0.247714 0.3663 -0.354361 -0.0138221 -0.0931266 -0.260804 0.96079
1305031469.687925 -0.249451 0.375104 -0.340185 -0.0181455 -0.0896312 -0.259232 0.961476
1305031469.718943 -0.251917 0.384937 -0.326373 -0.0224186 -0.0856014 -0.257769 0.962146
1305031469.756754 -0.255118 0.3947 -0.312866 -0.027489 -0.0809775 -0.255678 0.962972
1305031469.784733 -0.259334 0.406543 -0.299739 -0.0333768 -0.0773152 -0.252399 0.963952
1305031469.820544 -0.263702 0.421437 -0.287029 -0.0377151 -0.0770573 -0.247998 0.964954
1305031469.854359 -0.270218 0.43407 -0.275642 -0.0429724 -0.0782901 -0.245628 0.965241
1305031469.885343 -0.278164 0.448996 -0.264997 -0.0485909 -0.0794911 -0.242033 0.965785
1305031469.921773 -0.286432 0.463099 -0.254992 -0.0524471 -0.0802363 -0.239176 0.966233
1305031469.953180 -0.296655 0.476231 -0.245508 -0.0554881 -0.0819909 -0.236167 0.966656
1305031469.985327 -0.308203 0.489798 -0.237788 -0.0575004 -0.0837513 -0.234126 0.966884
1305031470.024714 -0.320003 0.503453 -0.230915 -0.0595342 -0.0850301 -0.232184 0.967117
1305031470.057400 -0.333842 0.516583 -0.2255 -0.0625075 -0.0853663 -0.231749 0.967005
1305031470.088874 -0.347302 0.532053 -0.221391 -0.0638755 -0.0846774 -0.230467 0.967282
1305031470.124820 -0.360835 0.545143 -0.218365 -0.0657589 -0.0831403 -0.228915 0.967658
1305031470.156744 -0.374178 0.559976 -0.215819 -0.0687473 -0.0818584 -0.226599 0.968104
1305031470.188876 -0.390451 0.573261 -0.213976 -0.0717289 -0.0817184 -0.223222 0.968684
1305031470.224776 -0.403522 0.584845 -0.212765 -0.0739403 -0.0821846 -0.221136 0.968957
1305031470.253015 -0.416689 0.597867 -0.211854 -0.076887 -0.0810835 -0.218005 0.96953
1305031470.287867 -0.429493 0.610587 -0.210722 -0.0800267 -0.0799313 -0.214964 0.97005
1305031470.324266 -0.442329 0.62242 -0.209367 -0.0854361 -0.0791626 -0.212539 0.970186
1305031470.356871 -0.457557 0.633276 -0.207928 -0.0913155 -0.0778766 -0.208566 0.970617
1305031470.388056 -0.471681 0.642605 -0.207021 -0.0965676 -0.078766 -0.205434 0.970705
1305031470.424090 -0.48613 0.651372 -0.206409 -0.0999998 -0.0802806 -0.204698 0.970388
1305031470.455875 -0.50166 0.659019 -0.206647 -0.101808 -0.0817432 -0.207123 0.969564
1305031470.487958 -0.515983 0.666445 -0.207443 -0.101402 -0.0835398 -0.20905 0.969039
1305031470.524431 -0.528617 0.674052 -0.208306 -0.100264 -0.085187 -0.20921 0.96898
1305031470.556484 -0.541872 0.681546 -0.209333 -0.100045 -0.0848903 -0.209139 0.969044
1305031470.588797 -0.555107 0.687654 -0.209877 -0.102197 -0.0838975 -0.207183 0.969326
1305031470.624535 -0.566201 0.692844 -0.210011 -0.10356 -0.084144 -0.204394 0.969752
1305031470.656787 -0.566201 0.692844 -0.210011 -0.10356 -0.084144 -0.204394 0.969752
1305031470.688640 -0.566201 0.692844 -0.210011 -0.10356 -0.084144 -0.204394 0.969752
1305031470.724461 -0.576018 0.696283 -0.209194 -0.106911 -0.0853559 -0.20223 0.969736
1305031470.755944 -0.576018 0.696283 -0.209194 -0.106911 -0.0853559 -0.20223 0.969736
1305031470.788407 -0.576018 0.696283 -0.209194 -0.106911 -0.0853559 -0.20223 0.969736
1305031470.820633 -0.586123 0.697292 -0.209103 -0.110376 -0.0808763 -0.200314 0.970129
1305031470.855509 -0.586123 0.697292 -0.209103 -0.110376 -0.0808763 -0.200314 0.970129
1305031470.886079 -0.594847 0.698045 -0.210051 -0.106447 -0.0821612 -0.195334 0.971475
1305031470.924410 -0.604959 0.697862 -0.211237 -0.104481 -0.0833393 -0.189841 0.972676
1305031470.956439 -0.604959 0.697862 -0.211237 -0.104481 -0.0833393 -0.189841 0.972676
1305031470.988276 -0.604959 0.697862 -0.211237 -0.104481 -0.0833393 -0.189841 0.972676
1305031471.024309 -0.604959 0.697862 -0.211237 -0.104481 -0.0833393 -0.189841 0.972676
1305031471.056616 -0.615016 0.695556 -0.213747 -0.0966818 -0.0811893 -0.186238 0.974359
1305031471.088440 -0.623328 0.694623 -0.215647 -0.0867438 -0.0796715 -0.18086 0.976431
1305031471.123837 -0.631211 0.6948 -0.217716 -0.0783575 -0.0793498 -0.174491 0.978323
1305031471.155886 -0.638887 0.693365 -0.22012 -0.0724005 -0.0799461 -0.168491 0.979784
1305031471.192698 -0.645533 0.693591 -0.221896 -0.066597 -0.078657 -0.1626 0.981295
1305031471.224404 -0.651817 0.694312 -0.22301 -0.0640336 -0.0755844 -0.157106 0.982601
1305031471.256397 -0.651817 0.694312 -0.22301 -0.0640336 -0.0755844 -0.157106 0.982601
1305031471.288603 -0.659937 0.692595 -0.223817 -0.065033 -0.0726975 -0.153243 0.983363
1305031471.324440 -0.667111 0.690372 -0.225151 -0.0640969 -0.0695871 -0.148532 0.984372
1305031471.356569 -0.671216 0.690419 -0.226248 -0.0600288 -0.0646903 -0.145464 0.98542
1305031471.392751 -0.675261 0.689554 -0.227632 -0.0599931 -0.0571493 -0.142588 0.986308
1305031471.424494 -0.681072 0.685641 -0.230099 -0.060068 -0.0510208 -0.136816 0.987456
1305031471.456975 -0.685912 0.685699 -0.232053 -0.0559853 -0.0496859 -0.130668 0.988596
1305031471.492705 -0.691108 0.686202 -0.234035 -0.0556941 -0.0492133 -0.125818 0.989265
1305031471.524343 -0.69611 0.685387 -0.23585 -0.0568673 -0.0480693 -0.121192 0.989832
1305031471.556561 -0.700419 0.684929 -0.238031 -0.0569835 -0.0469369 -0.117918 0.990275
1305031471.592606 -0.704615 0.685243 -0.24053 -0.0571201 -0.043948 -0.115729 0.990663
1305031471.624486 -0.707864 0.685091 -0.243428 -0.0569315 -0.0392719 -0.113713 0.991103
1305031471.656831 -0.710754 0.684531 -0.246401 -0.056581 -0.0344773 -0.111904 0.991508
1305031471.693182 -0.712992 0.684215 -0.249456 -0.0548484 -0.0297566 -0.108197 0.992169
1305031471.724753 -0.713924 0.686594 -0.252171 -0.0520666 -0.0265864 -0.103634 0.992896
1305031471.753002 -0.715238 0.688042 -0.254125 -0.0527718 -0.0230046 -0.0991109 0.99341
1305031471.792706 -0.715191 0.687617 -0.255731 -0.0532674 -0.0189598 -0.0927794 0.99408
1305031471.823821 -0.715374 0.691627 -0.257317 -0.0513884 -0.0133442 -0.0852589 0.994943
1305031471.855793 -0.71647 0.694653 -0.258088 -0.0548393 -0.00945371 -0.0788743 0.99533
1305031471.892838 -0.717442 0.697622 -0.258435 -0.0569362 -0.00622084 -0.0727534 0.995704
1305031471.924928 -0.718766 0.701794 -0.258343 -0.0597279 -0.00193995 -0.0671056 0.995955
1305031471.957162 -0.718809 0.702869 -0.257998 -0.0649739 0.00300937 -0.0661029 0.995691
1305031471.993177 -0.720758 0.705094 -0.25821 -0.0644369 0.00997456 -0.0638161 0.995829
1305031472.024660 -0.724572 0.711435 -0.258112 -0.064957 0.0177482 -0.0593421 0.995964
1305031472.058063 -0.727786 0.713334 -0.257273 -0.0721002 0.023166 -0.0568278 0.995508
1305031472.092883 -0.731447 0.715636 -0.257191 -0.072559 0.0276539 -0.0534289 0.995548
1305031472.124760 -0.734632 0.720938 -0.256453 -0.0718509 0.0322904 -0.0475275 0.995759
1305031472.156982 -0.734632 0.720938 -0.256453 -0.0718509 0.0322904 -0.0475275 0.995759
1305031472.192890 -0.738905 0.720074 -0.255999 -0.0736501 0.0336131 -0.0456155 0.995673
1305031472.224678 -0.738905 0.720074 -0.255999 -0.0736501 0.0336131 -0.0456155 0.995673
1305031472.256642 -0.741178 0.720283 -0.256133 -0.0720839 0.0348453 -0.0442541 0.995807
1305031472.293139 -0.742649 0.717045 -0.256493 -0.0699384 0.03601 -0.043995 0.99593
1305031472.324844 -0.745476 0.71662 -0.258028 -0.0632174 0.0384737 -0.0404356 0.996438
1305031472.360912 -0.748255 0.71801 -0.259138 -0.0590663 0.0399135 -0.0381013 0.996728
1305031472.392956 -0.749113 0.716974 -0.259564 -0.0599995 0.0394026 -0.0367152 0.996744
1305031472.424694 -0.749909 0.713673 -0.259609 -0.060441 0.0370749 -0.0357666 0.996842
1305031472.460919 -0.75134 0.711825 -0.259923 -0.0585158 0.0350961 -0.0360797 0.997017
1305031472.492972 -0.751436 0.70987 -0.260166 -0.05738 0.0349876 -0.0370002 0.997053
1305031472.524781 -0.750555 0.706434 -0.260399 -0.0586971 0.0368175 -0.037483 0.996892
1305031472.561296 -0.750151 0.70016 -0.260915 -0.0589462 0.037634 -0.0362337 0.996893
1305031472.592968 -0.750531 0.697206 -0.262169 -0.0538717 0.0367233 -0.033643 0.997305
1305031472.624647 -0.750198 0.696287 -0.262877 -0.0507757 0.0358578 -0.0304455 0.997602
1305031472.660836 -0.747929 0.692992 -0.26261 -0.0511395 0.034572 -0.0291088 0.997668
1305031472.693008 -0.746689 0.689168 -0.262404 -0.0507609 0.0340166 -0.0274243 0.997755
1305031472.724752 -0.744526 0.685413 -0.262068 -0.0493765 0.0326657 -0.0268136 0.997886
1305031472.760654 -0.743013 0.682561 -0.261707 -0.0470775 0.031857 -0.0274135 0.998007
1305031472.792775 -0.740645 0.67969 -0.2611 -0.045661 0.0318037 -0.0294242 0.998017
1305031472.824692 -0.73976 0.676003 -0.260238 -0.0442408 0.0327883 -0.0306998 0.998011
1305031472.860936 -0.739461 0.67388 -0.259566 -0.0419908 0.0336481 -0.0303776 0.998089
1305031472.892944 -0.738946 0.672861 -0.258494 -0.0400871 0.0330248 -0.0285798 0.998241
1305031472.924814 -0.738517 0.671705 -0.257177 -0.0403503 0.0315605 -0.0264047 0.998338
1305031472.961213 -0.73748 0.669764 -0.255997 -0.0408645 0.0305307 -0.0248693 0.998388
1305031472.992815 -0.736163 0.669568 -0.254988 -0.040525 0.0300486 -0.024044 0.998437
1305031473.024564 -0.736114 0.668719 -0.253945 -0.0416512 0.0291199 -0.0233372 0.998435
1305031473.060795 -0.735713 0.667648 -0.252983 -0.0427632 0.0280749 -0.0239121 0.998404
1305031473.092012 -0.735524 0.666147 -0.252261 -0.0437218 0.0280868 -0.0253767 0.998326
1305031473.124072 -0.735836 0.665623 -0.251846 -0.0435169 0.0294558 -0.0274064 0.998242
1305031473.158420 -0.735859 0.664636 -0.251732 -0.0438305 0.0301697 -0.0290557 0.998161
1305031473.190828 -0.735999 0.663404 -0.251751 -0.0431944 0.0295096 -0.0293178 0.9982
