1305031453.374112 0 0 0 0 0 0 1
1305031453.404816 0.00415878 0.00401337 -0.00925439 -0.00148975 0.00630928 0.00976899 0.999931
1305031453.436941 0.00799743 0.00760611 -0.0193179 -0.000628872 0.0104383 0.0194257 0.999757
1305031453.473352 0.0128842 0.0125509 -0.0301859 0.00299469 0.0155765 0.0280329 0.999481
1305031453.505218 0.0174146 0.0174643 -0.0423378 0.00704793 0.0217733 0.0369286 0.999056
1305031453.538301 0.0192342 0.0210094 -0.0553126 0.0127017 0.0272932 0.0459379 0.998491
1305031453.574074 0.0210227 0.0266494 -0.0691647 0.0199289 0.0301196 0.0526323 0.997961
1305031453.605314 0.0214082 0.0321159 -0.0832843 0.0273796 0.0327774 0.0574888 0.997432
1305031453.636951 0.0200185 0.0380039 -0.0976627 0.0343128 0.0343606 0.0617026 0.996913
1305031453.673185 0.0150812 0.0463374 -0.111268 0.0428359 0.0322832 0.0618173 0.996645
1305031453.705487 0.00830959 0.0550439 -0.124898 0.0502363 0.0284007 0.057772 0.99666
1305031453.736856 0.000243803 0.0648222 -0.137779 0.0556681 0.0241692 0.0531681 0.99674
1305031453.773786 -0.0095697 0.0711633 -0.150291 0.0596965 0.0179478 0.047093 0.996944
1305031453.805041 -0.0206757 0.078705 -0.162112 0.0645923 0.0102303 0.0391637 0.99709
1305031453.840352 -0.0314461 0.0883013 -0.173116 0.068297 0.0033068 0.0325102 0.99713
1305031453.869618 -0.0429934 0.0992725 -0.181578 0.0720765 -0.00570101 0.0262308 0.997038
1305031453.905519 -0.0557124 0.110271 -0.188438 0.0740038 -0.0196474 0.0200818 0.996862
1305031453.940012 -0.0699425 0.118377 -0.195139 0.0728295 -0.0360804 0.0167496 0.996551
1305031453.972592 -0.0830935 0.121872 -0.202215 0.0696374 -0.0513863 0.00764837 0.996219
1305031454.003179 -0.0966902 0.124217 -0.208557 0.067119 -0.0632333 -0.00442426 0.995729
1305031454.040976 -0.113714 0.125907 -0.21427 0.0683974 -0.073006 -0.0139174 0.994886
1305031454.072690 -0.130466 0.130657 -0.21801 0.0699948 -0.0821398 -0.0246543 0.993854
1305031454.104619 -0.148975 0.132752 -0.220999 0.0699157 -0.0908198 -0.0369738 0.992722
1305031454.141030 -0.166851 0.134565 -0.223804 0.0723949 -0.101834 -0.0504259 0.990881
1305031454.172688 -0.181338 0.140935 -0.225312 0.0741609 -0.115088 -0.063633 0.988537
1305031454.204626 -0.195895 0.143444 -0.226366 0.0721487 -0.129409 -0.0772716 0.98594
1305031454.240858 -0.213669 0.140781 -0.229999 0.0712415 -0.142592 -0.092325 0.982888
1305031454.273489 -0.226125 0.143388 -0.230878 0.0765906 -0.154972 -0.109344 0.978857
1305031454.304744 -0.237594 0.148397 -0.231712 0.0759595 -0.161899 -0.122045 0.976281
1305031454.340806 -0.252667 0.148955 -0.23498 0.0755496 -0.168833 -0.134801 0.973456
1305031454.372652 -0.263568 0.150894 -0.236068 0.0811361 -0.179027 -0.1504 0.968889
1305031454.401962 -0.272127 0.157311 -0.236801 0.0836875 -0.186732 -0.163 0.965173
1305031454.437248 -0.283938 0.161191 -0.239124 0.0847822 -0.196655 -0.177616 0.960516
1305031454.470741 -0.291242 0.163553 -0.238896 0.0871428 -0.206127 -0.194403 0.955052
1305031454.503859 -0.299287 0.169011 -0.240238 0.0887518 -0.209755 -0.210752 0.950636
1305031454.538424 -0.305317 0.176245 -0.241037 0.0886416 -0.215321 -0.22748 0.945533
1305031454.570323 -0.310683 0.185036 -0.241951 0.08669 -0.22069 -0.240773 0.941174
1305031454.602019 -0.316586 0.192006 -0.243244 0.083967 -0.229453 -0.256865 0.935052
1305031454.639284 -0.319968 0.19897 -0.243209 0.0823942 -0.242093 -0.270371 0.928171
1305031454.669573 -0.320235 0.207639 -0.242122 0.0776242 -0.255031 -0.27738 0.923035
1305031454.702030 -0.323963 0.216446 -0.244896 0.0708277 -0.266611 -0.282313 0.918804
1305031454.740764 -0.32221 0.222123 -0.244617 0.0666811 -0.279573 -0.287625 0.9136
1305031454.772865 -0.317008 0.228241 -0.243256 0.06206 -0.28737 -0.285729 0.9121
1305031454.802574 -0.31314 0.235481 -0.243269 0.0576485 -0.290325 -0.278712 0.913623
1305031454.840500 -0.306573 0.245445 -0.242099 0.0548101 -0.292477 -0.272502 0.914984
1305031454.870269 -0.301118 0.254078 -0.24129 0.0506858 -0.290655 -0.266565 0.917548
1305031454.901065 -0.296607 0.263011 -0.241393 0.0476339 -0.286215 -0.259485 0.921129
1305031454.940240 -0.29394 0.273935 -0.242823 0.0450978 -0.280544 -0.252778 0.924859
1305031454.973081 -0.293134 0.28294 -0.245053 0.0418444 -0.274946 -0.246412 0.928405
1305031455.010759 -0.295611 0.292989 -0.249166 0.0395656 -0.27076 -0.240006 0.931408
1305031455.040446 -0.297374 0.305828 -0.252157 0.0401364 -0.269385 -0.23614 0.932769
1305031455.074282 -0.30062 0.316224 -0.255226 0.0400198 -0.26623 -0.234367 0.934126
1305031455.110340 -0.306331 0.326369 -0.259728 0.042466 -0.26188 -0.233703 0.935413
1305031455.142700 -0.311519 0.338262 -0.263288 0.0451615 -0.257294 -0.232966 0.936743
1305031455.172771 -0.318862 0.347646 -0.26675 0.0444181 -0.252612 -0.229556 0.938892
1305031455.210307 -0.328174 0.358326 -0.270794 0.0420515 -0.248197 -0.223491 0.941638
1305031455.240960 -0.33756 0.366195 -0.274459 0.0413336 -0.244407 -0.218034 0.943937
1305031455.273001 -0.344547 0.379103 -0.27616 0.0411733 -0.240627 -0.212232 0.946235
1305031455.310303 -0.355263 0.384882 -0.279663 0.0331246 -0.234712 -0.203748 0.949894
1305031455.342381 -0.36707 0.392911 -0.283758 0.0272504 -0.231455 -0.192649 0.953191
1305031455.374120 -0.376076 0.404391 -0.286498 0.02103 -0.22935 -0.185532 0.955266
1305031455.409213 -0.38697 0.407942 -0.290323 0.0108426 -0.222293 -0.179122 0.958323
1305031455.442380 -0.399725 0.410945 -0.296182 0.00245416 -0.214502 -0.169075 0.961975
1305031455.473168 -0.399725 0.410945 -0.296182 0.00245416 -0.214502 -0.169075 0.961975
1305031455.509397 -0.399725 0.410945 -0.296182 0.00245416 -0.214502 -0.169075 0.961975
1305031455.540835 -0.415674 0.411991 -0.304581 -0.00308663 -0.210182 -0.156727 0.965013
1305031455.572996 -0.433153 0.414981 -0.314187 -0.00533445 -0.208951 -0.143513 0.967324
1305031455.608802 -0.45003 0.42044 -0.324261 -0.00736975 -0.208456 -0.128951 0.969466
1305031455.641333 -0.468628 0.420712 -0.334608 -0.0126744 -0.205234 -0.115565 0.971784
1305031455.672887 -0.487926 0.418708 -0.345635 -0.0117994 -0.201247 -0.108424 0.97345
1305031455.707680 -0.505786 0.420704 -0.357213 -0.00772623 -0.197933 -0.108582 0.974152
1305031455.742005 -0.524192 0.419522 -0.369375 -0.00596772 -0.192864 -0.112501 0.974736
1305031455.773667 -0.540857 0.417139 -0.381477 -0.00508629 -0.186262 -0.115941 0.975622
1305031455.809109 -0.557896 0.409927 -0.394071 -0.00527501 -0.179692 -0.115352 0.976922
1305031455.838364 -0.572912 0.408349 -0.407259 -0.00223346 -0.175496 -0.115122 0.977723
1305031455.872220 -0.587163 0.405415 -0.419903 -0.0019582 -0.17256 -0.116205 0.978118
1305031455.908418 -0.600477 0.402152 -0.431622 -0.00200845 -0.169061 -0.116582 0.978684
1305031455.939606 -0.614005 0.398289 -0.442653 -0.00280465 -0.164258 -0.117047 0.979445
1305031455.973594 -0.6268 0.396876 -0.453164 -0.00202101 -0.159565 -0.119276 0.979953
1305031456.008998 -0.637799 0.396405 -0.462148 -0.00321022 -0.154283 -0.122065 0.980452
1305031456.041930 -0.647801 0.397811 -0.46941 -0.00670152 -0.147878 -0.126938 0.980803
1305031456.073846 -0.660914 0.393599 -0.476725 -0.0161439 -0.14084 -0.134161 0.980767
1305031456.108963 -0.675466 0.387073 -0.483384 -0.0226521 -0.134728 -0.13911 0.980808
1305031456.140836 -0.688919 0.382151 -0.489022 -0.0243864 -0.129039 -0.140714 0.981302
1305031456.173198 -0.700997 0.375561 -0.493543 -0.0255322 -0.122562 -0.141339 0.982013
1305031456.208934 -0.713267 0.369363 -0.497158 -0.0209728 -0.113816 -0.139379 0.983453
1305031456.240996 -0.719703 0.373436 -0.499731 -0.0146646 -0.104963 -0.136936 0.984894
1305031456.277928 -0.731061 0.368914 -0.5007 -0.0151332 -0.0929575 -0.134535 0.986423
1305031456.310040 -0.743358 0.362195 -0.50059 -0.0129434 -0.0816663 -0.130237 0.988029
1305031456.341659 -0.753768 0.359759 -0.499754 -0.00735166 -0.0712119 -0.124122 0.989681
1305031456.377115 -0.761186 0.364155 -0.497715 -0.000510212 -0.0604201 -0.119594 0.990983
1305031456.409172 -0.77497 0.357818 -0.493936 -5.8478e-05 -0.0466861 -0.114996 0.992268
1305031456.440717 -0.788259 0.358541 -0.489217 0.00736141 -0.0360295 -0.108376 0.99343
1305031456.476027 -0.799944 0.367633 -0.483265 0.0105399 -0.0309128 -0.101262 0.994324
1305031456.508911 -0.815868 0.371204 -0.475295 0.00554517 -0.0287504 -0.0948353 0.995062
1305031456.541832 -0.832798 0.372045 -0.466325 -0.000426081 -0.0279229 -0.0888543 0.995653
1305031456.576087 -0.848347 0.369103 -0.456824 -0.00412741 -0.0254333 -0.0837551 0.996153
1305031456.607930 -0.859042 0.377395 -0.447161 -0.00185662 -0.0215576 -0.0781816 0.996704
1305031456.640699 -0.870443 0.387166 -0.437072 -0.0110579 -0.0154227 -0.0724842 0.997189
1305031456.675835 -0.884883 0.379056 -0.42607 -0.0249286 -0.00847048 -0.0658863 0.99748
1305031456.709099 -0.899476 0.379197 -0.41582 -0.0241307 -0.00380195 -0.055605 0.998154
1305031456.740863 -0.911244 0.387803 -0.406121 -0.0267287 -0.00280371 -0.0467581 0.998545
1305031456.777218 -0.928737 0.382433 -0.394879 -0.0346084 -0.00341433 -0.0369441 0.998712
1305031456.808986 -0.944832 0.38545 -0.384135 -0.0300963 -0.00874399 -0.0290689 0.999086
1305031456.841050 -0.957109 0.396739 -0.374146 -0.0290142 -0.0109812 -0.0209363 0.999299
1305031456.878006 -0.97075 0.398313 -0.362817 -0.0353941 -0.00810897 -0.0134598 0.99925
1305031456.909883 -0.983149 0.396391 -0.352241 -0.0382598 -0.00398333 -0.00811729 0.999227
1305031456.942298 -0.994486 0.399833 -0.342917 -0.0337263 0.00183331 -0.0025409 0.999426
1305031456.977139 -1.00473 0.40858 -0.335138 -0.034054 0.00712023 0.00124412 0.999394
1305031457.006193 -1.01865 0.408879 -0.326999 -0.0417885 0.0134011 0.00466106 0.999026
1305031457.042512 -1.03231 0.408415 -0.32072 -0.044511 0.0190414 0.00878111 0.998789
1305031457.076011 -1.0434 0.41377 -0.316787 -0.0473538 0.0239424 0.0131779 0.998504
1305031457.108053 -1.05635 0.412574 -0.314031 -0.0564193 0.0305044 0.0181882 0.997775
1305031457.142120 -1.06957 0.407342 -0.312945 -0.0609189 0.037989 0.0235943 0.99714
1305031457.177463 -1.08214 0.406364 -0.314552 -0.0596555 0.0455129 0.0301381 0.996725
1305031457.209336 -1.09411 0.407677 -0.317901 -0.0586429 0.0525952 0.0354851 0.996261
1305031457.240792 -1.10853 0.405123 -0.321527 -0.0623121 0.0603739 0.0420267 0.995342
1305031457.277247 -1.12419 0.396245 -0.325466 -0.0622814 0.0690345 0.049448 0.99444
1305031457.309693 -1.1384 0.395827 -0.332708 -0.0544632 0.0774749 0.0547764 0.993997
1305031457.342954 -1.15201 0.397954 -0.340593 -0.050581 0.087112 0.0588274 0.993173
1305031457.376037 -1.16768 0.393453 -0.347712 -0.0508207 0.0989731 0.0648593 0.991673
1305031457.407980 -1.18143 0.387948 -0.356338 -0.0465918 0.109372 0.072377 0.990267
1305031457.441357 -1.19681 0.388012 -0.365923 -0.0423297 0.116956 0.0797265 0.989026
1305031457.476577 -1.21343 0.382761 -0.374289 -0.0422635 0.120942 0.0854724 0.98807
1305031457.508603 -1.22994 0.37462 -0.382439 -0.0420072 0.124086 0.089863 0.987301
1305031457.543946 -1.24526 0.368002 -0.391288 -0.0386365 0.128215 0.0927955 0.986639
1305031457.576581 -1.26076 0.364687 -0.400229 -0.0342867 0.133549 0.0956934 0.985815
1305031457.607246 -1.27717 0.3633 -0.408295 -0.0304581 0.138295 0.0990557 0.984954
1305031457.643534 -1.2928 0.356967 -0.414733 -0.0296377 0.14128 0.102412 0.984212
1305031457.675414 -1.30835 0.356689 -0.421044 -0.0256695 0.143806 0.106163 0.98356
1305031457.707739 -1.32467 0.35151 -0.426045 -0.0302756 0.145287 0.108686 0.982936
1305031457.745071 -1.34075 0.337324 -0.429431 -0.0335896 0.148256 0.109788 0.982262
1305031457.773518 -1.35601 0.327308 -0.434132 -0.0313421 0.151478 0.108609 0.981976
1305031457.807824 -1.37005 0.313125 -0.438809 -0.0257644 0.157055 0.107717 0.98136
1305031457.842853 -1.38445 0.310954 -0.445213 -0.0154199 0.16508 0.106344 0.980409
1305031457.875920 -1.39917 0.303335 -0.449159 -0.0123964 0.173772 0.106078 0.978977
1305031457.906126 -1.41373 0.28852 -0.451715 -0.00669535 0.181763 0.107403 0.977436
1305031457.942604 -1.43083 0.283557 -0.453392 0.00713063 0.187042 0.110735 0.976065
1305031457.976744 -1.44836 0.280582 -0.452418 0.015539 0.189997 0.11485 0.97492
1305031458.009019 -1.46235 0.269188 -0.450535 0.0197394 0.191854 0.115701 0.97438
1305031458.046303 -1.47532 0.259779 -0.44748 0.0279699 0.196014 0.115039 0.973428
1305031458.077315 -1.49196 0.262171 -0.441612 0.0380208 0.201999 0.115799 0.971772
1305031458.108896 -1.50712 0.262269 -0.433049 0.0396894 0.207425 0.11743 0.970366
1305031458.144808 -1.52089 0.253013 -0.422293 0.0376614 0.212277 0.118364 0.969283
1305031458.178039 -1.53557 0.245742 -0.409993 0.0392812 0.215679 0.120367 0.968221
1305031458.209384 -1.55458 0.246841 -0.394589 0.0413618 0.218154 0.124665 0.967035
1305031458.245729 -1.56988 0.239511 -0.379054 0.0342486 0.217465 0.126255 0.967262
1305031458.277447 -1.5797 0.216791 -0.365188 0.0281999 0.215605 0.125262 0.968002
1305031458.308343 -1.59696 0.21043 -0.348044 0.0363792 0.214084 0.124502 0.968165
1305031458.343898 -1.61066 0.204493 -0.332048 0.0388678 0.209855 0.125925 0.96881
1305031458.376213 -1.61896 0.187843 -0.317033 0.0432377 0.205581 0.12593 0.96954
1305031458.407856 -1.6314 0.188985 -0.299394 0.0568141 0.204351 0.127344 0.968915
1305031458.443957 -1.6394 0.186233 -0.282769 0.06559 0.204602 0.133876 0.967426
1305031458.476034 -1.64148 0.176502 -0.269412 0.0757208 0.209105 0.138639 0.96505
1305031458.508869 -1.64601 0.172929 -0.251578 0.0966008 0.22042 0.13602 0.961032
1305031458.544401 -1.65999 0.194168 -0.225245 0.121195 0.233456 0.131978 0.955715
1305031458.576178 -1.66362 0.200312 -0.204254 0.130488 0.242738 0.12889 0.952596
1305031458.608421 -1.66913 0.20379 -0.179744 0.140701 0.250316 0.123573 0.949881
1305031458.643659 -1.6769 0.223306 -0.149724 0.14816 0.252852 0.11861 0.948708
1305031458.676991 -1.67946 0.224286 -0.124944 0.142949 0.249275 0.120446 0.950221
1305031458.707780 -1.68064 0.22516 -0.101496 0.137619 0.236234 0.115237 0.954974
1305031458.744924 -1.67591 0.220781 -0.0866839 0.133518 0.222918 0.105774 0.95984
1305031458.773802 -1.6769 0.222515 -0.0657804 0.138793 0.209972 0.095412 0.963091
1305031458.810621 -1.67629 0.231523 -0.0469155 0.138938 0.195765 0.0840867 0.96711
1305031458.842919 -1.67068 0.229863 -0.0362382 0.13164 0.185614 0.0795654 0.970509
1305031458.875889 -1.66957 0.219366 -0.0291343 0.129385 0.181965 0.0773323 0.971683
1305031458.910599 -1.669 0.221825 -0.0195857 0.134853 0.183618 0.0685931 0.971285
1305031458.943997 -1.67414 0.227351 -0.0078525 0.136205 0.189529 0.0739322 0.969567
1305031458.976007 -1.68009 0.218298 -0.000113469 0.128633 0.195303 0.0871337 0.968358
1305031459.012560 -1.68972 0.19706 0.00489671 0.125577 0.200898 0.0931292 0.967056
1305031459.044413 -1.70572 0.188117 0.0186581 0.136248 0.20038 0.0948546 0.96555
1305031459.073657 -1.72318 0.17673 0.0325871 0.145263 0.194652 0.103896 0.964476
1305031459.112711 -1.74502 0.161994 0.0489591 0.157012 0.182044 0.113745 0.963986
1305031459.144497 -1.76708 0.149598 0.0668274 0.168639 0.161016 0.116051 0.965488
1305031459.176463 -1.78239 0.139715 0.0827023 0.177089 0.13903 0.11784 0.967173
1305031459.208791 -1.7943 0.135057 0.0999326 0.183653 0.123163 0.122636 0.967503
1305031459.244159 -1.80443 0.132543 0.115695 0.187026 0.112614 0.131273 0.967009
1305031459.274941 -1.81276 0.137578 0.128824 0.187922 0.111575 0.138445 0.965955
1305031459.311921 -1.81938 0.139959 0.138137 0.186086 0.123011 0.152818 0.96275
1305031459.344169 -1.82529 0.139434 0.144635 0.18534 0.140874 0.171575 0.95727
1305031459.374084 -1.8322 0.150512 0.153369 0.191958 0.162511 0.18952 0.949118
1305031459.408831 -1.83955 0.171944 0.166191 0.193785 0.184056 0.21001 0.940461
1305031459.443181 -1.84499 0.17985 0.168884 0.185096 0.213686 0.249249 0.926257
1305031459.473401 -1.84499 0.17985 0.168884 0.185096 0.213686 0.249249 0.926257
1305031459.510267 -1.84499 0.17985 0.168884 0.185096 0.213686 0.249249 0.926257
1305031459.544431 -1.8536 0.18565 0.174891 0.175536 0.229819 0.279243 0.915638
1305031459.576817 -1.86601 0.190466 0.181023 0.174219 0.242556 0.301913 0.905352
1305031459.611939 -1.88127 0.194961 0.189532 0.174617 0.249378 0.31927 0.897433
1305031459.643453 -1.8942 0.193065 0.19474 0.171238 0.25193 0.329752 0.893573
1305031459.675678 -1.90794 0.193602 0.200734 0.170834 0.258813 0.330715 0.891324
1305031459.711531 -1.92355 0.189513 0.206586 0.165533 0.270462 0.336282 0.886772
1305031459.743425 -1.9379 0.17872 0.208761 0.159424 0.279675 0.341215 0.883141
1305031459.776577 -1.95319 0.167579 0.21232 0.159331 0.287027 0.338939 0.881674
1305031459.812562 -1.97025 0.158163 0.218567 0.160137 0.291724 0.335641 0.881248
1305031459.844736 -1.98596 0.148782 0.224976 0.159089 0.293065 0.333217 0.881913
1305031459.877006 -2.0007 0.139128 0.233284 0.155693 0.292962 0.332302 0.882898
1305031459.911472 -2.01228 0.124819 0.238678 0.149784 0.289407 0.335612 0.88384
1305031459.943616 -2.02353 0.111397 0.243674 0.147987 0.286843 0.33874 0.883785
1305031459.979430 -2.03512 0.100072 0.250319 0.146747 0.28555 0.341892 0.883197
1305031460.011909 -2.0443 0.0868223 0.254574 0.142428 0.284258 0.346651 0.882465
1305031460.043717 -2.05307 0.0708775 0.258947 0.140138 0.284519 0.351201 0.880947
1305031460.079449 -2.06237 0.0573154 0.265917 0.140673 0.285012 0.353036 0.879969
1305031460.111951 -2.07193 0.0421713 0.274477 0.143045 0.280876 0.359886 0.878139
1305031460.144204 -2.07767 0.0267441 0.280094 0.147546 0.271581 0.369075 0.876503
1305031460.178730 -2.08602 0.0150584 0.2905 0.154301 0.264412 0.375751 0.874694
1305031460.208637 -2.08788 0.00609734 0.294625 0.153702 0.257568 0.38182 0.874212
1305031460.243467 -2.08613 -0.00603143 0.293433 0.151696 0.256227 0.386371 0.872957
1305031460.279164 -2.08842 -0.0157763 0.297073 0.153504 0.263472 0.386223 0.870546
1305031460.311712 -2.08974 -0.0282159 0.300536 0.152925 0.272332 0.386294 0.867886
1305031460.342879 -2.09207 -0.0397811 0.305818 0.154002 0.281504 0.387603 0.864177
1305031460.377806 -2.09498 -0.048171 0.312881 0.153719 0.291068 0.389959 0.85999
1305031460.409883 -2.09545 -0.0605653 0.316512 0.149908 0.3012 0.394991 0.854862
1305031460.444036 -2.09608 -0.0715786 0.32135 0.148675 0.311444 0.399822 0.849141
1305031460.479856 -2.09749 -0.0802235 0.327792 0.146805 0.324226 0.403515 0.842912
1305031460.508966 -2.09789 -0.087786 0.333592 0.14127 0.337566 0.409685 0.835614
1305031460.544245 -2.09829 -0.098411 0.337577 0.134523 0.347848 0.420039 0.827329
1305031460.579561 -2.09821 -0.108931 0.339606 0.127854 0.35724 0.425183 0.821738
1305031460.612190 -2.09992 -0.120538 0.34586 0.123928 0.367049 0.426889 0.817119
1305031460.644011 -2.1014 -0.131194 0.350689 0.121028 0.37577 0.429384 0.812267
1305031460.679350 -2.10359 -0.141138 0.357652 0.119576 0.384155 0.429187 0.808656
1305031460.711684 -2.10663 -0.150769 0.365777 0.116854 0.389259 0.430677 0.805816
1305031460.743767 -2.10828 -0.161321 0.373131 0.111542 0.39257 0.431098 0.804737
1305031460.779201 -2.1088 -0.174065 0.380538 0.107809 0.398368 0.430556 0.802684
1305031460.811318 -2.11012 -0.184505 0.388904 0.104932 0.403036 0.429721 0.801181
1305031460.843836 -2.11153 -0.194683 0.398937 0.100155 0.406527 0.428069 0.800913
1305031460.879093 -2.11098 -0.206203 0.408024 0.0928926 0.411456 0.426523 0.800095
1305031460.911313 -2.10861 -0.218833 0.415932 0.084956 0.416389 0.425089 0.799188
1305031460.943375 -2.10615 -0.230639 0.42375 0.0790964 0.418568 0.425888 0.798226
1305031460.979083 -2.10112 -0.24513 0.429173 0.0741894 0.419299 0.428825 0.796739
1305031461.011290 -2.09629 -0.258463 0.434227 0.0738619 0.422486 0.429384 0.794783
1305031461.043398 -2.09155 -0.271038 0.439927 0.0748842 0.424473 0.430703 0.792912
1305031461.079602 -2.08917 -0.280637 0.448589 0.0781264 0.426378 0.430489 0.791693
1305031461.111961 -2.08548 -0.289451 0.456469 0.0760856 0.425106 0.430434 0.792605
1305031461.144098 -2.07884 -0.301723 0.461268 0.0729343 0.425391 0.42947 0.79327
1305031461.179883 -2.07312 -0.313237 0.466473 0.073961 0.427094 0.4281 0.793001
1305031461.211180 -2.06928 -0.320351 0.47289 0.0756508 0.428778 0.423865 0.794207
1305031461.246864 -2.06497 -0.327751 0.478666 0.0756299 0.430451 0.421707 0.794453
1305031461.278888 -2.06009 -0.335 0.483074 0.0763503 0.431251 0.418507 0.795642
1305031461.311240 -2.05596 -0.340522 0.489716 0.0776113 0.432874 0.412396 0.797826
1305031461.346875 -2.05138 -0.344228 0.49764 0.0779827 0.436664 0.407123 0.798432
1305031461.378850 -2.0462 -0.345682 0.50597 0.0736014 0.440501 0.404338 0.798156
1305031461.411130 -2.03715 -0.353207 0.509022 0.065472 0.439896 0.406288 0.798207
1305031461.447015 -2.03001 -0.358544 0.51351 0.0637979 0.440871 0.405171 0.798373
1305031461.478901 -2.02447 -0.359161 0.516699 0.0598201 0.440772 0.40705 0.797779
1305031461.512120 -2.01514 -0.3678 0.513724 0.0554108 0.439613 0.4099 0.797278
1305031461.547338 -2.01121 -0.367825 0.513353 0.0594559 0.4412 0.406839 0.797678
1305031461.578847 -2.00711 -0.368047 0.511272 0.057577 0.443647 0.404052 0.797875
1305031461.609662 -2.00368 -0.365675 0.509287 0.0571819 0.450899 0.40028 0.795736
1305031461.646970 -2.00036 -0.361568 0.506944 0.0553104 0.456176 0.400688 0.79265
1305031461.676203 -1.99604 -0.356279 0.50323 0.053557 0.459462 0.40091 0.790758
1305031461.711212 -1.99324 -0.348343 0.500443 0.0533228 0.460556 0.405707 0.787684
1305031461.746919 -1.98948 -0.342302 0.495205 0.0519793 0.459884 0.411736 0.785034
1305031461.778616 -1.98877 -0.332299 0.492878 0.0526427 0.461928 0.413975 0.782609
1305031461.811319 -1.98736 -0.321726 0.488165 0.0502042 0.46314 0.418365 0.779712
1305031461.847090 -1.98634 -0.309841 0.482959 0.050155 0.466288 0.42245 0.775626
1305031461.879162 -1.98881 -0.292535 0.48126 0.0525102 0.469539 0.427997 0.770451
1305031461.911121 -1.99131 -0.27432 0.48059 0.0535457 0.469621 0.43873 0.764268
1305031461.947264 -1.99133 -0.261439 0.476722 0.0499955 0.466668 0.449024 0.760329
1305031461.979223 -1.99276 -0.246992 0.473621 0.046695 0.470192 0.450934 0.75723
1305031462.011791 -1.99828 -0.228033 0.475858 0.0436633 0.475526 0.455769 0.751161
1305031462.047463 -2 -0.214447 0.47463 0.0400269 0.472035 0.468439 0.745752
1305031462.079285 -2.00275 -0.201693 0.473672 0.0405522 0.464988 0.480539 0.742444
1305031462.112081 -2.00601 -0.1902 0.472196 0.0403308 0.458178 0.490969 0.739862
1305031462.147634 -2.00939 -0.180634 0.471282 0.038237 0.454225 0.49976 0.736517
1305031462.179358 -2.01365 -0.171069 0.46954 0.0360516 0.45123 0.505783 0.734354
1305031462.212836 -2.01891 -0.16234 0.470406 0.0325412 0.450738 0.505682 0.734889
1305031462.248986 -2.02522 -0.152722 0.471946 0.0271776 0.45099 0.505644 0.734978
1305031462.280774 -2.0315 -0.143668 0.474113 0.0215065 0.449957 0.504213 0.73678
1305031462.311931 -2.03845 -0.134806 0.477983 0.0159678 0.448471 0.500705 0.740211
1305031462.347816 -2.04493 -0.125692 0.480022 0.0081794 0.446876 0.495681 0.744671
1305031462.379950 -2.05289 -0.11503 0.483312 0.00127587 0.446057 0.489922 0.749005
1305031462.413016 -2.05996 -0.106136 0.487945 -0.00676704 0.441953 0.487294 0.753111
1305031462.448295 -2.06751 -0.0972615 0.490777 -0.0150749 0.435767 0.483961 0.758723
1305031462.480843 -2.07632 -0.0878826 0.494498 -0.0220431 0.42919 0.480472 0.764498
1305031462.517041 -2.08443 -0.0801559 0.496048 -0.0315232 0.421799 0.478737 0.769352
1305031462.548959 -2.09084 -0.0748457 0.497277 -0.0365136 0.414923 0.477632 0.773546
1305031462.581088 -2.09084 -0.0748457 0.497277 -0.0365136 0.414923 0.477632 0.773546
1305031462.617123 -2.09084 -0.0748457 0.497277 -0.0365136 0.414923 0.477632 0.773546
1305031462.648708 -2.09084 -0.0748457 0.497277 -0.0365136 0.414923 0.477632 0.773546
1305031462.680788 -2.09774 -0.0687869 0.492042 -0.0376595 0.413996 0.467886 0.779918
1305031462.716812 -2.09774 -0.0687869 0.492042 -0.0376595 0.413996 0.467886 0.779918
1305031462.748732 -2.09774 -0.0687869 0.492042 -0.0376595 0.413996 0.467886 0.779918
1305031462.780885 -2.10608 -0.0594635 0.485543 -0.0388823 0.40769 0.457636 0.789206
1305031462.816821 -2.11457 -0.0479407 0.477011 -0.0397534 0.402106 0.448774 0.797077
1305031462.848525 -2.12286 -0.0361762 0.468567 -0.0410354 0.396817 0.444096 0.802266
1305031462.880471 -2.12629 -0.026397 0.45802 -0.0439502 0.391782 0.440594 0.806506
1305031462.916800 -2.12629 -0.026397 0.45802 -0.0439502 0.391782 0.440594 0.806506
1305031462.947939 -2.12957 -0.0153236 0.445006 -0.0432632 0.389651 0.438243 0.808853
1305031462.979943 -2.13076 -0.00614058 0.431326 -0.0420552 0.385572 0.436017 0.812068
1305031463.016121 -2.13081 0.00190538 0.415896 -0.0385505 0.381318 0.432075 0.816347
1305031463.050783 -2.13499 0.0130789 0.401286 -0.0323233 0.378638 0.423231 0.822475
1305031463.076870 -2.14095 0.0269344 0.386958 -0.0275148 0.373711 0.412951 0.830093
1305031463.116806 -2.14038 0.0345765 0.371235 -0.0284184 0.368845 0.405682 0.835804
1305031463.148565 -2.14145 0.0425899 0.355871 -0.0261442 0.367456 0.395668 0.841272
1305031463.180505 -2.14574 0.0564494 0.342004 -0.0210037 0.3669 0.384703 0.846727
1305031463.217123 -2.14711 0.0708658 0.327148 -0.0214433 0.364547 0.375896 0.851674
1305031463.248719 -2.14711 0.0708658 0.327148 -0.0214433 0.364547 0.375896 0.851674
1305031463.278737 -2.14451 0.0819827 0.313059 -0.0159169 0.364101 0.368721 0.855115
1305031463.317110 -2.14308 0.096496 0.300387 -0.0135502 0.362896 0.360747 0.85906
1305031463.348740 -2.13724 0.101975 0.28805 -0.0144734 0.3586 0.358893 0.861622
1305031463.380514 -2.13196 0.111353 0.275677 -0.00856078 0.354395 0.354185 0.865381
1305031463.416326 -2.12861 0.126186 0.263513 -0.00364506 0.35023 0.348561 0.869385
1305031463.444773 -2.12189 0.136166 0.251245 -0.00397114 0.346863 0.345039 0.872134
1305031463.480415 -2.11475 0.148173 0.238356 -0.00329385 0.345513 0.341161 0.874196
1305031463.516994 -2.10679 0.157874 0.225262 -0.00459002 0.346533 0.339641 0.874379
1305031463.548505 -2.09734 0.164728 0.210585 -0.00446466 0.349493 0.337744 0.873936
1305031463.580684 -2.09734 0.164728 0.210585 -0.00446466 0.349493 0.337744 0.873936
1305031463.616671 -2.09734 0.164728 0.210585 -0.00446466 0.349493 0.337744 0.873936
1305031463.646147 -2.08544 0.163998 0.193637 -0.0051191 0.347371 0.337763 0.874771
1305031463.683908 -2.07591 0.170031 0.175272 0.0026184 0.348184 0.334124 0.875855
1305031463.716110 -2.07591 0.170031 0.175272 0.0026184 0.348184 0.334124 0.875855
1305031463.747849 -2.07591 0.170031 0.175272 0.0026184 0.348184 0.334124 0.875855
1305031463.783912 -2.0629 0.170371 0.151966 0.00639559 0.350086 0.328432 0.877229
1305031463.815883 -2.0629 0.170371 0.151966 0.00639559 0.350086 0.328432 0.877229
1305031463.848094 -2.05057 0.170152 0.128088 0.00328869 0.349613 0.317951 0.881287
1305031463.883817 -2.03797 0.166355 0.104489 0.00260073 0.350901 0.308382 0.884173
1305031463.917433 -2.02865 0.167051 0.0819808 0.00434918 0.351982 0.298406 0.887155
1305031463.944435 -2.01981 0.164946 0.0614093 0.00457805 0.349683 0.293218 0.889789
1305031463.983748 -2.00921 0.158372 0.0398711 0.00476123 0.345372 0.287889 0.893205
1305031464.015867 -2.00129 0.154883 0.0184345 0.00695035 0.342563 0.279718 0.896861
1305031464.047778 -1.99471 0.152381 -0.00208099 0.00684046 0.340072 0.271373 0.900367
1305031464.083152 -1.98651 0.144731 -0.0228082 0.005637 0.339695 0.262975 0.903006
1305031464.115837 -1.98135 0.140296 -0.0426488 0.00788486 0.341414 0.253259 0.905116
1305031464.147663 -1.97738 0.135513 -0.0609033 0.0109941 0.339638 0.249711 0.906736
1305031464.183566 -1.97247 0.126185 -0.0780694 0.016732 0.335058 0.248615 0.908651
1305031464.212447 -1.97247 0.126185 -0.0780694 0.016732 0.335058 0.248615 0.908651
1305031464.247602 -1.97022 0.127846 -0.0935116 0.0284491 0.325144 0.243667 0.91329
1305031464.283694 -1.96865 0.129153 -0.106347 0.0363636 0.311417 0.241338 0.918397
1305031464.315699 -1.96429 0.127704 -0.121055 0.0393968 0.295144 0.236608 0.924854
1305031464.347553 -1.95494 0.125945 -0.138809 0.0407804 0.281419 0.230102 0.930695
1305031464.383465 -1.94506 0.123169 -0.157082 0.0438172 0.271674 0.223271 0.935106
1305031464.415539 -1.93525 0.126238 -0.17637 0.0477157 0.266321 0.213359 0.938762
1305031464.444269 -1.92632 0.125137 -0.194355 0.0472885 0.265149 0.203634 0.941272
1305031464.487561 -1.91714 0.121757 -0.212772 0.0484846 0.262338 0.196061 0.943604
1305031464.513688 -1.90688 0.121741 -0.234008 0.0494064 0.259533 0.188752 0.945819
1305031464.548007 -1.90008 0.121281 -0.253077 0.0488321 0.259392 0.180656 0.947467
1305031464.584260 -1.89102 0.11536 -0.275461 0.0439253 0.257377 0.169476 0.950319
1305031464.615688 -1.8771 0.106127 -0.303266 0.0442179 0.26072 0.157499 0.951454
1305031464.648851 -1.86895 0.101851 -0.326717 0.0516424 0.272624 0.146722 0.949464
1305031464.684318 -1.85962 0.096378 -0.348807 0.0578612 0.283632 0.131864 0.94806
1305031464.716305 -1.85136 0.0804631 -0.367134 0.0666259 0.294292 0.11478 0.946456
1305031464.748588 -1.84746 0.0744398 -0.378817 0.0810068 0.300547 0.0967098 0.945387
1305031464.784268 -1.84317 0.0773763 -0.387333 0.0901807 0.299908 0.0764038 0.946618
1305031464.816195 -1.83746 0.0656819 -0.39159 0.0944532 0.294725 0.0595812 0.949034
1305031464.848283 -1.83351 0.06301 -0.39169 0.103896 0.282665 0.044775 0.952524
1305031464.884177 -1.8257 0.0665752 -0.390034 0.108261 0.267442 0.0294324 0.95702
1305031464.916391 -1.81168 0.061848 -0.390895 0.102352 0.25209 0.00951619 0.962229
1305031464.952471 -1.79252 0.045677 -0.394356 0.095524 0.240421 -0.0106571 0.965898
1305031464.984257 -1.77415 0.0354403 -0.395559 0.0957477 0.234608 -0.0295285 0.966912
1305031465.015390 -1.75548 0.0390748 -0.393032 0.0993889 0.232217 -0.0508023 0.966238
1305031465.048430 -1.74236 0.0357936 -0.385536 0.0998412 0.231461 -0.0714443 0.965067
1305031465.083338 -1.73396 0.0520939 -0.369086 0.104715 0.22599 -0.0891514 0.964373
1305031465.115475 -1.71537 0.0797899 -0.35291 0.098458 0.213567 -0.104444 0.966326
1305031465.151558 -1.69897 0.0876938 -0.336519 0.0793732 0.20194 -0.115233 0.969351
1305031465.183558 -1.68163 0.0923827 -0.321138 0.0629254 0.190732 -0.120946 0.972128
1305031465.215832 -1.6616 0.100003 -0.30749 0.0509259 0.179929 -0.126464 0.974186
1305031465.251788 -1.63977 0.11315 -0.295456 0.0397976 0.169931 -0.129572 0.97609
1305031465.283737 -1.61883 0.116616 -0.284532 0.0303549 0.159693 -0.125255 0.978718
1305031465.315985 -1.5955 0.13218 -0.276174 0.0290808 0.147645 -0.113208 0.98211
1305031465.351729 -1.57402 0.14105 -0.268299 0.0240802 0.132714 -0.0996676 0.985836
1305031465.383701 -1.55345 0.144303 -0.261947 0.021863 0.115401 -0.0871267 0.989249
1305031465.416543 -1.52907 0.151601 -0.259902 0.0242399 0.0971704 -0.0774371 0.991955
1305031465.452401 -1.50316 0.162561 -0.261229 0.0281448 0.0820968 -0.0681243 0.993895
1305031465.483803 -1.48381 0.180002 -0.263244 0.0330619 0.0712322 -0.0562276 0.995325
1305031465.516043 -1.46066 0.193129 -0.266936 0.0315604 0.0601282 -0.0484207 0.996516
1305031465.551838 -1.44067 0.195859 -0.270719 0.0304722 0.0501701 -0.0442186 0.997296
1305031465.583570 -1.41558 0.208109 -0.27805 0.0374016 0.0399048 -0.040077 0.997699
1305031465.615685 -1.39097 0.224062 -0.285611 0.0440732 0.0337107 -0.0328504 0.997919
1305031465.651645 -1.36986 0.240585 -0.292369 0.0507362 0.0267864 -0.0225938 0.998097
1305031465.684759 -1.34824 0.256348 -0.300106 0.056682 0.0158778 -0.0146746 0.998158
1305031465.716279 -1.32224 0.272399 -0.308083 0.0633453 0.00764387 -0.00981019 0.997914
1305031465.753153 -1.29931 0.29079 -0.314825 0.0722622 0.00229908 -0.000997182 0.997383
1305031465.784387 -1.27562 0.313157 -0.321209 0.0810901 -0.00371169 0.00670599 0.996677
1305031465.816591 -1.25273 0.330766 -0.326709 0.0875743 -0.0076714 0.012749 0.996047
1305031465.852860 -1.23053 0.347379 -0.332244 0.0976787 -0.0117482 0.0184481 0.994978
1305031465.884370 -1.20606 0.3788 -0.337144 0.110167 -0.0142105 0.02078 0.993594
1305031465.912828 -1.18318 0.399658 -0.341109 0.11382 -0.00978662 0.0237619 0.993169
1305031465.952840 -1.15949 0.41517 -0.345852 0.120869 -0.00421052 0.0252173 0.992339
1305031465.984183 -1.13568 0.438855 -0.350223 0.132176 0.00127899 0.0232587 0.990952
1305031466.016599 -1.11488 0.461946 -0.353999 0.139684 0.0041916 0.0210184 0.989964
1305031466.052655 -1.09432 0.490008 -0.356938 0.146547 0.00396559 0.0200648 0.988992
1305031466.083913 -1.0774 0.514141 -0.360109 0.145285 0.00388291 0.0223583 0.98913
1305031466.116400 -1.06368 0.533265 -0.364634 0.141316 0.00107892 0.0235418 0.989684
1305031466.152540 -1.04993 0.550387 -0.371762 0.135793 -0.00389369 0.0244071 0.990429
1305031466.184186 -1.0378 0.56828 -0.380359 0.131061 -0.010102 0.0270945 0.990952
1305031466.220477 -1.02601 0.586098 -0.390148 0.123087 -0.0192153 0.0265774 0.991854
1305031466.252491 -1.0118 0.595668 -0.403114 0.112096 -0.0270254 0.0215948 0.993095
1305031466.284389 -0.997152 0.602361 -0.417832 0.110082 -0.0271947 0.0130395 0.993465
1305031466.320055 -0.981334 0.615973 -0.432115 0.112519 -0.0207514 0.00127911 0.993432
1305031466.352082 -0.963747 0.630822 -0.445788 0.112283 -0.0125148 -0.00736261 0.99357
1305031466.384479 -0.94985 0.637166 -0.460406 0.105999 -0.00533881 -0.0112566 0.994288
1305031466.420844 -0.936739 0.637547 -0.476028 0.105678 -0.00343654 -0.0138144 0.994299
1305031466.452369 -0.920512 0.652992 -0.488172 0.112365 -0.00783397 -0.0184625 0.993465
1305031466.483315 -0.904 0.666218 -0.498194 0.111735 -0.0133506 -0.0221196 0.993402
1305031466.519548 -0.883481 0.674313 -0.506698 0.108132 -0.0173761 -0.0231033 0.993716
1305031466.552219 -0.860142 0.682114 -0.514465 0.107305 -0.016102 -0.0241543 0.993802
1305031466.584438 -0.83984 0.696943 -0.520368 0.106015 -0.0146621 -0.0265306 0.993902
1305031466.620424 -0.818098 0.705192 -0.525527 0.0973778 -0.0153713 -0.0296655 0.994687
1305031466.648654 -0.795619 0.700104 -0.532142 0.092058 -0.0132949 -0.032247 0.995143
1305031466.684412 -0.776111 0.709958 -0.538788 0.0986176 -0.0119977 -0.0385131 0.994307
1305031466.719744 -0.755686 0.72503 -0.54298 0.0988556 -0.0142143 -0.0476653 0.993858
1305031466.748734 -0.734043 0.724386 -0.547817 0.0920338 -0.016443 -0.0566137 0.994009
1305031466.784300 -0.717996 0.721553 -0.555082 0.0938702 -0.0149054 -0.0636621 0.993435
1305031466.819502 -0.700161 0.734911 -0.560261 0.100365 -0.0177139 -0.0691635 0.992386
1305031466.851527 -0.682926 0.739812 -0.565426 0.0968004 -0.0225924 -0.0716916 0.992461
1305031466.883430 -0.670744 0.736851 -0.572137 0.094345 -0.0286716 -0.0702785 0.992642
1305031466.919411 -0.655004 0.741851 -0.576847 0.0978702 -0.0411618 -0.0717504 0.991756
1305031466.952451 -0.639781 0.744066 -0.582862 0.0975097 -0.0544403 -0.0743185 0.990962
1305031466.984027 -0.618182 0.745313 -0.587763 0.098423 -0.0649192 -0.076902 0.990043
1305031467.020424 -0.599657 0.747331 -0.592453 0.0990536 -0.0702406 -0.0806504 0.989318
1305031467.052391 -0.58286 0.748956 -0.597161 0.0993375 -0.0745188 -0.0852799 0.988588
1305031467.084130 -0.563924 0.753187 -0.60052 0.0999305 -0.077686 -0.0889894 0.987957
1305031467.120528 -0.549438 0.754132 -0.604814 0.0973927 -0.0786312 -0.0953492 0.987543
1305031467.152363 -0.536288 0.753385 -0.609177 0.0972675 -0.0808111 -0.10582 0.986312
1305031467.184216 -0.523328 0.755322 -0.613264 0.0986442 -0.0836354 -0.112863 0.985158
1305031467.220466 -0.510962 0.756799 -0.617259 0.0993232 -0.0884232 -0.117456 0.984134
1305031467.252275 -0.497778 0.757714 -0.62126 0.0997535 -0.0946357 -0.122812 0.982858
1305031467.284258 -0.483255 0.758316 -0.62527 0.101373 -0.0999629 -0.128377 0.981453
1305031467.318028 -0.469191 0.760779 -0.629586 0.103406 -0.105253 -0.135323 0.979753
1305031467.349355 -0.454636 0.76539 -0.633342 0.10474 -0.11114 -0.139963 0.978309
1305031467.383844 -0.439407 0.771971 -0.636617 0.10222 -0.118015 -0.142594 0.97739
1305031467.420160 -0.426133 0.772344 -0.641835 0.0963893 -0.124631 -0.147264 0.976468
1305031467.452057 -0.412663 0.76982 -0.647807 0.0939999 -0.130178 -0.150851 0.975429
1305031467.484357 -0.395661 0.774723 -0.65168 0.0945306 -0.137848 -0.153666 0.973883
1305031467.520535 -0.376794 0.781041 -0.653859 0.0911868 -0.145314 -0.159629 0.972156
1305031467.552164 -0.361053 0.776876 -0.657488 0.0857746 -0.148153 -0.166407 0.971083
1305031467.584354 -0.347347 0.775521 -0.661614 0.0857659 -0.149072 -0.168275 0.970621
1305031467.618680 -0.335012 0.773204 -0.664663 0.0849217 -0.151249 -0.167108 0.97056
1305031467.651977 -0.325338 0.762475 -0.66755 0.0850939 -0.156024 -0.165089 0.970135
1305031467.686044 -0.309994 0.758505 -0.666781 0.0916159 -0.162282 -0.162744 0.968909
1305031467.718326 -0.293565 0.75502 -0.66267 0.0952658 -0.16694 -0.166196 0.967179
1305031467.752580 -0.283995 0.744319 -0.659719 0.098565 -0.168796 -0.170812 0.965721
1305031467.788562 -0.27387 0.738174 -0.654399 0.104766 -0.171319 -0.173453 0.964151
1305031467.820454 -0.263749 0.729547 -0.646961 0.10823 -0.17437 -0.175983 0.962762
1305031467.852678 -0.258205 0.715104 -0.639954 0.112122 -0.177294 -0.176535 0.961681
1305031467.888472 -0.249489 0.706317 -0.629638 0.11911 -0.183522 -0.173729 0.960183
1305031467.920800 -0.239033 0.698748 -0.616981 0.123805 -0.19228 -0.175086 0.957625
1305031467.952485 -0.233666 0.683998 -0.605278 0.126056 -0.199144 -0.177845 0.955418
1305031467.988523 -0.223957 0.672331 -0.592018 0.1326 -0.20402 -0.180438 0.953014
1305031468.020491 -0.210837 0.665883 -0.575516 0.134797 -0.207142 -0.18322 0.9515
1305031468.052668 -0.20978 0.646484 -0.563411 0.132476 -0.207455 -0.186278 0.951164
1305031468.088379 -0.203972 0.632062 -0.549736 0.137082 -0.210743 -0.189322 0.949185
1305031468.120522 -0.194634 0.620952 -0.534702 0.137709 -0.214878 -0.19091 0.947849
1305031468.152356 -0.187868 0.60115 -0.521071 0.135757 -0.217842 -0.193059 0.947018
1305031468.188327 -0.179225 0.58594 -0.507716 0.136869 -0.220169 -0.196748 0.94556
1305031468.220648 -0.172754 0.567852 -0.496145 0.134497 -0.220698 -0.199521 0.945196
1305031468.252517 -0.165117 0.546388 -0.485559 0.131598 -0.220715 -0.198812 0.945749
1305031468.288361 -0.154976 0.526648 -0.474374 0.13037 -0.220369 -0.198362 0.946094
1305031468.320522 -0.149366 0.503201 -0.466947 0.127653 -0.218435 -0.198559 0.946871
1305031468.352594 -0.142891 0.478085 -0.460622 0.127882 -0.216842 -0.195647 0.947812
1305031468.384700 -0.131241 0.463357 -0.452035 0.130116 -0.216575 -0.192479 0.948218
1305031468.420595 -0.125157 0.443974 -0.446153 0.125356 -0.216227 -0.193054 0.948821
1305031468.452605 -0.121717 0.41857 -0.442629 0.119924 -0.21669 -0.19263 0.949504
1305031468.488646 -0.11653 0.399317 -0.438579 0.117654 -0.217328 -0.190921 0.949987
1305031468.520786 -0.112661 0.378282 -0.435138 0.114048 -0.215871 -0.193594 0.950218
1305031468.552701 -0.113975 0.354584 -0.434328 0.114206 -0.21423 -0.200276 0.949185
1305031468.588614 -0.117038 0.335285 -0.43478 0.119037 -0.213806 -0.208211 0.946977
1305031468.620590 -0.118232 0.32179 -0.433305 0.11811 -0.214351 -0.212114 0.946103
1305031468.656644 -0.123955 0.299791 -0.432966 0.110591 -0.215276 -0.21357 0.946474
1305031468.688643 -0.131358 0.27949 -0.433917 0.11019 -0.218839 -0.215627 0.945237
1305031468.720560 -0.138622 0.261036 -0.434483 0.113334 -0.22418 -0.218348 0.942986
1305031468.756725 -0.14474 0.245532 -0.433676 0.115238 -0.229269 -0.218533 0.941488
1305031468.788562 -0.149475 0.229185 -0.432246 0.116043 -0.232984 -0.220372 0.940047
1305031468.817997 -0.157522 0.210682 -0.432358 0.120756 -0.234062 -0.226241 0.937789
1305031468.854887 -0.161317 0.198876 -0.430857 0.127374 -0.235839 -0.231636 0.935147
1305031468.889220 -0.162626 0.187687 -0.426754 0.127488 -0.234477 -0.236013 0.93438
1305031468.920539 -0.166456 0.174949 -0.424186 0.124176 -0.229198 -0.236972 0.935892
1305031468.956482 -0.168629 0.166721 -0.420743 0.119729 -0.22396 -0.233108 0.938705
1305031468.986011 -0.169372 0.166956 -0.414747 0.11373 -0.220056 -0.232388 0.940551
1305031469.020731 -0.172018 0.163682 -0.407258 0.0973537 -0.217098 -0.238189 0.941625
1305031469.056318 -0.179277 0.153494 -0.402159 0.078619 -0.212547 -0.243606 0.943026
1305031469.088069 -0.185231 0.148233 -0.396029 0.0665572 -0.210662 -0.25032 0.942619
1305031469.119984 -0.1871 0.144096 -0.38589 0.0555157 -0.207699 -0.261689 0.940903
1305031469.155046 -0.189465 0.136807 -0.37615 0.0438211 -0.199161 -0.271236 0.940662
1305031469.184648 -0.1928 0.129466 -0.366845 0.0340123 -0.189282 -0.277948 0.941148
1305031469.219541 -0.197073 0.123115 -0.357891 0.0267352 -0.179731 -0.281933 0.94207
1305031469.256002 -0.19998 0.120269 -0.347244 0.0224117 -0.175462 -0.284564 0.942196
1305031469.288263 -0.203751 0.117995 -0.336401 0.0172688 -0.171516 -0.287874 0.942026
1305031469.319772 -0.205897 0.115883 -0.323694 0.0125036 -0.16721 -0.290199 0.942162
1305031469.356116 -0.207325 0.119129 -0.310882 0.00790547 -0.164135 -0.292335 0.942092
1305031469.388556 -0.210791 0.116224 -0.298614 0.00183401 -0.156003 -0.297221 0.941976
1305031469.420278 -0.21307 0.1168 -0.286433 0.00191125 -0.14351 -0.302008 0.94244
1305031469.456563 -0.213232 0.122838 -0.27357 0.00372854 -0.13245 -0.308191 0.942052
1305031469.488520 -0.214964 0.127403 -0.259909 0.00393756 -0.123752 -0.314769 0.941058
1305031469.520417 -0.216792 0.133593 -0.246134 0.00322309 -0.12063 -0.31685 0.940768
1305031469.556139 -0.217568 0.140833 -0.232155 -0.000860213 -0.121352 -0.317119 0.940589
1305031469.588500 -0.218285 0.148414 -0.217471 -0.00706964 -0.121694 -0.317558 0.940371
1305031469.620563 -0.218146 0.15743 -0.20254 -0.0147571 -0.1219 -0.316816 0.940505
1305031469.656279 -0.219759 0.167201 -0.188648 -0.0229267 -0.11886 -0.315113 0.941303
1305031469.687925 -0.221261 0.176506 -0.174944 -0.0271104 -0.114895 -0.313772 0.942131
1305031469.718943 -0.222624 0.186849 -0.161166 -0.0311381 -0.110968 -0.312181 0.943006
1305031469.756754 -0.224217 0.197911 -0.147763 -0.0354743 -0.10635 -0.310126 0.944062
1305031469.784733 -0.22743 0.210192 -0.134975 -0.0410509 -0.10261 -0.307327 0.945165
1305031469.820544 -0.231252 0.224026 -0.122926 -0.0463575 -0.101704 -0.303918 0.946119
1305031469.854359 -0.23618 0.238617 -0.111831 -0.0510773 -0.102762 -0.301415 0.946562
1305031469.885343 -0.242803 0.254131 -0.101896 -0.0570422 -0.103241 -0.298141 0.947206
1305031469.921773 -0.24985 0.269637 -0.0925623 -0.0611557 -0.103562 -0.295003 0.947897
1305031469.953180 -0.258348 0.284328 -0.0838786 -0.06425 -0.105116 -0.2921 0.94842
1305031469.985327 -0.268284 0.299217 -0.0766561 -0.0661119 -0.106805 -0.290427 0.948617
1305031470.024714 -0.27816 0.313827 -0.0702133 -0.0680567 -0.107848 -0.289372 0.948684
1305031470.057400 -0.289842 0.329031 -0.0654174 -0.0704075 -0.108215 -0.289528 0.948423
1305031470.088874 -0.301168 0.34462 -0.0619079 -0.0717723 -0.107534 -0.2898 0.948315
1305031470.124820 -0.312704 0.359235 -0.059402 -0.0735839 -0.10615 -0.288109 0.948847
1305031470.156744 -0.323815 0.374903 -0.0574637 -0.0768495 -0.105054 -0.286249 0.949273
1305031470.188876 -0.337264 0.389116 -0.0565229 -0.0802131 -0.104855 -0.283669 0.949791
1305031470.224776 -0.348139 0.402425 -0.0558305 -0.0823417 -0.105762 -0.281661 0.950106
1305031470.253015 -0.359542 0.416559 -0.0554884 -0.0856904 -0.10492 -0.278835 0.950736
1305031470.287867 -0.370516 0.430353 -0.055064 -0.0892618 -0.103964 -0.276315 0.951248
1305031470.324266 -0.381492 0.444037 -0.0546062 -0.0943761 -0.102808 -0.273907 0.951577
1305031470.356871 -0.394158 0.456287 -0.0542654 -0.100703 -0.101952 -0.271005 0.951851
1305031470.388056 -0.406327 0.467826 -0.0545952 -0.1059 -0.102843 -0.267885 0.952075
1305031470.424090 -0.418421 0.478083 -0.0550916 -0.109609 -0.104438 -0.266961 0.951741
1305031470.455875 -0.431606 0.487646 -0.0565063 -0.111514 -0.105647 -0.26844 0.95097
1305031470.487958 -0.443907 0.496559 -0.0583646 -0.111522 -0.107028 -0.26934 0.95056
1305031470.524431 -0.455051 0.505963 -0.0602832 -0.110338 -0.108454 -0.268554 0.950759
1305031470.556484 -0.465885 0.514945 -0.0619491 -0.109936 -0.108482 -0.268435 0.950836
1305031470.588797 -0.477661 0.522779 -0.0634827 -0.111703 -0.107209 -0.26696 0.951189
1305031470.624535 -0.487189 0.529981 -0.0642576 -0.11259 -0.107039 -0.263792 0.951987
1305031470.656787 -0.487189 0.529981 -0.0642576 -0.11259 -0.107039 -0.263792 0.951987
1305031470.688640 -0.49584 0.536311 -0.0642639 -0.114269 -0.107051 -0.260196 0.952775
1305031470.724461 -0.505718 0.541358 -0.0642137 -0.117713 -0.107917 -0.258307 0.952772
1305031470.755944 -0.505718 0.541358 -0.0642137 -0.117713 -0.107917 -0.258307 0.952772
1305031470.788407 -0.505718 0.541358 -0.0642137 -0.117713 -0.107917 -0.258307 0.952772
1305031470.820633 -0.505718 0.541358 -0.0642137 -0.117713 -0.107917 -0.258307 0.952772
1305031470.855509 -0.505718 0.541358 -0.0642137 -0.117713 -0.107917 -0.258307 0.952772
1305031470.886079 -0.515177 0.543984 -0.0659039 -0.113352 -0.108184 -0.25279 0.954748
1305031470.924410 -0.525134 0.545942 -0.067824 -0.110661 -0.108941 -0.247229 0.956433
1305031470.956439 -0.525134 0.545942 -0.067824 -0.110661 -0.108941 -0.247229 0.956433
1305031470.988276 -0.525134 0.545942 -0.067824 -0.110661 -0.108941 -0.247229 0.956433
1305031471.024309 -0.535751 0.545912 -0.0711931 -0.103864 -0.107832 -0.244021 0.958143
1305031471.056616 -0.546461 0.545154 -0.0745779 -0.0955505 -0.105469 -0.241236 0.959975
1305031471.088440 -0.555065 0.544681 -0.0772409 -0.0860999 -0.10401 -0.236031 0.962319
1305031471.123837 -0.56301 0.544349 -0.0797639 -0.0790233 -0.104131 -0.229201 0.964561
1305031471.155886 -0.570577 0.543598 -0.0826034 -0.0733767 -0.104916 -0.222906 0.966396
1305031471.192698 -0.57691 0.54483 -0.0845986 -0.067356 -0.104146 -0.216893 0.968284
1305031471.224404 -0.582658 0.545892 -0.0858849 -0.0648161 -0.101231 -0.211193 0.970025
1305031471.256397 -0.582658 0.545892 -0.0858849 -0.0648161 -0.101231 -0.211193 0.970025
1305031471.288603 -0.590309 0.544798 -0.0871032 -0.0658652 -0.0985988 -0.207713 0.970976
1305031471.324440 -0.596885 0.543495 -0.0886993 -0.0645647 -0.0956018 -0.203432 0.972269
1305031471.356569 -0.601172 0.544377 -0.0901191 -0.0600389 -0.0907047 -0.200294 0.973679
1305031471.392751 -0.605549 0.543694 -0.0918967 -0.0598807 -0.0827622 -0.197498 0.974966
1305031471.424494 -0.610701 0.540627 -0.094466 -0.05929 -0.0771775 -0.19234 0.976491
1305031471.456975 -0.615122 0.541394 -0.0967265 -0.0552247 -0.076069 -0.185818 0.978077
1305031471.492705 -0.619653 0.542533 -0.0988329 -0.054884 -0.0757786 -0.180958 0.97903
1305031471.524343 -0.624702 0.542284 -0.101008 -0.0561482 -0.0745048 -0.176374 0.979892
1305031471.556561 -0.628802 0.5423 -0.103472 -0.0563718 -0.0734241 -0.172971 0.980567
1305031471.592606 -0.632762 0.54274 -0.106315 -0.0567157 -0.0704462 -0.170865 0.981135
1305031471.624486 -0.636142 0.542897 -0.10943 -0.0563462 -0.0655678 -0.168855 0.981842
1305031471.656831 -0.639175 0.542568 -0.112621 -0.0557771 -0.0606448 -0.167073 0.982496
1305031471.693182 -0.641407 0.542609 -0.115848 -0.0536686 -0.0559216 -0.163169 0.983549
1305031471.724753 -0.64244 0.545059 -0.118604 -0.0509416 -0.052683 -0.15839 0.984653
1305031471.753002 -0.643697 0.546473 -0.120678 -0.05178 -0.0489429 -0.153895 0.985515
1305031471.792706 -0.643773 0.546144 -0.122424 -0.0521533 -0.044629 -0.147495 0.986678
1305031471.823821 -0.644062 0.550514 -0.123936 -0.0499482 -0.0387642 -0.139524 0.988198
1305031471.855793 -0.645166 0.553803 -0.124755 -0.0532835 -0.0344778 -0.133226 0.989052
1305031471.892838 -0.64606 0.556635 -0.125215 -0.0557093 -0.0310556 -0.126866 0.989867
1305031471.924928 -0.647492 0.560998 -0.125143 -0.0584249 -0.0264129 -0.120877 0.990595
1305031471.957162 -0.648711 0.562415 -0.125186 -0.0636542 -0.020568 -0.119204 0.990614
1305031471.993177 -0.651309 0.56507 -0.125596 -0.0626138 -0.0131761 -0.116669 0.991108
1305031472.024660 -0.653598 0.571907 -0.125229 -0.0623493 -0.00576093 -0.11235 0.991694
1305031472.058063 -0.657145 0.57403 -0.12483 -0.0694783 0.000359614 -0.109933 0.991508
1305031472.092883 -0.660977 0.576742 -0.125038 -0.0698477 0.00506726 -0.106189 0.991877
1305031472.124760 -0.664243 0.582736 -0.12428 -0.0685092 0.00978405 -0.10052 0.992525
1305031472.156982 -0.664243 0.582736 -0.12428 -0.0685092 0.00978405 -0.10052 0.992525
1305031472.192890 -0.668572 0.582205 -0.124223 -0.0704885 0.0112284 -0.098331 0.992591
1305031472.224678 -0.672318 0.583512 -0.124461 -0.0663326 0.0126079 -0.0934027 0.993336
1305031472.256642 -0.675283 0.58391 -0.124653 -0.0649116 0.0141302 -0.0914448 0.993592
1305031472.293139 -0.677534 0.581182 -0.125403 -0.0625898 0.0155691 -0.091038 0.993757
1305031472.324844 -0.679988 0.581288 -0.126888 -0.0554318 0.0174453 -0.0880192 0.994422
1305031472.360912 -0.682025 0.583289 -0.127881 -0.0506179 0.0184893 -0.0860336 0.994834
1305031472.392956 -0.683629 0.582464 -0.128275 -0.0514499 0.0182347 -0.0845635 0.994922
1305031472.424694 -0.685107 0.579355 -0.12861 -0.0521584 0.0161471 -0.0833211 0.995026
1305031472.460919 -0.686505 0.577123 -0.128924 -0.0506598 0.0139608 -0.0835134 0.99512
1305031472.492972 -0.686422 0.575213 -0.129095 -0.0493556 0.0136755 -0.0845803 0.9951
1305031472.524781 -0.68625 0.571855 -0.129311 -0.0505784 0.0156699 -0.0849383 0.994978
1305031472.561296 -0.68687 0.566174 -0.130212 -0.0506508 0.0168526 -0.0836153 0.995067
1305031472.592968 -0.68678 0.563129 -0.131336 -0.0453975 0.0154295 -0.0811139 0.995551
1305031472.624647 -0.685433 0.562242 -0.131743 -0.0420607 0.0139919 -0.0783515 0.99594
1305031472.660836 -0.683814 0.558741 -0.131409 -0.0425044 0.0128458 -0.0770158 0.996041
1305031472.693008 -0.683021 0.554684 -0.131158 -0.042198 0.012109 -0.0754233 0.996185
1305031472.724752 -0.681502 0.550639 -0.130783 -0.0408804 0.0109269 -0.07448 0.996324
1305031472.760654 -0.680223 0.54758 -0.13035 -0.0386218 0.0100873 -0.074901 0.996392
1305031472.792775 -0.678441 0.544507 -0.12963 -0.037105 0.0101184 -0.0767452 0.996309
1305031472.824692 -0.677718 0.540786 -0.128806 -0.0355465 0.0108994 -0.0780476 0.996256
1305031472.860936 -0.6773 0.538389 -0.127974 -0.0332263 0.011337 -0.0778164 0.996349
1305031472.892944 -0.677185 0.537463 -0.126871 -0.0314013 0.0106592 -0.075989 0.996557
1305031472.924814 -0.676693 0.536177 -0.125518 -0.0317586 0.00909867 -0.0738824 0.99672
1305031472.961213 -0.676004 0.533991 -0.124297 -0.0323739 0.00829755 -0.0722779 0.996824
1305031472.992815 -0.674941 0.53357 -0.123145 -0.032106 0.00782903 -0.0711221 0.99692
1305031473.024564 -0.675343 0.532843 -0.122139 -0.0332212 0.00703845 -0.0703478 0.996944
1305031473.060795 -0.675273 0.53171 -0.121128 -0.0344198 0.00608799 -0.0707342 0.996883
1305031473.092012 -0.675377 0.530191 -0.120454 -0.0353667 0.00629804 -0.0722567 0.996739
1305031473.124072 -0.675461 0.529625 -0.120015 -0.0350278 0.00755855 -0.0741344 0.996604
1305031473.158420 -0.676002 0.528359 -0.119783 -0.0353887 0.00839383 -0.0753622 0.996493
1305031473.190828 -0.676399 0.527121 -0.119848 -0.0348821 0.00772304 -0.0754174 0.996512
