1305031453.374112 0 0 0 0 0 0 1
1305031453.404816 0.00599428 0.00537901 -0.00979207 -0.00103255 0.00646187 0.0102355 0.999926
1305031453.436941 0.0107985 0.00831922 -0.0197864 -0.000380583 0.00987945 0.0190702 0.999769
1305031453.473352 0.0144189 0.0128415 -0.0307649 0.00306386 0.0154476 0.0275132 0.999497
1305031453.505218 0.0191652 0.017486 -0.0428171 0.00720764 0.0218169 0.0367898 0.999059
1305031453.538301 0.0209678 0.0211736 -0.056019 0.0130164 0.0273852 0.0458298 0.998489
1305031453.574074 0.0224337 0.0263725 -0.0695398 0.0201544 0.0302173 0.0523568 0.997968
1305031453.605314 0.0228541 0.0321696 -0.0837027 0.027572 0.0330894 0.0566308 0.997466
1305031453.636951 0.0220907 0.0382361 -0.0982019 0.0343651 0.0345969 0.0603718 0.996984
1305031453.673185 0.0170954 0.0439462 -0.112182 0.0418198 0.0329317 0.0603713 0.996756
1305031453.705487 0.00998432 0.0516264 -0.125516 0.0488947 0.0290339 0.0565995 0.996776
1305031453.736856 0.00225472 0.0615216 -0.138535 0.0544014 0.0248386 0.052585 0.996824
1305031453.773786 -0.00747212 0.0684939 -0.150897 0.0588074 0.0185101 0.0459558 0.997039
1305031453.805041 -0.0172509 0.0785635 -0.162511 0.0646241 0.00993545 0.0384897 0.997118
1305031453.840352 -0.0276605 0.087756 -0.173062 0.068294 0.00283108 0.0318897 0.997151
1305031453.869618 -0.0400886 0.0998108 -0.181224 0.0727048 -0.00636459 0.0268915 0.996971
1305031453.905519 -0.0534413 0.110079 -0.18763 0.0746255 -0.0197237 0.0208203 0.996799
1305031453.940012 -0.0671419 0.117649 -0.194467 0.0734395 -0.0353774 0.0171694 0.996524
1305031453.972592 -0.0813917 0.122177 -0.200828 0.0707894 -0.0498761 0.00879095 0.996205
1305031454.003179 -0.0952251 0.123728 -0.207509 0.0679658 -0.0610308 -0.00358681 0.995813
1305031454.040976 -0.111734 0.125964 -0.213482 0.0693906 -0.0707952 -0.0136428 0.994981
1305031454.072690 -0.127956 0.129098 -0.216134 0.0705348 -0.0792771 -0.0238768 0.994067
1305031454.104619 -0.145608 0.130427 -0.22076 0.0697919 -0.0877672 -0.0364634 0.993024
1305031454.141030 -0.16221 0.132504 -0.223419 0.0724632 -0.0990903 -0.0497674 0.991188
1305031454.172688 -0.178455 0.137799 -0.224606 0.0739541 -0.111579 -0.0620667 0.989054
1305031454.204626 -0.194778 0.139654 -0.226152 0.0713386 -0.125072 -0.0752833 0.986712
1305031454.240858 -0.2117 0.13606 -0.228714 0.0708405 -0.138081 -0.091288 0.983657
1305031454.273489 -0.225113 0.139 -0.229199 0.0764653 -0.150609 -0.108454 0.979647
1305031454.304744 -0.235164 0.142894 -0.228744 0.0759172 -0.158213 -0.122405 0.976843
1305031454.340806 -0.248153 0.143307 -0.230978 0.0758774 -0.16549 -0.135772 0.973869
1305031454.372652 -0.259983 0.146206 -0.23201 0.082139 -0.175662 -0.152156 0.969146
1305031454.401962 -0.269515 0.151957 -0.232513 0.0843359 -0.182786 -0.164968 0.965537
1305031454.437248 -0.280759 0.154933 -0.234588 0.0853045 -0.192964 -0.179816 0.960809
1305031454.470741 -0.288554 0.157122 -0.234124 0.0874406 -0.202029 -0.19553 0.955671
1305031454.503859 -0.296555 0.161508 -0.234908 0.0886606 -0.205951 -0.211929 0.951215
1305031454.538424 -0.302101 0.167372 -0.235043 0.0880874 -0.212062 -0.228597 0.946052
1305031454.570323 -0.306748 0.175421 -0.235498 0.0859186 -0.218055 -0.24217 0.941501
1305031454.602019 -0.313031 0.182998 -0.237338 0.0833726 -0.226179 -0.258506 0.93545
1305031454.639284 -0.316335 0.187784 -0.237289 0.0810051 -0.238553 -0.272404 0.928615
1305031454.669573 -0.314864 0.196103 -0.23482 0.0766978 -0.251918 -0.279717 0.923262
1305031454.702030 -0.316956 0.203869 -0.236652 0.0698257 -0.263937 -0.285392 0.918702
1305031454.740764 -0.314213 0.210061 -0.235481 0.065979 -0.277637 -0.291164 0.91312
1305031454.772865 -0.308057 0.215719 -0.233028 0.0613382 -0.28637 -0.289708 0.911208
1305031454.802574 -0.304055 0.223722 -0.233194 0.0570304 -0.289018 -0.282274 0.912983
1305031454.840500 -0.297196 0.233937 -0.23141 0.0545134 -0.291373 -0.276236 0.914234
1305031454.870269 -0.291746 0.24279 -0.230788 0.0502044 -0.289445 -0.27001 0.916949
1305031454.901065 -0.287622 0.251768 -0.231493 0.0473173 -0.284689 -0.263086 0.920597
1305031454.940240 -0.284102 0.262299 -0.232308 0.0449144 -0.279507 -0.256876 0.924053
1305031454.973081 -0.284068 0.272735 -0.235358 0.0421644 -0.273571 -0.25042 0.927723
1305031455.010759 -0.28648 0.283561 -0.240031 0.0400065 -0.268905 -0.243647 0.930981
1305031455.040446 -0.288158 0.295993 -0.242863 0.0405006 -0.267676 -0.240081 0.932239
1305031455.074282 -0.291701 0.306211 -0.246434 0.0400335 -0.264209 -0.237769 0.93384
1305031455.110340 -0.297748 0.315859 -0.251026 0.0420737 -0.259536 -0.236702 0.93533
1305031455.142700 -0.303325 0.328284 -0.254676 0.0447878 -0.254796 -0.235521 0.936805
1305031455.172771 -0.311074 0.338733 -0.258613 0.0444267 -0.249625 -0.231616 0.939185
1305031455.210307 -0.32076 0.34949 -0.262827 0.0419639 -0.245141 -0.225472 0.94197
1305031455.240960 -0.331322 0.357696 -0.267312 0.0410053 -0.240536 -0.219511 0.944604
1305031455.273001 -0.339261 0.371318 -0.269007 0.0411759 -0.236811 -0.213818 0.946841
1305031455.310303 -0.349006 0.37705 -0.271804 0.0333697 -0.231222 -0.205306 0.950406
1305031455.342381 -0.360335 0.385546 -0.275637 0.0278308 -0.228112 -0.19433 0.953638
1305031455.374120 -0.369934 0.396729 -0.27827 0.0213757 -0.225664 -0.186999 0.955851
1305031455.409213 -0.382059 0.399964 -0.282309 0.0107756 -0.218147 -0.180083 0.959096
1305031455.442380 -0.394723 0.403179 -0.288177 0.00250958 -0.210052 -0.16948 0.962886
1305031455.473168 -0.394723 0.403179 -0.288177 0.00250958 -0.210052 -0.16948 0.962886
1305031455.509397 -0.394723 0.403179 -0.288177 0.00250958 -0.210052 -0.16948 0.962886
1305031455.540835 -0.411155 0.404177 -0.29676 -0.0031053 -0.205349 -0.156365 0.966112
1305031455.572996 -0.429822 0.407672 -0.306822 -0.00534855 -0.203448 -0.142304 0.968674
1305031455.608802 -0.44636 0.414203 -0.316553 -0.00680549 -0.203164 -0.127561 0.970776
1305031455.641333 -0.465819 0.413876 -0.326918 -0.0123957 -0.199671 -0.114095 0.973119
1305031455.672887 -0.48507 0.411943 -0.337732 -0.0114106 -0.19552 -0.106732 0.974808
1305031455.707680 -0.50208 0.413507 -0.348754 -0.00743141 -0.192734 -0.107317 0.975337
1305031455.742005 -0.519467 0.411708 -0.360211 -0.00580296 -0.188407 -0.111889 0.975679
1305031455.773667 -0.536823 0.409742 -0.372348 -0.00457225 -0.181536 -0.115198 0.976603
1305031455.809109 -0.554872 0.402724 -0.385316 -0.00471314 -0.174552 -0.114339 0.977976
1305031455.838364 -0.57041 0.401555 -0.398489 -0.001553 -0.170105 -0.113844 0.978826
1305031455.872220 -0.584354 0.398295 -0.411006 -0.00150848 -0.167404 -0.114897 0.979169
1305031455.908418 -0.597317 0.39569 -0.42277 -0.00125095 -0.163982 -0.115307 0.9797
1305031455.939606 -0.612039 0.391584 -0.433893 -0.00224088 -0.15893 -0.115602 0.980496
1305031455.973594 -0.624421 0.390806 -0.444071 -0.00119259 -0.154504 -0.118025 0.980916
1305031456.008998 -0.635663 0.390201 -0.452568 -0.00240501 -0.149342 -0.120957 0.981356
1305031456.041930 -0.646101 0.392997 -0.459805 -0.00533161 -0.14289 -0.125999 0.981671
1305031456.073846 -0.659788 0.389027 -0.46737 -0.0149052 -0.135509 -0.132551 0.981756
1305031456.108963 -0.674299 0.380772 -0.473552 -0.0220321 -0.129687 -0.138124 0.98164
1305031456.140836 -0.688125 0.375247 -0.479363 -0.0240969 -0.123864 -0.139507 0.982148
1305031456.173198 -0.700638 0.368114 -0.483755 -0.0254221 -0.117513 -0.140724 0.982721
1305031456.208934 -0.713672 0.361589 -0.487387 -0.0210491 -0.108934 -0.139293 0.984016
1305031456.240996 -0.720412 0.365758 -0.489789 -0.0145161 -0.0999993 -0.137191 0.985377
1305031456.277928 -0.731443 0.360285 -0.490474 -0.0153485 -0.0880593 -0.134389 0.986889
1305031456.310040 -0.744185 0.352993 -0.490499 -0.0135428 -0.0760487 -0.129721 0.988537
1305031456.341659 -0.757153 0.350672 -0.48981 -0.00786539 -0.0644614 -0.123094 0.990268
1305031456.377115 -0.768186 0.355178 -0.487881 -0.00117707 -0.0527861 -0.117453 0.991674
1305031456.409172 -0.782743 0.349197 -0.48454 -0.00065225 -0.0382578 -0.112295 0.992938
1305031456.440717 -0.795934 0.349733 -0.47954 0.00665713 -0.027423 -0.106072 0.993958
1305031456.476027 -0.808008 0.360327 -0.473583 0.0105743 -0.0221399 -0.0995075 0.994734
1305031456.508911 -0.822731 0.362625 -0.46502 0.0050349 -0.0205353 -0.0934126 0.995403
1305031456.541832 -0.839079 0.363743 -0.455467 -0.000794992 -0.0197081 -0.0871741 0.995998
1305031456.576087 -0.855828 0.358058 -0.445674 -0.00563318 -0.0170199 -0.0815629 0.996507
1305031456.607930 -0.865619 0.368727 -0.436153 -0.00234853 -0.0133786 -0.0755391 0.99705
1305031456.640699 -0.877315 0.379638 -0.426043 -0.0112186 -0.00698417 -0.0693683 0.997504
1305031456.675835 -0.893234 0.368204 -0.414504 -0.0264777 0.00050169 -0.0623589 0.997702
1305031456.709099 -0.907964 0.368454 -0.403863 -0.0254664 0.00534358 -0.0521621 0.9983
1305031456.740863 -0.920458 0.379016 -0.393803 -0.0267901 0.00690011 -0.0420018 0.998734
1305031456.777218 -0.937324 0.372624 -0.382214 -0.0348516 0.00582769 -0.0334363 0.998816
1305031456.808986 -0.951625 0.375123 -0.371279 -0.0305405 4.88711e-05 -0.0256899 0.999203
1305031456.841050 -0.961178 0.388553 -0.361118 -0.0283922 -0.00332094 -0.017982 0.99943
1305031456.878006 -0.974979 0.388623 -0.349556 -0.0354299 -0.000188702 -0.0104547 0.999317
1305031456.909883 -0.988 0.38582 -0.338675 -0.0386182 0.00439413 -0.00477181 0.999233
1305031456.942298 -0.999376 0.390248 -0.329355 -0.0335326 0.0100025 0.000625461 0.999387
1305031456.977139 -1.00989 0.400363 -0.321118 -0.0327423 0.0153137 0.00451988 0.999336
1305031457.006193 -1.02334 0.398877 -0.312678 -0.0412142 0.021498 0.0079885 0.998887
1305031457.042512 -1.03694 0.398973 -0.306297 -0.0436393 0.0272616 0.0130296 0.99859
1305031457.076011 -1.0495 0.404865 -0.302131 -0.0460789 0.0329292 0.0181818 0.998229
1305031457.108053 -1.06317 0.402729 -0.299155 -0.0555193 0.0398502 0.023337 0.997389
1305031457.142120 -1.07666 0.396778 -0.297531 -0.0601783 0.0475452 0.0291596 0.996628
1305031457.177463 -1.08876 0.395303 -0.29897 -0.0592031 0.0547188 0.0353307 0.996119
1305031457.209336 -1.10019 0.396889 -0.302113 -0.0580686 0.061297 0.0398925 0.99563
1305031457.240792 -1.116 0.393824 -0.305221 -0.061802 0.0695939 0.0466422 0.994566
1305031457.277247 -1.13072 0.38435 -0.308945 -0.0619453 0.0778725 0.0536221 0.993591
1305031457.309693 -1.14455 0.385141 -0.316021 -0.053377 0.0860872 0.0583421 0.993145
1305031457.342954 -1.15879 0.38774 -0.323782 -0.0492447 0.0958597 0.0621071 0.992234
1305031457.376037 -1.17431 0.383372 -0.330802 -0.0494467 0.107303 0.0678746 0.990674
1305031457.407980 -1.1893 0.377763 -0.338651 -0.0447453 0.118353 0.0755956 0.989078
1305031457.441357 -1.20435 0.378382 -0.348189 -0.0400774 0.125595 0.0822114 0.987857
1305031457.476577 -1.22125 0.373397 -0.356296 -0.0397423 0.129608 0.0880179 0.986851
1305031457.508603 -1.23788 0.364706 -0.364319 -0.0396926 0.13249 0.0923688 0.986072
1305031457.543946 -1.25295 0.3585 -0.37301 -0.0361015 0.136466 0.0951005 0.985408
1305031457.576581 -1.26825 0.355353 -0.381799 -0.0316845 0.141929 0.0986101 0.984443
1305031457.607246 -1.28461 0.353682 -0.389496 -0.027886 0.146515 0.101827 0.983558
1305031457.643534 -1.30081 0.346978 -0.395504 -0.0270647 0.149791 0.105595 0.98269
1305031457.675414 -1.31874 0.346524 -0.400668 -0.0227423 0.153479 0.110147 0.98173
1305031457.707739 -1.33511 0.341309 -0.405269 -0.0271619 0.154917 0.112868 0.981083
1305031457.745071 -1.34979 0.326092 -0.408553 -0.0310465 0.157103 0.112645 0.980646
1305031457.773518 -1.36572 0.315335 -0.412587 -0.0287184 0.160497 0.111749 0.980269
1305031457.807824 -1.3802 0.300684 -0.417407 -0.0231856 0.166135 0.110715 0.979594
1305031457.842853 -1.39587 0.298939 -0.422609 -0.01228 0.174795 0.109681 0.9784
1305031457.875920 -1.41141 0.291346 -0.425847 -0.00928281 0.183903 0.109589 0.976772
1305031457.906126 -1.42559 0.275074 -0.428486 -0.00420515 0.19183 0.110388 0.975191
1305031457.942604 -1.44306 0.269708 -0.429811 0.00922023 0.197242 0.11331 0.973741
1305031457.976744 -1.46052 0.266633 -0.428048 0.0176271 0.200358 0.117583 0.972482
1305031458.009019 -1.47404 0.254912 -0.42587 0.0216995 0.202211 0.118452 0.97191
1305031458.046303 -1.48706 0.245338 -0.42262 0.0299719 0.20647 0.117597 0.970898
1305031458.077315 -1.50468 0.247217 -0.415095 0.0403489 0.213424 0.118818 0.968868
1305031458.108896 -1.51967 0.246574 -0.405876 0.041993 0.218847 0.121002 0.967316
1305031458.144808 -1.53253 0.236949 -0.394956 0.0398343 0.223448 0.121859 0.966248
1305031458.178039 -1.54782 0.229453 -0.382114 0.0413891 0.227255 0.124222 0.964993
1305031458.209384 -1.56645 0.229365 -0.365505 0.0432388 0.229825 0.12888 0.963691
1305031458.245729 -1.58273 0.222351 -0.348743 0.0362626 0.229989 0.131058 0.963646
1305031458.277447 -1.59078 0.198728 -0.335394 0.0298772 0.22733 0.129539 0.964701
1305031458.308343 -1.60914 0.192227 -0.317049 0.0381912 0.226228 0.128467 0.96481
1305031458.343898 -1.62165 0.186467 -0.301179 0.0406462 0.221741 0.129398 0.965627
1305031458.376213 -1.6283 0.170807 -0.286855 0.045136 0.217052 0.129032 0.966541
1305031458.407856 -1.64183 0.169754 -0.267631 0.0584431 0.21668 0.130743 0.965681
1305031458.443957 -1.64847 0.167408 -0.250469 0.0677032 0.216576 0.136666 0.964279
1305031458.476034 -1.64879 0.159197 -0.237922 0.0780291 0.220659 0.141048 0.961939
1305031458.508869 -1.65278 0.154203 -0.220212 0.0988405 0.231933 0.139018 0.957659
1305031458.544401 -1.66362 0.172195 -0.193027 0.12263 0.244385 0.134983 0.952375
1305031458.576178 -1.66667 0.177918 -0.17174 0.131665 0.253544 0.131441 0.949264
1305031458.608421 -1.67207 0.181215 -0.146143 0.141892 0.261437 0.125948 0.94639
1305031458.643659 -1.67774 0.201157 -0.117149 0.14927 0.263132 0.12091 0.945442
1305031458.676991 -1.68226 0.200601 -0.0908315 0.143776 0.261301 0.12342 0.946477
1305031458.707780 -1.68334 0.201194 -0.0676662 0.137939 0.248489 0.118149 0.951455
1305031458.744924 -1.67841 0.1958 -0.0530076 0.133658 0.235339 0.10941 0.956442
1305031458.773802 -1.67939 0.197461 -0.0317008 0.138772 0.222034 0.0978298 0.960142
1305031458.810621 -1.67816 0.205757 -0.0127625 0.138547 0.207878 0.0872364 0.964355
1305031458.842919 -1.67138 0.203842 -0.00229576 0.131385 0.197887 0.0835171 0.967783
1305031458.875889 -1.67025 0.193523 0.0055055 0.129393 0.194504 0.0810621 0.968945
1305031458.910599 -1.66959 0.196567 0.0149869 0.1351 0.196228 0.0724086 0.968504
1305031458.943997 -1.67345 0.201951 0.0266131 0.136365 0.201913 0.0780129 0.966721
1305031458.976007 -1.67984 0.1934 0.0349021 0.128832 0.207941 0.090863 0.965353
1305031459.012560 -1.68869 0.17377 0.0395853 0.126244 0.213433 0.0955883 0.964039
1305031459.044413 -1.70345 0.164926 0.0542334 0.136759 0.21332 0.0959792 0.96259
1305031459.073657 -1.72292 0.151691 0.0702734 0.145691 0.207929 0.105035 0.961513
1305031459.112711 -1.75018 0.133854 0.0907306 0.157881 0.196753 0.116083 0.96067
1305031459.144497 -1.77594 0.119225 0.113199 0.170048 0.177776 0.119263 0.961902
1305031459.176463 -1.78922 0.110895 0.12874 0.178196 0.155676 0.11913 0.964271
1305031459.208791 -1.80056 0.105063 0.146259 0.184479 0.140048 0.123906 0.964884
1305031459.244159 -1.81006 0.103175 0.162425 0.187999 0.129395 0.13172 0.964657
1305031459.274941 -1.81575 0.106783 0.176043 0.188722 0.128302 0.138206 0.963754
1305031459.311921 -1.81935 0.109983 0.184917 0.186875 0.139111 0.151782 0.960567
1305031459.344169 -1.82221 0.109886 0.19152 0.186454 0.156034 0.169776 0.955021
1305031459.374084 -1.82782 0.121816 0.199454 0.193337 0.177694 0.187751 0.946465
1305031459.408831 -1.83581 0.145633 0.215305 0.197561 0.201396 0.210912 0.935909
1305031459.443181 -1.83861 0.152483 0.214758 0.187725 0.230668 0.249971 0.921448
1305031459.473401 -1.83798 0.168324 0.21251 0.189487 0.255109 0.281111 0.905533
1305031459.510267 -1.83798 0.168324 0.21251 0.189487 0.255109 0.281111 0.905533
1305031459.544431 -1.84648 0.171715 0.219368 0.180255 0.270584 0.311286 0.892969
1305031459.576817 -1.85862 0.173299 0.22811 0.179248 0.283247 0.333091 0.881301
1305031459.611939 -1.87404 0.176486 0.23853 0.180343 0.289948 0.350291 0.872183
1305031459.643453 -1.87404 0.176486 0.23853 0.180343 0.289948 0.350291 0.872183
1305031459.675678 -1.88756 0.175515 0.246573 0.179836 0.297319 0.35102 0.869509
1305031459.711531 -1.88756 0.175515 0.246573 0.179836 0.297319 0.35102 0.869509
1305031459.743425 -1.90094 0.164183 0.248366 0.173201 0.305682 0.355801 0.866005
1305031459.776577 -1.91585 0.152541 0.251836 0.172745 0.313162 0.353989 0.864165
1305031459.812562 -1.93184 0.142381 0.259117 0.173522 0.31758 0.350596 0.86378
1305031459.844736 -1.94742 0.131662 0.266872 0.172412 0.319264 0.348567 0.864202
1305031459.877006 -1.96198 0.119628 0.277471 0.169061 0.319745 0.348376 0.864763
1305031459.911472 -1.97341 0.104573 0.284069 0.163714 0.316586 0.352156 0.865423
1305031459.943616 -1.98437 0.0888983 0.290968 0.162252 0.314325 0.355735 0.865059
1305031459.979430 -1.99526 0.0764699 0.29873 0.161057 0.313147 0.358864 0.864417
1305031460.011909 -2.00479 0.0618605 0.303824 0.156853 0.312161 0.364015 0.863392
1305031460.043717 -2.01183 0.0465995 0.307126 0.154577 0.311913 0.368179 0.862126
1305031460.079449 -2.02085 0.0314456 0.315947 0.155526 0.312769 0.370782 0.860528
1305031460.111951 -2.02991 0.0137535 0.326485 0.158412 0.309079 0.378322 0.858049
1305031460.144204 -2.03461 -0.00204573 0.331257 0.163327 0.299473 0.38751 0.856432
1305031460.178730 -2.0426 -0.016915 0.344034 0.170111 0.292831 0.393989 0.85445
1305031460.208637 -2.04424 -0.0275709 0.347976 0.169033 0.286021 0.399802 0.854271
1305031460.243467 -2.04085 -0.0389926 0.345609 0.166992 0.284212 0.403649 0.853466
1305031460.279164 -2.0411 -0.0480068 0.347561 0.16838 0.290795 0.403166 0.851202
1305031460.311712 -2.04082 -0.0590652 0.348905 0.167309 0.298703 0.403055 0.848723
1305031460.342879 -2.04334 -0.0717839 0.354941 0.168211 0.308172 0.404511 0.844456
1305031460.377806 -2.04463 -0.0806206 0.361159 0.167283 0.317183 0.406592 0.840294
1305031460.409883 -2.04349 -0.0926437 0.363901 0.163152 0.32641 0.411147 0.835342
1305031460.444036 -2.04324 -0.103798 0.367914 0.161614 0.335951 0.416077 0.829396
1305031460.479856 -2.04509 -0.114181 0.375665 0.159418 0.348941 0.420047 0.822427
1305031460.508966 -2.04417 -0.12132 0.380777 0.153756 0.361213 0.426106 0.815057
1305031460.544245 -2.04387 -0.132274 0.384159 0.146668 0.371059 0.436506 0.806391
1305031460.579561 -2.04302 -0.143068 0.386025 0.139906 0.380116 0.441713 0.800517
1305031460.612190 -2.04445 -0.154092 0.392393 0.136131 0.389869 0.443358 0.795553
1305031460.644011 -2.04509 -0.16497 0.397197 0.13312 0.398385 0.445796 0.790465
1305031460.679350 -2.0464 -0.175473 0.404453 0.131201 0.406658 0.445603 0.786673
1305031460.711684 -2.04862 -0.185389 0.413552 0.128657 0.412006 0.447053 0.783481
1305031460.743767 -2.04907 -0.197894 0.420691 0.122607 0.41532 0.44809 0.782107
1305031460.779201 -2.04858 -0.209774 0.426898 0.118802 0.42072 0.447846 0.779945
1305031460.811318 -2.04947 -0.22018 0.436156 0.116228 0.425582 0.447048 0.778151
1305031460.843836 -2.04951 -0.231197 0.445628 0.110653 0.429072 0.445464 0.777956
1305031460.879093 -2.04816 -0.243375 0.454286 0.102782 0.43399 0.44433 0.776955
1305031460.911313 -2.04523 -0.255593 0.462226 0.0950971 0.438983 0.443338 0.775694
1305031460.943375 -2.04187 -0.26699 0.469634 0.0896465 0.441047 0.444594 0.774453
1305031460.979083 -2.03577 -0.281512 0.473948 0.0846918 0.441355 0.447587 0.77311
1305031461.011290 -2.03107 -0.293306 0.479222 0.0852025 0.444999 0.448078 0.770677
1305031461.043398 -2.026 -0.306079 0.484606 0.0859114 0.447232 0.449525 0.76846
1305031461.079602 -2.02291 -0.315078 0.493091 0.0891652 0.449422 0.448908 0.767171
1305031461.111961 -2.01843 -0.323965 0.500534 0.0870908 0.448139 0.449029 0.768088
1305031461.144098 -2.01103 -0.336583 0.50427 0.0833058 0.448371 0.448217 0.768847
1305031461.179883 -2.00402 -0.347935 0.509072 0.0843169 0.450125 0.446611 0.768646
1305031461.211180 -1.99955 -0.354756 0.515368 0.0862003 0.452172 0.442608 0.769551
1305031461.246864 -1.99462 -0.362059 0.520679 0.0862409 0.453935 0.440962 0.769453
1305031461.278888 -1.98929 -0.369516 0.525113 0.0867405 0.455066 0.437664 0.770611
1305031461.311240 -1.9851 -0.374342 0.531245 0.0880828 0.456912 0.431889 0.772622
1305031461.346875 -1.97957 -0.377219 0.538135 0.0882874 0.460707 0.426598 0.773284
1305031461.378850 -1.97268 -0.378724 0.544308 0.0827731 0.463811 0.424093 0.773416
1305031461.411130 -1.96304 -0.386707 0.54668 0.0744797 0.462925 0.426823 0.773289
1305031461.447015 -1.95535 -0.39162 0.55092 0.0729252 0.463928 0.425364 0.77364
1305031461.478901 -1.9498 -0.391923 0.55389 0.0689349 0.463593 0.427118 0.77324
1305031461.512120 -1.94037 -0.400674 0.550666 0.0644515 0.462712 0.43012 0.77249
1305031461.547338 -1.93667 -0.399839 0.55035 0.0688718 0.464414 0.426552 0.773065
1305031461.578847 -1.93303 -0.400111 0.548776 0.0668562 0.467026 0.423499 0.773347
1305031461.609662 -1.92965 -0.397886 0.546187 0.066154 0.473879 0.420186 0.771043
1305031461.646970 -1.92617 -0.393509 0.542806 0.0638595 0.47878 0.420552 0.768002
1305031461.676203 -1.92204 -0.388383 0.539114 0.0622384 0.481901 0.421011 0.765929
1305031461.711212 -1.91932 -0.380646 0.536382 0.0621982 0.482805 0.426009 0.762592
1305031461.746919 -1.91632 -0.373233 0.529347 0.0607864 0.48154 0.431712 0.760296
1305031461.778616 -1.91594 -0.36308 0.526693 0.0615661 0.483226 0.433746 0.758002
1305031461.811319 -1.91575 -0.351366 0.521511 0.0593206 0.484052 0.43772 0.755364
1305031461.847090 -1.91562 -0.339464 0.516466 0.0596445 0.486949 0.44208 0.750925
1305031461.879162 -1.91847 -0.322376 0.514747 0.0619808 0.489823 0.447917 0.745387
1305031461.911121 -1.92126 -0.306001 0.514358 0.0629534 0.489035 0.459369 0.738824
1305031461.947264 -1.92166 -0.294357 0.510931 0.0588173 0.485954 0.469593 0.73476
1305031461.979223 -1.924 -0.280613 0.508796 0.0557412 0.489537 0.471796 0.731201
1305031462.011791 -1.92995 -0.26306 0.511391 0.0524384 0.494375 0.477525 0.72444
1305031462.047463 -1.93198 -0.250233 0.509005 0.0480077 0.490148 0.490922 0.718642
1305031462.079285 -1.93522 -0.237485 0.508302 0.0495568 0.483053 0.503469 0.714649
1305031462.112081 -1.93894 -0.225927 0.506775 0.0494641 0.476068 0.51333 0.712323
1305031462.147634 -1.94378 -0.215707 0.506444 0.0481135 0.472021 0.521727 0.709001
1305031462.179358 -1.94849 -0.207148 0.505885 0.0456467 0.469338 0.527192 0.7069
1305031462.212836 -1.95469 -0.197756 0.507228 0.0418756 0.468801 0.526025 0.708357
1305031462.248986 -1.96109 -0.189146 0.509733 0.0362931 0.468975 0.526123 0.708477
1305031462.280774 -1.96708 -0.181336 0.512347 0.0299002 0.467879 0.525232 0.71016
1305031462.311931 -1.9736 -0.173455 0.516399 0.0236505 0.465996 0.521625 0.71428
1305031462.347816 -1.97994 -0.16618 0.520194 0.0161147 0.464913 0.517745 0.718009
1305031462.379950 -1.98794 -0.156944 0.525547 0.00881932 0.464188 0.511642 0.722963
1305031462.413016 -1.99506 -0.149565 0.531524 0.000412694 0.460306 0.509521 0.726985
1305031462.448295 -2.0016 -0.142846 0.536024 -0.00793569 0.454931 0.507543 0.731693
1305031462.480843 -2.01063 -0.13426 0.540624 -0.0149933 0.448353 0.504313 0.73785
1305031462.517041 -2.01775 -0.126853 0.541511 -0.0252206 0.440029 0.50217 0.744018
1305031462.548959 -2.02475 -0.121317 0.542452 -0.0304534 0.432665 0.500647 0.74915
1305031462.581088 -2.02475 -0.121317 0.542452 -0.0304534 0.432665 0.500647 0.74915
1305031462.617123 -2.02475 -0.121317 0.542452 -0.0304534 0.432665 0.500647 0.74915
1305031462.648708 -2.03249 -0.115257 0.538887 -0.0340385 0.430611 0.491746 0.756044
1305031462.680788 -2.04009 -0.109549 0.534208 -0.0353898 0.429731 0.482146 0.762636
1305031462.716812 -2.04009 -0.109549 0.534208 -0.0353898 0.429731 0.482146 0.762636
1305031462.748732 -2.0502 -0.101423 0.529802 -0.0361223 0.424433 0.471583 0.772115
1305031462.780885 -2.0589 -0.0923986 0.523655 -0.037095 0.418833 0.462536 0.780553
1305031462.816821 -2.06826 -0.0815484 0.515795 -0.037799 0.414304 0.455182 0.787231
1305031462.848525 -2.07719 -0.0692939 0.507096 -0.0388542 0.40886 0.450423 0.792744
1305031462.880471 -2.07719 -0.0692939 0.507096 -0.0388542 0.40886 0.450423 0.792744
1305031462.916800 -2.08278 -0.0570076 0.494453 -0.0394079 0.407605 0.447161 0.795205
1305031462.947939 -2.08854 -0.0457187 0.482439 -0.0382635 0.40634 0.445169 0.797025
1305031462.979943 -2.0919 -0.034954 0.468715 -0.0360868 0.402425 0.442463 0.800611
1305031463.016121 -2.09388 -0.0262917 0.454132 -0.0319556 0.39877 0.438204 0.804946
1305031463.050783 -2.09388 -0.0262917 0.454132 -0.0319556 0.39877 0.438204 0.804946
1305031463.076870 -2.10044 -0.014448 0.440683 -0.0278836 0.394215 0.42873 0.812408
1305031463.116806 -2.10044 -0.014448 0.440683 -0.0278836 0.394215 0.42873 0.812408
1305031463.148565 -2.10247 -0.00617339 0.425355 -0.0251237 0.392759 0.419055 0.818231
1305031463.180505 -2.1076 0.0072096 0.411085 -0.0207 0.391944 0.407653 0.824482
1305031463.217123 -2.1076 0.0072096 0.411085 -0.0207 0.391944 0.407653 0.824482
1305031463.248719 -2.1076 0.0072096 0.411085 -0.0207 0.391944 0.407653 0.824482
1305031463.278737 -2.1076 0.0072096 0.411085 -0.0207 0.391944 0.407653 0.824482
1305031463.317110 -2.10893 0.0222661 0.39813 -0.0183925 0.390434 0.399087 0.829429
1305031463.348740 -2.10893 0.0222661 0.39813 -0.0183925 0.390434 0.399087 0.829429
1305031463.380514 -2.10572 0.0316474 0.385263 -0.0123306 0.386764 0.395327 0.833054
1305031463.416326 -2.10478 0.0463574 0.373378 -0.00746889 0.3828 0.389237 0.837797
1305031463.444773 -2.10478 0.0463574 0.373378 -0.00746889 0.3828 0.389237 0.837797
1305031463.480415 -2.09935 0.0576812 0.360027 -0.00720881 0.381484 0.386237 0.839785
1305031463.516994 -2.09242 0.0677706 0.345604 -0.00897211 0.381761 0.384536 0.840423
1305031463.548505 -2.08377 0.0772387 0.328331 -0.00869204 0.383554 0.382223 0.840664
1305031463.580684 -2.08377 0.0772387 0.328331 -0.00869204 0.383554 0.382223 0.840664
1305031463.616671 -2.08377 0.0772387 0.328331 -0.00869204 0.383554 0.382223 0.840664
1305031463.646147 -2.07293 0.0801874 0.307911 -0.00903548 0.380497 0.381178 0.842522
1305031463.683908 -2.06607 0.0870508 0.289124 -0.00115894 0.381933 0.377692 0.84349
1305031463.716110 -2.06073 0.0972196 0.269784 0.00203465 0.380432 0.3738 0.845897
1305031463.747849 -2.04769 0.0963542 0.246837 -0.00160776 0.37813 0.372454 0.847522
1305031463.783912 -2.03612 0.0954944 0.223523 0.00132968 0.380551 0.367584 0.848564
1305031463.815883 -2.03612 0.0954944 0.223523 0.00132968 0.380551 0.367584 0.848564
1305031463.848094 -2.02536 0.0961786 0.198695 -0.00187623 0.379789 0.358105 0.852946
1305031463.883817 -2.01448 0.0938937 0.174074 -0.0026353 0.381065 0.348826 0.856214
1305031463.917433 -2.00708 0.0961501 0.151073 -0.000683776 0.382063 0.339407 0.859552
1305031463.944435 -1.99945 0.0938407 0.13063 -0.00050772 0.380359 0.335081 0.862002
1305031463.983748 -1.99015 0.0894389 0.107929 -9.70002e-05 0.376067 0.32922 0.866134
1305031464.015867 -1.98406 0.0870769 0.0864953 0.00256351 0.373724 0.321547 0.870018
1305031464.047778 -1.97969 0.0850625 0.0663006 0.00251512 0.371673 0.313436 0.873848
1305031464.083152 -1.97127 0.0777761 0.0437021 0.000111315 0.370824 0.304371 0.877409
1305031464.115837 -1.9683 0.0729049 0.0246145 0.00208345 0.373099 0.295281 0.879546
1305031464.147663 -1.96499 0.0696971 0.00522512 0.00504754 0.37122 0.291004 0.881752
1305031464.183566 -1.96006 0.0607111 -0.0133957 0.0102812 0.366463 0.289508 0.884186
1305031464.212447 -1.95752 0.0551649 -0.0304133 0.0207065 0.360482 0.2841 0.888206
1305031464.247602 -1.95766 0.0554922 -0.0441167 0.0323516 0.352147 0.279397 0.892683
1305031464.283694 -1.95862 0.0561621 -0.0547315 0.0407556 0.339824 0.276706 0.897938
1305031464.315699 -1.95862 0.0561621 -0.0547315 0.0407556 0.339824 0.276706 0.897938
1305031464.347553 -1.95033 0.055875 -0.0737203 0.0423285 0.326206 0.269722 0.905013
1305031464.383465 -1.94235 0.0541984 -0.0924293 0.0456852 0.317227 0.262991 0.910009
1305031464.415539 -1.93561 0.0588 -0.111882 0.049609 0.312597 0.252688 0.914314
1305031464.444269 -1.92817 0.0596374 -0.131443 0.0486601 0.311163 0.242426 0.917627
1305031464.487561 -1.92065 0.0568343 -0.150808 0.0495457 0.308351 0.234948 0.92047
1305031464.513688 -1.91236 0.059248 -0.174347 0.050387 0.305357 0.227559 0.923274
1305031464.548007 -1.90869 0.0598962 -0.192889 0.0501018 0.305569 0.219941 0.925064
1305031464.584260 -1.9002 0.0556037 -0.216785 0.0450426 0.303371 0.209092 0.928557
1305031464.615688 -1.88846 0.0471428 -0.246419 0.0439972 0.306428 0.19665 0.93032
1305031464.648851 -1.88118 0.0442529 -0.271791 0.0500989 0.318101 0.184992 0.928482
1305031464.684318 -1.87496 0.0387198 -0.293906 0.054963 0.329748 0.170211 0.92697
1305031464.716305 -1.86633 0.0213361 -0.312852 0.0616277 0.340985 0.151797 0.925683
1305031464.748588 -1.86409 0.0167188 -0.324563 0.0750852 0.347717 0.131346 0.925313
1305031464.784268 -1.86064 0.0219112 -0.333189 0.0838727 0.347642 0.110178 0.927346
1305031464.816195 -1.85392 0.0090557 -0.339499 0.0870657 0.342867 0.0944155 0.930563
1305031464.848283 -1.84964 0.00412643 -0.339012 0.0962266 0.331416 0.0797169 0.935173
1305031464.884177 -1.84324 0.00810302 -0.337729 0.100305 0.317447 0.0645239 0.940746
1305031464.916391 -1.82929 0.00437355 -0.339945 0.0939327 0.302553 0.04545 0.947403
1305031464.952471 -1.80897 -0.00763484 -0.346318 0.0868459 0.289985 0.0245213 0.952767
1305031464.984257 -1.78886 -0.0167138 -0.350498 0.0860972 0.283934 0.00532408 0.954956
1305031465.015390 -1.77012 -0.011475 -0.348957 0.0892508 0.281636 -0.0158373 0.95523
1305031465.048430 -1.75597 -0.0121436 -0.342584 0.0891338 0.280909 -0.0370143 0.954869
1305031465.083338 -1.74712 0.00469566 -0.327365 0.0938008 0.275835 -0.0532936 0.955131
1305031465.115475 -1.73132 0.0329215 -0.311122 0.0873165 0.263603 -0.0673595 0.958307
1305031465.151558 -1.70954 0.0422569 -0.299176 0.0676944 0.249541 -0.0778164 0.962856
1305031465.183558 -1.68768 0.0458023 -0.287427 0.0509076 0.236364 -0.0828676 0.966785
1305031465.215832 -1.66707 0.0550184 -0.275923 0.0390828 0.224899 -0.0875875 0.96965
1305031465.251788 -1.64368 0.0702853 -0.266535 0.0283279 0.21387 -0.0909487 0.972207
1305031465.283737 -1.62378 0.0740883 -0.255749 0.0192849 0.204278 -0.0859511 0.974942
1305031465.315985 -1.60062 0.0920611 -0.249195 0.0194227 0.192041 -0.0737495 0.978419
1305031465.351729 -1.58041 0.102589 -0.24283 0.0153585 0.177554 -0.0598429 0.98217
1305031465.383701 -1.55976 0.107631 -0.238483 0.014439 0.160126 -0.0473495 0.985854
1305031465.416543 -1.53567 0.117012 -0.238857 0.0180667 0.141911 -0.0382681 0.988974
1305031465.452401 -1.51135 0.129652 -0.241613 0.0230058 0.127182 -0.0293675 0.991178
1305031465.483803 -1.49358 0.149144 -0.245291 0.0292062 0.116156 -0.0178506 0.992641
1305031465.516043 -1.47179 0.163688 -0.251023 0.0283378 0.104815 -0.0101363 0.994036
1305031465.551838 -1.45318 0.168937 -0.25656 0.0283236 0.0953101 -0.00546944 0.99503
1305031465.583570 -1.43022 0.183873 -0.265962 0.0363003 0.0850795 -0.00153675 0.995712
1305031465.615685 -1.40571 0.201499 -0.275846 0.0433475 0.0780247 0.00474841 0.995997
1305031465.651645 -1.38762 0.218013 -0.283943 0.0498895 0.0719148 0.0148115 0.996052
1305031465.684759 -1.36734 0.236409 -0.293474 0.0569348 0.0612308 0.0227032 0.99624
1305031465.716279 -1.34098 0.254916 -0.303921 0.0640892 0.0518926 0.0265703 0.99624
1305031465.753153 -1.32067 0.275558 -0.312152 0.0739927 0.0475132 0.0354761 0.995494
1305031465.784387 -1.30012 0.300061 -0.320548 0.083359 0.0417231 0.0427528 0.994727
1305031465.816591 -1.27888 0.320933 -0.328137 0.0907123 0.0375007 0.0485861 0.993984
1305031465.852860 -1.2566 0.33961 -0.335666 0.101251 0.0332711 0.0538921 0.992843
1305031465.884370 -1.23425 0.372042 -0.341961 0.113559 0.030324 0.0551535 0.991536
1305031465.912828 -1.21379 0.394229 -0.347867 0.116642 0.0346274 0.0574897 0.990904
1305031465.952840 -1.19226 0.412386 -0.354212 0.123833 0.0406852 0.0586402 0.989733
1305031465.984183 -1.17093 0.437251 -0.359876 0.1346 0.0464546 0.0557053 0.988242
1305031466.016599 -1.15402 0.461269 -0.364895 0.141722 0.050505 0.0536309 0.987162
1305031466.052655 -1.13815 0.488893 -0.369007 0.147995 0.0510024 0.0524096 0.986281
1305031466.083913 -1.12512 0.513319 -0.373372 0.146418 0.0518866 0.0555547 0.986298
1305031466.116400 -1.11388 0.534508 -0.378891 0.143009 0.0491585 0.0568827 0.986862
1305031466.152540 -1.10224 0.552667 -0.386614 0.137951 0.0441959 0.0581609 0.987742
1305031466.184186 -1.09271 0.571799 -0.396341 0.133607 0.0379755 0.0609537 0.988429
1305031466.220477 -1.08467 0.591068 -0.406839 0.126411 0.0291637 0.0618868 0.989616
1305031466.252491 -1.07285 0.602355 -0.42088 0.115823 0.0210633 0.0567677 0.991423
1305031466.284389 -1.05941 0.610583 -0.437439 0.113319 0.0204954 0.0482167 0.992176
1305031466.320055 -1.04415 0.62554 -0.4529 0.115072 0.0259577 0.035368 0.992388
1305031466.352082 -1.02908 0.642023 -0.468155 0.114138 0.0344512 0.0268564 0.992504
1305031466.384479 -1.01644 0.650013 -0.48388 0.107618 0.0411931 0.0230463 0.993071
1305031466.420844 -1.00529 0.651941 -0.500783 0.107277 0.0434863 0.0208996 0.993058
1305031466.452369 -0.99095 0.669513 -0.514147 0.114215 0.0392753 0.0158305 0.992553
1305031466.483315 -0.976211 0.684406 -0.525335 0.113734 0.0333806 0.011963 0.992878
1305031466.519548 -0.956885 0.693895 -0.535925 0.110084 0.0290589 0.0111503 0.993435
1305031466.552219 -0.933538 0.703012 -0.545756 0.108896 0.0299373 0.00991071 0.993553
1305031466.584438 -0.912999 0.720554 -0.553818 0.107536 0.0304468 0.00715391 0.993709
1305031466.620424 -0.891388 0.729771 -0.560801 0.098511 0.0293344 0.00464081 0.994693
1305031466.648654 -0.874839 0.724801 -0.568915 0.092664 0.0332242 0.00393894 0.995135
1305031466.684412 -0.851085 0.737894 -0.577748 0.099407 0.0331607 -0.00377641 0.994487
1305031466.719744 -0.829114 0.753685 -0.58397 0.0987945 0.0294004 -0.0136271 0.99458
1305031466.748734 -0.809675 0.753276 -0.590301 0.0912736 0.0275389 -0.0217121 0.995208
1305031466.784300 -0.793562 0.752269 -0.598867 0.0929064 0.0289159 -0.0285765 0.994845
1305031466.819502 -0.774753 0.766497 -0.60551 0.0990505 0.0254306 -0.0347466 0.99415
1305031466.851527 -0.759282 0.772595 -0.611928 0.0955206 0.0209259 -0.0364022 0.994542
1305031466.883430 -0.749083 0.769473 -0.619999 0.093033 0.0153554 -0.0350726 0.994927
1305031466.919411 -0.733593 0.776745 -0.626212 0.0971878 0.00230908 -0.0371692 0.994569
1305031466.952451 -0.720764 0.781268 -0.63333 0.0975869 -0.0103817 -0.038544 0.994426
1305031466.984027 -0.70151 0.784309 -0.639889 0.0989669 -0.0199738 -0.0406547 0.994059
1305031467.020424 -0.682961 0.787244 -0.646305 0.0994416 -0.025446 -0.0448722 0.993705
1305031467.052391 -0.668414 0.789738 -0.65255 0.0994199 -0.0291724 -0.0492957 0.993395
1305031467.084130 -0.651179 0.794415 -0.657749 0.0995125 -0.0318426 -0.0528459 0.993122
1305031467.120528 -0.638597 0.797569 -0.663846 0.0969399 -0.0325319 -0.0590109 0.993007
1305031467.152363 -0.626253 0.797727 -0.669794 0.0962519 -0.0344686 -0.0691327 0.992355
1305031467.184216 -0.611262 0.799362 -0.674663 0.0971587 -0.0381621 -0.0770071 0.991551
1305031467.220466 -0.597669 0.801817 -0.679442 0.0977518 -0.0439415 -0.0819598 0.990856
1305031467.252275 -0.584423 0.802911 -0.684339 0.0980515 -0.0503097 -0.0878084 0.990022
1305031467.284258 -0.570613 0.804422 -0.689287 0.0996909 -0.0556791 -0.093712 0.98903
1305031467.318028 -0.556199 0.808998 -0.694782 0.101953 -0.0612483 -0.100808 0.987771
1305031467.349355 -0.540665 0.814549 -0.699853 0.103155 -0.067647 -0.105913 0.986694
1305031467.383844 -0.525163 0.821165 -0.704143 0.100472 -0.0748995 -0.109198 0.986089
1305031467.420160 -0.512036 0.822636 -0.710189 0.0948711 -0.081824 -0.113627 0.985593
1305031467.452057 -0.500329 0.820241 -0.717334 0.0922208 -0.0872692 -0.116856 0.985
1305031467.484357 -0.485054 0.827457 -0.723217 0.0928758 -0.0944229 -0.119446 0.983967
1305031467.520535 -0.467265 0.834956 -0.727487 0.0891441 -0.101794 -0.125423 0.982833
1305031467.552164 -0.453828 0.83182 -0.733364 0.0833606 -0.104202 -0.130788 0.982389
1305031467.584354 -0.439528 0.830595 -0.738307 0.08326 -0.105318 -0.132618 0.982033
1305031467.618680 -0.427875 0.830424 -0.741971 0.0830195 -0.107107 -0.130952 0.982083
1305031467.651977 -0.416849 0.821175 -0.744773 0.0841917 -0.112152 -0.129974 0.98155
1305031467.686044 -0.401324 0.820271 -0.745466 0.0912767 -0.118146 -0.127894 0.980486
1305031467.718326 -0.385527 0.817416 -0.743402 0.0944879 -0.122278 -0.13115 0.979245
1305031467.752580 -0.374457 0.806578 -0.740641 0.0977857 -0.124317 -0.136537 0.977927
1305031467.788562 -0.36269 0.80004 -0.736131 0.103618 -0.127117 -0.13987 0.976494
1305031467.820454 -0.351792 0.792229 -0.730118 0.106846 -0.129863 -0.142173 0.975452
1305031467.852678 -0.344283 0.7787 -0.723108 0.111137 -0.132775 -0.142021 0.974602
1305031467.888472 -0.332181 0.769001 -0.713543 0.118155 -0.139502 -0.141069 0.972974
1305031467.920800 -0.320069 0.761494 -0.701676 0.122888 -0.148454 -0.143477 0.970708
1305031467.952485 -0.313075 0.746589 -0.690786 0.125048 -0.154899 -0.146248 0.96901
1305031467.988523 -0.30212 0.735785 -0.677707 0.131568 -0.159729 -0.148481 0.967021
1305031468.020491 -0.287046 0.728321 -0.661856 0.132957 -0.163616 -0.151741 0.965674
1305031468.052668 -0.28179 0.709935 -0.649706 0.131027 -0.164036 -0.154721 0.965394
1305031468.088379 -0.274885 0.697141 -0.636446 0.13602 -0.167042 -0.157522 0.963734
1305031468.120522 -0.263219 0.686017 -0.622066 0.136161 -0.171648 -0.159361 0.962601
1305031468.152356 -0.254528 0.667363 -0.609865 0.13398 -0.174398 -0.161157 0.962114
1305031468.188327 -0.2436 0.653465 -0.597134 0.13529 -0.176972 -0.164908 0.960824
1305031468.220648 -0.233252 0.634959 -0.585393 0.132553 -0.178356 -0.167827 0.960444
1305031468.252517 -0.221568 0.612377 -0.574409 0.129359 -0.179221 -0.168054 0.960679
1305031468.288361 -0.210708 0.593593 -0.564231 0.127937 -0.179045 -0.167691 0.960966
1305031468.320522 -0.203079 0.572871 -0.557339 0.125626 -0.177136 -0.167781 0.961608
1305031468.352594 -0.196123 0.550034 -0.552134 0.126142 -0.174962 -0.164611 0.962486
1305031468.384700 -0.185642 0.534733 -0.544797 0.127766 -0.174283 -0.161095 0.96299
1305031468.420595 -0.177817 0.518371 -0.539814 0.123431 -0.174079 -0.161021 0.963605
1305031468.452605 -0.171726 0.493206 -0.536672 0.118094 -0.174436 -0.160165 0.964351
1305031468.488646 -0.164207 0.474938 -0.532296 0.116204 -0.17561 -0.158559 0.964633
1305031468.520786 -0.158256 0.454231 -0.529691 0.112274 -0.174265 -0.161772 0.964809
1305031468.552701 -0.158561 0.429704 -0.530577 0.111735 -0.171781 -0.168396 0.964183
1305031468.588614 -0.159323 0.41159 -0.529339 0.117009 -0.171828 -0.176573 0.962084
1305031468.620590 -0.159468 0.396329 -0.527125 0.115321 -0.173078 -0.180747 0.961288
1305031468.656644 -0.162615 0.373886 -0.526628 0.107753 -0.17453 -0.181749 0.961715
1305031468.688643 -0.168783 0.352244 -0.527046 0.107128 -0.178471 -0.183745 0.960682
1305031468.720560 -0.176465 0.33233 -0.527208 0.110167 -0.183113 -0.186325 0.958966
1305031468.756725 -0.181194 0.315646 -0.524963 0.112233 -0.188469 -0.186768 0.957602
1305031468.788562 -0.186278 0.300029 -0.52358 0.113509 -0.191647 -0.188638 0.956453
1305031468.817997 -0.194063 0.2802 -0.523498 0.118037 -0.19208 -0.195057 0.954529
1305031468.854887 -0.198579 0.26942 -0.52153 0.125085 -0.193445 -0.20097 0.952126
1305031468.889220 -0.198989 0.259275 -0.516671 0.125447 -0.192489 -0.205983 0.9512
1305031468.920539 -0.202415 0.246226 -0.513843 0.121979 -0.187229 -0.207334 0.952407
1305031468.956482 -0.205417 0.238666 -0.510735 0.117817 -0.181537 -0.203574 0.954841
1305031468.986011 -0.204269 0.238831 -0.503516 0.111981 -0.178583 -0.202942 0.956234
1305031469.020731 -0.205828 0.234139 -0.495415 0.0946093 -0.176555 -0.207361 0.957538
1305031469.056318 -0.211836 0.224968 -0.490572 0.0765 -0.172388 -0.212656 0.958753
1305031469.088069 -0.21558 0.218891 -0.483315 0.0645022 -0.171559 -0.219606 0.958217
1305031469.119984 -0.214345 0.214192 -0.472233 0.0530634 -0.169395 -0.231178 0.956581
1305031469.155046 -0.216901 0.20697 -0.463103 0.040764 -0.161068 -0.239876 0.95648
1305031469.184648 -0.219269 0.200838 -0.454009 0.0308616 -0.151484 -0.24607 0.956844
1305031469.219541 -0.221122 0.195212 -0.444515 0.023748 -0.142294 -0.249702 0.957516
1305031469.256002 -0.22396 0.192514 -0.434368 0.0192295 -0.137725 -0.252045 0.957672
1305031469.288263 -0.226081 0.189775 -0.422929 0.0138886 -0.134165 -0.25564 0.957317
1305031469.319772 -0.227794 0.188195 -0.410578 0.00881098 -0.129533 -0.257084 0.957628
1305031469.356116 -0.229465 0.190731 -0.397849 0.00367203 -0.126314 -0.258778 0.957635
1305031469.388556 -0.231454 0.189184 -0.385314 -0.00227784 -0.117639 -0.263363 0.957495
1305031469.420278 -0.232609 0.191269 -0.372931 -0.00196479 -0.104901 -0.268432 0.957568
1305031469.456563 -0.233356 0.196211 -0.360503 -0.00129967 -0.0931414 -0.274582 0.957041
1305031469.488520 -0.234546 0.198875 -0.34669 -0.00241819 -0.0845628 -0.280856 0.956014
1305031469.520417 -0.235182 0.203867 -0.332423 -0.00381187 -0.081814 -0.282326 0.955816
1305031469.556139 -0.234951 0.210282 -0.318 -0.00825033 -0.0831796 -0.282736 0.955549
1305031469.588500 -0.235517 0.218714 -0.303812 -0.0143928 -0.0834648 -0.282108 0.955637
1305031469.620563 -0.234457 0.229284 -0.289248 -0.0216469 -0.0835271 -0.28095 0.955836
1305031469.656279 -0.234903 0.237139 -0.274856 -0.0301215 -0.0814353 -0.27959 0.956185
1305031469.687925 -0.235522 0.245563 -0.260706 -0.0343756 -0.0779388 -0.278018 0.956791
1305031469.718943 -0.236019 0.256417 -0.246602 -0.0381294 -0.0743344 -0.2764 0.957405
1305031469.756754 -0.236345 0.267876 -0.232945 -0.0422215 -0.0701064 -0.27385 0.958284
1305031469.784733 -0.239211 0.280774 -0.219803 -0.0476305 -0.0665176 -0.270012 0.959375
1305031469.820544 -0.243278 0.292881 -0.207287 -0.0535959 -0.0657919 -0.266385 0.960124
1305031469.854359 -0.248735 0.308688 -0.196114 -0.0579269 -0.0664982 -0.262934 0.960775
1305031469.885343 -0.256359 0.321668 -0.185504 -0.0646587 -0.0671106 -0.26032 0.961014
1305031469.921773 -0.265136 0.336649 -0.17613 -0.0689838 -0.0669453 -0.256203 0.961831
1305031469.953180 -0.274844 0.349855 -0.166833 -0.0724008 -0.0684173 -0.254084 0.962039
1305031469.985327 -0.28513 0.364203 -0.158813 -0.0740723 -0.0701418 -0.252529 0.962197
1305031470.024714 -0.295977 0.379149 -0.151762 -0.0757282 -0.0709737 -0.25089 0.962436
1305031470.057400 -0.3082 0.39407 -0.146215 -0.0782607 -0.0714636 -0.249457 0.962569
1305031470.088874 -0.320816 0.408421 -0.141821 -0.0803429 -0.070496 -0.24862 0.962685
1305031470.124820 -0.332768 0.42301 -0.138409 -0.08167 -0.0693596 -0.246333 0.963244
1305031470.156744 -0.345402 0.438665 -0.13592 -0.0850061 -0.0683184 -0.242959 0.963887
1305031470.188876 -0.359856 0.451402 -0.133918 -0.0883902 -0.068545 -0.240853 0.964095
1305031470.224776 -0.371869 0.465333 -0.132777 -0.0899779 -0.069265 -0.237684 0.964683
1305031470.253015 -0.383669 0.478744 -0.131386 -0.0931749 -0.0688231 -0.234546 0.965179
1305031470.287867 -0.396131 0.491722 -0.130208 -0.0970075 -0.0676766 -0.23155 0.965606
1305031470.324266 -0.40854 0.503907 -0.128851 -0.102536 -0.0663986 -0.229364 0.965645
1305031470.356871 -0.422364 0.514955 -0.12777 -0.109415 -0.0656022 -0.22549 0.965857
1305031470.388056 -0.434976 0.525009 -0.126886 -0.114585 -0.066765 -0.222345 0.965906
1305031470.424090 -0.434976 0.525009 -0.126886 -0.114585 -0.066765 -0.222345 0.965906
1305031470.455875 -0.449032 0.533585 -0.127657 -0.116715 -0.0666616 -0.222362 0.965655
1305031470.487958 -0.462714 0.541653 -0.12832 -0.116492 -0.0667472 -0.22171 0.965826
1305031470.524431 -0.473808 0.549916 -0.128974 -0.11517 -0.0680308 -0.220536 0.966163
1305031470.556484 -0.485053 0.557663 -0.12923 -0.114684 -0.0684766 -0.221106 0.966059
1305031470.588797 -0.49618 0.563595 -0.129011 -0.116607 -0.0676757 -0.220207 0.966091
1305031470.624535 -0.505628 0.570143 -0.128742 -0.117035 -0.0677494 -0.217797 0.96658
1305031470.656787 -0.515935 0.575633 -0.12808 -0.119707 -0.0670602 -0.213884 0.967175
1305031470.688640 -0.5259 0.580716 -0.127094 -0.121699 -0.0670395 -0.20951 0.967885
1305031470.724461 -0.5259 0.580716 -0.127094 -0.121699 -0.0670395 -0.20951 0.967885
1305031470.755944 -0.532754 0.583345 -0.126253 -0.121727 -0.0680648 -0.209369 0.96784
1305031470.788407 -0.532754 0.583345 -0.126253 -0.121727 -0.0680648 -0.209369 0.96784
1305031470.820633 -0.541726 0.583485 -0.125817 -0.12578 -0.0640746 -0.207134 0.968075
1305031470.855509 -0.55194 0.583742 -0.125981 -0.123721 -0.0633574 -0.203653 0.969126
1305031470.886079 -0.561257 0.585161 -0.126476 -0.119043 -0.0633325 -0.199867 0.9705
1305031470.924410 -0.572092 0.585982 -0.127357 -0.116121 -0.0638593 -0.194626 0.971884
1305031470.956439 -0.572092 0.585982 -0.127357 -0.116121 -0.0638593 -0.194626 0.971884
1305031470.988276 -0.582337 0.586047 -0.129702 -0.105893 -0.0664425 -0.192473 0.973307
1305031471.024309 -0.592539 0.584564 -0.131802 -0.0989874 -0.0652196 -0.190241 0.974554
1305031471.056616 -0.602674 0.582243 -0.133967 -0.0907951 -0.0624823 -0.186905 0.976176
1305031471.088440 -0.611548 0.581203 -0.135957 -0.0808402 -0.0602168 -0.181715 0.978171
1305031471.123837 -0.619207 0.580211 -0.137821 -0.0733115 -0.0601585 -0.175513 0.979899
1305031471.155886 -0.626947 0.578813 -0.139912 -0.0671384 -0.0602091 -0.168838 0.98151
1305031471.192698 -0.633198 0.57948 -0.141229 -0.0608151 -0.0590746 -0.162985 0.982979
1305031471.224404 -0.639566 0.580243 -0.14203 -0.0579698 -0.0558276 -0.157387 0.984252
1305031471.256397 -0.646357 0.58004 -0.142138 -0.0578555 -0.052548 -0.153066 0.98512
1305031471.288603 -0.654165 0.578004 -0.142447 -0.0588331 -0.049988 -0.149531 0.985738
1305031471.324440 -0.661208 0.575727 -0.143549 -0.057836 -0.0467444 -0.145283 0.986591
1305031471.356569 -0.665287 0.576217 -0.144507 -0.0534629 -0.0419583 -0.143125 0.987368
1305031471.392751 -0.669879 0.574832 -0.145971 -0.0538049 -0.0340075 -0.140244 0.988069
1305031471.424494 -0.676043 0.571255 -0.147962 -0.0530481 -0.0280427 -0.134336 0.989117
1305031471.456975 -0.68073 0.571816 -0.149682 -0.0484337 -0.0264542 -0.127218 0.990338
1305031471.492705 -0.68073 0.571816 -0.149682 -0.0484337 -0.0264542 -0.127218 0.990338
1305031471.524343 -0.685634 0.570677 -0.151428 -0.0497719 -0.0254195 -0.122913 0.990843
1305031471.556561 -0.689968 0.570585 -0.153425 -0.0496225 -0.0243521 -0.119582 0.991284
1305031471.592606 -0.693772 0.570563 -0.155952 -0.0501531 -0.0213678 -0.117552 0.991569
1305031471.624486 -0.696658 0.570617 -0.158778 -0.0496659 -0.016859 -0.116125 0.991849
1305031471.656831 -0.699677 0.57013 -0.161741 -0.0492982 -0.012138 -0.114683 0.992104
1305031471.693182 -0.702541 0.569981 -0.164544 -0.0471424 -0.00748231 -0.111018 0.992671
1305031471.724753 -0.704808 0.57234 -0.166899 -0.044206 -0.00357378 -0.105558 0.993424
1305031471.753002 -0.706442 0.573425 -0.168788 -0.0451479 -3.3832e-05 -0.100865 0.993875
1305031471.792706 -0.707279 0.573455 -0.170592 -0.0452508 0.00421687 -0.0944739 0.994489
1305031471.823821 -0.708126 0.577677 -0.17186 -0.0428584 0.0100445 -0.0868034 0.995252
1305031471.855793 -0.710366 0.580987 -0.172383 -0.0457998 0.0146744 -0.0794866 0.995675
1305031471.892838 -0.712499 0.584191 -0.172469 -0.0476213 0.0183317 -0.0728554 0.996036
1305031471.924928 -0.715086 0.588547 -0.172053 -0.0501367 0.0234962 -0.0661708 0.996271
1305031471.957162 -0.715086 0.588547 -0.172053 -0.0501367 0.0234962 -0.0661708 0.996271
1305031471.993177 -0.717772 0.591015 -0.171948 -0.0492014 0.0304652 -0.0642443 0.996255
1305031472.024660 -0.721191 0.597681 -0.170915 -0.0487677 0.0379654 -0.0597013 0.996301
1305031472.058063 -0.721191 0.597681 -0.170915 -0.0487677 0.0379654 -0.0597013 0.996301
1305031472.092883 -0.72468 0.59948 -0.170376 -0.0493017 0.0422749 -0.0559841 0.996317
1305031472.124760 -0.728744 0.605475 -0.16892 -0.0477152 0.0472296 -0.050246 0.996478
1305031472.156982 -0.728744 0.605475 -0.16892 -0.0477152 0.0472296 -0.050246 0.996478
1305031472.192890 -0.731958 0.60338 -0.168547 -0.0502448 0.0478559 -0.0487393 0.996398
1305031472.224678 -0.731958 0.60338 -0.168547 -0.0502448 0.0478559 -0.0487393 0.996398
1305031472.256642 -0.73519 0.603473 -0.168446 -0.0487495 0.0495684 -0.0468216 0.996481
1305031472.293139 -0.736931 0.600444 -0.16923 -0.0464392 0.0508915 -0.046729 0.996529
1305031472.324844 -0.736931 0.600444 -0.16923 -0.0464392 0.0508915 -0.046729 0.996529
1305031472.360912 -0.738691 0.601748 -0.169966 -0.0420008 0.0520646 -0.0448453 0.996752
1305031472.392956 -0.740074 0.600617 -0.170355 -0.0428749 0.0516049 -0.0432539 0.996809
1305031472.424694 -0.741134 0.597604 -0.170735 -0.0432096 0.0495316 -0.0419843 0.996954
1305031472.460919 -0.741686 0.595073 -0.170995 -0.0416372 0.0470739 -0.0428936 0.997101
1305031472.492972 -0.741843 0.593318 -0.171277 -0.0404059 0.0470965 -0.0439727 0.997104
1305031472.524781 -0.741208 0.589789 -0.171627 -0.0418561 0.0489632 -0.0439726 0.996954
1305031472.561296 -0.741236 0.584118 -0.172672 -0.0416408 0.049861 -0.0426081 0.996978
1305031472.592968 -0.740651 0.581393 -0.173871 -0.0360178 0.0487404 -0.0403227 0.997347
1305031472.624647 -0.738935 0.580561 -0.174412 -0.0326154 0.0473887 -0.0376505 0.997634
1305031472.660836 -0.737871 0.576787 -0.174189 -0.0332382 0.0464204 -0.0360857 0.997716
1305031472.693008 -0.736923 0.572932 -0.174064 -0.0326828 0.0459516 -0.0343475 0.997818
1305031472.724752 -0.735153 0.568903 -0.173892 -0.0313543 0.0448243 -0.0334659 0.997942
1305031472.760654 -0.733914 0.565775 -0.173429 -0.0289609 0.0443681 -0.0341323 0.998012
1305031472.792775 -0.732287 0.562615 -0.172922 -0.0277391 0.0447305 -0.0355196 0.997982
1305031472.824692 -0.732156 0.558404 -0.172182 -0.0266646 0.0459434 -0.036073 0.997936
1305031472.860936 -0.730943 0.555681 -0.17135 -0.0245374 0.04599 -0.0364644 0.997975
1305031472.892944 -0.730325 0.554856 -0.170155 -0.0223332 0.0453421 -0.0349426 0.99811
1305031472.924814 -0.729479 0.553406 -0.168782 -0.0225906 0.0437372 -0.0327521 0.99825
1305031472.961213 -0.728697 0.551259 -0.16771 -0.0230805 0.0429996 -0.0312421 0.99832
1305031472.992815 -0.727032 0.55071 -0.16672 -0.0228295 0.0422952 -0.0303349 0.998384
1305031473.024564 -0.727556 0.549812 -0.165682 -0.0239734 0.0413794 -0.0295904 0.998417
1305031473.060795 -0.727816 0.549068 -0.16465 -0.0248479 0.0404417 -0.0301915 0.998417
1305031473.092012 -0.727554 0.547343 -0.164058 -0.025931 0.0403776 -0.0317832 0.998342
1305031473.124072 -0.727361 0.546944 -0.163598 -0.0255127 0.0413624 -0.0341021 0.998236
1305031473.158420 -0.728479 0.545555 -0.163408 -0.026005 0.0423894 -0.0349052 0.998153
1305031473.190828 -0.72795 0.544082 -0.163375 -0.0254321 0.0413247 -0.0357948 0.99818
