1305031453.374112 0 0 0 0 0 0 1
1305031453.404816 0.0038509 0.00556705 -0.0092747 -0.000778054 0.00651935 0.00966502 0.999932
1305031453.436941 0.00720848 0.00961356 -0.019327 0.00018745 0.0108387 0.019296 0.999755
1305031453.473352 0.0117413 0.0153574 -0.0300986 0.0040484 0.0160767 0.0279051 0.999473
1305031453.505218 0.0159761 0.0204451 -0.0421217 0.0081093 0.0224104 0.0368224 0.999038
1305031453.538301 0.0178105 0.0244113 -0.0551459 0.0138708 0.0279623 0.0458203 0.998462
1305031453.574074 0.0200225 0.0312994 -0.0688464 0.021483 0.0306077 0.0522722 0.997932
1305031453.605314 0.0207228 0.0373843 -0.0829536 0.0291822 0.0330445 0.0574384 0.997375
1305031453.636951 0.0197117 0.0428614 -0.0974325 0.0359899 0.034549 0.0619464 0.996832
1305031453.673185 0.0155252 0.0519181 -0.111034 0.0446609 0.0322513 0.0624288 0.996528
1305031453.705487 0.00876988 0.060039 -0.124865 0.0519031 0.0282236 0.0585874 0.996532
1305031453.736856 0.00100549 0.0712977 -0.137882 0.0578779 0.0236991 0.0536147 0.996601
1305031453.773786 -0.0084388 0.0798433 -0.150114 0.0626118 0.0170992 0.0472625 0.996772
1305031453.805041 -0.01832 0.0873359 -0.162138 0.0673543 0.00870041 0.0394049 0.996913
1305031453.840352 -0.0291575 0.0975548 -0.172978 0.0712604 0.00141503 0.0327891 0.996918
1305031453.869618 -0.04023 0.110138 -0.180236 0.0758816 -0.00793012 0.0268329 0.996724
1305031453.905519 -0.0533712 0.121879 -0.186637 0.078049 -0.0219116 0.0199396 0.996509
1305031453.940012 -0.0675375 0.132092 -0.192954 0.077496 -0.038265 0.0157486 0.996134
1305031453.972592 -0.0814272 0.136647 -0.200413 0.0746013 -0.0530484 0.00644579 0.995781
1305031454.003179 -0.0969515 0.138516 -0.207064 0.0720783 -0.0643035 -0.00445863 0.995314
1305031454.040976 -0.113481 0.140106 -0.212611 0.0733428 -0.0741969 -0.0145344 0.994437
1305031454.072690 -0.129678 0.145825 -0.216354 0.0751946 -0.0836641 -0.025752 0.993319
1305031454.104619 -0.147752 0.148974 -0.219226 0.0756272 -0.0926953 -0.0382544 0.992081
1305031454.141030 -0.164996 0.151193 -0.221325 0.0783455 -0.103993 -0.0517027 0.990139
1305031454.172688 -0.179335 0.158881 -0.222341 0.0806725 -0.117846 -0.0645509 0.987642
1305031454.204626 -0.193756 0.161857 -0.223004 0.0790984 -0.132147 -0.0785076 0.984945
1305031454.240858 -0.211091 0.160151 -0.22609 0.0786588 -0.145297 -0.093873 0.981779
1305031454.273489 -0.224087 0.161888 -0.227502 0.0838395 -0.15718 -0.111899 0.977622
1305031454.304744 -0.236055 0.167394 -0.228535 0.0834864 -0.164084 -0.12531 0.974887
1305031454.340806 -0.250577 0.170383 -0.231858 0.0837332 -0.171093 -0.137598 0.971999
1305031454.372652 -0.261296 0.172881 -0.232947 0.0895285 -0.181406 -0.153363 0.967242
1305031454.401962 -0.269823 0.179355 -0.233667 0.0922442 -0.189046 -0.166368 0.963366
1305031454.437248 -0.280988 0.183291 -0.235916 0.0930664 -0.19866 -0.18019 0.958856
1305031454.470741 -0.288057 0.184479 -0.235404 0.0952605 -0.208787 -0.198021 0.952954
1305031454.503859 -0.296511 0.188442 -0.236785 0.0963316 -0.212284 -0.214625 0.948468
1305031454.538424 -0.303094 0.195118 -0.237755 0.0959102 -0.217509 -0.231069 0.94345
1305031454.570323 -0.308612 0.204596 -0.238947 0.0942907 -0.222421 -0.244031 0.939195
1305031454.602019 -0.315999 0.21296 -0.241255 0.0915905 -0.230083 -0.259075 0.93357
1305031454.639284 -0.320113 0.219686 -0.241527 0.0897432 -0.242212 -0.272187 0.926927
1305031454.669573 -0.320167 0.228781 -0.240357 0.0853541 -0.255372 -0.280062 0.921447
1305031454.702030 -0.323795 0.237919 -0.242772 0.078576 -0.266939 -0.284762 0.917322
1305031454.740764 -0.320923 0.243419 -0.241924 0.0745249 -0.280617 -0.290935 0.911623
1305031454.772865 -0.31435 0.249014 -0.239845 0.0702922 -0.289306 -0.29063 0.909338
1305031454.802574 -0.310644 0.256544 -0.239994 0.0658008 -0.292175 -0.283487 0.91101
1305031454.840500 -0.304502 0.266127 -0.23888 0.0627021 -0.294224 -0.277329 0.912463
1305031454.870269 -0.298334 0.274575 -0.237448 0.0589669 -0.292837 -0.272149 0.914715
1305031454.901065 -0.293455 0.2838 -0.237292 0.0559739 -0.288396 -0.264836 0.918453
1305031454.940240 -0.290204 0.294552 -0.238091 0.0535122 -0.283025 -0.258245 0.92214
1305031454.973081 -0.288421 0.303173 -0.239687 0.0501758 -0.27781 -0.251908 0.92566
1305031455.010759 -0.290603 0.313245 -0.243657 0.0477613 -0.273522 -0.245189 0.928863
1305031455.040446 -0.292598 0.326475 -0.246722 0.0482673 -0.272095 -0.241157 0.930311
1305031455.074282 -0.295227 0.336956 -0.24956 0.0480755 -0.269086 -0.239135 0.931717
1305031455.110340 -0.300573 0.347549 -0.253957 0.0504796 -0.264846 -0.238287 0.933021
1305031455.142700 -0.305103 0.359703 -0.257038 0.053495 -0.260551 -0.237812 0.934182
1305031455.172771 -0.312124 0.369212 -0.260425 0.0527797 -0.255862 -0.234473 0.936361
1305031455.210307 -0.320809 0.379946 -0.264073 0.0504509 -0.251751 -0.228568 0.939059
1305031455.240960 -0.329777 0.388879 -0.267747 0.0498824 -0.248065 -0.222939 0.941421
1305031455.273001 -0.336901 0.401791 -0.269372 0.0499089 -0.24421 -0.217266 0.943751
1305031455.310303 -0.347596 0.408205 -0.273304 0.0419803 -0.238297 -0.208637 0.947588
1305031455.342381 -0.360459 0.417158 -0.277779 0.036247 -0.234764 -0.196944 0.951202
1305031455.374120 -0.368664 0.427762 -0.279973 0.0293148 -0.233158 -0.189823 0.953281
1305031455.409213 -0.379214 0.431602 -0.283793 0.0192181 -0.22647 -0.183855 0.956316
1305031455.442380 -0.391102 0.434824 -0.289335 0.0110604 -0.21905 -0.174103 0.959991
1305031455.473168 -0.398455 0.436454 -0.293053 0.00493627 -0.217853 -0.163406 0.962192
1305031455.509397 -0.410392 0.440831 -0.299509 0.00110946 -0.214161 -0.153555 0.964653
1305031455.540835 -0.426274 0.441939 -0.307929 -0.00431401 -0.209973 -0.141137 0.967457
1305031455.572996 -0.442929 0.444538 -0.316989 -0.00627798 -0.208964 -0.128443 0.969431
1305031455.608802 -0.460303 0.4491 -0.327261 -0.0085214 -0.208241 -0.113877 0.971388
1305031455.641333 -0.478669 0.449598 -0.337509 -0.0136273 -0.205228 -0.100285 0.973467
1305031455.672887 -0.496763 0.447487 -0.348081 -0.0126744 -0.201614 -0.0933158 0.974927
1305031455.707680 -0.513976 0.44877 -0.359394 -0.0087173 -0.198568 -0.0935105 0.975577
1305031455.742005 -0.531867 0.446801 -0.371328 -0.00702692 -0.193845 -0.0979055 0.976109
1305031455.773667 -0.548405 0.443777 -0.383376 -0.00619253 -0.18737 -0.101713 0.97699
1305031455.809109 -0.564949 0.436381 -0.395824 -0.00631844 -0.180801 -0.100973 0.978302
1305031455.838364 -0.579497 0.433821 -0.408753 -0.00356412 -0.176748 -0.100693 0.979085
1305031455.872220 -0.593543 0.430132 -0.421279 -0.00344529 -0.173857 -0.101853 0.979483
1305031455.908418 -0.60623 0.426401 -0.432949 -0.00358943 -0.170635 -0.102504 0.979982
1305031455.939606 -0.618764 0.422073 -0.443546 -0.00430584 -0.166313 -0.1033 0.980638
1305031455.973594 -0.63096 0.420518 -0.454001 -0.00345149 -0.162034 -0.10597 0.981073
1305031456.008998 -0.641438 0.419748 -0.462825 -0.00460383 -0.15709 -0.109086 0.98153
1305031456.041930 -0.650834 0.419448 -0.469611 -0.00862926 -0.151167 -0.114389 0.981829
1305031456.073846 -0.66452 0.415428 -0.477326 -0.0180657 -0.143993 -0.121331 0.981946
1305031456.108963 -0.679634 0.409921 -0.48444 -0.0241873 -0.13762 -0.125557 0.982197
1305031456.140836 -0.693073 0.40482 -0.490185 -0.0260134 -0.131886 -0.12709 0.98274
1305031456.173198 -0.705689 0.398534 -0.494877 -0.0270242 -0.124946 -0.127052 0.983624
1305031456.208934 -0.718022 0.393407 -0.498739 -0.0222882 -0.116146 -0.124849 0.985102
1305031456.240996 -0.723439 0.397004 -0.500653 -0.0160386 -0.107676 -0.122836 0.986438
1305031456.277928 -0.734539 0.392424 -0.501743 -0.0166337 -0.0956171 -0.120171 0.987998
1305031456.310040 -0.745977 0.385711 -0.501631 -0.0144608 -0.0844625 -0.116045 0.989541
1305031456.341659 -0.755328 0.383082 -0.500579 -0.00887638 -0.0743696 -0.110223 0.991081
1305031456.377115 -0.760701 0.386632 -0.498027 -0.00238623 -0.0641572 -0.106232 0.992267
1305031456.409172 -0.773148 0.379927 -0.494545 -0.00222702 -0.0507215 -0.101704 0.993518
1305031456.440717 -0.786683 0.378619 -0.489732 0.0043302 -0.0398336 -0.0945777 0.994711
1305031456.476027 -0.798066 0.385689 -0.483541 0.00682441 -0.0348227 -0.0868651 0.995588
1305031456.508911 -0.812927 0.389457 -0.475785 0.00209885 -0.0330491 -0.0806606 0.996191
1305031456.541832 -0.830826 0.391154 -0.467168 -0.00341647 -0.0318876 -0.0742209 0.996726
1305031456.576087 -0.847209 0.388969 -0.458246 -0.0068705 -0.0290682 -0.069363 0.997144
1305031456.607930 -0.858092 0.395363 -0.448506 -0.00531522 -0.0252385 -0.0639855 0.997617
1305031456.640699 -0.869017 0.404279 -0.438414 -0.0147923 -0.0195573 -0.0586061 0.99798
1305031456.675835 -0.882397 0.399263 -0.427826 -0.0273374 -0.0129684 -0.0515118 0.998214
1305031456.709099 -0.896609 0.398897 -0.4178 -0.0266649 -0.0086041 -0.0415622 0.998743
1305031456.740863 -0.90815 0.405469 -0.408034 -0.0300917 -0.00793003 -0.0335352 0.998953
1305031456.777218 -0.927995 0.400671 -0.396923 -0.0374777 -0.00785143 -0.0220449 0.999023
1305031456.808986 -0.943386 0.403118 -0.386527 -0.033041 -0.0134948 -0.0147967 0.999253
1305031456.841050 -0.954742 0.413058 -0.376681 -0.0327213 -0.01626 -0.00809113 0.999299
1305031456.878006 -0.968986 0.415417 -0.365565 -0.0386513 -0.0131978 -0.000247074 0.999166
1305031456.909883 -0.982216 0.413975 -0.355333 -0.0413273 -0.00874172 0.00553623 0.999092
1305031456.942298 -0.993511 0.416995 -0.346195 -0.0369859 -0.00293495 0.0106653 0.999255
1305031456.977139 -1.00285 0.424019 -0.338409 -0.0381603 0.00195551 0.0136431 0.999177
1305031457.006193 -1.01699 0.425377 -0.330584 -0.0452639 0.00817044 0.0171435 0.998795
1305031457.042512 -1.03076 0.425055 -0.32455 -0.0478205 0.013711 0.0212145 0.998537
1305031457.076011 -1.04095 0.429558 -0.320914 -0.0512243 0.0181517 0.0247675 0.998215
1305031457.108053 -1.05407 0.428258 -0.318306 -0.0603018 0.0247674 0.0303121 0.997412
1305031457.142120 -1.06746 0.423582 -0.31755 -0.06448 0.0323102 0.0357813 0.996754
1305031457.177463 -1.07948 0.422577 -0.319368 -0.0632142 0.0395821 0.041881 0.996335
1305031457.209336 -1.09054 0.423492 -0.322917 -0.0624567 0.0463196 0.0469234 0.995867
1305031457.240792 -1.10478 0.420832 -0.32684 -0.0661809 0.0539798 0.0535412 0.994907
1305031457.277247 -1.12047 0.412621 -0.331088 -0.0656981 0.0627701 0.0612797 0.993976
1305031457.309693 -1.13448 0.41155 -0.338532 -0.0582082 0.0712563 0.0662573 0.993551
1305031457.342954 -1.14682 0.412701 -0.346548 -0.0548947 0.0805457 0.0696445 0.992798
1305031457.376037 -1.16296 0.408137 -0.353788 -0.0551352 0.0926641 0.0754395 0.991303
1305031457.407980 -1.17597 0.403707 -0.362911 -0.0505055 0.102878 0.0827651 0.989957
1305031457.441357 -1.19 0.402384 -0.372604 -0.0469421 0.110306 0.0897887 0.98872
1305031457.476577 -1.20626 0.39663 -0.381076 -0.0469731 0.114308 0.0953929 0.987738
1305031457.508603 -1.22278 0.389058 -0.389468 -0.0465269 0.117494 0.0994921 0.986981
1305031457.543946 -1.23763 0.382229 -0.398654 -0.0433304 0.121403 0.102151 0.986382
1305031457.576581 -1.25285 0.378414 -0.407691 -0.0391603 0.126799 0.10475 0.985604
1305031457.607246 -1.26826 0.376379 -0.415814 -0.0354853 0.131457 0.108004 0.984782
1305031457.643534 -1.28408 0.370525 -0.422498 -0.0345355 0.134408 0.110845 0.984101
1305031457.675414 -1.29969 0.368954 -0.4285 -0.0309005 0.137245 0.114791 0.983378
1305031457.707739 -1.31614 0.363558 -0.433556 -0.0355628 0.138851 0.116961 0.982739
1305031457.745071 -1.33233 0.350127 -0.437537 -0.0388536 0.141609 0.117853 0.982114
1305031457.773518 -1.34742 0.340879 -0.442585 -0.0364462 0.144843 0.11655 0.98189
1305031457.807824 -1.3612 0.328266 -0.448195 -0.0307715 0.149905 0.115335 0.981468
1305031457.842853 -1.37509 0.323521 -0.454154 -0.0211688 0.158219 0.114297 0.980538
1305031457.875920 -1.38961 0.315226 -0.458213 -0.0184385 0.167002 0.1139 0.979182
1305031457.906126 -1.40484 0.30168 -0.460934 -0.0125046 0.175346 0.11544 0.977635
1305031457.942604 -1.42116 0.294629 -0.462404 0.000807534 0.180697 0.118585 0.976364
1305031457.976744 -1.43844 0.290857 -0.461528 0.00921904 0.183632 0.122645 0.97527
1305031458.009019 -1.45297 0.28037 -0.459942 0.0135869 0.18578 0.123891 0.974655
1305031458.046303 -1.46588 0.270675 -0.456974 0.0216087 0.190101 0.123143 0.973771
1305031458.077315 -1.4827 0.271114 -0.450447 0.031288 0.196495 0.123875 0.972145
1305031458.108896 -1.49778 0.270515 -0.441692 0.0329992 0.202041 0.125817 0.970701
1305031458.144808 -1.5114 0.262255 -0.431434 0.0312205 0.206843 0.1267 0.969633
1305031458.178039 -1.52562 0.254819 -0.41941 0.0328171 0.210161 0.128595 0.968617
1305031458.209384 -1.54472 0.254668 -0.403758 0.0348624 0.212784 0.132818 0.967402
1305031458.245729 -1.56063 0.248282 -0.388374 0.0285061 0.212224 0.134863 0.96745
1305031458.277447 -1.57013 0.227523 -0.375842 0.0227532 0.209939 0.134243 0.968187
1305031458.308343 -1.58767 0.220152 -0.358397 0.0309161 0.208664 0.133568 0.96833
1305031458.343898 -1.60242 0.214668 -0.342029 0.0341144 0.205045 0.135312 0.968754
1305031458.376213 -1.61099 0.197962 -0.32712 0.0379064 0.200961 0.134698 0.969554
1305031458.407856 -1.62466 0.197434 -0.308872 0.0512897 0.200248 0.136642 0.968813
1305031458.443957 -1.63278 0.194115 -0.292114 0.0599414 0.200582 0.143384 0.967272
1305031458.476034 -1.63629 0.184512 -0.277736 0.070316 0.205823 0.148252 0.964735
1305031458.508869 -1.64103 0.180324 -0.259732 0.090804 0.217368 0.146078 0.960816
1305031458.544401 -1.65643 0.199909 -0.232642 0.115186 0.231093 0.142443 0.95553
1305031458.576178 -1.65994 0.206144 -0.212268 0.124354 0.240099 0.139267 0.952624
1305031458.608421 -1.66512 0.208828 -0.187841 0.134399 0.247376 0.13394 0.950159
1305031458.643659 -1.67428 0.226449 -0.157533 0.141628 0.250249 0.129129 0.949022
1305031458.676991 -1.6763 0.228403 -0.133279 0.136952 0.245876 0.131256 0.950558
1305031458.707780 -1.67674 0.23055 -0.110834 0.132387 0.232096 0.126577 0.955292
1305031458.744924 -1.6718 0.227373 -0.0964856 0.128698 0.218506 0.116784 0.960236
1305031458.773802 -1.67336 0.229094 -0.0757997 0.134294 0.205162 0.106894 0.96356
1305031458.810621 -1.67426 0.238164 -0.056404 0.134897 0.191304 0.0954118 0.967524
1305031458.842919 -1.6694 0.237343 -0.0452926 0.128143 0.181176 0.0911538 0.970796
1305031458.875889 -1.66774 0.226659 -0.0386523 0.125866 0.177045 0.0892487 0.972033
1305031458.910599 -1.6673 0.229036 -0.029217 0.131366 0.178638 0.0803408 0.971791
1305031458.943997 -1.67253 0.234678 -0.0171111 0.132875 0.184636 0.0851236 0.970056
1305031458.976007 -1.6786 0.225921 -0.00944052 0.125232 0.190241 0.0981669 0.968756
1305031459.012560 -1.68837 0.204904 -0.00419726 0.121986 0.196047 0.103984 0.967405
1305031459.044413 -1.70384 0.196015 0.0094124 0.132882 0.195551 0.105752 0.965877
1305031459.073657 -1.72353 0.185276 0.0250071 0.142607 0.190922 0.114317 0.96444
1305031459.112711 -1.74648 0.170295 0.0418186 0.154666 0.178537 0.124215 0.963729
1305031459.144497 -1.7675 0.158319 0.0588923 0.166711 0.156951 0.126492 0.965181
1305031459.176463 -1.78105 0.148315 0.0732439 0.175433 0.133983 0.128633 0.966812
1305031459.208791 -1.79103 0.14356 0.0882673 0.181803 0.117006 0.133982 0.967112
1305031459.244159 -1.8014 0.140513 0.102959 0.185052 0.106552 0.142328 0.966512
1305031459.274941 -1.81188 0.144908 0.118081 0.186293 0.106694 0.149851 0.96512
1305031459.311921 -1.81668 0.144923 0.126747 0.183503 0.117329 0.164032 0.962109
1305031459.344169 -1.82222 0.141583 0.132913 0.181986 0.134735 0.183703 0.956546
1305031459.374084 -1.83075 0.150904 0.14267 0.187889 0.15758 0.201528 0.948289
1305031459.408831 -1.83837 0.171722 0.155516 0.189512 0.179209 0.221388 0.939658
1305031459.443181 -1.84442 0.177289 0.158484 0.180333 0.208824 0.262385 0.924677
1305031459.473401 -1.85087 0.187045 0.161674 0.180964 0.237956 0.29832 0.90644
1305031459.510267 -1.8686 0.203094 0.178543 0.182086 0.258391 0.323772 0.891768
1305031459.544431 -1.8768 0.205746 0.185387 0.172428 0.272927 0.354725 0.877468
1305031459.576817 -1.8901 0.208261 0.192558 0.170817 0.28525 0.377673 0.864186
1305031459.611939 -1.90563 0.209814 0.202322 0.171238 0.291601 0.394361 0.854474
1305031459.643453 -1.91768 0.206642 0.208079 0.168205 0.29349 0.404273 0.849785
1305031459.675678 -1.93086 0.204691 0.215088 0.16708 0.300241 0.404916 0.847338
1305031459.711531 -1.94478 0.19856 0.221272 0.161056 0.310676 0.410125 0.842223
1305031459.743425 -1.95741 0.186147 0.224157 0.154449 0.31902 0.414804 0.838039
1305031459.776577 -1.9706 0.172537 0.228827 0.153634 0.326534 0.41236 0.836499
1305031459.812562 -1.98529 0.160168 0.236236 0.153977 0.33134 0.408852 0.836268
1305031459.844736 -1.9985 0.147528 0.243956 0.152925 0.3327 0.406848 0.836899
1305031459.877006 -2.01051 0.134902 0.253404 0.14981 0.332446 0.40629 0.837834
1305031459.911472 -2.01898 0.11882 0.259566 0.144356 0.328601 0.409516 0.838737
1305031459.943616 -2.02771 0.103906 0.265236 0.142943 0.325941 0.41228 0.838663
1305031459.979430 -2.03688 0.0892926 0.273367 0.142147 0.324819 0.416044 0.837373
1305031460.011909 -2.04335 0.0751617 0.27764 0.138228 0.323047 0.420766 0.836355
1305031460.043717 -2.0498 0.0576367 0.282988 0.136188 0.323296 0.425375 0.834259
1305031460.079449 -2.0564 0.0430279 0.290567 0.136917 0.323521 0.426723 0.833364
1305031460.111951 -2.06344 0.0244555 0.302041 0.140029 0.320025 0.433227 0.830837
1305031460.144204 -2.06668 0.00683072 0.30847 0.145304 0.311309 0.442089 0.828572
1305031460.178730 -2.07119 -0.00713248 0.317888 0.152291 0.304015 0.448567 0.826541
1305031460.208637 -2.06963 -0.0165455 0.321015 0.15222 0.296604 0.454219 0.82616
1305031460.243467 -2.06676 -0.0278721 0.321059 0.150906 0.295163 0.458234 0.824699
1305031460.279164 -2.06736 -0.0369958 0.325029 0.15225 0.302454 0.45737 0.822286
1305031460.311712 -2.06562 -0.0503339 0.327751 0.150516 0.311018 0.457591 0.819282
1305031460.342879 -2.06487 -0.0622916 0.332316 0.150532 0.319835 0.458479 0.815379
1305031460.377806 -2.06649 -0.0708193 0.340423 0.149855 0.329294 0.460537 0.810564
1305031460.409883 -2.06404 -0.0832887 0.343027 0.145084 0.338676 0.465428 0.804752
1305031460.444036 -2.06259 -0.0939139 0.347985 0.143126 0.348568 0.469601 0.79843
1305031460.479856 -2.06185 -0.101337 0.354076 0.140591 0.361108 0.472559 0.791532
1305031460.508966 -2.05955 -0.109546 0.358633 0.133933 0.373391 0.478857 0.783158
1305031460.544245 -2.0581 -0.119905 0.362581 0.126861 0.382787 0.488969 0.773492
1305031460.579561 -2.05645 -0.129485 0.364132 0.119851 0.391228 0.493971 0.767183
1305031460.612190 -2.05536 -0.141676 0.369734 0.114945 0.400278 0.495717 0.762122
1305031460.644011 -2.0548 -0.152071 0.374255 0.111511 0.408484 0.498044 0.756742
1305031460.679350 -2.05439 -0.162786 0.380494 0.108981 0.416394 0.497774 0.752968
1305031460.711684 -2.05477 -0.173393 0.388099 0.105714 0.421049 0.499441 0.749734
1305031460.743767 -2.05479 -0.18346 0.396002 0.100484 0.424055 0.499705 0.748582
1305031460.779201 -2.05267 -0.195948 0.402996 0.0962955 0.429324 0.499264 0.74642
1305031460.811318 -2.05134 -0.206567 0.410664 0.092983 0.433555 0.49856 0.744864
1305031460.843836 -2.05024 -0.217117 0.420679 0.0879116 0.436667 0.497052 0.744669
1305031460.879093 -2.04777 -0.227786 0.429901 0.0804453 0.441013 0.495352 0.744085
1305031460.911313 -2.04273 -0.240024 0.437428 0.0721008 0.445188 0.494276 0.743169
1305031460.943375 -2.03734 -0.251787 0.444274 0.0658789 0.446683 0.495212 0.742226
1305031460.979083 -2.03065 -0.264778 0.450432 0.0616711 0.447244 0.498041 0.740354
1305031461.011290 -2.02288 -0.277139 0.453735 0.0608071 0.44984 0.498499 0.738543
1305031461.043398 -2.01505 -0.289433 0.45828 0.0612145 0.451586 0.49979 0.736568
1305031461.079602 -2.00972 -0.298667 0.465779 0.0639634 0.453423 0.499416 0.735459
1305031461.111961 -2.00434 -0.307 0.474025 0.0621774 0.452215 0.499365 0.736389
1305031461.144098 -1.99619 -0.318033 0.479399 0.0594205 0.452509 0.498616 0.736944
1305031461.179883 -1.98847 -0.328446 0.483762 0.060082 0.454276 0.497248 0.736728
1305031461.211180 -1.98243 -0.335435 0.489451 0.0612999 0.456038 0.493205 0.738255
1305031461.246864 -1.97643 -0.342922 0.495304 0.0609839 0.45792 0.491252 0.738418
1305031461.278888 -1.97018 -0.349294 0.499236 0.0615968 0.458802 0.488415 0.7397
1305031461.311240 -1.96475 -0.35366 0.505255 0.062509 0.460661 0.482266 0.742498
1305031461.346875 -1.95872 -0.356909 0.512459 0.0621709 0.464272 0.477178 0.743564
1305031461.378850 -1.95181 -0.357198 0.518676 0.0571757 0.467273 0.474317 0.743916
1305031461.411130 -1.94198 -0.36329 0.521734 0.0491536 0.466265 0.476463 0.74375
1305031461.447015 -1.93359 -0.367452 0.525158 0.0470476 0.466777 0.475278 0.744322
1305031461.478901 -1.92745 -0.366908 0.527523 0.0429296 0.466189 0.476772 0.743985
1305031461.512120 -1.91797 -0.373531 0.524365 0.0389362 0.464807 0.479748 0.743156
1305031461.547338 -1.91323 -0.373314 0.523049 0.0422833 0.466428 0.476601 0.743982
1305031461.578847 -1.90967 -0.372536 0.5212 0.0404026 0.468748 0.474037 0.744266
1305031461.609662 -1.90622 -0.369311 0.517978 0.0387912 0.475447 0.469972 0.742679
1305031461.646970 -1.90321 -0.364457 0.514635 0.03617 0.480083 0.470033 0.739785
1305031461.676203 -1.89991 -0.35907 0.510678 0.0337748 0.483334 0.470343 0.737581
1305031461.711212 -1.89832 -0.35065 0.506893 0.0329807 0.48388 0.474363 0.734678
1305031461.746919 -1.89617 -0.343865 0.501606 0.0322327 0.482842 0.480428 0.731447
1305031461.778616 -1.89691 -0.334001 0.499097 0.0325335 0.484635 0.482518 0.728867
1305031461.811319 -1.89769 -0.32321 0.494377 0.0304174 0.485428 0.486895 0.725512
1305031461.847090 -1.89889 -0.311542 0.489404 0.029971 0.488348 0.490605 0.721058
1305031461.879162 -1.90406 -0.294997 0.487768 0.0316406 0.491427 0.495452 0.71556
1305031461.911121 -1.90991 -0.277122 0.4877 0.0333793 0.4915 0.505849 0.708117
1305031461.947264 -1.91267 -0.264108 0.48404 0.0307693 0.487833 0.516101 0.703358
1305031461.979223 -1.91709 -0.250394 0.48182 0.0273221 0.490856 0.518023 0.699975
1305031462.011791 -1.92488 -0.234612 0.484936 0.0229342 0.495902 0.522324 0.693349
1305031462.047463 -1.92953 -0.2215 0.484553 0.0204673 0.49213 0.534665 0.686675
1305031462.079285 -1.9347 -0.20936 0.484235 0.0217893 0.485083 0.546188 0.682568
1305031462.112081 -1.9407 -0.197612 0.483646 0.0225579 0.478314 0.55555 0.679758
1305031462.147634 -1.94611 -0.187992 0.483508 0.0216024 0.47422 0.56378 0.675871
1305031462.179358 -1.95267 -0.178451 0.482629 0.020333 0.471104 0.569283 0.673471
1305031462.212836 -1.95952 -0.170907 0.484701 0.0171257 0.470683 0.569453 0.673712
1305031462.248986 -1.96756 -0.162645 0.487572 0.011935 0.470836 0.569705 0.673504
1305031462.280774 -1.97543 -0.154388 0.490453 0.00661142 0.469384 0.568466 0.675634
1305031462.311931 -1.98372 -0.146819 0.495178 0.00135378 0.467729 0.565492 0.679298
1305031462.347816 -1.99197 -0.138744 0.49857 -0.00642682 0.46608 0.561058 0.684062
1305031462.379950 -2.00143 -0.130056 0.503013 -0.0133361 0.464978 0.556095 0.68875
1305031462.413016 -2.00954 -0.122937 0.508844 -0.021184 0.460483 0.553655 0.693522
1305031462.448295 -2.01812 -0.115674 0.512967 -0.0285693 0.454241 0.55112 0.699368
1305031462.480843 -2.02708 -0.109143 0.517551 -0.0357009 0.447038 0.548501 0.705712
1305031462.517041 -2.03615 -0.101995 0.519546 -0.0438626 0.439019 0.546976 0.711446
1305031462.548959 -2.03615 -0.101995 0.519546 -0.0438626 0.439019 0.546976 0.711446
1305031462.581088 -2.03615 -0.101995 0.519546 -0.0438626 0.439019 0.546976 0.711446
1305031462.617123 -2.0463 -0.0949288 0.516473 -0.0476597 0.435531 0.538132 0.720038
1305031462.648708 -2.0463 -0.0949288 0.516473 -0.0476597 0.435531 0.538132 0.720038
1305031462.680788 -2.0552 -0.0888463 0.511279 -0.048636 0.434352 0.528216 0.727984
1305031462.716812 -2.06643 -0.0813684 0.506485 -0.0480716 0.431997 0.516941 0.737455
1305031462.748732 -2.06643 -0.0813684 0.506485 -0.0480716 0.431997 0.516941 0.737455
1305031462.780885 -2.07634 -0.0733752 0.500757 -0.0491969 0.426348 0.507782 0.74697
1305031462.816821 -2.08659 -0.0634497 0.493402 -0.049663 0.421622 0.500005 0.754827
1305031462.848525 -2.09601 -0.0530051 0.484896 -0.0516243 0.415836 0.49558 0.7608
1305031462.880471 -2.10386 -0.0414269 0.473693 -0.0532381 0.411408 0.492556 0.765048
1305031462.916800 -2.10969 -0.0286356 0.459279 -0.0545844 0.409229 0.488379 0.76879
1305031462.947939 -2.10969 -0.0286356 0.459279 -0.0545844 0.409229 0.488379 0.76879
1305031462.979943 -2.11307 -0.0192598 0.445246 -0.0529802 0.405265 0.486512 0.772178
1305031463.016121 -2.11612 -0.0103978 0.430394 -0.0484457 0.401841 0.482353 0.77686
1305031463.050783 -2.1226 -4.4632e-05 0.416434 -0.0426758 0.399489 0.473383 0.783898
1305031463.076870 -2.12965 0.0110304 0.402973 -0.0388106 0.395183 0.464452 0.791586
1305031463.116806 -2.13216 0.0196379 0.387619 -0.038936 0.391105 0.457628 0.797557
1305031463.148565 -2.13601 0.0279482 0.372738 -0.0361923 0.390346 0.447973 0.803518
1305031463.180505 -2.1426 0.0404267 0.359428 -0.0318803 0.390018 0.437154 0.809793
1305031463.217123 -2.14535 0.0522558 0.344709 -0.0336783 0.38774 0.429712 0.814783
1305031463.248719 -2.14263 0.0577483 0.331644 -0.0336633 0.385876 0.427667 0.816742
1305031463.278737 -2.14204 0.0698613 0.317356 -0.0282617 0.385507 0.419649 0.821268
1305031463.317110 -2.14147 0.0814974 0.30473 -0.0277311 0.384055 0.412642 0.825505
1305031463.348740 -2.13741 0.0881253 0.291699 -0.0277851 0.379971 0.411611 0.827905
1305031463.380514 -2.13418 0.098518 0.27926 -0.0215506 0.376412 0.406593 0.832185
1305031463.416326 -2.13283 0.113666 0.266592 -0.0170961 0.372577 0.400553 0.83693
1305031463.444773 -2.12817 0.124036 0.253838 -0.0176813 0.369373 0.397451 0.839812
1305031463.480415 -2.12309 0.136707 0.240847 -0.0169525 0.368361 0.393724 0.842024
1305031463.516994 -2.12309 0.136707 0.240847 -0.0169525 0.368361 0.393724 0.842024
1305031463.548505 -2.11598 0.144689 0.225559 -0.0168783 0.371104 0.392095 0.841581
1305031463.580684 -2.11598 0.144689 0.225559 -0.0168783 0.371104 0.392095 0.841581
1305031463.616671 -2.11598 0.144689 0.225559 -0.0168783 0.371104 0.392095 0.841581
1305031463.646147 -2.10552 0.145371 0.208412 -0.0175103 0.369157 0.392005 0.842466
1305031463.683908 -2.09753 0.150813 0.190874 -0.0100658 0.3709 0.389235 0.843106
1305031463.716110 -2.09753 0.150813 0.190874 -0.0100658 0.3709 0.389235 0.843106
1305031463.747849 -2.08405 0.152217 0.165927 -0.0142151 0.367416 0.386905 0.845641
1305031463.783912 -2.07251 0.155236 0.141926 -0.0100671 0.36907 0.381583 0.847396
1305031463.815883 -2.06369 0.158212 0.120001 -0.00905187 0.371433 0.370388 0.851333
1305031463.848094 -2.05272 0.158911 0.095488 -0.0126438 0.370992 0.359801 0.856007
1305031463.883817 -2.04168 0.157072 0.0716886 -0.0131281 0.372141 0.350599 0.859313
1305031463.917433 -2.03287 0.15621 0.0492229 -0.0126599 0.373683 0.340848 0.862568
1305031463.944435 -2.02495 0.154281 0.0285928 -0.0122512 0.371671 0.336153 0.865282
1305031463.983748 -2.01485 0.149734 0.00597718 -0.0116923 0.367098 0.330908 0.869254
1305031464.015867 -2.00694 0.145904 -0.0157682 -0.0101879 0.364385 0.322724 0.873481
1305031464.047778 -2.0006 0.142964 -0.0362092 -0.0108985 0.36196 0.314269 0.877554
1305031464.083152 -1.99261 0.137795 -0.0582288 -0.0120068 0.360649 0.30572 0.881092
1305031464.115837 -1.98747 0.132001 -0.0781289 -0.010762 0.362584 0.296403 0.883494
1305031464.147663 -1.9843 0.127781 -0.0962048 -0.00725547 0.361222 0.292779 0.885295
1305031464.183566 -1.97919 0.12084 -0.114321 -0.00060194 0.356599 0.291332 0.887672
1305031464.212447 -1.97542 0.112973 -0.131171 0.00946069 0.350627 0.288065 0.891061
1305031464.247602 -1.97415 0.114557 -0.145861 0.0218539 0.341545 0.282943 0.895998
1305031464.283694 -1.97394 0.114932 -0.157349 0.0304828 0.328884 0.281198 0.901018
1305031464.315699 -1.96935 0.11526 -0.173616 0.0346005 0.312085 0.276698 0.908209
1305031464.347553 -1.96005 0.115435 -0.19243 0.0369229 0.298165 0.270743 0.914567
1305031464.383465 -1.95114 0.113516 -0.210576 0.0403033 0.288908 0.264397 0.91924
1305031464.415539 -1.94166 0.117324 -0.230067 0.0441397 0.283542 0.254429 0.923537
1305031464.444269 -1.93328 0.117591 -0.248315 0.0436878 0.282398 0.244588 0.926563
1305031464.487561 -1.92362 0.115959 -0.268066 0.0448206 0.279277 0.236841 0.929463
1305031464.513688 -1.91426 0.117286 -0.289346 0.0459591 0.276565 0.229824 0.931977
1305031464.548007 -1.90794 0.117387 -0.308579 0.0450909 0.276471 0.22189 0.933968
1305031464.584260 -1.89989 0.114049 -0.330659 0.0408546 0.274641 0.210976 0.937226
1305031464.615688 -1.88959 0.108581 -0.356967 0.0418903 0.279171 0.199061 0.938448
1305031464.648851 -1.88263 0.104083 -0.379776 0.0478544 0.291672 0.187711 0.936697
1305031464.684318 -1.87514 0.0995473 -0.401369 0.0535792 0.303697 0.17318 0.935364
1305031464.716305 -1.86756 0.0859035 -0.419737 0.0620227 0.315187 0.155796 0.934097
1305031464.748588 -1.86188 0.079885 -0.432504 0.0755509 0.321608 0.136743 0.933896
1305031464.784268 -1.85841 0.0818764 -0.440755 0.0841074 0.321647 0.116561 0.935886
1305031464.816195 -1.85197 0.0726337 -0.445372 0.0886817 0.316612 0.0995796 0.939136
1305031464.848283 -1.84715 0.0699617 -0.446234 0.0985517 0.304655 0.0851611 0.943515
1305031464.884177 -1.8377 0.0722439 -0.446683 0.103106 0.28885 0.0701083 0.949221
1305031464.916391 -1.82359 0.0702847 -0.448363 0.0979403 0.273355 0.0504248 0.955585
1305031464.952471 -1.80272 0.0572393 -0.453632 0.09147 0.261024 0.0303259 0.96051
1305031464.984257 -1.78319 0.0472698 -0.455884 0.0915262 0.25529 0.0123478 0.962444
1305031465.015390 -1.76601 0.0520692 -0.453158 0.0949477 0.253758 -0.00846995 0.962559
1305031465.048430 -1.75157 0.0482268 -0.44737 0.0946461 0.252858 -0.0291877 0.96242
1305031465.083338 -1.74577 0.0638201 -0.431377 0.099004 0.248288 -0.0473272 0.962451
1305031465.115475 -1.73161 0.0933058 -0.415552 0.0929698 0.236526 -0.0631035 0.965106
1305031465.151558 -1.71429 0.104929 -0.40056 0.0749799 0.22388 -0.0734941 0.968945
1305031465.183558 -1.6956 0.113476 -0.386273 0.0593954 0.211598 -0.0792834 0.972323
1305031465.215832 -1.67533 0.123579 -0.373811 0.0478426 0.200061 -0.0846287 0.974949
1305031465.251788 -1.65399 0.138634 -0.362957 0.0371172 0.189443 -0.0878805 0.977246
1305031465.283737 -1.63203 0.14556 -0.353729 0.0288715 0.178366 -0.0833937 0.979999
1305031465.315985 -1.61012 0.161756 -0.345427 0.0279271 0.166331 -0.0714958 0.983078
1305031465.351729 -1.58941 0.172821 -0.338563 0.0239227 0.151261 -0.0576766 0.98652
1305031465.383701 -1.56901 0.177569 -0.333086 0.0226041 0.133873 -0.0449789 0.989719
1305031465.416543 -1.54597 0.187145 -0.331812 0.0258477 0.116082 -0.0355544 0.992266
1305031465.452401 -1.52186 0.199646 -0.333319 0.0304154 0.101703 -0.0259794 0.99401
1305031465.483803 -1.50441 0.218007 -0.33539 0.0358011 0.0911258 -0.0144277 0.995091
1305031465.516043 -1.48279 0.232597 -0.339608 0.0348298 0.0800343 -0.006429 0.996163
1305031465.551838 -1.46294 0.238685 -0.344665 0.0344729 0.069782 -0.00279372 0.996963
1305031465.583570 -1.4392 0.252728 -0.352727 0.0416235 0.0597094 0.000628711 0.997347
1305031465.615685 -1.41628 0.270719 -0.360786 0.0487472 0.0538634 0.00777281 0.997327
1305031465.651645 -1.39691 0.289136 -0.36801 0.0559951 0.0474063 0.0179864 0.997143
1305031465.684759 -1.37793 0.306702 -0.376143 0.0625879 0.0370613 0.0261871 0.997007
1305031465.716279 -1.35419 0.324796 -0.384843 0.0694578 0.0291991 0.0305865 0.996688
1305031465.753153 -1.33384 0.345056 -0.392057 0.0788007 0.02461 0.0392562 0.995813
1305031465.784387 -1.31293 0.369189 -0.398852 0.0880221 0.0192393 0.0469037 0.994828
1305031465.816591 -1.29133 0.389385 -0.405144 0.0948096 0.0153044 0.0527004 0.993982
1305031465.852860 -1.2711 0.407562 -0.411317 0.104839 0.011612 0.0581002 0.992723
1305031465.884370 -1.24936 0.439668 -0.416546 0.117112 0.00966521 0.0602487 0.991242
1305031465.912828 -1.22971 0.462808 -0.420875 0.120884 0.0144984 0.0632211 0.990545
1305031465.952840 -1.20945 0.479743 -0.426376 0.127363 0.0209762 0.0650101 0.989501
1305031465.984183 -1.18805 0.504773 -0.431368 0.138133 0.0272548 0.0632244 0.988018
1305031466.016599 -1.16956 0.528924 -0.435663 0.145271 0.0307057 0.0611024 0.987026
1305031466.052655 -1.15162 0.55798 -0.4389 0.152029 0.0309714 0.0600526 0.986064
1305031466.083913 -1.13753 0.583037 -0.44249 0.150792 0.031177 0.0628127 0.986075
1305031466.116400 -1.12605 0.602883 -0.447373 0.14693 0.0284283 0.0642992 0.986645
1305031466.152540 -1.11472 0.621007 -0.454866 0.14168 0.0236135 0.0655559 0.987457
1305031466.184186 -1.10526 0.639312 -0.463884 0.13695 0.0175528 0.0687412 0.988034
1305031466.220477 -1.09677 0.65726 -0.473655 0.12946 0.00861143 0.0689437 0.989147
1305031466.252491 -1.08406 0.670295 -0.486535 0.119661 0.000295941 0.064767 0.9907
1305031466.284389 -1.07138 0.679299 -0.501506 0.117865 0.000101097 0.0566244 0.991414
1305031466.320055 -1.0575 0.694366 -0.516257 0.119686 0.00671963 0.0448047 0.991778
1305031466.352082 -1.04009 0.710202 -0.530847 0.118399 0.0143486 0.0354086 0.992231
1305031466.384479 -1.02738 0.719242 -0.545686 0.112223 0.0211876 0.0322721 0.992933
1305031466.420844 -1.01545 0.722003 -0.561736 0.112006 0.0233052 0.0305094 0.992966
1305031466.452369 -1.00048 0.738502 -0.574766 0.11826 0.018952 0.0254991 0.992474
1305031466.483315 -0.986111 0.753581 -0.585466 0.117884 0.0136303 0.0220353 0.992689
1305031466.519548 -0.966941 0.764237 -0.594301 0.114878 0.00947482 0.0209192 0.993114
1305031466.552219 -0.944759 0.77392 -0.602995 0.113918 0.0108988 0.0200432 0.993228
1305031466.584438 -0.924634 0.789971 -0.610271 0.111769 0.0116394 0.0164527 0.99353
1305031466.620424 -0.904452 0.800532 -0.616141 0.103407 0.010679 0.0140098 0.994483
1305031466.648654 -0.882887 0.798762 -0.622112 0.099124 0.0130896 0.0126387 0.994909
1305031466.684412 -0.8614 0.810115 -0.630443 0.104947 0.0136208 0.00494885 0.994372
1305031466.719744 -0.842211 0.826487 -0.636127 0.104558 0.0113191 -0.00526154 0.99444
1305031466.748734 -0.821883 0.828835 -0.640886 0.0984966 0.00916023 -0.0130981 0.995009
1305031466.784300 -0.807962 0.827914 -0.648825 0.100318 0.011649 -0.020129 0.994684
1305031466.819502 -0.788856 0.842291 -0.655675 0.105976 0.00787607 -0.0265374 0.993983
1305031466.851527 -0.772667 0.849344 -0.66157 0.102859 0.00309877 -0.029155 0.994264
1305031466.883430 -0.761756 0.8478 -0.668277 0.10107 -0.00275944 -0.027564 0.994494
1305031466.919411 -0.745293 0.854542 -0.673479 0.105124 -0.0157254 -0.0296951 0.993891
1305031466.952451 -0.731499 0.858527 -0.6806 0.105294 -0.0287784 -0.032395 0.993497
1305031466.984027 -0.710524 0.8625 -0.686391 0.10687 -0.0390732 -0.0354916 0.992871
1305031467.020424 -0.692687 0.866058 -0.691944 0.107565 -0.0442238 -0.0392681 0.992437
1305031467.052391 -0.676926 0.869236 -0.69761 0.107942 -0.0482265 -0.043943 0.992014
1305031467.084130 -0.658222 0.873977 -0.701992 0.108189 -0.0515318 -0.048205 0.991623
1305031467.120528 -0.643702 0.875109 -0.707153 0.105189 -0.0526116 -0.0544619 0.991565
1305031467.152363 -0.631204 0.874826 -0.712389 0.104756 -0.0544621 -0.0650699 0.990871
1305031467.184216 -0.618835 0.878146 -0.717139 0.10613 -0.0572214 -0.072255 0.990071
1305031467.220466 -0.606616 0.88048 -0.721769 0.106731 -0.0620698 -0.0769317 0.989362
1305031467.252275 -0.593678 0.882747 -0.72639 0.107402 -0.0682292 -0.0826697 0.988421
1305031467.284258 -0.579209 0.885034 -0.730973 0.109236 -0.0735671 -0.0883449 0.987345
1305031467.318028 -0.565337 0.888842 -0.735855 0.111252 -0.0788515 -0.0952791 0.986067
1305031467.349355 -0.551419 0.89471 -0.740414 0.112521 -0.0847389 -0.0999024 0.984976
1305031467.383844 -0.537609 0.902172 -0.744394 0.110063 -0.0914217 -0.102404 0.984399
1305031467.420160 -0.525366 0.904373 -0.750325 0.10464 -0.0979895 -0.106906 0.98388
1305031467.452057 -0.512978 0.902809 -0.757012 0.102414 -0.10332 -0.110436 0.983179
1305031467.484357 -0.496875 0.908583 -0.761851 0.102835 -0.110939 -0.113098 0.982001
1305031467.520535 -0.479105 0.916404 -0.765076 0.0996562 -0.118427 -0.118896 0.980769
1305031467.552164 -0.46354 0.913755 -0.769271 0.0944202 -0.12121 -0.125557 0.980116
1305031467.584354 -0.449574 0.914438 -0.774054 0.0947309 -0.122036 -0.127811 0.979693
1305031467.618680 -0.437567 0.913111 -0.777567 0.0938911 -0.124199 -0.126422 0.979682
1305031467.651977 -0.427494 0.903736 -0.781042 0.094584 -0.128772 -0.124911 0.979219
1305031467.686044 -0.410842 0.901225 -0.780997 0.101241 -0.13505 -0.122434 0.978019
1305031467.718326 -0.393247 0.899257 -0.777529 0.105182 -0.139709 -0.126194 0.97647
1305031467.752580 -0.382373 0.889147 -0.775026 0.108504 -0.141521 -0.131323 0.975168
1305031467.788562 -0.371418 0.883213 -0.770403 0.114542 -0.14377 -0.134295 0.973743
1305031467.820454 -0.360131 0.873808 -0.763806 0.117584 -0.146637 -0.137003 0.972575
1305031467.852678 -0.35531 0.859666 -0.757438 0.121628 -0.148794 -0.137206 0.971721
1305031467.888472 -0.344896 0.851128 -0.747368 0.128677 -0.155022 -0.134506 0.970216
1305031467.920800 -0.332374 0.843894 -0.735073 0.133639 -0.163942 -0.136521 0.967794
1305031467.952485 -0.324993 0.829932 -0.723863 0.136233 -0.170608 -0.13939 0.96587
1305031467.988523 -0.313145 0.818009 -0.710845 0.142749 -0.175343 -0.142727 0.96359
1305031468.020491 -0.298721 0.813225 -0.69503 0.145128 -0.178383 -0.145617 0.962244
1305031468.052668 -0.297216 0.794656 -0.683602 0.142948 -0.178309 -0.148168 0.962194
1305031468.088379 -0.290047 0.780866 -0.670796 0.1474 -0.181187 -0.151194 0.960513
1305031468.120522 -0.279612 0.770469 -0.656784 0.148091 -0.184968 -0.152657 0.959454
1305031468.152356 -0.269594 0.750601 -0.643336 0.146222 -0.18832 -0.155091 0.958698
1305031468.188327 -0.259425 0.73608 -0.631123 0.147265 -0.190285 -0.158933 0.95752
1305031468.220648 -0.25127 0.718362 -0.620272 0.144917 -0.190657 -0.161872 0.957312
1305031468.252517 -0.241459 0.697084 -0.610573 0.141803 -0.190678 -0.160886 0.95794
1305031468.288361 -0.228916 0.678753 -0.5999 0.140761 -0.190209 -0.160266 0.958291
1305031468.320522 -0.219547 0.655808 -0.5924 0.138117 -0.188808 -0.160474 0.958918
1305031468.352594 -0.210548 0.631238 -0.586567 0.138304 -0.187239 -0.157388 0.95971
1305031468.384700 -0.197884 0.616879 -0.578862 0.140311 -0.186772 -0.154 0.960059
1305031468.420595 -0.18907 0.599623 -0.573007 0.135982 -0.186849 -0.154108 0.960649
1305031468.452605 -0.18194 0.57467 -0.569609 0.130701 -0.187896 -0.153799 0.961227
1305031468.488646 -0.174534 0.554767 -0.566085 0.128177 -0.188705 -0.15209 0.961681
1305031468.520786 -0.16812 0.534434 -0.562604 0.12481 -0.187704 -0.154837 0.961881
1305031468.552701 -0.164599 0.511894 -0.560361 0.125364 -0.187083 -0.161819 0.96078
1305031468.588614 -0.166364 0.49032 -0.561436 0.128993 -0.186238 -0.169361 0.959163
1305031468.620590 -0.167222 0.476359 -0.56072 0.127713 -0.186385 -0.172889 0.958676
1305031468.656644 -0.167474 0.454352 -0.55859 0.120815 -0.189002 -0.174727 0.958725
1305031468.688643 -0.171477 0.433512 -0.558349 0.120424 -0.193026 -0.176696 0.95761
1305031468.720560 -0.177436 0.41519 -0.559296 0.123701 -0.198003 -0.179236 0.955703
1305031468.756725 -0.182273 0.399637 -0.558121 0.126022 -0.202955 -0.179145 0.954377
1305031468.788562 -0.185129 0.381853 -0.556959 0.126347 -0.206747 -0.180767 0.953213
1305031468.817997 -0.191123 0.362031 -0.556877 0.130558 -0.207804 -0.186608 0.951288
1305031468.854887 -0.194143 0.347432 -0.556079 0.13613 -0.209176 -0.192009 0.949129
1305031468.889220 -0.194243 0.335093 -0.551747 0.13578 -0.207862 -0.196376 0.948575
1305031468.920539 -0.196733 0.321819 -0.549072 0.132203 -0.202734 -0.197525 0.94995
1305031468.956482 -0.198091 0.313121 -0.545324 0.127572 -0.197657 -0.193575 0.952463
1305031468.986011 -0.197689 0.312382 -0.53859 0.12126 -0.194224 -0.192849 0.95414
1305031469.020731 -0.201584 0.307788 -0.531976 0.104323 -0.191265 -0.198611 0.955556
1305031469.056318 -0.206494 0.299353 -0.526192 0.086077 -0.188005 -0.20354 0.956983
1305031469.088069 -0.212571 0.292572 -0.520466 0.0731775 -0.186412 -0.209601 0.95706
1305031469.119984 -0.214352 0.286171 -0.51035 0.0608778 -0.184022 -0.22076 0.955874
1305031469.155046 -0.213764 0.2798 -0.500101 0.0491713 -0.17651 -0.230224 0.955732
1305031469.184648 -0.215385 0.272941 -0.490581 0.0389143 -0.167135 -0.236554 0.956344
1305031469.219541 -0.215969 0.267663 -0.480574 0.0320793 -0.1585 -0.240376 0.957114
1305031469.256002 -0.217342 0.264468 -0.469326 0.0276824 -0.154687 -0.242917 0.957234
1305031469.288263 -0.221136 0.262085 -0.458707 0.0223363 -0.150861 -0.245968 0.957205
1305031469.319772 -0.222257 0.259981 -0.44611 0.0174459 -0.146691 -0.248366 0.957336
1305031469.356116 -0.224542 0.263791 -0.43359 0.0125209 -0.143431 -0.249805 0.957532
1305031469.388556 -0.227789 0.258424 -0.421193 0.00515916 -0.135821 -0.254174 0.95756
1305031469.420278 -0.228796 0.257954 -0.408595 0.00444753 -0.12355 -0.25903 0.957924
1305031469.456563 -0.228369 0.263959 -0.395332 0.00576554 -0.112476 -0.265323 0.957559
1305031469.488520 -0.229126 0.269601 -0.381317 0.00619936 -0.103877 -0.272329 0.956561
1305031469.520417 -0.23006 0.276933 -0.367368 0.00611387 -0.100808 -0.274527 0.956261
1305031469.556139 -0.231344 0.283295 -0.353502 0.00168563 -0.101637 -0.275057 0.956039
1305031469.588500 -0.233377 0.290693 -0.339288 -0.00472236 -0.10181 -0.275513 0.955879
1305031469.620563 -0.234264 0.297583 -0.324845 -0.0132157 -0.102094 -0.275018 0.955912
1305031469.656279 -0.235417 0.308488 -0.310729 -0.0209186 -0.0996373 -0.272615 0.956722
1305031469.687925 -0.236718 0.318274 -0.296653 -0.0249071 -0.0961344 -0.271009 0.95744
1305031469.718943 -0.239052 0.32833 -0.282967 -0.0291867 -0.0920657 -0.269706 0.958087
1305031469.756754 -0.241602 0.338118 -0.269555 -0.0341971 -0.0876469 -0.267736 0.958888
1305031469.784733 -0.245709 0.349971 -0.256721 -0.0400057 -0.0838429 -0.264758 0.95983
1305031469.820544 -0.250044 0.364364 -0.244321 -0.0447469 -0.0834737 -0.260714 0.960759
1305031469.854359 -0.256628 0.377879 -0.233275 -0.049811 -0.0843244 -0.258436 0.961051
1305031469.885343 -0.264047 0.393231 -0.222945 -0.0553286 -0.085418 -0.254775 0.96163
1305031469.921773 -0.272377 0.407413 -0.213229 -0.0596065 -0.0859989 -0.251685 0.962136
1305031469.953180 -0.281921 0.420745 -0.203971 -0.0628323 -0.0879359 -0.248806 0.962504
1305031469.985327 -0.293135 0.435073 -0.196615 -0.0647148 -0.0896114 -0.246608 0.962791
1305031470.024714 -0.30495 0.448775 -0.190111 -0.0668948 -0.090524 -0.245432 0.962857
1305031470.057400 -0.318603 0.462545 -0.184969 -0.0698097 -0.0906609 -0.244944 0.962761
1305031470.088874 -0.331734 0.47788 -0.181278 -0.0714 -0.089831 -0.243741 0.963028
1305031470.124820 -0.345203 0.49106 -0.178711 -0.073562 -0.0881715 -0.241956 0.963469
1305031470.156744 -0.357764 0.506089 -0.176447 -0.076418 -0.0870273 -0.239499 0.963964
1305031470.188876 -0.373866 0.51993 -0.17501 -0.079472 -0.0867492 -0.236198 0.964556
1305031470.224776 -0.386903 0.532149 -0.174222 -0.0818648 -0.0870845 -0.233599 0.964959
1305031470.253015 -0.399902 0.545582 -0.173672 -0.0849989 -0.0861502 -0.230234 0.96558
1305031470.287867 -0.412197 0.558599 -0.172979 -0.0883064 -0.0851318 -0.227233 0.966085
1305031470.324266 -0.424935 0.570768 -0.172071 -0.0940013 -0.0842169 -0.224513 0.966264
1305031470.356871 -0.440319 0.581508 -0.170875 -0.100311 -0.0827867 -0.220294 0.966724
1305031470.388056 -0.454309 0.591443 -0.170357 -0.105796 -0.0837331 -0.217172 0.966764
1305031470.424090 -0.468451 0.600027 -0.16978 -0.109507 -0.0854605 -0.216689 0.966308
1305031470.455875 -0.483619 0.60775 -0.170112 -0.111452 -0.0871559 -0.219677 0.965259
1305031470.487958 -0.498035 0.615538 -0.171303 -0.111326 -0.0883654 -0.220433 0.964991
1305031470.524431 -0.510786 0.623553 -0.172682 -0.110345 -0.0898205 -0.220416 0.964973
1305031470.556484 -0.523521 0.631404 -0.173975 -0.11007 -0.0899041 -0.22081 0.964906
1305031470.588797 -0.536087 0.637502 -0.174653 -0.112331 -0.0890229 -0.219204 0.965094
1305031470.624535 -0.547209 0.643277 -0.175103 -0.113732 -0.089197 -0.216038 0.965627
1305031470.656787 -0.547209 0.643277 -0.175103 -0.113732 -0.089197 -0.216038 0.965627
1305031470.688640 -0.556928 0.648725 -0.17466 -0.11531 -0.0895471 -0.21285 0.966116
1305031470.724461 -0.566606 0.652668 -0.173973 -0.118372 -0.0906084 -0.21064 0.966131
1305031470.755944 -0.574186 0.65452 -0.173757 -0.118861 -0.0910875 -0.20989 0.966189
1305031470.788407 -0.574186 0.65452 -0.173757 -0.118861 -0.0910875 -0.20989 0.966189
1305031470.820633 -0.574186 0.65452 -0.173757 -0.118861 -0.0910875 -0.20989 0.966189
1305031470.855509 -0.574186 0.65452 -0.173757 -0.118861 -0.0910875 -0.20989 0.966189
1305031470.886079 -0.583229 0.655651 -0.174951 -0.114804 -0.0921336 -0.205101 0.967608
1305031470.924410 -0.592712 0.656396 -0.1763 -0.112012 -0.0932709 -0.200404 0.96881
1305031470.956439 -0.592712 0.656396 -0.1763 -0.112012 -0.0932709 -0.200404 0.96881
1305031470.988276 -0.592712 0.656396 -0.1763 -0.112012 -0.0932709 -0.200404 0.96881
1305031471.024309 -0.592712 0.656396 -0.1763 -0.112012 -0.0932709 -0.200404 0.96881
1305031471.056616 -0.603264 0.654609 -0.179037 -0.103884 -0.0907147 -0.19701 0.970652
1305031471.088440 -0.611105 0.653573 -0.181089 -0.0941878 -0.0893359 -0.191814 0.972808
1305031471.123837 -0.619294 0.652809 -0.183255 -0.0867679 -0.0891008 -0.184829 0.97487
1305031471.155886 -0.626853 0.651032 -0.185718 -0.0811977 -0.0898577 -0.178995 0.976367
1305031471.192698 -0.633546 0.651763 -0.187534 -0.0750972 -0.0884189 -0.172812 0.978099
1305031471.224404 -0.639503 0.652908 -0.188712 -0.0721626 -0.0853505 -0.167226 0.979563
1305031471.256397 -0.645248 0.652612 -0.189055 -0.07207 -0.0827438 -0.163912 0.980353
1305031471.288603 -0.653074 0.650725 -0.189899 -0.07326 -0.0800395 -0.160417 0.981067
1305031471.324440 -0.659785 0.648895 -0.191227 -0.0720681 -0.0770666 -0.156336 0.982052
1305031471.356569 -0.663466 0.649436 -0.192277 -0.0675594 -0.0722499 -0.153669 0.983159
1305031471.392751 -0.667613 0.648108 -0.193786 -0.0677916 -0.0644769 -0.150695 0.984143
1305031471.424494 -0.673435 0.64435 -0.196279 -0.0676687 -0.058294 -0.144929 0.985403
1305031471.456975 -0.677912 0.644091 -0.198257 -0.063716 -0.0570878 -0.139115 0.986574
1305031471.492705 -0.682507 0.644873 -0.200253 -0.0632222 -0.056751 -0.13433 0.987288
1305031471.524343 -0.687269 0.644209 -0.202129 -0.0643391 -0.0556187 -0.129905 0.987872
1305031471.556561 -0.691311 0.643969 -0.204345 -0.0644008 -0.0546166 -0.12659 0.988354
1305031471.592606 -0.695063 0.644307 -0.206872 -0.0645298 -0.0518543 -0.124665 0.988739
1305031471.624486 -0.698131 0.644171 -0.209825 -0.0643028 -0.0471922 -0.122733 0.989229
1305031471.656831 -0.701373 0.643692 -0.212878 -0.0639314 -0.042199 -0.120741 0.989724
1305031471.693182 -0.703925 0.64354 -0.21613 -0.0621015 -0.0371615 -0.116571 0.990542
1305031471.724753 -0.705144 0.645995 -0.21899 -0.0593238 -0.0337986 -0.111932 0.991367
1305031471.753002 -0.706366 0.647306 -0.220983 -0.0601197 -0.0300747 -0.107424 0.991938
1305031471.792706 -0.706146 0.646991 -0.222637 -0.0604881 -0.025904 -0.101133 0.992694
1305031471.823821 -0.706383 0.651109 -0.224362 -0.0585633 -0.0201167 -0.0932493 0.993715
1305031471.855793 -0.707581 0.654121 -0.225138 -0.0620173 -0.0160773 -0.086744 0.994168
1305031471.892838 -0.708324 0.657156 -0.225573 -0.0642141 -0.0129261 -0.0806457 0.994588
1305031471.924928 -0.710069 0.661271 -0.22549 -0.0669478 -0.00834179 -0.0747807 0.994915
1305031471.957162 -0.709983 0.6623 -0.225178 -0.0722499 -0.00340156 -0.0738848 0.99464
1305031471.993177 -0.709983 0.6623 -0.225178 -0.0722499 -0.00340156 -0.0738848 0.99464
1305031472.024660 -0.713386 0.668837 -0.225243 -0.0726989 0.00440742 -0.0690322 0.994952
1305031472.058063 -0.713386 0.668837 -0.225243 -0.0726989 0.00440742 -0.0690322 0.994952
1305031472.092883 -0.717153 0.671013 -0.225167 -0.073213 0.00892306 -0.0656177 0.995115
1305031472.124760 -0.720179 0.676571 -0.224591 -0.0724064 0.0135929 -0.0595319 0.995504
1305031472.156982 -0.720179 0.676571 -0.224591 -0.0724064 0.0135929 -0.0595319 0.995504
1305031472.192890 -0.723944 0.675316 -0.224213 -0.0744908 0.0147048 -0.0579532 0.995428
1305031472.224678 -0.723944 0.675316 -0.224213 -0.0744908 0.0147048 -0.0579532 0.995428
1305031472.256642 -0.723944 0.675316 -0.224213 -0.0744908 0.0147048 -0.0579532 0.995428
1305031472.293139 -0.725362 0.672191 -0.224682 -0.0722994 0.015863 -0.0578828 0.995576
1305031472.324844 -0.727873 0.671929 -0.226387 -0.0655108 0.0182022 -0.0541774 0.996214
1305031472.360912 -0.730681 0.673773 -0.227622 -0.0609585 0.0197383 -0.0516234 0.996609
1305031472.392956 -0.731679 0.672728 -0.228068 -0.0618925 0.0193399 -0.0501105 0.996636
1305031472.424694 -0.732995 0.669597 -0.228235 -0.062423 0.0172277 -0.048972 0.996699
1305031472.460919 -0.734605 0.667753 -0.22864 -0.0605898 0.0153344 -0.0489565 0.996844
1305031472.492972 -0.734524 0.665788 -0.228865 -0.0593483 0.0151228 -0.0499292 0.996873
1305031472.524781 -0.733772 0.662244 -0.229059 -0.060746 0.0170436 -0.050471 0.996731
1305031472.561296 -0.733485 0.656278 -0.229584 -0.0609325 0.0179703 -0.0493848 0.996757
1305031472.592968 -0.733524 0.653254 -0.230821 -0.0558524 0.0168913 -0.0466512 0.997206
1305031472.624647 -0.732233 0.652358 -0.231463 -0.0526762 0.0156129 -0.0437058 0.997533
1305031472.660836 -0.730197 0.649079 -0.231074 -0.0530553 0.014376 -0.0423244 0.997591
1305031472.693008 -0.729141 0.645121 -0.230779 -0.05271 0.0138097 -0.040733 0.997683
1305031472.724752 -0.727293 0.641178 -0.230297 -0.0513914 0.0126254 -0.0397308 0.997808
1305031472.760654 -0.726163 0.638537 -0.229892 -0.048916 0.012042 -0.0399494 0.997931
1305031472.792775 -0.724574 0.635737 -0.229164 -0.0474243 0.0122864 -0.0416095 0.997932
1305031472.824692 -0.723998 0.632168 -0.228337 -0.0459267 0.01328 -0.0425201 0.997951
1305031472.860936 -0.723817 0.629981 -0.227707 -0.0437479 0.0140992 -0.0420324 0.998058
1305031472.892944 -0.723436 0.629192 -0.226612 -0.0417197 0.0135323 -0.0402193 0.998228
1305031472.924814 -0.723107 0.62793 -0.225301 -0.0421135 0.0120724 -0.0379927 0.998317
1305031472.961213 -0.722433 0.626032 -0.224031 -0.042643 0.0112452 -0.0361157 0.998374
1305031472.992815 -0.721216 0.625628 -0.222988 -0.0424531 0.0107677 -0.035232 0.998419
1305031473.024564 -0.721143 0.624799 -0.221915 -0.0435223 0.00983879 -0.0345875 0.998405
1305031473.060795 -0.720699 0.623741 -0.220906 -0.0446096 0.008716 -0.0349253 0.998356
1305031473.092012 -0.720622 0.622194 -0.220178 -0.0455606 0.00877984 -0.0363491 0.998261
1305031473.124072 -0.720884 0.621637 -0.219758 -0.0453047 0.0101565 -0.0383411 0.998185
1305031473.158420 -0.721296 0.620683 -0.219612 -0.04555 0.0109966 -0.0397974 0.998108
1305031473.190828 -0.721517 0.619361 -0.21967 -0.0450434 0.0104324 -0.0398938 0.998134
