1305031453.374112 0 0 0 0 0 0 1
1305031453.404816 0.0053316 0.00524196 -0.0094847 -0.000914224 0.00596118 0.0108391 0.999923
1305031453.436941 0.0087992 0.00848174 -0.019127 -1.46e-05 0.00996054 0.0204246 0.999742
1305031453.473352 0.0130157 0.0110593 -0.0299545 0.00278227 0.0153142 0.0287618 0.999465
1305031453.505218 0.0175255 0.0152201 -0.0419295 0.00664964 0.0212515 0.0379124 0.999033
1305031453.538301 0.0191553 0.0187216 -0.0549594 0.0123128 0.0267186 0.0474302 0.998441
1305031453.574074 0.0204148 0.0244466 -0.0689098 0.0196799 0.0298459 0.0543865 0.99788
1305031453.605314 0.0197391 0.0303252 -0.0829823 0.0273508 0.032928 0.0586952 0.997358
1305031453.636951 0.0177759 0.036243 -0.0973189 0.0341202 0.0344952 0.0620111 0.996895
1305031453.673185 0.0111669 0.0417566 -0.110732 0.0416695 0.0328639 0.0615801 0.99669
1305031453.705487 0.00341731 0.0489198 -0.123681 0.048688 0.0296357 0.0578288 0.996698
1305031453.736856 -0.00577132 0.0575636 -0.136265 0.0538602 0.0259164 0.0536079 0.996772
1305031453.773786 -0.0158325 0.0622193 -0.149277 0.0571952 0.0205141 0.048037 0.996996
1305031453.805041 -0.028162 0.0694514 -0.160708 0.0620526 0.0138048 0.0405233 0.997154
1305031453.840352 -0.0396802 0.0779808 -0.171685 0.0652383 0.00771207 0.0340296 0.997259
1305031453.869618 -0.0505099 0.0893382 -0.180301 0.0691978 -0.00164627 0.0272337 0.99723
1305031453.905519 -0.0641227 0.100666 -0.187542 0.071124 -0.0154932 0.0217382 0.99711
1305031453.940012 -0.079192 0.108215 -0.193764 0.0699335 -0.0320982 0.0189275 0.996855
1305031453.972592 -0.0925868 0.110537 -0.200676 0.0663427 -0.0470777 0.0100289 0.996635
1305031454.003179 -0.106921 0.112967 -0.207187 0.0637068 -0.0585389 -0.00103855 0.99625
1305031454.040976 -0.124447 0.113759 -0.212693 0.0648736 -0.0681816 -0.0105619 0.995505
1305031454.072690 -0.140954 0.117467 -0.216156 0.0661931 -0.0771563 -0.0211643 0.994594
1305031454.104619 -0.160006 0.117706 -0.219419 0.0654172 -0.0858907 -0.0333829 0.993594
1305031454.141030 -0.178909 0.117697 -0.222397 0.0672082 -0.0960125 -0.0467026 0.99201
1305031454.172688 -0.193155 0.123579 -0.223276 0.0692201 -0.108887 -0.0599031 0.98983
1305031454.204626 -0.207567 0.124599 -0.2242 0.0665744 -0.12275 -0.0725962 0.987537
1305031454.240858 -0.226127 0.120747 -0.227595 0.0654367 -0.135303 -0.0872599 0.984783
1305031454.273489 -0.23946 0.123398 -0.22849 0.0704528 -0.147545 -0.104206 0.981024
1305031454.304744 -0.250194 0.12729 -0.228769 0.0693188 -0.154323 -0.116158 0.978717
1305031454.340806 -0.267262 0.12611 -0.232342 0.0684071 -0.160716 -0.129408 0.976086
1305031454.372652 -0.278163 0.128208 -0.233157 0.0742653 -0.171313 -0.145025 0.97165
1305031454.401962 -0.28771 0.134469 -0.234064 0.0767222 -0.178767 -0.157465 0.968174
1305031454.437248 -0.298081 0.138415 -0.235653 0.0782249 -0.189154 -0.172092 0.96358
1305031454.470741 -0.305812 0.141828 -0.235545 0.0809609 -0.198282 -0.188584 0.958418
1305031454.503859 -0.313604 0.148227 -0.236674 0.0829699 -0.20236 -0.204913 0.954032
1305031454.538424 -0.31898 0.154521 -0.236804 0.0827513 -0.208669 -0.222093 0.948833
1305031454.570323 -0.324052 0.162315 -0.237413 0.0806784 -0.214638 -0.236375 0.944218
1305031454.602019 -0.329102 0.167599 -0.237862 0.077544 -0.224699 -0.253738 0.937611
1305031454.639284 -0.332402 0.174272 -0.237724 0.0757003 -0.237834 -0.267897 0.930557
1305031454.669573 -0.333301 0.183694 -0.237192 0.0711807 -0.25086 -0.274975 0.925414
1305031454.702030 -0.337307 0.193483 -0.240453 0.0648787 -0.262254 -0.2805 0.92105
1305031454.740764 -0.335594 0.199219 -0.240424 0.0607372 -0.274921 -0.285451 0.916104
1305031454.772865 -0.330363 0.204839 -0.238708 0.0557827 -0.28264 -0.282761 0.914904
1305031454.802574 -0.326065 0.211294 -0.238444 0.0517033 -0.286092 -0.276729 0.915914
1305031454.840500 -0.319595 0.221105 -0.237426 0.0488908 -0.28807 -0.270327 0.91736
1305031454.870269 -0.314613 0.229302 -0.236852 0.04479 -0.286175 -0.264535 0.919847
1305031454.901065 -0.309583 0.238314 -0.237 0.0418438 -0.282077 -0.25761 0.923211
1305031454.940240 -0.305797 0.249366 -0.238132 0.0395908 -0.276612 -0.251103 0.92675
1305031454.973081 -0.30598 0.259169 -0.241103 0.0364165 -0.270657 -0.244416 0.930419
1305031455.010759 -0.309242 0.269035 -0.245669 0.0339647 -0.265973 -0.23763 0.933615
1305031455.040446 -0.309242 0.269035 -0.245669 0.0339647 -0.265973 -0.23763 0.933615
1305031455.074282 -0.314219 0.278932 -0.249764 0.0332233 -0.261819 -0.235148 0.935442
1305031455.110340 -0.320087 0.289151 -0.25432 0.0357001 -0.257538 -0.234759 0.936636
1305031455.142700 -0.325609 0.301169 -0.258271 0.0382059 -0.252658 -0.233596 0.938156
1305031455.172771 -0.334023 0.311212 -0.262418 0.0374799 -0.247369 -0.229549 0.940591
1305031455.210307 -0.343889 0.321002 -0.266436 0.0348633 -0.243136 -0.224174 0.943088
1305031455.240960 -0.353275 0.328616 -0.269923 0.0343277 -0.239471 -0.219151 0.945224
1305031455.273001 -0.360641 0.341389 -0.272108 0.034046 -0.235585 -0.213544 0.947491
1305031455.310303 -0.371056 0.345971 -0.27517 0.0254833 -0.229837 -0.205091 0.951033
1305031455.342381 -0.382662 0.354246 -0.27909 0.0197816 -0.226556 -0.194041 0.954269
1305031455.374120 -0.382662 0.354246 -0.27909 0.0197816 -0.226556 -0.194041 0.954269
1305031455.409213 -0.394352 0.358409 -0.283106 0.00977449 -0.218935 -0.187199 0.957564
1305031455.442380 -0.406897 0.361169 -0.288936 0.00116647 -0.211279 -0.17731 0.961208
1305031455.473168 -0.406897 0.361169 -0.288936 0.00116647 -0.211279 -0.17731 0.961208
1305031455.509397 -0.406897 0.361169 -0.288936 0.00116647 -0.211279 -0.17731 0.961208
1305031455.540835 -0.423551 0.361943 -0.297234 -0.00441191 -0.206809 -0.165077 0.964344
1305031455.572996 -0.441633 0.364743 -0.307074 -0.00704684 -0.205269 -0.151467 0.966888
1305031455.608802 -0.459981 0.371392 -0.317397 -0.0089921 -0.20445 -0.136097 0.969328
1305031455.641333 -0.478717 0.371739 -0.327724 -0.0141595 -0.201014 -0.122514 0.971794
1305031455.672887 -0.496917 0.369766 -0.338144 -0.0131633 -0.197522 -0.115812 0.973344
1305031455.707680 -0.514523 0.371787 -0.349587 -0.00899957 -0.194438 -0.116161 0.973971
1305031455.742005 -0.53232 0.37088 -0.361577 -0.0071958 -0.189522 -0.120291 0.974453
1305031455.773667 -0.548867 0.36856 -0.373554 -0.00633241 -0.182938 -0.123739 0.975286
1305031455.809109 -0.566272 0.361322 -0.38622 -0.00640079 -0.176087 -0.123204 0.976613
1305031455.838364 -0.58193 0.359759 -0.399414 -0.00345204 -0.171791 -0.12283 0.97744
1305031455.872220 -0.596428 0.356822 -0.412277 -0.00337484 -0.168562 -0.123934 0.977863
1305031455.908418 -0.610259 0.354501 -0.424451 -0.00333432 -0.164675 -0.124118 0.978502
1305031455.939606 -0.624322 0.350751 -0.435525 -0.00424524 -0.159804 -0.124565 0.979249
1305031455.973594 -0.636144 0.349666 -0.445674 -0.00337106 -0.155319 -0.127024 0.979658
1305031456.008998 -0.647206 0.348581 -0.454415 -0.00490965 -0.15018 -0.129795 0.980089
1305031456.041930 -0.657636 0.352423 -0.462221 -0.00763843 -0.143632 -0.13477 0.980382
1305031456.073846 -0.672046 0.348006 -0.46972 -0.0173574 -0.136245 -0.141929 0.980302
1305031456.108963 -0.68686 0.340912 -0.475825 -0.0239941 -0.130062 -0.146768 0.980289
1305031456.140836 -0.699541 0.336017 -0.481282 -0.025657 -0.124532 -0.148757 0.980665
1305031456.173198 -0.71261 0.328908 -0.486014 -0.0270463 -0.11773 -0.149565 0.981345
1305031456.208934 -0.724418 0.321574 -0.489117 -0.0228558 -0.109342 -0.148158 0.982635
1305031456.240996 -0.732195 0.326059 -0.492022 -0.0163511 -0.100029 -0.145753 0.984115
1305031456.277928 -0.744799 0.322023 -0.493009 -0.0167896 -0.0875418 -0.142842 0.985723
1305031456.310040 -0.75818 0.314604 -0.492513 -0.0148416 -0.0758561 -0.138317 0.987367
1305031456.341659 -0.769896 0.31172 -0.491634 -0.00934319 -0.0649018 -0.131678 0.989122
1305031456.377115 -0.779488 0.317692 -0.490239 -0.0019847 -0.0534166 -0.127022 0.990458
1305031456.409172 -0.794 0.310212 -0.485872 -0.00157269 -0.0397568 -0.123221 0.991581
1305031456.440717 -0.808399 0.312027 -0.481253 0.00608248 -0.0290416 -0.116649 0.99273
1305031456.476027 -0.823223 0.323104 -0.475823 0.00986105 -0.0227782 -0.109412 0.993686
1305031456.508911 -0.83871 0.326185 -0.467644 0.00446426 -0.0207304 -0.103182 0.994436
1305031456.541832 -0.854384 0.326852 -0.458305 -0.00163581 -0.0197302 -0.0970226 0.995085
1305031456.576087 -0.869644 0.321476 -0.447892 -0.00600919 -0.0171951 -0.0919379 0.995598
1305031456.607930 -0.880479 0.331445 -0.438378 -0.00315595 -0.0127067 -0.0857466 0.996231
1305031456.640699 -0.891332 0.341751 -0.428247 -0.012187 -0.00658856 -0.0802052 0.996682
1305031456.675835 -0.906493 0.330693 -0.41642 -0.0274031 0.000896237 -0.0728638 0.996965
1305031456.709099 -0.921168 0.332053 -0.405813 -0.0261302 0.00610177 -0.0617192 0.997733
1305031456.740863 -0.933676 0.342249 -0.395754 -0.0278631 0.00758772 -0.0516708 0.998247
1305031456.777218 -0.949341 0.33658 -0.384034 -0.0359374 0.0071207 -0.0420392 0.998444
1305031456.808986 -0.965335 0.339421 -0.372849 -0.0317498 0.00195086 -0.0333881 0.998936
1305031456.841050 -0.977661 0.352306 -0.362894 -0.030102 1.14819e-05 -0.0248848 0.999237
1305031456.878006 -0.990154 0.352495 -0.351168 -0.0371472 0.00273351 -0.0176172 0.999151
1305031456.909883 -1.00179 0.349708 -0.339946 -0.0403725 0.00652156 -0.0126555 0.999083
1305031456.942298 -1.01314 0.353076 -0.330216 -0.0357942 0.0125354 -0.00656849 0.999259
1305031456.977139 -1.02406 0.36393 -0.322417 -0.0350408 0.0180901 -0.00289235 0.999218
1305031457.006193 -1.03751 0.363104 -0.313712 -0.0433255 0.0240497 0.000116947 0.998771
1305031457.042512 -1.04998 0.363382 -0.306981 -0.0457308 0.0294101 0.00450686 0.998511
1305031457.076011 -1.06119 0.370012 -0.303002 -0.0478555 0.0346195 0.00915613 0.998212
1305031457.108053 -1.07414 0.368847 -0.299966 -0.056812 0.0414587 0.0139196 0.997427
1305031457.142120 -1.08644 0.362721 -0.298325 -0.0617436 0.0484562 0.0186876 0.99674
1305031457.177463 -1.09852 0.362098 -0.299923 -0.0602793 0.0556569 0.0250995 0.996313
1305031457.209336 -1.11173 0.363908 -0.302954 -0.0589748 0.0631596 0.0306413 0.995788
1305031457.240792 -1.12683 0.362146 -0.306248 -0.0620836 0.0710489 0.0372817 0.994841
1305031457.277247 -1.14169 0.352544 -0.3096 -0.0622741 0.0793666 0.0446083 0.993898
1305031457.309693 -1.15583 0.352312 -0.316352 -0.0543102 0.0877585 0.0498517 0.99341
1305031457.342954 -1.17106 0.355634 -0.324127 -0.0497576 0.0974946 0.0539141 0.992528
1305031457.376037 -1.18707 0.350689 -0.330677 -0.0499737 0.10948 0.0603364 0.990897
1305031457.407980 -1.2019 0.344548 -0.338898 -0.0459681 0.120219 0.0678675 0.989357
1305031457.441357 -1.21835 0.345416 -0.348322 -0.0412438 0.127856 0.074956 0.988096
1305031457.476577 -1.23464 0.340641 -0.356377 -0.0409595 0.13167 0.0806078 0.987161
1305031457.508603 -1.25116 0.332536 -0.364109 -0.0404104 0.134962 0.0852299 0.986351
1305031457.543946 -1.26696 0.325879 -0.372457 -0.036891 0.139445 0.0885675 0.985571
1305031457.576581 -1.28191 0.322638 -0.381076 -0.0324334 0.144551 0.0919114 0.984685
1305031457.607246 -1.29868 0.321582 -0.388859 -0.028529 0.149245 0.0955136 0.983763
1305031457.643534 -1.31486 0.314543 -0.394356 -0.0275392 0.152477 0.0989765 0.982953
1305031457.675414 -1.33002 0.315578 -0.401242 -0.0235382 0.154544 0.101862 0.982439
1305031457.707739 -1.34599 0.310684 -0.405759 -0.0277129 0.15592 0.104609 0.981824
1305031457.745071 -1.36054 0.295413 -0.408798 -0.0314103 0.158315 0.10543 0.981241
1305031457.773518 -1.37622 0.284447 -0.412971 -0.0294276 0.161777 0.104065 0.980884
1305031457.807824 -1.39163 0.268866 -0.416333 -0.0236395 0.168239 0.103631 0.979999
1305031457.842853 -1.40713 0.268392 -0.422621 -0.01262 0.176575 0.102728 0.97883
1305031457.875920 -1.42126 0.260944 -0.426749 -0.00959226 0.184941 0.103129 0.977277
1305031457.906126 -1.43499 0.244005 -0.428768 -0.00468891 0.192758 0.103927 0.975716
1305031457.942604 -1.45156 0.240563 -0.430473 0.00947101 0.198192 0.10738 0.974218
1305031457.976744 -1.46739 0.238367 -0.430387 0.0176297 0.200665 0.11103 0.973188
1305031458.009019 -1.48109 0.226557 -0.427975 0.0218609 0.202437 0.111695 0.972659
1305031458.046303 -1.49333 0.217916 -0.424873 0.0303714 0.206304 0.110716 0.971729
1305031458.077315 -1.51032 0.221633 -0.418205 0.0409012 0.212192 0.111691 0.969962
1305031458.108896 -1.52606 0.2224 -0.409508 0.0427207 0.217764 0.113432 0.968446
1305031458.144808 -1.53815 0.213131 -0.398895 0.0404569 0.222006 0.113544 0.967566
1305031458.178039 -1.55236 0.205302 -0.38629 0.0419511 0.225555 0.115951 0.966396
1305031458.209384 -1.57168 0.206355 -0.370071 0.0439063 0.228647 0.120946 0.964969
1305031458.245729 -1.58858 0.197993 -0.352474 0.036677 0.228823 0.123044 0.964964
1305031458.277447 -1.60012 0.174692 -0.33688 0.0308301 0.227869 0.122843 0.96542
1305031458.308343 -1.61817 0.170147 -0.319337 0.0396527 0.226641 0.122429 0.965439
1305031458.343898 -1.63258 0.162735 -0.301968 0.0417776 0.223046 0.124305 0.965947
1305031458.376213 -1.64011 0.147764 -0.288237 0.0464975 0.218306 0.123918 0.966863
1305031458.407856 -1.65245 0.147659 -0.269483 0.0598848 0.216957 0.124703 0.966329
1305031458.443957 -1.66113 0.143839 -0.251339 0.0687816 0.217774 0.13174 0.964618
1305031458.476034 -1.66245 0.135256 -0.238427 0.0792391 0.222051 0.136272 0.962208
1305031458.508869 -1.6656 0.13294 -0.22119 0.100425 0.232917 0.133341 0.958063
1305031458.544401 -1.67953 0.155109 -0.192689 0.125931 0.246352 0.12899 0.952268
1305031458.576178 -1.68323 0.16083 -0.170915 0.135056 0.255964 0.12507 0.948999
1305031458.608421 -1.6893 0.164869 -0.145619 0.145374 0.263689 0.119623 0.946057
1305031458.643659 -1.69728 0.185494 -0.115712 0.152921 0.266589 0.1152 0.944603
1305031458.676991 -1.70057 0.185276 -0.0894721 0.147478 0.263986 0.117254 0.945946
1305031458.707780 -1.69902 0.187146 -0.0677992 0.141407 0.249459 0.110412 0.951621
1305031458.744924 -1.69528 0.181033 -0.052455 0.137179 0.236889 0.102575 0.956318
1305031458.773802 -1.69287 0.184076 -0.0336605 0.142018 0.223148 0.091428 0.96004
1305031458.810621 -1.69175 0.193989 -0.0140896 0.142452 0.209153 0.0802479 0.964118
1305031458.842919 -1.6865 0.191747 -0.00381838 0.134903 0.198966 0.0757369 0.967718
1305031458.875889 -1.68352 0.180311 0.00267884 0.131869 0.194595 0.0724985 0.969272
1305031458.910599 -1.68229 0.183215 0.0121095 0.137439 0.196304 0.0640732 0.968747
1305031458.943997 -1.68627 0.189232 0.023678 0.13888 0.201861 0.06891 0.967066
1305031458.976007 -1.69183 0.179366 0.03212 0.131314 0.208045 0.0824749 0.965749
1305031459.012560 -1.70191 0.158154 0.037695 0.128801 0.213525 0.0887727 0.964332
1305031459.044413 -1.71628 0.149869 0.0511349 0.139286 0.21303 0.0896868 0.962899
1305031459.073657 -1.73442 0.136338 0.0650634 0.14745 0.206917 0.0992404 0.962079
1305031459.112711 -1.75697 0.120603 0.0826811 0.159211 0.194704 0.109853 0.9616
1305031459.144497 -1.77739 0.109367 0.100613 0.170997 0.17286 0.111826 0.963522
1305031459.176463 -1.7924 0.0987361 0.116341 0.17903 0.151414 0.114365 0.965372
1305031459.208791 -1.80378 0.0939609 0.134289 0.185841 0.135969 0.11909 0.965812
1305031459.244159 -1.8127 0.0923332 0.149047 0.189006 0.124873 0.127193 0.965663
1305031459.274941 -1.81875 0.0973333 0.159932 0.189441 0.122916 0.134132 0.96489
1305031459.311921 -1.82325 0.101493 0.169128 0.188255 0.133375 0.14736 0.961798
1305031459.344169 -1.82764 0.102735 0.175084 0.188057 0.150348 0.165818 0.956313
1305031459.374084 -1.83377 0.115551 0.182408 0.194758 0.171148 0.182637 0.948378
1305031459.408831 -1.84233 0.138094 0.195776 0.197131 0.193171 0.201461 0.939807
1305031459.443181 -1.84708 0.148379 0.199393 0.189729 0.22051 0.237329 0.926851
1305031459.473401 -1.84708 0.148379 0.199393 0.189729 0.22051 0.237329 0.926851
1305031459.510267 -1.84708 0.148379 0.199393 0.189729 0.22051 0.237329 0.926851
1305031459.544431 -1.85564 0.155304 0.205282 0.180721 0.236418 0.267162 0.916554
1305031459.576817 -1.86613 0.159444 0.211409 0.179373 0.248083 0.288949 0.907077
1305031459.611939 -1.88204 0.164644 0.220327 0.180036 0.255527 0.306623 0.899042
1305031459.643453 -1.89531 0.1618 0.226476 0.176786 0.258682 0.317735 0.894916
1305031459.675678 -1.90916 0.161941 0.233252 0.176529 0.265989 0.318924 0.892398
1305031459.711531 -1.92499 0.158177 0.239492 0.17136 0.278117 0.324695 0.887615
1305031459.743425 -1.93905 0.147198 0.24148 0.16526 0.286827 0.329988 0.88404
1305031459.776577 -1.95475 0.136194 0.245305 0.165274 0.294253 0.327786 0.882415
1305031459.812562 -1.97155 0.127471 0.25155 0.166032 0.298492 0.324307 0.882134
1305031459.844736 -1.98827 0.117626 0.259325 0.16508 0.300828 0.322357 0.882234
1305031459.877006 -1.98827 0.117626 0.259325 0.16508 0.300828 0.322357 0.882234
1305031459.911472 -1.99939 0.103605 0.263968 0.15896 0.297023 0.32587 0.883356
1305031459.943616 -2.01098 0.0893129 0.270228 0.157491 0.294874 0.329373 0.88304
1305031459.979430 -2.02177 0.0791592 0.27622 0.156083 0.293275 0.332181 0.882771
1305031460.011909 -2.03187 0.0651714 0.281294 0.151616 0.2923 0.337308 0.881928
1305031460.043717 -2.04127 0.0488782 0.286518 0.149525 0.292839 0.341812 0.88037
1305031460.079449 -2.05006 0.0356127 0.293546 0.150105 0.293144 0.343315 0.879585
1305031460.111951 -2.05944 0.0196778 0.303104 0.152708 0.2888 0.35018 0.877866
1305031460.144204 -2.06446 0.00511685 0.308284 0.157259 0.279187 0.358606 0.87677
1305031460.178730 -2.07181 -0.00541272 0.317363 0.163851 0.271395 0.365002 0.875369
1305031460.208637 -2.07374 -0.0137783 0.321449 0.163508 0.264289 0.371249 0.87498
1305031460.243467 -2.07182 -0.0254981 0.318919 0.16117 0.262733 0.375223 0.874187
1305031460.279164 -2.07377 -0.0357991 0.321592 0.162843 0.269967 0.375624 0.871497
1305031460.311712 -2.07578 -0.0472014 0.325187 0.162887 0.2788 0.37567 0.868683
1305031460.342879 -2.07848 -0.0577715 0.330137 0.164287 0.28776 0.377072 0.864882
1305031460.377806 -2.0807 -0.0668922 0.336574 0.163756 0.296835 0.379594 0.860803
1305031460.409883 -2.08067 -0.0792614 0.340275 0.160013 0.30649 0.384352 0.855998
1305031460.444036 -2.08195 -0.0902715 0.34539 0.159088 0.317049 0.389564 0.849948
1305031460.479856 -2.08365 -0.0998939 0.351825 0.157002 0.329826 0.393623 0.84358
1305031460.508966 -2.08409 -0.106943 0.35742 0.151554 0.342924 0.39978 0.836427
1305031460.544245 -2.08401 -0.116996 0.359706 0.144462 0.352932 0.410343 0.828365
1305031460.579561 -2.08331 -0.127754 0.360941 0.137678 0.362086 0.415612 0.822925
1305031460.612190 -2.08517 -0.137829 0.366589 0.134209 0.371733 0.417074 0.818445
1305031460.644011 -2.08605 -0.148537 0.370604 0.131076 0.379979 0.419478 0.813925
1305031460.679350 -2.08869 -0.158353 0.378319 0.130005 0.388498 0.419363 0.810125
1305031460.711684 -2.09187 -0.167131 0.386247 0.127463 0.393463 0.420713 0.807428
1305031460.743767 -2.09332 -0.177569 0.39221 0.121858 0.39677 0.421427 0.806302
1305031460.779201 -2.0938 -0.189879 0.399073 0.11831 0.402582 0.421077 0.80413
1305031460.811318 -2.09522 -0.198474 0.406708 0.115702 0.407041 0.419869 0.802895
1305031460.843836 -2.0969 -0.208852 0.41688 0.11097 0.410948 0.41844 0.802319
1305031460.879093 -2.09628 -0.22057 0.425441 0.103449 0.416057 0.417019 0.80143
1305031460.911313 -2.09375 -0.232218 0.432523 0.095558 0.420847 0.415345 0.800777
1305031460.943375 -2.092 -0.243639 0.440383 0.0898402 0.423324 0.416304 0.799635
1305031460.979083 -2.08686 -0.258217 0.444626 0.0847164 0.423943 0.419268 0.798317
1305031461.011290 -2.08264 -0.271452 0.449934 0.0846941 0.427687 0.420004 0.795932
1305031461.043398 -2.07797 -0.28359 0.454928 0.0855653 0.429432 0.421228 0.79425
1305031461.079602 -2.07521 -0.291943 0.462358 0.088848 0.431059 0.421012 0.793122
1305031461.111961 -2.07119 -0.302034 0.470048 0.0864769 0.429626 0.421175 0.794075
1305031461.144098 -2.0644 -0.315529 0.474152 0.0825894 0.430087 0.420424 0.794637
1305031461.179883 -2.05865 -0.326628 0.478852 0.083648 0.431694 0.418625 0.794604
1305031461.211180 -2.05465 -0.332424 0.484138 0.0854564 0.432952 0.413873 0.796215
1305031461.246864 -2.04998 -0.339467 0.488982 0.0854823 0.434173 0.41158 0.796736
1305031461.278888 -2.04554 -0.347315 0.493493 0.0860428 0.435143 0.408185 0.797893
1305031461.311240 -2.04187 -0.353072 0.500349 0.0875147 0.43684 0.402221 0.799831
1305031461.346875 -2.03729 -0.356884 0.507886 0.0878152 0.440686 0.397009 0.800293
1305031461.378850 -2.03257 -0.358092 0.51672 0.083564 0.444979 0.394281 0.799721
1305031461.411130 -2.02281 -0.365824 0.518531 0.0752119 0.444272 0.396639 0.799777
1305031461.447015 -2.01571 -0.369979 0.522671 0.0738403 0.445201 0.394896 0.80025
1305031461.478901 -2.01031 -0.370699 0.525891 0.0700237 0.445077 0.396944 0.799649
1305031461.512120 -2.0002 -0.379449 0.521688 0.0654407 0.443607 0.399474 0.799594
1305031461.547338 -1.99687 -0.379629 0.522696 0.0701171 0.445547 0.396317 0.79969
1305031461.578847 -1.99252 -0.381391 0.520607 0.0676314 0.44834 0.393496 0.799736
1305031461.609662 -1.98931 -0.37639 0.517088 0.0677064 0.455027 0.389092 0.798106
1305031461.646970 -1.98609 -0.370843 0.51365 0.0661624 0.459858 0.389207 0.795407
1305031461.676203 -1.98195 -0.365425 0.510898 0.0651722 0.463292 0.389624 0.793288
1305031461.711212 -1.97949 -0.356459 0.507656 0.0652972 0.464503 0.394951 0.789928
1305031461.746919 -1.97547 -0.350124 0.501584 0.0633808 0.463719 0.400202 0.7879
1305031461.778616 -1.97505 -0.338806 0.499026 0.0643309 0.465651 0.401902 0.785815
1305031461.811319 -1.97352 -0.328896 0.494961 0.0614658 0.467059 0.405907 0.783146
1305031461.847090 -1.97178 -0.31745 0.489611 0.0611308 0.46986 0.409878 0.77942
1305031461.879162 -1.97302 -0.301057 0.488712 0.0635606 0.472814 0.415639 0.774371
1305031461.911121 -1.97405 -0.2835 0.487122 0.063829 0.472374 0.427032 0.768396
1305031461.947264 -1.973 -0.271608 0.482805 0.0592329 0.46954 0.437223 0.764761
1305031461.979223 -1.97367 -0.257075 0.479134 0.0559291 0.472967 0.439011 0.761868
1305031462.011791 -1.97812 -0.238891 0.482364 0.053418 0.478321 0.445193 0.755088
1305031462.047463 -1.97927 -0.224068 0.47962 0.0492948 0.474495 0.458128 0.750029
1305031462.079285 -1.98178 -0.210932 0.478774 0.0499009 0.467512 0.470025 0.747006
1305031462.112081 -1.98467 -0.19945 0.476837 0.0492653 0.460519 0.48013 0.744964
1305031462.147634 -1.98802 -0.1891 0.475172 0.0472162 0.456248 0.489062 0.741907
1305031462.179358 -1.99132 -0.180217 0.473316 0.044422 0.453348 0.495031 0.739896
1305031462.212836 -1.99649 -0.170745 0.473441 0.040827 0.452715 0.494605 0.740776
1305031462.248986 -2.00216 -0.160494 0.474179 0.0352271 0.45287 0.494573 0.740989
1305031462.280774 -2.0076 -0.151351 0.475943 0.0291062 0.45192 0.492994 0.742885
1305031462.311931 -2.01363 -0.142342 0.478835 0.0229662 0.449879 0.489334 0.746749
1305031462.347816 -2.01954 -0.133265 0.480409 0.0149466 0.448031 0.484245 0.751366
1305031462.379950 -2.02664 -0.121909 0.483254 0.00780558 0.4472 0.477853 0.756047
1305031462.413016 -2.03287 -0.11308 0.487594 -0.000612077 0.442728 0.475028 0.760487
1305031462.448295 -2.03928 -0.104739 0.490617 -0.00933575 0.436914 0.472141 0.765573
1305031462.480843 -2.04804 -0.0955008 0.494979 -0.0161915 0.430662 0.468637 0.771134
1305031462.517041 -2.05438 -0.08777 0.495777 -0.0268326 0.422826 0.465752 0.7769
1305031462.548959 -2.06095 -0.0805415 0.495162 -0.0324559 0.414886 0.463138 0.782508
1305031462.581088 -2.06095 -0.0805415 0.495162 -0.0324559 0.414886 0.463138 0.782508
1305031462.617123 -2.06095 -0.0805415 0.495162 -0.0324559 0.414886 0.463138 0.782508
1305031462.648708 -2.06768 -0.0746312 0.491423 -0.036107 0.412927 0.45448 0.788438
1305031462.680788 -2.07392 -0.0698265 0.486907 -0.0378834 0.412238 0.445193 0.793995
1305031462.716812 -2.08384 -0.0613955 0.48263 -0.0363216 0.410899 0.434798 0.800496
1305031462.748732 -2.08384 -0.0613955 0.48263 -0.0363216 0.410899 0.434798 0.800496
1305031462.780885 -2.09069 -0.0529761 0.476374 -0.0377278 0.405415 0.426117 0.807861
1305031462.816821 -2.09873 -0.0419688 0.468317 -0.0387046 0.40043 0.418108 0.814459
1305031462.848525 -2.10686 -0.0290262 0.459245 -0.0396427 0.395234 0.413318 0.819382
1305031462.880471 -2.10785 -0.0181245 0.446033 -0.0437386 0.389108 0.409199 0.824159
1305031462.916800 -2.10907 -0.00520999 0.430612 -0.0457252 0.385754 0.403526 0.828414
1305031462.947939 -2.10907 -0.00520999 0.430612 -0.0457252 0.385754 0.403526 0.828414
1305031462.979943 -2.10891 0.00390736 0.416286 -0.0448481 0.381201 0.400706 0.831931
1305031463.016121 -2.10795 0.0107812 0.400677 -0.042122 0.376722 0.396866 0.835945
1305031463.050783 -2.10795 0.0107812 0.400677 -0.042122 0.376722 0.396866 0.835945
1305031463.076870 -2.11317 0.0237954 0.386905 -0.0368546 0.372274 0.387406 0.842598
1305031463.116806 -2.11351 0.0306759 0.371974 -0.0376711 0.368054 0.380695 0.84746
1305031463.148565 -2.11331 0.0376581 0.356367 -0.0356314 0.366613 0.371051 0.852436
1305031463.180505 -2.11671 0.0512392 0.341561 -0.0306754 0.365393 0.359369 0.858138
1305031463.217123 -2.11789 0.0670133 0.325862 -0.0301554 0.362555 0.350008 0.863214
1305031463.248719 -2.11789 0.0670133 0.325862 -0.0301554 0.362555 0.350008 0.863214
1305031463.278737 -2.11572 0.0780458 0.311792 -0.0243538 0.36249 0.343094 0.866195
1305031463.317110 -2.11497 0.0938957 0.299535 -0.0202199 0.36162 0.335049 0.869807
1305031463.348740 -2.11497 0.0938957 0.299535 -0.0202199 0.36162 0.335049 0.869807
1305031463.380514 -2.11497 0.0938957 0.299535 -0.0202199 0.36162 0.335049 0.869807
1305031463.416326 -2.11177 0.10881 0.287051 -0.0147501 0.357305 0.329644 0.873756
1305031463.444773 -2.10511 0.117953 0.274469 -0.0152434 0.353955 0.326222 0.876392
1305031463.480415 -2.0979 0.129371 0.260913 -0.0145224 0.352157 0.32254 0.878489
1305031463.516994 -2.0979 0.129371 0.260913 -0.0145224 0.352157 0.32254 0.878489
1305031463.548505 -2.08733 0.135372 0.245764 -0.014534 0.354678 0.320635 0.878172
1305031463.580684 -2.08733 0.135372 0.245764 -0.014534 0.354678 0.320635 0.878172
1305031463.616671 -2.08733 0.135372 0.245764 -0.014534 0.354678 0.320635 0.878172
1305031463.646147 -2.07477 0.134766 0.227846 -0.0152937 0.352262 0.319857 0.879414
1305031463.683908 -2.06551 0.140506 0.208845 -0.00754771 0.352904 0.315815 0.880717
1305031463.716110 -2.06551 0.140506 0.208845 -0.00754771 0.352904 0.315815 0.880717
1305031463.747849 -2.05077 0.138274 0.186443 -0.0113484 0.350618 0.313296 0.882487
1305031463.783912 -2.03782 0.134695 0.164224 -0.00842487 0.352724 0.308089 0.883514
1305031463.815883 -2.03782 0.134695 0.164224 -0.00842487 0.352724 0.308089 0.883514
1305031463.848094 -2.025 0.133248 0.140303 -0.0113807 0.351938 0.297744 0.887332
1305031463.883817 -2.025 0.133248 0.140303 -0.0113807 0.351938 0.297744 0.887332
1305031463.917433 -2.0165 0.134885 0.117779 -0.00892052 0.35262 0.287671 0.890407
1305031463.944435 -2.00701 0.131388 0.0969852 -0.00935626 0.349947 0.282368 0.89315
1305031463.983748 -1.99683 0.124212 0.0761337 -0.00911437 0.345719 0.277042 0.896461
1305031464.015867 -1.98976 0.121016 0.055061 -0.00622963 0.342844 0.268989 0.900036
1305031464.047778 -1.984 0.117879 0.0353263 -0.00600402 0.340635 0.260781 0.903286
1305031464.083152 -1.97573 0.108203 0.015409 -0.00753533 0.340513 0.252519 0.905665
1305031464.115837 -1.97079 0.104659 -0.00488797 -0.0046856 0.341832 0.242892 0.907817
1305031464.147663 -1.96654 0.0991043 -0.0231678 -0.00176062 0.339815 0.239072 0.909597
1305031464.183566 -1.96157 0.0875919 -0.0394508 0.00323938 0.335249 0.238 0.911566
1305031464.212447 -1.95737 0.0819201 -0.0569527 0.0139455 0.327738 0.232742 0.915546
1305031464.247602 -1.95478 0.0849693 -0.0736303 0.0254368 0.316729 0.226875 0.920632
1305031464.283694 -1.95478 0.0849693 -0.0736303 0.0254368 0.316729 0.226875 0.920632
1305031464.315699 -1.94979 0.0836852 -0.0886017 0.0278964 0.300165 0.221123 0.927485
1305031464.347553 -1.94117 0.081035 -0.106131 0.028795 0.286612 0.214821 0.933208
1305031464.383465 -1.93062 0.0767838 -0.124267 0.0313651 0.276556 0.207561 0.937791
1305031464.415539 -1.91996 0.0785132 -0.143741 0.0347033 0.270693 0.196807 0.941694
1305031464.444269 -1.91996 0.0785132 -0.143741 0.0347033 0.270693 0.196807 0.941694
1305031464.487561 -1.91165 0.072945 -0.160975 0.0355988 0.268034 0.189475 0.943923
1305031464.513688 -1.90088 0.0720196 -0.182824 0.0361469 0.264869 0.182221 0.946221
1305031464.548007 -1.89434 0.0721987 -0.202349 0.0359427 0.264522 0.173859 0.947897
1305031464.584260 -1.88424 0.063677 -0.224959 0.0300418 0.2621 0.161979 0.950875
1305031464.615688 -1.86791 0.0511865 -0.25414 0.0291819 0.26457 0.149633 0.95224
1305031464.648851 -1.85978 0.047928 -0.278311 0.0373002 0.275895 0.138675 0.9504
1305031464.684318 -1.85207 0.0410326 -0.299641 0.0434297 0.287144 0.123665 0.948878
1305031464.716305 -1.84411 0.0242622 -0.317616 0.052291 0.297607 0.106561 0.947281
1305031464.748588 -1.84175 0.01865 -0.328074 0.0670314 0.303915 0.087617 0.946291
1305031464.784268 -1.83877 0.021536 -0.336025 0.0762108 0.303535 0.0681416 0.94732
1305031464.816195 -1.83336 0.00624612 -0.339684 0.0797294 0.298362 0.0521652 0.949685
1305031464.848283 -1.83258 0.00243089 -0.338898 0.0885831 0.286992 0.0386087 0.953047
1305031464.884177 -1.82286 0.00896982 -0.338699 0.0927928 0.271311 0.0222504 0.95775
1305031464.916391 -1.81269 0.00135576 -0.337147 0.0860678 0.257088 0.0033191 0.962542
1305031464.952471 -1.79227 -0.0147351 -0.341334 0.078972 0.244015 -0.017323 0.966395
1305031464.984257 -1.77401 -0.0245064 -0.342556 0.0789343 0.237573 -0.0360853 0.967485
1305031465.015390 -1.75275 -0.0191584 -0.341192 0.0829708 0.234292 -0.0572856 0.966924
1305031465.048430 -1.73888 -0.0216771 -0.334341 0.0832907 0.232994 -0.0783591 0.965731
1305031465.083338 -1.72757 -0.00417097 -0.319459 0.0885631 0.225971 -0.0952765 0.96541
1305031465.115475 -1.70596 0.0217785 -0.305694 0.0815364 0.212286 -0.110709 0.967486
1305031465.151558 -1.68796 0.0286673 -0.289872 0.0619047 0.200294 -0.121277 0.970228
1305031465.183558 -1.67038 0.0339762 -0.275242 0.0452529 0.188948 -0.127209 0.972661
1305031465.215832 -1.64985 0.0418639 -0.261773 0.033281 0.178346 -0.131883 0.974521
1305031465.251788 -1.62926 0.0529085 -0.248564 0.021722 0.168703 -0.134681 0.976181
1305031465.283737 -1.60808 0.054382 -0.237067 0.0111264 0.158533 -0.131317 0.978519
1305031465.315985 -1.58434 0.0698391 -0.229048 0.00985904 0.146833 -0.119124 0.981913
1305031465.351729 -1.56394 0.0780417 -0.22096 0.00441284 0.132797 -0.104692 0.985589
1305031465.383701 -1.54158 0.0821956 -0.215554 0.00227238 0.114238 -0.092734 0.989113
1305031465.416543 -1.51805 0.0895872 -0.21329 0.0050191 0.0966182 -0.0825201 0.991882
1305031465.452401 -1.4921 0.100347 -0.213992 0.00930999 0.081989 -0.0727585 0.99393
1305031465.483803 -1.47262 0.117778 -0.217235 0.0141638 0.071427 -0.0603932 0.995515
1305031465.516043 -1.44843 0.130996 -0.221632 0.0126621 0.0603047 -0.05236 0.996725
1305031465.551838 -1.42803 0.132596 -0.224876 0.0116166 0.0505847 -0.0483274 0.997482
1305031465.583570 -1.40442 0.14541 -0.232644 0.0190601 0.0408793 -0.0437908 0.998022
1305031465.615685 -1.37932 0.161212 -0.240839 0.0258491 0.0344805 -0.0366751 0.998398
1305031465.651645 -1.35849 0.17619 -0.247931 0.0320216 0.0279566 -0.0265611 0.998743
1305031465.684759 -1.33466 0.192521 -0.256623 0.0383562 0.0162539 -0.0182338 0.998966
1305031465.716279 -1.30775 0.208683 -0.265658 0.0451614 0.00786091 -0.0134073 0.998859
1305031465.753153 -1.28424 0.227472 -0.273263 0.0543159 0.00235495 -0.00495409 0.998509
1305031465.784387 -1.25981 0.250591 -0.280906 0.063481 -0.00404832 0.00253825 0.997972
1305031465.816591 -1.23769 0.267646 -0.286747 0.0699188 -0.00787716 0.00847344 0.997486
1305031465.852860 -1.21466 0.285028 -0.292962 0.0805523 -0.0118874 0.0145181 0.996574
1305031465.884370 -1.18876 0.315336 -0.29928 0.0924623 -0.0149174 0.0168463 0.995462
1305031465.912828 -1.16566 0.335574 -0.303894 0.0960217 -0.010753 0.019389 0.995132
1305031465.952840 -1.14121 0.350547 -0.308739 0.103158 -0.00517549 0.0208247 0.994433
1305031465.984183 -1.11609 0.374212 -0.314353 0.114466 -0.000436933 0.0176589 0.99327
1305031466.016599 -1.09776 0.397484 -0.318675 0.122325 0.00348228 0.0157271 0.992359
1305031466.052655 -1.0759 0.425752 -0.322715 0.129344 0.00269706 0.0144415 0.991491
1305031466.083913 -1.05853 0.449085 -0.326871 0.127714 0.00246134 0.0162855 0.991674
1305031466.116400 -1.04292 0.468156 -0.332306 0.123755 -0.000968907 0.0169127 0.992168
1305031466.152540 -1.02898 0.485829 -0.340075 0.118429 -0.00581817 0.0182728 0.992777
1305031466.184186 -1.01714 0.5036 -0.349168 0.113861 -0.0119362 0.0211943 0.993199
1305031466.220477 -1.00491 0.521596 -0.359376 0.106124 -0.0211481 0.0204647 0.993917
1305031466.252491 -0.990067 0.52893 -0.37293 0.0944772 -0.0289081 0.0145701 0.995001
1305031466.284389 -0.975156 0.534612 -0.387802 0.0923517 -0.0292063 0.00577234 0.995281
1305031466.320055 -0.957773 0.54753 -0.402877 0.0947364 -0.0230295 -0.0053921 0.995221
1305031466.352082 -0.940904 0.561857 -0.416593 0.094806 -0.014637 -0.0138421 0.995292
1305031466.384479 -0.925732 0.567661 -0.431568 0.0886578 -0.00791636 -0.0182275 0.995864
1305031466.420844 -0.911914 0.567278 -0.446874 0.0884525 -0.00633276 -0.0220974 0.995815
1305031466.452369 -0.897023 0.582863 -0.459451 0.095488 -0.0100841 -0.0265452 0.995025
1305031466.483315 -0.879952 0.59503 -0.46982 0.0946213 -0.0157051 -0.0299415 0.994939
1305031466.519548 -0.860228 0.601326 -0.478593 0.0904804 -0.0194668 -0.0305576 0.995239
1305031466.552219 -0.835234 0.607956 -0.486824 0.0894094 -0.0190687 -0.0319376 0.9953
1305031466.584438 -0.815432 0.622578 -0.493032 0.0879468 -0.0175888 -0.0340233 0.995389
1305031466.620424 -0.794166 0.628252 -0.498597 0.0785568 -0.0180126 -0.0367044 0.996071
1305031466.648654 -0.776246 0.622234 -0.505636 0.0729212 -0.0146263 -0.038571 0.996484
1305031466.684412 -0.754884 0.631898 -0.512582 0.0797482 -0.0139389 -0.0451097 0.995696
1305031466.719744 -0.732862 0.64558 -0.516693 0.0797618 -0.0172704 -0.0547904 0.995157
1305031466.748734 -0.713115 0.644142 -0.521892 0.0724549 -0.0192238 -0.0631533 0.995185
1305031466.784300 -0.69729 0.640362 -0.529023 0.0740359 -0.0181934 -0.0702862 0.994609
1305031466.819502 -0.67746 0.653487 -0.53436 0.0809413 -0.0217078 -0.0768229 0.993517
1305031466.851527 -0.659773 0.658417 -0.539465 0.0774944 -0.0266516 -0.0792664 0.993479
1305031466.883430 -0.649419 0.65434 -0.546384 0.0746415 -0.0320606 -0.0771482 0.993705
1305031466.919411 -0.633609 0.658964 -0.551115 0.0783306 -0.0447298 -0.0793044 0.992761
1305031466.952451 -0.617657 0.661068 -0.556935 0.0779734 -0.0581566 -0.0808077 0.991972
1305031466.984027 -0.596165 0.661076 -0.561958 0.0784644 -0.0688042 -0.0830095 0.991069
1305031467.020424 -0.576654 0.663152 -0.566686 0.0792698 -0.0744108 -0.0867645 0.990278
1305031467.052391 -0.560473 0.663694 -0.57155 0.0792175 -0.0787496 -0.0909651 0.98957
1305031467.084130 -0.540782 0.66763 -0.575124 0.0796651 -0.0822609 -0.0945036 0.988916
1305031467.120528 -0.526406 0.668824 -0.579012 0.0773579 -0.0836222 -0.101011 0.988342
1305031467.152363 -0.513638 0.667679 -0.583046 0.0774427 -0.0859475 -0.111764 0.986977
1305031467.184216 -0.500245 0.669046 -0.586741 0.0789691 -0.0890985 -0.119435 0.985678
1305031467.220466 -0.487961 0.670548 -0.590486 0.0798874 -0.0939496 -0.12403 0.984585
1305031467.252275 -0.475154 0.671718 -0.594208 0.0805902 -0.0999167 -0.128984 0.983303
1305031467.284258 -0.460433 0.6726 -0.597984 0.0822881 -0.105407 -0.133641 0.981966
1305031467.318028 -0.445073 0.673699 -0.602099 0.0841786 -0.111241 -0.14121 0.980102
1305031467.349355 -0.430673 0.678048 -0.605977 0.0855742 -0.117162 -0.145892 0.978604
1305031467.383844 -0.414936 0.684376 -0.609419 0.0832346 -0.124326 -0.148799 0.977483
1305031467.420160 -0.402034 0.683075 -0.614298 0.076967 -0.130913 -0.153221 0.976453
1305031467.452057 -0.389761 0.679872 -0.620002 0.0743973 -0.136035 -0.155794 0.975545
1305031467.484357 -0.372072 0.684833 -0.623801 0.0752359 -0.144003 -0.15918 0.973789
1305031467.520535 -0.353668 0.690541 -0.626064 0.0717856 -0.151412 -0.165102 0.971938
1305031467.552164 -0.337749 0.686635 -0.630001 0.0663755 -0.154226 -0.171165 0.97083
1305031467.584354 -0.322636 0.68403 -0.63317 0.0664545 -0.15585 -0.173526 0.970146
1305031467.618680 -0.309205 0.681609 -0.635433 0.0656132 -0.158443 -0.172268 0.970007
1305031467.651977 -0.29888 0.671785 -0.637562 0.066158 -0.163241 -0.169738 0.969621
1305031467.686044 -0.283422 0.668873 -0.636669 0.0729973 -0.169618 -0.167387 0.968443
1305031467.718326 -0.266813 0.66466 -0.632224 0.0765893 -0.174166 -0.170856 0.966752
1305031467.752580 -0.257159 0.654348 -0.628836 0.0800998 -0.176191 -0.175248 0.965313
1305031467.788562 -0.247862 0.647812 -0.623899 0.0861472 -0.178535 -0.177679 0.963916
1305031467.820454 -0.238907 0.639394 -0.616714 0.0894616 -0.181397 -0.179993 0.96265
1305031467.852678 -0.23358 0.624407 -0.608908 0.0932266 -0.184542 -0.180422 0.961614
1305031467.888472 -0.223302 0.614797 -0.597955 0.100159 -0.191442 -0.178405 0.959943
1305031467.920800 -0.212459 0.608227 -0.584751 0.104979 -0.200345 -0.179582 0.957388
1305031467.952485 -0.208222 0.595279 -0.572912 0.107559 -0.206781 -0.181789 0.955314
1305031467.988523 -0.197484 0.58407 -0.558251 0.114425 -0.212143 -0.184288 0.952859
1305031468.020491 -0.184574 0.576632 -0.541255 0.116012 -0.215793 -0.187022 0.951314
1305031468.052668 -0.186895 0.557745 -0.530149 0.113139 -0.21521 -0.189415 0.951318
1305031468.088379 -0.181516 0.54506 -0.516367 0.117945 -0.218324 -0.1917 0.949566
1305031468.120522 -0.171164 0.533714 -0.500117 0.118427 -0.223224 -0.193563 0.947987
1305031468.152356 -0.166633 0.515574 -0.486422 0.116684 -0.225392 -0.195198 0.947355
1305031468.188327 -0.158175 0.500079 -0.472152 0.11772 -0.228128 -0.199236 0.94573
1305031468.220648 -0.150914 0.482942 -0.459348 0.115603 -0.228974 -0.202145 0.945169
1305031468.252517 -0.143642 0.461042 -0.447738 0.112707 -0.229339 -0.202446 0.945366
1305031468.288361 -0.135246 0.442426 -0.43652 0.111514 -0.228481 -0.201908 0.94583
1305031468.320522 -0.129854 0.418765 -0.427748 0.108764 -0.226819 -0.202243 0.946478
1305031468.352594 -0.124596 0.393979 -0.420916 0.108743 -0.225088 -0.199254 0.947528
1305031468.384700 -0.116082 0.381314 -0.413392 0.11116 -0.223802 -0.19554 0.948325
1305031468.420595 -0.110341 0.361942 -0.406703 0.106309 -0.223677 -0.196608 0.94869
1305031468.452605 -0.108755 0.337058 -0.402666 0.101205 -0.22379 -0.19627 0.949291
1305031468.488646 -0.103857 0.317895 -0.397671 0.098915 -0.224232 -0.194676 0.949756
1305031468.520786 -0.10075 0.296974 -0.393263 0.0952001 -0.222741 -0.196976 0.950013
1305031468.552701 -0.105099 0.272148 -0.392767 0.0952819 -0.220391 -0.204077 0.949053
1305031468.588614 -0.109097 0.252605 -0.392555 0.100251 -0.220073 -0.212358 0.946795
1305031468.620590 -0.109727 0.238373 -0.389632 0.0990296 -0.221424 -0.216569 0.945654
1305031468.656644 -0.116271 0.217434 -0.388472 0.0918218 -0.222395 -0.217926 0.945842
1305031468.688643 -0.124161 0.196265 -0.389058 0.0912879 -0.226176 -0.22052 0.944395
1305031468.720560 -0.13252 0.176218 -0.388389 0.0939227 -0.231807 -0.223456 0.942078
1305031468.756725 -0.138653 0.160205 -0.386127 0.0958473 -0.237626 -0.224222 0.940251
1305031468.788562 -0.143363 0.142905 -0.383917 0.0966301 -0.241548 -0.226813 0.938548
1305031468.817997 -0.153373 0.124221 -0.384452 0.101359 -0.242156 -0.23281 0.936422
1305031468.854887 -0.1568 0.112895 -0.381963 0.108551 -0.244363 -0.238454 0.933618
1305031468.889220 -0.158808 0.103313 -0.378166 0.109012 -0.243045 -0.24293 0.932754
1305031468.920539 -0.163864 0.0914636 -0.375961 0.105603 -0.237255 -0.24356 0.934471
1305031468.956482 -0.165979 0.0837151 -0.37278 0.100978 -0.231663 -0.239277 0.937487
1305031468.986011 -0.165922 0.0864202 -0.366469 0.0951579 -0.227943 -0.23775 0.939394
1305031469.020731 -0.167118 0.0842331 -0.35799 0.0793471 -0.225245 -0.243365 0.940076
1305031469.056318 -0.175056 0.0742955 -0.352985 0.0610114 -0.220446 -0.249121 0.941074
1305031469.088069 -0.181201 0.0703611 -0.346794 0.0495349 -0.21825 -0.255529 0.940541
1305031469.119984 -0.182974 0.0666435 -0.336472 0.0388196 -0.215512 -0.267594 0.938318
1305031469.155046 -0.187039 0.0573973 -0.326922 0.0261266 -0.206248 -0.276923 0.938132
1305031469.184648 -0.19136 0.0496743 -0.31757 0.0162168 -0.196424 -0.28407 0.938328
1305031469.219541 -0.19556 0.0419499 -0.307939 0.00855316 -0.187353 -0.288801 0.93884
1305031469.256002 -0.200704 0.0392268 -0.298014 0.0039021 -0.182354 -0.29129 0.939086
1305031469.288263 -0.20337 0.0365237 -0.2859 -0.00136713 -0.179144 -0.295138 0.938509
1305031469.319772 -0.206174 0.0346424 -0.273085 -0.00617093 -0.175061 -0.297927 0.938379
1305031469.356116 -0.206822 0.0384804 -0.260458 -0.0107799 -0.17229 -0.299922 0.938215
1305031469.388556 -0.211328 0.0380602 -0.248675 -0.0160124 -0.162914 -0.305004 0.938176
1305031469.420278 -0.214072 0.0400953 -0.236846 -0.0153847 -0.150013 -0.310587 0.938507
1305031469.456563 -0.215149 0.0456151 -0.224544 -0.0138847 -0.138987 -0.316977 0.938091
1305031469.488520 -0.216169 0.0493124 -0.210613 -0.0140211 -0.131198 -0.324454 0.936654
1305031469.520417 -0.218512 0.0546349 -0.196636 -0.0153012 -0.128044 -0.326484 0.936365
1305031469.556139 -0.218316 0.0625522 -0.182589 -0.0192852 -0.128966 -0.32646 0.936173
1305031469.588500 -0.218596 0.0714949 -0.168226 -0.0251266 -0.129427 -0.326787 0.935857
1305031469.620563 -0.217778 0.082768 -0.153741 -0.0321834 -0.129236 -0.325727 0.936037
1305031469.656279 -0.218853 0.0921348 -0.139939 -0.0404983 -0.12604 -0.324821 0.936464
1305031469.687925 -0.220937 0.102861 -0.127145 -0.0446682 -0.121133 -0.322344 0.937777
1305031469.718943 -0.222026 0.113952 -0.113668 -0.048688 -0.117213 -0.320635 0.93866
1305031469.756754 -0.223137 0.125398 -0.100674 -0.053159 -0.112491 -0.318819 0.939614
1305031469.784733 -0.226567 0.139215 -0.088486 -0.0587495 -0.108452 -0.315467 0.940886
1305031469.820544 -0.231303 0.152172 -0.0768606 -0.0647616 -0.107213 -0.312607 0.941588
1305031469.854359 -0.23555 0.168358 -0.0663258 -0.0692157 -0.108194 -0.309197 0.942285
1305031469.885343 -0.242076 0.184162 -0.0569708 -0.075383 -0.108463 -0.305396 0.94302
1305031469.921773 -0.249123 0.199918 -0.0481748 -0.0796779 -0.108533 -0.302192 0.943691
1305031469.953180 -0.256215 0.215256 -0.0397174 -0.0824646 -0.110499 -0.29939 0.944116
1305031469.985327 -0.265244 0.230703 -0.0328039 -0.0840723 -0.112427 -0.297889 0.944221
1305031470.024714 -0.275585 0.247253 -0.0272328 -0.0855159 -0.113047 -0.296444 0.944473
1305031470.057400 -0.2866 0.262395 -0.0226229 -0.0878081 -0.113668 -0.297545 0.943841
1305031470.088874 -0.297004 0.277695 -0.01941 -0.0890335 -0.113123 -0.298529 0.943481
1305031470.124820 -0.307575 0.292425 -0.0170516 -0.0904396 -0.11227 -0.297786 0.943684
1305031470.156744 -0.318304 0.307713 -0.0154442 -0.094484 -0.111331 -0.296027 0.943953
1305031470.188876 -0.330169 0.321453 -0.0147549 -0.0980879 -0.11146 -0.294161 0.944153
1305031470.224776 -0.341273 0.335689 -0.0149259 -0.100255 -0.112304 -0.291855 0.944541
1305031470.253015 -0.341273 0.335689 -0.0149259 -0.100255 -0.112304 -0.291855 0.944541
1305031470.287867 -0.352665 0.349744 -0.0150922 -0.10433 -0.110876 -0.288858 0.945189
1305031470.324266 -0.363216 0.363341 -0.01495 -0.109519 -0.109798 -0.287049 0.945279
1305031470.356871 -0.374385 0.376307 -0.01533 -0.115544 -0.108914 -0.284636 0.945394
1305031470.388056 -0.385244 0.3879 -0.0160892 -0.120749 -0.109567 -0.281281 0.945672
1305031470.424090 -0.397134 0.399604 -0.0178505 -0.124323 -0.110481 -0.279474 0.945639
1305031470.455875 -0.410335 0.409729 -0.0202014 -0.126538 -0.111047 -0.280116 0.945088
1305031470.487958 -0.423441 0.419711 -0.0231055 -0.12659 -0.11076 -0.279067 0.945425
1305031470.524431 -0.435212 0.429782 -0.0257736 -0.125555 -0.111386 -0.276787 0.94616
1305031470.556484 -0.444967 0.43913 -0.0277611 -0.12504 -0.111053 -0.276011 0.946494
1305031470.588797 -0.456589 0.447285 -0.02951 -0.126673 -0.109645 -0.274642 0.946839
1305031470.624535 -0.466337 0.455601 -0.0308822 -0.127169 -0.108776 -0.270653 0.94802
1305031470.656787 -0.475979 0.462551 -0.0316585 -0.1299 -0.107344 -0.26573 0.949205
1305031470.688640 -0.484742 0.468944 -0.0316669 -0.13157 -0.106863 -0.261351 0.950245
1305031470.724461 -0.484742 0.468944 -0.0316669 -0.13157 -0.106863 -0.261351 0.950245
1305031470.755944 -0.484742 0.468944 -0.0316669 -0.13157 -0.106863 -0.261351 0.950245
1305031470.788407 -0.484742 0.468944 -0.0316669 -0.13157 -0.106863 -0.261351 0.950245
1305031470.820633 -0.484742 0.468944 -0.0316669 -0.13157 -0.106863 -0.261351 0.950245
1305031470.855509 -0.484742 0.468944 -0.0316669 -0.13157 -0.106863 -0.261351 0.950245
1305031470.886079 -0.496351 0.472108 -0.0336369 -0.127401 -0.105435 -0.254122 0.952929
1305031470.924410 -0.508251 0.474913 -0.0359494 -0.124418 -0.105143 -0.247448 0.95511
1305031470.956439 -0.521247 0.47379 -0.0389119 -0.122653 -0.104588 -0.24203 0.956786
1305031470.988276 -0.533691 0.475004 -0.0423499 -0.113042 -0.10536 -0.237589 0.958995
1305031471.024309 -0.544384 0.474734 -0.0454451 -0.106105 -0.103959 -0.235071 0.96056
1305031471.056616 -0.553631 0.472431 -0.0481928 -0.0984303 -0.102148 -0.233399 0.961978
1305031471.088440 -0.553631 0.472431 -0.0481928 -0.0984303 -0.102148 -0.233399 0.961978
1305031471.123837 -0.561855 0.471812 -0.0507614 -0.0916367 -0.102028 -0.226829 0.964231
1305031471.155886 -0.56951 0.471319 -0.0535608 -0.0857613 -0.102405 -0.220099 0.966289
1305031471.192698 -0.576077 0.472161 -0.0555061 -0.0800558 -0.101376 -0.213932 0.96827
1305031471.224404 -0.582211 0.47304 -0.0567164 -0.0775003 -0.098169 -0.208175 0.970062
1305031471.256397 -0.589488 0.473574 -0.0575529 -0.0774687 -0.0944848 -0.203442 0.971433
1305031471.288603 -0.59673 0.472346 -0.0584753 -0.0784853 -0.0922549 -0.200434 0.972191
1305031471.324440 -0.603123 0.470665 -0.0598595 -0.0772793 -0.0893236 -0.196351 0.973394
1305031471.356569 -0.606867 0.470933 -0.0612782 -0.0731468 -0.0846971 -0.193959 0.974606
1305031471.392751 -0.610479 0.469783 -0.0628032 -0.0731305 -0.0769349 -0.191855 0.975666
1305031471.424494 -0.61665 0.467417 -0.0651204 -0.0717506 -0.0709256 -0.186391 0.977282
1305031471.456975 -0.62063 0.468163 -0.0671548 -0.0676453 -0.070161 -0.179288 0.978957
1305031471.492705 -0.625189 0.468952 -0.0691401 -0.0674688 -0.0698138 -0.174625 0.979837
1305031471.524343 -0.630174 0.468063 -0.071267 -0.0689771 -0.0684369 -0.170333 0.980584
1305031471.556561 -0.633985 0.467732 -0.0736076 -0.0692502 -0.0675105 -0.167065 0.981191
1305031471.592606 -0.637363 0.467493 -0.0764974 -0.0699426 -0.0645688 -0.16512 0.981669
1305031471.624486 -0.640655 0.467376 -0.0796991 -0.0697453 -0.0593833 -0.16316 0.982338
1305031471.656831 -0.643464 0.467054 -0.082863 -0.0691158 -0.0545298 -0.161335 0.982965
1305031471.693182 -0.646476 0.467273 -0.0860951 -0.0668772 -0.0496442 -0.157255 0.98404
1305031471.724753 -0.647173 0.469697 -0.0887235 -0.0639442 -0.0465547 -0.15278 0.98509
1305031471.753002 -0.648637 0.471159 -0.0908239 -0.0648263 -0.0427055 -0.14772 0.985978
1305031471.792706 -0.649898 0.47125 -0.0928889 -0.0651168 -0.0376719 -0.141022 0.987144
1305031471.823821 -0.649916 0.475191 -0.0941769 -0.0628619 -0.0318694 -0.133184 0.988582
1305031471.855793 -0.651743 0.478655 -0.095025 -0.0660417 -0.0271257 -0.126554 0.989387
1305031471.892838 -0.653422 0.481543 -0.0955998 -0.0685548 -0.0233465 -0.119684 0.990167
1305031471.924928 -0.65462 0.485779 -0.0955063 -0.0713233 -0.0184672 -0.113629 0.990788
1305031471.957162 -0.657059 0.486693 -0.0956318 -0.0772436 -0.0123255 -0.111532 0.990678
1305031471.993177 -0.660612 0.489231 -0.0960248 -0.0761995 -0.00406695 -0.10859 0.991154
1305031472.024660 -0.663459 0.496022 -0.0954767 -0.0758014 0.00331336 -0.104659 0.99161
1305031472.058063 -0.667386 0.497886 -0.0952378 -0.0833002 0.00955103 -0.101647 0.991281
1305031472.092883 -0.671043 0.500743 -0.0954541 -0.0833525 0.0143689 -0.0981072 0.991575
1305031472.124760 -0.674177 0.507059 -0.094609 -0.0815529 0.0191185 -0.0925595 0.992178
1305031472.156982 -0.674177 0.507059 -0.094609 -0.0815529 0.0191185 -0.0925595 0.992178
1305031472.192890 -0.678475 0.506344 -0.0945414 -0.0836503 0.0204942 -0.0902372 0.992189
1305031472.224678 -0.682527 0.507817 -0.0946616 -0.079277 0.0220158 -0.0857763 0.992911
1305031472.256642 -0.685679 0.508198 -0.0947505 -0.077788 0.0237011 -0.0837227 0.993166
1305031472.293139 -0.689195 0.505792 -0.0957293 -0.0752978 0.0258026 -0.082533 0.993405
1305031472.324844 -0.691055 0.505806 -0.0970815 -0.0679169 0.027425 -0.0802 0.994084
1305031472.360912 -0.692214 0.506846 -0.097713 -0.0634822 0.0279864 -0.0790328 0.994455
1305031472.392956 -0.694435 0.505874 -0.0979867 -0.0643864 0.0280941 -0.0769841 0.994554
1305031472.424694 -0.696696 0.502679 -0.0982576 -0.0651914 0.0263683 -0.07542 0.994669
1305031472.460919 -0.697516 0.499577 -0.0983088 -0.0641259 0.0239492 -0.0753466 0.994805
1305031472.492972 -0.696708 0.497165 -0.0983117 -0.0630452 0.0235297 -0.077046 0.994754
1305031472.524781 -0.69675 0.493484 -0.0984207 -0.0645369 0.0256155 -0.0771684 0.994597
1305031472.561296 -0.697857 0.487551 -0.0993279 -0.0648555 0.0268849 -0.0754363 0.994676
1305031472.592968 -0.697467 0.484561 -0.100217 -0.059358 0.0251896 -0.0733775 0.995217
1305031472.624647 -0.696034 0.483622 -0.100511 -0.0560041 0.0239067 -0.0711478 0.995605
1305031472.660836 -0.694122 0.480074 -0.100106 -0.0565416 0.0226403 -0.0697969 0.9957
1305031472.693008 -0.693178 0.475881 -0.0996646 -0.0563139 0.02184 -0.0683264 0.995833
1305031472.724752 -0.69158 0.471939 -0.0992766 -0.0549747 0.0206022 -0.0676616 0.99598
1305031472.760654 -0.69001 0.468393 -0.0985865 -0.0528831 0.0196482 -0.068714 0.99604
1305031472.792775 -0.687928 0.465219 -0.0976968 -0.0513765 0.0197875 -0.0703134 0.996004
1305031472.824692 -0.686343 0.461609 -0.0968192 -0.0498186 0.0200181 -0.0721176 0.99595
1305031472.860936 -0.685293 0.45889 -0.0959026 -0.0476912 0.0201011 -0.0723632 0.996035
1305031472.892944 -0.685098 0.457849 -0.0947353 -0.0458832 0.0196425 -0.0703255 0.996275
1305031472.924814 -0.685569 0.456515 -0.0934133 -0.0464142 0.0186412 -0.0677005 0.996451
1305031472.961213 -0.684991 0.45403 -0.0921388 -0.047318 0.0180215 -0.0661327 0.996525
1305031472.992815 -0.683659 0.453504 -0.0908169 -0.0470327 0.0173614 -0.0650895 0.996619
1305031473.024564 -0.684216 0.452793 -0.0897738 -0.0481381 0.0165487 -0.0644373 0.996623
1305031473.060795 -0.684537 0.451925 -0.0886944 -0.0492078 0.0157581 -0.0646199 0.996571
1305031473.092012 -0.685326 0.450426 -0.088036 -0.0502388 0.0163669 -0.06593 0.996424
1305031473.124072 -0.684991 0.450078 -0.0875594 -0.0497464 0.0172994 -0.0681065 0.996287
1305031473.158420 -0.686549 0.448809 -0.0872592 -0.0502571 0.01845 -0.0687553 0.996196
1305031473.190828 -0.687495 0.447716 -0.0872691 -0.0497274 0.017989 -0.0686816 0.996236
