1305031453.374112 0 0 0 0 0 0 1
1305031453.404816 0.00464384 0.00440604 -0.00925308 -0.00130375 0.0061906 0.0104206 0.999926
1305031453.436941 0.00878927 0.0074627 -0.0192325 -0.000622888 0.0102156 0.0199897 0.999748
1305031453.473352 0.0134266 0.011233 -0.0303017 0.00260363 0.015656 0.0287106 0.999462
1305031453.505218 0.0177401 0.0153325 -0.042348 0.0064896 0.0218615 0.0377419 0.999027
1305031453.538301 0.0196075 0.018929 -0.0552977 0.0121656 0.0273979 0.0469078 0.998449
1305031453.574074 0.0210088 0.0237546 -0.0691213 0.0191774 0.0303849 0.0536436 0.997914
1305031453.605314 0.0209629 0.0294373 -0.0831149 0.0267019 0.0331688 0.0583404 0.997388
1305031453.636951 0.0194642 0.0357525 -0.0974273 0.033734 0.0348148 0.0624021 0.996873
1305031453.673185 0.0137696 0.042558 -0.110998 0.0418037 0.0329312 0.0623638 0.996634
1305031453.705487 0.00652995 0.0502819 -0.124351 0.0489071 0.0294113 0.0586436 0.996646
1305031453.736856 -0.00206165 0.0587901 -0.137098 0.0539515 0.0256394 0.0542297 0.99674
1305031453.773786 -0.0119598 0.0639113 -0.149817 0.0575313 0.019817 0.0482897 0.996978
1305031453.805041 -0.0232958 0.0718749 -0.161577 0.0625791 0.0123355 0.0405708 0.997139
1305031453.840352 -0.0337296 0.081025 -0.172523 0.0660453 0.00563326 0.0337727 0.997229
1305031453.869618 -0.045358 0.091185 -0.181473 0.0696083 -0.0034442 0.027516 0.997189
1305031453.905519 -0.0586492 0.102146 -0.188483 0.071646 -0.0173234 0.0214649 0.997049
1305031453.940012 -0.0739361 0.109912 -0.195076 0.0704671 -0.0335281 0.0186125 0.996777
1305031453.972592 -0.0876391 0.113421 -0.201644 0.0673704 -0.0486638 0.00985137 0.996492
1305031454.003179 -0.100879 0.115043 -0.207801 0.0645815 -0.0605137 -0.0022339 0.996073
1305031454.040976 -0.118075 0.116677 -0.213622 0.0658866 -0.0702278 -0.0116822 0.995284
1305031454.072690 -0.135547 0.121109 -0.217315 0.0674191 -0.0792486 -0.0223312 0.994322
1305031454.104619 -0.15435 0.12273 -0.220604 0.0671056 -0.0878961 -0.034317 0.993274
1305031454.141030 -0.171596 0.124439 -0.223577 0.0695899 -0.099038 -0.0476858 0.991501
1305031454.172688 -0.186763 0.130234 -0.224893 0.0713401 -0.111919 -0.060942 0.989278
1305031454.204626 -0.200975 0.133016 -0.225765 0.0694886 -0.126306 -0.074488 0.986747
1305031454.240858 -0.218444 0.130083 -0.228779 0.0689178 -0.139705 -0.0896865 0.983712
1305031454.273489 -0.231089 0.13259 -0.229626 0.0741941 -0.152023 -0.106542 0.979813
1305031454.304744 -0.241875 0.137077 -0.229818 0.0734181 -0.158982 -0.118953 0.977335
1305031454.340806 -0.257036 0.136467 -0.232893 0.0729242 -0.165696 -0.13228 0.97454
1305031454.372652 -0.268105 0.138742 -0.233957 0.0787301 -0.175916 -0.147841 0.97005
1305031454.401962 -0.277284 0.144359 -0.234741 0.0808532 -0.183324 -0.16034 0.966513
1305031454.437248 -0.289109 0.148423 -0.236902 0.0822357 -0.193696 -0.175462 0.961734
1305031454.470741 -0.297435 0.152678 -0.237167 0.0850261 -0.202811 -0.191759 0.956487
1305031454.503859 -0.305719 0.158304 -0.238597 0.0865887 -0.206342 -0.207824 0.952226
1305031454.538424 -0.311298 0.165287 -0.238943 0.0864755 -0.212326 -0.224565 0.947106
1305031454.570323 -0.316462 0.173287 -0.239603 0.084238 -0.217912 -0.238015 0.942745
1305031454.602019 -0.322017 0.179866 -0.240566 0.0814113 -0.227123 -0.254546 0.93648
1305031454.639284 -0.325549 0.186516 -0.240698 0.0797419 -0.239643 -0.268242 0.929655
1305031454.669573 -0.326029 0.195132 -0.239666 0.0749043 -0.252487 -0.275139 0.924628
1305031454.702030 -0.329272 0.203723 -0.242072 0.0684028 -0.264196 -0.280526 0.920232
1305031454.740764 -0.327739 0.209209 -0.241769 0.0642151 -0.277178 -0.28575 0.915093
1305031454.772865 -0.322216 0.215096 -0.23978 0.0595713 -0.285251 -0.283663 0.913575
1305031454.802574 -0.318097 0.222322 -0.239695 0.0553151 -0.288165 -0.276673 0.91507
1305031454.840500 -0.311733 0.232542 -0.238723 0.0524944 -0.290101 -0.2702 0.916557
1305031454.870269 -0.306684 0.240784 -0.238098 0.048097 -0.288116 -0.264087 0.919203
1305031454.901065 -0.302569 0.249783 -0.238536 0.0450612 -0.283463 -0.256915 0.922829
1305031454.940240 -0.30007 0.260747 -0.24005 0.0424839 -0.277619 -0.250082 0.926597
1305031454.973081 -0.300058 0.270145 -0.242807 0.0392858 -0.271673 -0.243522 0.93024
1305031455.010759 -0.302657 0.279854 -0.246786 0.0369978 -0.267664 -0.237341 0.93309
1305031455.040446 -0.304342 0.292692 -0.249825 0.0375953 -0.266354 -0.23357 0.934391
1305031455.074282 -0.308596 0.302428 -0.253453 0.0369609 -0.262711 -0.231449 0.935975
1305031455.110340 -0.314638 0.312384 -0.257851 0.0393594 -0.2583 -0.230756 0.937275
1305031455.142700 -0.320372 0.324851 -0.261812 0.0420454 -0.253336 -0.22957 0.938803
1305031455.172771 -0.328584 0.334596 -0.265659 0.0413153 -0.248401 -0.225892 0.941043
1305031455.210307 -0.338168 0.344378 -0.269626 0.0387286 -0.244013 -0.220185 0.94365
1305031455.240960 -0.347746 0.351754 -0.273155 0.0379244 -0.240255 -0.214786 0.945889
1305031455.273001 -0.355359 0.365017 -0.27533 0.0377638 -0.236087 -0.208726 0.948299
1305031455.310303 -0.366398 0.370295 -0.278729 0.0294053 -0.230027 -0.199804 0.951999
1305031455.342381 -0.377769 0.378228 -0.28251 0.0237167 -0.226901 -0.18894 0.95512
1305031455.374120 -0.377769 0.378228 -0.28251 0.0237167 -0.226901 -0.18894 0.95512
1305031455.409213 -0.38901 0.381475 -0.286255 0.0133641 -0.219631 -0.182416 0.958284
1305031455.442380 -0.38901 0.381475 -0.286255 0.0133641 -0.219631 -0.182416 0.958284
1305031455.473168 -0.38901 0.381475 -0.286255 0.0133641 -0.219631 -0.182416 0.958284
1305031455.509397 -0.38901 0.381475 -0.286255 0.0133641 -0.219631 -0.182416 0.958284
1305031455.540835 -0.404625 0.382289 -0.294757 0.00750951 -0.215428 -0.170054 0.96157
1305031455.572996 -0.42227 0.385707 -0.304829 0.00507293 -0.214183 -0.156577 0.964149
1305031455.608802 -0.439207 0.392189 -0.315032 0.00308565 -0.213815 -0.141745 0.966531
1305031455.641333 -0.457955 0.392247 -0.325864 -0.00253364 -0.21047 -0.128579 0.969104
1305031455.672887 -0.477091 0.390538 -0.337195 -0.0016554 -0.206678 -0.121633 0.970818
1305031455.707680 -0.494724 0.392831 -0.349082 0.00235726 -0.203438 -0.121914 0.971465
1305031455.742005 -0.51247 0.392279 -0.361396 0.0042902 -0.198458 -0.126134 0.97195
1305031455.773667 -0.52913 0.39084 -0.373919 0.00543472 -0.191707 -0.129405 0.972869
1305031455.809109 -0.546393 0.384037 -0.38697 0.00531137 -0.185084 -0.128865 0.974223
1305031455.838364 -0.56174 0.382971 -0.400579 0.00829755 -0.180712 -0.128183 0.975112
1305031455.872220 -0.575945 0.380522 -0.413557 0.00851654 -0.177668 -0.129177 0.975538
1305031455.908418 -0.589329 0.378054 -0.425642 0.00862266 -0.174021 -0.129455 0.976158
1305031455.939606 -0.603067 0.374711 -0.437091 0.00784088 -0.169139 -0.12989 0.976964
1305031455.973594 -0.61524 0.374007 -0.447678 0.00875632 -0.164535 -0.13207 0.97745
1305031456.008998 -0.626575 0.373783 -0.456831 0.0075348 -0.159077 -0.134565 0.978023
1305031456.041930 -0.637207 0.376912 -0.464486 0.00461465 -0.152316 -0.139096 0.978484
1305031456.073846 -0.650671 0.372671 -0.472054 -0.00478184 -0.145007 -0.146441 0.978522
1305031456.108963 -0.665047 0.365825 -0.478655 -0.0113241 -0.138905 -0.151666 0.978557
1305031456.140836 -0.678847 0.360853 -0.484537 -0.0131769 -0.133075 -0.153184 0.979108
1305031456.173198 -0.69148 0.353997 -0.489555 -0.0144889 -0.12642 -0.15386 0.979865
1305031456.208934 -0.704033 0.34717 -0.493293 -0.0101844 -0.117723 -0.151709 0.981337
1305031456.240996 -0.711352 0.351497 -0.496153 -0.00379958 -0.108721 -0.149159 0.982811
1305031456.277928 -0.723249 0.346515 -0.497329 -0.00447646 -0.0966575 -0.146631 0.984447
1305031456.310040 -0.735823 0.339713 -0.497396 -0.00224321 -0.0853407 -0.142224 0.986146
1305031456.341659 -0.746938 0.336667 -0.496664 0.00317298 -0.0746927 -0.135663 0.98793
1305031456.377115 -0.755711 0.341599 -0.494925 0.0101683 -0.0635006 -0.130782 0.989323
1305031456.409172 -0.770324 0.33488 -0.491452 0.0105736 -0.0496166 -0.126012 0.990731
1305031456.440717 -0.78452 0.336729 -0.486915 0.0184194 -0.0387441 -0.119093 0.991956
1305031456.476027 -0.796654 0.347178 -0.481127 0.0221369 -0.0334764 -0.112486 0.992842
1305031456.508911 -0.812647 0.349836 -0.473127 0.0166182 -0.0313459 -0.106107 0.993722
1305031456.541832 -0.829009 0.350554 -0.46416 0.0105086 -0.0305456 -0.100116 0.994451
1305031456.576087 -0.845078 0.345892 -0.454416 0.006224 -0.0279377 -0.094773 0.995087
1305031456.607930 -0.855526 0.355849 -0.444762 0.00918307 -0.0240721 -0.08886 0.995711
1305031456.640699 -0.867138 0.364817 -0.434411 -0.00057001 -0.0177649 -0.0831381 0.99638
1305031456.675835 -0.882839 0.354695 -0.423395 -0.0153137 -0.0103428 -0.0764167 0.996905
1305031456.709099 -0.897357 0.35562 -0.413093 -0.0141424 -0.00573971 -0.0660767 0.997698
1305031456.740863 -0.909954 0.365825 -0.403467 -0.0162014 -0.0044211 -0.05621 0.998278
1305031456.777218 -0.926857 0.359748 -0.392384 -0.024531 -0.00533298 -0.04731 0.998565
1305031456.808986 -0.94305 0.362899 -0.381522 -0.0200942 -0.0105782 -0.0389304 0.998984
1305031456.841050 -0.954768 0.37538 -0.371478 -0.0184732 -0.0128879 -0.0304145 0.999284
1305031456.878006 -0.968085 0.375812 -0.360092 -0.0253941 -0.0101027 -0.0230483 0.999361
1305031456.909883 -0.980611 0.372725 -0.349365 -0.0286876 -0.00609138 -0.0179172 0.999409
1305031456.942298 -0.992404 0.376707 -0.340013 -0.0238721 -0.000216675 -0.0120088 0.999643
1305031456.977139 -1.00326 0.387232 -0.332221 -0.0232511 0.00540814 -0.00764005 0.999686
1305031457.006193 -1.01729 0.386575 -0.324086 -0.0314401 0.011719 -0.00433189 0.999428
1305031457.042512 -1.03029 0.386543 -0.317843 -0.0339967 0.0169815 -0.000302662 0.999278
1305031457.076011 -1.04202 0.39284 -0.313851 -0.0363074 0.0222008 0.00465456 0.999083
1305031457.108053 -1.05496 0.391014 -0.311088 -0.0457265 0.0288048 0.00951925 0.998493
1305031457.142120 -1.06811 0.385243 -0.310038 -0.0505328 0.036174 0.0146969 0.997959
1305031457.177463 -1.0809 0.384336 -0.311714 -0.0492892 0.0436538 0.0213147 0.997602
1305031457.209336 -1.09345 0.386358 -0.315056 -0.0479742 0.0510038 0.0269902 0.99718
1305031457.240792 -1.1085 0.384162 -0.31881 -0.0515632 0.0589143 0.0335919 0.996364
1305031457.277247 -1.12388 0.374562 -0.322904 -0.0520454 0.0672056 0.0408061 0.995545
1305031457.309693 -1.13808 0.375054 -0.330222 -0.0438334 0.0755149 0.0462357 0.995107
1305031457.342954 -1.15258 0.378258 -0.338233 -0.0394886 0.0853984 0.0506317 0.994276
1305031457.376037 -1.16784 0.373527 -0.345502 -0.0399848 0.0968899 0.0564924 0.992886
1305031457.407980 -1.18283 0.367473 -0.353791 -0.0359257 0.1078 0.0645796 0.991422
1305031457.441357 -1.19903 0.36866 -0.363436 -0.0311848 0.115494 0.0719598 0.990207
1305031457.476577 -1.2155 0.364128 -0.372055 -0.030994 0.119292 0.0775728 0.989339
1305031457.508603 -1.23215 0.356115 -0.380244 -0.0306974 0.122504 0.0822332 0.988579
1305031457.543946 -1.2479 0.350086 -0.389083 -0.0270848 0.126822 0.0855558 0.987858
1305031457.576581 -1.26358 0.346955 -0.398009 -0.0227264 0.132208 0.0890589 0.986951
1305031457.607246 -1.27979 0.346108 -0.406295 -0.0188987 0.136617 0.0924739 0.986117
1305031457.643534 -1.29601 0.339321 -0.412503 -0.0181452 0.139804 0.0961881 0.985329
1305031457.675414 -1.31145 0.339999 -0.419298 -0.0142096 0.141972 0.0996613 0.984738
1305031457.707739 -1.32759 0.33523 -0.424445 -0.0186635 0.143303 0.102396 0.984191
1305031457.745071 -1.34304 0.320445 -0.427804 -0.022081 0.146173 0.103412 0.983591
1305031457.773518 -1.3589 0.309807 -0.432368 -0.0198987 0.149768 0.102552 0.983187
1305031457.807824 -1.37416 0.295152 -0.436638 -0.0139405 0.156082 0.102065 0.982358
1305031457.842853 -1.38916 0.294995 -0.443305 -0.00293971 0.164096 0.100953 0.981261
1305031457.875920 -1.40395 0.287662 -0.447546 0.000127859 0.172661 0.101076 0.979782
1305031457.906126 -1.41796 0.270846 -0.450336 0.00508892 0.180331 0.102028 0.978287
1305031457.942604 -1.43435 0.267327 -0.45254 0.0190543 0.185223 0.105262 0.976857
1305031457.976744 -1.45209 0.264651 -0.451775 0.0273469 0.188145 0.109564 0.975628
1305031458.009019 -1.46586 0.253077 -0.450101 0.031517 0.189929 0.110353 0.975067
1305031458.046303 -1.47851 0.243673 -0.447393 0.0398569 0.193854 0.109861 0.974044
1305031458.077315 -1.49545 0.24746 -0.441639 0.0502441 0.199815 0.110893 0.972241
1305031458.108896 -1.51101 0.24786 -0.43313 0.0519212 0.205218 0.112563 0.970834
1305031458.144808 -1.52463 0.238123 -0.422653 0.0497281 0.210015 0.113438 0.969821
1305031458.178039 -1.53981 0.230814 -0.410237 0.0513664 0.213616 0.11569 0.968682
1305031458.209384 -1.5591 0.232286 -0.394636 0.0534483 0.216195 0.120172 0.967451
1305031458.245729 -1.57495 0.224242 -0.378726 0.0461265 0.215757 0.121738 0.96773
1305031458.277447 -1.5851 0.200644 -0.365049 0.039839 0.213826 0.120672 0.968571
1305031458.308343 -1.6027 0.195075 -0.347933 0.0483509 0.212477 0.120199 0.968539
1305031458.343898 -1.6171 0.188647 -0.3316 0.0506311 0.208536 0.121732 0.969087
1305031458.376213 -1.62529 0.171767 -0.316672 0.0552163 0.204133 0.121726 0.969775
1305031458.407856 -1.63823 0.172314 -0.298862 0.0686187 0.203077 0.123139 0.968962
1305031458.443957 -1.64612 0.169369 -0.28217 0.0774413 0.20317 0.129669 0.967425
1305031458.476034 -1.64741 0.159775 -0.269782 0.0874564 0.207059 0.133989 0.965155
1305031458.508869 -1.65227 0.156527 -0.252093 0.108712 0.218359 0.13141 0.96085
1305031458.544401 -1.66585 0.177082 -0.224958 0.133271 0.231388 0.127315 0.955243
1305031458.576178 -1.67005 0.182956 -0.203326 0.14257 0.240896 0.124005 0.95198
1305031458.608421 -1.6764 0.186067 -0.178041 0.152823 0.248851 0.118799 0.949002
1305031458.643659 -1.68382 0.203958 -0.147225 0.160042 0.251529 0.114368 0.94765
1305031458.676991 -1.68694 0.204276 -0.122125 0.154421 0.248392 0.115844 0.949229
1305031458.707780 -1.68862 0.204562 -0.098578 0.148724 0.235565 0.110361 0.95405
1305031458.744924 -1.6837 0.199399 -0.0843208 0.144505 0.222233 0.101278 0.958892
1305031458.773802 -1.68415 0.201462 -0.0634269 0.149692 0.209261 0.089923 0.962141
1305031458.810621 -1.68259 0.210298 -0.0443119 0.149776 0.195019 0.078492 0.966113
1305031458.842919 -1.67645 0.207655 -0.0341911 0.142135 0.184815 0.074048 0.969617
1305031458.875889 -1.67476 0.197289 -0.0275857 0.139854 0.18089 0.0711649 0.970904
1305031458.910599 -1.6743 0.199937 -0.0179292 0.145509 0.182712 0.0625874 0.970323
1305031458.943997 -1.67916 0.204623 -0.0062639 0.146516 0.188418 0.0679662 0.968717
1305031458.976007 -1.68489 0.195688 0.00114375 0.138942 0.194091 0.0811329 0.967699
1305031459.012560 -1.69498 0.17425 0.00582348 0.13597 0.199745 0.0869766 0.966462
1305031459.044413 -1.7108 0.16523 0.0193098 0.146367 0.199165 0.0883352 0.964939
1305031459.073657 -1.72795 0.153021 0.0324029 0.154961 0.193118 0.0978123 0.963911
1305031459.112711 -1.75124 0.137799 0.0489763 0.166612 0.180443 0.107786 0.96336
1305031459.144497 -1.77258 0.126403 0.0664701 0.178248 0.158956 0.109256 0.964896
1305031459.176463 -1.78763 0.117437 0.0820807 0.186389 0.136928 0.109941 0.966655
1305031459.208791 -1.80061 0.112334 0.10009 0.192861 0.121412 0.114422 0.966939
1305031459.244159 -1.81076 0.109562 0.116347 0.196147 0.110626 0.122804 0.966544
1305031459.274941 -1.81866 0.112413 0.129664 0.196582 0.110164 0.130046 0.965561
1305031459.311921 -1.82339 0.116174 0.138472 0.195033 0.120714 0.143731 0.962669
1305031459.344169 -1.82772 0.117278 0.144679 0.194726 0.137969 0.16238 0.957434
1305031459.374084 -1.83357 0.12918 0.152458 0.20139 0.158775 0.18047 0.94956
1305031459.408831 -1.84045 0.15111 0.165056 0.203304 0.179819 0.201325 0.94117
1305031459.443181 -1.84533 0.15931 0.167722 0.194606 0.209152 0.240281 0.927712
1305031459.473401 -1.84941 0.172527 0.169836 0.196716 0.235373 0.273419 0.911671
1305031459.510267 -1.84941 0.172527 0.169836 0.196716 0.235373 0.273419 0.911671
1305031459.544431 -1.85833 0.177638 0.176661 0.187331 0.250778 0.303218 0.900043
1305031459.576817 -1.87037 0.181202 0.183655 0.185902 0.263049 0.3249 0.889205
1305031459.611939 -1.88555 0.184644 0.19305 0.186298 0.26958 0.342066 0.880688
1305031459.643453 -1.89787 0.18132 0.198388 0.182682 0.271755 0.352631 0.876601
1305031459.675678 -1.91156 0.180561 0.205332 0.182179 0.278959 0.353829 0.873955
1305031459.711531 -1.92665 0.17541 0.211771 0.176561 0.29026 0.359597 0.86906
1305031459.743425 -1.94008 0.163051 0.214228 0.170148 0.299015 0.36505 0.865089
1305031459.776577 -1.95471 0.150429 0.218343 0.169877 0.306518 0.363172 0.863304
1305031459.812562 -1.97099 0.139823 0.225181 0.17048 0.311305 0.360057 0.862777
1305031459.844736 -1.986 0.12958 0.231889 0.169304 0.312665 0.357632 0.863526
1305031459.877006 -1.99927 0.119537 0.239585 0.165554 0.312098 0.356632 0.86487
1305031459.911472 -2.00952 0.104544 0.244713 0.15982 0.308258 0.360161 0.865863
1305031459.943616 -2.01948 0.0905809 0.249385 0.158138 0.305535 0.363228 0.865856
1305031459.979430 -2.02999 0.0787532 0.255951 0.156831 0.304071 0.366248 0.865337
1305031460.011909 -2.03845 0.0641165 0.260376 0.152414 0.302756 0.371355 0.86441
1305031460.043717 -2.04617 0.0477407 0.264447 0.150117 0.302936 0.375692 0.862873
1305031460.079449 -2.05387 0.0341856 0.270877 0.150784 0.303316 0.377445 0.861858
1305031460.111951 -2.06175 0.0186962 0.278858 0.153386 0.299234 0.384102 0.859882
1305031460.144204 -2.06663 0.00272044 0.284763 0.158552 0.290067 0.393035 0.858047
1305031460.178730 -2.07359 -0.00878629 0.294942 0.165804 0.282796 0.399336 0.856193
1305031460.208637 -2.0755 -0.0180251 0.299635 0.165753 0.275898 0.405549 0.855533
1305031460.243467 -2.07241 -0.0302409 0.296867 0.163468 0.274214 0.410113 0.854337
1305031460.279164 -2.07355 -0.0408557 0.299668 0.164752 0.281428 0.410242 0.851679
1305031460.311712 -2.07402 -0.052185 0.302405 0.164111 0.289867 0.410034 0.849068
1305031460.342879 -2.07579 -0.0636704 0.307688 0.165032 0.298904 0.411231 0.845168
1305031460.377806 -2.07794 -0.0729332 0.314211 0.164208 0.308309 0.413777 0.840696
1305031460.409883 -2.07703 -0.085145 0.317406 0.16002 0.317919 0.418495 0.835574
1305031460.444036 -2.0768 -0.096119 0.321863 0.15856 0.327966 0.423267 0.829544
1305031460.479856 -2.07762 -0.105381 0.327973 0.156036 0.340486 0.42692 0.823081
1305031460.508966 -2.07784 -0.112767 0.33462 0.15037 0.353454 0.432659 0.815638
1305031460.544245 -2.07739 -0.123588 0.338027 0.143239 0.363288 0.443 0.807004
1305031460.579561 -2.07649 -0.134687 0.339849 0.136205 0.372297 0.448106 0.801277
1305031460.612190 -2.07717 -0.145804 0.345798 0.132167 0.381783 0.449658 0.796606
1305031460.644011 -2.07752 -0.156771 0.349884 0.128712 0.390082 0.451995 0.791814
1305031460.679350 -2.07944 -0.167083 0.357555 0.127102 0.398766 0.451879 0.787805
1305031460.711684 -2.08188 -0.176501 0.365681 0.124341 0.403683 0.4532 0.784977
1305031460.743767 -2.08247 -0.187829 0.372472 0.118804 0.406865 0.454061 0.783694
1305031460.779201 -2.0818 -0.200848 0.379231 0.114725 0.412555 0.453609 0.781585
1305031460.811318 -2.0826 -0.211068 0.387788 0.111894 0.417183 0.452769 0.780024
1305031460.843836 -2.08261 -0.222004 0.397247 0.106536 0.420478 0.451259 0.77988
1305031460.879093 -2.08084 -0.233638 0.405461 0.0988934 0.425122 0.449761 0.779235
1305031460.911313 -2.07762 -0.246203 0.413092 0.0907692 0.429976 0.448559 0.778252
1305031460.943375 -2.07422 -0.258097 0.420858 0.0848793 0.432039 0.449599 0.777173
1305031460.979083 -2.0678 -0.272671 0.42486 0.079765 0.4324 0.452698 0.775714
1305031461.011290 -2.06234 -0.285263 0.429694 0.0796436 0.435795 0.453132 0.77357
1305031461.043398 -2.05681 -0.29735 0.43512 0.0807916 0.437875 0.454468 0.77149
1305031461.079602 -2.05363 -0.305852 0.442984 0.0841248 0.439814 0.454113 0.770239
1305031461.111961 -2.04899 -0.314758 0.450226 0.0820077 0.438453 0.454058 0.771275
1305031461.144098 -2.04103 -0.327145 0.453748 0.0783674 0.43854 0.453187 0.772116
1305031461.179883 -2.03433 -0.338872 0.458897 0.0793712 0.440473 0.451673 0.7718
1305031461.211180 -2.03027 -0.345329 0.46522 0.0813157 0.442345 0.447285 0.773081
1305031461.246864 -2.02534 -0.352314 0.470462 0.0812741 0.443965 0.445153 0.773388
1305031461.278888 -2.01979 -0.359442 0.474517 0.0817637 0.444842 0.441518 0.774914
1305031461.311240 -2.01524 -0.364836 0.481042 0.0829886 0.446725 0.435553 0.777074
1305031461.346875 -2.01021 -0.368147 0.488496 0.083282 0.450697 0.430295 0.777678
1305031461.378850 -2.00505 -0.369125 0.496917 0.0787341 0.454532 0.427513 0.777454
1305031461.411130 -1.99489 -0.376661 0.498901 0.0705166 0.453404 0.429881 0.777595
1305031461.447015 -1.9876 -0.380578 0.502891 0.0692881 0.454394 0.428488 0.777897
1305031461.478901 -1.98178 -0.381687 0.505676 0.0649842 0.453942 0.430812 0.777248
1305031461.512120 -1.9716 -0.389969 0.501639 0.0605107 0.452491 0.433608 0.7769
1305031461.547338 -1.96829 -0.389449 0.501777 0.0648748 0.45444 0.430593 0.777088
1305031461.578847 -1.96417 -0.389796 0.499039 0.0624851 0.457001 0.427736 0.77736
1305031461.609662 -1.96129 -0.386676 0.497167 0.0621757 0.464081 0.423889 0.775294
1305031461.646970 -1.95842 -0.381831 0.494666 0.060121 0.46913 0.423991 0.772357
1305031461.676203 -1.95506 -0.375881 0.491784 0.0587871 0.472555 0.424272 0.770213
1305031461.711212 -1.95299 -0.367213 0.489127 0.0589557 0.473496 0.429191 0.76689
1305031461.746919 -1.94938 -0.361128 0.483355 0.0571847 0.472573 0.434934 0.764354
1305031461.778616 -1.94949 -0.350688 0.481115 0.0580357 0.47446 0.437041 0.761916
1305031461.811319 -1.94887 -0.340042 0.47683 0.0555301 0.475711 0.441514 0.758737
1305031461.847090 -1.94862 -0.32788 0.471782 0.0555568 0.478684 0.445581 0.754475
1305031461.879162 -1.95171 -0.310618 0.470353 0.0580428 0.48163 0.451096 0.749117
1305031461.911121 -1.95489 -0.292814 0.469532 0.0585965 0.481176 0.461794 0.742821
1305031461.947264 -1.95517 -0.281078 0.466233 0.054408 0.478105 0.471704 0.738885
1305031461.979223 -1.95735 -0.266943 0.463534 0.0512444 0.481531 0.473866 0.735495
1305031462.011791 -1.96392 -0.247791 0.46663 0.0485882 0.4866 0.479177 0.728868
1305031462.047463 -1.96637 -0.234051 0.465342 0.0448124 0.482619 0.49172 0.723383
1305031462.079285 -1.97018 -0.221061 0.465026 0.046146 0.475611 0.503669 0.71971
1305031462.112081 -1.97385 -0.209942 0.463638 0.0461506 0.468534 0.513955 0.717074
1305031462.147634 -1.97783 -0.200369 0.462849 0.0443359 0.464238 0.522564 0.713753
1305031462.179358 -1.98224 -0.191741 0.461513 0.04191 0.461038 0.52835 0.711712
1305031462.212836 -1.98786 -0.183024 0.462187 0.038255 0.460152 0.528051 0.712712
1305031462.248986 -1.99448 -0.174094 0.464275 0.0328339 0.460357 0.528399 0.712592
1305031462.280774 -2.00066 -0.165966 0.466653 0.026666 0.459207 0.527169 0.714501
1305031462.311931 -2.00733 -0.157816 0.470096 0.0205565 0.457226 0.523909 0.71836
1305031462.347816 -2.01389 -0.149786 0.472599 0.0128338 0.455532 0.51958 0.722746
1305031462.379950 -2.02212 -0.139838 0.476777 0.00573184 0.454883 0.513954 0.727255
1305031462.413016 -2.02917 -0.131658 0.481665 -0.00249908 0.450558 0.511744 0.731511
1305031462.448295 -2.03631 -0.123831 0.484779 -0.0109935 0.444299 0.508944 0.737193
1305031462.480843 -2.04571 -0.11495 0.489056 -0.0178369 0.437706 0.505406 0.743411
1305031462.517041 -2.05268 -0.108306 0.490247 -0.0283911 0.429686 0.503453 0.749066
1305031462.548959 -2.05951 -0.102639 0.491017 -0.033442 0.422263 0.501863 0.754128
1305031462.581088 -2.05951 -0.102639 0.491017 -0.033442 0.422263 0.501863 0.754128
1305031462.617123 -2.06759 -0.0959875 0.487842 -0.0378552 0.418547 0.493062 0.761758
1305031462.648708 -2.07507 -0.0905523 0.484615 -0.0412106 0.416985 0.485076 0.767546
1305031462.680788 -2.08163 -0.0855473 0.479544 -0.0433339 0.415918 0.475425 0.774019
1305031462.716812 -2.09141 -0.0789876 0.476387 -0.0415806 0.415349 0.46635 0.779919
1305031462.748732 -2.10059 -0.0714913 0.472032 -0.0417149 0.410867 0.457513 0.787483
1305031462.780885 -2.1085 -0.0622344 0.465265 -0.0429935 0.404741 0.447804 0.796121
1305031462.816821 -2.11635 -0.0513681 0.45708 -0.043736 0.399542 0.439652 0.803218
1305031462.848525 -2.1246 -0.0388538 0.448202 -0.0446906 0.394147 0.434362 0.808691
1305031462.880471 -2.12724 -0.0287489 0.436252 -0.048473 0.388761 0.431031 0.812851
1305031462.916800 -2.12724 -0.0287489 0.436252 -0.048473 0.388761 0.431031 0.812851
1305031462.947939 -2.13059 -0.0171089 0.422877 -0.0477219 0.386495 0.427925 0.815613
1305031462.979943 -2.13177 -0.00790325 0.409167 -0.0464237 0.382596 0.425739 0.818665
1305031463.016121 -2.1314 -0.000630133 0.393787 -0.0434397 0.378398 0.422038 0.822686
1305031463.050783 -2.1314 -0.000630133 0.393787 -0.0434397 0.378398 0.422038 0.822686
1305031463.076870 -2.13804 0.0135898 0.379546 -0.0377321 0.373946 0.412204 0.829957
1305031463.116806 -2.13804 0.0135898 0.379546 -0.0377321 0.373946 0.412204 0.829957
1305031463.148565 -2.13833 0.0207123 0.36382 -0.0359054 0.372465 0.402617 0.835392
1305031463.180505 -2.14241 0.0341073 0.349223 -0.0310891 0.37167 0.39149 0.841208
1305031463.217123 -2.14241 0.0341073 0.349223 -0.0310891 0.37167 0.39149 0.841208
1305031463.248719 -2.14241 0.0341073 0.349223 -0.0310891 0.37167 0.39149 0.841208
1305031463.278737 -2.14241 0.0341073 0.349223 -0.0310891 0.37167 0.39149 0.841208
1305031463.317110 -2.14349 0.0497454 0.336645 -0.0274245 0.370815 0.383737 0.845275
1305031463.348740 -2.14349 0.0497454 0.336645 -0.0274245 0.370815 0.383737 0.845275
1305031463.380514 -2.13919 0.0588864 0.32413 -0.0214686 0.366907 0.379569 0.849027
1305031463.416326 -2.13765 0.0748255 0.311593 -0.0158478 0.362738 0.373794 0.853492
1305031463.444773 -2.13189 0.0850357 0.299092 -0.0161032 0.359357 0.37039 0.856396
1305031463.480415 -2.12632 0.0969599 0.286298 -0.0153583 0.358318 0.367151 0.858238
1305031463.516994 -2.11931 0.106576 0.273219 -0.016706 0.359356 0.365818 0.858348
1305031463.548505 -2.11001 0.113674 0.258135 -0.0167812 0.362242 0.364137 0.857848
1305031463.580684 -2.10547 0.123568 0.245848 -0.0123266 0.364768 0.364232 0.856813
1305031463.616671 -2.10547 0.123568 0.245848 -0.0123266 0.364768 0.364232 0.856813
1305031463.646147 -2.09287 0.124406 0.227045 -0.0131029 0.362004 0.363436 0.85831
1305031463.683908 -2.08467 0.131566 0.207784 -0.00549307 0.362995 0.359166 0.85977
1305031463.716110 -2.07848 0.142251 0.188128 -0.00222103 0.361222 0.354722 0.862373
1305031463.747849 -2.06442 0.141288 0.165725 -0.00567032 0.359012 0.352888 0.86403
1305031463.783912 -2.05092 0.140286 0.141809 -0.00304969 0.360983 0.347071 0.865577
1305031463.815883 -2.05092 0.140286 0.141809 -0.00304969 0.360983 0.347071 0.865577
1305031463.848094 -2.03923 0.139709 0.118495 -0.0059025 0.360651 0.33766 0.869414
1305031463.883817 -2.02721 0.135784 0.0951711 -0.00663745 0.362208 0.328142 0.872402
1305031463.917433 -2.01885 0.138545 0.0718286 -0.00446493 0.362814 0.317995 0.875914
1305031463.944435 -2.00989 0.136505 0.0505471 -0.00460079 0.360219 0.312744 0.87887
1305031463.983748 -2 0.130116 0.0295535 -0.00414846 0.356332 0.307601 0.882265
1305031464.015867 -1.99286 0.127542 0.0079526 -0.0014486 0.353595 0.299627 0.886111
1305031464.047778 -1.98694 0.125823 -0.0127731 -0.00134358 0.351107 0.291242 0.889888
1305031464.083152 -1.97898 0.116943 -0.0326992 -0.00289915 0.351292 0.28303 0.892457
1305031464.115837 -1.97439 0.114019 -0.0533084 -0.000337135 0.352759 0.273272 0.894921
1305031464.147663 -1.97047 0.109307 -0.0718087 0.00244611 0.350928 0.269323 0.896832
1305031464.183566 -1.96509 0.0993082 -0.0890892 0.00775177 0.346397 0.26797 0.898967
1305031464.212447 -1.96158 0.0934541 -0.106267 0.0184492 0.339651 0.263237 0.902775
1305031464.247602 -1.95971 0.0950487 -0.121816 0.0300644 0.32989 0.258592 0.907413
1305031464.283694 -1.9582 0.0966838 -0.135061 0.0378345 0.31602 0.25579 0.912837
1305031464.315699 -1.9537 0.0952914 -0.149421 0.0407641 0.300052 0.250462 0.919552
1305031464.347553 -1.94427 0.0939509 -0.167272 0.0421413 0.286557 0.243698 0.925592
1305031464.383465 -1.93404 0.0919187 -0.186184 0.0452935 0.276661 0.236482 0.930314
1305031464.415539 -1.92501 0.0949487 -0.205379 0.0490627 0.271535 0.226342 0.934147
1305031464.444269 -1.91582 0.0947295 -0.224111 0.0485624 0.270065 0.216407 0.93695
1305031464.487561 -1.90697 0.0918488 -0.242557 0.0497831 0.267275 0.208796 0.939409
1305031464.513688 -1.89695 0.0921561 -0.264181 0.0506248 0.26446 0.201515 0.941748
1305031464.548007 -1.89003 0.0927029 -0.283871 0.0502483 0.26416 0.193388 0.943555
1305031464.584260 -1.87961 0.0860302 -0.30735 0.0447069 0.261833 0.181847 0.946772
1305031464.615688 -1.86424 0.0759233 -0.336094 0.0444121 0.264984 0.169996 0.94811
1305031464.648851 -1.85586 0.0729829 -0.360282 0.0520284 0.276858 0.159203 0.946202
1305031464.684318 -1.84674 0.0672977 -0.382365 0.057944 0.288191 0.144376 0.944851
1305031464.716305 -1.83807 0.0503273 -0.400428 0.0662659 0.299194 0.127273 0.943342
1305031464.748588 -1.83579 0.0463554 -0.411561 0.080957 0.3061 0.108654 0.942307
1305031464.784268 -1.83321 0.0495213 -0.41896 0.0902181 0.306188 0.0885756 0.943538
1305031464.816195 -1.82711 0.0364567 -0.423733 0.0941696 0.301224 0.0723455 0.94613
1305031464.848283 -1.82329 0.0325018 -0.4236 0.103328 0.289524 0.057802 0.94982
1305031464.884177 -1.81753 0.0369858 -0.420567 0.107597 0.275485 0.0420027 0.954341
1305031464.916391 -1.80445 0.0318252 -0.420742 0.101492 0.260769 0.0222948 0.959793
1305031464.952471 -1.78421 0.0166271 -0.424994 0.094604 0.248585 0.00153292 0.963978
1305031464.984257 -1.7653 0.00692873 -0.426456 0.0946878 0.242902 -0.0174998 0.96526
1305031465.015390 -1.74725 0.0110322 -0.423628 0.0983598 0.240853 -0.0385236 0.964796
1305031465.048430 -1.73329 0.00977232 -0.416529 0.0991286 0.239901 -0.0593829 0.963895
1305031465.083338 -1.7247 0.0261752 -0.399864 0.104147 0.234305 -0.076313 0.963551
1305031465.115475 -1.7061 0.0530485 -0.384169 0.0974515 0.221303 -0.0915279 0.965997
1305031465.151558 -1.68986 0.0602347 -0.367916 0.0780855 0.209553 -0.102093 0.969313
1305031465.183558 -1.67277 0.0648144 -0.352562 0.0616592 0.198322 -0.107542 0.972266
1305031465.215832 -1.65248 0.073512 -0.339259 0.0499257 0.187347 -0.113083 0.974485
1305031465.251788 -1.63096 0.0875158 -0.327351 0.0390911 0.177295 -0.116116 0.976502
1305031465.283737 -1.61005 0.0912452 -0.316656 0.0295092 0.167035 -0.112038 0.97912
1305031465.315985 -1.58696 0.10726 -0.308525 0.028548 0.154947 -0.0999804 0.982436
1305031465.351729 -1.56663 0.115936 -0.300392 0.0235549 0.140417 -0.0860127 0.986068
1305031465.383701 -1.54642 0.119494 -0.294326 0.0215745 0.123246 -0.0735639 0.989411
1305031465.416543 -1.52231 0.127484 -0.292502 0.0243996 0.105087 -0.0639521 0.992105
1305031465.452401 -1.49728 0.138882 -0.29358 0.0287069 0.0904288 -0.0543214 0.994006
1305031465.483803 -1.47752 0.156993 -0.296302 0.033777 0.079025 -0.0428124 0.99538
1305031465.516043 -1.45377 0.170729 -0.300415 0.0323283 0.0673738 -0.0354528 0.996574
1305031465.551838 -1.43358 0.173501 -0.30414 0.03145 0.0574169 -0.0312812 0.997364
1305031465.583570 -1.40859 0.187293 -0.312002 0.0389178 0.0471162 -0.0270696 0.997764
1305031465.615685 -1.38439 0.204058 -0.319847 0.0457815 0.0408457 -0.0199502 0.997917
1305031465.651645 -1.36458 0.220617 -0.326744 0.0522761 0.0342271 -0.0098363 0.997997
1305031465.684759 -1.34246 0.237129 -0.334639 0.0585736 0.0229958 -0.00215819 0.998016
1305031465.716279 -1.31618 0.254231 -0.34306 0.0654866 0.0143507 0.00242007 0.997747
1305031465.753153 -1.29383 0.273368 -0.350016 0.0745846 0.00920545 0.0112391 0.997109
1305031465.784387 -1.27086 0.296462 -0.356628 0.0835592 0.00321675 0.0187114 0.996322
1305031465.816591 -1.2486 0.314489 -0.362063 0.0902373 -0.000697441 0.0246905 0.995614
1305031465.852860 -1.22697 0.332247 -0.367789 0.100732 -0.00461468 0.0302976 0.994441
1305031465.884370 -1.20296 0.364084 -0.372899 0.113015 -0.00724101 0.0323869 0.993039
1305031465.912828 -1.17931 0.38549 -0.377141 0.116499 -0.00322081 0.0348425 0.992574
1305031465.952840 -1.1551 0.402092 -0.382118 0.123692 0.00215811 0.035986 0.991666
1305031465.984183 -1.13208 0.427134 -0.386573 0.135219 0.00772117 0.0335993 0.990216
1305031466.016599 -1.11305 0.45106 -0.3901 0.142899 0.0112834 0.031324 0.989177
1305031466.052655 -1.09317 0.479972 -0.393062 0.149875 0.0109362 0.0304052 0.988177
1305031466.083913 -1.07663 0.504304 -0.396308 0.148422 0.010784 0.0325236 0.98833
1305031466.116400 -1.06304 0.524038 -0.400964 0.144526 0.00778674 0.0334528 0.988905
1305031466.152540 -1.04943 0.541821 -0.408114 0.139104 0.00257384 0.0345606 0.989671
1305031466.184186 -1.03765 0.560351 -0.416588 0.134599 -0.00373317 0.0372445 0.990193
1305031466.220477 -1.02652 0.578974 -0.426178 0.126981 -0.0127763 0.0367642 0.991141
1305031466.252491 -1.01361 0.587587 -0.439555 0.115528 -0.0202579 0.0313265 0.992603
1305031466.284389 -0.998959 0.594575 -0.454549 0.113471 -0.0203705 0.0223586 0.993081
1305031466.320055 -0.983173 0.60822 -0.469066 0.115647 -0.0140071 0.0105418 0.993136
1305031466.352082 -0.965196 0.623969 -0.482744 0.115491 -0.00615901 0.0016953 0.993288
1305031466.384479 -0.952068 0.630251 -0.497603 0.108982 0.00122608 -0.00196044 0.994041
1305031466.420844 -0.939763 0.630471 -0.513086 0.108624 0.0031738 -0.0049672 0.994065
1305031466.452369 -0.924285 0.646913 -0.525148 0.115651 -0.000984888 -0.00985372 0.993241
1305031466.483315 -0.907577 0.660376 -0.535253 0.114972 -0.00674771 -0.013529 0.993254
1305031466.519548 -0.887475 0.668536 -0.544142 0.111138 -0.0106825 -0.0142735 0.993645
1305031466.552219 -0.86456 0.676675 -0.552145 0.110221 -0.0094393 -0.0152221 0.993746
1305031466.584438 -0.84356 0.692642 -0.557993 0.109014 -0.00847847 -0.0180243 0.993841
1305031466.620424 -0.821957 0.700894 -0.563334 0.100184 -0.00925799 -0.0209777 0.994705
1305031466.648654 -0.801953 0.695674 -0.570677 0.0944819 -0.00624085 -0.0229255 0.995243
1305031466.684412 -0.781461 0.70633 -0.577222 0.101234 -0.00532097 -0.0296112 0.994408
1305031466.719744 -0.761501 0.721734 -0.581305 0.101489 -0.00772538 -0.0384517 0.994063
1305031466.748734 -0.741382 0.721291 -0.586874 0.0942809 -0.00952458 -0.0471113 0.994385
1305031466.784300 -0.724773 0.719299 -0.594433 0.0961271 -0.00812611 -0.0539891 0.993871
1305031466.819502 -0.706545 0.733554 -0.599403 0.102978 -0.0112153 -0.0599945 0.992809
1305031466.851527 -0.69009 0.739537 -0.604649 0.0996474 -0.0159316 -0.0625127 0.992929
1305031466.883430 -0.678088 0.736092 -0.611849 0.0969098 -0.0219463 -0.0607997 0.993192
1305031466.919411 -0.662598 0.74174 -0.616787 0.100725 -0.034329 -0.0625644 0.992352
1305031466.952451 -0.64688 0.744301 -0.622633 0.100514 -0.0478885 -0.0650145 0.991654
1305031466.984027 -0.625781 0.745451 -0.627837 0.101254 -0.0582262 -0.0673501 0.990869
1305031467.020424 -0.607018 0.747778 -0.632716 0.101894 -0.0636779 -0.0712281 0.990197
1305031467.052391 -0.590571 0.749752 -0.637572 0.102211 -0.067911 -0.0757918 0.989544
1305031467.084130 -0.571642 0.754461 -0.641126 0.102814 -0.0710775 -0.0795249 0.988966
1305031467.120528 -0.556899 0.756094 -0.64537 0.100361 -0.0721588 -0.0858181 0.988613
1305031467.152363 -0.5439 0.755714 -0.649834 0.100234 -0.0742734 -0.096182 0.987515
1305031467.184216 -0.530558 0.757416 -0.653848 0.101544 -0.0772702 -0.103641 0.986396
1305031467.220466 -0.518218 0.759814 -0.657834 0.10246 -0.0820566 -0.108231 0.985421
1305031467.252275 -0.504687 0.760904 -0.66174 0.102969 -0.0884028 -0.113851 0.984185
1305031467.284258 -0.490002 0.761868 -0.665785 0.104616 -0.0937784 -0.119314 0.982866
1305031467.318028 -0.475679 0.764232 -0.670144 0.106561 -0.0991319 -0.126396 0.981245
1305031467.349355 -0.461313 0.769064 -0.674089 0.107913 -0.104915 -0.131043 0.979885
1305031467.383844 -0.446072 0.776125 -0.677549 0.105488 -0.111802 -0.133732 0.979024
1305031467.420160 -0.432498 0.776297 -0.682721 0.0995494 -0.11857 -0.138575 0.978176
1305031467.452057 -0.419081 0.774334 -0.688755 0.0972125 -0.124101 -0.141991 0.977234
1305031467.484357 -0.403293 0.779881 -0.693159 0.0978167 -0.131397 -0.144846 0.9758
1305031467.520535 -0.385523 0.786511 -0.695714 0.0944624 -0.138597 -0.150996 0.974201
1305031467.552164 -0.369808 0.782833 -0.699879 0.0889782 -0.141491 -0.157597 0.973255
1305031467.584354 -0.355951 0.780885 -0.704118 0.0887266 -0.142473 -0.159295 0.972859
1305031467.618680 -0.343536 0.779821 -0.707117 0.0881879 -0.144633 -0.158094 0.972785
1305031467.651977 -0.333392 0.769093 -0.71023 0.088251 -0.14944 -0.155824 0.972419
1305031467.686044 -0.318389 0.766416 -0.709681 0.0951165 -0.155537 -0.153744 0.971146
1305031467.718326 -0.302142 0.763099 -0.705941 0.0987313 -0.16001 -0.157482 0.969458
1305031467.752580 -0.292232 0.751976 -0.703259 0.101812 -0.161841 -0.162006 0.968089
1305031467.788562 -0.281772 0.745607 -0.698017 0.107928 -0.164432 -0.164813 0.966514
1305031467.820454 -0.271806 0.737096 -0.690955 0.111297 -0.167368 -0.167473 0.96517
1305031467.852678 -0.265892 0.72266 -0.683915 0.115238 -0.170269 -0.167517 0.964192
1305031467.888472 -0.257063 0.713667 -0.673745 0.122425 -0.176413 -0.165077 0.962622
1305031467.920800 -0.246266 0.70648 -0.661018 0.127253 -0.185262 -0.166548 0.960076
1305031467.952485 -0.240749 0.691245 -0.649641 0.129346 -0.19207 -0.169402 0.957957
1305031467.988523 -0.230889 0.679338 -0.636402 0.135745 -0.197042 -0.171931 0.955609
1305031468.020491 -0.217317 0.672998 -0.619636 0.137941 -0.200436 -0.174906 0.954047
1305031468.052668 -0.215703 0.65333 -0.608241 0.135353 -0.2006 -0.177799 0.953848
1305031468.088379 -0.209573 0.639549 -0.594665 0.140113 -0.20378 -0.180662 0.951947
1305031468.120522 -0.199239 0.627702 -0.57938 0.140494 -0.208233 -0.182285 0.950617
1305031468.152356 -0.19267 0.608116 -0.566287 0.13845 -0.210981 -0.184435 0.949896
1305031468.188327 -0.184331 0.593195 -0.553214 0.139489 -0.213332 -0.188086 0.948502
1305031468.220648 -0.176949 0.575281 -0.541563 0.137116 -0.213981 -0.190925 0.948135
1305031468.252517 -0.169423 0.554418 -0.531477 0.134312 -0.213765 -0.19012 0.948746
1305031468.288361 -0.159287 0.534893 -0.520809 0.132981 -0.213246 -0.189491 0.949176
1305031468.320522 -0.153137 0.511772 -0.51355 0.130221 -0.211346 -0.189555 0.949971
1305031468.352594 -0.146292 0.48637 -0.507522 0.130338 -0.209629 -0.186735 0.950893
1305031468.384700 -0.135218 0.471938 -0.499326 0.132602 -0.209136 -0.183566 0.951306
1305031468.420595 -0.128407 0.453188 -0.493535 0.127947 -0.208945 -0.184268 0.951849
1305031468.452605 -0.125643 0.426948 -0.490606 0.122209 -0.209076 -0.18361 0.952701
1305031468.488646 -0.120136 0.408555 -0.486571 0.120218 -0.20971 -0.181978 0.953128
1305031468.520786 -0.116498 0.387768 -0.483666 0.116539 -0.208063 -0.184598 0.953442
1305031468.552701 -0.119184 0.362698 -0.484208 0.116353 -0.205752 -0.191584 0.952588
1305031468.588614 -0.121734 0.343761 -0.484328 0.121341 -0.205361 -0.199599 0.950402
1305031468.620590 -0.121367 0.329755 -0.482003 0.120299 -0.206535 -0.203745 0.9494
1305031468.656644 -0.127806 0.307077 -0.482403 0.112412 -0.207172 -0.204869 0.949985
1305031468.688643 -0.135249 0.285213 -0.483635 0.111688 -0.210626 -0.207075 0.948832
1305031468.720560 -0.142339 0.266511 -0.484042 0.114867 -0.215913 -0.209953 0.946629
1305031468.756725 -0.147121 0.250529 -0.482545 0.11697 -0.221505 -0.2107 0.944912
1305031468.788562 -0.152105 0.234177 -0.481479 0.117798 -0.224923 -0.212579 0.94358
1305031468.817997 -0.161124 0.215396 -0.482368 0.122472 -0.225421 -0.218632 0.941481
1305031468.854887 -0.164814 0.203619 -0.480714 0.129138 -0.227137 -0.224362 0.938826
1305031468.889220 -0.166221 0.19351 -0.477091 0.129373 -0.225453 -0.228564 0.938186
1305031468.920539 -0.170193 0.180451 -0.474778 0.125775 -0.220105 -0.229341 0.939754
1305031468.956482 -0.172835 0.172105 -0.471653 0.121135 -0.214715 -0.225217 0.942603
1305031468.986011 -0.173626 0.172001 -0.465825 0.114903 -0.210885 -0.224348 0.944454
1305031469.020731 -0.17561 0.168723 -0.458004 0.098474 -0.208227 -0.229847 0.945576
1305031469.056318 -0.183995 0.157951 -0.4537 0.0796245 -0.203309 -0.235257 0.94709
1305031469.088069 -0.189843 0.152635 -0.447347 0.067927 -0.201451 -0.242376 0.946603
1305031469.119984 -0.190648 0.149381 -0.437054 0.0571673 -0.198663 -0.253662 0.944945
1305031469.155046 -0.19437 0.141059 -0.428071 0.0448011 -0.189633 -0.262778 0.944976
1305031469.184648 -0.197514 0.133883 -0.418957 0.0348722 -0.179781 -0.269304 0.945483
1305031469.219541 -0.202313 0.126694 -0.41023 0.0270387 -0.170089 -0.272971 0.946481
1305031469.256002 -0.205673 0.123675 -0.400046 0.0225418 -0.165562 -0.275813 0.946577
1305031469.288263 -0.208517 0.120987 -0.388691 0.0172973 -0.16185 -0.279193 0.946338
1305031469.319772 -0.211253 0.119214 -0.376415 0.0123358 -0.157347 -0.28112 0.946605
1305031469.356116 -0.212833 0.122329 -0.363755 0.00754337 -0.154308 -0.283225 0.946528
1305031469.388556 -0.21597 0.12094 -0.351598 0.00191641 -0.145736 -0.28814 0.946432
1305031469.420278 -0.218504 0.121968 -0.339462 0.00199874 -0.133064 -0.293061 0.946787
1305031469.456563 -0.219089 0.126721 -0.326799 0.00305156 -0.121906 -0.299162 0.946378
1305031469.488520 -0.221092 0.129792 -0.313137 0.00235551 -0.113306 -0.305459 0.945437
1305031469.520417 -0.223256 0.134626 -0.299275 0.00100565 -0.110283 -0.307609 0.9451
1305031469.556139 -0.223391 0.142456 -0.285182 -0.00288478 -0.111151 -0.307533 0.945019
1305031469.588500 -0.22401 0.150713 -0.270558 -0.00901441 -0.111462 -0.307456 0.944969
1305031469.620563 -0.222998 0.161092 -0.255539 -0.016095 -0.111724 -0.306406 0.945185
1305031469.656279 -0.224698 0.16953 -0.241364 -0.0245767 -0.108644 -0.305194 0.945753
1305031469.687925 -0.226325 0.178744 -0.227667 -0.0287542 -0.104492 -0.303602 0.946615
1305031469.718943 -0.227195 0.189465 -0.213594 -0.0325678 -0.100817 -0.302018 0.947397
1305031469.756754 -0.22867 0.200726 -0.200088 -0.0368863 -0.0961155 -0.299779 0.948438
1305031469.784733 -0.231389 0.213762 -0.187182 -0.0423621 -0.0923986 -0.296335 0.94966
1305031469.820544 -0.235902 0.226444 -0.175031 -0.0481461 -0.091397 -0.293275 0.950431
1305031469.854359 -0.240858 0.241668 -0.163789 -0.0526648 -0.0922471 -0.290426 0.950983
1305031469.885343 -0.247615 0.256455 -0.153562 -0.058744 -0.092825 -0.287507 0.951458
1305031469.921773 -0.254779 0.271354 -0.143945 -0.0629537 -0.0931866 -0.284622 0.952021
1305031469.953180 -0.263284 0.285938 -0.134998 -0.0659595 -0.0948126 -0.281842 0.952484
1305031469.985327 -0.273163 0.300684 -0.127438 -0.067737 -0.0965886 -0.280137 0.952683
1305031470.024714 -0.283498 0.315698 -0.1208 -0.0694022 -0.0974388 -0.279213 0.952748
1305031470.057400 -0.295223 0.330952 -0.11565 -0.0716536 -0.0979318 -0.279314 0.952501
1305031470.088874 -0.306694 0.345726 -0.111716 -0.073245 -0.0971564 -0.279908 0.952285
1305031470.124820 -0.318002 0.360456 -0.108765 -0.07471 -0.0960552 -0.278345 0.952741
1305031470.156744 -0.329285 0.375223 -0.10633 -0.0785808 -0.0953218 -0.276636 0.953001
1305031470.188876 -0.342445 0.388601 -0.105047 -0.0820242 -0.095226 -0.274778 0.953258
1305031470.224776 -0.353381 0.402094 -0.104091 -0.0840861 -0.0962801 -0.272207 0.95371
1305031470.253015 -0.364754 0.416017 -0.103436 -0.087601 -0.0957374 -0.269017 0.954353
1305031470.287867 -0.37632 0.429546 -0.102869 -0.0915412 -0.0947578 -0.266559 0.954771
1305031470.324266 -0.387495 0.443096 -0.102169 -0.0964689 -0.0934685 -0.264273 0.955048
1305031470.356871 -0.400012 0.455402 -0.101945 -0.102807 -0.0925709 -0.261135 0.955337
1305031470.388056 -0.411366 0.466581 -0.101991 -0.107701 -0.0937566 -0.258009 0.955532
1305031470.424090 -0.423358 0.476913 -0.10245 -0.111331 -0.0953621 -0.256809 0.95528
1305031470.455875 -0.436591 0.486179 -0.103817 -0.113458 -0.096442 -0.257688 0.954685
1305031470.487958 -0.449737 0.495241 -0.105706 -0.11348 -0.0969671 -0.257223 0.954755
1305031470.524431 -0.460913 0.504484 -0.107438 -0.112294 -0.0981111 -0.25556 0.955224
1305031470.556484 -0.471628 0.513638 -0.10883 -0.111559 -0.0979769 -0.25517 0.955429
1305031470.588797 -0.483787 0.521471 -0.110166 -0.113136 -0.0962203 -0.25351 0.955863
1305031470.624535 -0.493568 0.528905 -0.110738 -0.113727 -0.0957053 -0.25028 0.956696
1305031470.656787 -0.503695 0.53535 -0.111 -0.116455 -0.0948585 -0.246027 0.957555
1305031470.688640 -0.512081 0.541356 -0.110596 -0.117996 -0.0950494 -0.242322 0.958292
1305031470.724461 -0.522002 0.545977 -0.110224 -0.121615 -0.0959449 -0.240142 0.958299
1305031470.755944 -0.530219 0.549569 -0.110103 -0.121786 -0.0961957 -0.238323 0.958706
1305031470.788407 -0.530219 0.549569 -0.110103 -0.121786 -0.0961957 -0.238323 0.958706
1305031470.820633 -0.539304 0.550294 -0.11044 -0.125925 -0.0920189 -0.235623 0.959248
1305031470.855509 -0.539304 0.550294 -0.11044 -0.125925 -0.0920189 -0.235623 0.959248
1305031470.886079 -0.550755 0.553029 -0.111988 -0.121344 -0.0907258 -0.228948 0.961576
1305031470.924410 -0.563469 0.555347 -0.11391 -0.118357 -0.0896196 -0.221516 0.96379
1305031470.956439 -0.577561 0.554342 -0.11675 -0.116259 -0.0880729 -0.21469 0.96573
1305031470.988276 -0.577561 0.554342 -0.11675 -0.116259 -0.0880729 -0.21469 0.96573
1305031471.024309 -0.588066 0.553617 -0.119311 -0.10922 -0.0869307 -0.212145 0.967217
1305031471.056616 -0.598266 0.551445 -0.121929 -0.101277 -0.0843066 -0.209967 0.968787
1305031471.088440 -0.607277 0.550507 -0.124373 -0.091756 -0.0819609 -0.205078 0.970982
1305031471.123837 -0.615615 0.549569 -0.126574 -0.0847543 -0.0815146 -0.198425 0.973036
1305031471.155886 -0.623362 0.548527 -0.128998 -0.0788344 -0.0818207 -0.192005 0.974795
1305031471.192698 -0.629618 0.549181 -0.130664 -0.0728081 -0.0807912 -0.185996 0.976513
1305031471.224404 -0.635733 0.54972 -0.131599 -0.0702663 -0.077588 -0.180255 0.978034
1305031471.256397 -0.642863 0.549819 -0.132075 -0.0702427 -0.0742582 -0.175921 0.979083
1305031471.288603 -0.650166 0.548277 -0.132724 -0.0711598 -0.071815 -0.172694 0.979773
1305031471.324440 -0.65699 0.546501 -0.134017 -0.0698165 -0.0686063 -0.168414 0.980844
1305031471.356569 -0.660967 0.546802 -0.135193 -0.0655056 -0.0636153 -0.165818 0.98192
1305031471.392751 -0.665683 0.545632 -0.136699 -0.0657229 -0.055506 -0.163116 0.982849
1305031471.424494 -0.671349 0.542683 -0.138779 -0.0646815 -0.0497839 -0.157904 0.984075
1305031471.456975 -0.675729 0.543074 -0.140643 -0.0604854 -0.0486353 -0.151109 0.985465
1305031471.492705 -0.680139 0.543477 -0.142421 -0.06031 -0.0484277 -0.146502 0.986182
1305031471.524343 -0.68536 0.54253 -0.144377 -0.0617167 -0.0470479 -0.141775 0.986852
1305031471.556561 -0.689928 0.542186 -0.146617 -0.0619434 -0.0456998 -0.137997 0.987437
1305031471.592606 -0.693475 0.541919 -0.149345 -0.0625891 -0.0427683 -0.136209 0.987776
1305031471.624486 -0.697184 0.541822 -0.152319 -0.06235 -0.0377325 -0.13423 0.988267
1305031471.656831 -0.700453 0.541364 -0.155302 -0.0618354 -0.0327618 -0.132499 0.98871
1305031471.693182 -0.703149 0.541336 -0.158317 -0.0596736 -0.0279966 -0.128658 0.989496
1305031471.724753 -0.704673 0.543667 -0.16093 -0.0569055 -0.0245367 -0.1239 0.990358
1305031471.753002 -0.706353 0.544982 -0.162927 -0.0577946 -0.0207334 -0.119149 0.990976
1305031471.792706 -0.70729 0.544937 -0.164863 -0.0580082 -0.0159719 -0.112448 0.991834
1305031471.823821 -0.707885 0.5493 -0.166159 -0.0555595 -0.00999969 -0.104759 0.992894
1305031471.855793 -0.709677 0.552542 -0.166861 -0.0587387 -0.00551935 -0.0981448 0.993422
1305031471.892838 -0.711348 0.555275 -0.167274 -0.0610646 -0.00186387 -0.0914591 0.993933
1305031471.924928 -0.7131 0.559539 -0.167096 -0.0637323 0.00275201 -0.0853541 0.994306
1305031471.957162 -0.715109 0.560763 -0.16724 -0.0693915 0.0085888 -0.0830384 0.99409
1305031471.993177 -0.718243 0.563314 -0.167489 -0.068332 0.0162075 -0.0807479 0.994257
1305031472.024660 -0.721347 0.570218 -0.166664 -0.0677126 0.0236397 -0.0764489 0.994491
1305031472.058063 -0.725658 0.571901 -0.166125 -0.0752696 0.0298241 -0.0733856 0.994012
1305031472.092883 -0.729365 0.574081 -0.166048 -0.0757123 0.0345555 -0.0694966 0.994105
1305031472.124760 -0.733098 0.579958 -0.164974 -0.0741974 0.0393612 -0.0639047 0.994415
1305031472.156982 -0.733098 0.579958 -0.164974 -0.0741974 0.0393612 -0.0639047 0.994415
1305031472.192890 -0.737526 0.579068 -0.164772 -0.0762336 0.0408543 -0.0613346 0.994363
1305031472.224678 -0.741199 0.580076 -0.164678 -0.0719405 0.0422286 -0.0568086 0.994894
1305031472.256642 -0.744259 0.580264 -0.164669 -0.0705659 0.0438273 -0.0551195 0.995018
1305031472.293139 -0.74747 0.577492 -0.165465 -0.0682575 0.0458437 -0.0540041 0.99515
1305031472.324844 -0.749535 0.577367 -0.166652 -0.0609049 0.0477486 -0.0516547 0.995662
1305031472.360912 -0.75149 0.578938 -0.16728 -0.0560728 0.0488348 -0.0500827 0.995973
1305031472.392956 -0.753436 0.577933 -0.167554 -0.0569297 0.0487436 -0.0484173 0.996011
1305031472.424694 -0.755104 0.574873 -0.167868 -0.0574424 0.0468575 -0.0467437 0.996152
1305031472.460919 -0.755995 0.572219 -0.168109 -0.0560665 0.0445081 -0.0470704 0.996323
1305031472.492972 -0.755416 0.569954 -0.168172 -0.0549035 0.044051 -0.0484987 0.99634
1305031472.524781 -0.755258 0.56646 -0.168396 -0.0563434 0.0461085 -0.0486766 0.996158
1305031472.561296 -0.75596 0.560764 -0.169405 -0.056478 0.0474172 -0.0469927 0.996169
1305031472.592968 -0.755214 0.557632 -0.170456 -0.0510004 0.0459181 -0.0450009 0.996627
1305031472.624647 -0.753611 0.556629 -0.170688 -0.0476222 0.0444796 -0.042768 0.996958
1305031472.660836 -0.752005 0.553154 -0.170431 -0.0481049 0.0434125 -0.0411569 0.997049
1305031472.693008 -0.75065 0.548905 -0.170172 -0.0478045 0.0426461 -0.0395938 0.99716
1305031472.724752 -0.749036 0.544961 -0.169862 -0.0464471 0.0415588 -0.0387979 0.997301
1305031472.760654 -0.747427 0.541772 -0.169392 -0.044234 0.0407341 -0.0394681 0.99741
1305031472.792775 -0.745545 0.538775 -0.168717 -0.0427504 0.0409357 -0.0412926 0.997392
1305031472.824692 -0.744637 0.535145 -0.167895 -0.0412617 0.0417671 -0.0425816 0.997366
1305031472.860936 -0.74409 0.532838 -0.167 -0.0388571 0.0422357 -0.0423213 0.997454
1305031472.892944 -0.743734 0.531838 -0.165818 -0.0369649 0.0416506 -0.0405331 0.997625
1305031472.924814 -0.743019 0.530292 -0.164499 -0.0374805 0.0401114 -0.0383088 0.997757
1305031472.961213 -0.742038 0.527906 -0.163304 -0.0381931 0.0392689 -0.0370144 0.997812
1305031472.992815 -0.740731 0.52757 -0.162181 -0.0378157 0.0387044 -0.0358158 0.997892
1305031473.024564 -0.741106 0.526772 -0.16113 -0.0388737 0.0378196 -0.0350473 0.997913
1305031473.060795 -0.740684 0.525752 -0.160117 -0.0399965 0.0366394 -0.0356934 0.99789
1305031473.092012 -0.740558 0.524084 -0.159432 -0.0410436 0.0368343 -0.0372468 0.997783
1305031473.124072 -0.740448 0.523548 -0.158941 -0.0407473 0.0380024 -0.0392428 0.997675
1305031473.158420 -0.741454 0.522184 -0.158679 -0.0412114 0.0389437 -0.0399969 0.99759
1305031473.190828 -0.741754 0.520885 -0.158686 -0.0407015 0.0382382 -0.040129 0.997633
