1305031453.374112 0 0 0 0 0 0 1
1305031453.404816 0.00399884 0.00528466 -0.00930231 -0.000831273 0.00654247 0.00968006 0.999931
1305031453.436941 0.00727248 0.00937887 -0.0193576 0.000129348 0.0109214 0.0193045 0.999754
1305031453.473352 0.0118007 0.0149998 -0.0300289 0.00406462 0.0161239 0.0280949 0.999467
1305031453.505218 0.0162998 0.0203099 -0.0420471 0.00827969 0.0223528 0.0369794 0.999032
1305031453.538301 0.0181331 0.0243199 -0.0547886 0.0140829 0.027764 0.0458027 0.998465
1305031453.574074 0.0203252 0.0310422 -0.0685897 0.0216203 0.0304579 0.0523773 0.997929
1305031453.605314 0.020887 0.0370635 -0.082666 0.0293279 0.0329798 0.0575079 0.997369
1305031453.636951 0.0200556 0.0425643 -0.0971999 0.036187 0.0344369 0.0620743 0.996821
1305031453.673185 0.0156788 0.0516149 -0.110906 0.0448911 0.0322072 0.0627165 0.996501
1305031453.705487 0.00939553 0.0607321 -0.124654 0.0524353 0.0280723 0.0587493 0.996499
1305031453.736856 0.00167447 0.0713545 -0.13782 0.0580051 0.0234567 0.0537466 0.996592
1305031453.773786 -0.00769485 0.0803289 -0.149922 0.0629628 0.016739 0.0474278 0.996748
1305031453.805041 -0.0173506 0.0883994 -0.161694 0.0679571 0.0082494 0.0393298 0.996879
1305031453.840352 -0.0287583 0.0991665 -0.172318 0.0720246 0.00131618 0.0327912 0.996863
1305031453.869618 -0.0406078 0.111948 -0.179533 0.0766553 -0.00783963 0.0271126 0.996658
1305031453.905519 -0.0533823 0.123518 -0.186082 0.0786659 -0.0219311 0.0201655 0.996456
1305031453.940012 -0.0669021 0.133782 -0.192306 0.0781454 -0.0385768 0.0156248 0.996073
1305031453.972592 -0.0800947 0.138411 -0.199696 0.075219 -0.0536891 0.00607711 0.995702
1305031454.003179 -0.0956698 0.140364 -0.206391 0.0726943 -0.0649195 -0.00515261 0.995226
1305031454.040976 -0.112506 0.141639 -0.212153 0.0738636 -0.0748284 -0.0153001 0.994339
1305031454.072690 -0.128527 0.147566 -0.215852 0.0758281 -0.0842317 -0.0264968 0.993203
1305031454.104619 -0.14691 0.15069 -0.218665 0.0762733 -0.092993 -0.0392602 0.991964
1305031454.141030 -0.163675 0.152968 -0.220711 0.0790392 -0.104302 -0.0528732 0.989989
1305031454.172688 -0.178395 0.16111 -0.221941 0.0814191 -0.117973 -0.0655969 0.987497
1305031454.204626 -0.19258 0.164756 -0.222562 0.0800257 -0.132474 -0.0796177 0.984737
1305031454.240858 -0.210346 0.163653 -0.225884 0.0797644 -0.14545 -0.0948427 0.981574
1305031454.273489 -0.223499 0.165347 -0.227312 0.0848743 -0.157278 -0.11287 0.977405
1305031454.304744 -0.235366 0.170758 -0.228226 0.0844519 -0.164111 -0.126239 0.974679
1305031454.340806 -0.249083 0.173582 -0.231135 0.084645 -0.171226 -0.138389 0.971785
1305031454.372652 -0.25974 0.175938 -0.232101 0.0904103 -0.181543 -0.154269 0.96699
1305031454.401962 -0.268297 0.182651 -0.232744 0.09322 -0.189083 -0.167183 0.963124
1305031454.437248 -0.279244 0.186351 -0.234701 0.0939773 -0.198884 -0.181207 0.958529
1305031454.470741 -0.285697 0.187811 -0.233833 0.09635 -0.209104 -0.199012 0.952568
1305031454.503859 -0.294017 0.191471 -0.235058 0.0973176 -0.212547 -0.215411 0.948131
1305031454.538424 -0.300462 0.198054 -0.235978 0.0968535 -0.217826 -0.231854 0.943088
1305031454.570323 -0.305832 0.206908 -0.237071 0.0948912 -0.222803 -0.244636 0.938886
1305031454.602019 -0.312994 0.215467 -0.239192 0.0922498 -0.230423 -0.259589 0.933279
1305031454.639284 -0.317191 0.222647 -0.239485 0.0905127 -0.24251 -0.272697 0.926624
1305031454.669573 -0.317237 0.230963 -0.238151 0.0857978 -0.255689 -0.280397 0.921216
1305031454.702030 -0.320443 0.240039 -0.240192 0.0791207 -0.267466 -0.285247 0.916971
1305031454.740764 -0.317194 0.245139 -0.239036 0.0750778 -0.281351 -0.291689 0.91111
1305031454.772865 -0.310752 0.250815 -0.237058 0.070847 -0.289967 -0.291334 0.908859
1305031454.802574 -0.306977 0.258428 -0.237232 0.0663685 -0.292903 -0.284135 0.910533
1305031454.840500 -0.300404 0.268119 -0.235812 0.0633958 -0.295138 -0.278042 0.911903
1305031454.870269 -0.294662 0.276451 -0.234586 0.0594782 -0.293611 -0.272814 0.914236
1305031454.901065 -0.289294 0.285581 -0.234012 0.0566072 -0.289487 -0.265739 0.91781
1305031454.940240 -0.28602 0.296633 -0.234905 0.0543226 -0.284103 -0.259262 0.921476
1305031454.973081 -0.283836 0.305231 -0.236154 0.0510832 -0.279095 -0.253066 0.924907
1305031455.010759 -0.286008 0.315942 -0.24023 0.0489349 -0.274793 -0.246349 0.92812
1305031455.040446 -0.287805 0.329306 -0.243331 0.0495192 -0.273429 -0.242446 0.929518
1305031455.074282 -0.290374 0.34039 -0.246093 0.0496213 -0.270452 -0.240542 0.930878
1305031455.110340 -0.295671 0.351108 -0.25047 0.0520961 -0.266241 -0.239714 0.932169
1305031455.142700 -0.299984 0.362949 -0.2533 0.0550028 -0.262047 -0.239155 0.933333
1305031455.172771 -0.307051 0.372298 -0.256614 0.0542656 -0.2574 -0.235894 0.935497
1305031455.210307 -0.3158 0.383509 -0.260351 0.0520368 -0.25327 -0.22985 0.938251
1305031455.240960 -0.324765 0.392358 -0.264088 0.0514638 -0.249627 -0.224314 0.940596
1305031455.273001 -0.331569 0.405162 -0.26551 0.0514302 -0.245928 -0.218728 0.942885
1305031455.310303 -0.341898 0.411383 -0.269309 0.0435061 -0.240091 -0.210288 0.946701
1305031455.342381 -0.355037 0.420494 -0.273998 0.0376322 -0.236396 -0.198336 0.950455
1305031455.374120 -0.363134 0.431714 -0.276144 0.0309081 -0.234836 -0.191092 0.952565
1305031455.409213 -0.373698 0.43576 -0.28006 0.0206947 -0.227974 -0.184673 0.95577
1305031455.442380 -0.385789 0.439502 -0.285834 0.0124818 -0.220474 -0.174489 0.959578
1305031455.473168 -0.392732 0.440766 -0.28943 0.00624135 -0.219452 -0.164013 0.961718
1305031455.509397 -0.404653 0.445059 -0.295855 0.00240032 -0.215723 -0.154115 0.964213
1305031455.540835 -0.420506 0.446154 -0.304381 -0.00316291 -0.211427 -0.141394 0.967107
1305031455.572996 -0.437118 0.448824 -0.313407 -0.00511445 -0.21046 -0.128635 0.969089
1305031455.608802 -0.453853 0.453107 -0.323452 -0.0074464 -0.210017 -0.114225 0.970974
1305031455.641333 -0.471707 0.453333 -0.333593 -0.0126619 -0.20715 -0.100854 0.973014
1305031455.672887 -0.489973 0.45098 -0.34418 -0.0118305 -0.203586 -0.0939124 0.974471
1305031455.707680 -0.506877 0.452201 -0.355486 -0.00790478 -0.200602 -0.0941289 0.975108
1305031455.742005 -0.524346 0.450071 -0.367314 -0.00634905 -0.195952 -0.0983277 0.975651
1305031455.773667 -0.540761 0.447185 -0.37946 -0.00546508 -0.189485 -0.1021 0.976546
1305031455.809109 -0.557103 0.439835 -0.391982 -0.00561261 -0.18293 -0.101408 0.977866
1305031455.838364 -0.571135 0.43736 -0.404793 -0.00277268 -0.179071 -0.101301 0.978603
1305031455.872220 -0.585407 0.433883 -0.417606 -0.00258192 -0.176066 -0.102564 0.979017
1305031455.908418 -0.598361 0.430204 -0.429394 -0.00268413 -0.172672 -0.103088 0.979566
1305031455.939606 -0.611111 0.425942 -0.440113 -0.00343652 -0.168245 -0.103767 0.980262
1305031455.973594 -0.623413 0.424023 -0.45063 -0.00270747 -0.163839 -0.106318 0.980737
1305031456.008998 -0.633689 0.423058 -0.459447 -0.0039006 -0.158957 -0.109632 0.981172
1305031456.041930 -0.643382 0.422371 -0.466416 -0.00811389 -0.152956 -0.115073 0.981477
1305031456.073846 -0.656645 0.418349 -0.474076 -0.0175738 -0.145951 -0.121919 0.981593
1305031456.108963 -0.671759 0.412535 -0.481346 -0.023875 -0.139478 -0.125923 0.981896
1305031456.140836 -0.685028 0.407649 -0.487083 -0.0255722 -0.133796 -0.127478 0.982443
1305031456.173198 -0.697479 0.401378 -0.491724 -0.0265765 -0.126898 -0.12732 0.983352
1305031456.208934 -0.709701 0.39652 -0.495612 -0.021589 -0.1181 -0.125315 0.984826
1305031456.240996 -0.715076 0.399503 -0.497454 -0.0155951 -0.109733 -0.123509 0.986134
1305031456.277928 -0.726319 0.395035 -0.498512 -0.0161694 -0.0976309 -0.120788 0.987733
1305031456.310040 -0.738136 0.388381 -0.498406 -0.0140086 -0.0862602 -0.116278 0.989365
1305031456.341659 -0.747676 0.386108 -0.49752 -0.00827636 -0.0759424 -0.110294 0.990959
1305031456.377115 -0.753607 0.390145 -0.494967 -0.00153165 -0.0655688 -0.106244 0.992175
1305031456.409172 -0.765787 0.38345 -0.491542 -0.00133557 -0.0523063 -0.101967 0.993411
1305031456.440717 -0.778932 0.382068 -0.486725 0.00520693 -0.0416962 -0.0951793 0.994573
1305031456.476027 -0.789923 0.3889 -0.480682 0.00753117 -0.0370055 -0.0878571 0.995417
1305031456.508911 -0.804322 0.392478 -0.47295 0.00271565 -0.0354087 -0.0816787 0.996026
1305031456.541832 -0.822379 0.394402 -0.464391 -0.00273315 -0.0342599 -0.0751547 0.996579
1305031456.576087 -0.838746 0.392126 -0.455489 -0.0061859 -0.0314564 -0.0701629 0.99702
1305031456.607930 -0.849924 0.398573 -0.44581 -0.00464724 -0.0275123 -0.0646459 0.997518
1305031456.640699 -0.860737 0.408423 -0.435992 -0.0135163 -0.02195 -0.0595409 0.997893
1305031456.675835 -0.875305 0.403085 -0.425449 -0.0261974 -0.0149995 -0.0522923 0.998175
1305031456.709099 -0.889634 0.402652 -0.415505 -0.0255803 -0.0106559 -0.0424606 0.998714
1305031456.740863 -0.901545 0.409406 -0.405829 -0.0288971 -0.009978 -0.0342764 0.998945
1305031456.777218 -0.921372 0.405083 -0.395028 -0.0361439 -0.00979584 -0.022714 0.99904
1305031456.808986 -0.936879 0.407417 -0.384684 -0.0317325 -0.015428 -0.0155819 0.999256
1305031456.841050 -0.948782 0.417485 -0.374811 -0.0313023 -0.0181455 -0.00856655 0.999309
1305031456.878006 -0.9629 0.41999 -0.363781 -0.0371633 -0.015249 -0.000866218 0.999192
1305031456.909883 -0.975986 0.418591 -0.353577 -0.0398226 -0.0108633 0.00494434 0.999135
1305031456.942298 -0.987229 0.421514 -0.344438 -0.0355667 -0.00509634 0.0101813 0.999302
1305031456.977139 -0.996541 0.428368 -0.336656 -0.0367606 -0.000122413 0.0133617 0.999235
1305031457.006193 -1.01079 0.430068 -0.328951 -0.0436678 0.00611038 0.0168317 0.998886
1305031457.042512 -1.02429 0.429757 -0.323064 -0.0462349 0.0115566 0.0206948 0.998649
1305031457.076011 -1.0345 0.434275 -0.319377 -0.0496011 0.0159625 0.0242609 0.998347
1305031457.108053 -1.04776 0.433063 -0.316824 -0.0586212 0.0226591 0.0298466 0.997577
1305031457.142120 -1.06104 0.428482 -0.316147 -0.0627922 0.0301989 0.0353603 0.996943
1305031457.177463 -1.07328 0.427483 -0.318024 -0.061565 0.0375607 0.0415349 0.996531
1305031457.209336 -1.08431 0.428505 -0.32158 -0.0607606 0.0442463 0.0463701 0.996092
1305031457.240792 -1.09886 0.425546 -0.325415 -0.0646272 0.0521187 0.0531727 0.995128
1305031457.277247 -1.11453 0.417134 -0.329625 -0.0640869 0.0610184 0.0611501 0.994198
1305031457.309693 -1.12853 0.416253 -0.337101 -0.0565022 0.0694752 0.0659912 0.993794
1305031457.342954 -1.14091 0.417153 -0.345106 -0.053272 0.0788268 0.0695522 0.993031
1305031457.376037 -1.157 0.412732 -0.352479 -0.0535122 0.0909248 0.0754444 0.991553
1305031457.407980 -1.16974 0.40821 -0.361701 -0.0489981 0.100952 0.0824652 0.990256
1305031457.441357 -1.1842 0.406857 -0.371314 -0.0453907 0.108582 0.0898901 0.988974
1305031457.476577 -1.2002 0.401247 -0.379858 -0.045382 0.112557 0.0955625 0.987998
1305031457.508603 -1.21685 0.393563 -0.388205 -0.0449537 0.115812 0.0997194 0.98723
1305031457.543946 -1.23151 0.386793 -0.397495 -0.0417268 0.119581 0.102308 0.986657
1305031457.576581 -1.24672 0.382708 -0.406573 -0.0376784 0.12495 0.104912 0.985881
1305031457.607246 -1.26244 0.380767 -0.414723 -0.0339533 0.129716 0.108327 0.985031
1305031457.643534 -1.27782 0.375065 -0.421646 -0.0328986 0.13252 0.111108 0.984384
1305031457.675414 -1.29316 0.373461 -0.42772 -0.0292863 0.135342 0.114924 0.983675
1305031457.707739 -1.30946 0.367977 -0.432855 -0.0339852 0.136885 0.11687 0.983081
1305031457.745071 -1.32573 0.354661 -0.436963 -0.0372616 0.139727 0.117748 0.982458
1305031457.773518 -1.34071 0.345614 -0.442192 -0.0347944 0.142893 0.116385 0.982255
1305031457.807824 -1.35417 0.332915 -0.44793 -0.0291594 0.147742 0.115214 0.981859
1305031457.842853 -1.36798 0.3283 -0.453966 -0.0195845 0.156046 0.114092 0.980943
1305031457.875920 -1.38267 0.3205 -0.458106 -0.0166794 0.164856 0.113593 0.979613
1305031457.906126 -1.39748 0.307467 -0.461175 -0.0106481 0.173019 0.11512 0.97811
1305031457.942604 -1.41381 0.300016 -0.462775 0.00236585 0.1784 0.118111 0.976841
1305031457.976744 -1.43059 0.295619 -0.461872 0.0104418 0.181227 0.122057 0.975782
1305031458.009019 -1.44492 0.284703 -0.460408 0.0145771 0.183289 0.123146 0.975207
1305031458.046303 -1.45787 0.275141 -0.457451 0.022664 0.187658 0.122474 0.974305
1305031458.077315 -1.47466 0.275838 -0.451104 0.0323899 0.193988 0.123192 0.972699
1305031458.108896 -1.48955 0.27536 -0.442377 0.0342088 0.199402 0.125063 0.971302
1305031458.144808 -1.50387 0.266649 -0.431896 0.0323335 0.204335 0.126014 0.970218
1305031458.178039 -1.51804 0.259071 -0.419893 0.0338362 0.207617 0.127726 0.969245
1305031458.209384 -1.53713 0.259029 -0.404326 0.035886 0.210208 0.131956 0.968046
1305031458.245729 -1.5529 0.252322 -0.389054 0.0293518 0.209499 0.13376 0.968172
1305031458.277447 -1.56235 0.230838 -0.376413 0.0233013 0.207146 0.132745 0.968982
1305031458.308343 -1.58065 0.222771 -0.358763 0.0312144 0.206034 0.132128 0.969081
1305031458.343898 -1.59535 0.217219 -0.342776 0.0343257 0.202255 0.133962 0.96952
1305031458.376213 -1.60393 0.200255 -0.327844 0.0381663 0.198198 0.133617 0.970262
1305031458.407856 -1.61743 0.199701 -0.309658 0.0514477 0.197425 0.13529 0.969574
1305031458.443957 -1.62573 0.196306 -0.292955 0.0600574 0.197761 0.142018 0.968047
1305031458.476034 -1.62939 0.186576 -0.278661 0.0702118 0.202913 0.146866 0.965571
1305031458.508869 -1.63411 0.18285 -0.260761 0.0908445 0.214316 0.144506 0.961735
1305031458.544401 -1.6487 0.202941 -0.234325 0.115349 0.227655 0.140891 0.956565
1305031458.576178 -1.65216 0.20923 -0.213918 0.124576 0.236691 0.137823 0.953658
1305031458.608421 -1.65712 0.211783 -0.189744 0.134675 0.243836 0.132679 0.951211
1305031458.643659 -1.66667 0.23033 -0.159134 0.142257 0.24682 0.128199 0.949951
1305031458.676991 -1.66953 0.232437 -0.134453 0.137747 0.242922 0.130351 0.951327
1305031458.707780 -1.67054 0.234459 -0.111512 0.133173 0.229437 0.125419 0.955978
1305031458.744924 -1.66554 0.230811 -0.0973338 0.129248 0.215724 0.115494 0.960947
1305031458.773802 -1.66708 0.2326 -0.0766594 0.134869 0.202148 0.105281 0.964294
1305031458.810621 -1.66872 0.241435 -0.0568444 0.135538 0.188471 0.0940484 0.968124
1305031458.842919 -1.66393 0.240281 -0.0457146 0.12864 0.178497 0.089745 0.971358
1305031458.875889 -1.66228 0.229372 -0.0390803 0.126243 0.174529 0.0881248 0.972541
1305031458.910599 -1.66155 0.2314 -0.0299071 0.131569 0.176027 0.079282 0.972326
1305031458.943997 -1.6665 0.23704 -0.0178287 0.133107 0.181846 0.0839187 0.970656
1305031458.976007 -1.6726 0.228128 -0.0102003 0.125493 0.18747 0.0971067 0.969369
1305031459.012560 -1.683 0.207089 -0.00464398 0.122269 0.193452 0.102785 0.96802
1305031459.044413 -1.69911 0.197717 0.00900178 0.132995 0.193194 0.104696 0.966451
1305031459.073657 -1.71844 0.187341 0.0241336 0.142672 0.188475 0.113374 0.965022
1305031459.112711 -1.74171 0.172074 0.0411429 0.154669 0.176221 0.123333 0.964268
1305031459.144497 -1.7632 0.159717 0.0581575 0.166558 0.154648 0.125694 0.965683
1305031459.176463 -1.77728 0.149309 0.0725634 0.175212 0.1319 0.1281 0.967209
1305031459.208791 -1.78735 0.144756 0.0876206 0.181749 0.114888 0.133693 0.967416
1305031459.244159 -1.79696 0.141666 0.102539 0.185 0.103993 0.142191 0.966821
1305031459.274941 -1.80669 0.146522 0.117102 0.186162 0.103785 0.149489 0.965518
1305031459.311921 -1.81308 0.145886 0.12555 0.183183 0.115247 0.163872 0.962449
1305031459.344169 -1.8193 0.142461 0.131624 0.181577 0.1331 0.183764 0.956841
1305031459.374084 -1.82705 0.152098 0.14114 0.187491 0.155663 0.201482 0.948695
1305031459.408831 -1.83551 0.172314 0.154249 0.189022 0.178377 0.222389 0.939678
1305031459.443181 -1.84169 0.177527 0.157284 0.179529 0.208137 0.263263 0.924738
1305031459.473401 -1.84838 0.18747 0.160674 0.180236 0.237562 0.298994 0.906467
1305031459.510267 -1.86644 0.203152 0.177817 0.181482 0.258214 0.324926 0.891523
1305031459.544431 -1.8744 0.20526 0.184238 0.171397 0.272743 0.356155 0.877148
1305031459.576817 -1.88757 0.207434 0.191635 0.169945 0.284957 0.379302 0.863741
1305031459.611939 -1.9028 0.209308 0.200964 0.170326 0.291002 0.395697 0.854243
1305031459.643453 -1.91495 0.205793 0.206646 0.16724 0.292816 0.405877 0.849443
1305031459.675678 -1.92831 0.203723 0.213904 0.166148 0.299727 0.406471 0.846959
1305031459.711531 -1.94275 0.196901 0.220796 0.16026 0.310713 0.412058 0.841417
1305031459.743425 -1.95537 0.184356 0.223786 0.153605 0.319188 0.416739 0.83717
1305031459.776577 -1.9683 0.170359 0.228366 0.152711 0.326658 0.414546 0.835539
1305031459.812562 -1.98304 0.157834 0.235861 0.153086 0.331511 0.411111 0.835256
1305031459.844736 -1.99633 0.144967 0.243574 0.151982 0.332917 0.409259 0.835808
1305031459.877006 -2.00845 0.132085 0.253378 0.148857 0.332878 0.408758 0.836631
1305031459.911472 -2.0169 0.115705 0.259813 0.143558 0.329167 0.412102 0.837384
1305031459.943616 -2.02552 0.10089 0.265241 0.142127 0.326337 0.414819 0.837395
1305031459.979430 -2.0346 0.0860932 0.273418 0.141345 0.325179 0.418658 0.836065
1305031460.011909 -2.04092 0.071795 0.277801 0.137505 0.323352 0.423486 0.834982
1305031460.043717 -2.04707 0.0542908 0.282926 0.135476 0.323451 0.42815 0.832895
1305031460.079449 -2.05354 0.0392012 0.290684 0.136196 0.323739 0.429648 0.831893
1305031460.111951 -2.06061 0.020746 0.301865 0.139287 0.320242 0.436166 0.829339
1305031460.144204 -2.06377 0.00311148 0.308384 0.144724 0.311501 0.445115 0.826979
1305031460.178730 -2.06828 -0.011256 0.318145 0.151832 0.304248 0.451738 0.824811
1305031460.208637 -2.06692 -0.0212116 0.321392 0.151806 0.29693 0.457755 0.824165
1305031460.243467 -2.06425 -0.0328223 0.321313 0.150423 0.295632 0.461951 0.822542
1305031460.279164 -2.0652 -0.0417263 0.325287 0.151836 0.302982 0.461165 0.820046
1305031460.311712 -2.06335 -0.0545745 0.327845 0.150205 0.31136 0.461248 0.817156
1305031460.342879 -2.06183 -0.0660288 0.331866 0.150137 0.319885 0.461865 0.813519
1305031460.377806 -2.06322 -0.0743143 0.339518 0.149348 0.329239 0.463757 0.808843
1305031460.409883 -2.06095 -0.0874462 0.342701 0.14456 0.338774 0.468845 0.80282
1305031460.444036 -2.05919 -0.0976016 0.347334 0.142589 0.348574 0.472871 0.796591
1305031460.479856 -2.0588 -0.105202 0.353935 0.140053 0.361398 0.47581 0.789545
1305031460.508966 -2.05611 -0.113516 0.358138 0.132997 0.373522 0.48213 0.781245
1305031460.544245 -2.05454 -0.123776 0.361979 0.125843 0.382844 0.492098 0.771644
1305031460.579561 -2.05285 -0.133472 0.363578 0.118842 0.391441 0.497197 0.765144
1305031460.612190 -2.05169 -0.14609 0.369685 0.113925 0.400708 0.498885 0.759979
1305031460.644011 -2.05128 -0.156551 0.37443 0.110595 0.409092 0.501296 0.754397
1305031460.679350 -2.05084 -0.167112 0.380729 0.108195 0.417008 0.501039 0.750572
1305031460.711684 -2.05129 -0.177606 0.388475 0.105095 0.421653 0.50275 0.747266
1305031460.743767 -2.0512 -0.187427 0.396135 0.0998842 0.424517 0.502938 0.746231
1305031460.779201 -2.04882 -0.200202 0.403242 0.095591 0.429837 0.502446 0.744077
1305031460.811318 -2.04735 -0.21097 0.410916 0.0921601 0.434042 0.50161 0.742632
1305031460.843836 -2.04613 -0.221852 0.420992 0.0869605 0.437141 0.500157 0.742421
1305031460.879093 -2.0436 -0.232437 0.430273 0.0796181 0.441536 0.498589 0.741698
1305031460.911313 -2.03836 -0.244644 0.437826 0.0711545 0.445758 0.49747 0.740784
1305031460.943375 -2.03276 -0.256142 0.444354 0.064928 0.447151 0.498415 0.739881
1305031460.979083 -2.02601 -0.268875 0.450478 0.0608957 0.44779 0.501385 0.737827
1305031461.011290 -2.01841 -0.281217 0.454283 0.0601442 0.450625 0.501796 0.735881
1305031461.043398 -2.0107 -0.293251 0.459014 0.0606756 0.452456 0.502928 0.733938
1305031461.079602 -2.00543 -0.302611 0.466883 0.0635301 0.454332 0.502485 0.73284
1305031461.111961 -1.9999 -0.311126 0.475212 0.0616986 0.453118 0.502519 0.733725
1305031461.144098 -1.99111 -0.322332 0.48008 0.058695 0.453217 0.501812 0.734394
1305031461.179883 -1.98344 -0.332415 0.484672 0.0596099 0.455052 0.500318 0.734205
1305031461.211180 -1.97728 -0.339853 0.490648 0.0607292 0.456935 0.496473 0.735552
1305031461.246864 -1.97129 -0.347444 0.496681 0.060422 0.458897 0.49456 0.735645
1305031461.278888 -1.96514 -0.353672 0.500781 0.0611036 0.459794 0.491545 0.737048
1305031461.311240 -1.95959 -0.358292 0.507205 0.0620417 0.461694 0.485366 0.739871
1305031461.346875 -1.95348 -0.361305 0.514235 0.0617233 0.465231 0.48024 0.741026
1305031461.378850 -1.94642 -0.361651 0.520228 0.0563656 0.468141 0.477304 0.741517
1305031461.411130 -1.93646 -0.367426 0.522974 0.0484479 0.467021 0.479442 0.741403
1305031461.447015 -1.92791 -0.37135 0.526242 0.0463452 0.467443 0.478087 0.742146
1305031461.478901 -1.92177 -0.37078 0.528387 0.0421504 0.46682 0.479815 0.741674
1305031461.512120 -1.91194 -0.377981 0.52533 0.0379141 0.465522 0.483023 0.740635
1305031461.547338 -1.90735 -0.378005 0.524352 0.0410772 0.467322 0.479717 0.741481
1305031461.578847 -1.90381 -0.377344 0.522522 0.0391759 0.469609 0.477217 0.741752
1305031461.609662 -1.90036 -0.374024 0.518958 0.0373515 0.476258 0.473225 0.740163
1305031461.646970 -1.89748 -0.369203 0.515698 0.0348287 0.480828 0.473453 0.737179
1305031461.676203 -1.89422 -0.363826 0.511783 0.0324772 0.484041 0.47383 0.734939
1305031461.711212 -1.89301 -0.355087 0.507959 0.0316849 0.484702 0.477871 0.731914
1305031461.746919 -1.89124 -0.34796 0.502657 0.0311689 0.483733 0.483943 0.72858
1305031461.778616 -1.8922 -0.338025 0.500295 0.0313915 0.485586 0.485929 0.726013
1305031461.811319 -1.89317 -0.327139 0.495439 0.029158 0.486294 0.490159 0.722781
1305031461.847090 -1.8945 -0.315458 0.490467 0.0286861 0.489224 0.493826 0.718313
1305031461.879162 -1.8999 -0.299049 0.488811 0.0302863 0.492389 0.498648 0.712731
1305031461.911121 -1.90589 -0.281141 0.488826 0.0320244 0.492437 0.508894 0.705342
1305031461.947264 -1.90885 -0.267842 0.485012 0.0292647 0.488711 0.518936 0.700721
1305031461.979223 -1.91361 -0.253936 0.483092 0.025939 0.491824 0.52083 0.69726
1305031462.011791 -1.92129 -0.2391 0.486763 0.021359 0.496934 0.525206 0.690478
1305031462.047463 -1.92596 -0.226235 0.486511 0.0188608 0.493231 0.537616 0.68362
1305031462.079285 -1.93112 -0.214361 0.486235 0.0203517 0.486142 0.549247 0.679396
1305031462.112081 -1.93722 -0.202564 0.48542 0.0212217 0.479334 0.558844 0.676374
1305031462.147634 -1.94274 -0.193104 0.485346 0.0201056 0.475207 0.566875 0.672627
1305031462.179358 -1.94963 -0.183436 0.484496 0.0189015 0.472195 0.572516 0.67
1305031462.212836 -1.95651 -0.176081 0.486789 0.0154478 0.471922 0.572643 0.670172
1305031462.248986 -1.96452 -0.168137 0.48998 0.010524 0.472232 0.572992 0.669751
1305031462.280774 -1.97228 -0.16015 0.492713 0.00531803 0.47073 0.572173 0.671568
1305031462.311931 -1.98091 -0.152488 0.497597 0.000161228 0.469118 0.569143 0.675281
1305031462.347816 -1.98923 -0.144471 0.500767 -0.00733521 0.467315 0.565045 0.679917
1305031462.379950 -1.99874 -0.135967 0.505318 -0.0140789 0.466317 0.560343 0.684373
1305031462.413016 -2.00674 -0.129126 0.511221 -0.022001 0.461779 0.558084 0.689071
1305031462.448295 -2.01533 -0.121993 0.515376 -0.0296113 0.455422 0.55556 0.69503
1305031462.480843 -2.02457 -0.115073 0.519797 -0.0365069 0.448109 0.552813 0.701614
1305031462.517041 -2.03359 -0.107861 0.521597 -0.044715 0.439909 0.551392 0.707424
1305031462.548959 -2.03359 -0.107861 0.521597 -0.044715 0.439909 0.551392 0.707424
1305031462.581088 -2.03359 -0.107861 0.521597 -0.044715 0.439909 0.551392 0.707424
1305031462.617123 -2.0438 -0.101249 0.518809 -0.0487223 0.436358 0.54264 0.716073
1305031462.648708 -2.0438 -0.101249 0.518809 -0.0487223 0.436358 0.54264 0.716073
1305031462.680788 -2.0522 -0.0954912 0.513759 -0.049797 0.435049 0.532534 0.724334
1305031462.716812 -2.06385 -0.0884689 0.509768 -0.0488395 0.433036 0.52129 0.733724
1305031462.748732 -2.07389 -0.0826159 0.505567 -0.0498862 0.427795 0.512645 0.742763
1305031462.780885 -2.08319 -0.0747303 0.499754 -0.0511961 0.421794 0.503105 0.752565
1305031462.816821 -2.09286 -0.0647907 0.49225 -0.0516629 0.416822 0.495181 0.760517
1305031462.848525 -2.10211 -0.0542584 0.483797 -0.0535061 0.411216 0.490837 0.766236
1305031462.880471 -2.10967 -0.042846 0.472651 -0.0553183 0.406771 0.487573 0.770552
1305031462.916800 -2.11579 -0.0297609 0.458199 -0.0567747 0.404351 0.482841 0.774688
1305031462.947939 -2.11579 -0.0297609 0.458199 -0.0567747 0.404351 0.482841 0.774688
1305031462.979943 -2.11881 -0.0204453 0.443919 -0.0552885 0.400189 0.481069 0.778052
1305031463.016121 -2.12135 -0.0115317 0.428795 -0.0507795 0.396619 0.476988 0.782686
1305031463.050783 -2.12744 -0.00129747 0.414737 -0.0450932 0.394197 0.468199 0.789535
1305031463.076870 -2.13453 0.00971236 0.401432 -0.0410131 0.390094 0.45947 0.796889
1305031463.116806 -2.13652 0.0184934 0.385753 -0.0410503 0.385757 0.452596 0.80291
1305031463.148565 -2.14035 0.0270005 0.370971 -0.0381183 0.385092 0.443021 0.808692
1305031463.180505 -2.14623 0.0398016 0.357112 -0.0337805 0.38429 0.431921 0.815245
1305031463.217123 -2.14852 0.0516517 0.342474 -0.0354794 0.381935 0.424307 0.820263
1305031463.248719 -2.14597 0.0572897 0.329577 -0.0351957 0.380291 0.422537 0.82195
1305031463.278737 -2.14507 0.0693289 0.315333 -0.0297725 0.379923 0.414641 0.826344
1305031463.317110 -2.14423 0.0807858 0.303017 -0.0290424 0.378561 0.407709 0.830435
1305031463.348740 -2.13973 0.0869274 0.290011 -0.0294195 0.37445 0.406847 0.832705
1305031463.380514 -2.13613 0.0972235 0.277458 -0.0232715 0.370808 0.401978 0.836883
1305031463.416326 -2.13456 0.112203 0.26523 -0.0186481 0.36703 0.395837 0.841579
1305031463.444773 -2.12976 0.122645 0.25278 -0.0190056 0.363882 0.392607 0.844446
1305031463.480415 -2.12433 0.135411 0.239787 -0.0181411 0.36313 0.389145 0.846389
1305031463.516994 -2.12433 0.135411 0.239787 -0.0181411 0.36313 0.389145 0.846389
1305031463.548505 -2.11688 0.143062 0.224984 -0.0178929 0.36597 0.38761 0.845875
1305031463.580684 -2.1131 0.151867 0.212875 -0.0136912 0.368403 0.388792 0.844353
1305031463.616671 -2.1131 0.151867 0.212875 -0.0136912 0.368403 0.388792 0.844353
1305031463.646147 -2.1024 0.153469 0.194717 -0.0144793 0.365926 0.388132 0.84572
1305031463.683908 -2.09401 0.159585 0.176626 -0.00704417 0.367279 0.385004 0.846657
1305031463.716110 -2.09401 0.159585 0.176626 -0.00704417 0.367279 0.385004 0.846657
1305031463.747849 -2.07998 0.161308 0.151071 -0.0113025 0.363461 0.382448 0.849412
1305031463.783912 -2.06823 0.164139 0.127299 -0.00704828 0.365116 0.377445 0.850985
1305031463.815883 -2.05926 0.167065 0.105705 -0.00597111 0.367513 0.36603 0.854939
1305031463.848094 -2.04813 0.167725 0.0814126 -0.00939189 0.367141 0.355568 0.859471
1305031463.883817 -2.03679 0.165831 0.0575446 -0.00995638 0.368303 0.346279 0.862754
1305031463.917433 -2.02769 0.164849 0.0349238 -0.00958171 0.369771 0.336601 0.865955
1305031463.944435 -2.01946 0.163055 0.0141712 -0.00907387 0.367692 0.332047 0.868599
1305031463.983748 -2.00937 0.158477 -0.00823006 -0.00859525 0.363171 0.326508 0.872597
1305031464.015867 -2.00145 0.154315 -0.0296765 -0.00710954 0.360566 0.318502 0.87664
1305031464.047778 -1.99526 0.151518 -0.0501104 -0.00787725 0.358158 0.309956 0.880675
1305031464.083152 -1.98719 0.145899 -0.0716223 -0.00893572 0.35703 0.301616 0.884012
1305031464.115837 -1.98178 0.139964 -0.0915848 -0.00775672 0.358971 0.292196 0.886398
1305031464.147663 -1.97861 0.135799 -0.109607 -0.0043167 0.357558 0.288336 0.888254
1305031464.183566 -1.97351 0.128248 -0.127351 0.00230701 0.353076 0.287421 0.890349
1305031464.212447 -1.96996 0.120221 -0.144022 0.012459 0.347127 0.2843 0.8936
1305031464.247602 -1.96847 0.12179 -0.158664 0.0247112 0.337982 0.278983 0.898513
1305031464.283694 -1.96797 0.122981 -0.170698 0.0333813 0.32496 0.276849 0.903682
1305031464.315699 -1.96364 0.123124 -0.186418 0.0375038 0.308363 0.27242 0.910655
1305031464.347553 -1.9543 0.123618 -0.205117 0.0398513 0.294587 0.266352 0.91689
1305031464.383465 -1.94508 0.121483 -0.223077 0.0432858 0.285348 0.260257 0.921395
1305031464.415539 -1.93553 0.125346 -0.242522 0.0471957 0.280026 0.250325 0.925578
1305031464.444269 -1.92743 0.125637 -0.260609 0.046795 0.278967 0.240604 0.928492
1305031464.487561 -1.91768 0.12353 -0.280124 0.0477715 0.275926 0.232697 0.931362
1305031464.513688 -1.90856 0.124796 -0.301292 0.0489752 0.273322 0.225811 0.933759
1305031464.548007 -1.90245 0.124614 -0.320171 0.0481114 0.273376 0.218046 0.935632
1305031464.584260 -1.89466 0.121083 -0.341634 0.0439737 0.27179 0.20722 0.938752
1305031464.615688 -1.88392 0.114838 -0.367924 0.0446762 0.276139 0.195323 0.94
1305031464.648851 -1.87706 0.110416 -0.391027 0.0507869 0.288605 0.184106 0.938207
1305031464.684318 -1.86931 0.106413 -0.412949 0.0565332 0.300549 0.169287 0.936919
1305031464.716305 -1.86116 0.0922563 -0.431902 0.0649135 0.311792 0.152146 0.935641
1305031464.748588 -1.85519 0.0866782 -0.444964 0.0787332 0.318102 0.133641 0.935282
1305031464.784268 -1.85134 0.0887603 -0.453475 0.0872527 0.318016 0.113667 0.937194
1305031464.816195 -1.84472 0.0801719 -0.458363 0.0919559 0.312845 0.0963709 0.940417
1305031464.848283 -1.84045 0.0770893 -0.45829 0.101869 0.301227 0.0822634 0.94452
1305031464.884177 -1.8306 0.0792746 -0.458825 0.10646 0.285427 0.0675848 0.950068
1305031464.916391 -1.8154 0.0772761 -0.46128 0.10128 0.26952 0.0476684 0.956467
1305031464.952471 -1.79448 0.0643764 -0.466123 0.0949742 0.257511 0.027338 0.961208
1305031464.984257 -1.77444 0.0550955 -0.468751 0.0951901 0.251636 0.00910166 0.963086
1305031465.015390 -1.75756 0.0595875 -0.465134 0.0986868 0.250235 -0.0116951 0.963072
1305031465.048430 -1.7438 0.0566068 -0.45897 0.098748 0.249687 -0.032174 0.962741
1305031465.083338 -1.7372 0.0708864 -0.443621 0.102696 0.244918 -0.0504414 0.962769
1305031465.115475 -1.72286 0.0984193 -0.427355 0.0962274 0.2331 -0.066019 0.965425
1305031465.151558 -1.70592 0.109076 -0.412302 0.0781118 0.220652 -0.0763649 0.969216
1305031465.183558 -1.68752 0.11715 -0.397847 0.0624529 0.208513 -0.0820207 0.972571
1305031465.215832 -1.66694 0.127293 -0.385376 0.0509859 0.196975 -0.0876124 0.975154
1305031465.251788 -1.64583 0.142746 -0.374275 0.0404206 0.186567 -0.0908887 0.977394
1305031465.283737 -1.62359 0.149229 -0.365184 0.0317525 0.175351 -0.0867738 0.98016
1305031465.315985 -1.60116 0.165889 -0.356866 0.031021 0.163173 -0.0750612 0.983249
1305031465.351729 -1.58078 0.177021 -0.349581 0.0270515 0.148191 -0.0614185 0.986679
1305031465.383701 -1.56011 0.182139 -0.344148 0.0257956 0.130566 -0.0491494 0.989885
1305031465.416543 -1.53656 0.191408 -0.342794 0.0288193 0.112454 -0.0398981 0.992437
1305031465.452401 -1.51236 0.204116 -0.344023 0.0334329 0.0980318 -0.030501 0.994154
1305031465.483803 -1.49484 0.222296 -0.345781 0.0387202 0.0874517 -0.018861 0.995237
1305031465.516043 -1.47324 0.236684 -0.349705 0.0376921 0.0764373 -0.0109193 0.996302
1305031465.551838 -1.45316 0.242026 -0.354535 0.0371035 0.0660568 -0.00685101 0.997102
1305031465.583570 -1.42955 0.255608 -0.36234 0.0440352 0.05602 -0.00319658 0.997453
1305031465.615685 -1.40655 0.273103 -0.370115 0.0509696 0.0501096 0.00375522 0.997435
1305031465.651645 -1.3874 0.29133 -0.377065 0.0581974 0.0437484 0.0140069 0.997248
1305031465.684759 -1.36804 0.308564 -0.385055 0.0646018 0.0332771 0.022161 0.99711
1305031465.716279 -1.34408 0.326617 -0.393364 0.0715561 0.0254024 0.026554 0.996759
1305031465.753153 -1.32327 0.346493 -0.400409 0.080719 0.0206611 0.0351995 0.995901
1305031465.784387 -1.30233 0.370516 -0.406854 0.0899439 0.0153703 0.0430056 0.994899
1305031465.816591 -1.2802 0.390437 -0.412887 0.0966547 0.01134 0.048962 0.994048
1305031465.852860 -1.25965 0.408591 -0.418836 0.106674 0.00757289 0.05436 0.992778
1305031465.884370 -1.23763 0.440684 -0.423658 0.119075 0.00553862 0.0564376 0.991265
1305031465.912828 -1.21808 0.463412 -0.427662 0.122839 0.010637 0.0595941 0.990579
1305031465.952840 -1.19751 0.480386 -0.432968 0.129395 0.0169877 0.0615108 0.989538
1305031465.984183 -1.17556 0.505137 -0.437648 0.1402 0.0230489 0.0596721 0.988055
1305031466.016599 -1.15658 0.529825 -0.441642 0.147676 0.0264693 0.0577751 0.986992
1305031466.052655 -1.13827 0.558672 -0.444597 0.154462 0.0267318 0.0568757 0.985998
1305031466.083913 -1.124 0.58367 -0.447888 0.153188 0.0269026 0.0596487 0.986028
1305031466.116400 -1.11273 0.603307 -0.452561 0.149315 0.0243477 0.0613931 0.986582
1305031466.152540 -1.10124 0.621534 -0.459772 0.144115 0.0194754 0.0625333 0.987391
1305031466.184186 -1.09165 0.640143 -0.46863 0.139516 0.0134017 0.0656173 0.987953
1305031466.220477 -1.08232 0.658037 -0.478275 0.131942 0.00429861 0.0657681 0.989064
1305031466.252491 -1.06976 0.671138 -0.491181 0.122029 -0.00403109 0.0617426 0.990596
1305031466.284389 -1.05707 0.680606 -0.506017 0.120443 -0.00402173 0.0535221 0.991268
1305031466.320055 -1.04354 0.695638 -0.520358 0.122438 0.00262955 0.0419465 0.991586
1305031466.352082 -1.02644 0.711369 -0.534749 0.121203 0.0104567 0.0325482 0.992039
1305031466.384479 -1.0133 0.720357 -0.549546 0.11496 0.0173101 0.0292433 0.992789
1305031466.420844 -1.00137 0.723027 -0.56557 0.114791 0.0194662 0.0274034 0.992821
1305031466.452369 -0.986277 0.739433 -0.578352 0.121084 0.0150452 0.0223949 0.992276
1305031466.483315 -0.971796 0.754496 -0.588807 0.120693 0.00970775 0.0188869 0.992463
1305031466.519548 -0.952647 0.76499 -0.597435 0.117637 0.00556704 0.0177319 0.992883
1305031466.552219 -0.930314 0.774607 -0.605953 0.116643 0.00704211 0.0169457 0.993004
1305031466.584438 -0.909323 0.790769 -0.61298 0.114604 0.00752509 0.013185 0.993295
1305031466.620424 -0.888785 0.801307 -0.618619 0.106342 0.00649156 0.0104058 0.994254
1305031466.648654 -0.867354 0.799899 -0.624577 0.102146 0.00895561 0.00908867 0.994688
1305031466.684412 -0.845581 0.811121 -0.63249 0.108041 0.00938668 0.00135179 0.994101
1305031466.719744 -0.826404 0.826745 -0.637789 0.1076 0.00698778 -0.00856301 0.994133
1305031466.748734 -0.80651 0.829478 -0.642453 0.101611 0.0050848 -0.0164117 0.994676
1305031466.784300 -0.79261 0.828689 -0.650308 0.103563 0.00765377 -0.0233128 0.99432
1305031466.819502 -0.773508 0.842931 -0.656992 0.10915 0.00394823 -0.0295552 0.993578
1305031466.851527 -0.757525 0.850024 -0.662756 0.106029 -0.000754869 -0.032139 0.993843
1305031466.883430 -0.746861 0.848267 -0.669456 0.10418 -0.00657039 -0.0304387 0.994071
1305031466.919411 -0.730698 0.855507 -0.674612 0.108344 -0.0194444 -0.0327135 0.993385
1305031466.952451 -0.717448 0.859628 -0.681591 0.108522 -0.032294 -0.0355135 0.992935
1305031466.984027 -0.695986 0.863429 -0.687077 0.110072 -0.0427948 -0.0386532 0.992249
1305031467.020424 -0.677953 0.86695 -0.69245 0.110782 -0.0480245 -0.042819 0.99176
1305031467.052391 -0.661745 0.870492 -0.697834 0.111315 -0.0521242 -0.047564 0.991277
1305031467.084130 -0.642785 0.875042 -0.702121 0.111567 -0.0554629 -0.0519152 0.990849
1305031467.120528 -0.628526 0.876329 -0.707242 0.108642 -0.0563939 -0.0581994 0.990772
1305031467.152363 -0.616142 0.876395 -0.712258 0.10839 -0.0581875 -0.0687999 0.990016
1305031467.184216 -0.603845 0.880235 -0.71689 0.109907 -0.0607849 -0.0760687 0.989161
1305031467.220466 -0.591287 0.882376 -0.721539 0.110419 -0.06572 -0.0805975 0.988429
1305031467.252275 -0.57803 0.884476 -0.726183 0.111047 -0.0720804 -0.086431 0.987422
1305031467.284258 -0.563145 0.886608 -0.730626 0.112833 -0.0774436 -0.0920337 0.986307
1305031467.318028 -0.549288 0.889977 -0.735433 0.114727 -0.0826459 -0.0987419 0.985016
1305031467.349355 -0.535263 0.89533 -0.739917 0.115909 -0.0885352 -0.103345 0.983894
1305031467.383844 -0.521442 0.902817 -0.743728 0.113437 -0.0951731 -0.105895 0.983291
1305031467.420160 -0.508905 0.905299 -0.749426 0.108188 -0.101776 -0.110765 0.982684
1305031467.452057 -0.49649 0.90412 -0.756014 0.106056 -0.10704 -0.114117 0.981973
1305031467.484357 -0.480095 0.909951 -0.760533 0.1065 -0.114811 -0.116947 0.980714
1305031467.520535 -0.461802 0.917974 -0.763445 0.103337 -0.122341 -0.122675 0.979441
1305031467.552164 -0.445595 0.915336 -0.76734 0.0981351 -0.125407 -0.129453 0.978716
1305031467.584354 -0.431433 0.915208 -0.771932 0.0982013 -0.126363 -0.131691 0.978288
1305031467.618680 -0.41931 0.914093 -0.775373 0.0975206 -0.128544 -0.130701 0.978204
1305031467.651977 -0.409468 0.90422 -0.77877 0.0981088 -0.133084 -0.129233 0.977733
1305031467.686044 -0.39329 0.901742 -0.778668 0.104807 -0.139222 -0.126642 0.976522
1305031467.718326 -0.375293 0.899009 -0.774824 0.108626 -0.144072 -0.130309 0.974917
1305031467.752580 -0.36478 0.888498 -0.772318 0.111962 -0.145671 -0.135498 0.973594
1305031467.788562 -0.353741 0.882554 -0.767561 0.118049 -0.147986 -0.138459 0.972108
1305031467.820454 -0.342871 0.873493 -0.760972 0.121217 -0.150764 -0.140983 0.970928
1305031467.852678 -0.338489 0.859367 -0.754655 0.125267 -0.152935 -0.141341 0.970022
1305031467.888472 -0.32822 0.851183 -0.744497 0.13249 -0.159328 -0.138945 0.968378
1305031467.920800 -0.315764 0.843417 -0.732149 0.13737 -0.168306 -0.141188 0.965851
1305031467.952485 -0.308687 0.829345 -0.720968 0.13993 -0.174957 -0.143963 0.96389
1305031467.988523 -0.297418 0.816865 -0.708037 0.146369 -0.179651 -0.147369 0.961553
1305031468.020491 -0.283164 0.81184 -0.692095 0.148795 -0.182607 -0.150349 0.960161
1305031468.052668 -0.281739 0.793129 -0.680706 0.1467 -0.182621 -0.153148 0.960039
1305031468.088379 -0.27403 0.778615 -0.667638 0.151136 -0.185764 -0.156396 0.958222
1305031468.120522 -0.263228 0.767579 -0.653238 0.151776 -0.189695 -0.158168 0.957059
1305031468.152356 -0.253783 0.747638 -0.639936 0.149943 -0.192887 -0.160601 0.956305
1305031468.188327 -0.243179 0.73279 -0.627397 0.150989 -0.195123 -0.16449 0.955025
1305031468.220648 -0.23486 0.714829 -0.616594 0.148584 -0.195622 -0.167369 0.9548
1305031468.252517 -0.225104 0.693658 -0.606857 0.145617 -0.195752 -0.166558 0.955372
1305031468.288361 -0.212689 0.674912 -0.596321 0.144479 -0.195384 -0.165927 0.955729
1305031468.320522 -0.204282 0.652186 -0.589149 0.141813 -0.193858 -0.165989 0.956429
1305031468.352594 -0.195117 0.627276 -0.583189 0.141907 -0.192497 -0.162897 0.957221
1305031468.384700 -0.183454 0.61259 -0.575881 0.143747 -0.191755 -0.159317 0.957698
1305031468.420595 -0.175236 0.594333 -0.570299 0.139019 -0.191806 -0.159355 0.958379
1305031468.452605 -0.168441 0.569596 -0.566964 0.133822 -0.192898 -0.159078 0.958945
1305031468.488646 -0.16148 0.549687 -0.563381 0.131302 -0.193731 -0.157459 0.959393
1305031468.520786 -0.155111 0.529212 -0.559979 0.127932 -0.192691 -0.160317 0.959584
1305031468.552701 -0.151599 0.506967 -0.557573 0.128519 -0.192137 -0.166925 0.958489
1305031468.588614 -0.153511 0.485601 -0.558723 0.1322 -0.191285 -0.174252 0.956854
1305031468.620590 -0.1546 0.471904 -0.558091 0.130944 -0.19138 -0.1776 0.956392
1305031468.656644 -0.155291 0.451117 -0.555919 0.124614 -0.193886 -0.179576 0.956364
1305031468.688643 -0.159247 0.431131 -0.555698 0.124498 -0.197995 -0.181626 0.955149
1305031468.720560 -0.164575 0.41225 -0.556212 0.127824 -0.203359 -0.184443 0.953041
1305031468.756725 -0.169778 0.396091 -0.555488 0.12989 -0.208335 -0.184611 0.951653
1305031468.788562 -0.173148 0.378344 -0.554542 0.130329 -0.211963 -0.186238 0.950474
1305031468.817997 -0.178768 0.359456 -0.554249 0.13492 -0.213146 -0.192097 0.948401
1305031468.854887 -0.182149 0.345675 -0.553481 0.140655 -0.214401 -0.197265 0.946221
1305031468.889220 -0.182703 0.333063 -0.549258 0.140361 -0.213027 -0.201677 0.945645
1305031468.920539 -0.185237 0.319517 -0.546891 0.136752 -0.20788 -0.202776 0.947083
1305031468.956482 -0.187056 0.310199 -0.54357 0.13194 -0.202738 -0.198923 0.949694
1305031468.986011 -0.187141 0.309557 -0.536771 0.125645 -0.199193 -0.198162 0.951455
1305031469.020731 -0.191156 0.304697 -0.530101 0.108603 -0.196271 -0.203823 0.952963
1305031469.056318 -0.196527 0.29574 -0.524807 0.0902985 -0.192719 -0.208805 0.954519
1305031469.088069 -0.202945 0.288837 -0.519287 0.0773419 -0.190998 -0.214975 0.954633
1305031469.119984 -0.204839 0.28276 -0.509504 0.0652701 -0.188489 -0.225757 0.953544
1305031469.155046 -0.20475 0.2765 -0.499366 0.0536075 -0.180651 -0.235233 0.953497
1305031469.184648 -0.20642 0.268383 -0.489876 0.0431966 -0.171382 -0.241838 0.954084
1305031469.219541 -0.207237 0.262871 -0.479761 0.036421 -0.162754 -0.246001 0.954813
1305031469.256002 -0.208808 0.259199 -0.46875 0.0318149 -0.158817 -0.248409 0.955017
1305031469.288263 -0.212555 0.256458 -0.458191 0.026534 -0.155062 -0.251826 0.954901
1305031469.319772 -0.213723 0.253517 -0.445515 0.0214391 -0.15099 -0.254326 0.955019
1305031469.356116 -0.2156 0.25711 -0.432791 0.0165825 -0.147877 -0.255997 0.955156
1305031469.388556 -0.219253 0.252418 -0.42077 0.00949972 -0.140156 -0.260402 0.955226
1305031469.420278 -0.220847 0.25233 -0.408484 0.00888503 -0.127905 -0.264852 0.955727
1305031469.456563 -0.220557 0.258215 -0.395224 0.0103695 -0.116671 -0.271343 0.955329
1305031469.488520 -0.221714 0.263982 -0.381269 0.0109926 -0.10795 -0.27837 0.954325
1305031469.520417 -0.222741 0.272562 -0.367479 0.0113071 -0.104958 -0.28036 0.954072
1305031469.556139 -0.224102 0.277873 -0.353501 0.00662168 -0.105713 -0.280858 0.953887
1305031469.588500 -0.225664 0.285186 -0.339063 0.000233489 -0.105969 -0.281064 0.95382
1305031469.620563 -0.226799 0.292702 -0.324696 -0.00787866 -0.10601 -0.280815 0.953857
1305031469.656279 -0.22774 0.304054 -0.310412 -0.0154755 -0.103553 -0.278107 0.954826
1305031469.687925 -0.228773 0.313745 -0.296087 -0.0194346 -0.100108 -0.276327 0.955638
1305031469.718943 -0.230927 0.324303 -0.28224 -0.0234417 -0.0961079 -0.274686 0.956432
1305031469.756754 -0.23358 0.334373 -0.268786 -0.0282762 -0.0916195 -0.272807 0.957279
1305031469.784733 -0.237743 0.346106 -0.255953 -0.0341766 -0.0878824 -0.26976 0.9583
1305031469.820544 -0.242053 0.361102 -0.243329 -0.0387634 -0.0874216 -0.265524 0.95935
1305031469.854359 -0.248571 0.374369 -0.232261 -0.0440076 -0.088437 -0.263042 0.959714
1305031469.885343 -0.256008 0.389549 -0.22181 -0.0496329 -0.0895999 -0.259602 0.960268
1305031469.921773 -0.264012 0.404609 -0.212069 -0.0535977 -0.0903215 -0.255997 0.960955
1305031469.953180 -0.273641 0.418118 -0.202843 -0.0567722 -0.0922087 -0.252833 0.961431
1305031469.985327 -0.284915 0.432233 -0.195366 -0.0587429 -0.0939713 -0.250839 0.961664
1305031470.024714 -0.296717 0.445815 -0.188887 -0.0610171 -0.0949186 -0.249513 0.961775
1305031470.057400 -0.310243 0.459753 -0.183805 -0.0637815 -0.0950241 -0.249179 0.961671
1305031470.088874 -0.323012 0.475552 -0.180063 -0.0650915 -0.0942359 -0.248215 0.961911
1305031470.124820 -0.336481 0.488795 -0.177479 -0.0671339 -0.0924995 -0.246706 0.962327
1305031470.156744 -0.349195 0.504307 -0.175388 -0.06997 -0.0912963 -0.244316 0.962849
1305031470.188876 -0.365307 0.5179 -0.174009 -0.0732745 -0.0909234 -0.241097 0.96345
1305031470.224776 -0.378647 0.530169 -0.173447 -0.07591 -0.09116 -0.238483 0.963874
1305031470.253015 -0.391538 0.543786 -0.172926 -0.079085 -0.0900478 -0.23505 0.964566
1305031470.287867 -0.404016 0.556989 -0.172221 -0.0824826 -0.0889772 -0.231981 0.965124
1305031470.324266 -0.417017 0.569105 -0.171293 -0.0883349 -0.0879623 -0.229301 0.96534
1305031470.356871 -0.432015 0.580007 -0.170104 -0.0947673 -0.0868334 -0.225578 0.965709
1305031470.388056 -0.445994 0.59023 -0.169771 -0.100213 -0.0875187 -0.22193 0.965942
1305031470.424090 -0.460882 0.599232 -0.16967 -0.104211 -0.0889526 -0.220995 0.965603
1305031470.455875 -0.475744 0.607196 -0.170177 -0.105964 -0.090498 -0.223352 0.964726
1305031470.487958 -0.49035 0.61494 -0.17144 -0.106126 -0.0915711 -0.224074 0.964439
1305031470.524431 -0.503029 0.623353 -0.172895 -0.104859 -0.0931018 -0.224057 0.964435
1305031470.556484 -0.515851 0.631386 -0.174276 -0.104586 -0.0931058 -0.224179 0.964436
1305031470.588797 -0.528578 0.637599 -0.175008 -0.106907 -0.0921266 -0.222443 0.964678
1305031470.624535 -0.539097 0.643481 -0.175456 -0.108148 -0.0923301 -0.219374 0.965222
1305031470.656787 -0.539097 0.643481 -0.175456 -0.108148 -0.0923301 -0.219374 0.965222
1305031470.688640 -0.549318 0.648826 -0.17496 -0.109873 -0.0925877 -0.216379 0.965679
1305031470.724461 -0.558948 0.652875 -0.174494 -0.113099 -0.0937153 -0.214623 0.96559
1305031470.755944 -0.558948 0.652875 -0.174494 -0.113099 -0.0937153 -0.214623 0.96559
1305031470.788407 -0.558948 0.652875 -0.174494 -0.113099 -0.0937153 -0.214623 0.96559
1305031470.820633 -0.558948 0.652875 -0.174494 -0.113099 -0.0937153 -0.214623 0.96559
1305031470.855509 -0.558948 0.652875 -0.174494 -0.113099 -0.0937153 -0.214623 0.96559
1305031470.886079 -0.567604 0.654181 -0.175688 -0.108938 -0.0949296 -0.209951 0.966975
1305031470.924410 -0.577015 0.654955 -0.177108 -0.106198 -0.0963105 -0.205657 0.968066
1305031470.956439 -0.577015 0.654955 -0.177108 -0.106198 -0.0963105 -0.205657 0.968066
1305031470.988276 -0.577015 0.654955 -0.177108 -0.106198 -0.0963105 -0.205657 0.968066
1305031471.024309 -0.577015 0.654955 -0.177108 -0.106198 -0.0963105 -0.205657 0.968066
1305031471.056616 -0.58722 0.653212 -0.179927 -0.0981007 -0.0941776 -0.202437 0.969807
1305031471.088440 -0.595306 0.652358 -0.18206 -0.0883565 -0.0928483 -0.196675 0.972055
1305031471.123837 -0.603322 0.651861 -0.184322 -0.0808087 -0.092629 -0.189767 0.974104
1305031471.155886 -0.610872 0.650335 -0.18694 -0.0752159 -0.0933231 -0.183669 0.975653
1305031471.192698 -0.617281 0.651007 -0.188728 -0.0691404 -0.0921974 -0.177912 0.977275
1305031471.224404 -0.623305 0.652008 -0.189933 -0.0664443 -0.0891687 -0.172452 0.978721
1305031471.256397 -0.629125 0.651736 -0.19037 -0.0663905 -0.0865145 -0.16902 0.979561
1305031471.288603 -0.63677 0.649824 -0.191307 -0.0676019 -0.083856 -0.165669 0.980282
1305031471.324440 -0.643499 0.648184 -0.192649 -0.0662805 -0.0809484 -0.161617 0.981292
1305031471.356569 -0.647097 0.648805 -0.193579 -0.0616221 -0.0763517 -0.158998 0.982391
1305031471.392751 -0.651244 0.647562 -0.195208 -0.0618164 -0.0685637 -0.156045 0.983426
1305031471.424494 -0.656885 0.64364 -0.197822 -0.0618832 -0.0625391 -0.150751 0.984649
1305031471.456975 -0.66124 0.643465 -0.199883 -0.0579237 -0.0614768 -0.145222 0.985787
1305031471.492705 -0.665929 0.644219 -0.201871 -0.057532 -0.0612457 -0.140589 0.986496
1305031471.524343 -0.670808 0.643549 -0.203817 -0.0587357 -0.0600767 -0.135977 0.987143
1305031471.556561 -0.6748 0.643336 -0.206115 -0.0588461 -0.0591283 -0.132796 0.987627
1305031471.592606 -0.678699 0.643899 -0.208658 -0.0588866 -0.0563504 -0.130632 0.988075
1305031471.624486 -0.681855 0.643774 -0.211648 -0.0586553 -0.0516744 -0.128815 0.988583
1305031471.656831 -0.684937 0.64318 -0.214743 -0.0583288 -0.0467176 -0.126855 0.989102
1305031471.693182 -0.687233 0.643003 -0.217932 -0.05654 -0.0418525 -0.122948 0.989917
1305031471.724753 -0.688433 0.645368 -0.220755 -0.0538726 -0.038498 -0.11826 0.990773
1305031471.753002 -0.689671 0.646691 -0.222761 -0.0546945 -0.0348704 -0.113714 0.991394
1305031471.792706 -0.689097 0.646323 -0.224321 -0.0550817 -0.0309548 -0.107514 0.992194
1305031471.823821 -0.68911 0.650359 -0.22592 -0.053195 -0.0253035 -0.0999179 0.99325
1305031471.855793 -0.690295 0.653262 -0.226692 -0.0567441 -0.0212258 -0.0934222 0.993782
1305031471.892838 -0.691383 0.656184 -0.227108 -0.0589816 -0.0178629 -0.0872282 0.99428
1305031471.924928 -0.692792 0.660326 -0.227018 -0.0617652 -0.0134219 -0.0815215 0.994665
1305031471.957162 -0.692852 0.661537 -0.22676 -0.0669554 -0.00837233 -0.0806843 0.994453
1305031471.993177 -0.692852 0.661537 -0.22676 -0.0669554 -0.00837233 -0.0806843 0.994453
1305031472.024660 -0.696105 0.667885 -0.226699 -0.0674048 -0.000710431 -0.0762115 0.99481
1305031472.058063 -0.696105 0.667885 -0.226699 -0.0674048 -0.000710431 -0.0762115 0.99481
1305031472.092883 -0.69991 0.670204 -0.226757 -0.0679764 0.00377113 -0.0728802 0.995014
1305031472.124760 -0.702753 0.675495 -0.226082 -0.0673989 0.00831861 -0.067027 0.995437
1305031472.156982 -0.702753 0.675495 -0.226082 -0.0673989 0.00831861 -0.067027 0.995437
1305031472.192890 -0.706418 0.674217 -0.225662 -0.0694288 0.00939168 -0.065474 0.995392
1305031472.224678 -0.706418 0.674217 -0.225662 -0.0694288 0.00939168 -0.065474 0.995392
1305031472.256642 -0.706418 0.674217 -0.225662 -0.0694288 0.00939168 -0.065474 0.995392
1305031472.293139 -0.707978 0.6711 -0.226185 -0.0672873 0.0104964 -0.0653391 0.995537
1305031472.324844 -0.71063 0.670791 -0.227883 -0.0605962 0.0128038 -0.061544 0.996181
1305031472.360912 -0.713564 0.672551 -0.229121 -0.0561307 0.0143616 -0.0589038 0.996581
1305031472.392956 -0.714637 0.671554 -0.229557 -0.0570214 0.0139966 -0.0575077 0.996617
1305031472.424694 -0.715846 0.66847 -0.22973 -0.0575006 0.0118357 -0.0562806 0.996688
1305031472.460919 -0.717192 0.666501 -0.23013 -0.0557663 0.00983898 -0.0563375 0.996805
1305031472.492972 -0.717221 0.664623 -0.230347 -0.0544929 0.00964111 -0.0572905 0.996823
1305031472.524781 -0.716574 0.661086 -0.230566 -0.0559012 0.0115431 -0.0577669 0.996697
1305031472.561296 -0.716391 0.655117 -0.231122 -0.0560367 0.0123742 -0.0566547 0.996743
1305031472.592968 -0.716553 0.652128 -0.232388 -0.0509637 0.0113046 -0.0539187 0.99718
1305031472.624647 -0.715692 0.651205 -0.233016 -0.0478364 0.0102394 -0.0507483 0.997513
1305031472.660836 -0.713501 0.647685 -0.232598 -0.0483031 0.00893806 -0.0495017 0.997565
1305031472.693008 -0.712531 0.643815 -0.232336 -0.0479275 0.00842719 -0.0478237 0.99767
1305031472.724752 -0.710588 0.639861 -0.231927 -0.0466379 0.00721872 -0.0468873 0.997785
1305031472.760654 -0.709616 0.63717 -0.231553 -0.044246 0.00659926 -0.0471352 0.997886
1305031472.792775 -0.707479 0.634067 -0.230823 -0.0428611 0.00655935 -0.0491175 0.997851
1305031472.824692 -0.707056 0.630562 -0.230028 -0.0413412 0.00761257 -0.0500903 0.99786
1305031472.860936 -0.707023 0.628368 -0.229324 -0.0390872 0.00841102 -0.0498909 0.997954
1305031472.892944 -0.706509 0.627317 -0.22822 -0.0372258 0.00778913 -0.0482143 0.998113
1305031472.924814 -0.706289 0.626009 -0.226923 -0.0376903 0.00640757 -0.0459052 0.998214
1305031472.961213 -0.705365 0.623787 -0.225647 -0.0383861 0.00544105 -0.0443453 0.998264
1305031472.992815 -0.704323 0.623501 -0.224596 -0.0381191 0.0051029 -0.0432588 0.998323
1305031473.024564 -0.704158 0.622625 -0.223512 -0.0392255 0.00406315 -0.0426916 0.99831
1305031473.060795 -0.703838 0.621562 -0.222468 -0.0403203 0.00293098 -0.0431908 0.998249
1305031473.092012 -0.70388 0.619972 -0.221705 -0.0412621 0.00298498 -0.0446922 0.998144
1305031473.124072 -0.703816 0.619434 -0.221326 -0.0409837 0.00421342 -0.0467767 0.998055
1305031473.158420 -0.7039 0.61823 -0.22113 -0.041365 0.00494731 -0.0483906 0.997959
1305031473.190828 -0.704176 0.616962 -0.221217 -0.040862 0.0043868 -0.0484998 0.997977
