1305031453.374112 0 0 0 0 0 0 1
1305031453.404816 0.00459725 0.00436043 -0.00924468 -0.0013165 0.00615853 0.0103905 0.999926
1305031453.436941 0.00879944 0.00758918 -0.0192436 -0.000588032 0.010159 0.019987 0.999748
1305031453.473352 0.0133152 0.0113573 -0.0303126 0.00263243 0.0156159 0.028717 0.999462
1305031453.505218 0.0175437 0.0155594 -0.0423783 0.00656764 0.0218523 0.0377672 0.999026
1305031453.538301 0.0195144 0.0192144 -0.055423 0.0122367 0.0273711 0.0468591 0.998451
1305031453.574074 0.0208451 0.0242713 -0.0692773 0.0193294 0.0303711 0.0536495 0.997911
1305031453.605314 0.0208391 0.0302265 -0.0832143 0.0269863 0.0331617 0.0583392 0.997381
1305031453.636951 0.019359 0.036626 -0.097509 0.0340371 0.0347724 0.0623652 0.996867
1305031453.673185 0.0138719 0.0433499 -0.111092 0.0420564 0.0328406 0.0623386 0.996628
1305031453.705487 0.00675066 0.0509937 -0.124448 0.0491456 0.0293217 0.0586136 0.996639
1305031453.736856 -0.00191726 0.0595085 -0.137236 0.0541827 0.0255776 0.0541801 0.996732
1305031453.773786 -0.0116934 0.0645372 -0.149956 0.0576883 0.0197096 0.0481313 0.996979
1305031453.805041 -0.0230466 0.0724559 -0.1617 0.0627061 0.0123117 0.040486 0.997135
1305031453.840352 -0.0337395 0.0815693 -0.17269 0.0661593 0.00564482 0.0336582 0.997225
1305031453.869618 -0.0454136 0.0913495 -0.181782 0.0695554 -0.00338617 0.0272292 0.997201
1305031453.905519 -0.0588029 0.102364 -0.188808 0.0715889 -0.0172459 0.0212558 0.997059
1305031453.940012 -0.0738245 0.10961 -0.195551 0.0701993 -0.0335108 0.0181996 0.996804
1305031453.972592 -0.0878279 0.113054 -0.202234 0.0670346 -0.048547 0.00952279 0.996523
1305031454.003179 -0.100462 0.114636 -0.208397 0.0642049 -0.0606011 -0.00257041 0.996092
1305031454.040976 -0.117337 0.116226 -0.214116 0.0655167 -0.0704334 -0.0122064 0.995288
1305031454.072690 -0.134463 0.120802 -0.217768 0.0671198 -0.0795757 -0.0228368 0.994304
1305031454.104619 -0.153287 0.122483 -0.221004 0.0668367 -0.0882142 -0.0349779 0.993241
1305031454.141030 -0.170839 0.123971 -0.224058 0.0692027 -0.0993108 -0.0485266 0.99146
1305031454.172688 -0.186227 0.129698 -0.225407 0.0709811 -0.111979 -0.0617042 0.98925
1305031454.204626 -0.200464 0.132405 -0.226264 0.0691193 -0.126266 -0.0752675 0.986719
1305031454.240858 -0.217794 0.12903 -0.229149 0.068412 -0.139715 -0.0905199 0.98367
1305031454.273489 -0.230504 0.131684 -0.230106 0.0736733 -0.152073 -0.107348 0.979756
1305031454.304744 -0.241096 0.136598 -0.23039 0.0730503 -0.158999 -0.119562 0.977286
1305031454.340806 -0.256827 0.135503 -0.233629 0.0723108 -0.165609 -0.132963 0.974508
1305031454.372652 -0.267637 0.137739 -0.234546 0.0781702 -0.175875 -0.148659 0.969978
1305031454.401962 -0.276781 0.143465 -0.235361 0.0803081 -0.183368 -0.161187 0.966409
1305031454.437248 -0.288689 0.147226 -0.237445 0.08152 -0.193832 -0.176379 0.9616
1305031454.470741 -0.296851 0.151485 -0.237715 0.0842952 -0.202947 -0.192618 0.95635
1305031454.503859 -0.304904 0.157505 -0.239121 0.086019 -0.206552 -0.2087 0.952041
1305031454.538424 -0.310462 0.164585 -0.239503 0.085924 -0.212535 -0.225414 0.946908
1305031454.570323 -0.31541 0.172671 -0.240014 0.0837775 -0.218233 -0.238879 0.942493
1305031454.602019 -0.321333 0.179003 -0.241014 0.08091 -0.227527 -0.255672 0.936118
1305031454.639284 -0.324826 0.18524 -0.241029 0.0790715 -0.240141 -0.269432 0.92924
1305031454.669573 -0.325067 0.193925 -0.239974 0.0742659 -0.253069 -0.27641 0.924142
1305031454.702030 -0.328238 0.202359 -0.242368 0.067707 -0.264871 -0.281873 0.919678
1305031454.740764 -0.326715 0.207848 -0.242101 0.063477 -0.277668 -0.286837 0.914656
1305031454.772865 -0.321254 0.213904 -0.240298 0.0587893 -0.285537 -0.28446 0.913288
1305031454.802574 -0.317243 0.221092 -0.240256 0.054556 -0.288448 -0.277599 0.914746
1305031454.840500 -0.310747 0.231485 -0.23922 0.0518034 -0.290416 -0.271082 0.916237
1305031454.870269 -0.305783 0.239834 -0.238649 0.0474414 -0.288322 -0.264847 0.918954
1305031454.901065 -0.301705 0.24857 -0.238998 0.0443459 -0.283779 -0.257859 0.922503
1305031454.940240 -0.299138 0.259455 -0.240491 0.0417668 -0.277978 -0.251106 0.926245
1305031454.973081 -0.29891 0.268713 -0.243159 0.0385593 -0.27217 -0.244688 0.92982
1305031455.010759 -0.301498 0.278248 -0.24718 0.0361662 -0.268086 -0.2385 0.932706
1305031455.040446 -0.303216 0.291025 -0.250245 0.0367177 -0.266742 -0.234696 0.934033
1305031455.074282 -0.307569 0.300936 -0.25397 0.0361284 -0.262989 -0.2325 0.935669
1305031455.110340 -0.313418 0.310764 -0.258217 0.038495 -0.258733 -0.231859 0.936919
1305031455.142700 -0.319178 0.32317 -0.262203 0.0411854 -0.253776 -0.230753 0.938432
1305031455.172771 -0.327121 0.33295 -0.265995 0.0404711 -0.24893 -0.227112 0.940647
1305031455.210307 -0.336939 0.342876 -0.270085 0.0378585 -0.244443 -0.221251 0.943325
1305031455.240960 -0.346566 0.350235 -0.273663 0.0369972 -0.240654 -0.215791 0.945596
1305031455.273001 -0.353844 0.363411 -0.275746 0.0368979 -0.236614 -0.209884 0.947946
1305031455.310303 -0.364784 0.368667 -0.279034 0.0285699 -0.230617 -0.201065 0.951616
1305031455.342381 -0.376141 0.376809 -0.282851 0.0229402 -0.227514 -0.190188 0.954746
1305031455.374120 -0.376141 0.376809 -0.282851 0.0229402 -0.227514 -0.190188 0.954746
1305031455.409213 -0.38738 0.380142 -0.286678 0.0125924 -0.220217 -0.183645 0.957925
1305031455.442380 -0.38738 0.380142 -0.286678 0.0125924 -0.220217 -0.183645 0.957925
1305031455.473168 -0.38738 0.380142 -0.286678 0.0125924 -0.220217 -0.183645 0.957925
1305031455.509397 -0.38738 0.380142 -0.286678 0.0125924 -0.220217 -0.183645 0.957925
1305031455.540835 -0.40332 0.381096 -0.295398 0.0066985 -0.21584 -0.171104 0.961297
1305031455.572996 -0.420948 0.384466 -0.305463 0.00423466 -0.214603 -0.157716 0.963874
1305031455.608802 -0.43803 0.390992 -0.315776 0.00220658 -0.214146 -0.142855 0.966296
1305031455.641333 -0.456678 0.391032 -0.326526 -0.00341083 -0.210794 -0.129678 0.968885
1305031455.672887 -0.475907 0.389292 -0.337847 -0.00257537 -0.207009 -0.122727 0.970607
1305031455.707680 -0.493561 0.391658 -0.349776 0.00143691 -0.203754 -0.122979 0.971267
1305031455.742005 -0.511273 0.391177 -0.362072 0.0033901 -0.19882 -0.127244 0.971735
1305031455.773667 -0.528097 0.389778 -0.374676 0.00451791 -0.191959 -0.130434 0.972686
1305031455.809109 -0.5454 0.383025 -0.387714 0.00441458 -0.185334 -0.129876 0.974045
1305031455.838364 -0.560598 0.381998 -0.401326 0.00742886 -0.181018 -0.129252 0.974921
1305031455.872220 -0.574898 0.379613 -0.414381 0.00764378 -0.177909 -0.130175 0.975369
1305031455.908418 -0.588265 0.377139 -0.426437 0.00777453 -0.174281 -0.130481 0.975982
1305031455.939606 -0.601957 0.373818 -0.437869 0.00700012 -0.169434 -0.130993 0.976772
1305031455.973594 -0.61425 0.373178 -0.448528 0.00792986 -0.16474 -0.133098 0.977283
1305031456.008998 -0.625553 0.372988 -0.457714 0.00674032 -0.159296 -0.135678 0.97784
1305031456.041930 -0.636123 0.37607 -0.46536 0.00377887 -0.152517 -0.140136 0.978308
1305031456.073846 -0.649712 0.371915 -0.47295 -0.00558306 -0.14519 -0.147502 0.978331
1305031456.108963 -0.663912 0.365051 -0.479551 -0.012132 -0.139198 -0.152849 0.978322
1305031456.140836 -0.677654 0.360073 -0.485413 -0.0139999 -0.133409 -0.154391 0.978861
1305031456.173198 -0.690663 0.35325 -0.490458 -0.0153239 -0.126621 -0.154898 0.979663
1305031456.208934 -0.703058 0.34646 -0.494162 -0.0109647 -0.117979 -0.152793 0.981129
1305031456.240996 -0.710438 0.350807 -0.497067 -0.00457425 -0.108981 -0.150317 0.982602
1305031456.277928 -0.722436 0.34601 -0.498252 -0.00517062 -0.0969407 -0.147793 0.984242
1305031456.310040 -0.735118 0.339243 -0.498303 -0.00290017 -0.0856293 -0.143464 0.98594
1305031456.341659 -0.74643 0.336263 -0.497616 0.00252623 -0.0749292 -0.136886 0.987746
1305031456.377115 -0.755011 0.341328 -0.49589 0.00958086 -0.0638102 -0.131999 0.989147
1305031456.409172 -0.769812 0.334654 -0.492471 0.00996399 -0.0498446 -0.127152 0.99058
1305031456.440717 -0.783985 0.336715 -0.487937 0.0178956 -0.0389887 -0.120287 0.991812
1305031456.476027 -0.796018 0.347233 -0.482177 0.0216256 -0.0337288 -0.113702 0.992707
1305031456.508911 -0.811979 0.349917 -0.474159 0.0161001 -0.0316337 -0.107366 0.993586
1305031456.541832 -0.828292 0.3505 -0.465213 0.00990522 -0.0308507 -0.101427 0.994315
1305031456.576087 -0.844256 0.345821 -0.455438 0.00558202 -0.0283572 -0.0962407 0.994938
1305031456.607930 -0.854811 0.356108 -0.445882 0.00859621 -0.0244731 -0.0902128 0.995585
1305031456.640699 -0.866108 0.365633 -0.435626 -0.000837992 -0.0183121 -0.0847054 0.996237
1305031456.675835 -0.881583 0.355145 -0.424532 -0.0157498 -0.0109406 -0.0780951 0.996761
1305031456.709099 -0.895911 0.356082 -0.414223 -0.0145992 -0.00639828 -0.0677812 0.997573
1305031456.740863 -0.908891 0.366475 -0.404662 -0.016645 -0.00484974 -0.057705 0.998183
1305031456.777218 -0.925454 0.36002 -0.393432 -0.0251403 -0.00599452 -0.0491407 0.998457
1305031456.808986 -0.94144 0.363238 -0.3826 -0.0207061 -0.0113446 -0.0408849 0.998885
1305031456.841050 -0.953147 0.375827 -0.372622 -0.0190713 -0.0136616 -0.0324302 0.999199
1305031456.878006 -0.966362 0.376404 -0.361272 -0.0259576 -0.0109195 -0.0251345 0.999287
1305031456.909883 -0.978985 0.373484 -0.350578 -0.0291844 -0.00681603 -0.0199582 0.999352
1305031456.942298 -0.990799 0.377565 -0.341227 -0.0243225 -0.000922709 -0.0140098 0.999606
1305031456.977139 -1.00161 0.388111 -0.333411 -0.0236737 0.00467639 -0.00970914 0.999662
1305031457.006193 -1.0158 0.387386 -0.325269 -0.0319326 0.0110539 -0.00640496 0.999408
1305031457.042512 -1.02893 0.387392 -0.319019 -0.0344868 0.0163674 -0.00231373 0.999268
1305031457.076011 -1.04066 0.393708 -0.315012 -0.0368038 0.0215941 0.0026559 0.999086
1305031457.108053 -1.05367 0.39196 -0.31228 -0.0461996 0.0282432 0.00748216 0.998505
1305031457.142120 -1.06676 0.38625 -0.311232 -0.05098 0.0355644 0.0125902 0.997987
1305031457.177463 -1.07936 0.385494 -0.312989 -0.049713 0.0429968 0.0191918 0.997653
1305031457.209336 -1.09197 0.387479 -0.316304 -0.0484133 0.0503392 0.0248937 0.997247
1305031457.240792 -1.1069 0.385428 -0.32009 -0.0519574 0.0581741 0.0314602 0.996457
1305031457.277247 -1.12226 0.375865 -0.324197 -0.0524426 0.0664601 0.0386576 0.99566
1305031457.309693 -1.13648 0.376385 -0.331497 -0.0442159 0.074774 0.0441071 0.995243
1305031457.342954 -1.15105 0.379601 -0.339484 -0.0398549 0.0846965 0.0485758 0.994424
1305031457.376037 -1.16637 0.374852 -0.346749 -0.0403639 0.0962459 0.0545116 0.993044
1305031457.407980 -1.18133 0.368833 -0.355077 -0.0363134 0.107109 0.062626 0.991608
1305031457.441357 -1.19765 0.370129 -0.364715 -0.0315191 0.114839 0.0700113 0.990412
1305031457.476577 -1.21412 0.365672 -0.373371 -0.0313084 0.118631 0.0755694 0.989563
1305031457.508603 -1.2308 0.357852 -0.381595 -0.0309524 0.1218 0.0801524 0.988829
1305031457.543946 -1.24658 0.351863 -0.390442 -0.0273249 0.126114 0.0834643 0.988121
1305031457.576581 -1.2624 0.348811 -0.399379 -0.0229193 0.131542 0.0869743 0.987222
1305031457.607246 -1.27867 0.348 -0.40769 -0.0190963 0.135972 0.0904884 0.986387
1305031457.643534 -1.29478 0.341297 -0.413966 -0.0183476 0.139093 0.0940853 0.985629
1305031457.675414 -1.31062 0.341687 -0.42057 -0.0144797 0.141451 0.0977871 0.984997
1305031457.707739 -1.32676 0.336855 -0.425722 -0.0189587 0.142824 0.100665 0.984433
1305031457.745071 -1.34218 0.322159 -0.42913 -0.0223608 0.145647 0.101666 0.983845
1305031457.773518 -1.35817 0.311547 -0.43368 -0.0201816 0.149263 0.100762 0.983443
1305031457.807824 -1.37324 0.296849 -0.437928 -0.014276 0.155558 0.100265 0.982621
1305031457.842853 -1.38832 0.296962 -0.444667 -0.00319481 0.163502 0.099075 0.98155
1305031457.875920 -1.40307 0.289833 -0.449012 -7.52476e-05 0.172076 0.0992165 0.980074
1305031457.906126 -1.41763 0.272608 -0.451373 0.00493362 0.180042 0.100558 0.978493
1305031457.942604 -1.43435 0.269128 -0.453482 0.0189444 0.185067 0.103932 0.977031
1305031457.976744 -1.45182 0.266749 -0.452873 0.027277 0.187816 0.108055 0.975861
1305031458.009019 -1.46543 0.255156 -0.451242 0.0314409 0.189513 0.108813 0.975324
1305031458.046303 -1.47823 0.24578 -0.448512 0.0398183 0.193474 0.108393 0.974286
1305031458.077315 -1.49491 0.250013 -0.443058 0.0502493 0.199244 0.109322 0.972536
1305031458.108896 -1.51064 0.250296 -0.434509 0.0518946 0.204716 0.111061 0.971115
1305031458.144808 -1.52436 0.240619 -0.423993 0.0497333 0.209463 0.111844 0.970125
1305031458.178039 -1.53951 0.23338 -0.411592 0.0514144 0.213053 0.114096 0.968993
1305031458.209384 -1.5586 0.235116 -0.396288 0.0534402 0.215433 0.118329 0.967849
1305031458.245729 -1.57431 0.227177 -0.380515 0.046093 0.214937 0.119827 0.968152
1305031458.277447 -1.58465 0.203255 -0.366529 0.0398102 0.213063 0.118789 0.968973
1305031458.308343 -1.60211 0.197922 -0.349538 0.0483138 0.211614 0.118181 0.968978
1305031458.343898 -1.61659 0.191493 -0.333156 0.0505919 0.207686 0.119834 0.969509
1305031458.376213 -1.62523 0.174255 -0.317861 0.0552089 0.203514 0.12009 0.970109
1305031458.407856 -1.63811 0.17514 -0.30025 0.0686152 0.202276 0.121321 0.969359
1305031458.443957 -1.64591 0.172237 -0.283659 0.0774272 0.202324 0.127862 0.967844
1305031458.476034 -1.64742 0.16291 -0.2712 0.0875163 0.206246 0.132031 0.965594
1305031458.508869 -1.65233 0.160108 -0.253235 0.109046 0.217572 0.129336 0.961272
1305031458.544401 -1.66603 0.180976 -0.22613 0.133684 0.230518 0.125155 0.955681
1305031458.576178 -1.67034 0.186693 -0.20435 0.142991 0.240071 0.121948 0.952391
1305031458.608421 -1.67638 0.190045 -0.179278 0.153261 0.24785 0.116539 0.949473
1305031458.643659 -1.68347 0.20865 -0.148856 0.160606 0.250255 0.112098 0.948163
1305031458.676991 -1.68655 0.208638 -0.123605 0.154941 0.247131 0.113785 0.949722
1305031458.707780 -1.68824 0.208614 -0.0999114 0.149112 0.234281 0.10814 0.954559
1305031458.744924 -1.68405 0.202793 -0.0851091 0.144784 0.221259 0.0992787 0.959284
1305031458.773802 -1.68418 0.205079 -0.0642788 0.150012 0.207943 0.087741 0.962579
1305031458.810621 -1.68229 0.214177 -0.0455963 0.150003 0.193617 0.0763042 0.966535
1305031458.842919 -1.67623 0.211589 -0.035494 0.142369 0.183392 0.0718546 0.970018
1305031458.875889 -1.67474 0.201319 -0.0287393 0.140178 0.179572 0.0689395 0.971263
1305031458.910599 -1.67454 0.204129 -0.0191202 0.145869 0.181469 0.0604767 0.970636
1305031458.943997 -1.67967 0.209253 -0.00757514 0.146956 0.187175 0.0658194 0.969039
1305031458.976007 -1.68549 0.200283 -9.84272e-05 0.139371 0.192863 0.0788171 0.968074
1305031459.012560 -1.69542 0.178727 0.00464763 0.136402 0.198526 0.0846687 0.966857
1305031459.044413 -1.7111 0.169882 0.0180683 0.146832 0.197784 0.0859892 0.965364
1305031459.073657 -1.72848 0.157332 0.0310974 0.155277 0.191571 0.0955806 0.964393
1305031459.112711 -1.75158 0.142206 0.0476067 0.16688 0.178825 0.105529 0.963865
1305031459.144497 -1.77311 0.131054 0.0650987 0.178478 0.157404 0.107004 0.96536
1305031459.176463 -1.78903 0.121708 0.0812038 0.186707 0.135552 0.108211 0.966983
1305031459.208791 -1.80211 0.116545 0.099464 0.193229 0.120182 0.112826 0.967207
1305031459.244159 -1.81228 0.11392 0.115544 0.196432 0.109502 0.12105 0.966835
1305031459.274941 -1.81986 0.116956 0.12867 0.196934 0.108807 0.128357 0.965869
1305031459.311921 -1.82557 0.120441 0.137787 0.195385 0.119904 0.142432 0.962892
1305031459.344169 -1.83007 0.121663 0.143854 0.195073 0.137088 0.161025 0.957718
1305031459.374084 -1.83601 0.133498 0.151686 0.201745 0.158014 0.179206 0.94985
1305031459.408831 -1.8436 0.155467 0.164805 0.203892 0.179295 0.200208 0.941381
1305031459.443181 -1.84875 0.163955 0.167683 0.195354 0.208779 0.23899 0.927972
1305031459.473401 -1.8532 0.177226 0.170086 0.197656 0.235267 0.272384 0.911805
1305031459.510267 -1.8532 0.177226 0.170086 0.197656 0.235267 0.272384 0.911805
1305031459.544431 -1.86185 0.182585 0.176606 0.188158 0.25048 0.302113 0.900324
1305031459.576817 -1.87395 0.186079 0.18363 0.186672 0.262737 0.323668 0.889585
1305031459.611939 -1.88922 0.189396 0.193097 0.187073 0.269305 0.34102 0.881013
1305031459.643453 -1.90142 0.18617 0.198389 0.183425 0.271426 0.351496 0.877003
1305031459.675678 -1.91505 0.185463 0.205341 0.182977 0.27857 0.352742 0.874352
1305031459.711531 -1.93023 0.180198 0.21186 0.177391 0.289977 0.35869 0.86936
1305031459.743425 -1.94355 0.167835 0.214312 0.17096 0.29868 0.364045 0.865468
1305031459.776577 -1.95806 0.155331 0.218175 0.170603 0.306071 0.3621 0.86377
1305031459.812562 -1.97426 0.144774 0.224819 0.171159 0.310732 0.35904 0.863273
1305031459.844736 -1.98935 0.134518 0.231603 0.169983 0.31212 0.356645 0.863997
1305031459.877006 -2.00272 0.124171 0.23957 0.166237 0.311676 0.355772 0.865245
1305031459.911472 -2.01292 0.108975 0.244731 0.160431 0.307828 0.359299 0.866261
1305031459.943616 -2.02295 0.0947138 0.249723 0.158816 0.305203 0.36248 0.866162
1305031459.979430 -2.0334 0.0827633 0.256269 0.157461 0.303795 0.365505 0.865633
1305031460.011909 -2.04191 0.0681571 0.260741 0.153075 0.302509 0.370572 0.864716
1305031460.043717 -2.04957 0.0513936 0.265081 0.15077 0.302717 0.374959 0.863155
1305031460.079449 -2.05736 0.0378701 0.271558 0.15143 0.303166 0.376666 0.862138
1305031460.111951 -2.06514 0.022881 0.279281 0.154101 0.299042 0.383212 0.860218
1305031460.144204 -2.07019 0.00679843 0.285278 0.159255 0.289922 0.392169 0.858363
1305031460.178730 -2.07758 -0.00461524 0.295709 0.166575 0.282894 0.39854 0.856382
1305031460.208637 -2.07964 -0.0139849 0.30056 0.166541 0.276044 0.404797 0.855688
1305031460.243467 -2.07687 -0.0264377 0.297962 0.164275 0.274475 0.409529 0.854379
1305031460.279164 -2.078 -0.0372414 0.300868 0.165581 0.28171 0.409725 0.851673
1305031460.311712 -2.07852 -0.0486951 0.303721 0.164936 0.290213 0.409525 0.849036
1305031460.342879 -2.08035 -0.0602506 0.308968 0.16585 0.299249 0.410801 0.845095
1305031460.377806 -2.08258 -0.0696039 0.315585 0.165043 0.308657 0.413354 0.840613
1305031460.409883 -2.08178 -0.0817031 0.318907 0.160965 0.31829 0.418048 0.835475
1305031460.444036 -2.0815 -0.0926756 0.323382 0.159543 0.328366 0.422883 0.829392
1305031460.479856 -2.0822 -0.101866 0.329381 0.157047 0.340797 0.426535 0.822959
1305031460.508966 -2.08244 -0.109119 0.335918 0.151421 0.353817 0.432366 0.815442
1305031460.544245 -2.08194 -0.119759 0.339054 0.144266 0.363611 0.442741 0.806818
1305031460.579561 -2.08095 -0.130888 0.340743 0.137201 0.372558 0.447896 0.801103
1305031460.612190 -2.08167 -0.142114 0.346819 0.133171 0.3821 0.449444 0.796407
1305031460.644011 -2.0821 -0.153285 0.351109 0.129745 0.39045 0.451848 0.791548
1305031460.679350 -2.08397 -0.163616 0.358691 0.128111 0.399107 0.451797 0.787515
1305031460.711684 -2.08642 -0.172991 0.366862 0.125374 0.403993 0.453026 0.784754
1305031460.743767 -2.08692 -0.184436 0.373613 0.119765 0.407117 0.453822 0.783554
1305031460.779201 -2.08618 -0.197455 0.380363 0.115631 0.412804 0.4533 0.781499
1305031460.811318 -2.08686 -0.207622 0.388771 0.112747 0.417389 0.452399 0.780007
1305031460.843836 -2.08679 -0.218772 0.398348 0.107349 0.420701 0.450904 0.779854
1305031460.879093 -2.08509 -0.230432 0.40662 0.0997182 0.425326 0.4494 0.779227
1305031460.911313 -2.0818 -0.243082 0.414321 0.0915606 0.430173 0.448167 0.778277
1305031460.943375 -2.07847 -0.255034 0.42229 0.0857347 0.432255 0.449151 0.777219
1305031460.979083 -2.07202 -0.269592 0.426124 0.0805393 0.432589 0.452247 0.775792
1305031461.011290 -2.06656 -0.282184 0.430853 0.0803567 0.435887 0.452654 0.773725
1305031461.043398 -2.06104 -0.294333 0.436299 0.0815713 0.437927 0.454051 0.771624
1305031461.079602 -2.05798 -0.30272 0.444224 0.084972 0.439775 0.453529 0.770513
1305031461.111961 -2.05338 -0.311764 0.451485 0.0828175 0.438475 0.453585 0.771454
1305031461.144098 -2.04551 -0.324155 0.455077 0.0791777 0.438596 0.452627 0.772329
1305031461.179883 -2.03887 -0.335774 0.460126 0.0801625 0.440524 0.451085 0.772033
1305031461.211180 -2.0348 -0.342602 0.466723 0.0821048 0.442485 0.446805 0.773195
1305031461.246864 -2.02984 -0.349788 0.472071 0.0820214 0.444133 0.444722 0.773461
1305031461.278888 -2.02426 -0.357095 0.476261 0.0825296 0.445019 0.4411 0.774969
1305031461.311240 -2.01968 -0.362581 0.482832 0.083772 0.446903 0.435187 0.777092
1305031461.346875 -2.01467 -0.365977 0.490344 0.0840939 0.450895 0.430004 0.777637
1305031461.378850 -2.00947 -0.366971 0.498672 0.0796071 0.454724 0.427371 0.777331
1305031461.411130 -1.9993 -0.374368 0.500449 0.0713117 0.453532 0.429679 0.77756
1305031461.447015 -1.99199 -0.378254 0.504359 0.0701192 0.454534 0.428408 0.777785
1305031461.478901 -1.98612 -0.37929 0.50705 0.0658698 0.454045 0.430792 0.777125
1305031461.512120 -1.97602 -0.387626 0.503085 0.0614038 0.452645 0.433559 0.776768
1305031461.547338 -1.97261 -0.387108 0.503138 0.065718 0.454576 0.430547 0.776963
1305031461.578847 -1.96845 -0.387318 0.500256 0.0633438 0.457069 0.427649 0.777298
1305031461.609662 -1.9656 -0.384151 0.498403 0.0630888 0.464125 0.423815 0.775235
1305031461.646970 -1.96283 -0.379282 0.495876 0.0610299 0.469156 0.423932 0.772302
1305031461.676203 -1.95947 -0.373126 0.492805 0.059702 0.472522 0.424175 0.770217
1305031461.711212 -1.95731 -0.364401 0.490117 0.0598745 0.473441 0.429071 0.76692
1305031461.746919 -1.95373 -0.35844 0.484522 0.0581301 0.472567 0.434857 0.76433
1305031461.778616 -1.95385 -0.348062 0.482404 0.0589763 0.474531 0.437022 0.761809
1305031461.811319 -1.95323 -0.337412 0.478195 0.0565217 0.475822 0.441516 0.758592
1305031461.847090 -1.95305 -0.325136 0.473166 0.056591 0.478794 0.445591 0.754323
1305031461.879162 -1.95629 -0.307625 0.471776 0.0591495 0.481761 0.451034 0.748983
1305031461.911121 -1.95952 -0.289843 0.47118 0.0597625 0.481385 0.461668 0.74267
1305031461.947264 -1.95981 -0.277971 0.467711 0.0556265 0.478216 0.471652 0.738755
1305031461.979223 -1.96193 -0.263861 0.464912 0.0524011 0.481541 0.473823 0.735435
1305031462.011791 -1.96856 -0.244394 0.46785 0.0497601 0.486545 0.479106 0.728873
1305031462.047463 -1.97097 -0.230806 0.466718 0.0459411 0.482622 0.491665 0.723347
1305031462.079285 -1.97464 -0.217896 0.466379 0.0472881 0.475555 0.503761 0.719608
1305031462.112081 -1.97835 -0.206859 0.465066 0.0472897 0.468499 0.51408 0.716934
1305031462.147634 -1.9823 -0.197478 0.464483 0.0454849 0.464209 0.522686 0.713611
1305031462.179358 -1.98659 -0.188996 0.463201 0.0430445 0.461027 0.528563 0.711493
1305031462.212836 -1.99222 -0.180223 0.463904 0.0393743 0.460167 0.528225 0.712513
1305031462.248986 -1.99886 -0.171194 0.465945 0.033954 0.460331 0.528491 0.712488
1305031462.280774 -2.00509 -0.1628 0.468249 0.0278848 0.459184 0.527181 0.71446
1305031462.311931 -2.01183 -0.154601 0.471771 0.0217705 0.457276 0.523884 0.718311
1305031462.347816 -2.0184 -0.146572 0.474401 0.0140795 0.455592 0.519445 0.722783
1305031462.379950 -2.02666 -0.136374 0.478312 0.00697773 0.454847 0.513763 0.727402
1305031462.413016 -2.03369 -0.12825 0.483223 -0.00128084 0.450508 0.511532 0.731694
1305031462.448295 -2.04078 -0.120317 0.486275 -0.00976748 0.444241 0.508673 0.737432
1305031462.480843 -2.0501 -0.111279 0.490448 -0.0165843 0.437501 0.504971 0.743856
1305031462.517041 -2.05709 -0.104499 0.49161 -0.0270254 0.429527 0.503049 0.749479
1305031462.548959 -2.06402 -0.0990412 0.492674 -0.0321534 0.422205 0.501344 0.754561
1305031462.581088 -2.06402 -0.0990412 0.492674 -0.0321534 0.422205 0.501344 0.754561
1305031462.617123 -2.07178 -0.0928633 0.48988 -0.0365502 0.418796 0.492926 0.761773
1305031462.648708 -2.07914 -0.0874433 0.486691 -0.0399467 0.417139 0.484765 0.767725
1305031462.680788 -2.08567 -0.0824551 0.481619 -0.0420921 0.416047 0.475116 0.774208
1305031462.716812 -2.09556 -0.0756873 0.478361 -0.0403364 0.41534 0.465817 0.780308
1305031462.748732 -2.09556 -0.0756873 0.478361 -0.0403364 0.41534 0.465817 0.780308
1305031462.780885 -2.10356 -0.0663919 0.471505 -0.0417026 0.409055 0.455927 0.789345
1305031462.816821 -2.11155 -0.0557277 0.46357 -0.0424101 0.403946 0.447893 0.796506
1305031462.848525 -2.12047 -0.0435053 0.455052 -0.0432772 0.398749 0.44301 0.801791
1305031462.880471 -2.12383 -0.0337217 0.443599 -0.0469222 0.393536 0.439998 0.80581
1305031462.916800 -2.12383 -0.0337217 0.443599 -0.0469222 0.393536 0.439998 0.80581
1305031462.947939 -2.12755 -0.0219363 0.430163 -0.0461134 0.391304 0.436978 0.808582
1305031462.979943 -2.12912 -0.0127081 0.416568 -0.044735 0.387378 0.434741 0.81175
1305031463.016121 -2.12909 -0.00559958 0.401454 -0.0417728 0.383411 0.431168 0.815687
1305031463.050783 -2.12909 -0.00559958 0.401454 -0.0417728 0.383411 0.431168 0.815687
1305031463.076870 -2.13623 0.0084823 0.387498 -0.0360609 0.379144 0.421387 0.823033
1305031463.116806 -2.13623 0.0084823 0.387498 -0.0360609 0.379144 0.421387 0.823033
1305031463.148565 -2.13674 0.0158153 0.371514 -0.0344807 0.37749 0.411538 0.828824
1305031463.180505 -2.14142 0.0293519 0.357016 -0.0296004 0.376771 0.400401 0.834774
1305031463.217123 -2.14488 0.0446553 0.342315 -0.0290722 0.374657 0.391602 0.839901
1305031463.248719 -2.14488 0.0446553 0.342315 -0.0290722 0.374657 0.391602 0.839901
1305031463.278737 -2.14405 0.0559642 0.32842 -0.0233265 0.374818 0.384774 0.843159
1305031463.317110 -2.14503 0.072042 0.31588 -0.0196508 0.373998 0.376731 0.847239
1305031463.348740 -2.14503 0.072042 0.31588 -0.0196508 0.373998 0.376731 0.847239
1305031463.380514 -2.14075 0.0809909 0.303641 -0.013669 0.370236 0.372678 0.850793
1305031463.416326 -2.14075 0.0809909 0.303641 -0.013669 0.370236 0.372678 0.850793
1305031463.444773 -2.14075 0.0809909 0.303641 -0.013669 0.370236 0.372678 0.850793
1305031463.480415 -2.13549 0.0929095 0.290638 -0.013008 0.369211 0.369434 0.852662
1305031463.516994 -2.12861 0.102662 0.277062 -0.014493 0.370053 0.367952 0.852914
1305031463.548505 -2.11983 0.109941 0.261811 -0.0145471 0.372946 0.366101 0.85245
1305031463.580684 -2.11564 0.120011 0.249263 -0.0100729 0.375427 0.366051 0.851446
1305031463.616671 -2.10883 0.127045 0.234492 -0.0101667 0.372554 0.366968 0.852311
1305031463.646147 -2.09678 0.127846 0.215729 -0.0108537 0.369896 0.366294 0.853749
1305031463.683908 -2.08908 0.135064 0.196395 -0.00321482 0.370975 0.362034 0.85516
1305031463.716110 -2.08328 0.146033 0.176557 -6.73105e-06 0.369236 0.35731 0.857901
1305031463.747849 -2.0697 0.145316 0.153987 -0.00339724 0.367133 0.355423 0.859579
1305031463.783912 -2.05683 0.144412 0.129934 -0.000756697 0.369144 0.349605 0.861109
1305031463.815883 -2.05683 0.144412 0.129934 -0.000756697 0.369144 0.349605 0.861109
1305031463.848094 -2.04555 0.144096 0.106236 -0.00368789 0.36879 0.340124 0.865041
1305031463.883817 -2.03399 0.140282 0.0827302 -0.00448608 0.370383 0.330573 0.868054
1305031463.917433 -2.02616 0.142817 0.0594696 -0.00241996 0.371124 0.320618 0.871473
1305031463.944435 -2.01757 0.140925 0.0379901 -0.00256496 0.368547 0.315321 0.874493
1305031463.983748 -2.00803 0.134676 0.0167821 -0.00213736 0.364677 0.310108 0.877975
1305031464.015867 -2.00129 0.132277 -0.00498273 0.00054009 0.36196 0.302081 0.881891
1305031464.047778 -1.99576 0.130614 -0.0258702 0.000591586 0.359474 0.293724 0.885723
1305031464.083152 -1.98812 0.121836 -0.0459773 -0.00105596 0.359642 0.285471 0.888348
1305031464.115837 -1.98379 0.118983 -0.0667423 0.00139524 0.361099 0.275637 0.890859
1305031464.147663 -1.98022 0.11414 -0.0852213 0.00411986 0.359339 0.27172 0.892764
1305031464.183566 -1.97528 0.104121 -0.102448 0.00950425 0.354928 0.270494 0.894857
1305031464.212447 -1.97206 0.0984322 -0.119757 0.020234 0.348202 0.265631 0.898769
1305031464.247602 -1.97057 0.100191 -0.135424 0.0318476 0.338446 0.260768 0.903571
1305031464.283694 -1.96918 0.101764 -0.148697 0.0395839 0.324652 0.257922 0.909126
1305031464.315699 -1.96503 0.10043 -0.163102 0.0425 0.308823 0.25259 0.915981
1305031464.347553 -1.95586 0.0991237 -0.181197 0.0437735 0.295341 0.245732 0.922211
1305031464.383465 -1.94606 0.0972259 -0.200279 0.0469278 0.285512 0.238533 0.927029
1305031464.415539 -1.93696 0.10048 -0.219991 0.0505358 0.280275 0.22822 0.931025
1305031464.444269 -1.92815 0.100411 -0.238761 0.0500362 0.278883 0.21828 0.933849
1305031464.487561 -1.91958 0.0975314 -0.257393 0.051154 0.276079 0.210627 0.936376
1305031464.513688 -1.9098 0.0977819 -0.279234 0.0518968 0.273269 0.203384 0.938758
1305031464.548007 -1.90329 0.0986878 -0.299208 0.0515301 0.272916 0.195139 0.940629
1305031464.584260 -1.89325 0.0925056 -0.323042 0.0459524 0.270524 0.183538 0.943938
1305031464.615688 -1.8787 0.0825047 -0.351801 0.0456168 0.273813 0.171724 0.945228
1305031464.648851 -1.87083 0.0792485 -0.376042 0.0530403 0.285678 0.161002 0.943214
1305031464.684318 -1.86187 0.0736829 -0.398397 0.0587956 0.29691 0.146157 0.94182
1305031464.716305 -1.85282 0.0568676 -0.417027 0.0668824 0.30765 0.128508 0.940406
1305031464.748588 -1.85107 0.0525022 -0.427814 0.0813259 0.314772 0.109837 0.939276
1305031464.784268 -1.84841 0.0558781 -0.435406 0.090451 0.31482 0.0895954 0.940574
1305031464.816195 -1.84276 0.0421837 -0.439735 0.0942015 0.310018 0.0733826 0.943202
1305031464.848283 -1.83911 0.038057 -0.439638 0.103162 0.298435 0.0587641 0.947017
1305031464.884177 -1.8322 0.0430683 -0.437493 0.107353 0.283963 0.0426922 0.95185
1305031464.916391 -1.81903 0.0379205 -0.437842 0.101077 0.269206 0.0229657 0.957488
1305031464.952471 -1.79902 0.0226643 -0.442429 0.0940264 0.257107 0.00232506 0.961795
1305031464.984257 -1.78037 0.013144 -0.444229 0.0939219 0.251516 -0.016692 0.963141
1305031465.015390 -1.76194 0.0176078 -0.442186 0.0974035 0.249234 -0.0378581 0.962788
1305031465.048430 -1.74789 0.0158669 -0.435241 0.0978537 0.24836 -0.0587469 0.96192
1305031465.083338 -1.73932 0.0320346 -0.418642 0.102664 0.242861 -0.0755124 0.961653
1305031465.115475 -1.72045 0.0589719 -0.402891 0.0959101 0.229826 -0.0905549 0.964252
1305031465.151558 -1.70389 0.0659166 -0.386771 0.0764579 0.218113 -0.100876 0.96768
1305031465.183558 -1.68665 0.0706089 -0.371683 0.0600149 0.206913 -0.106189 0.970726
1305031465.215832 -1.66583 0.0793158 -0.358837 0.0482316 0.195852 -0.11161 0.973067
1305031465.251788 -1.64423 0.0934398 -0.34724 0.0373982 0.185851 -0.114483 0.975169
1305031465.283737 -1.62344 0.096903 -0.336548 0.0278399 0.17583 -0.110122 0.977846
1305031465.315985 -1.60022 0.11297 -0.32889 0.0269376 0.163726 -0.0981695 0.98124
1305031465.351729 -1.57953 0.121913 -0.321236 0.0221588 0.149062 -0.084283 0.98498
1305031465.383701 -1.55918 0.125627 -0.315585 0.0203183 0.131887 -0.0717492 0.988456
1305031465.416543 -1.53503 0.13372 -0.314304 0.023254 0.113658 -0.0622046 0.991298
1305031465.452401 -1.50971 0.145187 -0.315924 0.0276563 0.0989066 -0.0526658 0.993317
1305031465.483803 -1.49031 0.163562 -0.319148 0.0328745 0.0876232 -0.0411132 0.994762
1305031465.516043 -1.46673 0.177518 -0.323602 0.0315809 0.0760615 -0.0336312 0.996035
1305031465.551838 -1.44726 0.179774 -0.327248 0.0306987 0.0664546 -0.0291858 0.99689
1305031465.583570 -1.42236 0.193655 -0.335519 0.0382538 0.0561987 -0.0249751 0.997374
1305031465.615685 -1.3981 0.210616 -0.3439 0.0451929 0.0498256 -0.0180018 0.997573
1305031465.651645 -1.37866 0.227332 -0.351205 0.0517964 0.0432393 -0.00793327 0.99769
1305031465.684759 -1.3569 0.243947 -0.359522 0.0581504 0.0321048 -0.000328877 0.997791
1305031465.716279 -1.33058 0.261056 -0.36834 0.0651587 0.0234834 0.00428158 0.997589
1305031465.753153 -1.30846 0.280587 -0.375722 0.0744633 0.0183336 0.0129761 0.996971
1305031465.784387 -1.28588 0.303771 -0.382714 0.0835278 0.0123747 0.0204136 0.996219
1305031465.816591 -1.26374 0.321893 -0.388561 0.0902765 0.00846363 0.0263508 0.995532
1305031465.852860 -1.2422 0.339663 -0.394677 0.100831 0.00457367 0.0319243 0.994381
1305031465.884370 -1.21811 0.371973 -0.400401 0.113198 0.00185705 0.0337794 0.992996
1305031465.912828 -1.19479 0.393359 -0.40504 0.116678 0.00598836 0.0362812 0.992489
1305031465.952840 -1.17059 0.409797 -0.410452 0.123764 0.0113812 0.0373796 0.991542
1305031465.984183 -1.14775 0.435057 -0.415418 0.135256 0.0168344 0.0347754 0.990057
1305031466.016599 -1.12916 0.459133 -0.419231 0.142959 0.0205043 0.0325462 0.988981
1305031466.052655 -1.10949 0.488331 -0.422594 0.149977 0.020111 0.0314637 0.987984
1305031466.083913 -1.09295 0.512955 -0.426166 0.148599 0.0198943 0.0335313 0.988129
1305031466.116400 -1.07951 0.532795 -0.431021 0.144768 0.0168865 0.0345056 0.98872
1305031466.152540 -1.06609 0.550693 -0.4384 0.139404 0.0116496 0.035671 0.989524
1305031466.184186 -1.05464 0.569283 -0.447101 0.134925 0.00534074 0.0383549 0.990099
1305031466.220477 -1.04363 0.588007 -0.456956 0.127287 -0.00382558 0.0377709 0.991139
1305031466.252491 -1.03088 0.596583 -0.470547 0.115767 -0.0113905 0.0324102 0.992682
1305031466.284389 -1.01667 0.603341 -0.485786 0.1135 -0.0115305 0.0234611 0.993194
1305031466.320055 -1.00114 0.617062 -0.500604 0.115554 -0.00519605 0.0116627 0.993219
1305031466.352082 -0.983738 0.632864 -0.514538 0.115321 0.00271136 0.00291548 0.99332
1305031466.384479 -0.970743 0.63907 -0.529626 0.108714 0.0100238 -0.000689031 0.994022
1305031466.420844 -0.958615 0.639222 -0.545299 0.108286 0.0118972 -0.00374399 0.994042
1305031466.452369 -0.943487 0.655734 -0.557605 0.115322 0.00782746 -0.00864597 0.99326
1305031466.483315 -0.927013 0.669356 -0.567968 0.114666 0.0020536 -0.0123093 0.993326
1305031466.519548 -0.907259 0.677422 -0.577203 0.110772 -0.00176791 -0.0128568 0.993761
1305031466.552219 -0.884781 0.6857 -0.585537 0.109891 -0.000450162 -0.0137214 0.993849
1305031466.584438 -0.863673 0.701746 -0.591713 0.108693 0.000465454 -0.016553 0.993937
1305031466.620424 -0.842264 0.710147 -0.59748 0.0998223 -0.000301878 -0.0193936 0.994816
1305031466.648654 -0.822594 0.704857 -0.605262 0.0939573 0.00272211 -0.0213721 0.995343
1305031466.684412 -0.802229 0.715541 -0.612215 0.100616 0.00365586 -0.0281222 0.994521
1305031466.719744 -0.78236 0.731129 -0.616655 0.100842 0.00137426 -0.0368982 0.994217
1305031466.748734 -0.762263 0.73073 -0.622653 0.0935079 -0.000532261 -0.0455728 0.994575
1305031466.784300 -0.745589 0.728743 -0.630547 0.0952456 0.000828153 -0.0524887 0.994069
1305031466.819502 -0.726917 0.742988 -0.635802 0.102101 -0.0023975 -0.0587157 0.993037
1305031466.851527 -0.710294 0.749049 -0.641254 0.0988232 -0.00720287 -0.0612633 0.993191
1305031466.883430 -0.699005 0.745783 -0.648713 0.0960968 -0.0130475 -0.0594781 0.993508
1305031466.919411 -0.68349 0.75133 -0.653867 0.0998736 -0.0254715 -0.0612978 0.992783
1305031466.952451 -0.667866 0.754093 -0.659982 0.0997096 -0.0390685 -0.0637979 0.9922
1305031466.984027 -0.646498 0.755289 -0.665549 0.100449 -0.0495689 -0.0662401 0.991496
1305031467.020424 -0.627914 0.757836 -0.670766 0.101122 -0.0549379 -0.0699818 0.990888
1305031467.052391 -0.611393 0.759901 -0.675868 0.101425 -0.0591953 -0.0745611 0.990277
1305031467.084130 -0.592636 0.764632 -0.679753 0.101992 -0.0623148 -0.0782043 0.989747
1305031467.120528 -0.578121 0.766242 -0.684297 0.0994057 -0.0634201 -0.0844401 0.989427
1305031467.152363 -0.565114 0.765831 -0.68904 0.099133 -0.0655793 -0.0947374 0.988381
1305031467.184216 -0.551692 0.767631 -0.693266 0.100406 -0.0686415 -0.102272 0.987293
1305031467.220466 -0.539443 0.77014 -0.697472 0.101329 -0.0734251 -0.10689 0.986365
1305031467.252275 -0.525524 0.770912 -0.701524 0.101699 -0.080019 -0.112649 0.985172
1305031467.284258 -0.510958 0.772013 -0.705866 0.103312 -0.0853958 -0.118079 0.983916
1305031467.318028 -0.49682 0.774572 -0.71042 0.105272 -0.0907599 -0.125166 0.982351
1305031467.349355 -0.482798 0.779701 -0.714641 0.106675 -0.0964923 -0.129838 0.981046
1305031467.383844 -0.467477 0.786595 -0.718313 0.104195 -0.103428 -0.132586 0.980238
1305031467.420160 -0.453821 0.786444 -0.72365 0.0981353 -0.110306 -0.137463 0.979442
1305031467.452057 -0.440401 0.784535 -0.729902 0.095779 -0.115978 -0.140979 0.978519
1305031467.484357 -0.424425 0.790512 -0.734429 0.0965877 -0.123335 -0.143853 0.977121
1305031467.520535 -0.406158 0.797139 -0.737143 0.0932277 -0.130695 -0.150086 0.975552
1305031467.552164 -0.390485 0.793341 -0.741481 0.087629 -0.133627 -0.156559 0.974656
1305031467.584354 -0.37635 0.791629 -0.74584 0.0874714 -0.134733 -0.158458 0.974211
1305031467.618680 -0.363721 0.790635 -0.748972 0.0869564 -0.136958 -0.157295 0.974135
1305031467.651977 -0.353481 0.779688 -0.752306 0.0869318 -0.141811 -0.155009 0.973809
1305031467.686044 -0.338407 0.777037 -0.751969 0.0938184 -0.147916 -0.153017 0.972576
1305031467.718326 -0.321866 0.77393 -0.748308 0.0975095 -0.152483 -0.156864 0.970894
1305031467.752580 -0.311839 0.762889 -0.745741 0.100592 -0.154389 -0.161578 0.969504
1305031467.788562 -0.301127 0.756404 -0.740588 0.106681 -0.157046 -0.164426 0.967946
1305031467.820454 -0.290915 0.747638 -0.733595 0.109989 -0.16005 -0.167332 0.966585
1305031467.852678 -0.284571 0.733613 -0.726437 0.114119 -0.16305 -0.167552 0.965566
1305031467.888472 -0.275644 0.724654 -0.716485 0.121299 -0.169154 -0.165118 0.964059
1305031467.920800 -0.264598 0.717547 -0.703938 0.126139 -0.178012 -0.166644 0.961577
1305031467.952485 -0.259112 0.702577 -0.692763 0.128274 -0.184728 -0.169486 0.959529
1305031467.988523 -0.24862 0.690441 -0.679555 0.134635 -0.189901 -0.172325 0.957139
1305031468.020491 -0.234827 0.684296 -0.663049 0.13687 -0.193277 -0.175187 0.955626
1305031468.052668 -0.233072 0.664802 -0.651585 0.134306 -0.193526 -0.17818 0.955386
1305031468.088379 -0.226606 0.650944 -0.637962 0.139089 -0.196774 -0.18112 0.953483
1305031468.120522 -0.215998 0.639176 -0.622759 0.139515 -0.201286 -0.18271 0.952175
1305031468.152356 -0.209455 0.619801 -0.609779 0.137546 -0.20396 -0.184755 0.951497
1305031468.188327 -0.200859 0.604837 -0.596877 0.138521 -0.206304 -0.188326 0.95015
1305031468.220648 -0.192891 0.586893 -0.585177 0.136198 -0.206999 -0.191204 0.949759
1305031468.252517 -0.184606 0.565242 -0.574944 0.133289 -0.206987 -0.190673 0.950281
1305031468.288361 -0.173998 0.545791 -0.56436 0.131988 -0.206598 -0.190112 0.95066
1305031468.320522 -0.167771 0.522286 -0.55711 0.129166 -0.204724 -0.190372 0.9514
1305031468.352594 -0.160703 0.496971 -0.551155 0.129358 -0.203058 -0.187674 0.952267
1305031468.384700 -0.149643 0.482877 -0.543191 0.131717 -0.202506 -0.184366 0.952707
1305031468.420595 -0.142871 0.464037 -0.537508 0.127047 -0.202327 -0.18513 0.953231
1305031468.452605 -0.139876 0.43799 -0.534552 0.121392 -0.202551 -0.184417 0.954058
1305031468.488646 -0.134139 0.419522 -0.530575 0.119393 -0.203206 -0.182732 0.954496
1305031468.520786 -0.13041 0.398751 -0.527656 0.115717 -0.201597 -0.185306 0.954793
1305031468.552701 -0.133476 0.37358 -0.528235 0.115457 -0.199262 -0.192358 0.95392
1305031468.588614 -0.135878 0.354691 -0.528288 0.120418 -0.19895 -0.200482 0.951696
1305031468.620590 -0.13549 0.340699 -0.52595 0.119378 -0.200159 -0.204699 0.950675
1305031468.656644 -0.142152 0.317997 -0.526324 0.111487 -0.200789 -0.205738 0.951276
1305031468.688643 -0.149792 0.296105 -0.527527 0.110751 -0.204203 -0.208007 0.950141
1305031468.720560 -0.157289 0.277313 -0.527913 0.113866 -0.209457 -0.210909 0.947987
1305031468.756725 -0.162162 0.261357 -0.526466 0.115945 -0.214981 -0.211614 0.94634
1305031468.788562 -0.167181 0.245031 -0.525344 0.116729 -0.218385 -0.213453 0.94505
1305031468.817997 -0.176141 0.226129 -0.526048 0.121401 -0.218972 -0.219629 0.942908
1305031468.854887 -0.179722 0.214397 -0.524343 0.128012 -0.220728 -0.225383 0.940263
1305031468.889220 -0.180806 0.204261 -0.520627 0.128211 -0.219103 -0.229575 0.939601
1305031468.920539 -0.184794 0.191407 -0.518309 0.124703 -0.213711 -0.230372 0.941119
1305031468.956482 -0.18701 0.184247 -0.515246 0.120445 -0.208217 -0.226014 0.943958
1305031468.986011 -0.187384 0.184577 -0.50936 0.114321 -0.204352 -0.224938 0.945819
1305031469.020731 -0.189276 0.181394 -0.501533 0.0978643 -0.20169 -0.23031 0.946943
1305031469.056318 -0.197433 0.170489 -0.497111 0.0789419 -0.196798 -0.23565 0.948424
1305031469.088069 -0.203066 0.165064 -0.490636 0.0671928 -0.195029 -0.242756 0.947902
1305031469.119984 -0.203592 0.161977 -0.480287 0.0564554 -0.19222 -0.253944 0.946243
1305031469.155046 -0.207333 0.153519 -0.471225 0.0439696 -0.183236 -0.263043 0.946203
1305031469.184648 -0.210755 0.146513 -0.462156 0.0340094 -0.173342 -0.269386 0.946693
1305031469.219541 -0.215823 0.139045 -0.453377 0.0260549 -0.163631 -0.27306 0.94762
1305031469.256002 -0.219362 0.135966 -0.443195 0.0215486 -0.159074 -0.275924 0.94768
1305031469.288263 -0.221978 0.133505 -0.43184 0.0163587 -0.155365 -0.279226 0.947432
1305031469.319772 -0.2247 0.131676 -0.41951 0.0113991 -0.150817 -0.281092 0.947687
1305031469.356116 -0.225896 0.134584 -0.406757 0.00663436 -0.147842 -0.283307 0.947542
1305031469.388556 -0.229034 0.133084 -0.394618 0.00086815 -0.139282 -0.288069 0.947426
1305031469.420278 -0.231548 0.13399 -0.382483 0.000853965 -0.126466 -0.292922 0.947735
1305031469.456563 -0.232329 0.138871 -0.369956 0.0018427 -0.115178 -0.298902 0.947306
1305031469.488520 -0.234109 0.141502 -0.356131 0.00100165 -0.10663 -0.305312 0.946263
1305031469.520417 -0.236057 0.146348 -0.34222 -0.00035233 -0.103634 -0.307521 0.945881
1305031469.556139 -0.236 0.154239 -0.328063 -0.00421686 -0.104559 -0.307501 0.945776
1305031469.588500 -0.236358 0.162483 -0.313427 -0.0103238 -0.104892 -0.307417 0.94572
1305031469.620563 -0.235102 0.172992 -0.298391 -0.0173136 -0.10514 -0.306284 0.945958
1305031469.656279 -0.236549 0.181593 -0.284284 -0.0257603 -0.102068 -0.304965 0.946528
1305031469.687925 -0.238128 0.190857 -0.2706 -0.0299455 -0.0978171 -0.303363 0.947368
1305031469.718943 -0.238784 0.201351 -0.25645 -0.0338239 -0.094173 -0.301831 0.948096
1305031469.756754 -0.239969 0.212571 -0.24286 -0.0380814 -0.0894765 -0.299554 0.949111
1305031469.784733 -0.242623 0.225647 -0.229889 -0.0435448 -0.0857004 -0.295963 0.95035
1305031469.820544 -0.246901 0.238159 -0.217576 -0.0492791 -0.0847467 -0.292877 0.951111
1305031469.854359 -0.251607 0.253366 -0.206191 -0.0537424 -0.0856274 -0.29008 0.951648
1305031469.885343 -0.258052 0.268152 -0.195747 -0.0597658 -0.0862921 -0.287081 0.952138
1305031469.921773 -0.265062 0.283181 -0.186032 -0.0639253 -0.0866874 -0.283953 0.95277
1305031469.953180 -0.273669 0.297697 -0.176967 -0.0669781 -0.0882873 -0.281253 0.953214
1305031469.985327 -0.283468 0.312399 -0.169309 -0.0687345 -0.0900635 -0.279697 0.95338
1305031470.024714 -0.293673 0.327471 -0.162515 -0.0703632 -0.0909016 -0.278667 0.953484
1305031470.057400 -0.305353 0.342654 -0.157207 -0.0726335 -0.0913956 -0.278812 0.953223
1305031470.088874 -0.316822 0.357328 -0.153113 -0.0742664 -0.0906614 -0.279509 0.952964
1305031470.124820 -0.328022 0.372086 -0.149971 -0.0756237 -0.0895935 -0.278047 0.953385
1305031470.156744 -0.339393 0.386889 -0.147407 -0.0794929 -0.0888293 -0.276338 0.953639
1305031470.188876 -0.352319 0.400366 -0.145891 -0.0827763 -0.088832 -0.274644 0.953849
1305031470.224776 -0.363471 0.413842 -0.144849 -0.0849393 -0.0897686 -0.27199 0.954331
1305031470.253015 -0.374939 0.427728 -0.144045 -0.0884884 -0.08913 -0.268699 0.955001
1305031470.287867 -0.386538 0.441261 -0.143281 -0.0924063 -0.0881329 -0.266117 0.955445
1305031470.324266 -0.397686 0.454827 -0.14241 -0.0973132 -0.0868113 -0.263736 0.955739
1305031470.356871 -0.41021 0.467183 -0.14206 -0.103609 -0.0858602 -0.260589 0.956027
1305031470.388056 -0.421415 0.478466 -0.141948 -0.108432 -0.0869968 -0.257255 0.956292
1305031470.424090 -0.433468 0.489078 -0.142323 -0.111993 -0.0884215 -0.25567 0.956176
1305031470.455875 -0.446934 0.498536 -0.143576 -0.114084 -0.0893051 -0.256212 0.955701
1305031470.487958 -0.459756 0.507457 -0.145166 -0.114097 -0.0899968 -0.256066 0.955674
1305031470.524431 -0.471188 0.516895 -0.14682 -0.11289 -0.0910034 -0.254105 0.956245
1305031470.556484 -0.481747 0.525968 -0.148007 -0.112163 -0.0909349 -0.253679 0.95645
1305031470.588797 -0.493895 0.533641 -0.14912 -0.113784 -0.0893213 -0.252282 0.95678
1305031470.624535 -0.50363 0.54086 -0.149474 -0.114419 -0.0889411 -0.249395 0.957497
1305031470.656787 -0.513639 0.547251 -0.149541 -0.117122 -0.0882074 -0.24516 0.958331
1305031470.688640 -0.521789 0.553159 -0.148969 -0.118656 -0.0885747 -0.241563 0.959022
1305031470.724461 -0.531734 0.557653 -0.148446 -0.122378 -0.0894978 -0.239366 0.959019
1305031470.755944 -0.540037 0.561293 -0.148235 -0.122507 -0.089529 -0.237212 0.959535
1305031470.788407 -0.540037 0.561293 -0.148235 -0.122507 -0.089529 -0.237212 0.959535
1305031470.820633 -0.549302 0.56199 -0.148454 -0.126676 -0.0852979 -0.234429 0.960063
1305031470.855509 -0.549302 0.56199 -0.148454 -0.126676 -0.0852979 -0.234429 0.960063
1305031470.886079 -0.560864 0.564655 -0.149838 -0.122134 -0.0839454 -0.227716 0.962384
1305031470.924410 -0.573604 0.566918 -0.151573 -0.119124 -0.0830183 -0.220475 0.964525
1305031470.956439 -0.587766 0.56601 -0.154273 -0.116922 -0.0813254 -0.213481 0.96651
1305031470.988276 -0.587766 0.56601 -0.154273 -0.116922 -0.0813254 -0.213481 0.96651
1305031471.024309 -0.598452 0.565316 -0.156701 -0.109844 -0.0800441 -0.21084 0.968026
1305031471.056616 -0.608793 0.563117 -0.159188 -0.101923 -0.0773658 -0.208637 0.969586
1305031471.088440 -0.617867 0.56226 -0.161522 -0.0923172 -0.0750433 -0.203802 0.971757
1305031471.123837 -0.626177 0.561245 -0.163604 -0.0853132 -0.0746139 -0.197261 0.973777
1305031471.155886 -0.634017 0.560214 -0.165928 -0.0793291 -0.0748854 -0.190889 0.975531
1305031471.192698 -0.64041 0.560904 -0.167516 -0.0732659 -0.0737723 -0.184744 0.977271
1305031471.224404 -0.646475 0.561377 -0.168348 -0.0707058 -0.0705778 -0.179078 0.97875
1305031471.256397 -0.653669 0.561491 -0.168734 -0.0706537 -0.0671953 -0.174595 0.979801
1305031471.288603 -0.660972 0.559942 -0.169296 -0.0715499 -0.0647294 -0.171376 0.98047
1305031471.324440 -0.667815 0.558145 -0.170487 -0.0701831 -0.0614975 -0.167023 0.981527
1305031471.356569 -0.671832 0.558349 -0.171617 -0.0659675 -0.0566395 -0.164449 0.982546
1305031471.392751 -0.676593 0.55715 -0.173037 -0.066192 -0.0485457 -0.161773 0.983408
1305031471.424494 -0.68232 0.554181 -0.175038 -0.06515 -0.0428204 -0.15652 0.984593
1305031471.456975 -0.686827 0.554534 -0.176823 -0.0609469 -0.0416217 -0.149712 0.985971
1305031471.492705 -0.691291 0.554922 -0.178521 -0.0607602 -0.041405 -0.145094 0.986682
1305031471.524343 -0.69661 0.553974 -0.180396 -0.0621211 -0.0399755 -0.140355 0.987342
1305031471.556561 -0.701212 0.553602 -0.182569 -0.0623145 -0.0385654 -0.136541 0.98792
1305031471.592606 -0.704782 0.553318 -0.185212 -0.0629447 -0.0356608 -0.134746 0.988236
1305031471.624486 -0.708497 0.553195 -0.188121 -0.0626858 -0.0305965 -0.132726 0.988695
1305031471.656831 -0.711904 0.552823 -0.191077 -0.0621082 -0.0255341 -0.130856 0.989124
1305031471.693182 -0.714659 0.552724 -0.194049 -0.0600003 -0.0207538 -0.12711 0.989855
1305031471.724753 -0.716235 0.555006 -0.19661 -0.0572258 -0.0172712 -0.122379 0.990682
1305031471.753002 -0.717893 0.556298 -0.198581 -0.0581115 -0.0134935 -0.117588 0.991269
1305031471.792706 -0.71872 0.556232 -0.200517 -0.0583018 -0.00877543 -0.110924 0.992079
1305031471.823821 -0.719339 0.560517 -0.201788 -0.0558657 -0.00279958 -0.103264 0.99308
1305031471.855793 -0.721269 0.563746 -0.202452 -0.0590106 0.00171971 -0.0965745 0.993573
1305031471.892838 -0.723047 0.566489 -0.202835 -0.0612766 0.00540533 -0.0898272 0.994056
1305031471.924928 -0.724828 0.570755 -0.202626 -0.0639036 0.010061 -0.0836237 0.994395
1305031471.957162 -0.726984 0.572021 -0.202713 -0.0695028 0.0159798 -0.0811076 0.994151
1305031471.993177 -0.730193 0.574599 -0.202924 -0.0684281 0.0235995 -0.0788233 0.994257
1305031472.024660 -0.73319 0.581458 -0.202057 -0.0677821 0.0310127 -0.0745351 0.994429
1305031472.058063 -0.737331 0.583125 -0.201463 -0.0753246 0.0370967 -0.0714839 0.993901
1305031472.092883 -0.741139 0.585335 -0.201327 -0.0756968 0.0418817 -0.0675309 0.993959
1305031472.124760 -0.744889 0.591198 -0.200171 -0.0741538 0.0467325 -0.0618673 0.994228
1305031472.156982 -0.744889 0.591198 -0.200171 -0.0741538 0.0467325 -0.0618673 0.994228
1305031472.192890 -0.749261 0.590217 -0.199893 -0.0762128 0.048203 -0.0592064 0.994164
1305031472.224678 -0.75291 0.591283 -0.199758 -0.0718704 0.0495534 -0.0547544 0.994676
1305031472.256642 -0.755881 0.591412 -0.199702 -0.0705272 0.0510921 -0.0531336 0.994783
1305031472.293139 -0.759064 0.588637 -0.200439 -0.0681876 0.0531298 -0.0520586 0.994896
1305031472.324844 -0.761085 0.588573 -0.201594 -0.0607629 0.0550559 -0.0497925 0.995388
1305031472.360912 -0.76288 0.590179 -0.20219 -0.0558844 0.0560515 -0.0484096 0.995687
1305031472.392956 -0.764903 0.589164 -0.202447 -0.0567329 0.055971 -0.0466884 0.995725
1305031472.424694 -0.766532 0.586089 -0.202736 -0.0572189 0.0540838 -0.0450359 0.995878
1305031472.460919 -0.767491 0.583378 -0.202952 -0.0558744 0.0517996 -0.0453047 0.996063
1305031472.492972 -0.766978 0.581042 -0.202999 -0.0547955 0.0513536 -0.0467359 0.99608
1305031472.524781 -0.766723 0.577575 -0.203211 -0.0562093 0.0533369 -0.0469974 0.995885
1305031472.561296 -0.767433 0.571856 -0.204219 -0.0563549 0.0546601 -0.0452879 0.995884
1305031472.592968 -0.766648 0.568797 -0.205295 -0.0508243 0.0531593 -0.0433731 0.996348
1305031472.624647 -0.765044 0.567983 -0.20563 -0.0472616 0.0517754 -0.0410322 0.996696
1305031472.660836 -0.763358 0.564472 -0.20542 -0.0477811 0.0506639 -0.0394732 0.996791
1305031472.693008 -0.762092 0.560237 -0.205188 -0.0474639 0.0499467 -0.0379103 0.996903
1305031472.724752 -0.760528 0.556311 -0.204907 -0.0461031 0.0488828 -0.0371025 0.99705
1305031472.760654 -0.758873 0.553058 -0.20446 -0.0439531 0.0480432 -0.0378124 0.997161
1305031472.792775 -0.75692 0.550045 -0.203824 -0.0425191 0.048226 -0.0397559 0.997139
1305031472.824692 -0.756033 0.546477 -0.203016 -0.0409911 0.0490775 -0.041067 0.997108
1305031472.860936 -0.755476 0.544204 -0.202126 -0.0385532 0.0495635 -0.0408514 0.99719
1305031472.892944 -0.755193 0.543266 -0.200945 -0.0366047 0.0490289 -0.0390593 0.997362
1305031472.924814 -0.754494 0.541789 -0.199626 -0.0370482 0.0475016 -0.0369037 0.997501
1305031472.961213 -0.753568 0.539447 -0.198425 -0.0377023 0.0467359 -0.0355907 0.997561
1305031472.992815 -0.752206 0.53905 -0.197313 -0.0373581 0.046153 -0.0344099 0.997642
1305031473.024564 -0.752602 0.538252 -0.196246 -0.0384029 0.0452855 -0.0336156 0.99767
1305031473.060795 -0.752135 0.53731 -0.195265 -0.0394871 0.0441244 -0.0342352 0.997658
1305031473.092012 -0.752055 0.535657 -0.194593 -0.04054 0.0443313 -0.0357482 0.997554
1305031473.124072 -0.75187 0.535119 -0.194106 -0.0402573 0.0454557 -0.037814 0.997438
1305031473.158420 -0.752864 0.533719 -0.193824 -0.0407634 0.0464078 -0.0386011 0.997344
1305031473.190828 -0.753146 0.532416 -0.19383 -0.0402446 0.0457075 -0.0387151 0.997393
