1305032354.009456 0 0 0 0 0 0 1
1305032354.045335 0.00125522 -0.00950808 -0.000169336 -0.00981384 0.00239796 -0.00518501 0.999936
1305032354.076940 0.0030243 -0.0181899 -0.000992784 -0.0176713 0.00198563 -0.00311968 0.999837
1305032354.109860 0.0012105 -0.0323656 -0.00141203 -0.0281101 0.000310472 -0.00775483 0.999575
1305032354.145200 0.00140615 -0.0437603 -0.00218499 -0.0422843 0.00198287 -0.0145227 0.998998
1305032354.177151 0.00294523 -0.0562358 -0.00343029 -0.0579724 0.00490941 -0.0111013 0.998244
1305032354.209651 0.00285693 -0.0719682 -0.00490288 -0.0726257 0.00695467 -0.00450926 0.997325
1305032354.244910 0.00393763 -0.0887276 -0.00647601 -0.0885883 0.00855089 -0.0014834 0.996031
1305032354.277122 0.00399503 -0.107144 -0.00809143 -0.102871 0.0110169 -0.0016405 0.994632
1305032354.309733 0.00461402 -0.126599 -0.00967638 -0.110538 0.0121775 -0.00282663 0.993793
1305032354.345124 0.00460861 -0.147555 -0.0108176 -0.116258 0.0117289 -0.00622907 0.99313
1305032354.377091 0.00388413 -0.168496 -0.0122423 -0.122312 0.0116467 -0.0120362 0.99235
1305032354.407556 0.00462941 -0.189535 -0.0138087 -0.126492 0.011269 -0.0163628 0.991769
1305032354.445200 0.00400181 -0.210352 -0.0152229 -0.131436 0.0106181 -0.0217579 0.991029
1305032354.477221 0.0057613 -0.229113 -0.0164063 -0.139914 0.0110151 -0.0263534 0.989752
1305032354.510161 0.00771251 -0.246449 -0.0178883 -0.150309 0.0126429 -0.0272842 0.988182
1305032354.545622 0.0098403 -0.264087 -0.0186577 -0.163392 0.0159435 -0.0271227 0.986059
1305032354.577445 0.0120229 -0.277435 -0.0197034 -0.179877 0.0207605 -0.0232953 0.983194
1305032354.610249 0.0126753 -0.290985 -0.0202844 -0.195831 0.0253487 -0.0155671 0.980186
1305032354.645613 0.0126811 -0.304894 -0.0200733 -0.208568 0.029307 -0.00781226 0.977537
1305032354.677651 0.0130106 -0.317921 -0.0201314 -0.219959 0.032168 -0.0018482 0.974977
1305032354.709984 0.0129601 -0.331319 -0.0192079 -0.23169 0.0328644 0.00339093 0.972228
1305032354.745813 0.0123442 -0.344666 -0.0175024 -0.243291 0.0311472 0.00610218 0.969434
1305032354.777561 0.0118545 -0.360429 -0.0135802 -0.254355 0.0281372 0.00638383 0.96668
1305032354.813526 0.0124984 -0.376042 -0.0111643 -0.261472 0.0245969 0.00260356 0.964894
1305032354.845896 0.0137771 -0.39146 -0.0101286 -0.267262 0.0205037 -0.00216053 0.963403
1305032354.877727 0.0137215 -0.406268 -0.00913998 -0.274222 0.0178174 -0.0074258 0.961473
1305032354.913596 0.0147569 -0.421516 -0.00776391 -0.281681 0.0139517 -0.0129243 0.95932
1305032354.946029 0.0153735 -0.434166 -0.008023 -0.289981 0.00901582 -0.0177438 0.956825
1305032354.977691 0.0183222 -0.451415 -0.00393963 -0.301974 0.00295396 -0.0265677 0.952941
1305032355.013557 0.0199365 -0.464157 -0.00244009 -0.307917 -0.00160584 -0.0354371 0.950752
1305032355.045678 0.0222791 -0.475459 -0.00201048 -0.321275 -0.00743325 -0.0458426 0.945846
1305032355.077711 0.0212943 -0.494365 0.00535239 -0.335274 -0.0125254 -0.05773 0.940267
1305032355.113721 0.0243176 -0.509522 0.00993901 -0.343484 -0.022174 -0.0682002 0.936416
1305032355.145771 0.0255658 -0.522954 0.0146466 -0.351755 -0.0329293 -0.0763721 0.93239
1305032355.177863 0.0272403 -0.534828 0.0185967 -0.363217 -0.0464711 -0.0810698 0.927007
1305032355.213995 0.0299351 -0.550714 0.0278627 -0.375959 -0.0608042 -0.0887085 0.920374
1305032355.246379 0.0301327 -0.564883 0.0359078 -0.385361 -0.0741433 -0.0924438 0.915125
1305032355.278991 0.0279805 -0.580528 0.0455706 -0.394215 -0.0906982 -0.0966427 0.909411
1305032355.312689 0.030026 -0.595086 0.0552809 -0.398412 -0.110202 -0.100016 0.905053
1305032355.347016 0.0340439 -0.605128 0.0610854 -0.401913 -0.127348 -0.100918 0.901146
1305032355.379246 0.0358432 -0.617106 0.0706449 -0.407772 -0.141913 -0.101696 0.896237
1305032355.415084 0.0397709 -0.628287 0.0792994 -0.410054 -0.157854 -0.104292 0.892223
1305032355.446636 0.0468078 -0.638949 0.0874105 -0.410126 -0.172073 -0.111101 0.888732
1305032355.479127 0.050504 -0.650491 0.0971535 -0.409306 -0.183106 -0.115648 0.886322
1305032355.514371 0.0524778 -0.660369 0.103777 -0.40624 -0.195064 -0.115779 0.885163
1305032355.546522 0.059485 -0.669191 0.110356 -0.404201 -0.208577 -0.115864 0.883002
1305032355.578354 0.0667914 -0.676838 0.114941 -0.402238 -0.217908 -0.11425 0.881855
1305032355.614298 0.0800225 -0.686359 0.123379 -0.402179 -0.22749 -0.114332 0.879448
1305032355.646429 0.0949637 -0.697415 0.133702 -0.399457 -0.235136 -0.115902 0.878471
1305032355.679021 0.106273 -0.707641 0.140841 -0.39569 -0.239148 -0.116297 0.879041
1305032355.715171 0.11619 -0.718949 0.147056 -0.392493 -0.245034 -0.115317 0.878982
1305032355.747547 0.127968 -0.731893 0.156016 -0.388737 -0.25208 -0.113331 0.878917
1305032355.779172 0.147004 -0.737931 0.15644 -0.381379 -0.257455 -0.111086 0.880867
1305032355.815082 0.172331 -0.745717 0.164959 -0.380577 -0.259708 -0.112505 0.880372
1305032355.847746 0.183904 -0.77002 0.195196 -0.376649 -0.258037 -0.117827 0.881856
1305032355.879256 0.197834 -0.779299 0.199388 -0.353359 -0.257127 -0.124892 0.890744
1305032355.914958 0.216034 -0.773323 0.184472 -0.333993 -0.257652 -0.131185 0.897137
1305032355.947516 0.231518 -0.77132 0.179688 -0.330481 -0.256498 -0.134282 0.898309
1305032355.979562 0.243937 -0.771394 0.178924 -0.336407 -0.254013 -0.131217 0.897268
1305032356.015124 0.251369 -0.773631 0.180427 -0.347993 -0.252035 -0.125315 0.894246
1305032356.047385 0.251507 -0.781388 0.185993 -0.359531 -0.254436 -0.117239 0.890087
1305032356.083040 0.25439 -0.791859 0.194915 -0.364126 -0.263917 -0.107518 0.886679
1305032356.114352 0.270467 -0.791989 0.194679 -0.360222 -0.277621 -0.102165 0.884719
1305032356.146404 0.283553 -0.790844 0.195262 -0.35995 -0.28771 -0.103574 0.881437
1305032356.182442 0.294764 -0.792883 0.201367 -0.362408 -0.297142 -0.110063 0.876501
1305032356.214279 0.301814 -0.799166 0.213172 -0.360019 -0.306381 -0.120995 0.872856
1305032356.246658 0.305369 -0.805182 0.222537 -0.350439 -0.314744 -0.130507 0.872408
1305032356.282363 0.318489 -0.801194 0.220563 -0.335856 -0.32419 -0.135366 0.873944
1305032356.314238 0.330383 -0.792573 0.218315 -0.330151 -0.327769 -0.133338 0.875094
1305032356.346442 0.333734 -0.790456 0.224799 -0.329528 -0.33143 -0.129409 0.874539
1305032356.382453 0.3355 -0.79063 0.234729 -0.323182 -0.33741 -0.124 0.875404
1305032356.414237 0.339958 -0.787764 0.240922 -0.308283 -0.345729 -0.117597 0.87841
1305032356.446755 0.349907 -0.777521 0.242351 -0.291266 -0.355572 -0.113686 0.8808
1305032356.482444 0.359835 -0.768641 0.248622 -0.277664 -0.363999 -0.111564 0.882021
1305032356.514490 0.371132 -0.757782 0.255117 -0.26208 -0.368931 -0.113007 0.884553
1305032356.546721 0.381289 -0.744371 0.258531 -0.245163 -0.37018 -0.11892 0.888099
1305032356.582446 0.390344 -0.729882 0.260905 -0.227493 -0.370112 -0.127763 0.891594
1305032356.614314 0.406029 -0.708802 0.262589 -0.214284 -0.37016 -0.135991 0.893628
1305032356.646374 0.416962 -0.693351 0.267603 -0.207234 -0.36821 -0.143972 0.894845
1305032356.683322 0.422816 -0.67843 0.269868 -0.196471 -0.365248 -0.146079 0.898139
1305032356.715172 0.433076 -0.659638 0.27201 -0.186057 -0.363467 -0.142145 0.901704
1305032356.743534 0.442839 -0.641464 0.274801 -0.176421 -0.361738 -0.137209 0.905094
1305032356.782372 0.455554 -0.620644 0.277521 -0.166519 -0.360431 -0.13102 0.908403
1305032356.814985 0.462495 -0.601722 0.278751 -0.158951 -0.358611 -0.127056 0.911038
1305032356.846535 0.468264 -0.584511 0.280091 -0.146811 -0.358551 -0.118861 0.914199
1305032356.882068 0.483917 -0.556796 0.280412 -0.13719 -0.36195 -0.106501 0.915876
1305032356.914707 0.491156 -0.535777 0.282237 -0.134964 -0.363314 -0.0973123 0.916688
1305032356.947460 0.496963 -0.514748 0.281209 -0.133928 -0.364111 -0.0856246 0.91769
1305032356.982294 0.504802 -0.495078 0.28383 -0.134276 -0.367546 -0.0725985 0.917393
1305032357.014261 0.513605 -0.47465 0.286287 -0.134919 -0.370934 -0.0614102 0.916752
1305032357.046550 0.519412 -0.459129 0.288893 -0.134221 -0.374553 -0.0532369 0.915893
1305032357.082118 0.524265 -0.442533 0.288929 -0.12969 -0.379425 -0.0441541 0.915023
1305032357.114108 0.528107 -0.42585 0.288072 -0.126459 -0.384764 -0.035233 0.913632
1305032357.146528 0.53209 -0.41282 0.287852 -0.122038 -0.391013 -0.0271516 0.911855
1305032357.182108 0.539214 -0.393938 0.287937 -0.118626 -0.394552 -0.0213611 0.910934
1305032357.214184 0.543864 -0.381027 0.288309 -0.117085 -0.397482 -0.0154718 0.909978
1305032357.250098 0.54894 -0.367961 0.287473 -0.108898 -0.403055 -0.0079293 0.908639
1305032357.282087 0.558357 -0.351395 0.288309 -0.0995447 -0.404293 0.000775795 0.909196
1305032357.314085 0.565344 -0.334021 0.286787 -0.0945867 -0.40246 0.0106691 0.910475
1305032357.350168 0.572048 -0.317265 0.285217 -0.0906894 -0.401935 0.0204981 0.910935
1305032357.382141 0.578778 -0.297887 0.283181 -0.084787 -0.401968 0.0286465 0.91127
1305032357.414454 0.584867 -0.277147 0.280813 -0.0843602 -0.401662 0.0333237 0.911285
1305032357.450340 0.588588 -0.262086 0.279039 -0.0875222 -0.400239 0.0397473 0.911356
1305032357.482241 0.592604 -0.242749 0.275961 -0.0919399 -0.398872 0.0493691 0.911049
1305032357.513987 0.597225 -0.225246 0.273107 -0.0990559 -0.397229 0.0562958 0.910619
1305032357.549979 0.601766 -0.210813 0.271085 -0.105377 -0.394949 0.062541 0.910494
1305032357.582946 0.605569 -0.196615 0.268205 -0.108577 -0.393467 0.066143 0.910505
1305032357.611057 0.609577 -0.184826 0.265806 -0.112119 -0.392193 0.068484 0.910453
1305032357.650783 0.613318 -0.17101 0.261329 -0.115942 -0.390354 0.0675785 0.910832
1305032357.683024 0.617448 -0.159657 0.258476 -0.121648 -0.387923 0.064473 0.911351
1305032357.710979 0.621743 -0.148703 0.255803 -0.125541 -0.384579 0.0636308 0.912299
1305032357.750457 0.626859 -0.138206 0.254399 -0.12956 -0.380693 0.0624596 0.913447
1305032357.783108 0.632721 -0.127507 0.252758 -0.133265 -0.375935 0.0593557 0.91509
1305032357.814444 0.637478 -0.117988 0.25128 -0.134362 -0.371638 0.0566173 0.916857
1305032357.850329 0.641205 -0.108689 0.24861 -0.136123 -0.366264 0.0516868 0.919048
1305032357.882357 0.645361 -0.0999963 0.246542 -0.139442 -0.35959 0.0476849 0.921399
1305032357.914168 0.648496 -0.0920045 0.244307 -0.138127 -0.352379 0.0470558 0.924411
1305032357.948987 0.65055 -0.0845964 0.241683 -0.134943 -0.345026 0.0482043 0.92759
1305032357.982077 0.652344 -0.0769617 0.240154 -0.130754 -0.34131 0.0491817 0.929512
1305032358.010855 0.651261 -0.0715765 0.239265 -0.125712 -0.338661 0.0476591 0.931254
1305032358.050220 0.649315 -0.0660423 0.238774 -0.117432 -0.335972 0.0519335 0.933079
1305032358.082211 0.646465 -0.0607423 0.238185 -0.106622 -0.333977 0.0548481 0.934924
1305032358.115784 0.641423 -0.0538788 0.238183 -0.0971174 -0.332688 0.0568538 0.936298
1305032358.150676 0.6348 -0.054888 0.240306 -0.0836423 -0.333056 0.05843 0.937371
1305032358.183396 0.626881 -0.0506428 0.241533 -0.0706722 -0.333721 0.0602644 0.938085
1305032358.214748 0.618631 -0.046701 0.245587 -0.0592849 -0.336328 0.0606063 0.937921
1305032358.251221 0.608399 -0.0430318 0.24789 -0.0459282 -0.339023 0.0652554 0.937388
1305032358.283060 0.59933 -0.0353628 0.251971 -0.0352317 -0.342675 0.0720431 0.936025
1305032358.314611 0.589879 -0.0299691 0.256053 -0.0307725 -0.345297 0.0761888 0.93489
1305032358.350749 0.580325 -0.0271567 0.260006 -0.0222135 -0.349789 0.0823275 0.93294
1305032358.381865 0.571631 -0.0193675 0.264065 -0.019512 -0.35326 0.0888239 0.931095
1305032358.414355 0.561239 -0.0113592 0.265065 -0.0187849 -0.358891 0.0898988 0.92885
1305032358.447967 0.553803 -0.00641001 0.26584 -0.0137463 -0.365751 0.0872636 0.926511
1305032358.481387 0.549049 0.000978499 0.266623 -0.0129949 -0.368087 0.0891479 0.925416
1305032358.517650 0.547639 0.0111834 0.268796 -0.0192826 -0.369231 0.0905382 0.924716
1305032358.548167 0.547554 0.0179287 0.269048 -0.0232335 -0.369243 0.0893482 0.924736
1305032358.582146 0.549491 0.0246284 0.269187 -0.0252539 -0.368239 0.0891234 0.925105
1305032358.616710 0.551327 0.030558 0.268549 -0.0279164 -0.36742 0.0900785 0.925261
1305032358.649112 0.552909 0.0347566 0.26746 -0.0300639 -0.36699 0.0877101 0.925593
1305032358.681202 0.554954 0.0345147 0.266582 -0.0316619 -0.367134 0.0891321 0.925346
1305032358.716920 0.555852 0.031054 0.264892 -0.0334876 -0.366942 0.0895121 0.925322
1305032358.746598 0.558365 0.0266952 0.265385 -0.0341955 -0.368077 0.0905943 0.924739
1305032358.779352 0.559907 0.0173893 0.2647 -0.0322895 -0.369654 0.0914661 0.924093
1305032358.817050 0.561493 0.00563565 0.263922 -0.0309506 -0.373638 0.0906111 0.922619
1305032358.849277 0.56199 -0.00582252 0.260496 -0.0285379 -0.378682 0.0888522 0.92081
1305032358.882669 0.564221 -0.0194419 0.257875 -0.0252702 -0.383497 0.0851107 0.919265
1305032358.917982 0.569285 -0.0360362 0.256586 -0.0230364 -0.387487 0.0835011 0.917797
1305032358.951038 0.573558 -0.0509768 0.253847 -0.0259718 -0.390721 0.0814787 0.916528
1305032358.983085 0.579713 -0.0654719 0.251597 -0.0268539 -0.395352 0.0749761 0.91507
1305032359.019148 0.586723 -0.0809631 0.249928 -0.0311967 -0.400243 0.0664194 0.913466
1305032359.051225 0.596112 -0.0923801 0.249496 -0.0395389 -0.403297 0.0558645 0.912506
1305032359.082899 0.605751 -0.105021 0.249412 -0.0484354 -0.404334 0.0446616 0.912235
1305032359.118855 0.614121 -0.117853 0.247079 -0.0565269 -0.404306 0.0369204 0.912128
1305032359.151254 0.624772 -0.132395 0.247561 -0.0656973 -0.403018 0.0280717 0.912399
1305032359.183363 0.635428 -0.143962 0.247814 -0.0742679 -0.400653 0.0197511 0.913001
1305032359.219267 0.644705 -0.158829 0.247733 -0.0857465 -0.398518 0.0114322 0.913072
1305032359.251063 0.653773 -0.171908 0.248786 -0.0999489 -0.395517 0.00448661 0.912993
1305032359.283123 0.662214 -0.186949 0.250391 -0.117373 -0.389722 -0.00264307 0.913418
1305032359.319238 0.669453 -0.20348 0.251744 -0.132146 -0.385478 -0.012108 0.913125
1305032359.350945 0.675226 -0.221494 0.253492 -0.145219 -0.383119 -0.0222685 0.91194
1305032359.383033 0.682322 -0.237933 0.257193 -0.159721 -0.38073 -0.0301734 0.910288
1305032359.418684 0.68614 -0.256732 0.259864 -0.173199 -0.37747 -0.0367373 0.908938
1305032359.450700 0.689642 -0.274007 0.262632 -0.181907 -0.376622 -0.0455077 0.907191
1305032359.482630 0.692418 -0.293226 0.267319 -0.19084 -0.376269 -0.0563566 0.90489
1305032359.517271 0.693981 -0.313101 0.272879 -0.202353 -0.375075 -0.0635165 0.902406
1305032359.549406 0.695016 -0.332574 0.27925 -0.208611 -0.375273 -0.0670437 0.900642
1305032359.580783 0.697036 -0.348336 0.285062 -0.215601 -0.375059 -0.0706177 0.89881
1305032359.618509 0.696766 -0.364905 0.291538 -0.231132 -0.371059 -0.074624 0.896284
1305032359.648297 0.695296 -0.381697 0.298699 -0.244743 -0.367373 -0.0769142 0.893992
1305032359.682616 0.69322 -0.397041 0.305948 -0.256928 -0.365272 -0.0797598 0.891181
1305032359.717507 0.689123 -0.414499 0.314067 -0.266535 -0.365402 -0.0865843 0.887662
1305032359.747140 0.685265 -0.430151 0.322167 -0.273513 -0.369559 -0.0914668 0.883318
1305032359.784467 0.682349 -0.445035 0.332114 -0.282435 -0.374153 -0.095514 0.878133
1305032359.814695 0.680579 -0.461924 0.34628 -0.289738 -0.376825 -0.103315 0.873717
1305032359.847549 0.677355 -0.475715 0.35615 -0.295599 -0.378373 -0.109875 0.870277
1305032359.886136 0.671717 -0.492039 0.367455 -0.304607 -0.379736 -0.116218 0.865742
1305032359.915265 0.667892 -0.506447 0.37959 -0.310523 -0.382531 -0.123036 0.861457
1305032359.947309 0.663804 -0.519871 0.391124 -0.316807 -0.38663 -0.13141 0.856085
1305032359.984090 0.659743 -0.532064 0.402133 -0.323335 -0.390923 -0.139865 0.850336
1305032360.018877 0.655698 -0.542459 0.413748 -0.331361 -0.396458 -0.149868 0.842948
1305032360.051651 0.650479 -0.552401 0.424599 -0.341716 -0.40116 -0.161426 0.834412
1305032360.087324 0.644872 -0.560367 0.434682 -0.350625 -0.40654 -0.171957 0.825965
1305032360.119052 0.639196 -0.568473 0.447322 -0.360697 -0.413238 -0.183902 0.815667
1305032360.151201 0.632303 -0.577466 0.461241 -0.370405 -0.419312 -0.192574 0.80616
1305032360.187139 0.624556 -0.585876 0.475297 -0.377534 -0.428285 -0.201849 0.7958
1305032360.218935 0.616546 -0.593748 0.489763 -0.38239 -0.436098 -0.210034 0.787072
1305032360.251170 0.606502 -0.602681 0.505227 -0.386544 -0.442641 -0.219516 0.778759
1305032360.285679 0.593089 -0.612698 0.517707 -0.389341 -0.449425 -0.22593 0.771613
1305032360.318280 0.593089 -0.612698 0.517707 -0.389341 -0.449425 -0.22593 0.771613
1305032360.347303 0.579922 -0.623941 0.534036 -0.383533 -0.461208 -0.232762 0.765514
1305032360.387567 0.57267 -0.631424 0.547638 -0.375372 -0.47378 -0.238471 0.760105
1305032360.419307 0.564587 -0.639261 0.558621 -0.371427 -0.484955 -0.244316 0.753107
1305032360.447080 0.555129 -0.647774 0.5681 -0.367736 -0.493803 -0.255595 0.745386
1305032360.487302 0.543334 -0.658028 0.582991 -0.364085 -0.500885 -0.266373 0.738649
1305032360.516084 0.53392 -0.666998 0.596554 -0.359613 -0.50826 -0.276083 0.732208
1305032360.550452 0.521515 -0.675841 0.609762 -0.357904 -0.513218 -0.282576 0.727092
1305032360.585577 0.508639 -0.684303 0.621759 -0.355061 -0.517837 -0.286987 0.723474
1305032360.616453 0.495963 -0.691765 0.633229 -0.350601 -0.522633 -0.29224 0.72009
1305032360.651196 0.477459 -0.700762 0.64335 -0.342655 -0.529445 -0.299023 0.716143
1305032360.683724 0.461051 -0.709226 0.653289 -0.328502 -0.540568 -0.306178 0.711426
1305032360.716902 0.444974 -0.71679 0.66398 -0.311237 -0.551817 -0.313064 0.707546
1305032360.750823 0.430875 -0.722737 0.66763 -0.293413 -0.561659 -0.314959 0.706576
1305032360.787088 0.418221 -0.725707 0.670319 -0.280915 -0.570909 -0.311312 0.705857
1305032360.817705 0.406758 -0.727288 0.673075 -0.274352 -0.578623 -0.302741 0.705886
1305032360.851074 0.397731 -0.726623 0.67512 -0.271213 -0.58546 -0.294059 0.705131
1305032360.887553 0.392376 -0.723869 0.678938 -0.269045 -0.591514 -0.28996 0.702602
1305032360.919281 0.385612 -0.720629 0.68281 -0.267242 -0.596945 -0.293899 0.697038
1305032360.951273 0.373195 -0.720609 0.688417 -0.264555 -0.602607 -0.299752 0.690669
1305032360.983341 0.365181 -0.71844 0.692269 -0.260199 -0.609116 -0.300439 0.686303
1305032361.019684 0.364616 -0.711528 0.693174 -0.258832 -0.615019 -0.29933 0.682026
1305032361.055112 0.363581 -0.705448 0.697757 -0.262643 -0.619914 -0.300882 0.675422
1305032361.083402 0.359858 -0.701582 0.704492 -0.264576 -0.62546 -0.305872 0.667264
1305032361.118826 0.353701 -0.699821 0.710428 -0.262133 -0.632327 -0.310718 0.659472
1305032361.155055 0.350542 -0.698508 0.716356 -0.255045 -0.641509 -0.31089 0.653272
1305032361.187451 0.352105 -0.696111 0.72328 -0.243831 -0.652294 -0.307718 0.648359
1305032361.214912 0.35613 -0.692606 0.733844 -0.22815 -0.663784 -0.304071 0.644111
1305032361.250889 0.363782 -0.686289 0.742277 -0.213315 -0.672875 -0.298236 0.642488
1305032361.283006 0.37327 -0.679106 0.748967 -0.200812 -0.681342 -0.292106 0.640407
1305032361.318300 0.387256 -0.667586 0.759309 -0.190568 -0.690457 -0.285441 0.636771
1305032361.353596 0.402005 -0.654901 0.769872 -0.185734 -0.69643 -0.282603 0.632949
1305032361.385885 0.414584 -0.64475 0.779521 -0.183907 -0.701618 -0.279496 0.629121
1305032361.418314 0.431175 -0.631173 0.791449 -0.180351 -0.708805 -0.275762 0.623719
1305032361.454287 0.444276 -0.620406 0.806763 -0.176383 -0.715158 -0.276448 0.617263
1305032361.482980 0.457804 -0.610928 0.819917 -0.171139 -0.719405 -0.275691 0.614135
1305032361.517186 0.475077 -0.59921 0.830317 -0.167204 -0.72256 -0.27301 0.612711
1305032361.554410 0.487369 -0.592618 0.839372 -0.161943 -0.727326 -0.270867 0.609428
1305032361.586249 0.50321 -0.583444 0.852528 -0.149286 -0.734919 -0.265544 0.605883
1305032361.614853 0.52033 -0.572886 0.866588 -0.136594 -0.740492 -0.260111 0.604447
1305032361.654354 0.535521 -0.563957 0.879547 -0.124865 -0.745032 -0.253889 0.60405
1305032361.683032 0.550064 -0.55407 0.894255 -0.112661 -0.748017 -0.243596 0.606992
1305032361.715384 0.565817 -0.542887 0.904461 -0.102177 -0.748535 -0.231613 0.61287
1305032361.754316 0.580314 -0.528917 0.917173 -0.0958149 -0.749096 -0.218047 0.618166
1305032361.782986 0.593589 -0.512804 0.931378 -0.096867 -0.746262 -0.205564 0.625662
1305032361.819589 0.606234 -0.496829 0.943248 -0.102794 -0.740377 -0.194951 0.635035
1305032361.855109 0.619037 -0.478465 0.95369 -0.109293 -0.733848 -0.18736 0.643753
1305032361.886775 0.627496 -0.465143 0.959592 -0.115808 -0.728306 -0.183659 0.649945
1305032361.919175 0.634865 -0.451875 0.963669 -0.120343 -0.724729 -0.179479 0.654273
1305032361.955033 0.638386 -0.444029 0.965504 -0.120869 -0.722858 -0.172721 0.658053
1305032361.987135 0.647239 -0.427932 0.968465 -0.119742 -0.723279 -0.157282 0.661658
1305032362.019273 0.657339 -0.405214 0.974696 -0.125438 -0.724026 -0.151644 0.661102
1305032362.054809 0.659875 -0.391501 0.984363 -0.130441 -0.723623 -0.150339 0.660873
1305032362.086432 0.664405 -0.376256 0.991434 -0.136114 -0.720787 -0.141991 0.664663
1305032362.118268 0.669908 -0.359514 0.997558 -0.143193 -0.718922 -0.129696 0.667702
1305032362.154488 0.676092 -0.340715 1.00341 -0.148152 -0.716849 -0.117512 0.671095
1305032362.186946 0.681573 -0.322926 1.0064 -0.15123 -0.715862 -0.109208 0.672863
1305032362.223302 0.685867 -0.304735 1.01266 -0.152268 -0.718045 -0.103542 0.671197
1305032362.254745 0.690785 -0.284256 1.01942 -0.154958 -0.719603 -0.0969354 0.669897
1305032362.286962 0.694758 -0.265257 1.02425 -0.159451 -0.721041 -0.0905009 0.668195
1305032362.322988 0.697081 -0.248779 1.02887 -0.160618 -0.724065 -0.086317 0.665193
1305032362.355069 0.699503 -0.23082 1.03577 -0.160103 -0.728782 -0.0803637 0.660897
1305032362.386153 0.702089 -0.21193 1.04255 -0.160185 -0.734609 -0.0739998 0.655145
1305032362.421202 0.703441 -0.193639 1.05147 -0.158037 -0.741136 -0.0677898 0.648958
1305032362.452718 0.703653 -0.176196 1.06193 -0.153633 -0.747444 -0.0618469 0.64335
1305032362.487094 0.704638 -0.15636 1.07226 -0.151771 -0.752522 -0.0556569 0.638418
1305032362.523226 0.704376 -0.139093 1.07921 -0.150982 -0.756666 -0.0515814 0.634035
1305032362.554152 0.70355 -0.122114 1.08617 -0.147589 -0.761095 -0.0486204 0.629752
1305032362.586874 0.701154 -0.107664 1.09253 -0.143477 -0.764809 -0.0451833 0.62645
1305032362.623276 0.699539 -0.0927923 1.09874 -0.142168 -0.767536 -0.0373892 0.623922
1305032362.655272 0.69885 -0.0765529 1.10239 -0.144549 -0.768459 -0.0329761 0.622486
1305032362.687068 0.697735 -0.0607733 1.10362 -0.14691 -0.770202 -0.0304955 0.6199
1305032362.723139 0.695916 -0.0477215 1.10305 -0.150097 -0.772377 -0.0286674 0.616508
1305032362.752501 0.69363 -0.0352316 1.1031 -0.152935 -0.774512 -0.0256179 0.613259
1305032362.786189 0.691079 -0.0228076 1.10443 -0.154768 -0.776011 -0.0189727 0.611142
1305032362.822975 0.68892 -0.012229 1.10432 -0.154755 -0.777064 -0.010927 0.610003
1305032362.854747 0.686634 -0.00243495 1.10568 -0.153302 -0.778269 -0.00363497 0.608919
1305032362.887079 0.684864 0.00735724 1.10666 -0.151825 -0.779554 0.00345082 0.607646
1305032362.922917 0.682928 0.0157495 1.10725 -0.147874 -0.781641 0.0080197 0.605893
1305032362.955254 0.681249 0.0234568 1.10861 -0.142335 -0.783182 0.0123901 0.605155
1305032362.987432 0.679354 0.0330052 1.11048 -0.13752 -0.782831 0.023068 0.606409
1305032363.023019 0.677352 0.0401189 1.11367 -0.130827 -0.782549 0.0377931 0.607513
1305032363.050785 0.676023 0.0467756 1.11703 -0.121026 -0.78133 0.0480488 0.610383
1305032363.087129 0.675116 0.0558619 1.11924 -0.114668 -0.777992 0.0587551 0.61492
1305032363.121871 0.67484 0.0621504 1.11862 -0.107753 -0.775592 0.0727235 0.617704
1305032363.152039 0.675231 0.0687404 1.11843 -0.100359 -0.773877 0.0832493 0.619768
1305032363.186339 0.67562 0.0772826 1.11773 -0.0948779 -0.771614 0.0905916 0.622417
1305032363.223545 0.67618 0.0835685 1.1159 -0.0906633 -0.770058 0.101126 0.62335
1305032363.254897 0.676788 0.0907593 1.11382 -0.0908545 -0.769091 0.111108 0.622816
1305032363.286746 0.677027 0.0972697 1.11221 -0.0862536 -0.768964 0.112832 0.623317
1305032363.323009 0.677973 0.100912 1.11129 -0.0821732 -0.768547 0.11643 0.62372
1305032363.351268 0.679242 0.107215 1.11216 -0.0791282 -0.765893 0.120663 0.626568
1305032363.387226 0.680415 0.110629 1.11142 -0.0774326 -0.76174 0.127134 0.63055
1305032363.423169 0.682871 0.11729 1.11116 -0.0778156 -0.759522 0.135 0.631543
1305032363.454680 0.683491 0.127709 1.11296 -0.0814264 -0.758096 0.13765 0.632229
1305032363.490519 0.684402 0.134769 1.11295 -0.0817869 -0.756576 0.138353 0.633848
1305032363.522372 0.686 0.144114 1.11233 -0.0855647 -0.755244 0.140829 0.634392
1305032363.554139 0.687166 0.157577 1.11121 -0.0931705 -0.754076 0.140679 0.634742
1305032363.589728 0.688729 0.166933 1.10887 -0.0992897 -0.753121 0.141897 0.634678
1305032363.622073 0.691244 0.174578 1.10507 -0.105305 -0.753059 0.146797 0.632664
1305032363.653876 0.6917 0.183834 1.10365 -0.106467 -0.75371 0.148008 0.63141
1305032363.689996 0.691485 0.190276 1.10356 -0.108097 -0.756228 0.150716 0.62747
1305032363.721151 0.691103 0.19426 1.10508 -0.10916 -0.760169 0.15324 0.621888
1305032363.754688 0.690209 0.19748 1.10724 -0.10356 -0.764344 0.153113 0.617746
1305032363.789766 0.689205 0.197709 1.11113 -0.0980198 -0.767113 0.156709 0.614306
1305032363.820015 0.688224 0.197844 1.11642 -0.0919253 -0.768111 0.162617 0.612463
1305032363.850926 0.686474 0.195902 1.12341 -0.085482 -0.767884 0.168276 0.612152
1305032363.889635 0.68482 0.192961 1.131 -0.0792957 -0.767532 0.17722 0.610901
1305032363.918945 0.682955 0.194993 1.13587 -0.0782592 -0.768828 0.18459 0.607211
1305032363.953919 0.681404 0.191319 1.13886 -0.071961 -0.773016 0.180333 0.603944
1305032363.989477 0.679316 0.18406 1.14442 -0.0620962 -0.776197 0.177771 0.601714
1305032364.021974 0.677673 0.180388 1.14811 -0.0595764 -0.777557 0.17786 0.600184
1305032364.051316 0.677547 0.174747 1.15006 -0.0571485 -0.779232 0.176749 0.598574
1305032364.089983 0.67765 0.167489 1.15303 -0.0536174 -0.782 0.176595 0.595328
1305032364.121945 0.676811 0.162701 1.15666 -0.0532475 -0.785702 0.175941 0.590662
1305032364.154479 0.67696 0.153661 1.15898 -0.0539889 -0.79091 0.173954 0.584197
1305032364.187829 0.676509 0.146202 1.16179 -0.052582 -0.798614 0.168618 0.575342
1305032364.220131 0.675525 0.140519 1.16453 -0.0536886 -0.80699 0.158304 0.566414
1305032364.254427 0.674779 0.130332 1.16707 -0.0569143 -0.81566 0.14728 0.556568
1305032364.287208 0.675439 0.115938 1.1697 -0.0568258 -0.824082 0.135065 0.54719
1305032364.321001 0.674385 0.104838 1.17457 -0.0568962 -0.832041 0.123428 0.537806
1305032364.353803 0.673621 0.0908702 1.17863 -0.0597534 -0.839783 0.108864 0.528528
1305032364.390393 0.671741 0.0765319 1.18444 -0.0614889 -0.846612 0.0917552 0.520623
1305032364.422934 0.669503 0.0639437 1.19048 -0.0618685 -0.853209 0.0744499 0.512507
1305032364.454973 0.667391 0.0484577 1.19627 -0.0617928 -0.860173 0.0547363 0.503277
1305032364.490909 0.663756 0.0332363 1.20388 0.0622059 0.866147 -0.0346803 -0.494689
1305032364.523222 0.659231 0.0156958 1.21197 0.0606143 0.870852 -0.0161466 -0.487526
1305032364.555371 0.654754 -0.00301328 1.22051 0.057396 0.875894 0.00289531 -0.479069
1305032364.590015 0.6488 -0.0231533 1.23126 0.054259 0.879205 0.0203242 -0.472907
1305032364.622240 0.64193 -0.0433107 1.24329 0.0492591 0.880989 0.0348307 -0.469275
1305032364.654940 0.634486 -0.0655391 1.25497 0.0487887 0.882063 0.0463051 -0.466306
1305032364.691021 0.625736 -0.0862666 1.26644 0.0482518 0.883215 0.0617031 -0.462381
1305032364.723145 0.616982 -0.105981 1.27713 0.0474753 0.88283 0.0797225 -0.460437
1305032364.758771 0.607509 -0.125003 1.2869 0.0515849 0.88227 0.0986854 -0.457384
1305032364.790576 0.597596 -0.143623 1.29576 0.0547919 0.880989 0.117561 -0.455011
1305032364.822800 0.587495 -0.164631 1.30336 0.0530136 0.87901 0.13326 -0.454723
1305032364.858509 0.580204 -0.186908 1.30725 0.0488869 0.87859 0.144043 -0.452705
1305032364.889427 0.570435 -0.209006 1.31285 0.0453313 0.880447 0.153321 -0.446374
1305032364.923105 0.557818 -0.230108 1.32026 0.046116 0.881102 0.163011 -0.441543
1305032364.956761 0.546772 -0.250657 1.32445 0.0488391 0.88157 0.172769 -0.436578
1305032364.991437 0.534833 -0.271003 1.32809 0.0509073 0.882829 0.181184 -0.430342
1305032365.022936 0.522664 -0.289826 1.3328 0.0540337 0.884093 0.187017 -0.424836
1305032365.059290 0.510183 -0.305839 1.33786 0.0556228 0.884885 0.193392 -0.420101
1305032365.087143 0.497497 -0.320632 1.34287 0.0543325 0.885814 0.201183 -0.414617
1305032365.123256 0.484625 -0.333788 1.34841 0.0535922 0.886397 0.210758 -0.408667
1305032365.159298 0.472311 -0.346487 1.35178 0.0540337 0.886338 0.221958 -0.402764
1305032365.191271 0.460957 -0.359091 1.35392 0.0493787 0.886961 0.231015 -0.396855
1305032365.223463 0.449472 -0.370892 1.35754 0.042737 0.887843 0.238368 -0.391266
1305032365.256958 0.437869 -0.382563 1.36025 0.0360517 0.889124 0.246298 -0.384052
1305032365.290273 0.425851 -0.393493 1.36332 0.0327667 0.890779 0.253225 -0.375922
1305032365.323458 0.415819 -0.403605 1.36509 0.0303945 0.891783 0.260962 -0.368371
1305032365.359591 0.406209 -0.414764 1.36623 0.0251819 0.893009 0.266253 -0.361953
1305032365.391371 0.395736 -0.422926 1.37043 0.0196226 0.894763 0.270299 -0.354898
1305032365.423267 0.387096 -0.430717 1.37314 0.0166426 0.89512 0.277336 -0.348667
1305032365.459383 0.381221 -0.439674 1.37307 0.0128091 0.896117 0.28194 -0.34252
1305032365.491152 0.374546 -0.446921 1.37507 0.0117501 0.898185 0.284261 -0.335144
1305032365.523217 0.368044 -0.453084 1.3776 0.0122628 0.900134 0.286715 -0.327723
1305032365.558893 0.361628 -0.461749 1.37853 0.0113812 0.902196 0.287521 -0.321317
1305032365.591436 0.358058 -0.468442 1.37934 0.00926049 0.904933 0.286005 -0.31498
1305032365.623205 0.354955 -0.474316 1.37994 0.00624633 0.908355 0.28389 -0.307017
1305032365.659377 0.350303 -0.478434 1.38243 0.00365767 0.911185 0.283407 -0.299015
1305032365.691155 0.346575 -0.482906 1.38308 0.0010239 0.912799 0.284513 -0.293001
1305032365.723383 0.34284 -0.4896 1.38034 -0.000485511 0.914096 0.28572 -0.287737
1305032365.759259 0.339617 -0.49735 1.37641 -0.00250019 0.916987 0.282778 -0.281365
1305032365.791166 0.335474 -0.499771 1.37841 -0.00499801 0.920189 0.277972 -0.275606
1305032365.823223 0.329865 -0.502825 1.37861 -0.00653108 0.922341 0.275254 -0.271072
1305032365.859634 0.325217 -0.507856 1.37563 -0.00632207 0.924356 0.271428 -0.268054
1305032365.889504 0.320434 -0.511038 1.37355 -0.00422841 0.927273 0.264486 -0.264942
1305032365.927362 0.31412 -0.512241 1.37392 4.37664e-06 0.930084 0.257165 -0.262317
1305032365.959313 0.30536 -0.514982 1.37347 0.00613076 0.932221 0.250125 -0.261465
1305032365.991061 0.298594 -0.519606 1.37076 0.0124983 0.934106 0.241823 -0.262321
1305032366.026870 0.29256 -0.521855 1.36934 0.0185771 0.9362 0.234528 -0.261113
1305032366.059164 0.283796 -0.529141 1.3657 0.0225836 0.937819 0.229233 -0.259686
1305032366.091112 0.276942 -0.533776 1.3647 0.0264893 0.938966 0.223077 -0.260534
1305032366.127026 0.272369 -0.536578 1.36351 0.0290907 0.937344 0.23012 -0.25997
1305032366.159365 0.266268 -0.549554 1.35538 0.01993 0.93481 0.243687 -0.257585
1305032366.190979 0.2607 -0.562893 1.34915 0.00397137 0.933705 0.250055 -0.256227
1305032366.227205 0.259253 -0.570407 1.34491 -0.00680879 0.932592 0.255815 -0.254529
1305032366.259172 0.257859 -0.579665 1.3363 -0.0106286 0.930887 0.265579 -0.250606
1305032366.291401 0.255183 -0.588553 1.32738 -0.0108605 0.930692 0.27216 -0.244179
1305032366.327121 0.250929 -0.593234 1.32217 -0.00892156 0.930464 0.279574 -0.236633
1305032366.359097 0.244095 -0.601756 1.31375 -0.00907156 0.928587 0.290557 -0.230696
1305032366.391043 0.239333 -0.609993 1.30506 -0.0129899 0.927208 0.298082 -0.226417
1305032366.427242 0.234926 -0.614908 1.29908 -0.0177374 0.926472 0.304257 -0.220821
1305032366.459233 0.23075 -0.618158 1.29392 -0.0213521 0.925527 0.310791 -0.215297
1305032366.491285 0.227084 -0.623848 1.28521 -0.0248492 0.924697 0.316686 -0.209831
1305032366.526997 0.225454 -0.626665 1.27902 -0.0296718 0.925539 0.318069 -0.203299
1305032366.559109 0.224977 -0.628554 1.27304 -0.0348474 0.926377 0.319576 -0.196171
1305032366.591375 0.226654 -0.629455 1.26662 -0.0412097 0.927627 0.32058 -0.187187
1305032366.626920 0.227353 -0.62566 1.26546 -0.0447466 0.929384 0.321144 -0.176378
1305032366.655039 0.227816 -0.62313 1.26217 -0.048624 0.92978 0.325735 -0.164444
1305032366.687461 0.227057 -0.6223 1.25872 -0.0527836 0.929785 0.330321 -0.153628
1305032366.727328 0.225704 -0.623853 1.25359 -0.0551174 0.930327 0.331673 -0.146449
1305032366.759333 0.227172 -0.621117 1.25492 -0.0533451 0.932367 0.329231 -0.139472
1305032366.790587 0.226108 -0.620313 1.25523 -0.049975 0.933594 0.329724 -0.131099
1305032366.826895 0.224232 -0.621606 1.25432 -0.0509185 0.934845 0.329365 -0.122435
1305032366.859205 0.222309 -0.620942 1.25634 -0.0538388 0.936327 0.327414 -0.114862
1305032366.888643 0.221816 -0.617299 1.26154 -0.0567027 0.937486 0.326021 -0.107769
1305032366.926959 0.219493 -0.614863 1.26613 -0.0570936 0.937827 0.327285 -0.100525
1305032366.958281 0.218018 -0.616307 1.26759 -0.058065 0.938157 0.327783 -0.0951197
1305032366.990487 0.216064 -0.616262 1.27223 -0.0594132 0.94052 0.321801 -0.0913089
1305032367.026585 0.213197 -0.613482 1.28173 -0.0594098 0.943535 0.313687 -0.0883922
1305032367.058683 0.210584 -0.610345 1.29156 -0.0577386 0.946162 0.306162 -0.0878003
1305032367.087523 0.206174 -0.607371 1.30082 -0.0547135 0.94902 0.297798 -0.0876525
1305032367.126868 0.201563 -0.601477 1.31339 -0.0517625 0.951666 0.289261 -0.0893365
1305032367.158939 0.196768 -0.595789 1.32556 -0.0495242 0.954123 0.28065 -0.091833
1305032367.191850 0.187957 -0.589121 1.34019 -0.0476257 0.956416 0.27196 -0.095068
1305032367.226101 0.182134 -0.581673 1.35379 -0.0457512 0.958021 0.264099 -0.101753
1305032367.257578 0.176363 -0.576019 1.3653 -0.0453414 0.959825 0.255399 -0.10701
1305032367.293991 0.170653 -0.564899 1.38145 -0.0438532 0.962332 0.244299 -0.110957
1305032367.326110 0.16399 -0.5536 1.39553 -0.042014 0.963088 0.24047 -0.113448
1305032367.358269 0.158412 -0.551073 1.40231 -0.0469108 0.963667 0.235496 -0.116988
1305032367.394011 0.153769 -0.543957 1.41327 -0.052424 0.966524 0.220173 -0.120857
1305032367.425982 0.151223 -0.531992 1.42553 -0.0538683 0.96873 0.20855 -0.123158
1305032367.458337 0.148674 -0.527107 1.43096 -0.0545524 0.970519 0.19958 -0.123628
1305032367.494794 0.146788 -0.519217 1.43857 -0.0534749 0.973245 0.186009 -0.123837
1305032367.525123 0.143569 -0.508901 1.4472 -0.0524274 0.975995 0.17257 -0.122088
1305032367.558998 0.140084 -0.497463 1.45579 -0.0522382 0.978191 0.161742 -0.119387
1305032367.594540 0.13415 -0.483784 1.46391 -0.0485302 0.979543 0.155585 -0.118039
1305032367.627313 0.131098 -0.475064 1.46792 -0.047458 0.980215 0.153164 -0.11605
1305032367.659071 0.125329 -0.464878 1.47332 -0.0509226 0.981251 0.14773 -0.11282
1305032367.694516 0.119777 -0.451806 1.47974 -0.0542083 0.981875 0.143467 -0.111359
1305032367.727182 0.116709 -0.440447 1.48416 -0.0559039 0.982346 0.14109 -0.109386
1305032367.759159 0.111289 -0.428752 1.48896 -0.0542249 0.983283 0.137786 -0.105968
1305032367.794852 0.104323 -0.41396 1.49515 -0.0507154 0.984407 0.133606 -0.102571
1305032367.826871 0.0977147 -0.402154 1.49939 -0.0478256 0.985155 0.13134 -0.0996592
1305032367.858142 0.0907715 -0.389893 1.50355 -0.0458426 0.986447 0.124858 -0.0960774
1305032367.894056 0.0798661 -0.374603 1.51043 -0.0420641 0.987961 0.117458 -0.0914694
1305032367.925922 0.0674988 -0.361201 1.51621 -0.0408707 0.989106 0.110708 -0.0879931
1305032367.957958 0.0572316 -0.347259 1.52191 -0.041101 0.990357 0.101088 -0.0853463
1305032367.994884 0.0482539 -0.333635 1.52698 -0.0424037 0.991742 0.0905116 -0.0803532
1305032368.025983 0.0409688 -0.318999 1.53278 -0.0427014 0.993225 0.0786583 -0.0741194
1305032368.058921 0.0327931 -0.306677 1.5371 -0.0422708 0.994579 0.067856 -0.066492
1305032368.094710 0.0239728 -0.293855 1.54222 -0.0434766 0.995859 0.0533081 -0.0594461
1305032368.126824 0.0176278 -0.27956 1.54704 -0.0440472 0.996861 0.0399494 -0.0522636
1305032368.156667 0.0112542 -0.266428 1.55111 -0.0456136 0.997675 0.0267718 -0.0429714
1305032368.190798 0.00617369 -0.251499 1.55471 -0.0455339 0.998293 0.0144553 -0.0335956
1305032368.226380 0.00136932 -0.239519 1.55721 -0.0472726 0.998593 0.00215509 -0.0239229
1305032368.258177 -0.00454119 -0.223925 1.56073 -0.0493884 0.998592 -0.0119633 -0.0152021
1305032368.293455 -0.00808518 -0.209543 1.56172 -0.0493293 0.998506 -0.0216681 -0.00908256
1305032368.326215 -0.0116663 -0.197023 1.56135 -0.0479359 0.998389 -0.0301921 -0.00314733
1305032368.358554 -0.0161646 -0.184563 1.5606 -0.0500378 0.99793 -0.0403982 7.50018e-05
1305032368.393756 -0.0192292 -0.168015 1.55942 -0.050863 0.997429 -0.0504582 0.00141793
1305032368.425949 -0.0207161 -0.154674 1.55634 -0.0523639 0.997063 -0.0557324 0.00412904
1305032368.462413 -0.0247143 -0.143157 1.55247 -0.0561883 0.996488 -0.0618348 0.00555816
1305032368.494411 -0.0261225 -0.135105 1.54848 -0.0575697 0.99545 -0.0758143 0.00405423
1305032368.526548 -0.0302073 -0.12274 1.54585 -0.0537329 0.993615 -0.0991101 0.0044819
1305032368.561964 -0.0412691 -0.103588 1.5435 -0.0533074 0.991537 -0.118368 0.0015909
1305032368.594201 -0.0475255 -0.0886946 1.54015 -0.0523522 0.98982 -0.132108 -0.00788797
1305032368.626418 -0.0498528 -0.0759274 1.53616 -0.0440213 0.987941 -0.14754 -0.0163355
1305032368.662780 -0.0537858 -0.0583245 1.53201 -0.0336105 0.98589 -0.162502 -0.022003
1305032368.692306 -0.0547327 -0.0377114 1.5278 -0.02121 0.984459 -0.172044 -0.0281343
1305032368.726391 -0.0559587 -0.0219339 1.52358 -0.00538992 0.983039 -0.180778 -0.0304185
1305032368.762429 -0.055882 -0.0012059 1.51827 0.00641379 0.98174 -0.188076 -0.0278129
1305032368.794488 -0.0559833 0.0171663 1.51363 0.0170311 0.981198 -0.190946 -0.0223482
1305032368.826920 -0.0556704 0.0338797 1.50884 0.026154 0.980668 -0.19328 -0.0157552
1305032368.862385 -0.057682 0.0489569 1.5054 0.0321093 0.979933 -0.196577 -0.00764141
1305032368.894079 -0.0582903 0.0627463 1.50084 0.0330297 0.979212 -0.200111 -0.0029985
1305032368.926364 -0.0597481 0.0729089 1.49727 0.0362142 0.978249 -0.204247 -0.000523588
1305032368.959769 -0.0618378 0.0848988 1.49378 0.0428779 0.976565 -0.210905 0.000787314
1305032368.992519 -0.0657384 0.0979598 1.48992 0.0476494 0.974963 -0.217198 0.00150761
1305032369.026559 -0.0691414 0.105838 1.48604 0.050511 0.973387 -0.22353 0.000190379
1305032369.062508 -0.0737422 0.112722 1.48347 0.0565034 0.970941 -0.232548 -0.0011538
1305032369.092465 -0.0760061 0.127828 1.47859 0.0643318 0.968337 -0.24118 -0.00403235
1305032369.126422 -0.0785787 0.135913 1.47472 0.0686036 0.967162 -0.24465 -0.00606028
1305032369.162529 -0.0883128 0.149111 1.47311 0.0752427 0.965625 -0.248803 -0.00171251
1305032369.194429 -0.0934258 0.158028 1.46984 0.0804888 0.964602 -0.25112 0.00175525
1305032369.226184 -0.101656 0.167825 1.4663 0.0850712 0.96369 -0.253038 0.00606146
1305032369.262275 -0.10688 0.173424 1.46412 0.0887078 0.962946 -0.254457 0.0108331
1305032369.294549 -0.108403 0.176854 1.46074 0.0906044 0.962739 -0.254462 0.0131478
1305032369.325603 -0.113594 0.179039 1.46094 0.0941687 0.962201 -0.255126 0.0145738
1305032369.361711 -0.117557 0.179502 1.46101 0.100248 0.961297 -0.256026 0.0175892
1305032369.393865 -0.121287 0.172857 1.46361 0.104778 0.959733 -0.259892 0.019742
1305032369.425788 -0.122343 0.176086 1.4618 0.107282 0.957248 -0.267697 0.0224923
1305032369.461699 -0.122727 0.181701 1.46016 0.107126 0.957082 -0.26809 0.0254034
1305032369.493663 -0.116819 0.178011 1.45951 0.110372 0.957391 -0.265311 0.0288339
1305032369.526387 -0.115882 0.1812 1.4576 0.11563 0.95717 -0.263278 0.0337701
1305032369.561511 -0.114612 0.181855 1.45682 0.114205 0.958364 -0.258992 0.0376677
1305032369.590662 -0.114322 0.184909 1.45623 0.114175 0.959726 -0.253296 0.0416009
1305032369.629343 -0.113878 0.185001 1.45683 0.113347 0.962623 -0.241934 0.0444642
1305032369.661976 -0.109546 0.177305 1.46075 0.108721 0.965496 -0.232622 0.0434127
1305032369.694117 -0.109377 0.174571 1.46594 0.106947 0.967312 -0.22582 0.0433073
1305032369.730214 -0.110973 0.168147 1.4738 0.101405 0.969508 -0.218995 0.0425814
1305032369.762462 -0.111581 0.164309 1.48332 0.0958327 0.971312 -0.213901 0.0401992
1305032369.794288 -0.113287 0.160965 1.49361 0.0905182 0.973173 -0.208383 0.0362879
1305032369.830464 -0.116266 0.158831 1.50422 0.0858594 0.974974 -0.202565 0.0319676
1305032369.862646 -0.121744 0.16014 1.51456 0.0820919 0.976776 -0.195953 0.0277957
1305032369.894378 -0.122173 0.159667 1.52353 0.0777167 0.978516 -0.189841 0.02066
1305032369.930439 -0.124225 0.158995 1.53311 0.0740079 0.98003 -0.184038 0.0139566
1305032369.962123 -0.124889 0.160713 1.54037 0.0713655 0.981467 -0.177646 0.00847899
1305032369.994406 -0.12415 0.1603 1.54663 0.0683226 0.983185 -0.169305 0.00378575
1305032370.029452 -0.124561 0.161195 1.55235 0.0675078 0.984234 -0.163477 0.00121678
1305032370.062431 -0.123254 0.160721 1.55992 0.0646154 0.985088 -0.159459 -0.000470573
1305032370.094141 -0.12051 0.160413 1.56716 0.0642303 0.986227 -0.152403 -0.00200054
1305032370.131075 -0.118629 0.162524 1.57493 0.0612602 0.987796 -0.143161 -0.00328996
1305032370.163765 -0.116679 0.163996 1.58347 0.0602317 0.98908 -0.134424 -0.00475735
1305032370.191957 -0.114397 0.167637 1.59208 0.0617972 0.989983 -0.12676 -0.00687688
1305032370.227691 -0.11183 0.167698 1.60073 0.0617243 0.990733 -0.120572 -0.0100623
1305032370.260069 -0.109421 0.167642 1.60955 0.0614875 0.991461 -0.114305 -0.0125913
1305032370.292473 -0.106016 0.168714 1.61737 0.0611047 0.992218 -0.107417 -0.0151808
1305032370.330184 -0.102927 0.168195 1.62437 0.0599441 0.992853 -0.101954 -0.0159808
1305032370.362216 -0.100329 0.168485 1.63173 0.0588214 0.993386 -0.097245 -0.0163638
1305032370.393732 -0.0974781 0.171479 1.6384 0.0562107 0.993911 -0.0930027 -0.0181975
1305032370.429519 -0.0948644 0.172674 1.6441 0.0561799 0.993991 -0.0915345 -0.0211228
1305032370.462719 -0.0992378 0.174813 1.64986 0.0579108 0.99394 -0.0907088 -0.0223777
1305032370.494226 -0.0982799 0.176181 1.65468 0.0564657 0.994232 -0.0872467 -0.026517
1305032370.530396 -0.0969588 0.177382 1.65863 0.0562063 0.994441 -0.0839626 -0.0296507
1305032370.559254 -0.0972861 0.178781 1.66244 0.0535625 0.994921 -0.0791755 -0.0315286
1305032370.594716 -0.0973046 0.183977 1.66531 0.0487054 0.9957 -0.0713285 -0.0334879
1305032370.630635 -0.0974864 0.184233 1.66808 0.0450086 0.996507 -0.0612576 -0.034571
1305032370.662528 -0.0985181 0.186333 1.67015 0.0429951 0.996927 -0.0547799 -0.0358868
1305032370.694786 -0.0997505 0.187463 1.67285 0.0387472 0.997338 -0.0473104 -0.0397115
1305032370.730482 -0.10092 0.184659 1.6753 0.0377755 0.997472 -0.0417041 -0.0434051
1305032370.762399 -0.100757 0.182633 1.67818 0.0378496 0.997425 -0.0393562 -0.0464852
1305032370.794226 -0.105166 0.181082 1.68159 0.0365014 0.997569 -0.0338041 -0.0487883
1305032370.830572 -0.106432 0.17475 1.68324 0.0341677 0.997852 -0.025128 -0.0499196
1305032370.862608 -0.106489 0.167466 1.68475 0.0327 0.998214 -0.0192956 -0.0461111
1305032370.898515 -0.107242 0.158186 1.68787 0.0289167 0.998582 -0.0116347 -0.0431592
1305032370.930670 -0.109611 0.148589 1.69033 0.025176 0.998805 -0.000811451 -0.0418782
1305032370.962798 -0.112646 0.137182 1.69248 0.0226841 0.998857 0.0104282 -0.0407632
1305032370.998569 -0.117413 0.125329 1.69487 0.0200095 0.998814 0.0214055 -0.0388948
1305032371.030841 -0.122892 0.113139 1.69737 0.0181497 0.998413 0.0355528 -0.0397168
1305032371.063015 -0.129698 0.0982586 1.69897 0.0189493 0.997584 0.0524029 -0.0414802
1305032371.098694 -0.137537 0.0786592 1.69973 0.0159569 0.996664 0.0679965 -0.0422126
1305032371.127227 -0.145058 0.0590321 1.70061 0.0102694 0.995694 0.0809821 -0.0439212
1305032371.163393 -0.154939 0.0376171 1.70075 0.00230509 0.994337 0.0951843 -0.0472125
1305032371.199223 -0.165259 0.0164735 1.70031 -0.00710517 0.993264 0.104467 -0.0496339
1305032371.231580 -0.175148 -0.0119261 1.6986 -0.0203356 0.992575 0.109314 -0.0493198
1305032371.263109 -0.18301 -0.039653 1.69825 -0.0322537 0.991841 0.112917 -0.0496012
1305032371.298947 -0.191194 -0.0670368 1.69666 -0.0427569 0.990783 0.118405 -0.050019
1305032371.331335 -0.198406 -0.0946017 1.69379 -0.053693 0.989723 0.123437 -0.0482568
1305032371.362306 -0.205557 -0.122465 1.6902 -0.0659903 0.988602 0.128233 -0.043222
1305032371.399028 -0.212671 -0.147701 1.6865 -0.0766782 0.987229 0.134327 -0.0381627
1305032371.429259 -0.21991 -0.172358 1.68146 -0.0868851 0.985264 0.143462 -0.033541
1305032371.461631 -0.226749 -0.195437 1.67638 -0.0979497 0.982789 0.153888 -0.0291608
1305032371.500366 -0.233138 -0.219305 1.66933 -0.108467 0.979778 0.166329 -0.0246084
1305032371.528780 -0.239951 -0.241568 1.66129 -0.11855 0.976416 0.179441 -0.0189531
1305032371.563035 -0.247062 -0.262598 1.65211 -0.131528 0.972436 0.192096 -0.0129406
1305032371.594845 -0.25398 -0.283551 1.64194 -0.14527 0.967956 0.204712 -0.00713371
1305032371.627278 -0.261431 -0.302892 1.63044 -0.153857 0.964114 0.216359 -0.00112614
1305032371.661699 -0.269889 -0.32076 1.61801 -0.159133 0.96084 0.2268 0.00507424
1305032371.698085 -0.276464 -0.337691 1.60496 -0.167626 0.957121 0.235931 0.0125158
1305032371.726894 -0.28325 -0.353447 1.59122 -0.177661 0.95319 0.243977 0.0184738
1305032371.763078 -0.294331 -0.365831 1.57717 -0.184758 0.94901 0.254402 0.0228939
1305032371.798775 -0.304037 -0.381984 1.55948 -0.190373 0.944755 0.265451 0.0270575
1305032371.830728 -0.315326 -0.394493 1.54322 -0.189891 0.942989 0.271492 0.0316911
1305032371.862988 -0.324658 -0.409537 1.52437 -0.192178 0.940758 0.27655 0.0395136
1305032371.898658 -0.332728 -0.422764 1.50755 -0.193676 0.939562 0.277916 0.0497646
1305032371.930961 -0.342437 -0.437509 1.48908 -0.200408 0.936424 0.281241 0.0620509
1305032371.960332 -0.350307 -0.452992 1.4691 -0.211892 0.932303 0.28382 0.0732034
1305032371.999011 -0.358186 -0.467686 1.44907 -0.223222 0.928667 0.283839 0.0847621
1305032372.030867 -0.36294 -0.483427 1.42818 -0.23325 0.925431 0.283129 0.094921
1305032372.058918 -0.364697 -0.498629 1.40879 -0.243076 0.922768 0.28043 0.103786
1305032372.098264 -0.366834 -0.511664 1.3914 -0.253992 0.919607 0.278544 0.110561
1305032372.127609 -0.365608 -0.525869 1.37181 -0.264444 0.915574 0.279977 0.115787
1305032372.166169 -0.359623 -0.542874 1.35027 -0.275699 0.912007 0.276492 0.12564
1305032372.198119 -0.355248 -0.554181 1.3347 -0.283935 0.909894 0.269562 0.137148
1305032372.230071 -0.34912 -0.565444 1.31819 -0.293725 0.90644 0.264225 0.149258
1305032372.266126 -0.341833 -0.576538 1.3016 -0.303234 0.902728 0.258247 0.162603
1305032372.297790 -0.334972 -0.585701 1.28718 -0.310986 0.89907 0.253508 0.1752
1305032372.329039 -0.327053 -0.595039 1.27282 -0.321965 0.893557 0.250702 0.187198
1305032372.366292 -0.320122 -0.60353 1.25916 -0.333261 0.888445 0.247474 0.195854
1305032372.398337 -0.312575 -0.611362 1.24743 -0.344067 0.883825 0.246063 0.199809
1305032372.430932 -0.299965 -0.618936 1.23769 -0.354007 0.879252 0.245967 0.202718
1305032372.466079 -0.292115 -0.62465 1.22843 -0.361061 0.874894 0.247602 0.207097
1305032372.498135 -0.281506 -0.63178 1.21817 -0.370046 0.869065 0.252186 0.210224
1305032372.530492 -0.262431 -0.642189 1.20802 -0.381606 0.862854 0.253604 0.213411
1305032372.570271 -0.247923 -0.649308 1.20096 -0.386294 0.86025 0.251532 0.217895
1305032372.597861 -0.238349 -0.654791 1.19374 -0.389369 0.857093 0.253776 0.222218
1305032372.629218 -0.222962 -0.663748 1.18367 -0.395513 0.852571 0.2574 0.224584
1305032372.664108 -0.209756 -0.671577 1.1756 -0.399775 0.850075 0.25767 0.226182
1305032372.698696 -0.196858 -0.677192 1.17044 -0.403115 0.847551 0.258566 0.228688
1305032372.728994 -0.184151 -0.68323 1.16288 -0.405942 0.844113 0.260504 0.234141
1305032372.766505 -0.168586 -0.690152 1.15629 -0.408931 0.840678 0.261626 0.239975
1305032372.797997 -0.153939 -0.698071 1.14837 -0.409719 0.83858 0.260064 0.24755
1305032372.831463 -0.138824 -0.705861 1.14105 -0.408005 0.838453 0.255606 0.255332
1305032372.866969 -0.126908 -0.712198 1.13498 -0.402789 0.840471 0.247707 0.264594
1305032372.898841 -0.115135 -0.716322 1.12967 -0.397572 0.841704 0.242986 0.272816
1305032372.930454 -0.105198 -0.720271 1.12355 -0.392167 0.842579 0.238541 0.281714
1305032372.966691 -0.0950795 -0.720731 1.1198 -0.386276 0.84377 0.234197 0.28982
1305032372.998926 -0.0879036 -0.718615 1.11602 -0.380754 0.842888 0.23375 0.299879
1305032373.030611 -0.0775118 -0.718639 1.1097 -0.382263 0.837031 0.234574 0.313416
1305032373.066897 -0.0702074 -0.715992 1.10373 -0.38408 0.831267 0.235536 0.325576
1305032373.099775 -0.0668013 -0.709071 1.09885 -0.383381 0.826838 0.240399 0.334015
1305032373.127898 -0.0594563 -0.704608 1.09265 -0.383782 0.820499 0.251666 0.340817
1305032373.166377 -0.0527883 -0.699284 1.08666 -0.384012 0.813524 0.263227 0.348461
1305032373.198404 -0.0458345 -0.695182 1.07996 -0.389441 0.803707 0.273184 0.357437
1305032373.230484 -0.0418321 -0.6905 1.07377 -0.394558 0.79559 0.280781 0.364036
1305032373.266752 -0.0354501 -0.685607 1.06835 -0.399268 0.787948 0.28883 0.369188
1305032373.298845 -0.0280957 -0.681211 1.06406 -0.402697 0.780626 0.296968 0.374524
1305032373.331228 -0.0179043 -0.679556 1.05921 -0.404996 0.773515 0.30469 0.380548
1305032373.366882 -0.0115026 -0.677033 1.05531 -0.402149 0.769636 0.310259 0.386879
1305032373.399055 -0.00657477 -0.675407 1.04978 -0.400161 0.764876 0.316944 0.392916
1305032373.434622 0.00287993 -0.676687 1.04475 -0.40159 0.759033 0.321961 0.398667
1305032373.465659 0.00730729 -0.6757 1.04104 -0.400595 0.755982 0.323313 0.40433
1305032373.498970 0.0118296 -0.674725 1.03813 -0.396332 0.754271 0.328756 0.407328
1305032373.534678 0.0156798 -0.674123 1.03378 -0.391451 0.752164 0.33498 0.410858
1305032373.566786 0.018047 -0.673143 1.02867 -0.38871 0.749538 0.340281 0.413892
1305032373.598786 0.0206319 -0.672005 1.02348 -0.388869 0.746358 0.3449 0.415662
1305032373.635967 0.0231015 -0.672559 1.01712 -0.391178 0.743177 0.348462 0.416223
1305032373.663912 0.02803 -0.67515 1.00889 -0.395117 0.741503 0.348741 0.415253
1305032373.697914 0.0307315 -0.676538 1.00454 -0.396179 0.744451 0.34423 0.412722
1305032373.734507 0.0295471 -0.676777 1.00278 -0.396615 0.746806 0.339692 0.411809
1305032373.766443 0.0335707 -0.678781 1.00229 -0.393888 0.749622 0.336072 0.41228
1305032373.795838 0.0301825 -0.675546 1.00692 -0.38535 0.754302 0.330309 0.41645
1305032373.834934 0.0223634 -0.674587 1.00725 -0.384074 0.75219 0.332683 0.419546
1305032373.867293 0.019212 -0.679096 1.00621 -0.387713 0.748617 0.333971 0.421561
1305032373.899270 0.0111194 -0.682887 1.00466 -0.388538 0.75057 0.326864 0.422898
1305032373.935073 -0.00107091 -0.683941 1.00797 -0.388546 0.755104 0.319722 0.420271
1305032373.967085 -0.00795783 -0.686803 1.01259 -0.389769 0.757275 0.31412 0.419455
1305032373.999199 -0.0202645 -0.688589 1.01648 -0.389918 0.759201 0.305427 0.422247
1305032374.031187 -0.0361127 -0.689149 1.02009 -0.389226 0.761999 0.297783 0.423302
1305032374.066725 -0.0506602 -0.691708 1.0213 -0.39457 0.762683 0.288193 0.423761
1305032374.098933 -0.0628669 -0.691025 1.028 -0.400125 0.766018 0.274154 0.421849
1305032374.134653 -0.0782589 -0.688095 1.03781 -0.40266 0.768432 0.260466 0.423715
1305032374.165256 -0.0950123 -0.684438 1.0453 -0.399088 0.77239 0.250234 0.426057
1305032374.198931 -0.112549 -0.679156 1.05299 -0.39192 0.777264 0.241741 0.428744
1305032374.234571 -0.131563 -0.672661 1.06099 -0.384759 0.778847 0.233858 0.436657
1305032374.266232 -0.151668 -0.665676 1.06646 -0.37759 0.779306 0.225642 0.446312
1305032374.295091 -0.178088 -0.654888 1.07142 -0.367454 0.780484 0.219408 0.455722
1305032374.334758 -0.197309 -0.647945 1.07464 -0.362688 0.778466 0.215218 0.464897
1305032374.364907 -0.217026 -0.639717 1.07887 -0.358618 0.777044 0.204487 0.475163
1305032374.399126 -0.238739 -0.629764 1.08508 -0.35453 0.775111 0.188711 0.487748
1305032374.434942 -0.270473 -0.614931 1.08861 -0.346701 0.773724 0.172825 0.50128
1305032374.465697 -0.298444 -0.602954 1.08885 -0.340293 0.772305 0.16358 0.510869
1305032374.498778 -0.322584 -0.592023 1.0915 -0.330783 0.773116 0.153391 0.518985
1305032374.534408 -0.358426 -0.573349 1.09198 -0.316486 0.773819 0.144167 0.529393
1305032374.565648 -0.391922 -0.555432 1.08747 -0.306629 0.7735 0.14253 0.536061
1305032374.605154 -0.422176 -0.54151 1.08056 -0.299176 0.775761 0.142218 0.537088
1305032374.634454 -0.448918 -0.527297 1.07874 -0.292974 0.780197 0.140289 0.534582
1305032374.666026 -0.471644 -0.513107 1.07907 -0.284407 0.784388 0.134272 0.53462
1305032374.699355 -0.501106 -0.495586 1.0756 -0.271365 0.788456 0.126481 0.537308
1305032374.733811 -0.528938 -0.476275 1.0718 -0.258769 0.793689 0.122698 0.536696
1305032374.764278 -0.550342 -0.46177 1.06891 -0.247238 0.798476 0.117868 0.536113
1305032374.799002 -0.575791 -0.44216 1.06486 -0.235319 0.803204 0.107988 0.536495
1305032374.833082 -0.599545 -0.420248 1.06252 -0.227606 0.807655 0.101052 0.534489
1305032374.865385 -0.618475 -0.401443 1.06048 -0.220308 0.811039 0.0969197 0.533185
1305032374.902777 -0.639241 -0.379085 1.05688 -0.213339 0.814216 0.0940301 0.531693
1305032374.934055 -0.655613 -0.360522 1.05297 -0.207351 0.81782 0.0947164 0.528398
1305032374.963033 -0.670421 -0.341469 1.0516 -0.196837 0.822276 0.0951441 0.525418
1305032375.002817 -0.687298 -0.3176 1.0486 -0.185362 0.826112 0.100836 0.522506
1305032375.033887 -0.699028 -0.29919 1.0457 -0.173832 0.83052 0.10944 0.517727
1305032375.063190 -0.709861 -0.281518 1.04427 -0.163106 0.8351 0.114747 0.512678
1305032375.102173 -0.721663 -0.260845 1.04238 -0.153471 0.839866 0.120362 0.506542
1305032375.133604 -0.728003 -0.24615 1.0438 -0.146719 0.843994 0.124495 0.500649
1305032375.165423 -0.733597 -0.234337 1.04305 -0.143317 0.847116 0.119275 0.497623
1305032375.200434 -0.741185 -0.219291 1.04388 -0.141385 0.851443 0.107417 0.493473
1305032375.233840 -0.747277 -0.202865 1.04656 -0.138915 0.854931 0.0989872 0.489895
1305032375.266195 -0.753301 -0.186919 1.04711 -0.136281 0.857276 0.0901383 0.488242
1305032375.301769 -0.757941 -0.170195 1.05024 -0.132243 0.858961 0.0834056 0.487588
1305032375.333732 -0.761101 -0.156023 1.05343 -0.129834 0.858888 0.0789139 0.489109
1305032375.365885 -0.763781 -0.142796 1.05552 -0.127048 0.858942 0.0723864 0.490752
1305032375.402005 -0.765784 -0.128153 1.05676 -0.120622 0.857451 0.0621503 0.496351
1305032375.434228 -0.766931 -0.119097 1.05995 -0.116039 0.854307 0.0488152 0.504293
1305032375.465844 -0.768469 -0.108351 1.06343 -0.114321 0.850742 0.0364288 0.511705
1305032375.499846 -0.769214 -0.0982277 1.06492 -0.111699 0.847088 0.026068 0.518927
1305032375.532923 -0.769343 -0.0907873 1.06741 -0.107375 0.843984 0.0111476 0.525393
1305032375.564754 -0.769867 -0.0814934 1.06974 -0.100903 0.841117 0.00142731 0.531356
1305032375.601530 -0.76984 -0.0743362 1.07076 -0.096044 0.838533 -0.00426693 0.536302
1305032375.633994 -0.771753 -0.0652226 1.06884 -0.0926375 0.83669 -0.0089794 0.53971
1305032375.665634 -0.773827 -0.0554565 1.06554 -0.0875038 0.835674 -0.015183 0.541997
1305032375.701032 -0.776289 -0.0468606 1.06186 -0.0802698 0.835412 -0.0201894 0.543356
1305032375.733424 -0.779063 -0.03732 1.05734 -0.0737825 0.836091 -0.0217134 0.543173
1305032375.765813 -0.781718 -0.0251348 1.05344 -0.0707685 0.836095 -0.0245596 0.543446
1305032375.801369 -0.784643 -0.0131222 1.04893 -0.0681674 0.835414 -0.0286266 0.544625
1305032375.833207 -0.787996 -0.0024055 1.04305 -0.064656 0.834784 -0.031736 0.545847
1305032375.871496 -0.792061 0.00953815 1.03739 -0.0612743 0.834255 -0.0358914 0.546787
1305032375.901646 -0.795971 0.024612 1.03325 -0.0512852 0.833564 -0.0424878 0.548393
1305032375.933407 -0.800063 0.0344816 1.03152 -0.0385669 0.831669 -0.0491165 0.551749
1305032375.970923 -0.803286 0.0432969 1.03061 -0.0306285 0.829899 -0.049544 0.554865
1305032375.998893 -0.807346 0.0536627 1.0272 -0.0236381 0.827727 -0.0490906 0.55848
1305032376.032870 -0.813162 0.0637861 1.02388 -0.0106173 0.825501 -0.0486111 0.562203
1305032376.071463 -0.820642 0.0775866 1.01734 0.00342495 0.824198 -0.0458143 0.564435
1305032376.102191 -0.826915 0.089676 1.01178 0.0101564 0.825075 -0.0419224 0.563375
1305032376.133788 -0.831893 0.098519 1.00893 0.0165085 0.825888 -0.0404089 0.562142
1305032376.169914 -0.837889 0.107722 1.00555 0.0244879 0.826336 -0.0385078 0.561325
1305032376.199876 -0.844079 0.119459 1.00071 0.0296004 0.828158 -0.035267 0.558601
1305032376.230465 -0.84885 0.128408 0.998036 0.0338999 0.830211 -0.0338771 0.555385
1305032376.273911 -0.854009 0.139336 0.995731 0.0433569 0.831317 -0.0309917 0.553237
1305032376.301938 -0.857279 0.151667 0.994151 0.0449799 0.833095 -0.0273575 0.550618
1305032376.333881 -0.859044 0.159587 0.993903 0.0463348 0.834346 -0.024982 0.548722
1305032376.373272 -0.860998 0.167173 0.994114 0.0524503 0.834406 -0.0207502 0.548256
1305032376.401634 -0.862039 0.174513 0.992059 0.0546266 0.834535 -0.0213519 0.547824
1305032376.433772 -0.862723 0.181415 0.991299 0.0592486 0.834633 -0.023968 0.547086
1305032376.470927 -0.863349 0.188495 0.991031 0.0674736 0.834627 -0.0276697 0.545966
1305032376.502274 -0.864055 0.19201 0.990185 0.0769005 0.835424 -0.0336964 0.543155
1305032376.534012 -0.864942 0.194825 0.99002 0.0889082 0.836103 -0.0395127 0.539876
1305032376.570435 -0.865216 0.198249 0.990979 0.0995187 0.835584 -0.0458469 0.538325
1305032376.602018 -0.862948 0.203193 0.995523 0.104971 0.835633 -0.0536013 0.536494
1305032376.633878 -0.861923 0.208157 0.99788 0.11132 0.834926 -0.0603752 0.535595
1305032376.670038 -0.859921 0.213781 1.00034 0.119977 0.833127 -0.0647943 0.536009
1305032376.702106 -0.858161 0.221623 1.00165 0.122769 0.830911 -0.0687998 0.538313
1305032376.734286 -0.855095 0.231874 1.00518 0.125387 0.829492 -0.0730019 0.539344
1305032376.770230 -0.852278 0.238471 1.0088 0.129375 0.827282 -0.0745836 0.541575
1305032376.802346 -0.850213 0.2466 1.00956 0.130079 0.825401 -0.077209 0.543903
1305032376.833992 -0.847422 0.253743 1.0107 0.130473 0.824623 -0.0808151 0.544466
1305032376.870589 -0.84489 0.261971 1.0105 0.13489 0.822579 -0.0836448 0.546051
1305032376.901913 -0.841162 0.269377 1.01088 0.136844 0.821538 -0.0864809 0.54669
1305032376.933692 -0.837827 0.274492 1.00929 0.136857 0.821206 -0.087253 0.547063
1305032376.970386 -0.834488 0.280274 1.00856 0.138532 0.819643 -0.0915288 0.548285
1305032376.999115 -0.832191 0.283684 1.00745 0.14112 0.818803 -0.0960398 0.548109
1305032377.033983 -0.830148 0.286054 1.0058 0.144168 0.818211 -0.0982755 0.547803
1305032377.070323 -0.826761 0.291952 1.00509 0.148227 0.816562 -0.100432 0.548789
1305032377.102669 -0.823187 0.292745 1.00597 0.153095 0.814703 -0.101551 0.550008
1305032377.138244 -0.820134 0.296272 1.00428 0.154826 0.813928 -0.100335 0.550893
1305032377.170226 -0.817582 0.298412 1.00157 0.156077 0.812913 -0.0970373 0.552627
1305032377.201999 -0.814685 0.303862 1.00147 0.157495 0.812334 -0.0949527 0.553438
1305032377.240571 -0.812211 0.306099 1.00061 0.156095 0.81286 -0.0927142 0.553441
1305032377.270905 -0.810329 0.306477 1.00035 0.157878 0.812097 -0.0921046 0.554157
1305032377.301796 -0.809142 0.304044 1.00165 0.160228 0.810763 -0.0903799 0.555717
1305032377.340942 -0.80675 0.302687 1.00294 0.155932 0.810835 -0.0894287 0.556987
1305032377.370316 -0.804735 0.300029 1.00317 0.15181 0.810447 -0.0878565 0.558937
1305032377.401804 -0.804954 0.290923 1.00356 0.149685 0.809338 -0.0852862 0.561509
1305032377.439875 -0.804804 0.280658 1.00214 0.144283 0.80957 -0.0817917 0.563107
1305032377.472533 -0.804598 0.272017 1.00244 0.13779 0.809912 -0.0802269 0.564464
1305032377.501559 -0.805682 0.256413 1.00197 0.133154 0.809132 -0.0787904 0.566893
1305032377.537201 -0.806233 0.241713 1.00204 0.12543 0.809987 -0.0772085 0.567651
1305032377.569572 -0.807265 0.228323 1.00278 0.118069 0.810843 -0.076314 0.568128
1305032377.602349 -0.808403 0.210489 1.00228 0.110833 0.80989 -0.0736168 0.571292
1305032377.640524 -0.809395 0.192944 1.00066 0.103164 0.810195 -0.0708827 0.57264
1305032377.669877 -0.810314 0.176423 0.997248 0.0929135 0.8113 -0.0673686 0.573255
1305032377.701705 -0.811764 0.157865 0.994085 0.0825203 0.810846 -0.0652594 0.575726
1305032377.737307 -0.812963 0.140318 0.990202 0.0711142 0.810755 -0.0639046 0.577525
1305032377.769318 -0.814268 0.12212 0.985088 0.0580637 0.811739 -0.0623771 0.577769
1305032377.801678 -0.815242 0.100009 0.979741 0.0464542 0.811427 -0.0611114 0.57939
1305032377.837451 -0.816134 0.0804339 0.974042 0.0365166 0.811018 -0.0580424 0.580988
1305032377.869348 -0.816752 0.0623688 0.966318 0.0247743 0.811254 -0.0546937 0.581603
1305032377.901238 -0.815899 0.0414613 0.960328 0.0113822 0.810575 -0.0510937 0.583291
1305032377.940265 -0.815417 0.0209003 0.952877 -0.00163163 0.808961 -0.046807 0.585993
1305032377.969308 -0.813801 0.00198439 0.946521 -0.0144652 0.808144 -0.0415934 0.587336
1305032378.001243 -0.810974 -0.0198564 0.940267 -0.0288604 0.80694 -0.0367526 0.588782
1305032378.040183 -0.807987 -0.0414185 0.934896 -0.0444722 0.804788 -0.0338312 0.590926
1305032378.068725 -0.805565 -0.0596481 0.926293 -0.0584724 0.802503 -0.0296468 0.593035
1305032378.101420 -0.802318 -0.0779623 0.918311 -0.0715207 0.801108 -0.0238539 0.593752
1305032378.139924 -0.796333 -0.101604 0.913873 -0.0832313 0.800252 -0.0208921 0.593492
1305032378.169193 -0.791358 -0.12144 0.909117 -0.0906439 0.79809 -0.0171738 0.595433
1305032378.202266 -0.786556 -0.138372 0.903166 -0.100652 0.794437 -0.013165 0.598803
1305032378.237421 -0.781471 -0.154352 0.896651 -0.112366 0.790069 -0.0100612 0.602548
1305032378.269616 -0.775598 -0.170222 0.891356 -0.125216 0.784619 -0.00427305 0.607187
1305032378.306182 -0.76821 -0.185246 0.888839 -0.138046 0.777582 -3.68646e-05 0.61344
1305032378.340777 -0.76172 -0.202449 0.884103 -0.151366 0.768483 0.00378865 0.621697
1305032378.367690 -0.755489 -0.219367 0.876964 -0.170323 0.759023 0.00924154 0.628322
1305032378.406284 -0.749282 -0.235124 0.867367 -0.188358 0.749982 0.020551 0.63374
1305032378.438513 -0.742525 -0.253347 0.859685 -0.201988 0.741747 0.0337159 0.638651
1305032378.470434 -0.736423 -0.270993 0.852436 -0.217345 0.732988 0.0419377 0.643219
1305032378.504807 -0.72945 -0.291472 0.844312 -0.23523 0.723855 0.0492542 0.646742
1305032378.539167 -0.722741 -0.311009 0.83909 -0.250371 0.714609 0.0503647 0.651239
1305032378.570470 -0.715906 -0.332951 0.83536 -0.26816 0.703544 0.0482953 0.65634
1305032378.607040 -0.707845 -0.35488 0.829548 -0.287051 0.693111 0.0495491 0.659351
1305032378.640593 -0.698846 -0.375514 0.826585 -0.304687 0.684213 0.0547691 0.660317
1305032378.674045 -0.689614 -0.396274 0.821918 -0.322807 0.675969 0.0615346 0.659603
1305032378.708133 -0.676832 -0.419719 0.818921 -0.337898 0.669955 0.0669693 0.657648
1305032378.741855 -0.663508 -0.443124 0.819917 -0.345747 0.666069 0.069375 0.657266
1305032378.774289 -0.652377 -0.462714 0.820661 -0.348689 0.663379 0.0738001 0.65795
1305032378.811244 -0.639686 -0.482008 0.822894 -0.349406 0.661149 0.0768675 0.659461
1305032378.840101 -0.62951 -0.498638 0.824177 -0.34866 0.65878 0.0769889 0.662206
1305032378.871857 -0.620833 -0.511319 0.825857 -0.349206 0.65577 0.0777449 0.664814
1305032378.907789 -0.608025 -0.524792 0.831234 -0.352439 0.649273 0.0752989 0.669748
1305032378.938846 -0.598543 -0.535354 0.8347 -0.357747 0.637879 0.0659631 0.678805
1305032378.971348 -0.589422 -0.544 0.837074 -0.36775 0.624238 0.0531725 0.687212
1305032379.007038 -0.577719 -0.552991 0.839097 -0.380771 0.60961 0.0377576 0.694236
1305032379.038668 -0.57019 -0.557988 0.839066 -0.391259 0.598742 0.0263218 0.698378
1305032379.071271 -0.559906 -0.563083 0.836495 -0.401619 0.591325 0.0261071 0.698824
1305032379.106727 -0.545603 -0.572097 0.836378 -0.406817 0.587442 0.0318793 0.698853
1305032379.138937 -0.533388 -0.580071 0.83308 -0.406708 0.586482 0.0426657 0.699147
1305032379.170930 -0.521706 -0.588491 0.829072 -0.406222 0.58753 0.0569069 0.697534
1305032379.206680 -0.507338 -0.599319 0.826309 -0.408501 0.589262 0.0713808 0.6934
1305032379.238614 -0.491493 -0.612107 0.827727 -0.410083 0.590485 0.0802197 0.690452
1305032379.271270 -0.477887 -0.624929 0.829964 -0.408124 0.591751 0.0848725 0.689972
1305032379.310742 -0.465939 -0.636854 0.832668 -0.406656 0.590411 0.0865854 0.691772
1305032379.342450 -0.452402 -0.649477 0.835711 -0.406565 0.583566 0.0807853 0.698305
1305032379.373747 -0.438411 -0.662172 0.839231 -0.409106 0.574731 0.0680486 0.705469
1305032379.406812 -0.428087 -0.672074 0.841314 -0.413213 0.567461 0.0539498 0.710163
1305032379.440732 -0.418081 -0.679539 0.845345 -0.420584 0.56112 0.0437746 0.711574
1305032379.472994 -0.408758 -0.686493 0.849847 -0.427598 0.554857 0.0350334 0.712788
1305032379.507528 -0.398959 -0.693826 0.85878 -0.43296 0.54721 0.0235404 0.715928
1305032379.539852 -0.390149 -0.699685 0.871832 -0.433206 0.535532 0.0101358 0.724869
1305032379.575545 -0.38155 -0.704533 0.877005 -0.429497 0.522037 0.000676228 0.736892
1305032379.607089 -0.375144 -0.706517 0.880973 -0.424714 0.513777 -0.00228478 0.745417
1305032379.641416 -0.370862 -0.709134 0.87864 -0.421715 0.50668 -0.00231284 0.751948
1305032379.676703 -0.36876 -0.711716 0.87412 -0.419572 0.502161 -0.00460612 0.756156
1305032379.707878 -0.370051 -0.712324 0.866872 -0.420992 0.498821 -0.0101812 0.757522
1305032379.738599 -0.372442 -0.714539 0.860817 -0.425928 0.493901 -0.0211092 0.757761
1305032379.775239 -0.375279 -0.715232 0.845494 -0.428713 0.491101 -0.0304643 0.757692
1305032379.807815 -0.378656 -0.714882 0.82942 -0.4342 0.49366 -0.0318998 0.75283
1305032379.839500 -0.383124 -0.715154 0.815891 -0.44045 0.496595 -0.0294851 0.747347
1305032379.875565 -0.386356 -0.716419 0.807115 -0.446956 0.49877 -0.025889 0.742151
1305032379.903833 -0.389243 -0.717018 0.795306 -0.451672 0.499884 -0.0227172 0.738642
1305032379.940009 -0.391832 -0.718287 0.78427 -0.456273 0.501214 -0.0195246 0.734995
1305032379.976659 -0.392469 -0.720477 0.773664 -0.46053 0.502799 -0.0188781 0.731265
1305032380.007756 -0.396501 -0.719023 0.76151 -0.462971 0.506417 -0.0188952 0.727216
1305032380.040494 -0.401003 -0.717075 0.753225 -0.466474 0.508877 -0.0179325 0.723274
1305032380.076762 -0.40527 -0.714073 0.74669 -0.468485 0.510219 -0.0178238 0.721028
1305032380.107291 -0.410489 -0.709521 0.740124 -0.469091 0.509917 -0.017238 0.720861
1305032380.140050 -0.414539 -0.705157 0.738051 -0.469476 0.507746 -0.0164203 0.722161
1305032380.176572 -0.41872 -0.700231 0.736998 -0.468554 0.50244 -0.0190762 0.726394
1305032380.207110 -0.422202 -0.695806 0.736561 -0.465251 0.496395 -0.0244493 0.732486
1305032380.239460 -0.425991 -0.690157 0.731213 -0.46036 0.490595 -0.0299319 0.739249
1305032380.276664 -0.429318 -0.68338 0.727785 -0.454069 0.488436 -0.032123 0.744459
1305032380.307734 -0.433767 -0.673865 0.720728 -0.443785 0.488441 -0.0268494 0.750839
1305032380.339866 -0.438097 -0.662279 0.713081 -0.433626 0.489534 -0.0143821 0.756385
1305032380.375602 -0.438722 -0.653058 0.70944 -0.424207 0.490572 -0.00219165 0.761172
1305032380.407488 -0.442143 -0.641052 0.70979 -0.409691 0.492464 0.00671643 0.767846
1305032380.439180 -0.450149 -0.62385 0.703718 -0.392048 0.492197 0.016226 0.777031
1305032380.473087 -0.45104 -0.612616 0.698507 -0.378798 0.487913 0.022043 0.786109
1305032380.507283 -0.454615 -0.59921 0.691267 -0.359361 0.484709 0.019045 0.797216
1305032380.539774 -0.465455 -0.573532 0.674987 -0.343172 0.484027 0.018063 0.804751
1305032380.576395 -0.468519 -0.555318 0.665136 -0.343283 0.484208 0.02051 0.804537
1305032380.609316 -0.468702 -0.539881 0.657712 -0.341635 0.487234 0.0174834 0.803482
1305032380.639507 -0.471978 -0.518787 0.645515 -0.337763 0.492019 0.0130132 0.802287
1305032380.675545 -0.471365 -0.505181 0.644916 -0.335639 0.495228 0.00703056 0.801278
1305032380.707658 -0.474432 -0.486469 0.63849 -0.32373 0.495432 -0.00446755 0.806056
1305032380.739529 -0.474943 -0.46801 0.629712 -0.312419 0.493988 -0.0150953 0.81126
1305032380.776434 -0.477081 -0.449451 0.621381 -0.295348 0.493324 -0.0219287 0.817875
1305032380.803780 -0.483024 -0.420632 0.599785 -0.28167 0.492264 -0.020153 0.823366
1305032380.843621 -0.479713 -0.40771 0.591065 -0.281645 0.493071 -0.0165862 0.822972
1305032380.876451 -0.479118 -0.395156 0.583812 -0.271397 0.494971 -0.0154828 0.825292
1305032380.906774 -0.481833 -0.376996 0.56868 -0.25768 0.496504 -0.0152123 0.828766
1305032380.944580 -0.482535 -0.362803 0.555068 -0.247084 0.50171 -0.0131079 0.828894
1305032380.976235 -0.485622 -0.347955 0.540535 -0.23219 0.511408 -0.0100815 0.827314
1305032381.010534 -0.491274 -0.330716 0.525987 -0.219353 0.521383 -0.00929766 0.824595
1305032381.043413 -0.495788 -0.314512 0.510774 -0.208593 0.530818 -0.00710618 0.821383
1305032381.075126 -0.503606 -0.297462 0.49878 -0.197639 0.540926 -0.000586467 0.817519
1305032381.107139 -0.5118 -0.281656 0.488733 -0.188741 0.549386 0.00719835 0.813941
1305032381.143098 -0.519857 -0.265246 0.479864 -0.180707 0.558667 0.020443 0.809209
1305032381.175951 -0.528197 -0.2512 0.47289 -0.173341 0.568576 0.0353705 0.803383
1305032381.206840 -0.538224 -0.236355 0.468544 -0.165538 0.577739 0.0514249 0.797603
1305032381.244183 -0.549012 -0.223631 0.46706 -0.161764 0.582962 0.0650094 0.793575
1305032381.275997 -0.5594 -0.215247 0.464526 -0.160173 0.586117 0.0710833 0.79105
1305032381.309728 -0.570861 -0.208028 0.462306 -0.153064 0.591822 0.0773849 0.787611
1305032381.341217 -0.583672 -0.201577 0.459624 -0.143008 0.596554 0.0853322 0.785106
1305032381.373199 -0.595174 -0.195887 0.453816 -0.135031 0.600514 0.0930167 0.782622
1305032381.408681 -0.606327 -0.191398 0.447492 -0.130349 0.606514 0.097643 0.778213
1305032381.444067 -0.617205 -0.188874 0.439103 -0.127568 0.614723 0.10284 0.771535
1305032381.474756 -0.627152 -0.189136 0.429674 -0.122027 0.625283 0.107449 0.763273
1305032381.508685 -0.638693 -0.190304 0.420226 -0.114643 0.639353 0.109243 0.75243
1305032381.545353 -0.650877 -0.189653 0.409348 -0.108355 0.651581 0.108589 0.742906
1305032381.576827 -0.662779 -0.191825 0.404784 -0.099976 0.661756 0.103842 0.735731
1305032381.608397 -0.673372 -0.196767 0.398126 -0.0915622 0.671264 0.100557 0.728635
1305032381.644906 -0.684048 -0.198225 0.394336 -0.0826433 0.680163 0.100715 0.72139
1305032381.675936 -0.692158 -0.203653 0.389538 -0.0732021 0.687588 0.0983184 0.71568
1305032381.707240 -0.699573 -0.208527 0.385386 -0.0621417 0.693292 0.0940359 0.711788
1305032381.744570 -0.707989 -0.210677 0.382695 -0.0510794 0.694838 0.0886302 0.711853
1305032381.776694 -0.713153 -0.213275 0.376474 -0.043474 0.695043 0.0853671 0.712558
1305032381.810015 -0.715029 -0.21935 0.370063 -0.0346509 0.693964 0.0821441 0.714468
1305032381.843860 -0.717052 -0.225706 0.364032 -0.0192308 0.693705 0.0790053 0.715655
1305032381.876540 -0.718004 -0.230316 0.356429 -0.00401793 0.693411 0.080125 0.716062
1305032381.907470 -0.716737 -0.238526 0.345848 0.00862827 0.695465 0.0797075 0.714073
1305032381.943636 -0.716357 -0.247583 0.33521 0.0222193 0.69854 0.0739712 0.711391
1305032381.975700 -0.719254 -0.250347 0.327085 0.0374303 0.700455 0.0641947 0.709817
1305032382.007016 -0.72348 -0.248108 0.316336 0.0490644 0.703654 0.0570512 0.706547
1305032382.043778 -0.725754 -0.251771 0.305913 0.0605819 0.707182 0.0540624 0.702354
1305032382.076551 -0.727906 -0.25243 0.295255 0.0719747 0.710126 0.0522022 0.698438
1305032382.112595 -0.72876 -0.255474 0.285954 0.0830944 0.712399 0.053133 0.694809
1305032382.142801 -0.731044 -0.248896 0.277432 0.0906432 0.7147 0.0525019 0.691542
1305032382.175194 -0.731517 -0.244759 0.265948 0.0931831 0.715763 0.0559023 0.689837
1305032382.212343 -0.730451 -0.237535 0.25894 0.0914161 0.71582 0.0611309 0.68957
1305032382.244823 -0.726415 -0.237633 0.249387 0.0853699 0.715312 0.0664126 0.690384
1305032382.275045 -0.720706 -0.238137 0.241042 0.0754929 0.713694 0.0744238 0.692389
1305032382.311569 -0.710875 -0.247945 0.231849 0.0613614 0.709588 0.0823757 0.69709
1305032382.343035 -0.69938 -0.252216 0.226948 0.0460917 0.70399 0.0868019 0.703376
1305032382.375765 -0.684906 -0.256177 0.221639 0.0273512 0.696285 0.0915443 0.711378
1305032382.411673 -0.668012 -0.26077 0.216244 0.00851444 0.686367 0.0974183 0.720651
1305032382.445108 -0.65113 -0.260813 0.212571 -0.0104831 0.674733 0.10448 0.730554
1305032382.476983 -0.629212 -0.269916 0.205566 -0.0303358 0.6616 0.113665 0.740571
1305032382.512630 -0.607137 -0.276047 0.201159 -0.0517322 0.647287 0.118961 0.751127
1305032382.545000 -0.581282 -0.283205 0.193812 -0.0743532 0.629539 0.12701 0.762902
1305032382.577082 -0.555774 -0.290636 0.189026 -0.0910649 0.613769 0.126626 0.773925
1305032382.614372 -0.528815 -0.298774 0.188778 -0.109519 0.599058 0.124687 0.783318
1305032382.644837 -0.499882 -0.307543 0.186701 -0.129998 0.580333 0.130279 0.79331
1305032382.675979 -0.468217 -0.321564 0.183856 -0.145147 0.561029 0.131854 0.804235
1305032382.713425 -0.436206 -0.33912 0.184408 -0.156926 0.547134 0.127838 0.812204
1305032382.744674 -0.407448 -0.356847 0.188781 -0.168729 0.535217 0.120068 0.818936
1305032382.776770 -0.381607 -0.376686 0.195403 -0.186933 0.52156 0.109786 0.825214
1305032382.812185 -0.35238 -0.401309 0.202829 -0.200378 0.508088 0.0957875 0.832178
1305032382.844824 -0.329571 -0.423342 0.211359 -0.210309 0.495337 0.0836771 0.838695
1305032382.875189 -0.3089 -0.445401 0.222439 -0.222772 0.480869 0.0732342 0.844852
1305032382.913733 -0.289071 -0.472804 0.239988 -0.233797 0.464913 0.0635429 0.851561
1305032382.943823 -0.270431 -0.497556 0.255094 -0.239355 0.446107 0.0537098 0.860705
1305032382.975989 -0.25209 -0.517765 0.264738 -0.243567 0.427262 0.0492661 0.869307
1305032383.012820 -0.233922 -0.535983 0.275423 -0.249246 0.408564 0.0483655 0.876705
1305032383.044130 -0.218174 -0.553207 0.28657 -0.25659 0.390048 0.0473148 0.883055
1305032383.077761 -0.200081 -0.570122 0.295255 -0.26295 0.372209 0.0454742 0.88896
1305032383.113060 -0.187221 -0.586077 0.30666 -0.267682 0.357725 0.0398068 0.893753
1305032383.144756 -0.17762 -0.598013 0.315876 -0.265683 0.344678 0.0360042 0.899618
1305032383.177793 -0.173307 -0.599172 0.318845 -0.267899 0.332256 0.0383591 0.903529
1305032383.213287 -0.163427 -0.603386 0.322906 -0.281314 0.315568 0.0343201 0.905595
1305032383.243505 -0.153745 -0.609432 0.329068 -0.296268 0.302729 0.0237126 0.905549
1305032383.279376 -0.145723 -0.618568 0.337966 -0.308945 0.291995 0.0111417 0.905079
1305032383.311447 -0.142188 -0.628216 0.347513 -0.316207 0.280808 0.000760208 0.906179
1305032383.341434 -0.137408 -0.637134 0.354306 -0.31862 0.265787 -0.00614365 0.909836
1305032383.379477 -0.133073 -0.645451 0.359926 -0.318985 0.250507 -0.01156 0.913981
1305032383.411502 -0.127691 -0.653338 0.362619 -0.320473 0.235347 -0.0174062 0.917391
1305032383.443669 -0.123644 -0.662049 0.365694 -0.32217 0.221505 -0.0253156 0.920055
1305032383.479196 -0.118747 -0.668702 0.364619 -0.324026 0.207777 -0.0315127 0.922411
1305032383.511381 -0.111223 -0.678201 0.364504 -0.326858 0.19538 -0.038913 0.923838
1305032383.544691 -0.109997 -0.683534 0.361773 -0.329698 0.189661 -0.0425079 0.923862
1305032383.579562 -0.110267 -0.695954 0.365197 -0.333151 0.182332 -0.0480838 0.923825
1305032383.613124 -0.114054 -0.705574 0.365937 -0.327045 0.173992 -0.0493963 0.927539
1305032383.644735 -0.115924 -0.709596 0.361417 -0.324363 0.164041 -0.0439946 0.930561
1305032383.679654 -0.118249 -0.716117 0.362307 -0.325923 0.150564 -0.0431053 0.932334
1305032383.712037 -0.122096 -0.720263 0.362402 -0.327557 0.135653 -0.0466574 0.933878
1305032383.742653 -0.126295 -0.72206 0.361534 -0.333014 0.121986 -0.0484392 0.933742
1305032383.778285 -0.127901 -0.726972 0.364279 -0.341631 0.108221 -0.0509888 0.932189
1305032383.812039 -0.129361 -0.730653 0.366667 -0.346852 0.09669 -0.0526891 0.931434
1305032383.843925 -0.13239 -0.733712 0.369623 -0.349928 0.0855576 -0.0551458 0.93123
1305032383.878906 -0.132871 -0.73413 0.369226 -0.351508 0.0747364 -0.0570005 0.931455
1305032383.911427 -0.131799 -0.735235 0.370555 -0.353568 0.0672803 -0.0569593 0.931246
1305032383.943289 -0.130756 -0.733857 0.369635 -0.353709 0.0632936 -0.0559619 0.931532
1305032383.979220 -0.130426 -0.729463 0.36645 -0.353621 0.0621656 -0.0514254 0.931903
1305032384.011402 -0.126976 -0.726053 0.364156 -0.35496 0.0605487 -0.0450206 0.931832
1305032384.042763 -0.124001 -0.723115 0.36366 -0.355346 0.0606661 -0.0373666 0.932015
1305032384.079025 -0.121663 -0.718209 0.361608 -0.354403 0.0602891 -0.0308329 0.932638
1305032384.112211 -0.119206 -0.714355 0.36027 -0.354214 0.0598285 -0.0253246 0.932905
1305032384.143402 -0.116057 -0.712356 0.360793 -0.3535 0.0586161 -0.0199638 0.933383
1305032384.179113 -0.111844 -0.710127 0.359057 -0.351146 0.0579563 -0.013594 0.934427
1305032384.211262 -0.108829 -0.709324 0.358681 -0.347959 0.058318 -0.00989228 0.935642
1305032384.241759 -0.107533 -0.7075 0.356932 -0.343483 0.0580126 -0.00828541 0.937329
1305032384.278407 -0.106133 -0.705973 0.355622 -0.339008 0.0575105 -0.0064384 0.939002
1305032384.308313 -0.105074 -0.706747 0.356632 -0.331737 0.0578945 -0.00394003 0.941585
1305032384.341175 -0.104392 -0.702638 0.35255 -0.321259 0.0563303 -0.000902652 0.945314
1305032384.375647 -0.100131 -0.695696 0.346613 -0.313192 0.05452 0.00314988 0.948118
1305032384.411880 -0.0955199 -0.687317 0.34142 -0.30883 0.0542292 0.00439537 0.94956
1305032384.444075 -0.0937177 -0.677778 0.33636 -0.306655 0.053953 0.00174761 0.950289
1305032384.479096 -0.0919577 -0.666884 0.331426 -0.304766 0.0511474 -0.00402409 0.951044
1305032384.512157 -0.0894469 -0.653359 0.324535 -0.303312 0.0482176 -0.0081394 0.951636
1305032384.544929 -0.0868294 -0.641586 0.320451 -0.302552 0.0464435 -0.00946425 0.951954
1305032384.580765 -0.0843036 -0.627375 0.314192 -0.30117 0.0440026 -0.0101227 0.952501
1305032384.613105 -0.0807464 -0.612105 0.306829 -0.301582 0.0418706 -0.0102027 0.952466
1305032384.647706 -0.0776819 -0.60029 0.303547 -0.300726 0.0429076 -0.00734624 0.952717
1305032384.679303 -0.0737678 -0.585827 0.296496 -0.29643 0.0436975 -0.0010327 0.954054
1305032384.712109 -0.0712524 -0.571237 0.29026 -0.291889 0.0432027 0.00793572 0.955443
1305032384.746434 -0.065273 -0.55923 0.284932 -0.286483 0.0423605 0.0165059 0.957006
1305032384.778315 -0.059776 -0.5459 0.277407 -0.276568 0.0447088 0.0241089 0.959651
1305032384.811269 -0.0552757 -0.534972 0.271925 -0.265871 0.0450917 0.0309934 0.962455
1305032384.846699 -0.0471109 -0.524355 0.265517 -0.250552 0.0417268 0.0342448 0.966597
1305032384.879179 -0.0416758 -0.511044 0.256227 -0.232237 0.0401036 0.0362302 0.971157
1305032384.911051 -0.0361873 -0.495757 0.245022 -0.21418 0.0384885 0.0390629 0.975254
1305032384.947623 -0.0291545 -0.480619 0.233608 -0.197774 0.0383754 0.0425511 0.978571
1305032384.979039 -0.0245128 -0.464193 0.221264 -0.181764 0.0400652 0.0450487 0.981492
1305032385.011611 -0.0161954 -0.447945 0.208436 -0.167414 0.0417697 0.0472344 0.983868
1305032385.047788 -0.00950634 -0.43369 0.197346 -0.155001 0.0448608 0.0493684 0.98566
1305032385.079238 -0.00457913 -0.417826 0.185616 -0.141558 0.0466719 0.0536762 0.987371
1305032385.110028 0.0022434 -0.400146 0.172825 -0.131913 0.0489367 0.0573217 0.988392
1305032385.147955 0.00742267 -0.385873 0.162653 -0.123232 0.0542372 0.060425 0.989051
1305032385.180315 0.0144402 -0.369464 0.151497 -0.112734 0.0581717 0.0649063 0.989795
1305032385.212521 0.0210564 -0.352423 0.140514 -0.105411 0.0637552 0.0689791 0.989983
1305032385.247861 0.0255283 -0.33807 0.132016 -0.0974692 0.0677189 0.0698021 0.990475
1305032385.279278 0.0332483 -0.323172 0.122856 -0.0869672 0.0706822 0.0661256 0.991498
1305032385.313088 0.0391234 -0.305213 0.113451 -0.0785215 0.0751643 0.0618045 0.992152
1305032385.347825 0.0442589 -0.289024 0.105806 -0.0723593 0.0782823 0.0553927 0.992758
1305032385.379172 0.0491534 -0.275064 0.100071 -0.0657384 0.0797905 0.049772 0.993396
1305032385.411331 0.0539697 -0.26019 0.0944902 -0.0558347 0.0787605 0.0418406 0.994449
1305032385.446560 0.0598464 -0.243815 0.0892309 -0.0462003 0.0774734 0.0338358 0.995348
1305032385.478895 0.0626201 -0.228059 0.0860511 -0.0394541 0.0756291 0.0270696 0.995987
1305032385.512276 0.0648329 -0.218179 0.0849307 -0.0302562 0.0717144 0.0170177 0.996821
1305032385.546621 0.0658801 -0.206079 0.0832982 -0.0168427 0.0680232 0.0102779 0.997489
1305032385.579100 0.0672481 -0.189831 0.0821354 -0.00832637 0.0630015 0.00835114 0.997944
1305032385.611944 0.0709633 -0.173221 0.0816395 -0.00649221 0.057995 0.00589008 0.998278
1305032385.647972 0.0712225 -0.157739 0.0821327 -0.00718509 0.054839 0.00701751 0.998445
1305032385.677687 0.0717201 -0.144928 0.0832694 -0.00528479 0.0483157 0.00999047 0.998768
1305032385.708060 0.0736757 -0.129291 0.0839886 -0.00298333 0.0417509 0.0170103 0.998979
1305032385.743325 0.0754955 -0.113118 0.0847914 -0.00367035 0.0357615 0.0233511 0.999081
1305032385.779209 0.0780218 -0.102311 0.0856065 -0.00280323 0.0301187 0.0307014 0.999071
1305032385.816091 0.0814177 -0.0877338 0.085986 -0.00119609 0.0281592 0.0420429 0.998718
1305032385.846913 0.0859418 -0.0730517 0.0859732 0.000587506 0.029055 0.0546591 0.998082
1305032385.879571 0.0895798 -0.0629432 0.0859984 0.00916255 0.0303714 0.0670341 0.997246
1305032385.915659 0.090797 -0.048459 0.0857238 0.0200204 0.0316077 0.0811728 0.995998
1305032385.943376 0.0937186 -0.0361566 0.0872287 0.023667 0.0318683 0.0932659 0.99485
1305032385.980099 0.0972445 -0.0266481 0.0886341 0.0283247 0.0331264 0.0994486 0.994088
1305032386.014821 0.100734 -0.0178498 0.0912083 0.0342394 0.0345502 0.10335 0.993455
1305032386.048023 0.105108 -0.00964407 0.0939892 0.0398625 0.0359068 0.110322 0.992447
1305032386.080071 0.109155 0.00073878 0.0974881 0.0428006 0.0380969 0.119819 0.991141
1305032386.115561 0.11004 0.0104137 0.10126 0.0458253 0.0384468 0.128909 0.989851
1305032386.148299 0.111097 0.0181723 0.105286 0.0485146 0.0332722 0.134935 0.989107
1305032386.179328 0.11429 0.0262192 0.109697 0.0470653 0.0261219 0.13964 0.988738
1305032386.215559 0.114533 0.0354122 0.114789 0.0429732 0.0178569 0.144657 0.988387
1305032386.243605 0.116309 0.0420383 0.11922 0.0392909 0.00801944 0.149771 0.987907
1305032386.278957 0.116952 0.0470719 0.12302 0.0338811 -0.00294874 0.150317 0.988053
1305032386.315386 0.121005 0.0535322 0.126617 0.0266247 -0.0144161 0.151495 0.987994
1305032386.346831 0.125383 0.0555229 0.129902 0.0191834 -0.0258629 0.154777 0.987425
1305032386.379033 0.126692 0.0586602 0.132406 0.0093194 -0.0367032 0.151605 0.987715
1305032386.415310 0.130872 0.0603616 0.134559 -0.00373432 -0.0475376 0.146639 0.98804
1305032386.447187 0.13551 0.0593526 0.135385 -0.0127472 -0.0585626 0.144226 0.987728
1305032386.479658 0.142503 0.0538288 0.136616 -0.0212313 -0.0689625 0.134951 0.988221
1305032386.514929 0.1488 0.0489607 0.137781 -0.0297305 -0.0789072 0.129144 0.988034
1305032386.547514 0.15193 0.0390889 0.1376 -0.0349907 -0.0892341 0.116617 0.988541
1305032386.578838 0.159714 0.0292768 0.138062 -0.0393798 -0.100442 0.106173 0.988478
1305032386.614264 0.168154 0.0189537 0.138457 -0.0457006 -0.110886 0.0978166 0.987951
1305032386.646315 0.174438 0.0105237 0.138207 -0.0466854 -0.118724 0.091802 0.987572
1305032386.678968 0.183727 -0.000449709 0.138059 -0.0474646 -0.124182 0.0842851 0.987533
1305032386.714163 0.191266 -0.0118375 0.137497 -0.0514597 -0.127037 0.079146 0.987395
1305032386.746448 0.19908 -0.0220526 0.137846 -0.0573565 -0.131617 0.0719983 0.987017
1305032386.778959 0.208034 -0.0313075 0.138231 -0.0663825 -0.135856 0.0633636 0.986469
1305032386.814157 0.21701 -0.0392693 0.139151 -0.0750145 -0.138748 0.0560106 0.985893
1305032386.846480 0.225665 -0.0488894 0.140166 -0.0879626 -0.142439 0.0492865 0.984654
1305032386.878932 0.233522 -0.0567466 0.140794 -0.103781 -0.144124 0.0402807 0.983278
1305032386.915107 0.245235 -0.0656932 0.142671 -0.123069 -0.1469 0.0342994 0.980866
1305032386.947042 0.252772 -0.0742371 0.143572 -0.140187 -0.149284 0.0288545 0.978381
1305032386.979534 0.260502 -0.0801309 0.144172 -0.15844 -0.150817 0.0196765 0.975584
1305032387.015340 0.271436 -0.0966474 0.147825 -0.183818 -0.151906 0.0161303 0.971018
1305032387.047204 0.281518 -0.110104 0.151397 -0.199826 -0.153813 0.0156037 0.967558
1305032387.083123 0.291308 -0.126811 0.156225 -0.210785 -0.15643 0.0132811 0.964843
1305032387.115144 0.299907 -0.143037 0.159527 -0.215736 -0.158782 0.00647173 0.963434
1305032387.146938 0.308395 -0.159924 0.163144 -0.225541 -0.161626 -0.0038838 0.960725
1305032387.183366 0.318019 -0.177627 0.16801 -0.237311 -0.163014 -0.0141899 0.957553
1305032387.211762 0.330273 -0.195503 0.173874 -0.245707 -0.162812 -0.0229963 0.955296
1305032387.243500 0.342312 -0.213855 0.180129 -0.250176 -0.160554 -0.0290763 0.954353
1305032387.283242 0.353487 -0.232735 0.186212 -0.254759 -0.158698 -0.0375289 0.953155
1305032387.315110 0.362543 -0.250615 0.191383 -0.258619 -0.156836 -0.0490227 0.951901
1305032387.347681 0.372762 -0.266176 0.196741 -0.265712 -0.155846 -0.0591007 0.949535
1305032387.382764 0.380519 -0.282171 0.201813 -0.27718 -0.153129 -0.0660952 0.946232
1305032387.414331 0.388978 -0.298639 0.208458 -0.285657 -0.153366 -0.0730414 0.943156
1305032387.443532 0.397239 -0.314275 0.214831 -0.291007 -0.155232 -0.0791689 0.940718
1305032387.482745 0.403964 -0.328881 0.220481 -0.299375 -0.156501 -0.0844795 0.937414
1305032387.511705 0.410966 -0.34477 0.22804 -0.306213 -0.157493 -0.0926512 0.934262
1305032387.543542 0.416566 -0.36053 0.235386 -0.309225 -0.160103 -0.100725 0.931988
1305032387.583132 0.420903 -0.374513 0.241176 -0.311448 -0.166119 -0.107173 0.929472
1305032387.614697 0.425009 -0.388162 0.247941 -0.314653 -0.174032 -0.114366 0.926081
1305032387.646620 0.427731 -0.402043 0.254861 -0.318461 -0.181407 -0.123777 0.922146
1305032387.682795 0.4302 -0.415126 0.262131 -0.321452 -0.189563 -0.13396 0.918035
1305032387.715088 0.432964 -0.42674 0.269434 -0.32379 -0.19896 -0.140503 0.91424
1305032387.746770 0.436434 -0.436765 0.276555 -0.328407 -0.206921 -0.144596 0.910178
1305032387.782837 0.440401 -0.446732 0.284449 -0.335233 -0.213367 -0.150582 0.905217
1305032387.815294 0.443699 -0.454311 0.291131 -0.344373 -0.218425 -0.15609 0.89963
1305032387.846872 0.447755 -0.463066 0.300159 -0.357072 -0.222583 -0.160584 0.892843
1305032387.883126 0.453813 -0.471255 0.310241 -0.367571 -0.226409 -0.159576 0.887787
1305032387.914658 0.459846 -0.478993 0.31978 -0.378724 -0.22791 -0.153826 0.883721
1305032387.947098 0.463642 -0.488706 0.330017 -0.393296 -0.228344 -0.149255 0.878009
1305032387.983846 0.469313 -0.49873 0.341558 -0.403699 -0.231433 -0.148421 0.872604
1305032388.015687 0.47447 -0.510806 0.354017 -0.410806 -0.23458 -0.153518 0.86755
1305032388.047380 0.479956 -0.521556 0.36447 -0.412889 -0.237836 -0.159964 0.864504
1305032388.083777 0.486043 -0.532596 0.374102 -0.415075 -0.240641 -0.168486 0.861056
1305032388.115961 0.490785 -0.545619 0.385554 -0.415401 -0.24329 -0.175912 0.858666
1305032388.148173 0.496985 -0.556889 0.394979 -0.412484 -0.24783 -0.179401 0.858051
1305032388.184052 0.501969 -0.568284 0.403804 -0.408909 -0.253047 -0.179993 0.858116
1305032388.212538 0.50855 -0.579001 0.412873 -0.40465 -0.257387 -0.179841 0.858876
1305032388.250425 0.51516 -0.588163 0.421279 -0.402806 -0.260374 -0.17821 0.859182
1305032388.283226 0.51997 -0.597574 0.429271 -0.402405 -0.262784 -0.175782 0.859136
1305032388.315193 0.523533 -0.606963 0.437583 -0.403614 -0.264157 -0.171765 0.858961
1305032388.350541 0.524982 -0.617575 0.447475 -0.40312 -0.265353 -0.166733 0.859815
1305032388.383342 0.528904 -0.626112 0.455476 -0.399915 -0.268113 -0.161972 0.861365
1305032388.414973 0.532795 -0.634116 0.464447 -0.398405 -0.269539 -0.155978 0.862724
1305032388.450875 0.534583 -0.643744 0.474808 -0.397227 -0.270194 -0.151252 0.863903
1305032388.483696 0.535672 -0.652847 0.485876 -0.395547 -0.272196 -0.149378 0.864371
1305032388.515455 0.534532 -0.661576 0.494596 -0.39194 -0.274737 -0.150291 0.865052
1305032388.551418 0.532659 -0.670278 0.503231 -0.388186 -0.279305 -0.151803 0.865018
1305032388.581086 0.530164 -0.677247 0.510409 -0.385103 -0.285008 -0.153566 0.864224
1305032388.615087 0.525828 -0.684997 0.519107 -0.383218 -0.29029 -0.157301 0.862631
1305032388.650929 0.521882 -0.692806 0.528587 -0.379508 -0.295861 -0.163637 0.861199
1305032388.684041 0.520463 -0.695582 0.532681 -0.377207 -0.29972 -0.170182 0.859605
1305032388.713169 0.517207 -0.698619 0.53953 -0.379257 -0.30377 -0.179429 0.855391
1305032388.751435 0.511456 -0.70306 0.548397 -0.382425 -0.307074 -0.18969 0.850573
1305032388.783449 0.506591 -0.706535 0.55708 -0.385553 -0.31068 -0.197689 0.846018
1305032388.814824 0.499483 -0.710668 0.565825 -0.388579 -0.313971 -0.203839 0.841949
1305032388.847513 0.49253 -0.714158 0.573862 -0.390907 -0.316608 -0.206383 0.83926
1305032388.882983 0.485716 -0.718008 0.582535 -0.391648 -0.320283 -0.208664 0.836953
1305032388.914716 0.480285 -0.72082 0.590156 -0.390924 -0.325008 -0.21101 0.834879
1305032388.950492 0.472886 -0.724347 0.598543 -0.390169 -0.329375 -0.213203 0.832961
1305032388.983354 0.467227 -0.727608 0.607807 -0.388828 -0.333907 -0.21457 0.831431
1305032389.015302 0.46435 -0.729164 0.61555 -0.387053 -0.338871 -0.214683 0.830221
1305032389.050498 0.461759 -0.729802 0.621759 -0.38603 -0.343705 -0.215004 0.828626
1305032389.083544 0.458949 -0.730611 0.630107 -0.383674 -0.350567 -0.219289 0.825718
1305032389.114834 0.457304 -0.730847 0.637498 -0.379909 -0.357104 -0.224621 0.82322
1305032389.150563 0.457913 -0.729388 0.641494 -0.377522 -0.361814 -0.228927 0.821073
1305032389.183847 0.457878 -0.729247 0.649249 -0.376564 -0.366901 -0.233427 0.817982
1305032389.215520 0.456456 -0.730627 0.658125 -0.372165 -0.373015 -0.239444 0.815488
1305032389.251042 0.459594 -0.729184 0.66169 -0.366607 -0.37889 -0.244436 0.813813
1305032389.283231 0.462318 -0.7265 0.663702 -0.36323 -0.385226 -0.248733 0.811047
1305032389.315296 0.465846 -0.724168 0.66838 -0.360141 -0.392979 -0.25191 0.807717
1305032389.351461 0.473168 -0.720569 0.671906 -0.356868 -0.399358 -0.253797 0.805447
1305032389.383520 0.48196 -0.716759 0.675716 -0.355725 -0.404097 -0.255859 0.802933
1305032389.415851 0.490896 -0.713108 0.679444 -0.356469 -0.407984 -0.257119 0.800231
1305032389.447191 0.497941 -0.711022 0.685376 -0.35528 -0.413569 -0.258284 0.797512
1305032389.484520 0.507747 -0.707902 0.687233 -0.352636 -0.4179 -0.257491 0.796684
1305032389.519411 0.519756 -0.703221 0.687464 -0.352173 -0.421274 -0.256865 0.795313
1305032389.551432 0.530114 -0.700915 0.69157 -0.352071 -0.424445 -0.2591 0.792944
1305032389.583908 0.54046 -0.69772 0.692727 -0.350373 -0.42623 -0.260546 0.792264
1305032389.619179 0.551941 -0.693293 0.691623 -0.349458 -0.428719 -0.260159 0.791452
1305032389.651751 0.562424 -0.689959 0.693128 -0.350077 -0.432276 -0.259843 0.789345
1305032389.683655 0.570168 -0.689096 0.69844 -0.349016 -0.435202 -0.259014 0.788479
1305032389.719141 0.580797 -0.685727 0.699143 -0.344783 -0.436976 -0.254743 0.790748
1305032389.751256 0.592958 -0.680303 0.697851 -0.340734 -0.439121 -0.250632 0.792626
1305032389.783396 0.601022 -0.676668 0.698763 -0.337613 -0.440635 -0.247445 0.794122
1305032389.815171 0.608395 -0.673298 0.699922 -0.332601 -0.441923 -0.242301 0.797102
1305032389.850251 0.618191 -0.667215 0.698323 -0.327589 -0.442446 -0.234138 0.801315
1305032389.883751 0.626399 -0.661017 0.698856 -0.322365 -0.44374 -0.228761 0.804267
1305032389.915433 0.631035 -0.656468 0.698719 -0.314156 -0.44672 -0.225173 0.806874
1305032389.950745 0.635389 -0.651427 0.696747 -0.301357 -0.453808 -0.223066 0.808383
1305032389.982637 0.63985 -0.64463 0.692451 -0.28841 -0.461251 -0.219251 0.809936
1305032390.019198 0.642904 -0.63649 0.686693 -0.276119 -0.469597 -0.214696 0.810643
1305032390.053174 0.645008 -0.629351 0.68191 -0.262463 -0.478432 -0.211496 0.810855
1305032390.081015 0.655227 -0.615548 0.679163 -0.250795 -0.48499 -0.206179 0.81202
1305032390.118347 0.658928 -0.604678 0.676585 -0.244937 -0.486579 -0.202787 0.81371
1305032390.149354 0.660453 -0.596677 0.675447 -0.238733 -0.48803 -0.197659 0.815944
1305032390.183538 0.666459 -0.584688 0.67225 -0.231636 -0.488857 -0.189624 0.819394
1305032390.219241 0.669999 -0.573653 0.670685 -0.226202 -0.489332 -0.18458 0.821777
1305032390.251134 0.670769 -0.566189 0.669561 -0.217858 -0.48913 -0.179991 0.825162
1305032390.282589 0.675094 -0.555499 0.667695 -0.20913 -0.488157 -0.170447 0.830009
1305032390.314979 0.67739 -0.545124 0.664701 -0.202572 -0.486644 -0.161159 0.834368
1305032390.350267 0.679923 -0.534954 0.662253 -0.196071 -0.484722 -0.151758 0.838791
1305032390.382610 0.681563 -0.524864 0.658836 -0.191975 -0.483542 -0.142524 0.842033
1305032390.415081 0.681277 -0.516627 0.655454 -0.187133 -0.483449 -0.133771 0.844609
1305032390.451519 0.684487 -0.506978 0.655287 -0.180611 -0.485736 -0.125189 0.846031
1305032390.479658 0.687748 -0.49731 0.655519 -0.175278 -0.487255 -0.118129 0.847293
1305032390.514929 0.690379 -0.488223 0.654918 -0.171374 -0.488354 -0.110985 0.848424
1305032390.550339 0.692933 -0.480246 0.654796 -0.165186 -0.489902 -0.103498 0.849704
1305032390.582772 0.696103 -0.471773 0.655711 -0.158281 -0.491146 -0.0964209 0.851132
1305032390.618377 0.699932 -0.462405 0.656083 -0.153211 -0.491893 -0.0879892 0.852541
1305032390.650434 0.703748 -0.454435 0.658856 -0.146338 -0.492062 -0.0806509 0.854374
1305032390.682873 0.709027 -0.443604 0.65987 -0.138197 -0.490859 -0.0741606 0.857006
1305032390.718194 0.713991 -0.432334 0.660895 -0.133677 -0.490482 -0.0683869 0.858418
1305032390.750175 0.718949 -0.421686 0.662783 -0.12981 -0.490933 -0.0636777 0.859115
1305032390.786274 0.724692 -0.409907 0.667924 -0.128586 -0.491382 -0.0578665 0.859454
1305032390.818507 0.730828 -0.396825 0.672042 -0.129003 -0.49154 -0.0540429 0.85955
1305032390.850437 0.735475 -0.386415 0.676443 -0.128618 -0.492076 -0.051053 0.859483
1305032390.886597 0.741285 -0.373816 0.68126 -0.126518 -0.493668 -0.0457374 0.859182
1305032390.918398 0.748237 -0.359892 0.68744 -0.124585 -0.495443 -0.0414348 0.85866
1305032390.950305 0.752662 -0.349104 0.692202 -0.120613 -0.49641 -0.0387888 0.858793
1305032390.987238 0.758002 -0.337423 0.698125 -0.112719 -0.499342 -0.034291 0.858357
1305032391.019268 0.764237 -0.322731 0.701415 -0.103105 -0.502834 -0.0292507 0.857713
1305032391.051279 0.770727 -0.30706 0.708099 -0.0998708 -0.505857 -0.0266436 0.856402
1305032391.087153 0.775694 -0.293318 0.7141 -0.100645 -0.506335 -0.0230216 0.856134
1305032391.118251 0.778328 -0.280527 0.717103 -0.0996908 -0.508052 -0.0189794 0.855327
1305032391.150434 0.780854 -0.268733 0.721304 -0.0943272 -0.512042 -0.0148946 0.853635
1305032391.186761 0.785482 -0.253978 0.727886 -0.0902915 -0.51514 -0.0115105 0.852259
1305032391.218382 0.787628 -0.240583 0.731174 -0.0899448 -0.515473 -0.00605913 0.852151
1305032391.250262 0.78922 -0.228159 0.734879 -0.0896692 -0.516506 0.000457847 0.851575
1305032391.286409 0.79152 -0.214126 0.737532 -0.0883893 -0.517729 0.00640816 0.850943
1305032391.318198 0.793526 -0.200564 0.740711 -0.0889501 -0.519573 0.0114033 0.849707
1305032391.350223 0.794517 -0.188752 0.743995 -0.0903428 -0.521783 0.0172209 0.848106
1305032391.386404 0.795743 -0.176273 0.746164 -0.0909937 -0.52336 0.022605 0.846938
1305032391.418275 0.796867 -0.165106 0.747039 -0.0930598 -0.524966 0.0254849 0.845637
1305032391.450231 0.797294 -0.15401 0.747764 -0.0959664 -0.5271 0.0314363 0.843782
1305032391.483296 0.797528 -0.143842 0.749647 -0.0993396 -0.529321 0.0353063 0.841846
1305032391.518579 0.797993 -0.132908 0.751878 -0.102725 -0.529773 0.0400544 0.840942
1305032391.548166 0.798091 -0.124634 0.753167 -0.104477 -0.529278 0.0462458 0.84072
1305032391.584774 0.796757 -0.117596 0.751774 -0.106911 -0.529186 0.0537642 0.840025
1305032391.617070 0.795527 -0.109022 0.750796 -0.110165 -0.530098 0.0593645 0.838651
1305032391.647210 0.793339 -0.0998462 0.748945 -0.112767 -0.530908 0.0646889 0.837398
1305032391.683817 0.790157 -0.0914593 0.745984 -0.11636 -0.532393 0.0705749 0.835486
1305032391.719489 0.785984 -0.0818953 0.742355 -0.121667 -0.534762 0.0751886 0.832811
1305032391.748029 0.78219 -0.072653 0.740344 -0.125994 -0.537246 0.0743485 0.830641
1305032391.784539 0.777703 -0.0641406 0.736223 -0.127557 -0.537332 0.0736412 0.83041
1305032391.815353 0.77426 -0.0557586 0.734362 -0.133081 -0.53561 0.0772448 0.830328
1305032391.850480 0.770849 -0.0495627 0.732065 -0.138112 -0.531318 0.0780293 0.832189
1305032391.884688 0.767486 -0.0444002 0.728742 -0.138008 -0.526446 0.077793 0.835318
1305032391.921342 0.764087 -0.0408123 0.725874 -0.137883 -0.522795 0.0786802 0.837546
1305032391.953133 0.760415 -0.0354717 0.721509 -0.139271 -0.519872 0.0786039 0.839141
1305032391.983420 0.756747 -0.0305227 0.719023 -0.137765 -0.519711 0.0738355 0.839922
