1305031910.771502 0 0 0 0 0 0 1
1305031910.803249 -0.00693954 -0.00452113 0.00431026 0.00385092 -0.00316732 -0.00863823 0.99995
1305031910.835215 -0.0162126 -0.0063571 0.00901885 0.00567322 -0.00783302 -0.0143991 0.99985
1305031910.871167 -0.0221185 -0.0100475 0.0136566 0.00620879 -0.0140664 -0.0207516 0.999666
1305031910.903682 -0.0300728 -0.0121935 0.0193463 0.00677597 -0.0219032 -0.0292279 0.99931
1305031910.935221 -0.0368217 -0.0207497 0.0247298 0.00616179 -0.0287646 -0.0368962 0.998886
1305031910.971338 -0.0456789 -0.0273581 0.0300526 0.00991567 -0.0329445 -0.0415013 0.998546
1305031911.003202 -0.053629 -0.0242437 0.0348311 0.0145431 -0.0404459 -0.047079 0.997966
1305031911.035056 -0.0647183 -0.0261828 0.0403329 0.0123287 -0.049834 -0.0555355 0.997136
1305031911.074509 -0.0780467 -0.0311443 0.0443417 0.0105113 -0.0618261 -0.0636609 0.995999
1305031911.103332 -0.0888726 -0.0341968 0.0480717 0.00863179 -0.0801603 -0.0754243 0.993887
1305031911.135683 -0.0991982 -0.0443589 0.0518142 0.00680211 -0.0965493 -0.089168 0.991303
1305031911.171831 -0.110516 -0.0481907 0.0549061 0.0102088 -0.108213 -0.0980177 0.989231
1305031911.207568 -0.118835 -0.049672 0.0573373 0.0129824 -0.120498 -0.105215 0.987037
1305031911.235660 -0.129352 -0.0539369 0.0600816 0.0135451 -0.130881 -0.111729 0.984989
1305031911.268497 -0.138099 -0.0560213 0.0630573 0.0155742 -0.141957 -0.120088 0.982438
1305031911.303504 -0.148122 -0.0600014 0.0664951 0.0149887 -0.151176 -0.128978 0.979942
1305031911.339412 -0.157262 -0.0672319 0.0701796 0.0146281 -0.160447 -0.135841 0.977543
1305031911.371631 -0.165737 -0.0715346 0.0737925 0.0161723 -0.168249 -0.142301 0.975285
1305031911.403484 -0.173163 -0.0768599 0.0775406 0.0187062 -0.173469 -0.148 0.973476
1305031911.439656 -0.181752 -0.0779596 0.0805121 0.0231064 -0.178969 -0.150384 0.972019
1305031911.471398 -0.190331 -0.0771336 0.0836624 0.0259066 -0.185816 -0.151194 0.970537
1305031911.503476 -0.200348 -0.0800066 0.0869576 0.026696 -0.195042 -0.149599 0.968951
1305031911.539636 -0.210798 -0.0808199 0.0902041 0.0282659 -0.205595 -0.14941 0.966751
1305031911.571543 -0.219479 -0.0845076 0.0948166 0.0294174 -0.21518 -0.14891 0.964706
1305031911.603617 -0.229607 -0.0893927 0.0978183 0.032454 -0.225472 -0.148998 0.962242
1305031911.639562 -0.238507 -0.087059 0.100443 0.0371859 -0.23603 -0.153825 0.958773
1305031911.671469 -0.244465 -0.0886403 0.104964 0.0384183 -0.245299 -0.161606 0.95511
1305031911.705153 -0.251563 -0.0888984 0.108985 0.0391158 -0.254346 -0.170318 0.951194
1305031911.739460 -0.258221 -0.0871305 0.113016 0.0392386 -0.262154 -0.178877 0.947491
1305031911.771372 -0.263336 -0.0863261 0.117445 0.038211 -0.269232 -0.188787 0.943617
1305031911.803540 -0.267847 -0.0853761 0.122477 0.0365984 -0.27503 -0.197451 0.94023
1305031911.839611 -0.272454 -0.083566 0.12664 0.0336385 -0.280126 -0.205267 0.937157
1305031911.871650 -0.277573 -0.0810639 0.130295 0.0292888 -0.287628 -0.211439 0.933652
1305031911.904281 -0.282969 -0.0786856 0.133221 0.0237526 -0.295717 -0.216138 0.9302
1305031911.940338 -0.289167 -0.079449 0.135783 0.0164713 -0.305647 -0.22129 0.925926
1305031911.972044 -0.292954 -0.0810148 0.139269 0.00837444 -0.31889 -0.227169 0.920127
1305031912.004430 -0.296449 -0.0805957 0.141956 -0.000802689 -0.335401 -0.231899 0.913087
1305031912.040573 -0.297903 -0.0802515 0.145129 -0.0111133 -0.349856 -0.23586 0.906558
1305031912.069771 -0.300269 -0.08311 0.148506 -0.0199642 -0.360504 -0.238081 0.90164
1305031912.104327 -0.302097 -0.0836921 0.150814 -0.0252476 -0.368338 -0.242275 0.897214
1305031912.139831 -0.304966 -0.0854939 0.151949 -0.0281404 -0.37322 -0.250085 0.892957
1305031912.171439 -0.307694 -0.0880662 0.152568 -0.026632 -0.378679 -0.260156 0.887813
1305031912.204109 -0.309126 -0.088416 0.151948 -0.0233761 -0.382326 -0.273117 0.882433
1305031912.239820 -0.309464 -0.0909008 0.152653 -0.0200174 -0.384855 -0.285306 0.877546
1305031912.272101 -0.3102 -0.0949717 0.15285 -0.0162599 -0.386504 -0.295522 0.873508
1305031912.303877 -0.313637 -0.10038 0.151489 -0.00871531 -0.388365 -0.301705 0.870673
1305031912.340453 -0.313154 -0.103981 0.148701 0.00203132 -0.392467 -0.303504 0.868246
1305031912.371540 -0.311152 -0.106961 0.149004 0.00798484 -0.396493 -0.304297 0.866102
1305031912.403793 -0.311784 -0.110089 0.14723 0.0113498 -0.401327 -0.305325 0.863472
1305031912.438048 -0.311403 -0.112719 0.14696 0.0120753 -0.408447 -0.310422 0.858291
1305031912.472320 -0.311999 -0.115191 0.146536 0.0120699 -0.414968 -0.316996 0.852742
1305031912.508934 -0.308894 -0.115335 0.149026 0.0107548 -0.421579 -0.322231 0.847539
1305031912.540326 -0.307383 -0.116292 0.151008 0.00646925 -0.425898 -0.326543 0.843765
1305031912.572025 -0.306173 -0.117713 0.15238 0.00189089 -0.431044 -0.327861 0.840657
1305031912.607722 -0.304537 -0.117941 0.153306 -0.00307707 -0.436061 -0.327986 0.838013
1305031912.637657 -0.302905 -0.121791 0.155809 -0.00684838 -0.440353 -0.329066 0.835319
1305031912.672091 -0.30196 -0.121152 0.155341 -0.00923923 -0.443983 -0.33204 0.832192
1305031912.708413 -0.302256 -0.122939 0.15547 -0.0127968 -0.449697 -0.337107 0.827024
1305031912.740310 -0.302542 -0.124285 0.15585 -0.015514 -0.457006 -0.343433 0.82034
1305031912.772223 -0.301382 -0.121764 0.155663 -0.0155871 -0.462198 -0.350214 0.814543
1305031912.809603 -0.300238 -0.120613 0.156466 -0.0153686 -0.463768 -0.354044 0.811995
1305031912.840573 -0.298782 -0.121477 0.158794 -0.0159897 -0.462624 -0.357133 0.811283
1305031912.872087 -0.298271 -0.125164 0.161132 -0.0161746 -0.460066 -0.359974 0.811478
1305031912.908080 -0.296944 -0.127174 0.162318 -0.0140347 -0.456605 -0.361351 0.812859
1305031912.940609 -0.293171 -0.127379 0.163864 -0.0115055 -0.452064 -0.359964 0.816046
1305031912.972119 -0.292807 -0.132525 0.164435 -0.0090855 -0.448486 -0.360817 0.817672
1305031913.008923 -0.29 -0.134729 0.164334 -0.00218219 -0.445958 -0.36226 0.818465
1305031913.040171 -0.28682 -0.139007 0.164984 0.0013789 -0.443276 -0.360471 0.82071
1305031913.072194 -0.284101 -0.140342 0.165599 0.00394176 -0.44188 -0.356574 0.823153
1305031913.108367 -0.28041 -0.144671 0.16793 0.00484057 -0.439379 -0.349251 0.827615
1305031913.137597 -0.273819 -0.144144 0.171958 0.00772922 -0.433947 -0.340129 0.834231
1305031913.172328 -0.267977 -0.145881 0.175304 0.00980088 -0.425115 -0.328526 0.843357
1305031913.208546 -0.259985 -0.14577 0.179768 0.0117329 -0.415866 -0.315435 0.852889
1305031913.240453 -0.253079 -0.146137 0.183696 0.0130279 -0.406315 -0.301347 0.862513
1305031913.272069 -0.245315 -0.145396 0.188111 0.01436 -0.396454 -0.285021 0.872571
1305031913.308747 -0.238457 -0.143665 0.190731 0.0159403 -0.384013 -0.268954 0.883144
1305031913.340047 -0.23057 -0.14396 0.194336 0.0178355 -0.370461 -0.254502 0.893124
1305031913.372117 -0.22376 -0.143031 0.196566 0.0196859 -0.357677 -0.242105 0.901701
1305031913.408181 -0.216422 -0.141081 0.198243 0.0229017 -0.344778 -0.232215 0.909219
1305031913.440305 -0.209357 -0.137183 0.198518 0.027506 -0.329481 -0.221695 0.917353
1305031913.472064 -0.19919 -0.133724 0.199886 0.0334122 -0.310519 -0.209267 0.926644
1305031913.508406 -0.186398 -0.129394 0.200981 0.0374116 -0.286025 -0.193228 0.937792
1305031913.538696 -0.174529 -0.125613 0.200386 0.0404545 -0.260441 -0.176218 0.94841
1305031913.568481 -0.16828 -0.118838 0.195408 0.0425352 -0.235662 -0.161194 0.957429
1305031913.607051 -0.162206 -0.114904 0.189223 0.0460544 -0.21168 -0.146405 0.965213
1305031913.637112 -0.148642 -0.108907 0.18681 0.0520724 -0.190534 -0.135075 0.970948
1305031913.671418 -0.135503 -0.102138 0.182792 0.0523935 -0.168283 -0.121647 0.9768
1305031913.709971 -0.123394 -0.0965582 0.177774 0.0493467 -0.146378 -0.103602 0.98255
1305031913.743396 -0.111019 -0.0894833 0.172343 0.0463686 -0.124415 -0.0882998 0.987205
1305031913.778085 -0.0975893 -0.0840673 0.16625 0.0412233 -0.103732 -0.0754909 0.990879
1305031913.809508 -0.084089 -0.0782335 0.158989 0.034801 -0.0845077 -0.0606473 0.993966
1305031913.840405 -0.0713535 -0.0746811 0.152155 0.0273977 -0.0685147 -0.0448831 0.996263
1305031913.876025 -0.0593676 -0.0727821 0.144836 0.0230205 -0.0512732 -0.0280087 0.998026
1305031913.908138 -0.0469234 -0.0666241 0.136908 0.0205312 -0.0352693 -0.0111873 0.999104
1305031913.939898 -0.0342773 -0.0663098 0.128998 0.0162352 -0.0208453 0.00593868 0.999633
1305031913.977474 -0.0197868 -0.0625157 0.120024 0.0164909 -0.00910213 0.0181447 0.999658
1305031914.008756 -0.00647633 -0.0545275 0.111566 0.0170251 0.00273205 0.03051 0.999386
1305031914.042148 0.00851285 -0.0537702 0.103055 0.0155413 0.0138512 0.0455481 0.998745
1305031914.075482 0.023283 -0.0456004 0.0939727 0.0183547 0.0252807 0.0587743 0.997782
1305031914.108031 0.040346 -0.0399203 0.0847509 0.0176311 0.0366779 0.0684854 0.996822
1305031914.142725 0.0555637 -0.0353849 0.0752312 0.0174005 0.0478833 0.0786791 0.995597
1305031914.177921 0.0705596 -0.0295794 0.0656504 0.0188046 0.0571731 0.087925 0.994307
1305031914.207783 0.0874328 -0.0230027 0.0555932 0.0209791 0.0657984 0.0937285 0.9932
1305031914.239738 0.100881 -0.0203887 0.0451139 0.0228556 0.0774791 0.100789 0.991623
1305031914.275498 0.120199 -0.0148207 0.0319887 0.0305703 0.0907606 0.104371 0.989916
1305031914.307439 0.142316 -0.00512458 0.0188541 0.0382206 0.101861 0.10465 0.98854
1305031914.339813 0.162937 0.00942963 0.00769565 0.0416364 0.108721 0.103086 0.987836
1305031914.376077 0.183531 0.0199408 -0.00263454 0.0372443 0.110609 0.100998 0.988017
1305031914.407339 0.202676 0.0275916 -0.0122028 0.0307931 0.109078 0.101019 0.988407
1305031914.439366 0.221249 0.033444 -0.0221256 0.0250854 0.107344 0.10178 0.98868
1305031914.475929 0.240211 0.0418058 -0.0326307 0.0214347 0.106328 0.100967 0.988959
1305031914.508084 0.257208 0.0503322 -0.0426371 0.0184324 0.107161 0.0983193 0.989197
1305031914.539445 0.274093 0.0581348 -0.0533185 0.014012 0.10975 0.0937182 0.989432
1305031914.575638 0.292962 0.0647967 -0.0650413 0.0105925 0.110003 0.0900298 0.989789
1305031914.607525 0.31006 0.0754861 -0.0753592 0.008884 0.111088 0.0852019 0.990112
1305031914.639613 0.326663 0.0859224 -0.0850689 0.00435426 0.113921 0.0799788 0.990256
1305031914.675447 0.340702 0.0927413 -0.0939459 -0.00239205 0.119344 0.0761762 0.989923
1305031914.707659 0.35746 0.0972159 -0.103701 -0.00774462 0.124487 0.0760079 0.989275
1305031914.742851 0.37398 0.103432 -0.113114 -0.00887815 0.128732 0.0730656 0.988944
1305031914.776080 0.389176 0.115534 -0.121049 -0.00870042 0.13213 0.0703948 0.988691
1305031914.810077 0.403517 0.1215 -0.128023 -0.0133051 0.133136 0.0713708 0.988435
1305031914.839826 0.421439 0.123832 -0.136538 -0.0174727 0.130071 0.0702369 0.988859
1305031914.876190 0.43724 0.127805 -0.144553 -0.0182591 0.126609 0.0672666 0.989501
1305031914.908910 0.452485 0.131663 -0.151724 -0.0186755 0.121775 0.0648349 0.990262
1305031914.938404 0.469005 0.130532 -0.159288 -0.0181699 0.115669 0.0644685 0.991027
1305031914.975628 0.487021 0.135273 -0.167688 -0.013821 0.108294 0.0599118 0.992216
1305031915.007678 0.503289 0.141557 -0.17445 -0.0112988 0.104466 0.0566777 0.992848
1305031915.044015 0.519286 0.1444 -0.181135 -0.0111229 0.101237 0.0568615 0.993174
1305031915.073665 0.537034 0.148891 -0.188157 -0.00911489 0.0969985 0.0560821 0.993661
1305031915.105907 0.55639 0.150917 -0.195302 -0.0088778 0.0933588 0.0526843 0.994198
1305031915.142313 0.575029 0.15067 -0.202077 -0.00727106 0.0898247 0.0456986 0.994882
1305031915.173454 0.594374 0.150828 -0.208893 -0.00369729 0.0873283 0.0352989 0.995547
1305031915.209278 0.610249 0.151191 -0.214737 0.00229056 0.0848616 0.0239918 0.996101
1305031915.244223 0.628618 0.15867 -0.22116 0.0094096 0.0801683 0.0136836 0.996643
1305031915.276431 0.645152 0.161779 -0.225907 0.0111405 0.0760874 0.00627337 0.997019
1305031915.306226 0.661742 0.163046 -0.230346 0.0124185 0.0686548 -0.000120702 0.997563
1305031915.341488 0.67976 0.163612 -0.234538 0.0127484 0.0572848 -0.00646037 0.998256
1305031915.373270 0.69824 0.161935 -0.238964 0.01194 0.0456069 -0.0134726 0.998797
1305031915.406736 0.719312 0.161265 -0.243334 0.0114409 0.0332903 -0.0216443 0.999146
1305031915.442726 0.738376 0.155453 -0.246876 0.00917418 0.0215248 -0.0306088 0.999258
1305031915.474257 0.757534 0.152364 -0.250862 0.00964486 0.00959665 -0.0459123 0.998853
1305031915.506429 0.774607 0.153021 -0.254429 0.00913176 -0.00282473 -0.0619724 0.998032
1305031915.542700 0.793267 0.149706 -0.258616 0.00494076 -0.0163246 -0.0736993 0.997135
1305031915.575890 0.813354 0.143264 -0.262768 0.00286003 -0.0273018 -0.0865603 0.995868
1305031915.607095 0.835568 0.140276 -0.2667 0.00310764 -0.0333224 -0.102223 0.994198
1305031915.644456 0.854869 0.136251 -0.269789 0.00312402 -0.0337918 -0.112847 0.993033
1305031915.676911 0.87248 0.13 -0.272304 0.00390089 -0.0330728 -0.119042 0.992331
1305031915.710920 0.886912 0.127495 -0.273718 0.00764961 -0.0338653 -0.12278 0.991826
1305031915.744275 0.900478 0.128525 -0.274185 0.00980418 -0.0394993 -0.124462 0.991389
1305031915.776046 0.914434 0.129109 -0.274058 0.00737848 -0.052435 -0.127695 0.990399
1305031915.807068 0.925222 0.12306 -0.273292 0.000972149 -0.0674659 -0.132108 0.988936
1305031915.844882 0.939905 0.119249 -0.272818 0.000404523 -0.0833861 -0.139965 0.986639
1305031915.877002 0.939905 0.119249 -0.272818 0.000404523 -0.0833861 -0.139965 0.986639
1305031915.907069 0.939905 0.119249 -0.272818 0.000404523 -0.0833861 -0.139965 0.986639
1305031915.944991 0.959447 0.117883 -0.271375 -0.00378691 -0.0957759 -0.149873 0.984048
1305031915.976975 0.975413 0.109153 -0.269264 -0.00870047 -0.104331 -0.156297 0.982146
1305031916.007650 0.995497 0.108844 -0.268092 -0.00762878 -0.111826 -0.164443 0.979998
1305031916.044257 1.01225 0.103385 -0.265948 -0.01128 -0.116946 -0.174295 0.977659
1305031916.075852 1.01225 0.103385 -0.265948 -0.01128 -0.116946 -0.174295 0.977659
1305031916.107904 1.02316 0.0922136 -0.267113 0.00440965 -0.12397 -0.181758 0.975488
1305031916.143770 1.03367 0.0839762 -0.269387 0.0239381 -0.1354 -0.184893 0.973092
1305031916.175966 1.04891 0.0841128 -0.271589 0.0494865 -0.152345 -0.18693 0.969226
1305031916.213438 1.06628 0.0899434 -0.272023 0.0642993 -0.170512 -0.189383 0.964845
1305031916.244817 1.08445 0.0805847 -0.274971 0.0698197 -0.188543 -0.194832 0.960009
1305031916.276150 1.10504 0.0692015 -0.277422 0.0811597 -0.202708 -0.202894 0.954545
1305031916.312024 1.12189 0.0659588 -0.27976 0.0956613 -0.211447 -0.210989 0.949538
1305031916.344853 1.14015 0.0527326 -0.283317 0.108111 -0.219416 -0.218094 0.944777
1305031916.375943 1.15819 0.0421993 -0.286936 0.126628 -0.223049 -0.225896 0.939779
1305031916.412634 1.17549 0.0350955 -0.291141 0.145182 -0.222124 -0.232496 0.935697
1305031916.445160 1.18827 0.0246312 -0.295456 0.159757 -0.221847 -0.230118 0.933974
1305031916.475799 1.1976 0.0185865 -0.300495 0.174013 -0.223691 -0.225451 0.932123
1305031916.511070 1.20454 0.0118016 -0.304724 0.185084 -0.22937 -0.220919 0.929692
1305031916.542416 1.21104 0.00103861 -0.310271 0.195018 -0.240056 -0.216856 0.925913
1305031916.574661 1.21658 -0.00550437 -0.314468 0.2071 -0.252315 -0.213976 0.920685
1305031916.610788 1.22614 -0.00786728 -0.313091 0.21483 -0.265664 -0.213208 0.915321
1305031916.643191 1.23447 -0.0175679 -0.313133 0.219853 -0.27865 -0.212872 0.910332
1305031916.674514 1.24374 -0.0243814 -0.310068 0.228078 -0.28924 -0.213411 0.904863
1305031916.711186 1.25216 -0.0340927 -0.306558 0.236348 -0.296734 -0.214839 0.899963
1305031916.742388 1.25989 -0.0477356 -0.3025 0.243114 -0.304842 -0.215081 0.895381
1305031916.774484 1.26627 -0.0568108 -0.297048 0.250063 -0.313652 -0.213194 0.890864
1305031916.810984 1.2733 -0.0697232 -0.292555 0.257019 -0.323147 -0.208051 0.886698
1305031916.842413 1.28079 -0.0769542 -0.288215 0.264592 -0.331042 -0.204379 0.882401
1305031916.874597 1.28693 -0.0840155 -0.282602 0.271057 -0.338904 -0.202149 0.877957
1305031916.911349 1.29201 -0.096928 -0.280953 0.276778 -0.347961 -0.198171 0.873525
1305031916.942991 1.29867 -0.112954 -0.278622 0.282687 -0.357654 -0.194671 0.86849
1305031916.975281 1.30414 -0.124497 -0.273346 0.289455 -0.365242 -0.192263 0.863626
1305031917.013257 1.30921 -0.138706 -0.267572 0.296158 -0.373156 -0.188617 0.85876
1305031917.045346 1.30829 -0.164323 -0.279662 0.304002 -0.378899 -0.185922 0.854079
1305031917.078672 1.31354 -0.186502 -0.28379 0.316593 -0.385886 -0.182302 0.847129
1305031917.112392 1.31354 -0.186502 -0.28379 0.316593 -0.385886 -0.182302 0.847129
1305031917.144721 1.31495 -0.211174 -0.296481 0.332171 -0.387079 -0.186932 0.839576
1305031917.175617 1.31523 -0.228246 -0.314454 0.347533 -0.387929 -0.185738 0.833207
1305031917.211105 1.32105 -0.24328 -0.323155 0.361729 -0.390832 -0.180377 0.826962
1305031917.242019 1.32105 -0.24328 -0.323155 0.361729 -0.390832 -0.180377 0.826962
1305031917.275690 1.32105 -0.24328 -0.323155 0.361729 -0.390832 -0.180377 0.826962
1305031917.311009 1.32105 -0.24328 -0.323155 0.361729 -0.390832 -0.180377 0.826962
1305031917.342994 1.32105 -0.24328 -0.323155 0.361729 -0.390832 -0.180377 0.826962
1305031917.375028 1.32105 -0.24328 -0.323155 0.361729 -0.390832 -0.180377 0.826962
1305031917.412516 1.32105 -0.24328 -0.323155 0.361729 -0.390832 -0.180377 0.826962
1305031917.442191 1.32105 -0.24328 -0.323155 0.361729 -0.390832 -0.180377 0.826962
1305031917.480876 1.32105 -0.24328 -0.323155 0.361729 -0.390832 -0.180377 0.826962
1305031917.512902 1.32105 -0.24328 -0.323155 0.361729 -0.390832 -0.180377 0.826962
1305031917.544881 1.32105 -0.24328 -0.323155 0.361729 -0.390832 -0.180377 0.826962
1305031917.581189 1.3272 -0.239024 -0.309419 0.34868 -0.389972 -0.187766 0.831317
1305031917.611278 1.33102 -0.229593 -0.298326 0.33582 -0.388362 -0.195564 0.835557
1305031917.644587 1.34058 -0.229993 -0.285612 0.323047 -0.388682 -0.203565 0.838528
1305031917.680182 1.35447 -0.240885 -0.277499 0.308554 -0.391135 -0.208557 0.841613
1305031917.712747 1.36215 -0.240941 -0.269688 0.294598 -0.393484 -0.211275 0.844835
1305031917.743645 1.37125 -0.240487 -0.260074 0.280148 -0.396559 -0.2134 0.847773
1305031917.776958 1.3835 -0.237631 -0.249373 0.264563 -0.399344 -0.217019 0.850549
1305031917.812348 1.39547 -0.241822 -0.236879 0.24438 -0.402078 -0.22167 0.854093
1305031917.844755 1.40409 -0.241486 -0.229342 0.225423 -0.402701 -0.227461 0.857484
1305031917.879431 1.41312 -0.244286 -0.221265 0.206312 -0.403176 -0.235551 0.859884
1305031917.907881 1.42622 -0.240623 -0.210007 0.190544 -0.401504 -0.244397 0.861834
1305031917.941261 1.43815 -0.235243 -0.19842 0.172302 -0.399748 -0.249639 0.864982
1305031917.978906 1.44838 -0.240238 -0.190298 0.153486 -0.397586 -0.258254 0.86699
1305031918.011404 1.46154 -0.243502 -0.180348 0.138408 -0.39603 -0.266085 0.867873
1305031918.044049 1.47388 -0.240708 -0.171169 0.123117 -0.393962 -0.275541 0.868166
1305031918.081372 1.47961 -0.253326 -0.163056 0.104985 -0.392704 -0.287949 0.867091
1305031918.113495 1.48801 -0.258214 -0.155607 0.0947413 -0.394297 -0.297465 0.864331
1305031918.145896 1.50395 -0.260783 -0.143857 0.0839819 -0.397396 -0.308203 0.860253
1305031918.179489 1.51766 -0.270395 -0.132469 0.0720541 -0.397653 -0.316967 0.858028
1305031918.214208 1.53416 -0.272519 -0.120127 0.0648325 -0.396588 -0.321421 0.85744
1305031918.244974 1.55136 -0.273916 -0.106361 0.0561897 -0.394762 -0.327946 0.856421
1305031918.280832 1.56795 -0.277395 -0.0914882 0.0474247 -0.391884 -0.336067 0.855124
1305031918.312487 1.58429 -0.279259 -0.0757805 0.0386545 -0.388143 -0.344828 0.853782
1305031918.344896 1.59716 -0.284935 -0.0611338 0.0276302 -0.38188 -0.356358 0.852299
1305031918.379884 1.60907 -0.291849 -0.0466036 0.0195444 -0.375855 -0.364856 0.851605
1305031918.413065 1.62746 -0.294751 -0.0284452 0.0133895 -0.370294 -0.372185 0.850989
1305031918.445292 1.64123 -0.302047 -0.0107219 0.00161742 -0.362262 -0.381082 0.850612
1305031918.481811 1.65399 -0.312076 0.00714734 -0.0073583 -0.354999 -0.387482 0.850752
1305031918.513488 1.66681 -0.322165 0.0240757 -0.0120488 -0.34703 -0.392241 0.851805
1305031918.545221 1.68211 -0.332106 0.041844 -0.0148833 -0.341202 -0.39693 0.851943
1305031918.582328 1.69623 -0.341398 0.0592246 -0.0203744 -0.336242 -0.400062 0.852336
1305031918.613230 1.70582 -0.356628 0.0755702 -0.0271978 -0.331086 -0.402375 0.853075
1305031918.645169 1.71904 -0.369115 0.091432 -0.0303377 -0.329212 -0.405856 0.852045
1305031918.681778 1.73012 -0.381662 0.105655 -0.0349659 -0.328375 -0.411519 0.84947
1305031918.713496 1.74102 -0.395987 0.119417 -0.0402867 -0.329316 -0.41598 0.846692
1305031918.749734 1.75015 -0.411208 0.131775 -0.0449641 -0.330541 -0.419783 0.844099
1305031918.780739 1.75909 -0.427982 0.144176 -0.0437341 -0.330144 -0.428129 0.840118
1305031918.814538 1.7682 -0.44377 0.155991 -0.037604 -0.328857 -0.441075 0.834201
1305031918.850071 1.77824 -0.457281 0.166623 -0.0309531 -0.328295 -0.452554 0.828528
1305031918.880096 1.78629 -0.470235 0.176048 -0.025066 -0.330197 -0.463615 0.821829
1305031918.912498 1.79271 -0.481435 0.184171 -0.0184414 -0.334444 -0.474952 0.813774
1305031918.948107 1.79923 -0.492348 0.192547 -0.0135183 -0.34134 -0.485117 0.804963
1305031918.980882 1.8062 -0.503764 0.202553 -0.00892332 -0.349808 -0.496284 0.794516
1305031919.013079 1.81032 -0.515691 0.21242 -0.00508587 -0.357904 -0.507072 0.784064
1305031919.047888 1.81773 -0.5246 0.224368 -0.00171215 -0.369124 -0.514179 0.774186
1305031919.081202 1.8237 -0.533788 0.236396 -0.00253484 -0.378502 -0.522098 0.764293
1305031919.113268 1.82689 -0.545194 0.248259 -0.00333748 -0.387351 -0.53105 0.753614
1305031919.149786 1.83212 -0.555512 0.261779 -0.00265871 -0.395551 -0.538848 0.743758
1305031919.180150 1.83618 -0.564399 0.27354 -0.00306279 -0.402741 -0.545612 0.734914
1305031919.212613 1.84081 -0.571593 0.284553 -0.0040242 -0.410098 -0.551797 0.726171
1305031919.248053 1.84276 -0.5802 0.293047 -0.00610215 -0.418144 -0.55971 0.715432
1305031919.282212 1.84836 -0.590169 0.303923 -0.00502435 -0.429978 -0.569386 0.700638
1305031919.313576 1.85246 -0.600551 0.312431 -0.00442261 -0.440232 -0.577934 0.687145
1305031919.348352 1.86131 -0.611849 0.324439 -0.00352784 -0.453854 -0.581227 0.67541
1305031919.376791 1.87132 -0.62178 0.335544 -0.00521387 -0.464741 -0.585245 0.664437
1305031919.413966 1.87867 -0.632938 0.343782 -0.00781299 -0.473319 -0.590183 0.653905
1305031919.446851 1.88838 -0.64566 0.353815 -0.0108273 -0.48275 -0.593657 0.643744
1305031919.480223 1.89813 -0.65893 0.362966 -0.013181 -0.49043 -0.598803 0.63304
1305031919.512137 1.90657 -0.673735 0.371402 -0.0149443 -0.495241 -0.603742 0.624507
1305031919.548061 1.90657 -0.673735 0.371402 -0.0149443 -0.495241 -0.603742 0.624507
1305031919.580925 1.91461 -0.689153 0.377982 -0.0112219 -0.498913 -0.604217 0.621194
1305031919.611928 1.9225 -0.70513 0.384535 -0.0098045 -0.503348 -0.604391 0.617459
1305031919.649872 1.92556 -0.722848 0.38765 -0.00845806 -0.50969 -0.604134 0.612509
1305031919.680144 1.93292 -0.73998 0.395015 -0.00455982 -0.518766 -0.600333 0.608656
1305031919.711961 1.93717 -0.758199 0.403193 -0.000831322 -0.524829 -0.597426 0.60633
1305031919.747809 1.93825 -0.77561 0.409896 0.00586333 -0.529536 -0.593441 0.606123
1305031919.779527 1.94196 -0.789317 0.419927 0.00953832 -0.536968 -0.5866 0.606197
1305031919.815366 1.94087 -0.801536 0.425786 0.00813795 -0.546326 -0.580683 0.603546
1305031919.849456 1.94195 -0.81168 0.436073 0.00409496 -0.559838 -0.573134 0.5984
1305031919.880464 1.93932 -0.822318 0.445491 -0.00634214 -0.571624 -0.568168 0.591938
1305031919.917226 1.92951 -0.835072 0.450638 -0.0137508 -0.58083 -0.565507 0.585362
1305031919.948072 1.92311 -0.846701 0.461308 -0.0172292 -0.590587 -0.558982 0.581764
1305031919.981539 1.91505 -0.857531 0.470201 -0.0222314 -0.598402 -0.552696 0.57961
1305031920.017137 1.90512 -0.866849 0.477709 -0.0253884 -0.606383 -0.545955 0.577571
1305031920.048127 1.90067 -0.870209 0.487048 -0.0294475 -0.616374 -0.5379 0.574351
1305031920.081263 1.88995 -0.87705 0.494434 -0.0367845 -0.626035 -0.534025 0.567049
1305031920.116134 1.87988 -0.88413 0.505772 -0.0401846 -0.636925 -0.528743 0.559591
1305031920.148679 1.87275 -0.888941 0.520391 -0.0417348 -0.645319 -0.525512 0.552865
1305031920.180544 1.86365 -0.893241 0.531944 -0.0418219 -0.650288 -0.524383 0.548087
1305031920.217426 1.85366 -0.899504 0.547091 -0.0405303 -0.651409 -0.525078 0.546184
1305031920.248168 1.83848 -0.90879 0.55933 -0.039354 -0.64881 -0.524822 0.549599
1305031920.280534 1.82659 -0.914723 0.57252 -0.0342922 -0.646018 -0.520982 0.556832
1305031920.316524 1.81276 -0.922912 0.585478 -0.0302392 -0.641683 -0.517293 0.565452
1305031920.349842 1.79998 -0.929742 0.597293 -0.0256785 -0.636913 -0.509175 0.578293
1305031920.380357 1.79095 -0.932783 0.608156 -0.0206906 -0.630761 -0.50127 0.591981
1305031920.417274 1.77538 -0.941196 0.617973 -0.0175368 -0.622276 -0.493996 0.606986
1305031920.448025 1.76469 -0.946024 0.625325 -0.0105042 -0.615515 -0.486455 0.619994
1305031920.481785 1.75364 -0.951737 0.630926 -0.0044863 -0.608927 -0.479692 0.631731
1305031920.517298 1.74304 -0.958942 0.636755 0.00295173 -0.604474 -0.473674 0.640496
1305031920.547964 1.7355 -0.963706 0.641481 0.0101603 -0.601208 -0.467069 0.648299
1305031920.581456 1.72616 -0.968424 0.642548 0.0149246 -0.59905 -0.462387 0.65354
1305031920.617995 1.71495 -0.976122 0.644384 0.0190187 -0.59768 -0.457164 0.658344
1305031920.649397 1.70508 -0.985383 0.649758 0.0232788 -0.595775 -0.44957 0.66513
1305031920.680130 1.69705 -0.993148 0.654803 0.0280748 -0.589384 -0.442954 0.675004
1305031920.717318 1.69082 -1.00155 0.658675 0.0354875 -0.578005 -0.434563 0.689788
1305031920.747997 1.68559 -1.00912 0.660378 0.0454078 -0.566422 -0.424712 0.704787
1305031920.780346 1.68241 -1.01674 0.664619 0.0544826 -0.555835 -0.416516 0.717352
1305031920.813643 1.67929 -1.02276 0.66804 0.0640968 -0.54471 -0.406798 0.730547
1305031920.848339 1.67465 -1.03128 0.670411 0.0715248 -0.535536 -0.399495 0.740601
1305031920.879246 1.67055 -1.03981 0.673678 0.0784016 -0.527687 -0.392917 0.74901
1305031920.915238 1.66637 -1.04859 0.676857 0.083945 -0.519475 -0.383722 0.758852
1305031920.947777 1.6619 -1.05738 0.681486 0.0870462 -0.510009 -0.374149 0.769627
1305031920.981269 1.65765 -1.06775 0.686073 0.0895578 -0.499383 -0.366001 0.780154
1305031921.015897 1.65359 -1.07867 0.689655 0.0923955 -0.488779 -0.358545 0.789939
1305031921.046752 1.64934 -1.08905 0.695195 0.0968878 -0.478574 -0.353775 0.797761
1305031921.081623 1.64626 -1.09968 0.701399 0.0995208 -0.468679 -0.351783 0.804167
1305031921.116426 1.64261 -1.1087 0.707101 0.099732 -0.459017 -0.348729 0.811015
1305031921.147542 1.63905 -1.11839 0.714197 0.0983919 -0.449359 -0.349004 0.816451
1305031921.183591 1.63663 -1.13272 0.723728 0.0966776 -0.439042 -0.351233 0.821298
1305031921.216248 1.63209 -1.14999 0.729879 0.0973783 -0.428569 -0.354367 0.825391
1305031921.247511 1.62813 -1.16115 0.733413 0.101714 -0.418723 -0.353938 0.830092
1305031921.283682 1.62519 -1.17007 0.736725 0.106831 -0.410511 -0.352732 0.834055
1305031921.316687 1.62155 -1.17833 0.739489 0.109715 -0.404219 -0.350367 0.837742
1305031921.348715 1.61909 -1.18968 0.743041 0.109277 -0.399788 -0.346808 0.841399
1305031921.383334 1.61718 -1.19893 0.746451 0.108926 -0.395677 -0.342722 0.845054
1305031921.417533 1.61576 -1.21058 0.75032 0.109062 -0.391442 -0.339822 0.848174
1305031921.447829 1.61574 -1.21989 0.754606 0.110054 -0.385637 -0.335042 0.852596
1305031921.483449 1.61552 -1.22723 0.758256 0.109546 -0.379273 -0.32679 0.858697
1305031921.516337 1.6156 -1.23605 0.76207 0.109792 -0.371207 -0.319541 0.864896
1305031921.547693 1.61543 -1.24427 0.766854 0.112187 -0.360743 -0.313963 0.871038
1305031921.584755 1.61406 -1.25352 0.7703 0.11774 -0.349818 -0.307151 0.877167
1305031921.616860 1.61404 -1.25669 0.773628 0.125315 -0.337582 -0.30142 0.882882
1305031921.648077 1.61729 -1.26068 0.78135 0.126184 -0.325192 -0.294327 0.889775
1305031921.684108 1.6194 -1.26844 0.788786 0.126858 -0.310331 -0.2844 0.898175
1305031921.717161 1.62117 -1.27859 0.795119 0.129732 -0.293434 -0.277477 0.905579
1305031921.749472 1.62476 -1.28534 0.80284 0.132264 -0.274173 -0.270239 0.913404
1305031921.783343 1.62131 -1.29114 0.807512 0.132831 -0.254119 -0.263461 0.921069
1305031921.815490 1.61727 -1.29395 0.812717 0.1331 -0.237884 -0.257811 0.926946
1305031921.847815 1.61245 -1.29966 0.817382 0.129544 -0.226199 -0.253341 0.931596
1305031921.883647 1.60712 -1.3029 0.821329 0.128552 -0.21838 -0.249288 0.934687
1305031921.915912 1.60535 -1.30463 0.828303 0.127473 -0.210961 -0.247254 0.937076
1305031921.947748 1.60045 -1.30748 0.833868 0.12467 -0.200933 -0.243446 0.940647
1305031921.983963 1.59886 -1.31019 0.840394 0.125173 -0.190652 -0.236125 0.944578
1305031922.017509 1.59827 -1.31069 0.846308 0.12612 -0.178291 -0.229412 0.948513
1305031922.048087 1.59435 -1.31096 0.85113 0.125844 -0.164916 -0.223803 0.952302
1305031922.084015 1.58975 -1.31253 0.854419 0.124229 -0.152675 -0.217629 0.955979
1305031922.117449 1.58444 -1.31448 0.856774 0.123114 -0.142234 -0.21159 0.959084
1305031922.150410 1.57876 -1.31669 0.858536 0.121669 -0.132774 -0.206443 0.961743
1305031922.184064 1.57613 -1.3184 0.861573 0.11958 -0.123099 -0.200606 0.964523
1305031922.217879 1.57209 -1.31774 0.863474 0.118396 -0.113851 -0.19629 0.96669
1305031922.248353 1.57043 -1.31496 0.866095 0.11901 -0.10512 -0.193003 0.968265
1305031922.284278 1.56948 -1.31485 0.868531 0.116862 -0.0955943 -0.189616 0.970181
1305031922.315988 1.5663 -1.3137 0.870806 0.113528 -0.0844417 -0.187744 0.971974
1305031922.348617 1.56384 -1.31028 0.872915 0.110668 -0.0719718 -0.186421 0.97356
1305031922.384534 1.56095 -1.30656 0.874794 0.108407 -0.0619122 -0.184326 0.974904
1305031922.414362 1.55962 -1.30357 0.877621 0.105662 -0.0536663 -0.181695 0.976188
1305031922.449565 1.55738 -1.3011 0.880489 0.10031 -0.0423242 -0.178658 0.977869
1305031922.483598 1.55476 -1.29693 0.882428 0.0973521 -0.0335212 -0.175439 0.979091
1305031922.517313 1.55425 -1.29129 0.885569 0.0957224 -0.0263525 -0.17178 0.98012
1305031922.551135 1.55387 -1.28847 0.888133 0.091038 -0.0191824 -0.167301 0.981506
1305031922.584494 1.55278 -1.28494 0.890541 0.0889199 -0.012044 -0.167136 0.981842
1305031922.616826 1.5519 -1.28292 0.893115 0.0854994 -0.00230721 -0.167427 0.982167
1305031922.651650 1.55059 -1.28011 0.894975 0.0834141 0.00577941 -0.16505 0.982735
1305031922.684543 1.55021 -1.27724 0.896353 0.0820477 0.0133624 -0.164031 0.982946
1305031922.718051 1.55208 -1.27642 0.897761 0.0804229 0.023343 -0.161728 0.983276
1305031922.752032 1.55435 -1.27436 0.898483 0.0826105 0.0311232 -0.157338 0.983591
1305031922.784245 1.55588 -1.27325 0.898632 0.085806 0.0382639 -0.15135 0.984005
1305031922.818079 1.5578 -1.27195 0.898712 0.0889596 0.045729 -0.145144 0.984342
1305031922.851561 1.56008 -1.27069 0.898815 0.0923212 0.0530141 -0.140245 0.984377
1305031922.883570 1.5626 -1.27094 0.898094 0.0953146 0.0614693 -0.134679 0.984377
1305031922.916045 1.56586 -1.27016 0.89738 0.0995626 0.0692292 -0.12958 0.984126
1305031922.951632 1.57033 -1.26977 0.897122 0.101684 0.0758257 -0.125406 0.983964
1305031922.983106 1.57585 -1.26767 0.896572 0.102449 0.0798892 -0.119801 0.984261
1305031923.016127 1.58022 -1.26677 0.896489 0.102275 0.0826361 -0.11613 0.984492
1305031923.051643 1.58617 -1.26566 0.895966 0.101936 0.0868894 -0.111844 0.984657
1305031923.083189 1.59245 -1.26414 0.895115 0.102755 0.0896163 -0.106956 0.984871
1305031923.117556 1.59879 -1.26261 0.893823 0.103313 0.0923683 -0.104356 0.984837
1305031923.152033 1.60667 -1.26217 0.892506 0.103013 0.0975587 -0.101633 0.984653
1305031923.183804 1.61206 -1.26112 0.890532 0.106461 0.102968 -0.0992204 0.983981
1305031923.215945 1.61876 -1.26042 0.887875 0.114191 0.108482 -0.0987701 0.982566
1305031923.251678 1.62505 -1.26039 0.885259 0.119271 0.115365 -0.0960203 0.981451
1305031923.283836 1.63078 -1.25926 0.883992 0.118133 0.122929 -0.0886177 0.981366
1305031923.317750 1.63806 -1.25706 0.882166 0.116814 0.128857 -0.0780787 0.981659
1305031923.351741 1.6446 -1.25442 0.879896 0.116562 0.133593 -0.0706983 0.981615
1305031923.384405 1.65206 -1.24945 0.87804 0.115694 0.138452 -0.0629689 0.981571
1305031923.417551 1.65733 -1.2479 0.87534 0.110577 0.144536 -0.0547394 0.981777
1305031923.452014 1.66323 -1.2458 0.870744 0.108578 0.151489 -0.0462975 0.981386
1305031923.483984 1.67168 -1.24325 0.865013 0.108439 0.158171 -0.0370098 0.980741
1305031923.517826 1.68072 -1.24148 0.858412 0.112478 0.162933 -0.0307482 0.979722
1305031923.551611 1.68948 -1.24029 0.849982 0.119181 0.165992 -0.023949 0.978606
1305031923.584004 1.69769 -1.23844 0.841421 0.123519 0.167366 -0.0174209 0.977971
1305031923.617213 1.70644 -1.23496 0.831277 0.128368 0.167569 -0.0113427 0.977401
1305031923.651604 1.71371 -1.23116 0.820998 0.13052 0.168787 -0.00476323 0.976961
1305031923.683339 1.72188 -1.22653 0.810255 0.133252 0.169472 0.0015274 0.976484
1305031923.719218 1.72911 -1.2212 0.799033 0.136 0.170967 0.00518343 0.975832
1305031923.751229 1.73632 -1.21369 0.788424 0.136791 0.172352 0.00874922 0.975452
1305031923.784138 1.74368 -1.20527 0.777341 0.139892 0.174742 0.00838866 0.97459
1305031923.819707 1.75263 -1.1972 0.766686 0.138261 0.177306 0.00880641 0.974356
1305031923.848797 1.75978 -1.18937 0.755032 0.139961 0.179379 0.0107402 0.973714
1305031923.883914 1.76767 -1.18028 0.743094 0.145695 0.179572 0.00888663 0.972856
1305031923.919849 1.77424 -1.17175 0.731477 0.149799 0.181019 0.00256014 0.972001
1305031923.952341 1.78265 -1.15832 0.72143 0.153117 0.182964 -0.00285981 0.971118
1305031923.985402 1.79022 -1.14786 0.71159 0.14849 0.185695 -0.00656269 0.971301
1305031924.020347 1.79692 -1.14038 0.699776 0.147638 0.189254 -0.00999362 0.970714
1305031924.052305 1.80619 -1.12862 0.689042 0.15444 0.191931 -0.0116919 0.96911
1305031924.084935 1.81447 -1.11673 0.680524 0.15253 0.19513 -0.00912288 0.968801
1305031924.120309 1.82245 -1.10749 0.671017 0.149278 0.196942 -0.00752983 0.968955
1305031924.149942 1.83052 -1.09601 0.661873 0.151412 0.197162 -0.00984079 0.968558
1305031924.183240 1.83715 -1.08807 0.653522 0.148186 0.19638 -0.00982962 0.969216
1305031924.221139 1.84432 -1.07922 0.644389 0.146981 0.19287 -0.0113626 0.970087
1305031924.251933 1.85126 -1.06926 0.634804 0.147584 0.188626 -0.0157553 0.970768
1305031924.284047 1.85813 -1.06025 0.625035 0.147076 0.18526 -0.0179763 0.971455
1305031924.319056 1.86487 -1.04944 0.615352 0.146515 0.182073 -0.018386 0.972134
1305031924.351287 1.87228 -1.03869 0.605922 0.144787 0.178557 -0.0185701 0.973041
1305031924.383380 1.87786 -1.02903 0.596522 0.144208 0.173877 -0.0203578 0.973939
1305031924.419225 1.88175 -1.01873 0.587495 0.143772 0.167967 -0.022912 0.974983
1305031924.452792 1.88648 -1.00823 0.578008 0.1433 0.162116 -0.0255328 0.975977
1305031924.483315 1.88717 -0.999586 0.568218 0.14477 0.15845 -0.0301618 0.97623
1305031924.519657 1.88885 -0.991218 0.559279 0.146944 0.152057 -0.0326721 0.976841
1305031924.552273 1.88904 -0.984225 0.550698 0.148949 0.143894 -0.0345037 0.977711
1305031924.584109 1.89018 -0.976414 0.542052 0.153924 0.133446 -0.0366183 0.978345
1305031924.620515 1.89224 -0.967909 0.533841 0.159632 0.125483 -0.0402416 0.978342
1305031924.652060 1.89546 -0.960762 0.526022 0.165995 0.119521 -0.0401681 0.978032
1305031924.684319 1.89846 -0.951871 0.519582 0.173126 0.113716 -0.0399658 0.977496
1305031924.719995 1.90271 -0.944312 0.512723 0.178209 0.108447 -0.0409184 0.977142
1305031924.751699 1.90537 -0.937263 0.506089 0.184088 0.104638 -0.042827 0.976385
1305031924.783411 1.91118 -0.927878 0.500307 0.187434 0.102463 -0.0451281 0.975876
1305031924.819277 1.9144 -0.920538 0.494489 0.188862 0.103318 -0.0449886 0.975516
1305031924.851149 1.92234 -0.909818 0.489496 0.191125 0.102729 -0.0444816 0.975161
1305031924.887231 1.92917 -0.898778 0.485585 0.188948 0.101727 -0.0435514 0.975732
1305031924.919219 1.92946 -0.891641 0.48105 0.18379 0.100915 -0.0418748 0.976875
1305031924.951326 1.92954 -0.883618 0.476366 0.183261 0.0977861 -0.043347 0.977228
1305031924.987062 1.92943 -0.874671 0.471559 0.1836 0.0950062 -0.0455497 0.977338
1305031925.019418 1.92829 -0.86469 0.466717 0.185791 0.093002 -0.0473699 0.97703
1305031925.051227 1.9273 -0.85523 0.461439 0.18961 0.0918939 -0.0507907 0.976229
1305031925.086881 1.9284 -0.846845 0.455632 0.194721 0.0914474 -0.053608 0.975114
1305031925.119070 1.93155 -0.835423 0.450335 0.195805 0.0894479 -0.0528794 0.975122
1305031925.150861 1.93087 -0.826247 0.445007 0.190697 0.0879413 -0.0511425 0.976363
1305031925.186995 1.93061 -0.819286 0.439344 0.18807 0.0852592 -0.0506068 0.977138
1305031925.219143 1.93184 -0.810329 0.433378 0.189927 0.0813796 -0.0530275 0.976982
1305031925.250215 1.93206 -0.799476 0.427979 0.188843 0.0783218 -0.0555015 0.977304
1305031925.287610 1.93134 -0.790733 0.422448 0.186005 0.0756427 -0.0609981 0.977732
1305031925.318360 1.93443 -0.778062 0.418217 0.1844 0.0732112 -0.0657448 0.977913
1305031925.351623 1.9372 -0.76593 0.413759 0.179911 0.072365 -0.0680647 0.978653
1305031925.386446 1.93889 -0.753672 0.409579 0.176135 0.0721524 -0.0731415 0.97899
1305031925.420497 1.93988 -0.74111 0.405542 0.174695 0.0720547 -0.0790102 0.978799
1305031925.451669 1.94248 -0.732316 0.399774 0.174739 0.07036 -0.0821461 0.978656
1305031925.487976 1.94587 -0.720287 0.393941 0.17863 0.0718835 -0.0857238 0.977535
1305031925.520197 1.95277 -0.711788 0.38729 0.183418 0.0756659 -0.0843748 0.97648
1305031925.551723 1.96092 -0.700723 0.380031 0.189621 0.0802207 -0.0795146 0.975339
1305031925.587951 1.96903 -0.68818 0.373298 0.194289 0.0848155 -0.0727937 0.974556
1305031925.620389 1.97972 -0.676003 0.366948 0.198046 0.0890231 -0.0672585 0.973822
1305031925.652177 1.98924 -0.663152 0.362746 0.199144 0.0931816 -0.0616163 0.973582
1305031925.688138 1.99681 -0.652682 0.358043 0.196889 0.0959033 -0.055412 0.974149
1305031925.719963 2.00644 -0.645256 0.353196 0.194552 0.094796 -0.0527803 0.974873
1305031925.752010 2.0155 -0.63444 0.34988 0.19289 0.0935662 -0.0512433 0.975404
1305031925.788128 2.02748 -0.621923 0.347339 0.189935 0.0932271 -0.0477849 0.976192
1305031925.819737 2.04002 -0.608883 0.345123 0.185353 0.0948139 -0.0448787 0.977057
1305031925.852900 2.05132 -0.59526 0.34317 0.178619 0.0984411 -0.0409314 0.978125
1305031925.887783 2.06174 -0.583428 0.339819 0.171516 0.103055 -0.0363747 0.979101
1305031925.917070 2.07125 -0.573364 0.335807 0.16441 0.107876 -0.0308137 0.979991
1305031925.952071 2.08037 -0.561278 0.331781 0.158787 0.110612 -0.0241479 0.9808
1305031925.987927 2.089 -0.552122 0.326642 0.15059 0.112298 -0.0177294 0.982037
1305031926.019599 2.09644 -0.541719 0.321277 0.14525 0.113221 -0.0129772 0.98281
1305031926.051425 2.10317 -0.53162 0.315071 0.141577 0.113501 -0.00714492 0.983373
1305031926.087671 2.11008 -0.519882 0.308474 0.138248 0.115521 -0.0033179 0.983632
1305031926.119488 2.11694 -0.510491 0.300501 0.135749 0.119411 -0.00177012 0.983519
1305031926.155476 2.12525 -0.498696 0.292093 0.134311 0.123406 0.000263917 0.983225
1305031926.187287 2.13229 -0.485559 0.283754 0.131909 0.129011 0.00338523 0.982825
1305031926.219471 2.13898 -0.475505 0.273827 0.131897 0.13457 0.00614002 0.982067
1305031926.255515 2.14685 -0.465379 0.263221 0.130667 0.140053 0.00850516 0.981447
1305031926.287524 2.1553 -0.452038 0.252514 0.129565 0.145453 0.00961558 0.980798
1305031926.319314 2.16279 -0.438959 0.24192 0.130216 0.152038 0.0116357 0.97969
1305031926.355226 2.17006 -0.429573 0.229965 0.129105 0.161206 0.0157831 0.978313
1305031926.387186 2.17769 -0.420188 0.217706 0.129499 0.169687 0.0201637 0.976745
1305031926.416195 2.18383 -0.412482 0.205398 0.129677 0.177407 0.0255554 0.975222
1305031926.456138 2.18849 -0.402868 0.193776 0.129485 0.185225 0.0307381 0.973643
1305031926.487337 2.19413 -0.392196 0.181654 0.130305 0.192457 0.0365596 0.971928
1305031926.519488 2.1982 -0.383619 0.170018 0.132877 0.200067 0.0437838 0.969742
1305031926.555508 2.20327 -0.375456 0.157619 0.135367 0.207548 0.0512543 0.967457
1305031926.587389 2.20672 -0.368352 0.145356 0.137016 0.215096 0.0597522 0.965085
1305031926.617031 2.21058 -0.359919 0.133661 0.138509 0.222195 0.0702223 0.962556
1305031926.655592 2.21318 -0.348264 0.124573 0.14043 0.228754 0.080999 0.959891
1305031926.686940 2.21539 -0.338512 0.116152 0.141943 0.235273 0.0924819 0.95705
1305031926.716774 2.21562 -0.326408 0.110599 0.144149 0.244576 0.099993 0.953627
1305031926.754636 2.21729 -0.316674 0.104009 0.144354 0.256455 0.107516 0.949649
1305031926.787267 2.22095 -0.306791 0.0964471 0.143528 0.268248 0.118231 0.945232
1305031926.817567 2.22292 -0.298048 0.0900232 0.142833 0.2799 0.130511 0.940331
1305031926.856453 2.22452 -0.288797 0.0852786 0.14273 0.292614 0.144866 0.934355
1305031926.885854 2.22795 -0.278432 0.0795201 0.142091 0.305947 0.162178 0.92731
1305031926.920915 2.23014 -0.268153 0.0746417 0.141217 0.320915 0.179105 0.919235
1305031926.956342 2.23206 -0.25835 0.0694589 0.139768 0.338234 0.194331 0.910109
1305031926.988250 2.23159 -0.253653 0.0670862 0.134701 0.35534 0.207337 0.901444
1305031927.021193 2.23117 -0.243896 0.0651421 0.12918 0.370782 0.22044 0.892883
1305031927.056355 2.23016 -0.232703 0.0633701 0.125245 0.385626 0.234261 0.883588
1305031927.088782 2.2303 -0.220273 0.0602921 0.121849 0.398568 0.248456 0.874394
1305031927.120454 2.23001 -0.208825 0.0587176 0.117332 0.40887 0.263379 0.865847
1305031927.156388 2.22822 -0.196756 0.0584871 0.112261 0.418735 0.276458 0.857688
1305031927.188222 2.22301 -0.191175 0.0622738 0.105727 0.429149 0.289536 0.849012
1305031927.220398 2.22069 -0.18155 0.0636775 0.0977818 0.436446 0.301509 0.842049
1305031927.255554 2.22125 -0.1683 0.0618945 0.0874922 0.438732 0.313506 0.837599
1305031927.288179 2.21997 -0.155301 0.061785 0.0791475 0.440012 0.322685 0.834266
1305031927.319728 2.21955 -0.140228 0.0604721 0.0719684 0.441824 0.331907 0.830331
1305031927.355704 2.21984 -0.127821 0.059266 0.0662454 0.444037 0.342316 0.825386
1305031927.387697 2.22111 -0.115128 0.056405 0.0599246 0.447212 0.353035 0.81962
1305031927.423646 2.22074 -0.0993693 0.0531616 0.0548463 0.451039 0.362964 0.813519
1305031927.455842 2.22107 -0.0882547 0.0502586 0.0494767 0.453631 0.371689 0.808467
1305031927.487526 2.22043 -0.0747815 0.0479478 0.0436121 0.455048 0.377613 0.805256
1305031927.523735 2.21932 -0.0639183 0.0461201 0.0375259 0.456151 0.382756 0.802506
1305031927.555610 2.21836 -0.0526544 0.0435978 0.0330257 0.45703 0.384844 0.801204
1305031927.587778 2.2178 -0.041843 0.0428673 0.0279943 0.456988 0.385974 0.800876
1305031927.623566 2.21811 -0.0295351 0.0425525 0.0210157 0.455223 0.386169 0.802
1305031927.655615 2.22076 -0.0227554 0.0386856 0.0119037 0.452027 0.385744 0.804196
1305031927.687849 2.21994 -0.0138689 0.0378905 0.00623394 0.449326 0.380323 0.808345
1305031927.720304 2.22104 -0.00564614 0.0367615 -0.00161201 0.446811 0.373819 0.812784
1305031927.755615 2.22411 0.00230018 0.0331567 -0.0095726 0.443751 0.367707 0.817181
1305031927.784053 2.22706 0.0091217 0.0294904 -0.0162051 0.440684 0.362895 0.820879
1305031927.825135 2.22892 0.0195216 0.0246167 -0.0195841 0.438554 0.358902 0.823697
1305031927.855551 2.2331 0.0305438 0.018931 -0.0222939 0.436624 0.356323 0.82577
1305031927.887591 2.23815 0.0392524 0.0114398 -0.0262519 0.434659 0.356838 0.826468
1305031927.923620 2.24423 0.0446864 0.0025787 -0.0292585 0.433833 0.357097 0.826689
1305031927.955459 2.24754 0.0570099 -0.00434144 -0.0285995 0.434133 0.355556 0.827219
1305031927.987655 2.25162 0.0693543 -0.0119063 -0.0289191 0.43294 0.355607 0.827811
1305031928.023669 2.25901 0.0773916 -0.0227098 -0.0309007 0.431308 0.35639 0.828254
1305031928.055649 2.264 0.0900434 -0.0321328 -0.0314535 0.430854 0.355893 0.828683
1305031928.087657 2.26944 0.100355 -0.0418174 -0.0348263 0.430081 0.357547 0.828238
1305031928.123611 2.27439 0.107836 -0.0520746 -0.0378102 0.42984 0.360114 0.827119
1305031928.153645 2.27928 0.11683 -0.0617143 -0.0402722 0.430541 0.361332 0.826106
1305031928.185349 2.28566 0.124942 -0.0733257 -0.043402 0.432696 0.36156 0.824721
1305031928.223567 2.29058 0.134905 -0.0853123 -0.0452558 0.436898 0.361618 0.822377
1305031928.256019 2.29203 0.14563 -0.0940363 -0.0460332 0.442443 0.364109 0.81826
1305031928.287847 2.29485 0.155746 -0.106085 -0.0472779 0.447092 0.368876 0.813513
1305031928.324414 2.29646 0.163398 -0.116364 -0.0467784 0.451684 0.373912 0.808692
1305031928.356445 2.29751 0.174815 -0.127384 -0.0451361 0.455898 0.378957 0.804059
1305031928.388295 2.29829 0.182071 -0.137847 -0.0429111 0.460681 0.385712 0.798222
1305031928.424766 2.29981 0.189396 -0.149883 -0.0394329 0.466033 0.393182 0.791622
1305031928.456406 2.30076 0.196626 -0.160738 -0.0340846 0.474217 0.402472 0.782287
1305031928.489516 2.30098 0.201093 -0.170089 -0.0283352 0.48404 0.413467 0.77068
1305031928.524415 2.30139 0.207031 -0.181911 -0.0206921 0.493835 0.424798 0.75845
1305031928.556287 2.30005 0.211996 -0.191907 -0.0111515 0.503952 0.433558 0.746951
1305031928.588557 2.29868 0.216732 -0.203414 -0.00290132 0.513072 0.440105 0.736924
1305031928.624251 2.29872 0.219912 -0.218406 0.00535268 0.52337 0.446661 0.725637
1305031928.656233 2.29863 0.221155 -0.232005 0.0138109 0.535573 0.449685 0.714671
1305031928.691555 2.2985 0.221117 -0.244482 0.0215763 0.548685 0.450134 0.704173
1305031928.723927 2.29742 0.219505 -0.253915 0.0287065 0.561275 0.449035 0.694632
1305031928.755499 2.29737 0.216994 -0.266445 0.0351171 0.572435 0.448045 0.685814
1305031928.791463 2.29958 0.210738 -0.280321 0.0413882 0.58236 0.448606 0.67668
1305031928.823577 2.29918 0.205531 -0.292391 0.0492957 0.592964 0.446917 0.668004
1305031928.855468 2.29786 0.201515 -0.303066 0.0575372 0.60358 0.44435 0.659496
1305031928.891499 2.29643 0.195692 -0.315334 0.0656385 0.613944 0.441675 0.650913
1305031928.923473 2.29538 0.188452 -0.324533 0.0742174 0.625192 0.439083 0.640962
1305031928.955544 2.29337 0.18117 -0.334724 0.084422 0.637076 0.434663 0.630932
1305031928.991477 2.29123 0.174179 -0.341039 0.0933935 0.650919 0.427103 0.620617
1305031929.023472 2.28843 0.16625 -0.348185 0.10055 0.664557 0.420784 0.609257
1305031929.052047 2.2861 0.158338 -0.355964 0.108239 0.678251 0.413999 0.597382
1305031929.091469 2.28336 0.149826 -0.367137 0.115203 0.691803 0.406491 0.585578
1305031929.123397 2.28203 0.13783 -0.377541 0.120665 0.705265 0.40053 0.572378
1305031929.155442 2.27901 0.128786 -0.38334 0.128262 0.718339 0.394037 0.558814
1305031929.191433 2.27706 0.118817 -0.387945 0.135591 0.73093 0.388153 0.544696
1305031929.224389 2.27568 0.10707 -0.389018 0.142347 0.74319 0.383059 0.529785
1305031929.256040 2.27293 0.096114 -0.39458 0.153195 0.754458 0.377995 0.514241
1305031929.292331 2.26887 0.0838385 -0.405341 0.162811 0.764471 0.372158 0.500575
1305031929.324071 2.26358 0.0734472 -0.415954 0.170511 0.773587 0.367089 0.48758
1305031929.356012 2.25916 0.0605518 -0.42257 0.179118 0.781369 0.36378 0.474388
1305031929.391503 2.25556 0.0462216 -0.426293 0.187404 0.788095 0.360583 0.462347
1305031929.423543 2.25144 0.0339966 -0.429587 0.194958 0.793141 0.356616 0.453591
1305031929.455568 2.24807 0.0205373 -0.432097 0.201374 0.79869 0.351148 0.445239
1305031929.491502 2.24294 0.00839405 -0.434983 0.206005 0.804096 0.345528 0.437724
1305031929.523520 2.23844 -0.00542546 -0.437075 0.211419 0.808724 0.340715 0.430326
1305031929.555525 2.23219 -0.0158597 -0.438598 0.216177 0.813427 0.334759 0.423723
1305031929.591341 2.22569 -0.0294548 -0.444316 0.219967 0.817765 0.328871 0.417994
1305031929.627102 2.22128 -0.0435253 -0.444699 0.224127 0.822716 0.321361 0.411865
1305031929.652934 2.21596 -0.0571877 -0.446196 0.226489 0.828432 0.312305 0.40604
1305031929.688977 2.21181 -0.0746076 -0.446864 0.22838 0.833656 0.304106 0.400475
1305031929.722904 2.20699 -0.089687 -0.446076 0.231173 0.838591 0.295503 0.394971
1305031929.755544 2.20395 -0.0985462 -0.441774 0.235426 0.841982 0.286624 0.391775
1305031929.791661 2.20269 -0.108965 -0.437801 0.240673 0.843004 0.280352 0.390927
1305031929.824100 2.20033 -0.121506 -0.437277 0.245143 0.844544 0.271996 0.390729
1305031929.859997 2.19601 -0.131602 -0.439148 0.250181 0.844887 0.265235 0.391439
1305031929.892100 2.19043 -0.140656 -0.441494 0.253608 0.845125 0.258411 0.393281
1305031929.920589 2.18394 -0.152195 -0.446626 0.255683 0.845614 0.2516 0.395298
1305031929.960336 2.1793 -0.159234 -0.449108 0.25729 0.846681 0.245111 0.396046
1305031929.992281 2.17434 -0.163616 -0.450592 0.257447 0.848572 0.240228 0.394888
1305031930.024129 2.16759 -0.16575 -0.453469 0.258081 0.850046 0.238432 0.392385
1305031930.059766 2.1618 -0.16758 -0.453188 0.259808 0.851153 0.239586 0.38812
1305031930.088504 2.15609 -0.163208 -0.45192 0.262055 0.851413 0.241945 0.384559
1305031930.122266 2.15026 -0.1582 -0.452057 0.262224 0.85149 0.244932 0.382376
1305031930.159452 2.14413 -0.149082 -0.451665 0.258077 0.853126 0.246552 0.380507
1305031930.191333 2.13687 -0.138473 -0.449896 0.25541 0.855354 0.249206 0.375542
1305031930.223366 2.12999 -0.126725 -0.447001 0.252525 0.858014 0.253065 0.368783
1305031930.259685 2.12666 -0.116672 -0.441593 0.247108 0.861298 0.258602 0.360873
1305031930.291415 2.1222 -0.103015 -0.437332 0.241107 0.865211 0.263016 0.352279
1305031930.324425 2.11218 -0.0867089 -0.433588 0.23769 0.867178 0.270335 0.344129
1305031930.360687 2.10213 -0.0777639 -0.434403 0.229888 0.869173 0.278753 0.337618
1305031930.392204 2.09084 -0.068918 -0.434798 0.221954 0.871706 0.28665 0.329692
1305031930.424494 2.08189 -0.0596189 -0.432908 0.217316 0.872682 0.296566 0.321322
1305031930.460645 2.07471 -0.0484313 -0.428236 0.212012 0.873276 0.306111 0.314224
1305031930.491893 2.06837 -0.0365646 -0.422668 0.207137 0.872423 0.31712 0.30888
1305031930.523304 2.05948 -0.0249095 -0.423164 0.203459 0.869287 0.330931 0.305663
1305031930.559268 2.05428 -0.0209199 -0.428715 0.195601 0.86716 0.342723 0.303834
1305031930.591038 2.04628 -0.00982525 -0.429158 0.187359 0.865903 0.352144 0.301834
1305031930.620257 2.04042 0.00017212 -0.42263 0.179035 0.863544 0.364396 0.29909
1305031930.659428 2.03204 0.0143636 -0.41535 0.172947 0.859961 0.375725 0.298977
1305031930.691306 2.02771 0.0250178 -0.408248 0.168148 0.855253 0.387467 0.30023
1305031930.723254 2.02089 0.0361119 -0.403728 0.165772 0.849346 0.398539 0.303805
1305031930.759257 2.01736 0.0460115 -0.396948 0.161961 0.843889 0.408896 0.307285
1305031930.791524 2.01269 0.0556504 -0.392256 0.157265 0.838304 0.419305 0.310962
1305031930.823348 2.00667 0.0643431 -0.387674 0.153305 0.833892 0.427543 0.313574
1305031930.860005 1.99983 0.0768446 -0.378965 0.149882 0.830896 0.43395 0.314381
1305031930.887927 1.99261 0.0866856 -0.373177 0.145463 0.827364 0.44196 0.314612
1305031930.923290 1.98883 0.0960021 -0.364255 0.140881 0.824265 0.449311 0.314418
1305031930.959881 1.98468 0.104381 -0.35715 0.136987 0.82043 0.457872 0.313819
1305031930.991760 1.9799 0.114222 -0.34855 0.132482 0.816434 0.466738 0.313113
1305031931.023642 1.9764 0.123823 -0.338308 0.126763 0.812114 0.47631 0.312298
1305031931.059938 1.97228 0.133221 -0.328895 0.121381 0.807634 0.485773 0.311477
1305031931.091660 1.96645 0.144968 -0.319087 0.117498 0.802819 0.495805 0.309601
1305031931.126327 1.96092 0.155233 -0.311877 0.11404 0.797993 0.505957 0.306936
1305031931.156194 1.9577 0.164574 -0.303707 0.108524 0.794131 0.515646 0.302801
1305031931.187879 1.95323 0.173362 -0.297577 0.10247 0.790384 0.526445 0.296055
1305031931.226834 1.95174 0.178797 -0.291993 0.0948001 0.786103 0.539549 0.286254
1305031931.259538 1.95051 0.184352 -0.289396 0.0855733 0.781884 0.55243 0.275962
1305031931.291735 1.94864 0.190873 -0.287843 0.0785036 0.778292 0.563981 0.264621
1305031931.327534 1.94593 0.196884 -0.286383 0.0720507 0.775049 0.574569 0.252941
1305031931.359406 1.9441 0.201786 -0.283352 0.06583 0.773128 0.584082 0.238303
1305031931.391729 1.94495 0.20569 -0.27915 0.0617732 0.771228 0.593422 0.221904
1305031931.427416 1.94375 0.210828 -0.277164 0.059983 0.768637 0.60181 0.208384
1305031931.459719 1.94624 0.214836 -0.277862 0.0587689 0.766003 0.609789 0.194788
1305031931.491781 1.94886 0.219935 -0.276917 0.0579594 0.764894 0.615123 0.182213
1305031931.527311 1.95215 0.225998 -0.274209 0.0569381 0.763568 0.620267 0.170265
1305031931.559707 1.95404 0.230225 -0.276359 0.0584145 0.760276 0.62729 0.15835
1305031931.590720 1.9603 0.233658 -0.278322 0.0611708 0.759361 0.631114 0.146027
1305031931.627134 1.96662 0.237877 -0.277895 0.0630925 0.759291 0.633289 0.135797
1305031931.659798 1.97294 0.241722 -0.280569 0.0631735 0.75832 0.635931 0.128652
1305031931.691463 1.98195 0.245962 -0.279433 0.0609472 0.759489 0.636094 0.121842
1305031931.727210 1.98907 0.250379 -0.27887 0.0596421 0.759623 0.637299 0.115179
1305031931.759394 1.99796 0.254958 -0.277627 0.0580147 0.759506 0.638485 0.110095
1305031931.791463 2.00655 0.260475 -0.2746 0.0561393 0.75824 0.64071 0.106825
1305031931.827415 2.01712 0.265364 -0.272645 0.0578652 0.75607 0.644009 0.101299
1305031931.859949 2.02423 0.272004 -0.268073 0.0619932 0.753406 0.647555 0.095965
1305031931.891964 2.03238 0.277123 -0.267645 0.0677813 0.748113 0.654127 0.0885997
1305031931.927455 2.04094 0.281632 -0.270607 0.0717883 0.744146 0.658876 0.0835204
1305031931.959755 2.04771 0.286801 -0.269394 0.0758022 0.743355 0.659821 0.0794543
1305031931.991729 2.05369 0.291225 -0.269525 0.0802896 0.741596 0.661674 0.0760102
1305031932.026867 2.05993 0.296125 -0.269699 0.0844551 0.741325 0.662016 0.0709906
1305031932.058924 2.06653 0.300412 -0.270717 0.0896115 0.740756 0.662556 0.0653415
1305031932.092565 2.07334 0.305595 -0.269268 0.0928523 0.741133 0.662094 0.0610888
1305031932.127607 2.08117 0.310273 -0.27173 0.0973275 0.738822 0.664459 0.0562537
1305031932.159854 2.09143 0.314365 -0.2753 0.103664 0.737138 0.665441 0.0554071
1305031932.192165 2.09927 0.318015 -0.277974 0.108323 0.735164 0.666407 0.060846
1305031932.227671 2.10842 0.321104 -0.285552 0.112114 0.73265 0.667952 0.0670468
1305031932.259182 2.11594 0.325096 -0.292103 0.115083 0.73135 0.667828 0.0767372
1305031932.291317 2.1224 0.328283 -0.300923 0.118476 0.729802 0.66773 0.0865451
1305031932.326984 2.12925 0.332213 -0.307594 0.119716 0.730539 0.66553 0.0951319
1305031932.359352 2.13652 0.335777 -0.317237 0.121144 0.73061 0.664346 0.10089
1305031932.395192 2.14481 0.339279 -0.327766 0.123168 0.731833 0.661541 0.107764
1305031932.427402 2.15256 0.343387 -0.334597 0.125756 0.73393 0.657392 0.115622
1305031932.460162 2.1598 0.347825 -0.341929 0.129341 0.73446 0.654478 0.124489
1305031932.495912 2.16754 0.35172 -0.351572 0.133117 0.734026 0.652427 0.133509
1305031932.527699 2.17359 0.355636 -0.360104 0.136044 0.733778 0.649983 0.14347
1305031932.556042 2.18188 0.358598 -0.370429 0.138536 0.733584 0.647592 0.152597
1305031932.593841 2.18978 0.361683 -0.379499 0.140055 0.734671 0.643144 0.164345
1305031932.627666 2.19832 0.363234 -0.389496 0.140819 0.735114 0.638879 0.177795
1305031932.659769 2.20625 0.364829 -0.399378 0.141524 0.735922 0.633601 0.192197
1305031932.695841 2.2134 0.366143 -0.410079 0.142777 0.736352 0.628127 0.207022
1305031932.727524 2.22027 0.366223 -0.42066 0.143684 0.73704 0.62226 0.221179
1305031932.759892 2.22688 0.36706 -0.42922 0.144101 0.739082 0.61494 0.234182
1305031932.795486 2.23522 0.366137 -0.439334 0.14634 0.740888 0.607958 0.245064
1305031932.827627 2.24288 0.365243 -0.448051 0.149314 0.743483 0.599432 0.256163
1305031932.859777 2.25148 0.364687 -0.456911 0.150612 0.746248 0.591481 0.26567
1305031932.896209 2.26005 0.3643 -0.46786 0.151489 0.750232 0.5824 0.273888
1305031932.928147 2.2664 0.364752 -0.476687 0.152524 0.75568 0.571215 0.281778
1305031932.959759 2.27324 0.365343 -0.4823 0.153846 0.758186 0.563796 0.289172
1305031932.995065 2.27983 0.366745 -0.491215 0.152296 0.759703 0.558075 0.297
1305031933.026975 2.28591 0.367765 -0.499418 0.149888 0.76393 0.551081 0.300422
1305031933.059632 2.2909 0.37095 -0.503843 0.148718 0.768693 0.54479 0.30033
1305031933.095661 2.29579 0.374592 -0.507898 0.146647 0.771204 0.542643 0.298792
1305031933.127608 2.30017 0.378036 -0.516653 0.146153 0.774305 0.541646 0.292766
1305031933.159744 2.30317 0.382619 -0.519432 0.145468 0.780783 0.538344 0.281783
1305031933.195887 2.30657 0.38498 -0.523695 0.143805 0.785094 0.538764 0.269592
1305031933.227642 2.30987 0.387047 -0.526831 0.142012 0.789093 0.538991 0.258172
1305031933.259844 2.31149 0.389825 -0.527264 0.14027 0.793003 0.537876 0.24932
1305031933.296061 2.31349 0.39234 -0.527874 0.138577 0.797072 0.535992 0.241216
1305031933.327953 2.31258 0.396612 -0.527357 0.139189 0.799565 0.53571 0.233102
1305031933.359852 2.31023 0.400447 -0.52682 0.140037 0.800528 0.537171 0.225813
1305031933.395603 2.30756 0.403562 -0.52661 0.140384 0.801914 0.537985 0.218628
1305031933.427651 2.30296 0.40818 -0.524901 0.14225 0.802369 0.539509 0.211895
1305031933.459920 2.30066 0.410718 -0.524099 0.142945 0.801693 0.543211 0.204395
1305031933.495920 2.29829 0.412152 -0.523634 0.143579 0.802068 0.545652 0.195796
1305031933.527835 2.29284 0.415438 -0.521184 0.143557 0.803315 0.54663 0.18781
1305031933.564265 2.28689 0.418411 -0.51962 0.142436 0.804312 0.548591 0.178443
1305031933.595687 2.28274 0.420066 -0.516963 0.142568 0.805787 0.550396 0.165669
1305031933.626979 2.27602 0.423214 -0.513389 0.143186 0.807478 0.551545 0.152558
1305031933.663105 2.26834 0.426425 -0.510687 0.142969 0.808873 0.553557 0.137327
1305031933.695772 2.26125 0.429287 -0.505303 0.142581 0.810026 0.555808 0.120855
1305031933.727622 2.25419 0.431638 -0.499325 0.141994 0.810859 0.558084 0.104342
1305031933.763831 2.24738 0.432899 -0.494256 0.14193 0.810573 0.561404 0.0874824
1305031933.795823 2.24087 0.433303 -0.488702 0.141029 0.810585 0.563759 0.0723711
1305031933.827513 2.23472 0.434437 -0.480642 0.138698 0.8113 0.564971 0.057989
1305031933.863871 2.22936 0.435484 -0.471003 0.136294 0.810794 0.567508 0.044411
1305031933.895826 2.22433 0.435133 -0.46195 0.13433 0.809361 0.570889 0.0312575
1305031933.927864 2.21692 0.434728 -0.454484 0.132082 0.807482 0.574505 0.0217109
1305031933.964067 2.21058 0.434224 -0.445882 0.129541 0.805748 0.577772 0.0129909
1305031933.996159 2.20299 0.433355 -0.438379 0.128248 0.80303 0.581945 0.00597015
1305031934.025036 2.19462 0.432768 -0.430515 0.126517 0.800577 0.58572 0.00152004
1305031934.062070 2.18703 0.432418 -0.420857 0.123609 0.798832 0.588711 -0.0027959
1305031934.095754 2.17896 0.43222 -0.410792 0.12043 0.797283 0.591424 -0.00735083
1305031934.123903 2.1698 0.43143 -0.400261 0.117189 0.795298 0.594641 -0.0130661
1305031934.163843 2.15986 0.429181 -0.393122 0.114274 0.79253 0.59869 -0.0201652
1305031934.196078 2.1523 0.427295 -0.383646 0.110623 0.790907 0.601226 -0.0274992
1305031934.226959 2.14351 0.425314 -0.373007 0.107363 0.788735 0.604311 -0.0343248
1305031934.263347 2.13478 0.421809 -0.364197 0.105949 0.786326 0.607188 -0.0422943
1305031934.295644 2.12537 0.417948 -0.355661 0.105156 0.784648 0.609102 -0.0475835
1305031934.327544 2.11674 0.415102 -0.347372 0.104158 0.781959 0.612452 -0.0509204
1305031934.363432 2.10719 0.411359 -0.342393 0.103905 0.778721 0.616524 -0.0519225
1305031934.395278 2.09584 0.407699 -0.336153 0.103275 0.777456 0.618403 -0.0497462
1305031934.427107 2.08493 0.403889 -0.33088 0.101451 0.776376 0.620366 -0.0457634
1305031934.460046 2.07367 0.399704 -0.327779 0.0979535 0.776621 0.621028 -0.0398615
1305031934.495228 2.0621 0.396427 -0.319762 0.0907508 0.77981 0.618568 -0.0321524
1305031934.527409 2.04815 0.392642 -0.31411 0.082492 0.780823 0.61872 -0.0263766
1305031934.563395 2.03347 0.387968 -0.312283 0.0777759 0.781462 0.618627 -0.0238368
1305031934.595082 2.01877 0.383904 -0.307593 0.0751118 0.783342 0.61663 -0.0223646
1305031934.627102 2.00452 0.379776 -0.303218 0.0730565 0.783767 0.616408 -0.0203087
1305031934.662910 1.99171 0.375124 -0.302719 0.0713534 0.783918 0.616534 -0.016321
1305031934.694817 1.97481 0.371495 -0.298607 0.06793 0.786788 0.613399 -0.00960209
1305031934.726749 1.95964 0.367894 -0.296303 0.0647236 0.788063 0.612165 -0.00457446
1305031934.762903 1.9456 0.363641 -0.295059 0.0616105 0.789406 0.61077 0.00148589
1305031934.794831 1.93054 0.360826 -0.291461 0.0577377 0.791804 0.607975 0.00889566
1305031934.830983 1.91447 0.357049 -0.290711 0.0549589 0.792806 0.606802 0.0151648
1305031934.862668 1.89833 0.352789 -0.289517 0.0522926 0.794628 0.604433 0.0221647
1305031934.894445 1.88174 0.349072 -0.287704 0.048409 0.796939 0.601346 0.0304522
1305031934.931747 1.86528 0.344559 -0.288078 0.0453601 0.798901 0.598442 0.0395882
1305031934.963384 1.84671 0.34032 -0.287486 0.041321 0.802758 0.592814 0.0494345
1305031934.995132 1.82886 0.335669 -0.288433 0.0360824 0.807302 0.58611 0.0586324
1305031935.033022 1.80943 0.331959 -0.28789 0.0324438 0.811982 0.578858 0.0674937
1305031935.063116 1.79277 0.327338 -0.290179 0.0324105 0.815683 0.572972 0.0729042
1305031935.095058 1.77563 0.324544 -0.290045 0.0333014 0.819918 0.566038 0.0789109
1305031935.130727 1.75692 0.323569 -0.289423 0.0331948 0.822523 0.561515 0.0839974
1305031935.162214 1.73939 0.321494 -0.293059 0.0332074 0.823752 0.559266 0.0869007
1305031935.194899 1.72463 0.31919 -0.296852 0.0346653 0.825688 0.556055 0.0885487
1305031935.231025 1.71029 0.318506 -0.298862 0.038799 0.826897 0.553738 0.0900586
1305031935.260736 1.69661 0.318007 -0.302039 0.0445499 0.826766 0.553216 0.0917889
1305031935.295152 1.67907 0.317387 -0.30718 0.0493614 0.826379 0.552903 0.0946493
1305031935.330960 1.66143 0.31789 -0.312052 0.0518356 0.826187 0.552885 0.0951142
1305031935.363255 1.64361 0.317864 -0.31653 0.0553712 0.826511 0.552519 0.0923876
1305031935.394932 1.62638 0.318491 -0.321607 0.0599144 0.826249 0.553365 0.0866614
1305031935.430905 1.6086 0.318678 -0.327446 0.0666281 0.825642 0.554646 0.0790133
1305031935.463017 1.59359 0.318127 -0.333831 0.0732222 0.82502 0.555841 0.0708618
1305031935.493044 1.57791 0.317162 -0.342674 0.0792399 0.824845 0.556133 0.0637746
1305031935.530045 1.56165 0.316111 -0.35058 0.0840362 0.826915 0.553138 0.0564627
1305031935.562732 1.54754 0.314667 -0.357696 0.0890959 0.829992 0.548514 0.0480389
1305031935.594819 1.53136 0.312827 -0.366289 0.0923466 0.834194 0.54233 0.0383539
1305031935.631390 1.51674 0.310404 -0.373417 0.09273 0.839983 0.533951 0.026963
1305031935.663543 1.50401 0.306919 -0.379116 0.0919544 0.847632 0.522413 0.0121962
1305031935.695531 1.49466 0.302568 -0.382771 0.0860586 0.856282 0.50927 -0.00444884
1305031935.731180 1.48375 0.296497 -0.38948 0.0768667 0.864161 0.496835 -0.0217308
1305031935.763521 1.47522 0.292434 -0.391362 0.0652381 0.872589 0.482203 -0.0425839
1305031935.795359 1.46528 0.291967 -0.388814 0.0554875 0.879703 0.467933 -0.0639002
1305031935.831205 1.45994 0.290761 -0.388348 0.0480187 0.884482 0.456588 -0.0831416
1305031935.863651 1.45063 0.284663 -0.391785 0.0416504 0.887602 0.448174 -0.0978131
1305031935.895325 1.44289 0.278431 -0.395985 0.0365549 0.890103 0.440557 -0.110862
1305031935.931428 1.43579 0.274617 -0.400851 0.0314049 0.892977 0.432198 -0.1217
1305031935.963243 1.42829 0.271737 -0.405975 0.0258617 0.896458 0.422852 -0.129962
1305031935.995756 1.42284 0.269753 -0.411903 0.0189903 0.900055 0.413413 -0.136495
1305031936.031927 1.4164 0.266126 -0.41916 0.0121005 0.903318 0.404521 -0.142246
1305031936.063602 1.409 0.264205 -0.421118 0.00537089 0.906286 0.395866 -0.148007
1305031936.099066 1.39984 0.26359 -0.424133 0.000312616 0.908487 0.388179 -0.154818
1305031936.130808 1.38853 0.261181 -0.426823 -0.00422969 0.910408 0.380484 -0.162389
1305031936.163443 1.37665 0.258827 -0.428036 -0.00560341 0.911657 0.37412 -0.169953
1305031936.200045 1.36764 0.263234 -0.427068 -0.00630495 0.912566 0.36857 -0.177032
1305031936.231637 1.35468 0.256834 -0.434385 -0.00602365 0.91331 0.363154 -0.184249
1305031936.262854 1.34667 0.255885 -0.437115 -0.00653655 0.914536 0.356246 -0.191496
1305031936.299656 1.34029 0.258588 -0.437554 -0.00752663 0.915723 0.348868 -0.199212
1305031936.331649 1.335 0.260002 -0.438813 -0.00310473 0.9169 0.340365 -0.208416
1305031936.363578 1.33186 0.264012 -0.43844 0.00260197 0.918379 0.330665 -0.217335
1305031936.399525 1.32331 0.266333 -0.437231 0.00801363 0.919355 0.322309 -0.225474
1305031936.431784 1.31096 0.264649 -0.437876 0.0122242 0.919554 0.316583 -0.23248
1305031936.463134 1.29925 0.264171 -0.438303 0.0147336 0.920024 0.310687 -0.238355
1305031936.499445 1.28981 0.26255 -0.440914 0.0178264 0.920385 0.305165 -0.243821
1305031936.531202 1.28013 0.264466 -0.440252 0.0196033 0.921325 0.299016 -0.247721
1305031936.563251 1.2717 0.268406 -0.441048 0.0206154 0.922355 0.294019 -0.249778
1305031936.599685 1.26439 0.272714 -0.441216 0.0245202 0.923462 0.288897 -0.251307
1305031936.631518 1.25562 0.277673 -0.440773 0.0282393 0.924511 0.28447 -0.252107
1305031936.663832 1.24619 0.285829 -0.437649 0.0276928 0.925154 0.28218 -0.252383
1305031936.699970 1.23443 0.294039 -0.43328 0.0249809 0.925526 0.279426 -0.25436
1305031936.731597 1.22497 0.301822 -0.43107 0.0261799 0.925589 0.275775 -0.25797
1305031936.763730 1.2113 0.3111 -0.427013 0.0288194 0.925623 0.275349 -0.258021
1305031936.799809 1.19851 0.321128 -0.423283 0.0302634 0.925204 0.277316 -0.257248
1305031936.831892 1.18597 0.331977 -0.419463 0.0364851 0.924518 0.279183 -0.256887
1305031936.863697 1.17331 0.34317 -0.417694 0.0422336 0.923056 0.285661 -0.25413
1305031936.900115 1.16033 0.354131 -0.417927 0.047684 0.920733 0.295662 -0.250121
1305031936.931480 1.14541 0.364641 -0.417073 0.0526987 0.91845 0.307216 -0.243498
1305031936.963897 1.1321 0.378101 -0.414532 0.0542478 0.915322 0.32146 -0.236445
1305031937.000148 1.11507 0.388158 -0.413463 0.0599633 0.911653 0.334622 -0.230913
1305031937.032120 1.09995 0.399316 -0.411519 0.064838 0.9089 0.345576 -0.224217
1305031937.060179 1.08608 0.408208 -0.413034 0.0714375 0.905467 0.358938 -0.214916
1305031937.097948 1.07474 0.419363 -0.411951 0.0785691 0.902143 0.371349 -0.205096
1305031937.131381 1.06251 0.430197 -0.409775 0.0814041 0.899494 0.382291 -0.195287
1305031937.162199 1.04967 0.438796 -0.408838 0.0860556 0.895275 0.39429 -0.188716
1305031937.199678 1.03878 0.449471 -0.407201 0.0924925 0.89032 0.406079 -0.184054
1305031937.231385 1.02734 0.458618 -0.406588 0.100269 0.885246 0.417801 -0.178124
1305031937.263361 1.01937 0.470092 -0.402986 0.107591 0.87961 0.430295 -0.171919
1305031937.299172 1.01122 0.4817 -0.399595 0.11425 0.873487 0.442661 -0.167389
1305031937.331472 1.00417 0.495687 -0.392919 0.121808 0.86788 0.453246 -0.162834
1305031937.367035 0.999002 0.508543 -0.386438 0.125236 0.861976 0.464752 -0.159117
1305031937.399644 0.994291 0.521282 -0.379272 0.126685 0.856415 0.474487 -0.159269
1305031937.431305 0.987502 0.53231 -0.372981 0.129976 0.850715 0.483842 -0.159019
1305031937.467256 0.982307 0.543582 -0.366905 0.133321 0.844876 0.493863 -0.156555
1305031937.499237 0.977134 0.555173 -0.360972 0.134991 0.838519 0.505486 -0.152142
1305031937.531606 0.973662 0.568296 -0.353751 0.136346 0.831294 0.518039 -0.148308
1305031937.566400 0.968636 0.57885 -0.349654 0.139707 0.822549 0.531645 -0.145772
1305031937.599586 0.965641 0.588927 -0.346023 0.143265 0.81346 0.545011 -0.143951
1305031937.627766 0.963501 0.601225 -0.338055 0.144119 0.805875 0.556323 -0.142476
1305031937.667658 0.96094 0.613169 -0.32937 0.144543 0.798014 0.567294 -0.143031
1305031937.699645 0.957715 0.623734 -0.321947 0.144944 0.790049 0.577834 -0.144644
1305031937.731732 0.951463 0.63335 -0.314488 0.145803 0.783124 0.586393 -0.146973
1305031937.767791 0.94657 0.641986 -0.310422 0.145979 0.775971 0.59542 -0.148435
1305031937.799732 0.940693 0.650172 -0.30438 0.144806 0.770877 0.601956 -0.14976
1305031937.831889 0.933912 0.657955 -0.300496 0.142949 0.766122 0.607603 -0.153109
1305031937.867758 0.927021 0.666614 -0.294123 0.142885 0.760603 0.613428 -0.157398
1305031937.899933 0.918621 0.673721 -0.290722 0.14324 0.754689 0.619065 -0.163354
1305031937.931831 0.912379 0.682487 -0.288222 0.142483 0.748237 0.624843 -0.171497
1305031937.968127 0.902175 0.689956 -0.284413 0.143118 0.740382 0.631181 -0.181552
1305031938.000042 0.891683 0.697002 -0.278954 0.143247 0.733845 0.635562 -0.192387
1305031938.031836 0.880355 0.703244 -0.276503 0.143459 0.726501 0.640758 -0.202597
1305031938.067761 0.868464 0.708348 -0.2725 0.144275 0.719875 0.644371 -0.213893
1305031938.100010 0.862037 0.716027 -0.264601 0.143686 0.715191 0.64584 -0.225269
1305031938.131856 0.856355 0.722577 -0.261539 0.141594 0.708436 0.650163 -0.235283
1305031938.168307 0.84618 0.726986 -0.257588 0.144127 0.699812 0.654044 -0.248429
1305031938.199974 0.838527 0.732003 -0.251497 0.148391 0.69079 0.6578 -0.260938
1305031938.231649 0.829291 0.735376 -0.24699 0.152235 0.68124 0.66259 -0.2715
1305031938.267768 0.820337 0.7379 -0.241464 0.154711 0.672979 0.665305 -0.283784
1305031938.300089 0.812914 0.740225 -0.234477 0.155901 0.66652 0.665419 -0.297764
1305031938.331736 0.808726 0.742319 -0.230262 0.152735 0.66171 0.664799 -0.311215
1305031938.367715 0.803149 0.742769 -0.228081 0.149672 0.656374 0.664841 -0.323664
1305031938.400257 0.797148 0.742382 -0.225312 0.146424 0.652145 0.664269 -0.334686
1305031938.431934 0.793552 0.742463 -0.222035 0.141893 0.648599 0.662388 -0.347027
1305031938.468046 0.784188 0.738751 -0.218742 0.137241 0.646206 0.659694 -0.358311
1305031938.496114 0.782255 0.737403 -0.216629 0.131537 0.644532 0.656509 -0.369151
1305031938.535972 0.771916 0.732473 -0.220046 0.126413 0.641983 0.655849 -0.376483
1305031938.563904 0.761925 0.726782 -0.219032 0.118291 0.64311 0.65173 -0.384273
1305031938.598200 0.75322 0.720486 -0.221185 0.1097 0.643814 0.648125 -0.391667
1305031938.637455 0.74028 0.711758 -0.222941 0.100931 0.645054 0.644882 -0.397297
1305031938.667115 0.74028 0.711758 -0.222941 0.100931 0.645054 0.644882 -0.397297
1305031938.699613 0.732598 0.701942 -0.224344 0.0912052 0.649038 0.638724 -0.403067
1305031938.735353 0.726642 0.691603 -0.229996 0.0795978 0.65344 0.631433 -0.409845
1305031938.767438 0.721093 0.680515 -0.236629 0.0671035 0.657891 0.623357 -0.417256
1305031938.799553 0.71973 0.670331 -0.241328 0.0525632 0.663217 0.614699 -0.423704
1305031938.835081 0.716045 0.659277 -0.248726 0.0377846 0.668197 0.605882 -0.430107
1305031938.867115 0.714572 0.649338 -0.253582 0.02281 0.673533 0.595853 -0.436798
1305031938.899948 0.714241 0.641728 -0.255548 0.00792071 0.678683 0.584541 -0.444566
1305031938.935595 0.71164 0.630488 -0.259823 -0.00510696 0.683124 0.573211 -0.452487
1305031938.967685 0.708535 0.617483 -0.267084 -0.015627 0.687304 0.561468 -0.460568
1305031939.000242 0.705801 0.603164 -0.275942 -0.0247297 0.69118 0.550764 -0.467246
1305031939.035825 0.70428 0.591322 -0.283622 -0.0327012 0.694517 0.541707 -0.472367
1305031939.067934 0.703722 0.581086 -0.289169 -0.039933 0.698383 0.532368 -0.476708
1305031939.099862 0.703263 0.57017 -0.29329 -0.0460257 0.702883 0.522125 -0.480857
1305031939.135566 0.702286 0.557891 -0.298205 -0.0514349 0.707276 0.511796 -0.484954
1305031939.167694 0.702143 0.546705 -0.30029 -0.0589602 0.713176 0.500041 -0.487711
1305031939.200214 0.70145 0.533632 -0.307572 -0.0662143 0.718633 0.488913 -0.490047
1305031939.235712 0.701301 0.52117 -0.315244 -0.0730576 0.724013 0.4775 -0.492404
1305031939.267640 0.700441 0.508669 -0.320788 -0.0790285 0.73032 0.464474 -0.494623
1305031939.300206 0.70035 0.497338 -0.325253 -0.0876228 0.736058 0.452472 -0.495792
1305031939.335053 0.700914 0.486731 -0.329889 -0.0975436 0.742181 0.437998 -0.497805
1305031939.367490 0.701801 0.47712 -0.333317 -0.107434 0.74898 0.42131 -0.499984
1305031939.399885 0.70346 0.466652 -0.338546 0.118954 -0.755821 -0.403536 0.50174
1305031939.435410 0.705182 0.456812 -0.341655 0.127058 -0.762053 -0.388184 0.502439
1305031939.467647 0.706892 0.449114 -0.343969 0.132066 -0.767287 -0.375597 0.502748
1305031939.499844 0.708064 0.440063 -0.346081 0.136203 -0.772079 -0.365608 0.501671
1305031939.535364 0.708568 0.430474 -0.346336 0.138303 -0.776694 -0.357087 0.500107
1305031939.567564 0.708322 0.418638 -0.348156 -0.142063 0.779207 0.350472 -0.499824
1305031939.600160 0.709079 0.40828 -0.348846 0.145423 -0.780724 -0.343917 0.501043
1305031939.635762 0.709918 0.399204 -0.347208 0.146731 -0.782049 -0.337696 0.502823
1305031939.667415 0.71017 0.390662 -0.343719 0.146369 -0.783489 -0.331452 0.504837
1305031939.700124 0.712529 0.385656 -0.343717 0.145896 -0.783151 -0.327485 0.508078
1305031939.735464 0.71193 0.379808 -0.338953 0.143603 -0.782419 -0.324039 0.512052
1305031939.767882 0.710166 0.371774 -0.336098 0.141588 -0.780567 -0.32206 0.516668
1305031939.803685 0.707648 0.365188 -0.329874 0.140527 -0.77816 -0.320153 0.521747
1305031939.835759 0.705587 0.360271 -0.324081 0.139515 -0.77345 -0.318459 0.529996
1305031939.863918 0.702825 0.355195 -0.317113 0.13738 -0.768024 -0.315622 0.540045
1305031939.903642 0.700081 0.3511 -0.310273 0.136252 -0.761941 -0.313094 0.550322
1305031939.936002 0.697284 0.350727 -0.300858 0.134715 -0.755242 -0.31116 0.560929
1305031939.967674 0.692988 0.351957 -0.289601 0.132333 -0.746736 -0.31298 0.571767
1305031940.005613 0.688294 0.352277 -0.28476 0.130102 -0.735293 -0.318875 0.583726
1305031940.031897 0.682638 0.353663 -0.277072 0.126097 -0.724489 -0.321952 0.59629
1305031940.067499 0.677537 0.355191 -0.273759 0.126537 -0.712223 -0.327062 0.608076
1305031940.104322 0.671196 0.353518 -0.272825 0.128857 -0.700412 -0.329961 0.619633
1305031940.135843 0.664287 0.352698 -0.270907 0.13539 -0.688983 -0.331325 0.630235
1305031940.168748 0.657801 0.353122 -0.270468 0.14102 -0.678461 -0.331473 0.640258
1305031940.200119 0.652792 0.357535 -0.269348 0.142959 -0.669692 -0.328025 0.65075
1305031940.235303 0.647383 0.363873 -0.268363 0.141439 -0.662582 -0.323889 0.66036
1305031940.267548 0.639743 0.366668 -0.26518 0.138313 -0.655344 -0.320976 0.669603
1305031940.300057 0.631569 0.369928 -0.263298 0.135883 -0.646061 -0.317672 0.680607
1305031940.335962 0.622109 0.372645 -0.259189 0.132631 -0.634512 -0.311925 0.694627
1305031940.367240 0.617437 0.38241 -0.258879 0.132287 -0.619595 -0.308518 0.70952
1305031940.403701 0.610217 0.388198 -0.258386 0.126068 -0.602005 -0.306144 0.726618
1305031940.435753 0.605211 0.396113 -0.256637 0.12036 -0.584771 -0.301871 0.743257
1305031940.467066 0.601111 0.40575 -0.252832 0.114767 -0.568792 -0.296519 0.758538
1305031940.503814 0.595812 0.416062 -0.249901 0.109014 -0.553869 -0.290994 0.772443
1305031940.535239 0.592521 0.428607 -0.245617 0.107267 -0.541715 -0.285773 0.783181
1305031940.566964 0.588803 0.440311 -0.241704 0.104624 -0.531195 -0.28221 0.791987
1305031940.603395 0.583564 0.447623 -0.240082 0.102131 -0.520923 -0.280966 0.799541
1305031940.635226 0.576594 0.450145 -0.238529 0.10243 -0.510939 -0.278733 0.806696
1305031940.666993 0.571784 0.454912 -0.236112 0.103568 -0.499737 -0.274431 0.814999
1305031940.703234 0.56647 0.454373 -0.231282 0.102698 -0.489967 -0.271174 0.822101
1305031940.735222 0.560026 0.457432 -0.226383 0.104212 -0.479757 -0.270974 0.827977
1305031940.766929 0.555453 0.464828 -0.220791 0.104475 -0.470337 -0.267861 0.834337
1305031940.803100 0.550789 0.470365 -0.219804 0.102636 -0.460805 -0.266631 0.840258
1305031940.835097 0.543502 0.471361 -0.216105 0.0998324 -0.451692 -0.267141 0.845366
1305031940.867019 0.536077 0.475747 -0.210708 0.0973517 -0.442959 -0.268811 0.849736
1305031940.903314 0.528124 0.483316 -0.204298 0.0950976 -0.433427 -0.274781 0.852991
1305031940.935305 0.520498 0.490919 -0.195785 0.0927859 -0.42422 -0.279873 0.856212
1305031940.967150 0.511883 0.497271 -0.187094 0.0896392 -0.414777 -0.284373 0.859684
1305031941.003186 0.502766 0.502131 -0.178404 0.0863764 -0.405442 -0.287469 0.863434
1305031941.035260 0.492949 0.506261 -0.170109 0.084755 -0.397283 -0.291418 0.866059
1305031941.071076 0.485401 0.512795 -0.159259 0.0835811 -0.391355 -0.294268 0.867907
1305031941.103456 0.474302 0.516407 -0.149856 0.081221 -0.386079 -0.297657 0.869336
1305031941.135554 0.463646 0.520623 -0.139304 0.079231 -0.380368 -0.300311 0.871123
1305031941.171171 0.452146 0.523222 -0.129635 0.0759015 -0.373769 -0.300035 0.874365
1305031941.203532 0.439306 0.523968 -0.121179 0.0727373 -0.367498 -0.29768 0.878089
1305031941.235196 0.427713 0.526055 -0.111844 0.0725103 -0.360392 -0.295678 0.881723
1305031941.271139 0.413189 0.528025 -0.104407 0.0716053 -0.351432 -0.292034 0.886614
1305031941.303377 0.397108 0.528078 -0.097426 0.0701398 -0.342177 -0.286946 0.891996
1305031941.335303 0.383711 0.527436 -0.0883445 0.0702027 -0.332453 -0.28172 0.897318
1305031941.371617 0.367749 0.531713 -0.0830339 0.0681684 -0.321798 -0.271883 0.904367
1305031941.403877 0.353678 0.534363 -0.0763764 0.0624102 -0.314727 -0.261332 0.910361
1305031941.435687 0.340259 0.535809 -0.0696708 0.0542164 -0.308346 -0.249549 0.916356
1305031941.469619 0.326373 0.536523 -0.0629866 0.0455084 -0.304074 -0.232612 0.922691
1305031941.501518 0.313392 0.539665 -0.0570279 0.038325 -0.300587 -0.217491 0.927834
1305031941.534653 0.302647 0.535258 -0.0482954 0.0318986 -0.295659 -0.209522 0.931488
1305031941.570302 0.291601 0.531747 -0.0399948 0.0297785 -0.286622 -0.204763 0.935432
1305031941.603072 0.285834 0.532567 -0.0297838 0.0298069 -0.275334 -0.199345 0.939981
1305031941.635675 0.276963 0.535346 -0.0231389 0.0275674 -0.261639 -0.194572 0.944948
1305031941.671562 0.265701 0.536804 -0.0168187 0.0230251 -0.247701 -0.189326 0.949879
1305031941.703773 0.250752 0.533283 -0.0122094 0.0193486 -0.235117 -0.181849 0.954608
1305031941.735592 0.238439 0.533278 -0.00687704 0.020433 -0.225009 -0.177624 0.957811
1305031941.767812 0.226738 0.538195 -0.00163821 0.0218691 -0.215267 -0.176691 0.960188
1305031941.800828 0.213138 0.539992 0.00366513 0.0223417 -0.206813 -0.177299 0.961922
1305031941.832014 0.19899 0.540597 0.00916919 0.0246017 -0.199442 -0.179109 0.963088
1305031941.871824 0.183939 0.545634 0.0134217 0.0287036 -0.193165 -0.179341 0.96421
1305031941.903043 0.168255 0.544899 0.0186259 0.0320513 -0.188315 -0.178626 0.965196
1305031941.935190 0.152341 0.549582 0.0222892 0.0396069 -0.183733 -0.176626 0.966166
1305031941.971085 0.137079 0.555532 0.0258621 0.0467221 -0.179582 -0.173712 0.967156
1305031942.003159 0.123178 0.559083 0.0296766 0.0536997 -0.176191 -0.170075 0.968064
1305031942.035444 0.108219 0.565022 0.0323835 0.0598096 -0.173407 -0.167375 0.968679
1305031942.071092 0.0936081 0.573001 0.03444 0.0659881 -0.174013 -0.165269 0.96853
1305031942.099769 0.0813147 0.586739 0.0389812 0.0681555 -0.174589 -0.16763 0.967871
1305031942.135205 0.0669181 0.594462 0.0435846 0.0611453 -0.171707 -0.170869 0.968288
1305031942.170762 0.051657 0.596475 0.0480919 0.057536 -0.168071 -0.174212 0.968551
1305031942.203125 0.040267 0.605999 0.0526505 0.0568878 -0.164384 -0.177178 0.968684
1305031942.239026 0.0283602 0.611679 0.0577304 0.0516971 -0.159814 -0.17949 0.969314
1305031942.271143 0.0188489 0.619032 0.0639806 0.0502469 -0.155391 -0.181203 0.969791
1305031942.303198 0.0108225 0.632788 0.0692753 0.0446659 -0.150161 -0.181216 0.970885
1305031942.335609 0.00074144 0.636064 0.0758119 0.035329 -0.146897 -0.180138 0.971969
1305031942.370779 -0.00784941 0.645982 0.0813267 0.0290804 -0.144564 -0.178327 0.972859
1305031942.402950 -0.0173665 0.650648 0.0867198 0.0194296 -0.143625 -0.177926 0.973312
1305031942.439272 -0.0277114 0.650551 0.092732 0.0129101 -0.144468 -0.181379 0.972658
1305031942.472314 -0.0360487 0.649209 0.0995821 0.0130881 -0.146466 -0.183563 0.971947
1305031942.503687 -0.0424864 0.65537 0.105348 0.0159399 -0.146342 -0.184295 0.971785
1305031942.539471 -0.0500163 0.655923 0.110489 0.0145365 -0.146986 -0.182427 0.972062
1305031942.571873 -0.0573377 0.656398 0.11709 0.0162002 -0.150151 -0.183082 0.971428
1305031942.601458 -0.064185 0.658431 0.122983 0.0173079 -0.154277 -0.184011 0.970587
1305031942.639952 -0.0700336 0.661142 0.129529 0.0182241 -0.158236 -0.185072 0.969731
1305031942.667679 -0.0750696 0.663469 0.137249 0.0175145 -0.162512 -0.188578 0.96836
1305031942.704026 -0.0823217 0.664179 0.144085 0.0129581 -0.16653 -0.193685 0.96674
1305031942.739823 -0.0885836 0.663532 0.152601 0.00959639 -0.16947 -0.200037 0.964973
1305031942.771728 -0.0950329 0.661609 0.160378 0.00540543 -0.170398 -0.203717 0.964072
1305031942.801585 -0.0997649 0.65887 0.168416 0.00355266 -0.170913 -0.205964 0.963512
1305031942.841069 -0.106076 0.657364 0.175976 0.00256103 -0.169706 -0.208158 0.963257
1305031942.867914 -0.113851 0.653973 0.181725 -0.0010784 -0.170094 -0.209161 0.962974
1305031942.903971 -0.119262 0.65146 0.189413 -0.00348448 -0.173411 -0.211155 0.961941
1305031942.936255 -0.124395 0.649455 0.196233 -0.00699677 -0.176489 -0.212624 0.961038
1305031942.970947 -0.129067 0.643199 0.204173 -0.00864438 -0.178614 -0.215635 0.95996
1305031943.001126 -0.133076 0.63966 0.209956 -0.00859807 -0.178612 -0.217699 0.959495
1305031943.039973 -0.140195 0.631756 0.214707 -0.00900513 -0.180519 -0.221077 0.958362
1305031943.071764 -0.142291 0.629168 0.221065 -0.00720487 -0.185263 -0.223856 0.956825
1305031943.104196 -0.142527 0.62432 0.229041 -0.00833841 -0.189322 -0.226607 0.955373
1305031943.139631 -0.146191 0.615335 0.235977 -0.0101922 -0.191574 -0.227537 0.954684
1305031943.171931 -0.147583 0.607801 0.242826 -0.0108067 -0.193162 -0.225527 0.954835
1305031943.201583 -0.150817 0.598323 0.248241 -0.0121018 -0.193526 -0.223102 0.955315
1305031943.240026 -0.152851 0.586092 0.254709 -0.0126384 -0.194227 -0.222176 0.955382
1305031943.272012 -0.154723 0.572964 0.260547 -0.0134955 -0.194357 -0.220378 0.95576
1305031943.303977 -0.159122 0.554235 0.266112 -0.0139445 -0.195035 -0.219111 0.955906
1305031943.339953 -0.16159 0.535393 0.271386 -0.0109266 -0.19788 -0.218878 0.955414
1305031943.371795 -0.164928 0.519314 0.274606 -0.00572382 -0.199928 -0.216822 0.955502
1305031943.404597 -0.164677 0.503379 0.278414 1.48549e-06 -0.203068 -0.213938 0.955507
1305031943.440230 -0.166007 0.485373 0.281755 0.0051314 -0.205951 -0.210896 0.955553
1305031943.471442 -0.163116 0.469812 0.285321 0.0134749 -0.209568 -0.209762 0.954934
1305031943.509496 -0.160411 0.457418 0.287684 0.0195481 -0.210818 -0.20867 0.954793
1305031943.539543 -0.161193 0.439369 0.289359 0.023673 -0.211426 -0.207017 0.954926
1305031943.570040 -0.158303 0.423973 0.290951 0.0298545 -0.213011 -0.205119 0.954809
1305031943.607498 -0.154257 0.411075 0.292157 0.0331698 -0.21367 -0.202958 0.955015
1305031943.638034 -0.150718 0.399785 0.292246 0.0327481 -0.212959 -0.202249 0.955338
1305031943.671539 -0.153381 0.382612 0.291288 0.031519 -0.209923 -0.203509 0.955784
1305031943.707262 -0.156101 0.364468 0.289092 0.0367166 -0.208245 -0.203857 0.955891
1305031943.739461 -0.156519 0.348348 0.285898 0.0474731 -0.208995 -0.20398 0.955228
1305031943.771360 -0.155063 0.338289 0.283951 0.0562087 -0.209852 -0.204847 0.95438
1305031943.806840 -0.156172 0.326552 0.281179 0.0618363 -0.211146 -0.206885 0.953306
1305031943.837771 -0.157422 0.314459 0.278328 0.0663687 -0.21243 -0.208761 0.952306
1305031943.867799 -0.161708 0.30095 0.275222 0.0707914 -0.214351 -0.211553 0.95094
1305031943.907228 -0.166226 0.286607 0.270566 0.0791717 -0.217723 -0.213223 0.949139
1305031943.935818 -0.17069 0.276974 0.267079 0.0866164 -0.221305 -0.21351 0.947594
1305031943.971293 -0.175705 0.26128 0.262869 0.0955527 -0.226392 -0.212138 0.94584
1305031944.007774 -0.175888 0.25266 0.259709 0.106801 -0.227816 -0.210698 0.944616
1305031944.040559 -0.175907 0.24499 0.258195 0.115365 -0.225171 -0.206581 0.945153
1305031944.070907 -0.17753 0.23748 0.254681 0.127751 -0.219862 -0.199778 0.946271
1305031944.107412 -0.178337 0.229334 0.250544 0.138523 -0.212766 -0.192931 0.947797
1305031944.139679 -0.177933 0.222461 0.246642 0.147611 -0.207219 -0.183987 0.949431
1305031944.171401 -0.177753 0.219355 0.243112 0.155694 -0.203229 -0.175792 0.950555
1305031944.207026 -0.175906 0.216972 0.239861 0.162164 -0.200327 -0.169468 0.951237
1305031944.239359 -0.174704 0.213947 0.23565 0.16496 -0.197916 -0.164248 0.952176
1305031944.270986 -0.170884 0.21045 0.232342 0.167461 -0.195386 -0.159888 0.953004
1305031944.306965 -0.168418 0.208673 0.229063 0.169545 -0.190638 -0.154711 0.954451
1305031944.339327 -0.164279 0.206626 0.223946 0.171457 -0.184071 -0.148272 0.956418
1305031944.370764 -0.155704 0.208483 0.222239 0.174078 -0.176741 -0.140769 0.958459
1305031944.406240 -0.148995 0.209905 0.219559 0.174433 -0.169536 -0.131388 0.961024
1305031944.438740 -0.140498 0.213851 0.218125 0.173733 -0.161097 -0.122059 0.963829
1305031944.471315 -0.13189 0.21682 0.215501 0.1699 -0.147819 -0.10882 0.968216
1305031944.506966 -0.12389 0.214868 0.210181 0.167792 -0.133091 -0.0967239 0.971997
1305031944.539090 -0.116199 0.221506 0.207362 0.168411 -0.118062 -0.0868309 0.974761
1305031944.571543 -0.115692 0.227714 0.201138 0.165386 -0.10339 -0.0780264 0.977686
1305031944.607255 -0.107253 0.232168 0.197721 0.161048 -0.0926626 -0.0728346 0.979884
1305031944.639988 -0.0981809 0.23503 0.195477 0.154916 -0.0821959 -0.0693544 0.982056
1305031944.671797 -0.0891216 0.239846 0.193238 0.148954 -0.0713495 -0.0678082 0.983933
1305031944.707795 -0.0781071 0.246722 0.192358 0.141272 -0.0585631 -0.0663912 0.986004
1305031944.739963 -0.0710685 0.245392 0.189534 0.132578 -0.0429532 -0.059234 0.988468
1305031944.780883 -0.0620629 0.246373 0.187047 0.130096 -0.0288744 -0.0543807 0.989588
1305031944.807934 -0.055044 0.250806 0.185964 0.127899 -0.0159944 -0.0515275 0.990319
1305031944.839961 -0.0481697 0.255472 0.184739 0.123685 -0.00688376 -0.0487209 0.991101
1305031944.875727 -0.040741 0.257199 0.184388 0.117646 -6.03084e-05 -0.0439038 0.992085
1305031944.903822 -0.0321054 0.257866 0.182911 0.113704 0.00611396 -0.0399554 0.992692
1305031944.939709 -0.0256043 0.259881 0.182454 0.109833 0.0142516 -0.0391605 0.993076
1305031944.979551 -0.0190663 0.255296 0.181132 0.105676 0.0223297 -0.0357204 0.993508
1305031945.007456 -0.0137431 0.241734 0.178035 0.108398 0.0282658 -0.0259267 0.993367
1305031945.039953 -0.00769973 0.229354 0.174224 0.122687 0.031986 -0.0174951 0.991775
1305031945.079450 -0.00410104 0.23048 0.172348 0.143876 0.0332658 -0.0108324 0.988977
1305031945.107554 0.00190058 0.225262 0.16814 0.159685 0.030225 -0.00375399 0.986698
1305031945.135938 0.00653785 0.219568 0.163468 0.181545 0.0274978 -0.00220045 0.982996
1305031945.179287 0.00980325 0.216146 0.159564 0.200764 0.025455 -0.00308132 0.979304
1305031945.207131 0.01323 0.212357 0.155171 0.218362 0.0228732 -0.00545718 0.975584
1305031945.238880 0.0167146 0.21709 0.154117 0.232922 0.0253096 -0.013499 0.972072
1305031945.276136 0.0238546 0.213186 0.150428 0.238896 0.0299419 -0.018759 0.970402
1305031945.306364 0.0307147 0.211158 0.148248 0.245007 0.0313777 -0.0179263 0.968848
1305031945.338954 0.0363316 0.203305 0.142665 0.254433 0.029747 -0.0163369 0.966495
1305031945.374695 0.0414107 0.199786 0.139834 0.263561 0.0254715 -0.0153294 0.964185
1305031945.406595 0.0490304 0.195543 0.136645 0.270669 0.0185802 -0.0137081 0.962395
1305031945.435557 0.0558904 0.189431 0.131376 0.281833 0.0118547 -0.0159929 0.959257
1305031945.477504 0.0644221 0.187288 0.127796 0.294443 0.00777934 -0.0210147 0.955406
1305031945.506448 0.0767342 0.187464 0.127621 0.301088 0.00603895 -0.0264895 0.953209
1305031945.538432 0.0858218 0.180403 0.122274 0.305378 0.00710847 -0.0311145 0.951696
1305031945.575422 0.0958681 0.177805 0.119674 0.313389 0.0130522 -0.0349118 0.948893
1305031945.606045 0.103773 0.1813 0.12204 0.316396 0.0209189 -0.0329339 0.947824
1305031945.638328 0.115837 0.183653 0.125224 0.316054 0.0248571 -0.0289776 0.947973
1305031945.677317 0.128168 0.187923 0.129337 0.314528 0.026867 -0.0284534 0.948441
1305031945.706227 0.138974 0.194213 0.134215 0.310097 0.0292145 -0.0275473 0.949856
1305031945.738707 0.150999 0.199068 0.137504 0.305581 0.0317154 -0.0270397 0.951253
1305031945.772817 0.162928 0.204127 0.142602 0.299735 0.0371203 -0.0272002 0.952912
1305031945.806249 0.174448 0.211177 0.147403 0.289397 0.043139 -0.0240692 0.955934
1305031945.838302 0.184475 0.216955 0.149969 0.278003 0.0479727 -0.0212614 0.959146
1305031945.877342 0.196825 0.228155 0.154109 0.265515 0.0526891 -0.0183005 0.962492
1305031945.909465 0.208628 0.239502 0.158403 0.247865 0.0577621 -0.0133837 0.966978
1305031945.935652 0.221943 0.248926 0.160218 0.230948 0.0641854 -0.00861245 0.970809
1305031945.977263 0.231747 0.255848 0.163067 0.214699 0.0734469 -0.00229131 0.973912
1305031946.005994 0.243559 0.264733 0.164772 0.197867 0.0837747 0.00475114 0.976631
1305031946.043263 0.252789 0.269813 0.165777 0.181 0.0947736 0.0115859 0.978837
1305031946.075402 0.263455 0.274991 0.164745 0.167982 0.103513 0.0185804 0.980164
1305031946.107156 0.27245 0.281291 0.163315 0.157769 0.112077 0.0262322 0.980744
1305031946.147686 0.281836 0.284724 0.159599 0.149154 0.118778 0.0316511 0.981144
1305031946.175861 0.29009 0.291474 0.15593 0.144689 0.123991 0.0332446 0.981115
1305031946.207053 0.296157 0.299101 0.15333 0.1395 0.1288 0.0360679 0.981147
1305031946.247192 0.303534 0.306674 0.147565 0.132263 0.131773 0.040052 0.9816
1305031946.276972 0.307106 0.314729 0.141993 0.125135 0.131893 0.0420134 0.982436
1305031946.306937 0.308942 0.324379 0.135528 0.117955 0.12842 0.0409358 0.983829
1305031946.347086 0.308469 0.333366 0.127914 0.109437 0.123344 0.0384341 0.985562
1305031946.378747 0.308801 0.344169 0.118447 0.101754 0.119396 0.035439 0.986983
1305031946.406531 0.307769 0.353106 0.107617 0.0936843 0.117066 0.0332539 0.988136
1305031946.447353 0.305907 0.362697 0.0955304 0.0885192 0.114437 0.0322291 0.988954
1305031946.473076 0.305379 0.375419 0.0817099 0.0859752 0.111161 0.0326564 0.989538
1305031946.506597 0.303917 0.38694 0.0684506 0.0828377 0.107803 0.0328825 0.990169
1305031946.546018 0.303353 0.396621 0.0536137 0.0793075 0.105417 0.0334795 0.990695
1305031946.577280 0.303567 0.408406 0.0385801 0.0782634 0.104919 0.0349785 0.990779
1305031946.606485 0.303412 0.421358 0.0245902 0.0777425 0.106511 0.0368634 0.990582
1305031946.645981 0.30113 0.43224 0.0102621 0.0771288 0.110783 0.0392341 0.99007
1305031946.678050 0.299536 0.444818 -0.0038292 0.0778917 0.11613 0.0405406 0.989345
1305031946.706532 0.297696 0.455358 -0.0180883 0.077782 0.121798 0.0403106 0.988681
1305031946.743717 0.295027 0.46857 -0.0313504 0.0782149 0.126628 0.0394706 0.988074
1305031946.774660 0.294073 0.48069 -0.0454969 0.075334 0.12901 0.0386849 0.988021
1305031946.806659 0.294439 0.489515 -0.0600781 0.0705045 0.131756 0.038995 0.988002
1305031946.842679 0.293064 0.498255 -0.0737005 0.0672359 0.134775 0.0404366 0.987765
1305031946.874721 0.292079 0.504091 -0.0882925 0.064432 0.136852 0.0409349 0.987646
1305031946.906633 0.290982 0.511359 -0.102307 0.0648346 0.13588 0.0407542 0.987761
1305031946.942686 0.290835 0.521985 -0.115877 0.0660473 0.131951 0.0414457 0.988185
1305031946.974825 0.292917 0.53262 -0.129274 0.063935 0.128431 0.0412126 0.988797
1305031947.006833 0.294776 0.539759 -0.141262 0.0589214 0.125617 0.0405838 0.989496
1305031947.042914 0.295409 0.544683 -0.151994 0.0555886 0.12223 0.040693 0.990108
1305031947.074589 0.300681 0.552747 -0.163598 0.0541093 0.120297 0.0397284 0.990466
1305031947.106663 0.305869 0.556572 -0.174047 0.0536807 0.120918 0.037032 0.990518
1305031947.142937 0.311781 0.567661 -0.183241 0.0562893 0.123314 0.0322321 0.990246
1305031947.174651 0.318754 0.575165 -0.190695 0.055525 0.126975 0.0337385 0.989776
1305031947.210803 0.328524 0.578712 -0.197134 0.0540467 0.127691 0.0350976 0.989718
1305031947.242625 0.336049 0.583683 -0.20153 0.0543309 0.128296 0.0343684 0.98965
1305031947.274786 0.345627 0.590035 -0.205282 0.0532385 0.126723 0.0298926 0.990057
1305031947.309122 0.355969 0.599117 -0.207639 0.0492362 0.123914 0.0254183 0.990745
1305031947.339718 0.368014 0.599384 -0.208487 0.0408714 0.121058 0.0231566 0.991533
1305031947.373087 0.381739 0.59785 -0.210191 0.0348974 0.116785 0.0155621 0.992422
1305031947.407848 0.395006 0.599835 -0.210553 0.0330063 0.11234 0.00639153 0.993101
1305031947.442996 0.408658 0.601042 -0.210819 0.0318621 0.106964 0.00300513 0.993748
1305031947.475248 0.42308 0.595537 -0.211788 0.0328968 0.100028 0.000125296 0.994441
1305031947.511457 0.438573 0.596284 -0.213264 0.039146 0.0917739 -0.0070947 0.994985
1305031947.543322 0.45529 0.601627 -0.215415 0.0448647 0.0814318 -0.0151613 0.995553
1305031947.572475 0.470353 0.602798 -0.217041 0.0459506 0.0702357 -0.0207471 0.996256
1305031947.611625 0.488208 0.603744 -0.220067 0.0466406 0.0568957 -0.0324847 0.996761
1305031947.643731 0.507307 0.602717 -0.223165 0.0478999 0.0456058 -0.0462676 0.996737
1305031947.675360 0.524624 0.602015 -0.226472 0.0517254 0.035429 -0.0557465 0.996475
1305031947.711025 0.539857 0.601899 -0.229975 0.057503 0.0233899 -0.0669357 0.995824
1305031947.743304 0.55906 0.604563 -0.234046 0.0648015 0.0106936 -0.0827237 0.994406
1305031947.775461 0.57604 0.603371 -0.237273 0.071746 1.33657e-05 -0.0961508 0.992778
1305031947.811424 0.598714 0.612925 -0.240713 0.0810113 -0.00882434 -0.107766 0.990831
1305031947.841415 0.616018 0.611272 -0.243118 0.0824452 -0.0150015 -0.116036 0.989704
1305031947.875442 0.632848 0.613461 -0.245545 0.0883765 -0.0228845 -0.127659 0.987608
1305031947.911295 0.651411 0.621224 -0.246593 0.0921071 -0.0302429 -0.138836 0.985559
1305031947.943516 0.665738 0.619647 -0.24784 0.0924295 -0.0380065 -0.148451 0.983857
1305031947.975273 0.682614 0.625178 -0.247135 0.0940127 -0.0457966 -0.156893 0.982064
1305031948.011498 0.697368 0.624823 -0.24666 0.0908193 -0.0514959 -0.163242 0.981046
1305031948.043239 0.711321 0.621051 -0.247017 0.0887483 -0.0573004 -0.169026 0.979934
1305031948.075218 0.728375 0.618864 -0.246374 0.0909363 -0.0619326 -0.171857 0.978959
1305031948.111315 0.74541 0.617781 -0.24547 0.0932199 -0.0653096 -0.174773 0.978008
1305031948.143226 0.757903 0.618192 -0.244006 0.0948988 -0.0696447 -0.176085 0.977312
1305031948.175007 0.769447 0.614587 -0.242317 0.0951 -0.0755769 -0.178947 0.976331
1305031948.211235 0.782264 0.612279 -0.238747 0.0973149 -0.0827155 -0.184522 0.974495
1305031948.243210 0.796212 0.611435 -0.233909 0.0990255 -0.089493 -0.191024 0.972468
1305031948.275446 0.8096 0.608403 -0.229192 0.0982021 -0.0967306 -0.195134 0.971042
1305031948.311425 0.825441 0.604843 -0.222387 0.0980666 -0.10546 -0.197599 0.969647
1305031948.343521 0.844765 0.601468 -0.213703 0.0977127 -0.110431 -0.198134 0.96902
1305031948.375447 0.86285 0.593868 -0.204313 0.0944485 -0.110789 -0.198547 0.969218
1305031948.411285 0.879981 0.586301 -0.195636 0.0929525 -0.109555 -0.198946 0.969421
1305031948.443647 0.899574 0.58299 -0.184927 0.0911517 -0.10787 -0.199774 0.969611
1305031948.480437 0.91451 0.572245 -0.174079 0.0839943 -0.105148 -0.198771 0.970762
1305031948.514284 0.929057 0.562402 -0.163904 0.0789253 -0.10455 -0.198438 0.97132
1305031948.542869 0.946266 0.55227 -0.153607 0.0741604 -0.103764 -0.199833 0.971494
1305031948.580687 0.946266 0.55227 -0.153607 0.0741604 -0.103764 -0.199833 0.971494
1305031948.611060 0.946266 0.55227 -0.153607 0.0741604 -0.103764 -0.199833 0.971494
1305031948.644895 0.962462 0.54253 -0.145108 0.0707866 -0.0992838 -0.204432 0.971257
1305031948.681662 0.975501 0.531624 -0.137038 0.0682384 -0.0951109 -0.208018 0.971095
1305031948.714453 0.992566 0.525711 -0.128505 0.0677714 -0.0906873 -0.213589 0.970341
1305031948.746432 1.00863 0.517187 -0.120045 0.0643987 -0.0850016 -0.216742 0.970387
1305031948.780858 1.02411 0.510403 -0.111536 0.0619098 -0.0817638 -0.215588 0.971084
1305031948.812389 1.04224 0.504668 -0.102349 0.0579792 -0.0789003 -0.213859 0.971945
1305031948.841687 1.05712 0.49822 -0.0933866 0.0521854 -0.0741778 -0.210297 0.973422
1305031948.880529 1.05712 0.49822 -0.0933866 0.0521854 -0.0741778 -0.210297 0.973422
1305031948.915493 1.05712 0.49822 -0.0933866 0.0521854 -0.0741778 -0.210297 0.973422
1305031948.943231 1.07116 0.491887 -0.0836891 0.0409445 -0.0728766 -0.205483 0.975084
1305031948.979038 1.08562 0.491333 -0.0724687 0.0302522 -0.0729693 -0.202454 0.976101
1305031949.014896 1.09955 0.487586 -0.0604054 0.0128573 -0.0738224 -0.202701 0.97637
1305031949.044596 1.11322 0.483023 -0.0487983 -0.00368058 -0.0735309 -0.204239 0.976149
1305031949.082201 1.12665 0.481815 -0.0367234 -0.0190633 -0.0704234 -0.204979 0.976043
1305031949.114284 1.13488 0.478191 -0.0252152 -0.0345088 -0.0687647 -0.205151 0.975702
1305031949.144262 1.14596 0.477787 -0.0138905 -0.0497582 -0.0725117 -0.206657 0.974453
1305031949.180779 1.15474 0.474836 -0.00355433 -0.06351 -0.0772168 -0.210733 0.972417
1305031949.214247 1.16504 0.473328 0.00602455 -0.074483 -0.0850675 -0.216294 0.969759
1305031949.247701 1.16504 0.473328 0.00602455 -0.074483 -0.0850675 -0.216294 0.969759
1305031949.281444 1.1749 0.470309 0.0143312 -0.0845507 -0.0944206 -0.225077 0.966062
1305031949.311257 1.18484 0.46568 0.0220019 -0.0921501 -0.103476 -0.233554 0.962421
1305031949.341972 1.19433 0.461968 0.0284909 -0.0956076 -0.111576 -0.242169 0.959043
1305031949.380234 1.20517 0.458474 0.034295 -0.100425 -0.118134 -0.252864 0.954997
1305031949.410764 1.21494 0.451774 0.0393452 -0.106204 -0.121223 -0.264806 0.950738
1305031949.443117 1.22433 0.44249 0.0431713 -0.10698 -0.124372 -0.276593 0.946881
1305031949.479260 1.23446 0.434613 0.0450904 -0.105033 -0.129993 -0.285196 0.943786
1305031949.510843 1.24363 0.42563 0.0464057 -0.105858 -0.13611 -0.293319 0.940336
1305031949.541920 1.25209 0.414134 0.0473616 -0.105839 -0.143339 -0.300131 0.937109
1305031949.580836 1.25919 0.401792 0.047127 -0.101171 -0.152135 -0.306014 0.934331
1305031949.614433 1.26582 0.390166 0.0455347 -0.0934102 -0.162036 -0.312372 0.931366
1305031949.646345 1.26982 0.377899 0.0432425 -0.0860329 -0.169806 -0.318639 0.928565
1305031949.680760 1.27251 0.362273 0.0406555 -0.0763631 -0.178137 -0.321947 0.926707
1305031949.714490 1.27788 0.351639 0.037529 -0.0607377 -0.186742 -0.32527 0.925007
1305031949.749412 1.28133 0.340524 0.0340722 -0.0472228 -0.19181 -0.32769 0.923904
1305031949.781235 1.28133 0.340524 0.0340722 -0.0472228 -0.19181 -0.32769 0.923904
1305031949.811436 1.28169 0.327594 0.029777 -0.031682 -0.196739 -0.325344 0.92436
1305031949.845215 1.28264 0.315098 0.0252794 -0.0149812 -0.201346 -0.325346 0.923789
1305031949.880626 1.28187 0.30188 0.0205341 0.000732246 -0.206366 -0.323181 0.923562
1305031949.914703 1.28038 0.288523 0.015303 0.0192336 -0.212278 -0.320855 0.922833
1305031949.948731 1.28269 0.276705 0.0111058 0.0395907 -0.217016 -0.319865 0.921424
1305031949.981207 1.28632 0.26582 0.0069979 0.0590697 -0.217471 -0.318032 0.920909
1305031950.011524 1.28988 0.251862 0.00365027 0.0765022 -0.216605 -0.313203 0.921484
1305031950.047520 1.29236 0.238466 -0.000601915 0.0948141 -0.214729 -0.305698 0.922741
1305031950.080195 1.29515 0.226037 -0.00460798 0.113376 -0.212278 -0.295343 0.924585
1305031950.111190 1.29633 0.213018 -0.00832885 0.130848 -0.209894 -0.283778 0.926441
1305031950.147985 1.29445 0.195271 -0.0144642 0.151056 -0.208644 -0.270905 0.927502
1305031950.181754 1.29779 0.182032 -0.0191413 0.180197 -0.211769 -0.255394 0.92599
1305031950.211149 1.29867 0.167458 -0.024215 0.207203 -0.213082 -0.240225 0.924097
1305031950.247238 1.29716 0.145924 -0.0331082 0.233211 -0.212112 -0.229449 0.920855
1305031950.279213 1.29861 0.127308 -0.0390974 0.25635 -0.210934 -0.223137 0.916516
1305031950.307722 1.30087 0.112877 -0.0442422 0.27457 -0.208913 -0.218629 0.91278
1305031950.346992 1.29963 0.0981748 -0.0510445 0.291011 -0.205876 -0.215532 0.909106
1305031950.378386 1.29793 0.0859323 -0.0563911 0.308658 -0.205028 -0.212452 0.904189
1305031950.410330 1.29676 0.0809923 -0.0597495 0.32718 -0.205705 -0.209651 0.898157
1305031950.447451 1.29259 0.0707662 -0.067101 0.341715 -0.20847 -0.208112 0.892446
1305031950.478952 1.28933 0.0618127 -0.0719849 0.354705 -0.213028 -0.207672 0.886384
1305031950.510402 1.29014 0.0538961 -0.0760245 0.364572 -0.216718 -0.208538 0.881268
1305031950.546397 1.2927 0.0536421 -0.0727216 0.371215 -0.219268 -0.206936 0.878236
1305031950.578462 1.29643 0.052224 -0.0675744 0.373423 -0.220544 -0.203826 0.877708
1305031950.610212 1.30059 0.0553316 -0.0564192 0.374468 -0.219762 -0.200622 0.878197
1305031950.646840 1.30971 0.0588547 -0.0441917 0.370933 -0.218954 -0.195328 0.881087
1305031950.678650 1.30992 0.0676702 -0.0303736 0.365467 -0.216744 -0.193546 0.884305
