1305031910.771502 0 0 0 0 0 0 1
1305031910.803249 -0.00863607 -0.00423677 0.00383601 0.00374031 -0.00214782 -0.00793968 0.999959
1305031910.835215 -0.01522 -0.00599221 0.0082 0.00532714 -0.00735172 -0.0141201 0.999859
1305031910.871167 -0.0222285 -0.0100325 0.0129478 0.00590331 -0.0133261 -0.0203733 0.999686
1305031910.903682 -0.0307628 -0.0130341 0.0185646 0.0060545 -0.0207867 -0.0283891 0.999362
1305031910.935221 -0.0384503 -0.0204621 0.0240952 0.00587324 -0.0277411 -0.0362679 0.99894
1305031910.971338 -0.0494911 -0.0253681 0.0295275 0.0102738 -0.0306324 -0.0399809 0.998678
1305031911.003202 -0.0571983 -0.0221613 0.0342276 0.0150239 -0.0375503 -0.0458453 0.998129
1305031911.035056 -0.0684992 -0.0246744 0.0394034 0.0124124 -0.0470684 -0.054425 0.997331
1305031911.074509 -0.0818372 -0.029356 0.0439008 0.0107954 -0.059156 -0.0623516 0.996241
1305031911.103332 -0.094921 -0.0332826 0.047625 0.00846398 -0.0769412 -0.0736757 0.994274
1305031911.135683 -0.108797 -0.0435298 0.0518004 0.00671649 -0.0914907 -0.086067 0.992057
1305031911.171831 -0.120558 -0.0484471 0.0548935 0.00963312 -0.10324 -0.094869 0.990075
1305031911.207568 -0.130308 -0.0490339 0.0572866 0.0127126 -0.115608 -0.102132 0.987948
1305031911.235660 -0.139905 -0.0543885 0.0598819 0.0129466 -0.125946 -0.109179 0.985926
1305031911.268497 -0.148078 -0.0561939 0.0628884 0.0149962 -0.137166 -0.11704 0.983495
1305031911.303504 -0.156926 -0.0600132 0.0665448 0.0145598 -0.146676 -0.126154 0.980999
1305031911.339412 -0.165482 -0.0666794 0.0704229 0.0144856 -0.15565 -0.132231 0.978815
1305031911.371631 -0.173862 -0.0723538 0.0739384 0.0155535 -0.164012 -0.138938 0.976501
1305031911.403484 -0.182782 -0.0771274 0.0776292 0.0182599 -0.168748 -0.144229 0.974879
1305031911.439656 -0.190995 -0.078137 0.0812572 0.0229297 -0.174618 -0.147096 0.973317
1305031911.471398 -0.19967 -0.0769475 0.0844865 0.0258374 -0.181495 -0.147662 0.971899
1305031911.503476 -0.211336 -0.0808091 0.088183 0.0264031 -0.190735 -0.146961 0.970219
1305031911.539636 -0.220398 -0.0828499 0.0927412 0.0280031 -0.202175 -0.146588 0.967912
1305031911.571543 -0.228178 -0.0860008 0.0968796 0.0293442 -0.211871 -0.146549 0.965802
1305031911.603617 -0.238351 -0.0903904 0.100006 0.0323939 -0.222514 -0.146681 0.963287
1305031911.639562 -0.247129 -0.0876064 0.102727 0.037174 -0.233627 -0.151631 0.959711
1305031911.671469 -0.253666 -0.0877728 0.106706 0.0387388 -0.242676 -0.159418 0.956135
1305031911.705153 -0.260027 -0.0879105 0.110807 0.0394616 -0.251617 -0.168257 0.952272
1305031911.739460 -0.266523 -0.0866122 0.115101 0.0397281 -0.259559 -0.177227 0.948494
1305031911.771372 -0.27256 -0.0860203 0.119596 0.0385619 -0.266747 -0.18705 0.944654
1305031911.803540 -0.277912 -0.0846736 0.123636 0.0366455 -0.271981 -0.195294 0.941565
1305031911.839611 -0.282251 -0.0825139 0.127715 0.033776 -0.276863 -0.202751 0.938668
1305031911.871650 -0.288665 -0.0812999 0.130505 0.0288219 -0.283818 -0.209166 0.935343
1305031911.904281 -0.293246 -0.0802187 0.134325 0.0230175 -0.292292 -0.214084 0.931775
1305031911.940338 -0.297159 -0.0800221 0.137533 0.0163656 -0.302556 -0.219178 0.927444
1305031911.972044 -0.301069 -0.0810341 0.141032 0.00868948 -0.315976 -0.225264 0.921597
1305031912.004430 -0.305437 -0.0803688 0.143189 -0.000467886 -0.332526 -0.2307 0.914442
1305031912.040573 -0.308421 -0.0792922 0.145456 -0.0107479 -0.346549 -0.234505 0.908183
1305031912.069771 -0.309118 -0.081428 0.149459 -0.019074 -0.357472 -0.237057 0.903136
1305031912.104327 -0.310696 -0.081116 0.151387 -0.0240588 -0.365237 -0.241338 0.898765
1305031912.139831 -0.312787 -0.0840961 0.153542 -0.0272716 -0.370738 -0.249582 0.894158
1305031912.171439 -0.31546 -0.0872285 0.154178 -0.0259235 -0.376159 -0.259772 0.889017
1305031912.204109 -0.314666 -0.0879046 0.155135 -0.0222057 -0.380459 -0.272936 0.883326
1305031912.239820 -0.315392 -0.0892857 0.155303 -0.0185415 -0.382828 -0.285246 0.878484
1305031912.272101 -0.31547 -0.0938201 0.156012 -0.0149142 -0.384774 -0.295698 0.874236
1305031912.303877 -0.316552 -0.0990887 0.155873 -0.00673717 -0.387348 -0.30263 0.870822
1305031912.340453 -0.315544 -0.102587 0.153448 0.00431535 -0.391715 -0.304406 0.868262
1305031912.371540 -0.313151 -0.105008 0.153691 0.0102455 -0.395867 -0.304929 0.866142
1305031912.403793 -0.313497 -0.108728 0.1526 0.0133042 -0.400932 -0.305573 0.86354
1305031912.438048 -0.311067 -0.110647 0.15351 0.0147369 -0.408404 -0.310609 0.858202
1305031912.472320 -0.311246 -0.112131 0.15255 0.0147567 -0.414749 -0.316917 0.852836
1305031912.508934 -0.308918 -0.110002 0.153504 0.0140058 -0.420755 -0.322359 0.847853
1305031912.540326 -0.306804 -0.112089 0.155776 0.00972725 -0.424966 -0.327099 0.843988
1305031912.572025 -0.30586 -0.113967 0.156775 0.00501769 -0.429717 -0.328673 0.841007
1305031912.607722 -0.303411 -0.115375 0.158361 -8.86672e-05 -0.434817 -0.328844 0.838329
1305031912.637657 -0.30228 -0.117825 0.159574 -0.00343642 -0.438433 -0.329979 0.835989
1305031912.672091 -0.300184 -0.118298 0.160494 -0.00584875 -0.442447 -0.332954 0.832675
1305031912.708413 -0.300173 -0.119614 0.160847 -0.00916025 -0.448265 -0.338213 0.827397
1305031912.740310 -0.299835 -0.119542 0.161161 -0.0115693 -0.455683 -0.344486 0.8207
1305031912.772223 -0.300854 -0.119047 0.160794 -0.0122956 -0.460531 -0.352379 0.81461
1305031912.809603 -0.298686 -0.117305 0.16216 -0.0116795 -0.462214 -0.356121 0.812034
1305031912.840573 -0.297776 -0.119309 0.164465 -0.0129579 -0.460743 -0.359201 0.811494
1305031912.872087 -0.296988 -0.12223 0.166283 -0.0126559 -0.458003 -0.361809 0.811891
1305031912.908080 -0.296346 -0.122991 0.166838 -0.0104898 -0.454245 -0.362532 0.813709
1305031912.940609 -0.293768 -0.124672 0.16801 -0.00878046 -0.449556 -0.361089 0.816968
1305031912.972119 -0.293976 -0.129055 0.167241 -0.00654574 -0.445395 -0.361309 0.819168
1305031913.008923 -0.291975 -0.134262 0.167791 -0.000882421 -0.442828 -0.362717 0.819963
1305031913.040171 -0.287912 -0.136496 0.167889 0.00324821 -0.439872 -0.360433 0.822551
1305031913.072194 -0.284663 -0.137802 0.168998 0.00547782 -0.438561 -0.355865 0.825224
1305031913.108367 -0.28007 -0.139568 0.171462 0.00745723 -0.436091 -0.348317 0.829725
1305031913.137597 -0.273729 -0.13881 0.174577 0.0101137 -0.430189 -0.338828 0.836679
1305031913.172328 -0.267294 -0.138426 0.177598 0.0128697 -0.420991 -0.326559 0.846145
1305031913.208546 -0.258886 -0.138181 0.1819 0.0148941 -0.412157 -0.313663 0.85529
1305031913.240453 -0.252807 -0.138385 0.185646 0.0159537 -0.402471 -0.299352 0.864957
1305031913.272069 -0.244606 -0.137273 0.190088 0.0175198 -0.392439 -0.282808 0.875045
1305031913.308747 -0.236718 -0.136597 0.194021 0.0190001 -0.380693 -0.266623 0.885225
1305031913.340047 -0.228898 -0.136626 0.197287 0.0207795 -0.36735 -0.251679 0.895142
1305031913.372117 -0.221643 -0.135236 0.199734 0.0230679 -0.35476 -0.239524 0.903461
1305031913.408181 -0.215359 -0.133308 0.200819 0.0261944 -0.341383 -0.22863 0.911318
1305031913.440305 -0.207948 -0.129482 0.201465 0.0308558 -0.32638 -0.217959 0.919249
1305031913.472064 -0.198772 -0.125689 0.202167 0.0368756 -0.30796 -0.206141 0.928066
1305031913.508406 -0.186511 -0.123069 0.203621 0.0403641 -0.284094 -0.191435 0.938623
1305031913.538696 -0.176355 -0.119502 0.20201 0.0430079 -0.257929 -0.17399 0.949395
1305031913.568481 -0.168097 -0.113545 0.198477 0.0450746 -0.234297 -0.159222 0.957978
1305031913.607051 -0.16208 -0.1101 0.191983 0.0482974 -0.210473 -0.144192 0.9657
1305031913.637112 -0.148195 -0.101508 0.188668 0.0550239 -0.189441 -0.132568 0.971345
1305031913.671418 -0.134829 -0.0924596 0.184528 0.0559967 -0.168096 -0.119141 0.976941
1305031913.709971 -0.122856 -0.0866161 0.179304 0.0528126 -0.146152 -0.100703 0.982705
1305031913.743396 -0.11109 -0.0798518 0.173906 0.049766 -0.124333 -0.0856031 0.987288
1305031913.778085 -0.0984371 -0.074155 0.167528 0.0444206 -0.102837 -0.071449 0.991134
1305031913.809508 -0.0853079 -0.0689407 0.160245 0.0375737 -0.0839106 -0.0563736 0.994168
1305031913.840405 -0.0734055 -0.0664841 0.153783 0.0297517 -0.0676289 -0.0412585 0.996413
1305031913.876025 -0.0618701 -0.0635374 0.146345 0.0256566 -0.0511722 -0.0248455 0.998051
1305031913.908138 -0.0492807 -0.05816 0.138439 0.022697 -0.0349118 -0.00798859 0.999101
1305031913.939898 -0.0361083 -0.0583816 0.130682 0.0184355 -0.0204689 0.00873915 0.999582
1305031913.977474 -0.022434 -0.0552251 0.121767 0.0182762 -0.00899655 0.0205435 0.999581
1305031914.008756 -0.00917768 -0.0475499 0.113525 0.0189451 0.00278479 0.0320055 0.999304
1305031914.042148 0.00810955 -0.0463721 0.1044 0.0173797 0.0136002 0.0470785 0.998647
1305031914.075482 0.0234518 -0.0379142 0.0947582 0.0201756 0.0247776 0.0595605 0.997713
1305031914.108031 0.0388331 -0.0301966 0.0853133 0.0200516 0.0359039 0.0687978 0.996783
1305031914.142725 0.055795 -0.0252379 0.0757533 0.019709 0.046072 0.0782517 0.995673
1305031914.177921 0.0698221 -0.0191361 0.0663433 0.0214453 0.055808 0.0878268 0.99434
1305031914.207783 0.0857315 -0.012778 0.0561945 0.0236716 0.0652437 0.0941318 0.993138
1305031914.239738 0.0994435 -0.0107802 0.0461194 0.0252371 0.0762674 0.100912 0.991647
1305031914.275498 0.117002 -0.00545342 0.0340237 0.0333122 0.0898714 0.104904 0.989853
1305031914.307439 0.139492 0.00377937 0.0213153 0.0408433 0.10064 0.105081 0.988515
1305031914.339813 0.158938 0.0177029 0.0105891 0.0437905 0.107646 0.103133 0.987855
1305031914.376077 0.179006 0.029064 0.000746154 0.0398636 0.109675 0.100542 0.988066
1305031914.407339 0.197632 0.0370116 -0.00919648 0.0330865 0.108047 0.100228 0.988527
1305031914.439366 0.215958 0.0433784 -0.0191029 0.0274914 0.106214 0.100455 0.988874
1305031914.475929 0.234201 0.051761 -0.0298571 0.0238493 0.105409 0.0998525 0.989116
1305031914.508084 0.252199 0.0605833 -0.0402062 0.0207089 0.106286 0.0965291 0.989422
1305031914.539445 0.270373 0.0700529 -0.0509861 0.0172853 0.10828 0.0924717 0.989659
1305031914.575638 0.289327 0.0771836 -0.0627632 0.0137836 0.108781 0.0887783 0.989998
1305031914.607525 0.307017 0.0889796 -0.0737265 0.0123565 0.109824 0.0840286 0.990316
1305031914.639613 0.323608 0.0990047 -0.083016 0.00774931 0.112529 0.0789755 0.990475
1305031914.675447 0.337122 0.10593 -0.0915874 0.00122398 0.118066 0.0753426 0.990143
1305031914.707659 0.352857 0.110074 -0.100243 -0.00379835 0.123722 0.0758972 0.989403
1305031914.742851 0.369707 0.11718 -0.109855 -0.00459949 0.127708 0.0726834 0.989134
1305031914.776080 0.386088 0.129394 -0.11776 -0.00437263 0.130648 0.069789 0.98896
1305031914.810077 0.401233 0.135839 -0.124963 -0.00891551 0.131536 0.0699864 0.988798
1305031914.839826 0.418866 0.137711 -0.132933 -0.0127155 0.128732 0.0699519 0.989127
1305031914.876190 0.434828 0.141189 -0.140636 -0.0135772 0.125246 0.0673162 0.989746
1305031914.908910 0.449523 0.145343 -0.147552 -0.0136928 0.120578 0.0652378 0.990463
1305031914.938404 0.466054 0.144632 -0.155414 -0.0131867 0.114561 0.0647618 0.991215
1305031914.975628 0.483368 0.149302 -0.163691 -0.00891325 0.107573 0.0608849 0.992291
1305031915.007678 0.502294 0.157125 -0.171846 -0.00592041 0.102643 0.0574615 0.99304
1305031915.044015 0.518132 0.159341 -0.177971 -0.00578026 0.0993127 0.0577342 0.993363
1305031915.073665 0.536359 0.163518 -0.184924 -0.00396618 0.094621 0.0568168 0.993883
1305031915.105907 0.55551 0.165632 -0.191539 -0.00346456 0.0913204 0.053711 0.994366
1305031915.142313 0.572779 0.165697 -0.198035 -0.00170129 0.088411 0.0471657 0.994965
1305031915.173454 0.591823 0.165908 -0.204973 0.00191315 0.0862226 0.037172 0.99558
1305031915.209278 0.607449 0.165806 -0.210717 0.00754699 0.0839735 0.0260406 0.996099
1305031915.244223 0.625368 0.173234 -0.217077 0.014516 0.079438 0.0151155 0.996619
1305031915.276431 0.643049 0.175655 -0.221967 0.0158971 0.0746592 0.00673269 0.99706
1305031915.306226 0.643049 0.175655 -0.221967 0.0158971 0.0746592 0.00673269 0.99706
1305031915.341488 0.643049 0.175655 -0.221967 0.0158971 0.0746592 0.00673269 0.99706
1305031915.373270 0.661271 0.173862 -0.226802 0.0151232 0.0626831 0.000102825 0.997919
1305031915.406736 0.681433 0.173559 -0.231785 0.0144013 0.0507889 -0.00812145 0.998573
1305031915.442726 0.698421 0.167799 -0.235863 0.0118656 0.0397621 -0.0168702 0.998996
1305031915.474257 0.716077 0.164955 -0.240525 0.0121739 0.0286199 -0.0315454 0.999018
1305031915.506429 0.734683 0.166598 -0.244968 0.0116852 0.0152594 -0.0487291 0.998627
1305031915.542700 0.752794 0.163276 -0.24935 0.00727313 0.00173989 -0.060965 0.998112
1305031915.575890 0.771426 0.157138 -0.253946 0.00502941 -0.00873525 -0.0731076 0.997273
1305031915.607095 0.793677 0.154791 -0.258795 0.00496671 -0.014693 -0.0891201 0.9959
1305031915.644456 0.814404 0.151174 -0.262712 0.00454566 -0.0156699 -0.100881 0.994765
1305031915.676911 0.831424 0.145725 -0.265663 0.00554351 -0.0146332 -0.106928 0.994144
1305031915.710920 0.847243 0.1433 -0.267995 0.00893362 -0.0158026 -0.111577 0.99359
1305031915.744275 0.861514 0.143526 -0.269337 0.0106008 -0.0216658 -0.113616 0.993232
1305031915.776046 0.861514 0.143526 -0.269337 0.0106008 -0.0216658 -0.113616 0.993232
1305031915.807068 0.873964 0.137455 -0.268864 0.00432604 -0.0374919 -0.118547 0.992231
1305031915.844882 0.873964 0.137455 -0.268864 0.00432604 -0.0374919 -0.118547 0.992231
1305031915.877002 0.892929 0.140837 -0.269364 0.00409892 -0.0527605 -0.129838 0.990122
1305031915.907069 0.9102 0.138225 -0.268596 -0.000425144 -0.0667049 -0.140534 0.987826
1305031915.944991 0.931303 0.13624 -0.267474 -0.0049126 -0.0798417 -0.151215 0.985259
1305031915.976975 0.931303 0.13624 -0.267474 -0.0049126 -0.0798417 -0.151215 0.985259
1305031916.007650 0.931303 0.13624 -0.267474 -0.0049126 -0.0798417 -0.151215 0.985259
1305031916.044257 0.931303 0.13624 -0.267474 -0.0049126 -0.0798417 -0.151215 0.985259
1305031916.075852 0.931303 0.13624 -0.267474 -0.0049126 -0.0798417 -0.151215 0.985259
1305031916.107904 0.939118 0.124715 -0.269479 0.0101305 -0.0853862 -0.158171 0.983661
1305031916.143770 0.952737 0.116447 -0.272614 0.0298934 -0.097518 -0.16295 0.981348
1305031916.175966 0.967607 0.118081 -0.275889 0.0558557 -0.113643 -0.166638 0.977853
1305031916.213438 0.987441 0.125823 -0.27813 0.0715695 -0.132345 -0.170392 0.973822
1305031916.244817 1.00877 0.117108 -0.281965 0.0772353 -0.151311 -0.176873 0.969461
1305031916.276150 1.02801 0.107557 -0.286318 0.0886858 -0.164531 -0.185123 0.964777
1305031916.312024 1.04807 0.10444 -0.289596 0.10277 -0.174451 -0.194845 0.959709
1305031916.344853 1.06638 0.0929337 -0.294343 0.115616 -0.181754 -0.203166 0.955155
1305031916.375943 1.08408 0.082759 -0.29985 0.133816 -0.184815 -0.212261 0.950201
1305031916.412634 1.10107 0.07365 -0.305098 0.151955 -0.183369 -0.220291 0.945916
1305031916.445160 1.11455 0.0647212 -0.310726 0.166554 -0.182831 -0.218722 0.943924
1305031916.475799 1.12522 0.0573968 -0.316963 0.180349 -0.185121 -0.213973 0.94203
1305031916.511070 1.13165 0.0493134 -0.321712 0.190898 -0.190608 -0.209556 0.939847
1305031916.542416 1.13711 0.0387159 -0.327331 0.201278 -0.201269 -0.206346 0.936162
1305031916.574661 1.146 0.0329432 -0.330911 0.21402 -0.214275 -0.204168 0.930912
1305031916.610788 1.15537 0.0304635 -0.32935 0.22205 -0.227248 -0.20389 0.926002
1305031916.643191 1.16076 0.019746 -0.332066 0.226814 -0.239631 -0.203875 0.92172
1305031916.674514 1.16794 0.0114101 -0.331983 0.234138 -0.249477 -0.204336 0.917163
1305031916.711186 1.17541 0.00111437 -0.330888 0.242026 -0.25635 -0.206765 0.912664
1305031916.742388 1.18464 -0.00928071 -0.325852 0.249615 -0.264788 -0.207306 0.908077
1305031916.774484 1.19434 -0.0169447 -0.318751 0.256854 -0.27405 -0.205199 0.903778
1305031916.810984 1.20237 -0.0324939 -0.316759 0.263436 -0.283795 -0.201277 0.89975
1305031916.842413 1.2109 -0.0384411 -0.3121 0.271657 -0.291816 -0.198525 0.89534
1305031916.874597 1.21616 -0.051552 -0.308525 0.277142 -0.299711 -0.196797 0.891424
1305031916.911349 1.22068 -0.0666481 -0.309018 0.28301 -0.308438 -0.193365 0.887345
1305031916.942991 1.22858 -0.0855961 -0.309485 0.288766 -0.318244 -0.1908 0.88257
1305031916.975281 1.23469 -0.0979526 -0.306099 0.295897 -0.325783 -0.189032 0.877825
1305031917.013257 1.24046 -0.110524 -0.303136 0.303 -0.333138 -0.186446 0.873183
1305031917.045346 1.24363 -0.134269 -0.31163 0.311368 -0.339682 -0.183798 0.868265
1305031917.078672 1.24535 -0.161383 -0.32553 0.322723 -0.345039 -0.182479 0.862264
1305031917.112392 1.24535 -0.161383 -0.32553 0.322723 -0.345039 -0.182479 0.862264
1305031917.144721 1.24535 -0.161383 -0.32553 0.322723 -0.345039 -0.182479 0.862264
1305031917.175617 1.24329 -0.166258 -0.337337 0.340396 -0.345478 -0.180949 0.85559
1305031917.211105 1.24992 -0.185133 -0.345684 0.355049 -0.348319 -0.178625 0.848944
1305031917.242019 1.24992 -0.185133 -0.345684 0.355049 -0.348319 -0.178625 0.848944
1305031917.275690 1.24992 -0.185133 -0.345684 0.355049 -0.348319 -0.178625 0.848944
1305031917.311009 1.24992 -0.185133 -0.345684 0.355049 -0.348319 -0.178625 0.848944
1305031917.342994 1.24992 -0.185133 -0.345684 0.355049 -0.348319 -0.178625 0.848944
1305031917.375028 1.24992 -0.185133 -0.345684 0.355049 -0.348319 -0.178625 0.848944
1305031917.412516 1.24992 -0.185133 -0.345684 0.355049 -0.348319 -0.178625 0.848944
1305031917.442191 1.24992 -0.185133 -0.345684 0.355049 -0.348319 -0.178625 0.848944
1305031917.480876 1.24992 -0.185133 -0.345684 0.355049 -0.348319 -0.178625 0.848944
1305031917.512902 1.24992 -0.185133 -0.345684 0.355049 -0.348319 -0.178625 0.848944
1305031917.544881 1.24992 -0.185133 -0.345684 0.355049 -0.348319 -0.178625 0.848944
1305031917.581189 1.24992 -0.185133 -0.345684 0.355049 -0.348319 -0.178625 0.848944
1305031917.611278 1.24992 -0.185133 -0.345684 0.355049 -0.348319 -0.178625 0.848944
1305031917.644587 1.26247 -0.189644 -0.334594 0.341468 -0.349544 -0.186276 0.852362
1305031917.680182 1.27698 -0.20194 -0.325321 0.327672 -0.352567 -0.192178 0.855216
1305031917.712747 1.29204 -0.207975 -0.310224 0.313945 -0.357146 -0.195285 0.857758
1305031917.743645 1.3019 -0.208071 -0.297641 0.300345 -0.360979 -0.197623 0.860484
1305031917.776958 1.31713 -0.200256 -0.281904 0.285541 -0.365451 -0.200342 0.863003
1305031917.812348 1.33157 -0.200882 -0.270362 0.266217 -0.368863 -0.204517 0.866742
1305031917.844755 1.34448 -0.20624 -0.262878 0.245928 -0.371023 -0.209289 0.870666
1305031917.879431 1.35303 -0.205188 -0.25703 0.227025 -0.37111 -0.217411 0.873767
1305031917.907881 1.36998 -0.203992 -0.244802 0.210086 -0.371336 -0.225934 0.875744
1305031917.941261 1.38523 -0.200729 -0.231746 0.19176 -0.371032 -0.232008 0.878485
1305031917.978906 1.39646 -0.207595 -0.223804 0.171947 -0.369643 -0.239644 0.881118
1305031918.011404 1.41071 -0.209261 -0.213698 0.157368 -0.368353 -0.247698 0.882155
1305031918.044049 1.42467 -0.206532 -0.20388 0.141753 -0.36726 -0.256971 0.882605
1305031918.081372 1.43084 -0.215886 -0.196641 0.124631 -0.366127 -0.268599 0.882198
1305031918.113495 1.44229 -0.220183 -0.188621 0.114391 -0.368984 -0.277737 0.879561
1305031918.145896 1.4584 -0.220062 -0.177921 0.104502 -0.372071 -0.287968 0.876195
1305031918.179489 1.47395 -0.227226 -0.166804 0.0935 -0.372915 -0.296576 0.874205
1305031918.214208 1.49073 -0.230766 -0.155601 0.0852844 -0.371846 -0.301547 0.8738
1305031918.244974 1.50844 -0.231386 -0.142592 0.0764453 -0.370054 -0.307842 0.873184
1305031918.280832 1.52437 -0.235238 -0.12918 0.0669559 -0.366886 -0.316299 0.872277
1305031918.312487 1.54206 -0.236376 -0.113511 0.0579909 -0.36329 -0.324719 0.87133
1305031918.344896 1.55625 -0.240963 -0.0989648 0.0468746 -0.357551 -0.335849 0.870152
1305031918.379884 1.56972 -0.248246 -0.0843824 0.0383052 -0.352031 -0.344122 0.86959
1305031918.413065 1.59024 -0.250814 -0.0660649 0.0318559 -0.346952 -0.351115 0.869096
1305031918.445292 1.6061 -0.256486 -0.0488846 0.0204004 -0.339296 -0.359452 0.869055
1305031918.481811 1.61977 -0.265799 -0.0327032 0.0110031 -0.332211 -0.366031 0.869216
1305031918.513488 1.63335 -0.276794 -0.0163668 0.00571933 -0.323855 -0.370888 0.870361
1305031918.545221 1.64982 -0.286253 0.000279359 0.00258938 -0.317604 -0.375438 0.870728
1305031918.582328 1.66696 -0.295741 0.0178674 -0.00247162 -0.313658 -0.379091 0.870576
1305031918.613230 1.67867 -0.310927 0.0335653 -0.0092991 -0.308766 -0.381813 0.871089
1305031918.645169 1.69282 -0.322796 0.0485379 -0.0124324 -0.307006 -0.385311 0.870131
1305031918.681778 1.70495 -0.335364 0.0616215 -0.0174769 -0.305794 -0.390651 0.868088
1305031918.713496 1.71692 -0.349307 0.07443 -0.0227379 -0.307221 -0.395326 0.865341
1305031918.749734 1.72654 -0.364654 0.0855964 -0.0278347 -0.308286 -0.398947 0.863149
1305031918.780739 1.7368 -0.382123 0.0975109 -0.0272618 -0.308487 -0.407826 0.858936
1305031918.814538 1.74731 -0.397147 0.108343 -0.0215339 -0.306806 -0.420334 0.853654
1305031918.850071 1.75871 -0.41049 0.118457 -0.0152284 -0.306157 -0.432007 0.848178
1305031918.880096 1.76806 -0.425134 0.128208 -0.0100705 -0.308016 -0.443498 0.841626
1305031918.912498 1.7753 -0.436301 0.135726 -0.00367514 -0.311738 -0.455315 0.833963
1305031918.948107 1.78271 -0.447531 0.143665 0.00106932 -0.31878 -0.466361 0.825158
1305031918.980882 1.79164 -0.459616 0.153945 0.00542941 -0.327718 -0.477938 0.814952
1305031919.013079 1.79717 -0.470908 0.162949 0.00938337 -0.335391 -0.489199 0.805052
1305031919.047888 1.8044 -0.478786 0.172997 0.0127499 -0.345471 -0.496517 0.796215
1305031919.081202 1.81141 -0.487529 0.184352 0.0118719 -0.354902 -0.504819 0.786805
1305031919.113268 1.81599 -0.499239 0.195737 0.0108566 -0.363945 -0.513961 0.776705
1305031919.149786 1.82161 -0.510066 0.208528 0.0112334 -0.372354 -0.522543 0.766926
1305031919.180150 1.82724 -0.519835 0.220869 0.0107993 -0.380043 -0.529612 0.758263
1305031919.212613 1.8332 -0.527472 0.231871 0.00956775 -0.38749 -0.535825 0.750101
1305031919.248053 1.8332 -0.527472 0.231871 0.00956775 -0.38749 -0.535825 0.750101
1305031919.282212 1.83941 -0.536226 0.241153 0.0104701 -0.398922 -0.545592 0.73694
1305031919.313576 1.84476 -0.54625 0.248796 0.0111313 -0.409416 -0.554888 0.724123
1305031919.348352 1.85507 -0.556188 0.259469 0.0127314 -0.423065 -0.559158 0.712879
1305031919.376791 1.86699 -0.565922 0.270195 0.0110383 -0.434477 -0.563564 0.702498
1305031919.413966 1.87643 -0.576825 0.278227 0.00860359 -0.443696 -0.569133 0.692205
1305031919.446851 1.88776 -0.587747 0.286775 0.00615686 -0.453461 -0.57294 0.682696
1305031919.480223 1.89934 -0.600702 0.29559 0.00413238 -0.461667 -0.579046 0.671976
1305031919.512137 1.89934 -0.600702 0.29559 0.00413238 -0.461667 -0.579046 0.671976
1305031919.548061 1.90719 -0.616503 0.300008 0.00396316 -0.463639 -0.582565 0.667563
1305031919.580925 1.91676 -0.631658 0.305521 0.0074896 -0.467232 -0.583039 0.664608
1305031919.611928 1.92611 -0.646788 0.310333 0.0085385 -0.471323 -0.582988 0.661745
1305031919.649872 1.93079 -0.663912 0.312526 0.0102136 -0.478054 -0.583026 0.656841
1305031919.680144 1.93971 -0.679525 0.31768 0.014808 -0.486511 -0.579572 0.653593
1305031919.711961 1.94667 -0.698559 0.325844 0.0187148 -0.492768 -0.577021 0.651058
1305031919.747809 1.949 -0.715887 0.331367 0.0254087 -0.497281 -0.573149 0.65082
1305031919.779527 1.9547 -0.73077 0.341638 0.0296613 -0.504605 -0.566833 0.650535
1305031919.815366 1.95463 -0.742128 0.345932 0.0292397 -0.513178 -0.560957 0.648938
1305031919.849456 1.9576 -0.752514 0.354799 0.0261344 -0.526886 -0.554085 0.643971
1305031919.880464 1.95696 -0.762604 0.363225 0.0167746 -0.539324 -0.549524 0.637865
1305031919.917226 1.94784 -0.777075 0.367927 0.00928867 -0.548648 -0.547001 0.63221
1305031919.948072 1.94327 -0.789861 0.377884 0.00628046 -0.558495 -0.54092 0.628848
1305031919.981539 1.93716 -0.800958 0.386647 0.00196178 -0.566774 -0.534476 0.626976
1305031920.017137 1.92981 -0.809898 0.393178 0.000379202 -0.574609 -0.52796 0.625366
1305031920.048127 1.92674 -0.815456 0.404239 -0.0028085 -0.585401 -0.520501 0.621592
1305031920.081263 1.91702 -0.824363 0.412567 -0.01025 -0.595825 -0.516446 0.614956
1305031920.116134 1.90826 -0.832637 0.423465 -0.0132534 -0.60689 -0.511816 0.607909
1305031920.148679 1.90179 -0.838426 0.436959 -0.0145718 -0.615392 -0.509057 0.601615
1305031920.180544 1.89278 -0.845713 0.450283 -0.0152379 -0.620967 -0.508124 0.59664
1305031920.217426 1.88411 -0.854279 0.467012 -0.0141335 -0.622565 -0.50926 0.594027
1305031920.248168 1.86982 -0.867219 0.481141 -0.0129839 -0.620008 -0.509354 0.596641
1305031920.280534 1.85871 -0.875872 0.495153 -0.00798664 -0.616935 -0.505641 0.603038
1305031920.316524 1.84571 -0.88619 0.508497 -0.00351089 -0.611811 -0.501854 0.611406
1305031920.349842 1.83315 -0.8943 0.519495 0.0008721 -0.606293 -0.493309 0.623742
1305031920.380357 1.82508 -0.899757 0.53238 0.00623296 -0.600379 -0.485628 0.635352
1305031920.417274 1.81058 -0.910734 0.542025 0.00954875 -0.591275 -0.477909 0.649542
1305031920.448025 1.8007 -0.916807 0.549284 0.0169106 -0.583392 -0.46976 0.66234
1305031920.481785 1.79071 -0.923647 0.555155 0.023366 -0.576058 -0.46242 0.673631
1305031920.517298 1.78061 -0.932284 0.560751 0.0307869 -0.57056 -0.455816 0.682456
1305031920.547964 1.77524 -0.937162 0.565503 0.038585 -0.567093 -0.448984 0.689442
1305031920.581456 1.76696 -0.942838 0.567635 0.0438158 -0.564773 -0.44413 0.694162
1305031920.617995 1.75594 -0.951105 0.568928 0.0481661 -0.562484 -0.438293 0.699422
1305031920.649397 1.74764 -0.960008 0.573657 0.0535326 -0.560402 -0.431014 0.705203
1305031920.680130 1.74194 -0.969532 0.582039 0.0587435 -0.554568 -0.423619 0.713828
1305031920.717318 1.73652 -0.979155 0.586046 0.0661372 -0.54265 -0.414689 0.727454
1305031920.747997 1.73261 -0.987043 0.588857 0.0765263 -0.530669 -0.404235 0.741032
1305031920.780346 1.72944 -0.995491 0.592961 0.0858221 -0.518629 -0.395121 0.753351
1305031920.813643 1.72559 -1.00265 0.594362 0.0942981 -0.506197 -0.384624 0.766118
1305031920.848339 1.72229 -1.01199 0.596626 0.1015 -0.496818 -0.376925 0.775111
1305031920.879246 1.72 -1.02028 0.601169 0.109072 -0.489101 -0.369582 0.782491
1305031920.915238 1.71679 -1.03118 0.605081 0.114702 -0.480525 -0.360056 0.79139
1305031920.947777 1.71599 -1.04053 0.611472 0.117983 -0.472014 -0.349357 0.80077
1305031920.981269 1.71214 -1.05335 0.615561 0.119731 -0.461125 -0.340983 0.810406
1305031921.015897 1.70943 -1.06623 0.620423 0.122467 -0.45034 -0.333278 0.81922
1305031921.046752 1.70697 -1.07501 0.625078 0.127034 -0.439817 -0.326889 0.826781
1305031921.081623 1.70444 -1.08323 0.631596 0.130158 -0.429113 -0.323446 0.833249
1305031921.116426 1.70164 -1.09186 0.637389 0.130712 -0.41898 -0.319448 0.839835
1305031921.147542 1.69972 -1.10201 0.643684 0.129021 -0.408932 -0.318991 0.845206
1305031921.183591 1.69842 -1.11481 0.652218 0.127276 -0.398094 -0.319971 0.850259
1305031921.216248 1.69651 -1.13253 0.658461 0.127734 -0.387259 -0.322847 0.854098
1305031921.247511 1.69617 -1.14745 0.664457 0.131265 -0.378341 -0.322465 0.857697
1305031921.283682 1.69282 -1.15699 0.665914 0.135476 -0.369347 -0.32005 0.861857
1305031921.316687 1.69072 -1.16737 0.669383 0.137883 -0.363172 -0.317889 0.864894
1305031921.348715 1.69007 -1.17947 0.673751 0.137699 -0.359086 -0.314185 0.867977
1305031921.383334 1.68864 -1.19061 0.676598 0.136997 -0.355106 -0.309793 0.871298
1305031921.417533 1.68972 -1.20179 0.681204 0.137452 -0.350829 -0.306224 0.874216
1305031921.447829 1.6915 -1.2121 0.686404 0.138308 -0.345276 -0.301217 0.878022
1305031921.483449 1.69202 -1.21965 0.690412 0.138023 -0.338957 -0.293149 0.883245
1305031921.516337 1.69267 -1.22855 0.694196 0.138118 -0.33091 -0.285195 0.888868
1305031921.547693 1.6933 -1.23605 0.698725 0.140845 -0.319895 -0.279199 0.894359
1305031921.584755 1.69296 -1.24687 0.702483 0.145808 -0.308609 -0.271495 0.899884
1305031921.616860 1.6924 -1.25219 0.705971 0.152436 -0.296278 -0.265745 0.904634
1305031921.648077 1.69723 -1.25523 0.715088 0.153571 -0.284332 -0.257609 0.910609
1305031921.684108 1.70099 -1.26241 0.72243 0.154157 -0.268739 -0.245969 0.91843
1305031921.717161 1.70537 -1.27223 0.729123 0.156823 -0.252006 -0.238483 0.924676
1305031921.749472 1.7099 -1.27866 0.736762 0.158947 -0.232898 -0.230793 0.931251
1305031921.783343 1.70526 -1.28809 0.73969 0.157415 -0.212921 -0.2233 0.938095
1305031921.815490 1.70345 -1.29159 0.745546 0.156951 -0.197282 -0.216323 0.943213
1305031921.847815 1.69968 -1.2958 0.750782 0.153867 -0.185591 -0.210697 0.947358
1305031921.883647 1.69693 -1.29931 0.756072 0.153021 -0.17855 -0.206658 0.949735
1305031921.915912 1.69649 -1.30033 0.763685 0.152464 -0.171421 -0.204465 0.951611
1305031921.947748 1.69139 -1.30302 0.769087 0.149505 -0.161594 -0.200693 0.954598
1305031921.983963 1.68945 -1.30807 0.774786 0.148905 -0.15136 -0.193721 0.957804
1305031922.017509 1.69272 -1.30949 0.781418 0.149652 -0.139326 -0.187289 0.960789
1305031922.048087 1.68921 -1.3107 0.786071 0.14869 -0.126172 -0.181472 0.963867
1305031922.084015 1.68519 -1.31268 0.790415 0.146956 -0.114147 -0.174667 0.966885
1305031922.117449 1.68011 -1.3163 0.793462 0.145431 -0.104386 -0.168186 0.969364
1305031922.150410 1.67607 -1.31927 0.79637 0.143821 -0.0953939 -0.161922 0.971595
1305031922.184064 1.67203 -1.32091 0.799327 0.141359 -0.0855513 -0.155171 0.973972
1305031922.217879 1.66764 -1.32267 0.80166 0.139189 -0.0759707 -0.15018 0.975859
1305031922.248353 1.66472 -1.32278 0.804076 0.138375 -0.0672204 -0.146354 0.977197
1305031922.284278 1.66155 -1.32347 0.806136 0.135503 -0.0571348 -0.142694 0.978781
1305031922.315988 1.65811 -1.32139 0.808943 0.132202 -0.0454525 -0.140308 0.980189
1305031922.348617 1.65572 -1.31983 0.810935 0.128153 -0.0334509 -0.138342 0.981488
1305031922.384534 1.65248 -1.31669 0.812955 0.125384 -0.023832 -0.135544 0.982516
1305031922.414362 1.64881 -1.31189 0.815919 0.122967 -0.0150669 -0.132523 0.983407
1305031922.449565 1.64639 -1.31147 0.818585 0.116515 -0.00444945 -0.128813 0.98479
1305031922.483598 1.64108 -1.31065 0.820301 0.111963 0.00502713 -0.124899 0.985819
1305031922.517313 1.63957 -1.30678 0.823534 0.109691 0.0124571 -0.121645 0.986415
1305031922.551135 1.63633 -1.30326 0.826382 0.104797 0.0201908 -0.116079 0.98749
1305031922.584494 1.63314 -1.30107 0.828697 0.101959 0.0274373 -0.114881 0.987752
1305031922.616826 1.63199 -1.29913 0.831406 0.0978869 0.0369847 -0.113433 0.98802
1305031922.651650 1.6313 -1.29785 0.833909 0.0952213 0.0446036 -0.111769 0.988155
1305031922.684543 1.62957 -1.29561 0.835546 0.0934985 0.0523888 -0.111299 0.987991
1305031922.718051 1.63192 -1.29441 0.837865 0.0918314 0.0618933 -0.108507 0.987908
1305031922.752032 1.63264 -1.29434 0.838624 0.0930752 0.0699156 -0.104045 0.987737
1305031922.784245 1.63406 -1.29255 0.839235 0.0964291 0.077057 -0.0980027 0.987501
1305031922.818079 1.63621 -1.29044 0.83959 0.0997383 0.0844246 -0.0919329 0.987154
1305031922.851561 1.63871 -1.28948 0.839603 0.102636 0.0918057 -0.0871923 0.986628
1305031922.883570 1.64042 -1.28913 0.838996 0.105475 0.100934 -0.0812665 0.985943
1305031922.916045 1.64396 -1.28929 0.838228 0.109267 0.108588 -0.076439 0.985102
1305031922.951632 1.64793 -1.28898 0.837471 0.110725 0.11515 -0.072516 0.984491
1305031922.983106 1.6515 -1.28824 0.837086 0.110715 0.119706 -0.0666862 0.984361
1305031923.016127 1.65492 -1.28658 0.837074 0.110627 0.122754 -0.0631702 0.984227
1305031923.051643 1.66034 -1.28532 0.836224 0.110033 0.126763 -0.0586815 0.984063
1305031923.083189 1.66701 -1.28375 0.835187 0.110579 0.129015 -0.0532185 0.98402
1305031923.117556 1.67257 -1.28312 0.832857 0.11056 0.131765 -0.0507523 0.983788
1305031923.152033 1.67964 -1.28175 0.831186 0.110128 0.13684 -0.0479383 0.983285
1305031923.183804 1.68607 -1.27949 0.828953 0.11349 0.141859 -0.0455948 0.982302
1305031923.215945 1.69109 -1.27851 0.826153 0.120667 0.148262 -0.0454507 0.980506
1305031923.251678 1.69674 -1.27989 0.823146 0.12475 0.155175 -0.0419441 0.979081
1305031923.283836 1.70233 -1.27661 0.821864 0.123917 0.162614 -0.0341401 0.978282
1305031923.317750 1.70878 -1.27351 0.819389 0.122604 0.168326 -0.0249814 0.977758
1305031923.351741 1.7142 -1.26974 0.817276 0.122593 0.173252 -0.0169449 0.977071
1305031923.384405 1.71954 -1.26476 0.81518 0.12168 0.178388 -0.0102887 0.976353
1305031923.417551 1.72455 -1.26193 0.812099 0.116679 0.183895 -0.00192079 0.975994
1305031923.452014 1.73108 -1.25837 0.807111 0.114713 0.190016 0.00607465 0.975037
1305031923.483984 1.73827 -1.25463 0.801247 0.114503 0.196675 0.0145201 0.973652
1305031923.517826 1.74593 -1.25074 0.7944 0.118895 0.201773 0.0205377 0.971972
1305031923.551611 1.75482 -1.24803 0.785601 0.125706 0.204282 0.0261796 0.970454
1305031923.584004 1.76146 -1.24386 0.776999 0.130958 0.206316 0.0320032 0.969154
1305031923.617213 1.76811 -1.23987 0.767418 0.135851 0.207136 0.0366588 0.96814
1305031923.651604 1.77338 -1.23587 0.757642 0.137883 0.208415 0.0430153 0.967317
1305031923.683339 1.78113 -1.22851 0.746643 0.141189 0.20852 0.0492916 0.966517
1305031923.719218 1.78774 -1.22154 0.735092 0.144339 0.209677 0.0533662 0.965585
1305031923.751229 1.79413 -1.2126 0.724012 0.145344 0.210539 0.057275 0.965022
1305031923.784138 1.79944 -1.20375 0.713384 0.14809 0.212898 0.0573182 0.964084
1305031923.819707 1.80546 -1.19624 0.702622 0.145879 0.21577 0.0571264 0.963794
1305031923.848797 1.81066 -1.18854 0.691009 0.147156 0.218146 0.0579913 0.963013
1305031923.883914 1.81618 -1.18002 0.679282 0.152445 0.218593 0.0567032 0.962165
1305031923.919849 1.82026 -1.17083 0.667982 0.156298 0.220669 0.0508925 0.961398
1305031923.952341 1.82582 -1.15813 0.658101 0.159128 0.223062 0.0452868 0.960662
1305031923.985402 1.83085 -1.14651 0.64885 0.154332 0.225996 0.0415382 0.960928
1305031924.020347 1.83499 -1.13836 0.636794 0.153471 0.229935 0.0381924 0.96027
1305031924.052305 1.84173 -1.12617 0.625991 0.159655 0.23267 0.0365234 0.958666
1305031924.084935 1.84847 -1.11148 0.617385 0.158291 0.235546 0.0403729 0.958036
1305031924.120309 1.85586 -1.09847 0.608191 0.155776 0.236711 0.0429953 0.958047
1305031924.149942 1.86246 -1.08668 0.59942 0.157354 0.236851 0.0411698 0.957834
1305031924.183240 1.86767 -1.07542 0.59171 0.155187 0.235801 0.0409314 0.958457
1305031924.221139 1.87188 -1.06661 0.582858 0.153585 0.232732 0.0393292 0.959532
1305031924.251933 1.87621 -1.05618 0.573672 0.153933 0.228951 0.0350223 0.960552
1305031924.284047 1.88077 -1.04653 0.563714 0.153501 0.22576 0.0321931 0.961475
1305031924.319056 1.88501 -1.03424 0.554281 0.153309 0.222781 0.0312487 0.962231
1305031924.351287 1.88958 -1.02272 0.545438 0.151614 0.219868 0.0308079 0.963183
1305031924.383380 1.89351 -1.01249 0.535798 0.151175 0.215128 0.0297585 0.964355
1305031924.419225 1.8946 -1.00181 0.526802 0.150801 0.209472 0.0270625 0.965737
1305031924.452792 1.8963 -0.991761 0.517615 0.150274 0.203937 0.0247819 0.967064
1305031924.483315 1.8967 -0.984385 0.508344 0.151056 0.199714 0.0212939 0.967906
1305031924.519657 1.89668 -0.976664 0.498989 0.153244 0.1934 0.0181449 0.968908
1305031924.552273 1.89752 -0.97035 0.49016 0.155356 0.184194 0.0162152 0.970399
1305031924.584109 1.89831 -0.963125 0.48158 0.160744 0.173457 0.0131828 0.971545
1305031924.620515 1.9 -0.953049 0.474038 0.167354 0.165342 0.00963329 0.971886
1305031924.652060 1.90133 -0.945468 0.466751 0.174148 0.159667 0.00941866 0.971643
1305031924.684319 1.90508 -0.935869 0.460572 0.181503 0.153162 0.00926821 0.971345
1305031924.719995 1.9067 -0.927946 0.454156 0.187149 0.148812 0.00736616 0.970967
1305031924.751699 1.90907 -0.918589 0.448154 0.193569 0.144747 0.00517979 0.970336
1305031924.783411 1.91401 -0.908735 0.442701 0.196776 0.142551 0.0025897 0.970027
1305031924.819277 1.91622 -0.902007 0.437458 0.197634 0.142958 0.00362119 0.969789
1305031924.851149 1.91993 -0.891325 0.432544 0.200059 0.143491 0.003892 0.969212
1305031924.887231 1.92326 -0.881989 0.428827 0.197335 0.143366 0.0051934 0.969783
1305031924.919219 1.92395 -0.873466 0.425143 0.193017 0.141653 0.00755556 0.970887
1305031924.951326 1.92352 -0.865606 0.421007 0.192614 0.138233 0.00672534 0.971466
1305031924.987062 1.92365 -0.855461 0.41729 0.193364 0.134958 0.00412487 0.971792
1305031925.019418 1.92389 -0.845987 0.413046 0.195268 0.132204 0.00088643 0.971798
1305031925.051227 1.92243 -0.838337 0.408394 0.19839 0.130568 -0.0022599 0.971385
1305031925.086881 1.92307 -0.82982 0.402817 0.20359 0.130081 -0.00624726 0.970356
1305031925.119070 1.92393 -0.818972 0.398316 0.204778 0.128198 -0.00613232 0.970358
1305031925.150861 1.9227 -0.809227 0.393844 0.20019 0.126256 -0.00409692 0.971579
1305031925.186995 1.92042 -0.80377 0.388507 0.19743 0.123802 -0.0036449 0.972461
1305031925.219143 1.91914 -0.79573 0.382886 0.198948 0.120629 -0.00601332 0.972539
1305031925.250215 1.91942 -0.784873 0.378149 0.19783 0.116976 -0.0081537 0.973198
1305031925.287610 1.91781 -0.777674 0.372639 0.194883 0.113699 -0.0125667 0.974133
1305031925.318360 1.91816 -0.764832 0.368903 0.193235 0.111611 -0.0168801 0.974638
1305031925.351623 1.92006 -0.752825 0.364892 0.188832 0.110429 -0.0194695 0.975586
1305031925.386446 1.91917 -0.742047 0.360825 0.18458 0.110307 -0.0245884 0.976298
1305031925.420497 1.91944 -0.731703 0.356691 0.182041 0.109901 -0.0303258 0.976659
1305031925.451669 1.92061 -0.721979 0.351628 0.18237 0.108479 -0.0337126 0.976646
1305031925.487976 1.9239 -0.710391 0.346081 0.185855 0.109588 -0.037149 0.97574
1305031925.520197 1.93065 -0.699331 0.339915 0.190924 0.113116 -0.0369172 0.974366
1305031925.551723 1.93731 -0.687163 0.33327 0.19698 0.117767 -0.0316018 0.972796
1305031925.587951 1.9435 -0.674815 0.32706 0.201353 0.122498 -0.0249893 0.971507
1305031925.620389 1.95078 -0.662511 0.321182 0.204954 0.127293 -0.0201918 0.970249
1305031925.652177 1.95909 -0.647886 0.316967 0.206294 0.131744 -0.0138799 0.969481
1305031925.688138 1.96552 -0.64014 0.311683 0.203007 0.133765 -0.00809974 0.969964
1305031925.719963 1.97343 -0.631183 0.307908 0.201189 0.132606 -0.00541382 0.97052
1305031925.752010 1.98213 -0.621417 0.304077 0.198965 0.130859 -0.00313133 0.971226
1305031925.788128 1.99468 -0.609718 0.30071 0.195237 0.129344 0.000601178 0.972189
1305031925.819737 2.00416 -0.595611 0.298599 0.190202 0.131369 0.00461365 0.972905
1305031925.852900 2.01394 -0.581898 0.296914 0.183397 0.134533 0.0100629 0.973738
1305031925.887783 2.02339 -0.570447 0.293788 0.175893 0.138254 0.0146001 0.974543
1305031925.917070 2.03283 -0.561297 0.289944 0.168312 0.141693 0.0206738 0.975278
1305031925.952071 2.04019 -0.550043 0.285553 0.162276 0.144026 0.0286102 0.975758
1305031925.987927 2.04673 -0.538987 0.280976 0.154683 0.145476 0.0348126 0.976575
1305031926.019599 2.05226 -0.530228 0.275155 0.1484 0.14623 0.0405533 0.977215
1305031926.051425 2.05934 -0.518056 0.268856 0.145246 0.145651 0.0457619 0.977546
1305031926.087671 2.06697 -0.505478 0.262267 0.1421 0.146459 0.0490096 0.97773
1305031926.119488 2.07195 -0.494869 0.254931 0.139904 0.150223 0.0507988 0.977384
1305031926.155476 2.07908 -0.483453 0.246556 0.137703 0.154051 0.0526972 0.977
1305031926.187287 2.08564 -0.469875 0.238139 0.134902 0.159075 0.0554561 0.976433
1305031926.219471 2.09081 -0.458455 0.228601 0.134916 0.16477 0.0587348 0.975294
1305031926.255515 2.09681 -0.445255 0.219194 0.134176 0.170462 0.0613682 0.974255
1305031926.287524 2.10357 -0.431484 0.208748 0.13275 0.175537 0.0631371 0.973436
1305031926.319314 2.10928 -0.420139 0.197915 0.131871 0.182334 0.065235 0.972167
1305031926.355226 2.1149 -0.411723 0.186584 0.129836 0.191317 0.0696887 0.970404
1305031926.387186 2.11938 -0.401475 0.175078 0.129458 0.200626 0.0742877 0.968231
1305031926.416195 2.12335 -0.393029 0.162905 0.129178 0.208724 0.0792104 0.966164
1305031926.456138 2.12682 -0.382238 0.151511 0.12914 0.216331 0.0844554 0.964049
1305031926.487337 2.13077 -0.371826 0.13997 0.129633 0.223054 0.0896682 0.961978
1305031926.519488 2.13308 -0.362172 0.128434 0.132243 0.231002 0.0966207 0.95907
1305031926.555508 2.13562 -0.351969 0.11713 0.135014 0.238897 0.103562 0.95602
1305031926.587389 2.13693 -0.343344 0.105213 0.137186 0.246824 0.112461 0.952686
1305031926.617031 2.13856 -0.334467 0.0948156 0.138952 0.253969 0.122428 0.949317
1305031926.655592 2.13916 -0.327328 0.0860543 0.139393 0.260521 0.132943 0.946057
1305031926.686940 2.14015 -0.319504 0.0780779 0.139999 0.266911 0.144291 0.942517
1305031926.716774 2.13872 -0.306642 0.0732786 0.142221 0.275835 0.15151 0.938473
1305031926.754636 2.13855 -0.299722 0.0679768 0.141329 0.287084 0.158772 0.934024
1305031926.787267 2.14017 -0.29082 0.0619105 0.140421 0.298123 0.169296 0.92884
1305031926.817567 2.13998 -0.282261 0.0569976 0.139842 0.309635 0.181944 0.92275
1305031926.856453 2.14292 -0.272008 0.0504384 0.13937 0.321426 0.196363 0.915807
1305031926.885854 2.14427 -0.261681 0.0451738 0.138107 0.334772 0.213465 0.907351
1305031926.920915 2.14467 -0.252681 0.0405968 0.136449 0.350025 0.230302 0.897678
1305031926.956342 2.14619 -0.243043 0.0346638 0.133963 0.366632 0.244536 0.887602
1305031926.988250 2.14377 -0.235939 0.0342219 0.129417 0.383367 0.256663 0.877727
1305031927.021193 2.14238 -0.227597 0.0330267 0.123358 0.39825 0.269636 0.86803
1305031927.056355 2.1404 -0.216007 0.0310857 0.119166 0.411819 0.282774 0.858046
1305031927.088782 2.13878 -0.205512 0.0287344 0.114746 0.423944 0.296011 0.848223
1305031927.120454 2.13693 -0.197 0.0284815 0.109056 0.433999 0.310507 0.838652
1305031927.156388 2.13461 -0.186498 0.0278632 0.102882 0.44348 0.323351 0.829569
1305031927.188222 2.13008 -0.180018 0.0302413 0.0962222 0.453141 0.335929 0.820095
1305031927.220398 2.12843 -0.169034 0.0296422 0.0885098 0.459002 0.348347 0.812488
1305031927.255554 2.12761 -0.157948 0.0294807 0.0778362 0.460779 0.360211 0.807386
1305031927.288179 2.12487 -0.144976 0.0301035 0.069549 0.461351 0.368842 0.803911
1305031927.319728 2.12482 -0.134824 0.0281397 0.0607443 0.462382 0.378294 0.799629
1305031927.355704 2.12238 -0.122694 0.0284998 0.0556462 0.464838 0.389064 0.793384
1305031927.387697 2.1237 -0.111583 0.0255472 0.0490932 0.467377 0.400272 0.786722
1305031927.423646 2.12326 -0.0990096 0.0222002 0.0427084 0.470252 0.409945 0.780374
1305031927.455842 2.12325 -0.0882582 0.0184524 0.0372388 0.471972 0.418565 0.775022
1305031927.487526 2.12261 -0.074856 0.0150201 0.0313638 0.472494 0.424479 0.771741
1305031927.523735 2.11983 -0.0622909 0.0125669 0.0255356 0.472942 0.429186 0.769073
1305031927.555610 2.11866 -0.0539204 0.0107886 0.0205873 0.473575 0.432089 0.767204
1305031927.587778 2.1169 -0.0443542 0.010861 0.0153654 0.473351 0.433314 0.766773
1305031927.623566 2.11519 -0.0328051 0.0108219 0.00814929 0.471577 0.433511 0.767865
1305031927.655615 2.11565 -0.0273947 0.00917028 -0.000549184 0.468367 0.433894 0.769654
1305031927.687849 2.11508 -0.0177988 0.00779393 -0.00649917 0.465416 0.428468 0.774442
1305031927.720304 2.11697 -0.00970668 0.00514902 -0.0147838 0.462123 0.422244 0.779701
1305031927.755615 2.11924 -0.00254382 0.0014076 -0.0228313 0.45863 0.416854 0.784455
1305031927.784053 2.12265 0.0046261 -0.00393626 -0.0300365 0.454854 0.41241 0.788748
1305031927.825135 2.12544 0.0129993 -0.00892318 -0.0337827 0.452522 0.408985 0.791716
1305031927.855551 2.12709 0.0251039 -0.0138517 -0.0359936 0.450756 0.406901 0.793697
1305031927.887591 2.12999 0.0331626 -0.0198558 -0.0399176 0.448996 0.407529 0.794185
1305031927.923620 2.13543 0.0392868 -0.0293819 -0.0429459 0.4479 0.407658 0.794579
1305031927.955459 2.13747 0.0514271 -0.036381 -0.0426131 0.44812 0.406039 0.795302
1305031927.987655 2.14008 0.0623874 -0.043068 -0.0433658 0.447329 0.406198 0.795625
1305031928.023669 2.14494 0.0708062 -0.0526458 -0.0452894 0.446442 0.407272 0.795467
1305031928.055649 2.14719 0.0835709 -0.060764 -0.0453681 0.446466 0.407372 0.795398
1305031928.087657 2.15034 0.095023 -0.070268 -0.0482514 0.445803 0.408913 0.794809
1305031928.123611 2.15404 0.104335 -0.080913 -0.0510746 0.445243 0.410578 0.794088
1305031928.153645 2.15502 0.116083 -0.0894985 -0.052456 0.44598 0.41113 0.793299
1305031928.185349 2.15961 0.125483 -0.101386 -0.0554794 0.447691 0.411307 0.792036
1305031928.223567 2.16358 0.135724 -0.113364 -0.0575143 0.451282 0.411632 0.789681
1305031928.256019 2.16395 0.146817 -0.12386 -0.0591776 0.456436 0.413662 0.785524
1305031928.287847 2.16449 0.155974 -0.134192 -0.0603268 0.461217 0.418496 0.780064
1305031928.324414 2.16391 0.165 -0.143831 -0.0596292 0.465871 0.4231 0.774852
1305031928.356445 2.16413 0.174275 -0.153966 -0.0586145 0.470508 0.428138 0.76934
1305031928.388295 2.1631 0.182914 -0.164446 -0.0561763 0.475172 0.434102 0.76329
1305031928.424766 2.16256 0.18811 -0.174077 -0.0526406 0.481123 0.441676 0.755428
1305031928.456406 2.16216 0.196559 -0.186557 -0.0475959 0.48906 0.450245 0.745543
1305031928.489516 2.16099 0.204142 -0.197472 -0.0414657 0.498467 0.460093 0.73357
1305031928.524415 2.16107 0.209347 -0.21074 -0.034854 0.507841 0.470695 0.720645
1305031928.556287 2.15872 0.214507 -0.221263 -0.0258966 0.517702 0.478352 0.708868
1305031928.588557 2.15624 0.219468 -0.233368 -0.0182182 0.526732 0.483673 0.698772
1305031928.624251 2.15592 0.222888 -0.25001 -0.0114475 0.53659 0.488829 0.68774
1305031928.656233 2.15476 0.22455 -0.262384 -0.0033888 0.549453 0.490447 0.676426
1305031928.691555 2.15456 0.223532 -0.273225 0.00364085 0.562675 0.490274 0.665594
1305031928.723927 2.15386 0.221573 -0.284075 0.0103378 0.574947 0.48913 0.655805
1305031928.755499 2.1537 0.219599 -0.296992 0.0165358 0.586144 0.487575 0.646863
1305031928.791463 2.15422 0.216276 -0.310931 0.0224878 0.596497 0.486179 0.638213
1305031928.823577 2.15462 0.211276 -0.322809 0.0293519 0.607021 0.483266 0.630174
1305031928.855468 2.15468 0.205542 -0.333528 0.0370737 0.617917 0.480897 0.62092
1305031928.891499 2.15332 0.199633 -0.344592 0.0445487 0.628801 0.477367 0.612165
1305031928.923473 2.15222 0.193718 -0.35427 0.0529242 0.639949 0.474019 0.60247
1305031928.955544 2.15094 0.185988 -0.363196 0.0623466 0.652542 0.468453 0.592329
1305031928.991477 2.14932 0.177957 -0.370286 0.0703249 0.666291 0.460604 0.582198
1305031929.023472 2.14788 0.169007 -0.378868 0.0767258 0.67944 0.454648 0.570762
1305031929.052047 2.14652 0.159684 -0.38836 0.0835822 0.692777 0.448032 0.558875
1305031929.091469 2.1447 0.150751 -0.39881 0.0887887 0.706507 0.439558 0.547498
1305031929.123397 2.14562 0.13718 -0.41226 0.0928792 0.71956 0.433388 0.534585
1305031929.155442 2.14472 0.125811 -0.422085 0.0995117 0.732201 0.427101 0.521118
1305031929.191433 2.14343 0.113767 -0.43168 0.106394 0.743792 0.421697 0.507568
1305031929.224389 2.14382 0.102073 -0.433084 0.111664 0.756042 0.415565 0.493191
1305031929.256040 2.1429 0.0899829 -0.437785 0.120765 0.767767 0.40958 0.477697
1305031929.292331 2.14076 0.0764177 -0.447596 0.130523 0.777925 0.403751 0.463445
1305031929.324071 2.13779 0.0642153 -0.456024 0.136372 0.787594 0.397492 0.450664
1305031929.356012 2.13556 0.0505684 -0.462692 0.143819 0.795855 0.393111 0.437487
1305031929.391503 2.13351 0.0358006 -0.469473 0.153003 0.802376 0.389615 0.42542
1305031929.423543 2.13111 0.0226063 -0.474763 0.160916 0.807063 0.386124 0.416729
1305031929.455568 2.1288 0.00629256 -0.482789 0.167258 0.811882 0.381392 0.409161
1305031929.491502 2.1256 -0.00675338 -0.484294 0.17203 0.817565 0.374906 0.401793
1305031929.523520 2.12287 -0.0224588 -0.48637 0.176144 0.822607 0.369641 0.394533
1305031929.555525 2.12098 -0.034983 -0.485008 0.179817 0.828565 0.362142 0.387297
1305031929.591341 2.11772 -0.0447346 -0.484599 0.183347 0.833415 0.355105 0.381712
1305031929.627102 2.1152 -0.0565975 -0.482597 0.18638 0.839 0.346154 0.376191
1305031929.652934 2.11161 -0.0670655 -0.480622 0.189637 0.84439 0.33701 0.370765
1305031929.688977 2.1117 -0.0841789 -0.475898 0.190298 0.850522 0.327844 0.364578
1305031929.722904 2.10641 -0.0958669 -0.476765 0.193575 0.854846 0.318714 0.360816
1305031929.755544 2.10546 -0.109399 -0.475718 0.197205 0.858043 0.311066 0.357925
1305031929.791661 2.10449 -0.121739 -0.473977 0.202851 0.858751 0.305419 0.357936
1305031929.824100 2.10079 -0.137125 -0.477416 0.207062 0.859959 0.297721 0.359108
1305031929.859997 2.09884 -0.147971 -0.478031 0.211248 0.86128 0.28982 0.359966
1305031929.892100 2.09525 -0.158709 -0.479402 0.214854 0.861877 0.283039 0.361793
1305031929.920589 2.09068 -0.169938 -0.483602 0.217573 0.862302 0.276735 0.364027
1305031929.960336 2.08689 -0.177539 -0.486229 0.219571 0.863336 0.270733 0.364888
1305031929.992281 2.08166 -0.182811 -0.488217 0.218147 0.865496 0.26549 0.364476
1305031930.024129 2.07656 -0.186562 -0.488744 0.218788 0.867222 0.263594 0.361353
1305031930.059766 2.07093 -0.186571 -0.487553 0.220363 0.868555 0.263431 0.357291
1305031930.088504 2.06542 -0.18219 -0.484635 0.222923 0.868997 0.265305 0.353218
1305031930.122266 2.06034 -0.177421 -0.48335 0.223475 0.869003 0.268078 0.350753
1305031930.159452 2.05351 -0.172766 -0.483352 0.219773 0.87001 0.270892 0.348426
1305031930.191333 2.04528 -0.169245 -0.483292 0.215902 0.872025 0.274509 0.342934
1305031930.223366 2.0348 -0.156204 -0.483792 0.213413 0.873656 0.278538 0.337041
1305031930.259685 2.02625 -0.144038 -0.482392 0.20743 0.875986 0.283242 0.330749
1305031930.291415 2.01717 -0.129765 -0.481231 0.200817 0.879137 0.286915 0.323218
1305031930.324425 2.00808 -0.115324 -0.475006 0.196407 0.881406 0.292635 0.314505
1305031930.360687 2.00069 -0.109434 -0.473429 0.188364 0.882983 0.30133 0.306692
1305031930.392204 1.98907 -0.104706 -0.476449 0.180069 0.884511 0.309864 0.298663
1305031930.424494 1.97935 -0.0963878 -0.473036 0.175231 0.885223 0.318823 0.289873
1305031930.460645 1.97292 -0.0866744 -0.466053 0.170787 0.885398 0.328275 0.281315
1305031930.491893 1.96335 -0.073957 -0.458827 0.167568 0.883604 0.339431 0.275595
1305031930.523304 1.95626 -0.0618735 -0.454101 0.166211 0.88005 0.353007 0.270686
1305031930.559268 1.951 -0.0541381 -0.454766 0.160268 0.877775 0.363847 0.267283
1305031930.591038 1.94293 -0.0470301 -0.456417 0.150591 0.875764 0.373879 0.265657
1305031930.620257 1.93784 -0.0371078 -0.449295 0.141845 0.873108 0.385068 0.26322
1305031930.659428 1.93095 -0.0233242 -0.438535 0.136408 0.869537 0.395911 0.261826
1305031930.691306 1.92709 -0.0139339 -0.431671 0.13094 0.864617 0.407505 0.263119
1305031930.723254 1.92332 -0.00617705 -0.425566 0.128181 0.858631 0.419125 0.265813
1305031930.759257 1.91659 0.00365123 -0.418992 0.124726 0.85282 0.429878 0.268973
1305031930.791524 1.91114 0.0119814 -0.413823 0.119483 0.847049 0.44026 0.272769
1305031930.823348 1.90326 0.0207498 -0.409044 0.116993 0.842174 0.448833 0.274963
1305031930.860005 1.89829 0.0306208 -0.397442 0.112566 0.839401 0.454749 0.275568
1305031930.887927 1.8911 0.0390909 -0.38936 0.107641 0.835874 0.462337 0.275629
1305031930.923290 1.88654 0.0465133 -0.380853 0.103109 0.832164 0.470325 0.275074
1305031930.959881 1.88113 0.054037 -0.372926 0.0993024 0.828103 0.478554 0.274538
1305031930.991760 1.87554 0.0633398 -0.364455 0.0951616 0.823836 0.487028 0.273938
1305031931.023642 1.8717 0.0716667 -0.356763 0.0894924 0.818618 0.497289 0.273057
1305031931.059938 1.8673 0.0798602 -0.348893 0.0845273 0.813482 0.507237 0.271685
1305031931.091660 1.86235 0.0901875 -0.338048 0.0802591 0.808413 0.51731 0.269107
1305031931.126327 1.85826 0.0981798 -0.330491 0.0763638 0.803237 0.52756 0.265819
1305031931.156194 1.85461 0.107087 -0.322054 0.0711632 0.798806 0.536971 0.261738
1305031931.187879 1.84875 0.116011 -0.314891 0.0654486 0.794752 0.547082 0.254532
1305031931.226834 1.84664 0.12224 -0.307359 0.0579384 0.790363 0.558685 0.244623
1305031931.259538 1.84404 0.126978 -0.305531 0.0498787 0.785178 0.571212 0.233933
1305031931.291735 1.84201 0.133414 -0.301785 0.0431687 0.781185 0.581706 0.222496
1305031931.327534 1.83788 0.139401 -0.298782 0.0362353 0.777609 0.591415 0.21033
1305031931.359406 1.83662 0.143623 -0.295769 0.0298848 0.774935 0.600293 0.195527
1305031931.391729 1.83555 0.148862 -0.291151 0.0254778 0.772811 0.607967 0.180248
1305031931.427416 1.8359 0.153119 -0.288291 0.0234023 0.770095 0.615604 0.165646
1305031931.459719 1.83848 0.157359 -0.289326 0.0223043 0.767158 0.622863 0.1517
1305031931.491781 1.84061 0.162189 -0.287963 0.0215354 0.765786 0.627466 0.139265
1305031931.527311 1.84333 0.168603 -0.284142 0.0204986 0.764467 0.631638 0.127293
1305031931.559707 1.84755 0.172544 -0.285685 0.021298 0.761147 0.638129 0.113986
1305031931.590720 1.85363 0.176474 -0.287463 0.0239481 0.760389 0.641054 0.101411
1305031931.627134 1.85929 0.18131 -0.286012 0.0254864 0.760496 0.642328 0.0917072
1305031931.659798 1.8664 0.185375 -0.288001 0.0255981 0.759636 0.644453 0.0835314
1305031931.691463 1.87265 0.190056 -0.285806 0.023519 0.760664 0.64405 0.0776927
1305031931.727210 1.87961 0.194741 -0.284301 0.0220677 0.760834 0.644675 0.0709846
1305031931.759394 1.88664 0.199882 -0.283124 0.0206319 0.760426 0.645664 0.0666704
1305031931.791463 1.89502 0.205771 -0.281338 0.0190282 0.758625 0.648187 0.0630938
1305031931.827415 1.90428 0.211574 -0.279209 0.0209697 0.756587 0.650999 0.0577688
1305031931.859949 1.91139 0.218894 -0.274265 0.0251367 0.754269 0.654026 0.0519341
1305031931.891964 1.91933 0.225312 -0.273322 0.0312319 0.749574 0.659685 0.0444926
1305031931.927455 1.92833 0.230978 -0.275052 0.035559 0.746355 0.663475 0.0385989
1305031931.959755 1.9358 0.236362 -0.273102 0.0401067 0.745816 0.664123 0.0330253
1305031931.991729 1.94273 0.241896 -0.274168 0.0453011 0.744207 0.665799 0.0285342
1305031932.026867 1.94854 0.247 -0.274016 0.0493779 0.74412 0.665802 0.0235569
1305031932.058924 1.95515 0.251676 -0.275167 0.0546522 0.743689 0.666057 0.0175505
1305031932.092565 1.96161 0.257717 -0.273774 0.0577915 0.744249 0.665254 0.0137765
1305031932.127607 1.96754 0.263505 -0.276779 0.0620938 0.742188 0.667237 0.00981573
1305031932.159854 1.97762 0.268273 -0.280746 0.0689445 0.740676 0.668268 0.00802954
1305031932.192165 1.98831 0.272781 -0.283376 0.0731951 0.739368 0.669201 0.0121228
1305031932.227671 1.99575 0.276935 -0.290294 0.076787 0.737374 0.670824 0.019448
1305031932.259182 2.00556 0.28167 -0.29636 0.0794411 0.736703 0.670968 0.0275404
1305031932.291317 2.01234 0.28483 -0.305209 0.0825443 0.735381 0.671617 0.0364952
1305031932.326984 2.01842 0.289851 -0.312841 0.0843632 0.736168 0.67001 0.0450186
1305031932.359352 2.02478 0.294159 -0.32259 0.0863168 0.736436 0.669068 0.0505897
1305031932.395192 2.03197 0.298499 -0.33234 0.0882189 0.738082 0.666389 0.0581284
1305031932.427402 2.03951 0.30345 -0.339991 0.0910244 0.740302 0.662816 0.0658954
1305031932.460162 2.04707 0.308491 -0.347452 0.0946119 0.741185 0.660458 0.0740859
1305031932.495912 2.05469 0.31295 -0.35722 0.0986443 0.741041 0.658988 0.0828381
1305031932.527699 2.06126 0.317478 -0.366807 0.100798 0.741023 0.657253 0.0935047
1305031932.556042 2.06761 0.321365 -0.377499 0.103478 0.740963 0.65538 0.103652
1305031932.593841 2.07518 0.325204 -0.387426 0.105396 0.742234 0.651728 0.115024
1305031932.627666 2.08318 0.327054 -0.396353 0.10625 0.743027 0.648131 0.128638
1305031932.659769 2.0906 0.329234 -0.406323 0.107152 0.744019 0.643816 0.143025
1305031932.695841 2.09525 0.331393 -0.415806 0.108396 0.744972 0.638837 0.1586
1305031932.727524 2.10211 0.331734 -0.425807 0.109166 0.746108 0.633694 0.172737
1305031932.759892 2.10913 0.333011 -0.435126 0.109197 0.748128 0.627552 0.185903
1305031932.795486 2.11794 0.332972 -0.446457 0.110699 0.750099 0.621262 0.197814
1305031932.827627 2.12649 0.333133 -0.455361 0.112856 0.753166 0.613328 0.209365
1305031932.859777 2.13331 0.333899 -0.464256 0.114216 0.756182 0.605672 0.219784
1305031932.896209 2.14173 0.332822 -0.477268 0.113944 0.759745 0.59793 0.228658
1305031932.928147 2.14872 0.333225 -0.48607 0.114445 0.765328 0.587348 0.23706
1305031932.959759 2.15526 0.334314 -0.491168 0.115656 0.768146 0.58021 0.244811
1305031932.995065 2.1615 0.336365 -0.499959 0.11452 0.769685 0.575043 0.252578
1305031933.026975 2.16811 0.337671 -0.507498 0.112072 0.774041 0.568276 0.25566
1305031933.059632 2.17214 0.341359 -0.511727 0.11028 0.778877 0.561775 0.25612
1305031933.095661 2.17489 0.345887 -0.516728 0.108108 0.78104 0.559599 0.255222
1305031933.127608 2.17864 0.350769 -0.522825 0.107205 0.784626 0.557349 0.249464
1305031933.159744 2.18057 0.356032 -0.525174 0.106169 0.790844 0.55332 0.23902
1305031933.195887 2.18397 0.359194 -0.528438 0.10368 0.795367 0.55253 0.226611
1305031933.227642 2.18833 0.360649 -0.531503 0.100793 0.799274 0.552206 0.214638
1305031933.259844 2.19068 0.362927 -0.531914 0.0985557 0.802988 0.550678 0.20555
1305031933.296061 2.19176 0.364647 -0.533837 0.097058 0.806269 0.548754 0.198442
1305031933.327953 2.1915 0.368675 -0.532156 0.0971358 0.808935 0.547648 0.190447
1305031933.359852 2.19002 0.371203 -0.532337 0.0976199 0.809644 0.549023 0.183087
1305031933.395603 2.18802 0.37305 -0.53196 0.0978683 0.810995 0.549524 0.175304
1305031933.427651 2.18483 0.37658 -0.527978 0.0992895 0.811946 0.550189 0.167862
1305031933.459920 2.18279 0.378481 -0.527893 0.0997318 0.811051 0.553703 0.160199
1305031933.495920 2.17999 0.379358 -0.526706 0.100226 0.811456 0.555354 0.151909
1305031933.527835 2.1743 0.381773 -0.524835 0.100351 0.812455 0.556018 0.143844
1305031933.564265 2.17005 0.3832 -0.52264 0.098795 0.813444 0.557127 0.134752
1305031933.595687 2.16362 0.384809 -0.521222 0.0989056 0.814497 0.558293 0.122969
1305031933.626979 2.15454 0.386428 -0.51888 0.0994955 0.815707 0.559055 0.110365
1305031933.663105 2.14703 0.388996 -0.515295 0.0988084 0.817033 0.559953 0.0956386
1305031933.695772 2.14107 0.389707 -0.51079 0.0985279 0.817519 0.561941 0.0785932
1305031933.727622 2.13529 0.390039 -0.506337 0.0982354 0.817702 0.563888 0.0611777
1305031933.763831 2.12794 0.389869 -0.501916 0.098673 0.816987 0.566453 0.0438908
1305031933.795823 2.12125 0.38935 -0.495656 0.097649 0.816924 0.567688 0.0288178
1305031933.827513 2.11585 0.389212 -0.486008 0.0955417 0.817449 0.567857 0.0136592
1305031933.863871 2.111 0.389032 -0.475388 0.0931069 0.816598 0.569648 -0.000154151
1305031933.895826 2.10597 0.387452 -0.466799 0.0909352 0.814767 0.572474 -0.0126471
1305031933.927864 2.09891 0.386591 -0.457221 0.0880921 0.813222 0.574857 -0.0212226
1305031933.964067 2.09132 0.385336 -0.449285 0.0860129 0.811143 0.577741 -0.0293885
1305031933.996159 2.08373 0.3835 -0.440947 0.0848548 0.808517 0.58118 -0.0364618
1305031934.025036 2.07711 0.382012 -0.432525 0.0832295 0.806114 0.584399 -0.0416009
1305031934.062070 2.0705 0.380742 -0.42409 0.0804603 0.803884 0.587484 -0.0464702
1305031934.095754 2.06463 0.37944 -0.413346 0.0769666 0.802235 0.589726 -0.0521329
1305031934.123903 2.05792 0.377345 -0.401897 0.0737305 0.800048 0.592449 -0.0590865
1305031934.163843 2.04908 0.374073 -0.392106 0.0707249 0.79759 0.595348 -0.0663951
1305031934.196078 2.04004 0.37044 -0.382797 0.0672461 0.795523 0.59779 -0.0725828
1305031934.226959 2.03041 0.366909 -0.373234 0.0641982 0.792837 0.600901 -0.078783
1305031934.263347 2.0217 0.362531 -0.364696 0.063294 0.790212 0.603442 -0.0861215
1305031934.295644 2.01259 0.358008 -0.356391 0.0627133 0.788565 0.604974 -0.090766
1305031934.327544 2.00449 0.354178 -0.347468 0.0617324 0.786021 0.607968 -0.0934614
1305031934.363432 1.99617 0.349047 -0.3423 0.0615423 0.782823 0.611905 -0.0947255
1305031934.395278 1.98644 0.343388 -0.334344 0.0606759 0.781745 0.613612 -0.0931312
1305031934.427107 1.9759 0.337948 -0.328194 0.0593677 0.780604 0.615777 -0.0891694
1305031934.460046 1.96478 0.331691 -0.325089 0.0560965 0.780486 0.617055 -0.0832915
1305031934.495228 1.95367 0.326492 -0.317139 0.0485733 0.783074 0.615399 -0.0756317
1305031934.527409 1.94088 0.321126 -0.310973 0.0401991 0.783665 0.615941 -0.0697832
1305031934.563395 1.92677 0.314386 -0.308791 0.0353847 0.783996 0.61614 -0.0668628
1305031934.595082 1.91296 0.30823 -0.304197 0.0322621 0.785545 0.614499 -0.0653396
1305031934.627102 1.89909 0.301914 -0.30096 0.030726 0.785363 0.615014 -0.0633845
1305031934.662910 1.88626 0.295389 -0.29971 0.0292546 0.785433 0.615462 -0.0586934
1305031934.694817 1.87038 0.289619 -0.294931 0.0256741 0.788242 0.612636 -0.0518911
1305031934.726749 1.85464 0.283494 -0.291795 0.0223242 0.789328 0.611834 -0.0460763
1305031934.762903 1.8408 0.27722 -0.289867 0.0194161 0.790616 0.610702 -0.0398923
1305031934.794831 1.82586 0.272538 -0.285847 0.0152748 0.792872 0.608357 -0.0319784
1305031934.830983 1.81096 0.266805 -0.284145 0.0124282 0.793843 0.607454 -0.0256681
1305031934.862668 1.79524 0.260923 -0.28166 0.00928312 0.795986 0.604975 -0.018059
1305031934.894445 1.7789 0.255723 -0.278487 0.00504469 0.798584 0.601792 -0.0092085
1305031934.931747 1.76297 0.249896 -0.276834 0.00179218 0.800952 0.598726 0.000259699
1305031934.963384 1.74553 0.243435 -0.276672 -0.00197535 0.804406 0.593991 0.0100684
1305031934.995132 1.72749 0.236602 -0.276343 -0.00768034 0.809001 0.587415 0.0200533
1305031935.033022 1.70937 0.230505 -0.276152 -0.0120459 0.813469 0.580766 0.0288863
1305031935.063116 1.69307 0.224072 -0.277556 -0.0128608 0.817455 0.574784 0.0349995
1305031935.095058 1.67658 0.218999 -0.277824 -0.0118543 0.821544 0.568533 0.0411692
1305031935.130727 1.65797 0.215244 -0.277697 -0.0116146 0.823888 0.564715 0.0465945
1305031935.162214 1.64245 0.210968 -0.281332 -0.0117832 0.825039 0.562823 0.0490089
1305031935.194899 1.62658 0.206847 -0.284733 -0.010227 0.827062 0.559609 0.05197
1305031935.231025 1.61159 0.204209 -0.287291 -0.00554353 0.828211 0.557825 0.0535492
1305031935.260736 1.59807 0.201791 -0.290732 -0.000111372 0.828284 0.557536 0.0556722
1305031935.295152 1.5824 0.19928 -0.295376 0.00468029 0.828258 0.557292 0.0582448
1305031935.330960 1.56464 0.197686 -0.299328 0.00717131 0.828382 0.557029 0.0587351
1305031935.363255 1.54635 0.195677 -0.304402 0.01065 0.828839 0.55651 0.0566509
1305031935.394932 1.52855 0.193683 -0.310442 0.0154209 0.828434 0.557463 0.0519035
1305031935.430905 1.5119 0.192113 -0.316066 0.0217937 0.828296 0.558124 0.0441469
1305031935.463017 1.49557 0.190114 -0.32194 0.0285313 0.828126 0.558636 0.0363286
1305031935.493044 1.47864 0.187686 -0.328808 0.0339158 0.828867 0.557589 0.0303998
1305031935.530045 1.46664 0.183761 -0.337475 0.0387363 0.830913 0.554621 0.0218661
1305031935.562732 1.45212 0.179936 -0.346416 0.0429485 0.833862 0.550107 0.0145451
1305031935.594819 1.43478 0.176018 -0.355583 0.0459485 0.838005 0.543687 0.0063597
1305031935.631390 1.42369 0.171181 -0.362279 0.0457811 0.843754 0.534745 -0.00559693
1305031935.663543 1.40891 0.165007 -0.371444 0.0443784 0.850596 0.523606 -0.0188147
1305031935.695531 1.39726 0.15933 -0.377083 0.0388078 0.858457 0.510285 -0.0339669
1305031935.731180 1.38637 0.154885 -0.380257 0.0301636 0.866227 0.496177 -0.0504983
1305031935.763521 1.37238 0.149242 -0.385745 0.019481 0.873768 0.480909 -0.0698305
1305031935.795359 1.36396 0.146192 -0.384421 0.00961851 0.880148 0.465872 -0.0906144
1305031935.831205 1.3559 0.142979 -0.383859 0.00213909 0.884231 0.454208 -0.108749
1305031935.863651 1.34854 0.136937 -0.387307 -0.00499672 0.887118 0.444745 -0.123278
1305031935.895325 1.34291 0.131343 -0.390449 -0.0103148 0.889518 0.436141 -0.135764
1305031935.931428 1.33855 0.12645 -0.396286 -0.0149594 0.892054 0.427172 -0.146765
1305031935.963243 1.33326 0.122823 -0.401899 -0.0208089 0.89495 0.418037 -0.154522
1305031935.995756 1.32577 0.118321 -0.405197 -0.0288604 0.898363 0.408306 -0.159362
1305031936.031927 1.32037 0.115368 -0.410439 -0.037188 0.90129 0.399184 -0.164148
1305031936.063602 1.31006 0.108791 -0.414521 -0.0440493 0.903856 0.390633 -0.168846
1305031936.099066 1.30207 0.106884 -0.416983 -0.0500716 0.905686 0.382853 -0.175067
1305031936.130808 1.29406 0.103189 -0.423587 -0.0539422 0.906947 0.375651 -0.18282
1305031936.163443 1.28256 0.0988057 -0.425989 -0.0542374 0.908056 0.369062 -0.190487
1305031936.200045 1.27376 0.0990896 -0.428441 -0.0537607 0.908626 0.363689 -0.19809
1305031936.231637 1.26533 0.0962372 -0.434572 -0.0540345 0.909419 0.357423 -0.205636
1305031936.262854 1.25572 0.0907989 -0.438571 -0.054197 0.91056 0.350444 -0.212442
1305031936.299656 1.2474 0.0882778 -0.440174 -0.0545291 0.911474 0.3435 -0.219658
1305031936.331649 1.24379 0.0914911 -0.440772 -0.0505057 0.912899 0.334166 -0.228906
1305031936.363578 1.24125 0.0930804 -0.444407 -0.0445417 0.914327 0.324619 -0.238002
1305031936.399525 1.23382 0.0958721 -0.442214 -0.0406919 0.915597 0.315919 -0.245402
1305031936.431784 1.22396 0.0944985 -0.442359 -0.0368872 0.916062 0.309387 -0.252485
1305031936.463134 1.21672 0.0951306 -0.443575 -0.0342338 0.916548 0.302939 -0.258837
1305031936.499445 1.20667 0.0947016 -0.443594 -0.0317598 0.91741 0.296442 -0.263576
1305031936.531202 1.19813 0.0984583 -0.441902 -0.0300686 0.91858 0.289441 -0.267451
1305031936.563251 1.18905 0.0998108 -0.443019 -0.0286292 0.919572 0.28459 -0.2694
1305031936.599685 1.18232 0.103063 -0.444064 -0.0248028 0.920818 0.279459 -0.270889
1305031936.631518 1.17193 0.104733 -0.443913 -0.0200617 0.922029 0.275473 -0.271245
1305031936.663832 1.16208 0.110819 -0.440788 -0.0202595 0.922573 0.273354 -0.271526
1305031936.699970 1.15164 0.115648 -0.440473 -0.0232124 0.922322 0.271376 -0.274113
1305031936.731597 1.14098 0.117171 -0.442019 -0.0211716 0.922046 0.268502 -0.278011
1305031936.763730 1.12887 0.127797 -0.436463 -0.0185258 0.922217 0.267722 -0.278385
1305031936.799809 1.11611 0.137689 -0.433551 -0.0176776 0.921837 0.269693 -0.277793
1305031936.831892 1.1015 0.146411 -0.429823 -0.011014 0.92151 0.271924 -0.277046
1305031936.863697 1.08728 0.154788 -0.429205 -0.0042754 0.920209 0.278893 -0.274619
1305031936.900115 1.07171 0.164207 -0.427847 0.00192808 0.918306 0.28871 -0.270845
1305031936.931480 1.05576 0.173747 -0.42529 0.0072622 0.916338 0.300365 -0.264675
1305031936.963897 1.04208 0.185719 -0.422992 0.00954578 0.913009 0.315316 -0.258648
1305031937.000148 1.02561 0.193006 -0.422808 0.0143089 0.909523 0.329104 -0.253483
1305031937.032120 1.01054 0.201601 -0.422278 0.0197174 0.906544 0.341317 -0.24757
1305031937.060179 0.994925 0.208647 -0.423613 0.0272624 0.903271 0.355327 -0.238956
1305031937.097948 0.982318 0.219116 -0.422055 0.034066 0.900389 0.368261 -0.229181
1305031937.131381 0.97025 0.228988 -0.419894 0.0373955 0.897708 0.37964 -0.220444
1305031937.162199 0.957839 0.238345 -0.416109 0.0422147 0.893982 0.391109 -0.214585
1305031937.199678 0.945438 0.24762 -0.413393 0.0483302 0.8893 0.403394 -0.209958
1305031937.231385 0.934999 0.257719 -0.410829 0.056373 0.884894 0.41451 -0.204857
1305031937.263361 0.925647 0.267435 -0.407759 0.0640785 0.879323 0.427791 -0.199199
1305031937.299172 0.915683 0.278569 -0.402181 0.0708087 0.873664 0.440239 -0.194646
1305031937.331472 0.905938 0.2879 -0.399533 0.079205 0.867568 0.452476 -0.190573
1305031937.367035 0.900927 0.301682 -0.391726 0.0829864 0.861961 0.463572 -0.187719
1305031937.399644 0.893675 0.313316 -0.38469 0.0853347 0.856353 0.473294 -0.188072
1305031937.431305 0.886358 0.321833 -0.380201 0.0887453 0.850485 0.483069 -0.188265
1305031937.467256 0.881812 0.331792 -0.37605 0.092041 0.844583 0.493435 -0.186363
1305031937.499237 0.877005 0.343183 -0.369369 0.0941271 0.838443 0.504703 -0.182836
1305031937.531606 0.872204 0.353848 -0.364259 0.0955131 0.830554 0.518477 -0.179552
1305031937.566400 0.86767 0.364972 -0.359479 0.0993549 0.822026 0.531792 -0.177764
1305031937.599586 0.863401 0.375711 -0.353903 0.103294 0.813155 0.544993 -0.176329
1305031937.627766 0.859044 0.386825 -0.346564 0.104358 0.805542 0.556487 -0.174741
1305031937.667658 0.853569 0.397884 -0.337922 0.106158 0.797383 0.56748 -0.175718
1305031937.699645 0.848049 0.407394 -0.329153 0.107321 0.789473 0.577675 -0.177502
1305031937.731732 0.84287 0.4163 -0.323088 0.108222 0.782407 0.586099 -0.180596
1305031937.767791 0.834918 0.424796 -0.316656 0.110033 0.775592 0.594201 -0.182416
1305031937.799732 0.828902 0.432444 -0.308946 0.108508 0.770634 0.600508 -0.183684
1305031937.831889 0.820432 0.439875 -0.303287 0.106986 0.765858 0.605963 -0.186613
1305031937.867758 0.815377 0.44847 -0.296774 0.106796 0.760276 0.61142 -0.191677
1305031937.899933 0.809592 0.455661 -0.293138 0.106406 0.754475 0.616671 -0.197895
1305031937.931831 0.801425 0.462695 -0.291053 0.106011 0.747748 0.622256 -0.205993
1305031937.968127 0.791821 0.468712 -0.290104 0.106595 0.739454 0.628565 -0.216221
1305031938.000042 0.781404 0.474597 -0.285453 0.106558 0.732678 0.63267 -0.227061
1305031938.031836 0.769405 0.480243 -0.281359 0.107137 0.725452 0.63704 -0.237531
1305031938.067761 0.758705 0.484474 -0.27883 0.10749 0.718675 0.640304 -0.248922
1305031938.100010 0.751305 0.489645 -0.275095 0.106032 0.71317 0.642437 -0.259653
1305031938.131856 0.744049 0.494992 -0.272149 0.105531 0.70581 0.64614 -0.270554
1305031938.168307 0.734101 0.498453 -0.266703 0.108208 0.697443 0.649054 -0.283889
1305031938.199974 0.727451 0.502483 -0.260647 0.112211 0.688612 0.65227 -0.296254
1305031938.231649 0.714723 0.504063 -0.257249 0.117508 0.678539 0.656965 -0.306879
1305031938.267768 0.708428 0.50623 -0.251948 0.119936 0.670614 0.658527 -0.31974
1305031938.300089 0.700253 0.507039 -0.245861 0.121346 0.663802 0.658319 -0.333553
1305031938.331736 0.697299 0.509395 -0.240689 0.118802 0.658933 0.656703 -0.347038
1305031938.367715 0.69101 0.509425 -0.240518 0.116012 0.653079 0.656378 -0.359439
1305031938.400257 0.684762 0.509111 -0.238208 0.11363 0.648127 0.655157 -0.3712
1305031938.431934 0.678224 0.507572 -0.235435 0.109234 0.643953 0.653497 -0.382537
1305031938.468046 0.67009 0.503126 -0.233625 0.104759 0.64093 0.650518 -0.393777
1305031938.496114 0.669419 0.502571 -0.228553 0.0996258 0.639792 0.64611 -0.404083
1305031938.535972 0.664143 0.498369 -0.228626 0.0933851 0.638018 0.644021 -0.411641
1305031938.563904 0.656681 0.49258 -0.22606 0.0842259 0.639576 0.639192 -0.418668
1305031938.598200 0.651837 0.486063 -0.226675 0.0742657 0.640678 0.634692 -0.425656
1305031938.637455 0.643353 0.477777 -0.230702 0.0653974 0.640908 0.630796 -0.4325
1305031938.667115 0.638543 0.468653 -0.233804 0.055444 0.64326 0.623404 -0.441032
1305031938.699613 0.630721 0.456764 -0.235999 0.0461932 0.646597 0.617217 -0.445894
1305031938.735353 0.625833 0.446213 -0.241856 0.0338925 0.650504 0.609702 -0.451618
1305031938.767438 0.619424 0.433069 -0.249934 0.021775 0.653882 0.601893 -0.457918
1305031938.799553 0.618094 0.423131 -0.255832 0.00684804 0.657993 0.593479 -0.463444
1305031938.835081 0.618866 0.413699 -0.262733 -0.00937824 0.662313 0.583521 -0.469847
1305031938.867115 0.61853 0.403307 -0.268099 -0.0244561 0.666678 0.573003 -0.476036
1305031938.899948 0.621193 0.39495 -0.272637 -0.0409842 0.670826 0.56165 -0.482557
1305031938.935595 0.620182 0.383152 -0.280075 -0.0551702 0.674058 0.550402 -0.489551
1305031938.967685 0.620312 0.369566 -0.289456 -0.0672167 0.677435 0.538087 -0.497018
1305031939.000242 0.619931 0.355373 -0.299168 0.0761528 -0.680942 -0.52696 0.502825
1305031939.035825 0.620834 0.344912 -0.308233 0.0848152 -0.683707 -0.517494 0.507494
1305031939.067934 0.622071 0.334302 -0.314979 0.0926342 -0.686889 -0.508416 0.510995
1305031939.099862 0.623463 0.324163 -0.319668 0.0986021 -0.69109 -0.497849 0.514605
1305031939.135566 0.624621 0.312382 -0.325256 0.10424 -0.695436 -0.486959 0.518048
1305031939.167694 0.626386 0.302129 -0.32749 0.112621 -0.700969 -0.475536 0.519446
1305031939.200214 0.627363 0.289086 -0.335544 0.119613 -0.706219 -0.464515 0.520743
1305031939.235712 0.629808 0.278146 -0.341853 0.127106 -0.711674 -0.452435 0.522175
1305031939.267640 0.63144 0.265506 -0.349674 0.134969 -0.717023 -0.440289 0.523266
1305031939.300206 0.633583 0.255467 -0.355658 0.14399 -0.721943 -0.428671 0.523743
1305031939.335053 0.635993 0.244872 -0.361682 0.154536 -0.727298 -0.414673 0.524598
1305031939.367490 0.638539 0.235117 -0.366314 0.165694 -0.73349 -0.398157 0.525365
1305031939.399885 0.641712 0.224899 -0.37189 0.178916 -0.739794 -0.38082 0.525043
1305031939.435410 0.644939 0.214388 -0.376392 0.18843 -0.745488 -0.366007 0.524195
1305031939.467647 0.647701 0.20684 -0.376464 0.194487 -0.751045 -0.353299 0.522768
1305031939.499844 0.65072 0.199186 -0.378792 0.197778 -0.755957 -0.34254 0.521612
1305031939.535364 0.653065 0.190233 -0.379942 0.200341 -0.760563 -0.333864 0.51956
1305031939.567564 0.654795 0.179383 -0.381749 0.204238 -0.762936 -0.327251 0.51877
1305031939.600160 0.65685 0.169675 -0.381676 0.206602 -0.764727 -0.320029 0.519701
1305031939.635762 0.659731 0.161394 -0.381543 0.208457 -0.765977 -0.313423 0.521144
1305031939.667415 0.661687 0.152037 -0.381247 0.20848 -0.766796 -0.308181 0.523052
1305031939.700124 0.664661 0.146461 -0.380827 0.207627 -0.766693 -0.304264 0.52583
1305031939.735464 0.665413 0.138798 -0.378588 0.205079 -0.76575 -0.301831 0.529592
1305031939.767882 0.66541 0.131274 -0.375538 0.203134 -0.764158 -0.299074 0.534185
1305031939.803685 0.664133 0.123617 -0.368864 0.202772 -0.761783 -0.296925 0.538893
1305031939.835759 0.663232 0.11748 -0.364929 0.201753 -0.756855 -0.295121 0.547147
1305031939.863918 0.661639 0.113601 -0.358413 0.200507 -0.751392 -0.291231 0.557128
1305031939.903642 0.659436 0.108413 -0.350698 0.200152 -0.74529 -0.288549 0.566763
1305031939.936002 0.656744 0.107425 -0.341628 0.19863 -0.738796 -0.286078 0.576962
1305031939.967674 0.652596 0.106266 -0.332045 0.196559 -0.729931 -0.287897 0.587946
1305031940.005613 0.646897 0.105225 -0.32589 0.194819 -0.718527 -0.293415 0.599726
1305031940.031897 0.641875 0.104294 -0.321702 0.190368 -0.707284 -0.296517 0.612851
1305031940.067499 0.636518 0.105197 -0.317276 0.187517 -0.695476 -0.299607 0.625609
1305031940.104322 0.630642 0.103807 -0.316997 0.189218 -0.68303 -0.301144 0.637949
1305031940.135843 0.624029 0.101829 -0.313676 0.193685 -0.671697 -0.300937 0.648649
1305031940.168748 0.618738 0.103442 -0.313895 0.197909 -0.661223 -0.299298 0.658815
1305031940.200119 0.61367 0.106412 -0.315403 0.200108 -0.651881 -0.296264 0.668757
1305031940.235303 0.607578 0.111938 -0.314832 0.198666 -0.644696 -0.291917 0.678
1305031940.267548 0.600175 0.114947 -0.313913 0.196858 -0.63741 -0.288832 0.686681
1305031940.300057 0.59169 0.117522 -0.309762 0.193516 -0.628529 -0.28425 0.697642
1305031940.335962 0.583402 0.119778 -0.307558 0.192207 -0.616835 -0.278686 0.710567
1305031940.367240 0.577068 0.13045 -0.304999 0.188984 -0.602494 -0.272066 0.726131
1305031940.403701 0.570039 0.137785 -0.301378 0.183169 -0.585532 -0.268327 0.742699
1305031940.435753 0.56473 0.147138 -0.297161 0.176652 -0.569297 -0.261458 0.759167
1305031940.467066 0.559078 0.156387 -0.293336 0.169705 -0.553945 -0.253819 0.774546
1305031940.503814 0.552921 0.166397 -0.292175 0.163337 -0.539213 -0.247808 0.788138
1305031940.535239 0.547917 0.177818 -0.288683 0.161038 -0.527256 -0.242287 0.798351
1305031940.566964 0.543992 0.191239 -0.285677 0.158261 -0.516651 -0.238212 0.807019
1305031940.603395 0.53912 0.196011 -0.282496 0.154669 -0.507427 -0.23594 0.814204
1305031940.635226 0.532566 0.197424 -0.281551 0.15443 -0.497205 -0.234038 0.821075
1305031940.666993 0.527898 0.200184 -0.279354 0.154367 -0.486655 -0.228458 0.828942
1305031940.703234 0.52339 0.205379 -0.27647 0.154585 -0.476153 -0.224911 0.835941
1305031940.735222 0.516554 0.20533 -0.273633 0.154864 -0.466073 -0.224137 0.841757
1305031940.766929 0.510998 0.210385 -0.267157 0.154906 -0.456829 -0.221819 0.847413
1305031940.803100 0.506471 0.215932 -0.26116 0.154096 -0.448341 -0.220161 0.85251
1305031940.835097 0.499958 0.217503 -0.255514 0.150884 -0.439876 -0.219307 0.857699
1305031940.867019 0.492447 0.221712 -0.249748 0.147944 -0.431321 -0.220477 0.862244
1305031940.903314 0.48402 0.231518 -0.246016 0.1454 -0.421677 -0.225525 0.866132
1305031940.935305 0.476657 0.240396 -0.234892 0.143049 -0.412581 -0.229333 0.869897
1305031940.967150 0.467113 0.244935 -0.226663 0.139456 -0.403364 -0.233305 0.873738
1305031941.003186 0.457416 0.249111 -0.217588 0.136155 -0.394399 -0.236452 0.877497
1305031941.035260 0.448145 0.251172 -0.208714 0.133846 -0.386993 -0.239206 0.880399
1305031941.071076 0.440661 0.255343 -0.19779 0.132346 -0.381447 -0.241801 0.882335
1305031941.103456 0.42949 0.260138 -0.189205 0.1302 -0.375656 -0.244287 0.884452
1305031941.135554 0.417858 0.261883 -0.179053 0.128033 -0.370259 -0.246156 0.886523
1305031941.171171 0.407148 0.261318 -0.167933 0.124544 -0.364477 -0.245323 0.889641
1305031941.203532 0.39601 0.262165 -0.158903 0.121731 -0.358542 -0.242082 0.893323
1305031941.235196 0.38298 0.262504 -0.15105 0.121203 -0.350719 -0.239381 0.89722
1305031941.271139 0.368302 0.263568 -0.143641 0.119963 -0.341986 -0.235123 0.901871
1305031941.303377 0.354835 0.262564 -0.135357 0.118778 -0.333448 -0.229866 0.906568
1305031941.335303 0.34109 0.261067 -0.12759 0.118318 -0.323675 -0.222741 0.911933
1305031941.371617 0.329003 0.261039 -0.119256 0.116275 -0.31472 -0.213649 0.917489
1305031941.403877 0.316152 0.262838 -0.111767 0.110759 -0.308531 -0.202941 0.92269
1305031941.435687 0.303479 0.260525 -0.104005 0.101948 -0.303894 -0.190741 0.927832
1305031941.469619 0.288417 0.258575 -0.0986073 0.0928249 -0.300364 -0.173637 0.933282
1305031941.501518 0.275569 0.259358 -0.0923377 0.0857143 -0.29796 -0.15843 0.937429
1305031941.534653 0.264869 0.252705 -0.0856711 0.0787495 -0.29321 -0.149791 0.940951
1305031941.570302 0.255484 0.248393 -0.0772978 0.0762109 -0.284794 -0.144259 0.944602
1305031941.603072 0.248198 0.246607 -0.0681612 0.0749074 -0.273239 -0.13895 0.948906
1305031941.635675 0.239339 0.247242 -0.0614335 0.0716586 -0.260002 -0.133462 0.953652
1305031941.671562 0.228695 0.248607 -0.0564004 0.0662729 -0.246801 -0.127069 0.958411
1305031941.703773 0.215179 0.244804 -0.0525686 0.0619866 -0.235069 -0.118299 0.962759
1305031941.735592 0.2028 0.24453 -0.0476867 0.0630514 -0.224757 -0.112682 0.965822
1305031941.767812 0.189344 0.247929 -0.0437423 0.063594 -0.214235 -0.110216 0.968458
1305031941.800828 0.175332 0.248001 -0.038494 0.0635777 -0.205894 -0.110115 0.970278
1305031941.832014 0.160711 0.246584 -0.0341529 0.0649858 -0.198158 -0.111199 0.971671
1305031941.871824 0.1453 0.249139 -0.0302104 0.0683707 -0.191785 -0.110906 0.972751
1305031941.903043 0.128902 0.246918 -0.0261207 0.0714295 -0.18612 -0.109871 0.973748
1305031941.935190 0.111976 0.247589 -0.022335 0.0785358 -0.180801 -0.108537 0.974353
1305031941.971085 0.0951105 0.252213 -0.0193773 0.0855233 -0.175762 -0.105411 0.975029
1305031942.003159 0.0805629 0.254233 -0.0161211 0.0923628 -0.171603 -0.10159 0.975552
1305031942.035444 0.0655341 0.258129 -0.0133645 0.0982343 -0.168704 -0.0986278 0.975788
1305031942.071092 0.0486215 0.264134 -0.0105119 0.104994 -0.168632 -0.0965466 0.975304
1305031942.099769 0.0353464 0.278487 -0.00480186 0.108134 -0.169289 -0.0989409 0.974607
1305031942.135205 0.0207182 0.282704 0.000386221 0.100983 -0.166966 -0.102427 0.975415
1305031942.170762 0.00701081 0.281604 0.0054819 0.0971286 -0.164098 -0.106062 0.975904
1305031942.203125 -0.00470651 0.290946 0.0109598 0.0966976 -0.160831 -0.108633 0.976208
1305031942.239026 -0.0167928 0.294731 0.0158731 0.0914561 -0.156829 -0.111488 0.977042
1305031942.271143 -0.0273573 0.299818 0.0220042 0.0895116 -0.152368 -0.113253 0.977725
1305031942.303198 -0.0363508 0.312238 0.0271009 0.0836501 -0.147335 -0.112987 0.979045
1305031942.335609 -0.0459517 0.312916 0.0330642 0.0740011 -0.145021 -0.111779 0.980305
1305031942.370779 -0.0549595 0.321492 0.0387602 0.0676431 -0.143201 -0.110084 0.981223
1305031942.402950 -0.0641976 0.32312 0.044951 0.0580732 -0.143011 -0.110426 0.981826
1305031942.439272 -0.0742892 0.320362 0.0490309 0.0510219 -0.144061 -0.112847 0.981789
1305031942.472314 -0.0819122 0.316502 0.0554467 0.0511018 -0.145883 -0.11583 0.981168
1305031942.503687 -0.0894168 0.320863 0.0612234 0.0536985 -0.145428 -0.116815 0.98098
1305031942.539471 -0.0970503 0.320903 0.0660117 0.0527116 -0.14589 -0.114978 0.981182
1305031942.571873 -0.104783 0.318794 0.0709211 0.053672 -0.148624 -0.115048 0.980711
1305031942.601458 -0.111334 0.318156 0.076674 0.054585 -0.152846 -0.116135 0.979883
1305031942.639952 -0.116773 0.319263 0.083291 0.0559864 -0.157207 -0.117997 0.978891
1305031942.667679 -0.122168 0.319896 0.0901275 0.0550802 -0.161449 -0.121533 0.977819
1305031942.704026 -0.128891 0.319872 0.0965625 0.0509293 -0.165545 -0.126621 0.976713
1305031942.739823 -0.134674 0.319066 0.105183 0.0481683 -0.168786 -0.133562 0.975373
1305031942.771728 -0.139846 0.318259 0.112763 0.0448635 -0.169854 -0.136708 0.974909
1305031942.801585 -0.144465 0.315267 0.120545 0.0434187 -0.17016 -0.139793 0.974484
1305031942.841069 -0.148884 0.313647 0.127953 0.0429327 -0.169417 -0.142051 0.974308
1305031942.867914 -0.156757 0.310207 0.132967 0.0397223 -0.169496 -0.142954 0.974298
1305031942.903971 -0.16245 0.306241 0.139431 0.0374454 -0.172711 -0.144841 0.973545
1305031942.936255 -0.164977 0.304903 0.14673 0.0349633 -0.176347 -0.14644 0.972746
1305031942.970947 -0.169251 0.297199 0.153699 0.0333622 -0.178514 -0.15036 0.971809
1305031943.001126 -0.171885 0.293522 0.160121 0.0340871 -0.179008 -0.152926 0.971292
1305031943.039973 -0.177208 0.28404 0.164757 0.0336754 -0.181288 -0.15678 0.970268
1305031943.071764 -0.180823 0.280343 0.170029 0.035447 -0.185337 -0.160338 0.968858
1305031943.104196 -0.181558 0.276023 0.177102 0.0347891 -0.189412 -0.163062 0.967638
1305031943.139631 -0.18579 0.265335 0.18159 0.0322597 -0.190934 -0.164009 0.967267
1305031943.171931 -0.185016 0.256362 0.188987 0.0318832 -0.192888 -0.162635 0.967123
1305031943.201583 -0.185463 0.246115 0.195142 0.0307696 -0.194149 -0.161067 0.96717
1305031943.240026 -0.186625 0.232109 0.200434 0.0297616 -0.194679 -0.160113 0.967253
1305031943.272012 -0.1857 0.218961 0.205901 0.0293715 -0.195202 -0.158631 0.967404
1305031943.303977 -0.188048 0.200519 0.209531 0.0291058 -0.195891 -0.157714 0.967422
1305031943.339953 -0.189663 0.181928 0.212431 0.0320734 -0.198055 -0.157078 0.966991
1305031943.371795 -0.189275 0.166511 0.214983 0.0378119 -0.200015 -0.155514 0.966633
1305031943.404597 -0.187442 0.150515 0.217267 0.043517 -0.202553 -0.152713 0.966311
1305031943.440230 -0.187688 0.129218 0.218267 0.0476482 -0.20452 -0.150149 0.966104
1305031943.471442 -0.184464 0.112991 0.219501 0.0554851 -0.206739 -0.148757 0.965428
1305031943.509496 -0.180278 0.101173 0.220935 0.0614778 -0.207598 -0.147768 0.965033
1305031943.539543 -0.179507 0.082594 0.220716 0.0651529 -0.207463 -0.146186 0.965061
1305031943.570040 -0.175475 0.0660826 0.220717 0.0710188 -0.208267 -0.1449 0.964668
1305031943.607498 -0.170471 0.0564118 0.220257 0.0748819 -0.208592 -0.142535 0.964658
1305031943.638034 -0.166138 0.0453894 0.219429 0.074423 -0.207762 -0.142168 0.964927
1305031943.671539 -0.166508 0.0279319 0.216467 0.0726543 -0.20479 -0.142627 0.965629
1305031943.707262 -0.16855 0.0098659 0.212331 0.0776543 -0.201774 -0.142654 0.965871
1305031943.739461 -0.166723 -0.00734905 0.208171 0.0878762 -0.201891 -0.142471 0.964997
1305031943.771360 -0.163421 -0.0167653 0.205615 0.0966589 -0.202014 -0.143483 0.963981
1305031943.806840 -0.162954 -0.0285233 0.201575 0.102125 -0.202405 -0.145393 0.963049
1305031943.837771 -0.162579 -0.0399981 0.197263 0.106877 -0.203247 -0.147574 0.962024
1305031943.867799 -0.166209 -0.0539355 0.192424 0.111049 -0.204203 -0.149987 0.960975
1305031943.907228 -0.168696 -0.0684837 0.18709 0.119843 -0.207019 -0.152195 0.958967
1305031943.935818 -0.171887 -0.0780852 0.182737 0.127322 -0.209929 -0.151943 0.957409
1305031943.971293 -0.175394 -0.0934237 0.177291 0.136936 -0.214111 -0.151026 0.955299
1305031944.007774 -0.17518 -0.102074 0.172885 0.148084 -0.214223 -0.148853 0.953951
1305031944.040559 -0.176112 -0.109456 0.170352 0.156131 -0.210672 -0.143952 0.954211
1305031944.070907 -0.1762 -0.117948 0.165689 0.16767 -0.204764 -0.137243 0.954528
1305031944.107412 -0.174821 -0.123192 0.16166 0.178732 -0.197278 -0.129982 0.955113
1305031944.139679 -0.174989 -0.127291 0.157293 0.188112 -0.190512 -0.120782 0.955892
1305031944.171401 -0.173032 -0.131003 0.153898 0.195719 -0.186511 -0.113249 0.956076
1305031944.207026 -0.170117 -0.133616 0.150737 0.201799 -0.183619 -0.10757 0.956028
1305031944.239359 -0.168617 -0.134873 0.146587 0.204916 -0.181371 -0.103023 0.956295
1305031944.270986 -0.164259 -0.136716 0.143378 0.207434 -0.178698 -0.0982594 0.956757
1305031944.306965 -0.159485 -0.136735 0.140795 0.209686 -0.174056 -0.092545 0.957691
1305031944.339327 -0.151732 -0.137635 0.13728 0.211622 -0.168611 -0.0862992 0.958822
1305031944.370764 -0.144062 -0.133832 0.135652 0.214144 -0.161598 -0.079041 0.960094
1305031944.406240 -0.136954 -0.131608 0.132661 0.213794 -0.154875 -0.0690344 0.96205
1305031944.438740 -0.128009 -0.126374 0.130998 0.212564 -0.14628 -0.0596921 0.96429
1305031944.471315 -0.120713 -0.121703 0.128599 0.20816 -0.133391 -0.0464323 0.967843
1305031944.506966 -0.11528 -0.122515 0.122285 0.204649 -0.117961 -0.0337447 0.971116
1305031944.539090 -0.105879 -0.113286 0.120051 0.204972 -0.103903 -0.024105 0.972939
1305031944.571543 -0.103306 -0.10709 0.115032 0.201055 -0.090587 -0.015374 0.975261
1305031944.607255 -0.0962771 -0.102033 0.112815 0.1961 -0.0800488 -0.00894684 0.97727
1305031944.639988 -0.0867648 -0.0986186 0.110552 0.18899 -0.0701028 -0.00462563 0.979463
1305031944.671797 -0.0778523 -0.0929307 0.109173 0.182301 -0.0594275 -0.00267311 0.981442
1305031944.707795 -0.0683015 -0.0845171 0.108286 0.173651 -0.0467262 -0.000526073 0.983698
1305031944.739963 -0.0587454 -0.0857024 0.104627 0.163207 -0.0328905 0.00627566 0.986023
1305031944.780883 -0.0501893 -0.0839505 0.102084 0.15958 -0.0188655 0.0115571 0.986937
1305031944.807934 -0.0452278 -0.0799246 0.10088 0.156031 -0.00599069 0.0144717 0.987628
1305031944.839961 -0.037538 -0.0728529 0.0998883 0.151659 0.0019526 0.0179297 0.988268
1305031944.875727 -0.0286598 -0.0695533 0.0988454 0.144943 0.00782949 0.0225138 0.989153
1305031944.903822 -0.0212005 -0.0668374 0.0977591 0.140955 0.0138848 0.0272076 0.989545
1305031944.939709 -0.0142969 -0.0627426 0.0976726 0.136872 0.0211417 0.0282698 0.98996
1305031944.979551 -0.00509674 -0.0673042 0.0955929 0.131703 0.0284896 0.0310022 0.990395
1305031945.007456 0.00339981 -0.0813572 0.0922962 0.133647 0.0340183 0.0392762 0.989666
1305031945.039953 0.0113146 -0.0914322 0.0877295 0.14846 0.0379939 0.0482337 0.98701
1305031945.079450 0.0153903 -0.0889944 0.0855614 0.169521 0.0407591 0.0547683 0.983159
1305031945.107554 0.0216051 -0.0920627 0.081857 0.185742 0.0384412 0.0623382 0.979865
1305031945.135938 0.0264673 -0.0977798 0.0758809 0.207246 0.0373831 0.0630703 0.975538
1305031945.179287 0.0317513 -0.0977026 0.0717374 0.227267 0.0363403 0.0622624 0.97116
1305031945.207131 0.0357804 -0.0980367 0.0678126 0.245674 0.034559 0.0599255 0.966881
1305031945.238880 0.0403641 -0.0946866 0.0661881 0.259677 0.0379136 0.0514765 0.963577
1305031945.276136 0.0467552 -0.094514 0.0643071 0.266556 0.0430403 0.0470762 0.961707
1305031945.306364 0.052494 -0.0987676 0.0604607 0.271514 0.0456789 0.0463731 0.960231
1305031945.338954 0.0583421 -0.106752 0.05418 0.28019 0.04473 0.0475462 0.957722
1305031945.374695 0.0648133 -0.11043 0.0497707 0.288823 0.0406724 0.0486314 0.955281
1305031945.406595 0.0703014 -0.112875 0.0466508 0.296462 0.0346553 0.0502899 0.95309
1305031945.435557 0.0767145 -0.115453 0.0419784 0.308797 0.0286008 0.0489848 0.949435
1305031945.477504 0.0867163 -0.120573 0.036643 0.320114 0.0256443 0.0425938 0.946073
1305031945.506448 0.0974173 -0.120837 0.0336047 0.325691 0.0249195 0.0365346 0.944441
1305031945.538432 0.104491 -0.125322 0.028232 0.330242 0.0274737 0.0306587 0.942998
1305031945.575422 0.11716 -0.125466 0.026899 0.338388 0.0336686 0.0268337 0.940021
1305031945.606045 0.123603 -0.116508 0.0336027 0.342407 0.0416953 0.0295761 0.93816
1305031945.638328 0.135651 -0.114462 0.0350967 0.341001 0.0456203 0.0332336 0.938367
1305031945.677317 0.144894 -0.108131 0.0397918 0.339733 0.0478212 0.0352335 0.938644
1305031945.706227 0.156561 -0.100529 0.0444974 0.335239 0.0491946 0.0360758 0.940156
1305031945.738707 0.169007 -0.0944813 0.0463441 0.330056 0.051597 0.0354661 0.941883
1305031945.772817 0.178761 -0.0894602 0.0508491 0.323678 0.0566851 0.0365057 0.943762
1305031945.806249 0.188764 -0.0776242 0.0564521 0.314149 0.062214 0.0391406 0.946524
1305031945.838302 0.200566 -0.0663897 0.0617432 0.303753 0.0655759 0.0421527 0.949556
1305031945.877342 0.213121 -0.0504619 0.0681776 0.291321 0.0691441 0.0450478 0.953059
1305031945.909465 0.222661 -0.0411525 0.0725615 0.273302 0.0731398 0.0495091 0.957865
1305031945.935652 0.232863 -0.033294 0.0745665 0.255735 0.0789342 0.0539341 0.962008
1305031945.977263 0.242987 -0.0229807 0.0778315 0.240029 0.0864125 0.0601863 0.965037
1305031946.005994 0.254167 -0.0117069 0.0801512 0.223017 0.0955006 0.0668793 0.967817
1305031946.043263 0.264875 -0.00360423 0.0808799 0.20572 0.104719 0.0745856 0.970129
1305031946.075402 0.275055 0.000863491 0.0803915 0.191652 0.112403 0.0818265 0.971566
1305031946.107156 0.282014 0.00695671 0.0797117 0.180626 0.120753 0.0904931 0.971907
1305031946.147686 0.289765 0.00935126 0.0770171 0.170832 0.126617 0.0970421 0.9723
1305031946.175861 0.296267 0.0163073 0.0735137 0.165595 0.1316 0.099135 0.972333
1305031946.207053 0.301164 0.0241349 0.0711501 0.159603 0.135898 0.102084 0.972439
1305031946.247192 0.30607 0.0331443 0.0666873 0.152666 0.138797 0.105934 0.972731
1305031946.276972 0.307676 0.0407412 0.0621176 0.145591 0.138589 0.108697 0.973541
1305031946.306937 0.308713 0.0505045 0.0560095 0.138481 0.134593 0.10736 0.975285
1305031946.347086 0.30854 0.0605594 0.0482903 0.130417 0.128565 0.10411 0.97756
1305031946.378747 0.307118 0.0720771 0.0395255 0.123191 0.124282 0.101051 0.979371
1305031946.406531 0.304862 0.0820633 0.0293505 0.115617 0.121579 0.0985324 0.980889
1305031946.447353 0.303081 0.0918407 0.0171204 0.110259 0.118067 0.097054 0.982081
1305031946.473076 0.300641 0.103407 0.0041505 0.107277 0.114577 0.0977189 0.982759
1305031946.506597 0.299146 0.116612 -0.008938 0.104648 0.110727 0.0976037 0.983495
1305031946.546018 0.297795 0.127245 -0.0230975 0.101457 0.108271 0.0980308 0.98406
1305031946.577280 0.294651 0.13942 -0.0369749 0.100612 0.108102 0.0998035 0.983987
1305031946.606485 0.292151 0.153491 -0.0509127 0.0999284 0.110427 0.102696 0.983501
1305031946.645981 0.290583 0.164946 -0.0651737 0.0988497 0.114084 0.104814 0.982969
1305031946.678050 0.287707 0.179004 -0.0792226 0.0991278 0.119038 0.106085 0.982217
1305031946.706532 0.28525 0.190075 -0.0929222 0.0986853 0.124431 0.105584 0.981647
1305031946.743717 0.281905 0.203923 -0.106277 0.0985447 0.129102 0.104622 0.981161
1305031946.774660 0.278567 0.215989 -0.119041 0.0956424 0.131756 0.104224 0.981137
1305031946.806659 0.279294 0.225584 -0.133918 0.0904173 0.133996 0.104434 0.981307
1305031946.842679 0.278785 0.234166 -0.147969 0.0864244 0.136277 0.105784 0.981208
1305031946.874721 0.276706 0.240421 -0.162172 0.0834208 0.137895 0.106497 0.981165
1305031946.906633 0.273897 0.249427 -0.175678 0.0843582 0.137538 0.106664 0.981117
1305031946.942686 0.273457 0.261323 -0.189553 0.0855513 0.133312 0.106733 0.981589
1305031946.974825 0.275813 0.27286 -0.202621 0.0834737 0.129292 0.105972 0.982388
1305031947.006833 0.275614 0.279611 -0.213772 0.0783083 0.12647 0.105661 0.983214
1305031947.042914 0.277159 0.28641 -0.225198 0.0752891 0.122628 0.105112 0.983995
1305031947.074589 0.283043 0.295799 -0.236879 0.0736357 0.120061 0.103556 0.984601
1305031947.106663 0.288725 0.299626 -0.248113 0.0723721 0.120307 0.101232 0.984906
1305031947.142937 0.294011 0.3112 -0.256438 0.0748588 0.122637 0.0966905 0.984889
1305031947.174651 0.299515 0.321103 -0.263081 0.0743278 0.126194 0.0977415 0.984376
1305031947.210803 0.309953 0.3257 -0.269302 0.0728483 0.126635 0.0998369 0.98422
1305031947.242625 0.318989 0.332702 -0.274581 0.0730798 0.126497 0.0987214 0.984333
1305031947.274786 0.329387 0.341004 -0.277974 0.0723495 0.124555 0.0938847 0.985108
1305031947.309122 0.33998 0.352357 -0.280429 0.0686733 0.121194 0.0888473 0.986257
1305031947.339718 0.352532 0.355164 -0.282217 0.0606818 0.11785 0.0866608 0.98738
1305031947.373087 0.365483 0.356607 -0.283569 0.0555379 0.113785 0.079152 0.988789
1305031947.407848 0.378418 0.360268 -0.284455 0.053943 0.109799 0.0703639 0.989992
1305031947.442996 0.392199 0.363536 -0.285175 0.0529453 0.104487 0.06653 0.990885
1305031947.475248 0.408237 0.361165 -0.287194 0.0547154 0.0977112 0.0636696 0.991668
1305031947.511457 0.424394 0.364083 -0.289201 0.0615009 0.0899421 0.056617 0.992433
1305031947.543322 0.441287 0.370682 -0.291123 0.0676978 0.0801617 0.0487496 0.993285
1305031947.572475 0.456841 0.374861 -0.292788 0.0698805 0.0691061 0.0430789 0.994226
1305031947.611625 0.474896 0.378061 -0.295815 0.07134 0.055871 0.030787 0.99541
1305031947.643731 0.494435 0.379687 -0.299208 0.0731818 0.0457222 0.0171229 0.996123
1305031947.675360 0.51254 0.381135 -0.302232 0.0775367 0.03589 0.00664134 0.996321
1305031947.711025 0.529899 0.382852 -0.305544 0.0839891 0.023675 -0.00575625 0.996169
1305031947.743304 0.548672 0.387568 -0.30963 0.0920704 0.0122431 -0.0208862 0.995458
1305031947.775461 0.566591 0.3898 -0.31273 0.100086 0.00214922 -0.0355599 0.994341
1305031947.811424 0.587926 0.402745 -0.315382 0.110025 -0.00593171 -0.0476925 0.992766
1305031947.841415 0.605384 0.403128 -0.317872 0.111746 -0.011878 -0.0560758 0.992082
1305031947.875442 0.622454 0.406755 -0.319835 0.118021 -0.0192502 -0.067276 0.990542
1305031947.911295 0.639958 0.414745 -0.320121 0.121589 -0.0260184 -0.0781838 0.989154
1305031947.943516 0.65447 0.414159 -0.321571 0.122212 -0.0333725 -0.0877049 0.988058
1305031947.975273 0.671329 0.422014 -0.321255 0.12398 -0.0410699 -0.096667 0.986711
1305031948.011498 0.685529 0.423772 -0.320365 0.121283 -0.0464537 -0.103728 0.98609
1305031948.043239 0.700605 0.419869 -0.320484 0.119115 -0.0524734 -0.108858 0.985499
1305031948.075218 0.716646 0.420162 -0.320037 0.121492 -0.0562772 -0.111721 0.984678
1305031948.111315 0.731077 0.421392 -0.319347 0.123827 -0.0583432 -0.113674 0.984043
1305031948.143226 0.744132 0.422912 -0.31768 0.12561 -0.0628339 -0.114748 0.983416
1305031948.175007 0.755856 0.420397 -0.31549 0.126116 -0.0683843 -0.118198 0.982572
1305031948.211235 0.769459 0.421018 -0.312969 0.128809 -0.0749077 -0.124231 0.981001
1305031948.243210 0.782938 0.420706 -0.307908 0.130599 -0.0812423 -0.130623 0.979429
1305031948.275446 0.796961 0.418401 -0.302205 0.130217 -0.0886946 -0.135712 0.978141
1305031948.311425 0.812851 0.415411 -0.295519 0.130069 -0.0969143 -0.138381 0.977006
1305031948.343521 0.833554 0.413458 -0.287114 0.129416 -0.102416 -0.13952 0.976369
1305031948.375447 0.851293 0.407869 -0.278872 0.125891 -0.102081 -0.139317 0.976894
1305031948.411285 0.869415 0.401675 -0.270296 0.124209 -0.101641 -0.139582 0.977117
1305031948.443647 0.889473 0.400288 -0.259538 0.122404 -0.10001 -0.140853 0.977331
1305031948.480437 0.908392 0.390198 -0.249753 0.114751 -0.0988387 -0.140014 0.978498
1305031948.514284 0.925752 0.382362 -0.239675 0.110189 -0.098933 -0.140071 0.979005
1305031948.542869 0.942439 0.373729 -0.229908 0.105203 -0.0974129 -0.140428 0.979655
1305031948.580687 0.959906 0.362179 -0.221107 0.100295 -0.0942369 -0.141677 0.9803
1305031948.611060 0.979235 0.354591 -0.212529 0.0988537 -0.0910887 -0.14513 0.980239
1305031948.644895 0.995742 0.347216 -0.204209 0.0957964 -0.0863194 -0.148973 0.980397
1305031948.681662 1.01021 0.338025 -0.196876 0.0930665 -0.0820154 -0.152818 0.980438
1305031948.714453 1.02696 0.333475 -0.188627 0.0922693 -0.0770452 -0.157619 0.980156
1305031948.746432 1.04486 0.326492 -0.180833 0.0885683 -0.0714566 -0.1607 0.980421
1305031948.780858 1.05997 0.321336 -0.172917 0.0858486 -0.0675581 -0.159091 0.981201
1305031948.812389 1.07677 0.316994 -0.164319 0.0814285 -0.0640181 -0.15699 0.982153
1305031948.841687 1.09404 0.312942 -0.155904 0.0758819 -0.0600453 -0.1534 0.983415
1305031948.880529 1.11396 0.311933 -0.146373 0.0690329 -0.0579422 -0.150005 0.984569
1305031948.915493 1.12926 0.306921 -0.136683 0.0562873 -0.054393 -0.145319 0.986284
1305031948.943231 1.14415 0.303126 -0.12748 0.0454678 -0.0539235 -0.140642 0.987545
1305031948.979038 1.16036 0.304653 -0.116793 0.0346528 -0.0551364 -0.138059 0.988281
1305031949.014896 1.17596 0.303331 -0.104849 0.0177874 -0.0575097 -0.137767 0.988634
1305031949.044596 1.19035 0.301026 -0.0935476 0.00138162 -0.0586487 -0.139045 0.988547
1305031949.082201 1.20366 0.300806 -0.0817811 -0.0146702 -0.0562031 -0.139278 0.988548
1305031949.114284 1.21209 0.298066 -0.0703874 -0.0303387 -0.0555041 -0.139183 0.988244
1305031949.144262 1.21209 0.298066 -0.0703874 -0.0303387 -0.0555041 -0.139183 0.988244
1305031949.180779 1.22203 0.295158 -0.0602686 -0.0444121 -0.0612928 -0.143369 0.986771
1305031949.214247 1.23311 0.294892 -0.0509119 -0.0548052 -0.0697975 -0.149037 0.984842
1305031949.247701 1.24389 0.293555 -0.0421176 -0.0656542 -0.0798117 -0.157776 0.982052
1305031949.281444 1.25377 0.291589 -0.03402 -0.0751958 -0.0895418 -0.166639 0.97906
1305031949.311257 1.26317 0.288953 -0.0267521 -0.0818244 -0.0982105 -0.174073 0.976401
1305031949.341972 1.27451 0.287139 -0.0203991 -0.0841853 -0.106987 -0.183498 0.973548
1305031949.380234 1.2858 0.285172 -0.0147907 -0.0884948 -0.113646 -0.194106 0.970348
1305031949.410764 1.29541 0.280444 -0.0103718 -0.0938468 -0.117123 -0.206202 0.966931
1305031949.443117 1.3049 0.271943 -0.00687915 -0.0949445 -0.119979 -0.217818 0.963922
1305031949.479260 1.31694 0.265696 -0.00509033 -0.0922521 -0.125697 -0.227118 0.961305
1305031949.510843 1.32726 0.257545 -0.00388038 -0.092845 -0.13187 -0.235147 0.958486
1305031949.541920 1.33662 0.248072 -0.00332992 -0.0919696 -0.138667 -0.241545 0.956017
1305031949.580836 1.34519 0.236735 -0.00385682 -0.0868779 -0.147065 -0.2478 0.953635
1305031949.614433 1.35416 0.226613 -0.00556362 -0.0779619 -0.156821 -0.255068 0.950931
1305031949.646345 1.36022 0.214293 -0.00809539 -0.070558 -0.164285 -0.261935 0.948379
1305031949.680760 1.36405 0.199469 -0.0112867 -0.0602134 -0.171512 -0.265465 0.94683
1305031949.714490 1.37182 0.188449 -0.0140692 -0.0443216 -0.179738 -0.269584 0.945016
1305031949.749412 1.37182 0.188449 -0.0140692 -0.0443216 -0.179738 -0.269584 0.945016
1305031949.781235 1.37182 0.188449 -0.0140692 -0.0443216 -0.179738 -0.269584 0.945016
1305031949.811436 1.37457 0.174824 -0.0179114 -0.0289654 -0.183982 -0.267859 0.945285
1305031949.845215 1.37647 0.16227 -0.0224536 -0.0122223 -0.187347 -0.268048 0.944935
1305031949.880626 1.37728 0.149794 -0.0272415 0.0043771 -0.191223 -0.26641 0.944691
1305031949.914703 1.37913 0.136326 -0.031701 0.0234254 -0.196949 -0.264568 0.943751
1305031949.948731 1.384 0.12582 -0.0357795 0.0450441 -0.200813 -0.26418 0.94226
1305031949.981207 1.38755 0.114006 -0.0399057 0.0642 -0.199126 -0.26306 0.941821
1305031950.011524 1.39127 0.100698 -0.0437604 0.0818116 -0.196465 -0.258682 0.942227
1305031950.047520 1.39478 0.0874219 -0.0479139 0.10006 -0.193269 -0.251135 0.943168
1305031950.080195 1.40013 0.0749073 -0.051587 0.118667 -0.190339 -0.241306 0.944172
1305031950.111190 1.40256 0.0613106 -0.0555307 0.135995 -0.186836 -0.22991 0.945378
1305031950.147985 1.40466 0.0429457 -0.0605756 0.156078 -0.185503 -0.218235 0.945305
1305031950.181754 1.40862 0.0285345 -0.0658923 0.184857 -0.186462 -0.202966 0.943326
1305031950.211149 1.41335 0.016693 -0.0695745 0.213138 -0.186724 -0.188208 0.940364
1305031950.247238 1.41511 -0.00167582 -0.0765853 0.240833 -0.184098 -0.178236 0.93613
1305031950.279213 1.417 -0.0218566 -0.0849341 0.262925 -0.181392 -0.173372 0.931616
1305031950.307722 1.41951 -0.0335703 -0.0891523 0.281958 -0.177749 -0.169034 0.927541
1305031950.346992 1.42163 -0.0508082 -0.096088 0.297602 -0.174698 -0.165802 0.923809
1305031950.378386 1.42014 -0.063556 -0.10202 0.315205 -0.172504 -0.163351 0.918806
1305031950.410330 1.41765 -0.070118 -0.106788 0.333317 -0.171652 -0.161012 0.912968
1305031950.447451 1.4154 -0.0767543 -0.110079 0.349493 -0.173393 -0.160646 0.906632
1305031950.478952 1.41379 -0.0863848 -0.114769 0.362806 -0.177549 -0.160289 0.900642
1305031950.510402 1.4134 -0.0919139 -0.114673 0.373378 -0.181 -0.159778 0.895712
1305031950.546397 1.41448 -0.0984237 -0.117212 0.37881 -0.183162 -0.159186 0.893093
1305031950.578462 1.41967 -0.0992317 -0.112049 0.38136 -0.184148 -0.156945 0.892201
1305031950.610212 1.42516 -0.099082 -0.10467 0.381453 -0.183447 -0.153706 0.892869
