1305031910.771502 0 0 0 0 0 0 1
1305031910.803249 -0.00632113 -0.00388819 0.00368992 0.00399831 -0.00260803 -0.00884111 0.99995
1305031910.835215 -0.0129384 -0.00612721 0.00846882 0.00575439 -0.00765303 -0.015152 0.999839
1305031910.871167 -0.0210287 -0.0099813 0.0130482 0.00611174 -0.0130908 -0.0206185 0.999683
1305031910.903682 -0.0296924 -0.0131753 0.0186134 0.00633398 -0.0204249 -0.0285528 0.999364
1305031910.935221 -0.0370584 -0.0202357 0.0236451 0.00595165 -0.0274091 -0.0363955 0.998944
1305031910.971338 -0.0457917 -0.0267986 0.0296137 0.0100262 -0.0312501 -0.0403787 0.998645
1305031911.003202 -0.0538929 -0.0224905 0.034604 0.0153139 -0.0383027 -0.0461747 0.998081
1305031911.035056 -0.0629131 -0.0248865 0.0399817 0.0128403 -0.0480916 -0.0550925 0.99724
1305031911.074509 -0.0729845 -0.0291987 0.0443133 0.0114706 -0.0608946 -0.0633016 0.996069
1305031911.103332 -0.084794 -0.0326188 0.04839 0.00953113 -0.0782557 -0.0742718 0.994117
1305031911.135683 -0.0983942 -0.0426126 0.0516583 0.00761519 -0.0924647 -0.0864596 0.991926
1305031911.171831 -0.110501 -0.0478502 0.0549111 0.0105085 -0.104282 -0.095172 0.989928
1305031911.207568 -0.120555 -0.0493128 0.0577461 0.0134 -0.116389 -0.10262 0.987797
1305031911.235660 -0.132123 -0.0544366 0.0608405 0.0136515 -0.126835 -0.109293 0.98579
1305031911.268497 -0.140819 -0.0571897 0.0642033 0.0154479 -0.137637 -0.117428 0.983376
1305031911.303504 -0.151094 -0.0603721 0.0677543 0.0151114 -0.14684 -0.12599 0.980987
1305031911.339412 -0.160411 -0.0669045 0.0715262 0.0150951 -0.155635 -0.13244 0.97878
1305031911.371631 -0.169783 -0.0711456 0.0751945 0.0167302 -0.163141 -0.138352 0.976711
1305031911.403484 -0.17772 -0.0760222 0.0790523 0.0194917 -0.16795 -0.143901 0.975041
1305031911.439656 -0.186578 -0.0773684 0.0827187 0.0240248 -0.173416 -0.146684 0.973567
1305031911.471398 -0.193582 -0.0775078 0.0867013 0.02672 -0.180583 -0.147298 0.9721
1305031911.503476 -0.202883 -0.0800174 0.090743 0.0279501 -0.189847 -0.146589 0.970406
1305031911.539636 -0.212559 -0.0819324 0.0949767 0.0295716 -0.200594 -0.147288 0.968088
1305031911.571543 -0.222127 -0.084508 0.098617 0.0307854 -0.209659 -0.146793 0.966202
1305031911.603617 -0.23247 -0.0884946 0.101777 0.0343763 -0.219648 -0.146602 0.963888
1305031911.639562 -0.240834 -0.0857015 0.105496 0.0397202 -0.230922 -0.152485 0.960128
1305031911.671469 -0.248568 -0.0873488 0.109761 0.0408205 -0.239782 -0.160641 0.956573
1305031911.705153 -0.255693 -0.0871018 0.114131 0.041665 -0.248749 -0.168609 0.952869
1305031911.739460 -0.262868 -0.0857763 0.118331 0.0418248 -0.256502 -0.177821 0.949124
1305031911.771372 -0.26892 -0.0849552 0.122988 0.0408937 -0.26318 -0.187775 0.945412
1305031911.803540 -0.274723 -0.0838384 0.126728 0.0390044 -0.268025 -0.1958 0.942499
1305031911.839611 -0.279598 -0.0812089 0.130657 0.0361333 -0.272826 -0.20298 0.939712
1305031911.871650 -0.285484 -0.0793445 0.133713 0.0312509 -0.279987 -0.208678 0.936528
1305031911.904281 -0.290379 -0.0782064 0.137224 0.0253317 -0.288009 -0.213125 0.933267
1305031911.940338 -0.295758 -0.0777017 0.14014 0.0184958 -0.297951 -0.217839 0.929209
1305031911.972044 -0.30027 -0.0783268 0.143467 0.0108501 -0.31133 -0.223986 0.923464
1305031912.004430 -0.304809 -0.0782015 0.145677 0.00193251 -0.327187 -0.229848 0.916578
1305031912.040573 -0.305932 -0.0779546 0.149968 -0.00818228 -0.342346 -0.234163 0.90989
1305031912.069771 -0.307577 -0.0780701 0.152754 -0.0160589 -0.352875 -0.235532 0.905398
1305031912.104327 -0.307616 -0.0784633 0.156037 -0.0208629 -0.360672 -0.239552 0.901163
1305031912.139831 -0.309982 -0.0802925 0.156913 -0.0235604 -0.365672 -0.247562 0.896907
1305031912.171439 -0.311669 -0.0802663 0.156677 -0.0207567 -0.370587 -0.257712 0.892087
1305031912.204109 -0.312841 -0.0799838 0.156325 -0.0176536 -0.374165 -0.270263 0.886931
1305031912.239820 -0.312829 -0.0819268 0.156582 -0.0144382 -0.376459 -0.281728 0.882439
1305031912.272101 -0.312815 -0.0834318 0.156146 -0.0100342 -0.377856 -0.291143 0.87884
1305031912.303877 -0.315598 -0.0872943 0.152934 -0.00227462 -0.379479 -0.296349 0.876452
1305031912.340453 -0.31387 -0.0906853 0.1512 0.00893044 -0.384014 -0.298326 0.873759
1305031912.371540 -0.312209 -0.0927085 0.150503 0.0146967 -0.387738 -0.299016 0.871799
1305031912.403793 -0.311633 -0.0966215 0.149804 0.017902 -0.392897 -0.29968 0.869197
1305031912.438048 -0.310189 -0.0974812 0.149905 0.0195501 -0.399879 -0.305005 0.86411
1305031912.472320 -0.30989 -0.0978395 0.149352 0.0201561 -0.40636 -0.311577 0.858711
1305031912.508934 -0.308721 -0.0974429 0.150079 0.0189465 -0.412527 -0.317947 0.853447
1305031912.540326 -0.307511 -0.0985095 0.151593 0.0148509 -0.416227 -0.322692 0.849944
1305031912.572025 -0.306279 -0.0999692 0.152047 0.0102568 -0.420886 -0.323725 0.847321
1305031912.607722 -0.303758 -0.101444 0.154024 0.00531188 -0.426114 -0.324186 0.844572
1305031912.637657 -0.301593 -0.10302 0.155395 0.00230798 -0.429919 -0.325188 0.842269
1305031912.672091 -0.30117 -0.103261 0.154931 -0.000374723 -0.433297 -0.32813 0.839395
1305031912.708413 -0.302638 -0.10447 0.153726 -0.00416906 -0.438608 -0.333175 0.834626
1305031912.740310 -0.3045 -0.10485 0.152873 -0.00726642 -0.445544 -0.340169 0.828084
1305031912.772223 -0.303501 -0.102546 0.153145 -0.00729675 -0.450864 -0.346988 0.822355
1305031912.809603 -0.300775 -0.101336 0.155169 -0.00655998 -0.452448 -0.351062 0.819758
1305031912.840573 -0.298481 -0.10101 0.157071 -0.00658319 -0.45107 -0.354152 0.819188
1305031912.872087 -0.298277 -0.102406 0.157628 -0.00620335 -0.447913 -0.356659 0.819835
1305031912.908080 -0.295986 -0.104263 0.159426 -0.00387788 -0.444604 -0.357574 0.821251
1305031912.940609 -0.293725 -0.107797 0.161318 -0.00260564 -0.440006 -0.356521 0.824185
1305031912.972119 -0.293571 -0.112302 0.161136 -5.43478e-05 -0.436499 -0.357039 0.825828
1305031913.008923 -0.291428 -0.113429 0.160182 0.00687597 -0.433244 -0.35769 0.827231
1305031913.040171 -0.288994 -0.115453 0.15985 0.0111173 -0.430356 -0.356313 0.829284
1305031913.072194 -0.285754 -0.117076 0.160273 0.0134695 -0.428713 -0.351919 0.831972
1305031913.108367 -0.281117 -0.117368 0.161972 0.016051 -0.425941 -0.344199 0.836567
1305031913.137597 -0.275026 -0.116014 0.164754 0.019082 -0.419809 -0.334273 0.843598
1305031913.172328 -0.267803 -0.11757 0.169417 0.0216753 -0.411509 -0.322938 0.851999
1305031913.208546 -0.260459 -0.116895 0.172855 0.0236952 -0.402158 -0.309593 0.861313
1305031913.240453 -0.255291 -0.117335 0.175131 0.02451 -0.3919 -0.29506 0.871065
1305031913.272069 -0.247985 -0.118261 0.179134 0.025269 -0.381723 -0.278105 0.881083
1305031913.308747 -0.24002 -0.116951 0.183186 0.0270269 -0.369503 -0.261203 0.891353
1305031913.340047 -0.232541 -0.116085 0.185916 0.0290657 -0.355811 -0.246039 0.901121
1305031913.372117 -0.226569 -0.115006 0.187549 0.0307983 -0.342714 -0.233318 0.909484
1305031913.408181 -0.220791 -0.113178 0.18856 0.0337006 -0.329112 -0.222168 0.917165
1305031913.440305 -0.215428 -0.110546 0.188269 0.0371959 -0.314299 -0.211392 0.924741
1305031913.472064 -0.205091 -0.1073 0.189643 0.0427627 -0.296414 -0.199483 0.933015
1305031913.508406 -0.193646 -0.10436 0.19007 0.0458759 -0.271467 -0.183261 0.943725
1305031913.538696 -0.18601 -0.0974052 0.186485 0.0489246 -0.24458 -0.164523 0.954316
1305031913.568481 -0.178152 -0.09381 0.182709 0.0502047 -0.220462 -0.15018 0.962456
1305031913.607051 -0.171509 -0.0919595 0.175851 0.0527593 -0.196595 -0.135422 0.969653
1305031913.637112 -0.158263 -0.0849868 0.172395 0.0586667 -0.175089 -0.123444 0.97502
1305031913.671418 -0.146621 -0.0773605 0.167475 0.058809 -0.153291 -0.110763 0.980191
1305031913.709971 -0.133766 -0.0707018 0.161742 0.0557021 -0.131868 -0.0926641 0.985353
1305031913.743396 -0.121487 -0.063346 0.15602 0.0525688 -0.109845 -0.0763209 0.989619
1305031913.778085 -0.107437 -0.0564789 0.149328 0.0474128 -0.089184 -0.0623248 0.992932
1305031913.809508 -0.0958682 -0.0497912 0.14199 0.0413066 -0.0696285 -0.0470183 0.995608
1305031913.840405 -0.0839501 -0.0465738 0.134648 0.0335985 -0.052844 -0.0315525 0.997539
1305031913.876025 -0.0736921 -0.0438154 0.127837 0.0296172 -0.0368387 -0.0152371 0.998766
1305031913.908138 -0.0627331 -0.0364371 0.119869 0.0272774 -0.0209465 0.0016855 0.999407
1305031913.939898 -0.0508642 -0.0343539 0.11129 0.023738 -0.00625435 0.0183145 0.999531
1305031913.977474 -0.0379544 -0.0296494 0.102439 0.0243463 0.00543197 0.0301874 0.999233
1305031914.008756 -0.0246641 -0.02064 0.0939161 0.0252132 0.0167794 0.0418502 0.998665
1305031914.042148 -0.0105697 -0.0185204 0.0840344 0.0237303 0.0285581 0.058351 0.997605
1305031914.075482 0.00506848 -0.00930345 0.0746872 0.0268242 0.0395064 0.0709045 0.996339
1305031914.108031 0.0185933 -0.00189931 0.0655216 0.0266223 0.051405 0.0810719 0.995026
1305031914.142725 0.0360096 0.00360931 0.0551645 0.0260183 0.0611689 0.0910002 0.99363
1305031914.177921 0.0506167 0.00941954 0.045148 0.0272137 0.0708016 0.101648 0.991925
1305031914.207783 0.0650333 0.0165435 0.0351584 0.0293963 0.0804237 0.108818 0.990367
1305031914.239738 0.079202 0.0204115 0.0237479 0.0313356 0.0919036 0.116031 0.988488
1305031914.275498 0.0973236 0.0274872 0.0110719 0.0396363 0.105336 0.11949 0.986436
1305031914.307439 0.117412 0.0389815 -0.00125375 0.0480427 0.116871 0.118928 0.98483
1305031914.339813 0.138043 0.0521108 -0.0122543 0.0506415 0.123974 0.117614 0.983988
1305031914.376077 0.157635 0.0615281 -0.0221143 0.0458861 0.126389 0.116258 0.984075
1305031914.407339 0.17416 0.0677675 -0.0319164 0.0385326 0.125132 0.116998 0.984464
1305031914.439366 0.191375 0.0751798 -0.0418284 0.0333635 0.123364 0.117464 0.98482
1305031914.475929 0.209459 0.0837699 -0.0530522 0.0292909 0.122244 0.116268 0.985231
1305031914.508084 0.227227 0.0929331 -0.0644252 0.0260252 0.122787 0.113783 0.985545
1305031914.539445 0.244955 0.102088 -0.075612 0.0221771 0.124846 0.109872 0.985824
1305031914.575638 0.264379 0.109733 -0.0884787 0.0187159 0.125128 0.106617 0.986218
1305031914.607525 0.280433 0.122457 -0.0993218 0.0175163 0.12649 0.102318 0.986521
1305031914.639613 0.296475 0.133784 -0.109374 0.0129401 0.12886 0.0973725 0.986786
1305031914.675447 0.309072 0.141602 -0.11784 0.00713407 0.134434 0.0956666 0.986268
1305031914.707659 0.3271 0.147215 -0.128258 0.00201781 0.138909 0.0956499 0.985673
1305031914.742851 0.342709 0.153284 -0.137553 0.000669021 0.143024 0.0934591 0.985296
1305031914.776080 0.356716 0.165491 -0.145224 0.000538893 0.146724 0.0908517 0.984996
1305031914.810077 0.372124 0.172548 -0.153511 -0.00427156 0.147209 0.091219 0.984881
1305031914.839826 0.389451 0.174715 -0.162154 -0.00864641 0.144487 0.0905602 0.985316
1305031914.876190 0.4061 0.180033 -0.171034 -0.00940293 0.140883 0.0874953 0.986108
1305031914.908910 0.420205 0.184611 -0.178722 -0.00952481 0.136135 0.0858022 0.986922
1305031914.938404 0.436674 0.184646 -0.186833 -0.00901369 0.13032 0.0852025 0.987763
1305031914.975628 0.45381 0.190476 -0.195792 -0.00466909 0.122847 0.0800414 0.989182
1305031915.007678 0.470949 0.198507 -0.203835 -0.00168467 0.118193 0.0768431 0.990011
1305031915.044015 0.488407 0.201498 -0.211488 -0.00203977 0.114174 0.0759383 0.990552
1305031915.073665 0.506348 0.206462 -0.21921 -0.000458378 0.109667 0.0742347 0.991192
1305031915.105907 0.525865 0.209101 -0.226812 -0.000403458 0.106125 0.0705471 0.991847
1305031915.142313 0.543921 0.210186 -0.234453 0.000928887 0.103061 0.0631875 0.992666
1305031915.173454 0.563362 0.211534 -0.242123 0.00448609 0.100664 0.052396 0.99353
1305031915.209278 0.580377 0.212384 -0.249257 0.00976755 0.0979276 0.0402158 0.994333
1305031915.244223 0.598873 0.220979 -0.255995 0.017081 0.0931452 0.0290423 0.995082
1305031915.276431 0.615743 0.223933 -0.261434 0.0183519 0.0884461 0.0203394 0.995704
1305031915.306226 0.631403 0.225204 -0.265791 0.0196279 0.0815684 0.0146101 0.996367
1305031915.341488 0.649338 0.225704 -0.270539 0.0198307 0.0704577 0.00884182 0.997278
1305031915.373270 0.667772 0.225175 -0.274936 0.0195683 0.0589951 0.00201422 0.998064
1305031915.406736 0.686926 0.224675 -0.279065 0.019146 0.0473661 -0.00588603 0.998677
1305031915.442726 0.70553 0.218728 -0.283283 0.0164343 0.0359227 -0.0149518 0.999108
1305031915.474257 0.722771 0.216584 -0.287635 0.0170746 0.0252694 -0.0291646 0.999109
1305031915.506429 0.739366 0.218447 -0.291216 0.0169705 0.0127151 -0.0451867 0.998753
1305031915.542700 0.755832 0.215882 -0.295397 0.0128731 -0.000203327 -0.0573278 0.998272
1305031915.575890 0.77502 0.211484 -0.300987 0.0107781 -0.01078 -0.0711376 0.99735
1305031915.607095 0.796717 0.2093 -0.305072 0.011169 -0.0166176 -0.0867214 0.996031
1305031915.644456 0.819762 0.205571 -0.308977 0.0108868 -0.0183652 -0.098696 0.994889
1305031915.676911 0.836571 0.199403 -0.312462 0.0111935 -0.0173345 -0.104319 0.99433
1305031915.710920 0.852587 0.197329 -0.315549 0.014645 -0.0185337 -0.108335 0.993834
1305031915.744275 0.86651 0.19787 -0.316134 0.0166422 -0.0243812 -0.110029 0.99349
1305031915.776046 0.882276 0.199079 -0.316416 0.014564 -0.0379061 -0.113589 0.992698
1305031915.807068 0.894882 0.193877 -0.316754 0.00823012 -0.054093 -0.119319 0.991347
1305031915.844882 0.894882 0.193877 -0.316754 0.00823012 -0.054093 -0.119319 0.991347
1305031915.877002 0.91202 0.196743 -0.315406 0.00836257 -0.0690371 -0.130192 0.989047
1305031915.907069 0.930063 0.195391 -0.314494 0.00449976 -0.0831797 -0.141061 0.98649
1305031915.944991 0.949928 0.194174 -0.312906 0.000280995 -0.0960916 -0.151455 0.983782
1305031915.976975 0.949928 0.194174 -0.312906 0.000280995 -0.0960916 -0.151455 0.983782
1305031916.007650 0.949928 0.194174 -0.312906 0.000280995 -0.0960916 -0.151455 0.983782
1305031916.044257 0.966817 0.189403 -0.311743 -0.00354534 -0.101025 -0.161323 0.981711
1305031916.075852 0.977078 0.172013 -0.312321 -0.00386431 -0.104989 -0.169106 0.979982
1305031916.107904 0.988657 0.158506 -0.314545 0.0101501 -0.112215 -0.175936 0.977932
1305031916.143770 1.00101 0.150547 -0.317372 0.0297885 -0.124159 -0.180034 0.975338
1305031916.175966 1.01709 0.150424 -0.31931 0.0553401 -0.14169 -0.183044 0.971265
1305031916.213438 1.0349 0.158461 -0.320541 0.0709105 -0.160248 -0.186577 0.966686
1305031916.244817 1.05508 0.149573 -0.323618 0.076755 -0.178466 -0.192181 0.961938
1305031916.276150 1.07437 0.140217 -0.326238 0.0888818 -0.191952 -0.200939 0.956493
1305031916.312024 1.09261 0.137154 -0.327677 0.103565 -0.201621 -0.209636 0.951145
1305031916.344853 1.11164 0.124045 -0.331922 0.116034 -0.20948 -0.21749 0.94623
1305031916.375943 1.13004 0.113114 -0.336011 0.134111 -0.213007 -0.226152 0.941009
1305031916.412634 1.14612 0.106046 -0.340215 0.152659 -0.211419 -0.231729 0.937176
1305031916.445160 1.15837 0.0944272 -0.345659 0.166561 -0.210797 -0.230194 0.935325
1305031916.475799 1.17016 0.0869264 -0.350952 0.180404 -0.213422 -0.225812 0.933228
1305031916.511070 1.17994 0.0816406 -0.354159 0.191749 -0.219375 -0.221002 0.930734
1305031916.542416 1.18326 0.0740663 -0.360065 0.202655 -0.229377 -0.217527 0.926822
1305031916.574661 1.18942 0.0677967 -0.36396 0.214741 -0.242165 -0.215765 0.921242
1305031916.610788 1.19859 0.0624396 -0.363705 0.221183 -0.255215 -0.214027 0.916589
1305031916.643191 1.20728 0.0542774 -0.364157 0.226753 -0.268118 -0.214065 0.911522
1305031916.674514 1.21791 0.0478831 -0.360963 0.234947 -0.278805 -0.215676 0.905843
1305031916.711186 1.22484 0.0341483 -0.359537 0.242342 -0.286063 -0.216956 0.901315
1305031916.742388 1.23157 0.0247333 -0.354621 0.250161 -0.293477 -0.217704 0.896602
1305031916.774484 1.23847 0.0160983 -0.348655 0.25704 -0.302211 -0.2155 0.892277
1305031916.810984 1.246 0.00503965 -0.345684 0.264294 -0.311209 -0.210762 0.888188
1305031916.842413 1.25582 -0.00246898 -0.338866 0.272229 -0.3201 -0.207682 0.883344
1305031916.874597 1.26282 -0.012153 -0.334368 0.277998 -0.32783 -0.205387 0.879239
1305031916.911349 1.26672 -0.0262298 -0.334275 0.283305 -0.336612 -0.201063 0.875217
1305031916.942991 1.27425 -0.0426063 -0.334068 0.288995 -0.346202 -0.197516 0.87041
1305031916.975281 1.28121 -0.0544278 -0.331066 0.295252 -0.353679 -0.194856 0.865892
1305031917.013257 1.28288 -0.0724126 -0.333138 0.30089 -0.36062 -0.191653 0.861793
1305031917.045346 1.28583 -0.0984797 -0.34172 0.308669 -0.367324 -0.189267 0.856723
1305031917.078672 1.29529 -0.120198 -0.342229 0.321095 -0.375511 -0.185196 0.849465
1305031917.112392 1.29568 -0.137474 -0.348814 0.334566 -0.380516 -0.183831 0.842306
1305031917.144721 1.29936 -0.142071 -0.344064 0.350847 -0.383962 -0.182638 0.83434
1305031917.175617 1.2986 -0.149722 -0.349856 0.368054 -0.386059 -0.179829 0.826533
1305031917.211105 1.30162 -0.172333 -0.365771 0.382571 -0.388165 -0.176635 0.819615
1305031917.242019 1.3016 -0.193716 -0.384192 0.39164 -0.388709 -0.172165 0.816016
1305031917.275690 1.30742 -0.214827 -0.401322 0.39904 -0.390613 -0.167226 0.812542
1305031917.311009 1.30992 -0.23248 -0.415724 0.405636 -0.394609 -0.162718 0.808249
1305031917.342994 1.31596 -0.252891 -0.429679 0.407 -0.397997 -0.160607 0.806322
1305031917.375028 1.31625 -0.26695 -0.444718 0.404193 -0.400344 -0.160439 0.806605
1305031917.412516 1.31495 -0.273483 -0.450573 0.40102 -0.402175 -0.162424 0.806881
1305031917.442191 1.31577 -0.270882 -0.440708 0.39661 -0.403452 -0.163766 0.808151
1305031917.480876 1.32446 -0.28129 -0.43554 0.386522 -0.403334 -0.166835 0.812458
1305031917.512902 1.33299 -0.285801 -0.41977 0.373841 -0.402978 -0.17177 0.817524
1305031917.544881 1.34374 -0.289077 -0.402049 0.359594 -0.402901 -0.178249 0.822551
1305031917.581189 1.34374 -0.289077 -0.402049 0.359594 -0.402901 -0.178249 0.822551
1305031917.611278 1.35612 -0.281391 -0.377142 0.347592 -0.40347 -0.185975 0.825715
1305031917.644587 1.36898 -0.277702 -0.353908 0.33556 -0.404641 -0.193091 0.828481
1305031917.680182 1.38189 -0.278595 -0.339293 0.322636 -0.407341 -0.198769 0.830945
1305031917.712747 1.39483 -0.2745 -0.321328 0.309912 -0.411484 -0.201214 0.833156
1305031917.743645 1.40436 -0.282679 -0.312863 0.294759 -0.415194 -0.205835 0.835681
1305031917.776958 1.41459 -0.282132 -0.300578 0.279707 -0.418226 -0.211049 0.838039
1305031917.812348 1.4276 -0.278374 -0.286433 0.261627 -0.420977 -0.215486 0.841365
1305031917.844755 1.43537 -0.281272 -0.277671 0.242277 -0.422423 -0.221421 0.844887
1305031917.879431 1.44571 -0.285169 -0.268585 0.222988 -0.423279 -0.23075 0.84727
1305031917.907881 1.45566 -0.281988 -0.258054 0.206696 -0.421215 -0.239435 0.850015
1305031917.941261 1.4703 -0.27722 -0.244057 0.189006 -0.419757 -0.246306 0.852886
1305031917.978906 1.48198 -0.279595 -0.234555 0.171038 -0.417794 -0.254141 0.85534
1305031918.011404 1.49239 -0.281489 -0.225861 0.156736 -0.415496 -0.262286 0.85674
1305031918.044049 1.50259 -0.278206 -0.215885 0.142381 -0.41297 -0.27259 0.857251
1305031918.081372 1.50871 -0.286226 -0.209695 0.12587 -0.410594 -0.284285 0.857177
1305031918.113495 1.51737 -0.290195 -0.201861 0.115594 -0.412158 -0.292988 0.85494
1305031918.145896 1.53188 -0.291371 -0.189906 0.105455 -0.414842 -0.304236 0.851015
1305031918.179489 1.5459 -0.301073 -0.178188 0.0939492 -0.415508 -0.314085 0.848456
1305031918.214208 1.56169 -0.305498 -0.165037 0.0861403 -0.414401 -0.319692 0.847731
1305031918.244974 1.57645 -0.307816 -0.150891 0.0773169 -0.41216 -0.326851 0.846944
1305031918.280832 1.59045 -0.313482 -0.136292 0.0672583 -0.408928 -0.335421 0.846018
1305031918.312487 1.60582 -0.315617 -0.120045 0.0586084 -0.404716 -0.344653 0.844976
1305031918.344896 1.6207 -0.321695 -0.102338 0.0483534 -0.399698 -0.356673 0.843023
1305031918.379884 1.6337 -0.329525 -0.0867397 0.0405325 -0.394633 -0.366027 0.841811
1305031918.413065 1.6529 -0.33292 -0.0665492 0.0349053 -0.38985 -0.374081 0.840751
1305031918.445292 1.66609 -0.339461 -0.0486003 0.0238218 -0.381494 -0.383233 0.840849
1305031918.481811 1.67901 -0.350945 -0.0292515 0.0150481 -0.374735 -0.39021 0.840883
1305031918.513488 1.69047 -0.361706 -0.0116052 0.010499 -0.366637 -0.395165 0.842206
1305031918.545221 1.70489 -0.371091 0.00671378 0.00819617 -0.360696 -0.399877 0.842573
1305031918.582328 1.72023 -0.381272 0.0258692 0.00317349 -0.356624 -0.403616 0.842557
1305031918.613230 1.72792 -0.3968 0.0421433 -0.00381756 -0.350831 -0.405767 0.843952
1305031918.645169 1.7419 -0.40968 0.0594855 -0.00669612 -0.349555 -0.409516 0.842652
1305031918.681778 1.75251 -0.42337 0.0744113 -0.0113446 -0.348815 -0.415429 0.840011
1305031918.713496 1.76181 -0.437987 0.0880779 -0.0168404 -0.349436 -0.419672 0.837548
1305031918.749734 1.76994 -0.454637 0.101433 -0.0214198 -0.350686 -0.423849 0.834813
1305031918.780739 1.77775 -0.472193 0.114034 -0.0204324 -0.350177 -0.431931 0.8309
1305031918.814538 1.78651 -0.488942 0.12674 -0.014026 -0.348754 -0.444887 0.824772
1305031918.850071 1.79544 -0.503316 0.13766 -0.00733902 -0.348135 -0.456372 0.818824
1305031918.880096 1.80248 -0.517572 0.147532 -0.00147167 -0.349558 -0.467258 0.812082
1305031918.912498 1.80875 -0.530467 0.156297 0.00491243 -0.353435 -0.478275 0.803935
1305031918.948107 1.81462 -0.54134 0.16452 0.00993427 -0.359906 -0.488362 0.794903
1305031918.980882 1.82089 -0.554066 0.175447 0.0144846 -0.36865 -0.499798 0.783639
1305031919.013079 1.82521 -0.566191 0.185658 0.0188661 -0.376616 -0.510668 0.772672
1305031919.047888 1.8329 -0.574949 0.197799 0.0224997 -0.387112 -0.517626 0.762694
1305031919.081202 1.83804 -0.585435 0.210403 0.0214513 -0.396403 -0.525848 0.752256
1305031919.113268 1.84017 -0.596746 0.222074 0.0207558 -0.404866 -0.534757 0.741409
1305031919.149786 1.84387 -0.607414 0.23506 0.0212073 -0.412636 -0.542689 0.73128
1305031919.180150 1.84681 -0.617043 0.24698 0.020571 -0.419469 -0.549335 0.722394
1305031919.212613 1.85122 -0.625005 0.258517 0.019609 -0.426333 -0.555278 0.713808
1305031919.248053 1.85271 -0.633184 0.266804 0.0176382 -0.434234 -0.563196 0.702808
1305031919.282212 1.85706 -0.642189 0.276881 0.0190904 -0.445204 -0.572713 0.688062
1305031919.313576 1.86056 -0.651514 0.284115 0.0199874 -0.454573 -0.581263 0.674609
1305031919.348352 1.86873 -0.662341 0.295532 0.0206798 -0.467544 -0.58451 0.662815
1305031919.376791 1.87784 -0.672782 0.306845 0.0184566 -0.477827 -0.588309 0.652099
1305031919.413966 1.88447 -0.68498 0.316215 0.0159238 -0.486177 -0.593614 0.641093
1305031919.446851 1.89411 -0.696582 0.326326 0.0133719 -0.495178 -0.596867 0.631165
1305031919.480223 1.90319 -0.708668 0.334895 0.0113264 -0.502208 -0.60186 0.620825
1305031919.512137 1.91147 -0.722791 0.342973 0.00970849 -0.506407 -0.606498 0.612877
1305031919.548061 1.91684 -0.739381 0.348224 0.00957863 -0.508045 -0.609692 0.608337
1305031919.580925 1.92478 -0.753836 0.353504 0.0130343 -0.510924 -0.609467 0.606083
1305031919.611928 1.93136 -0.770539 0.359588 0.0138779 -0.515045 -0.609623 0.602408
1305031919.649872 1.93404 -0.78687 0.36046 0.0149007 -0.52055 -0.608604 0.598671
1305031919.680144 1.94108 -0.80294 0.366686 0.0189705 -0.529053 -0.604523 0.595227
1305031919.711961 1.94477 -0.821357 0.374809 0.0222063 -0.535099 -0.601133 0.59314
1305031919.747809 1.9455 -0.839137 0.381375 0.0286069 -0.539961 -0.59714 0.592493
1305031919.779527 1.9485 -0.852263 0.390272 0.0321312 -0.546961 -0.590346 0.5927
1305031919.815366 1.94684 -0.865248 0.395671 0.0300548 -0.555571 -0.584305 0.590783
1305031919.849456 1.94698 -0.875038 0.404508 0.0259536 -0.568554 -0.577335 0.585454
1305031919.880464 1.94405 -0.885299 0.413641 0.0158087 -0.580432 -0.573057 0.57832
1305031919.917226 1.93429 -0.89765 0.416446 0.00777666 -0.5888 -0.570159 0.572864
1305031919.948072 1.92638 -0.910168 0.426267 0.00399875 -0.598784 -0.564561 0.568078
1305031919.981539 1.91839 -0.919931 0.433714 -0.000874825 -0.606393 -0.558372 0.566134
1305031920.017137 1.90871 -0.929613 0.440552 -0.00392904 -0.614104 -0.551668 0.564378
1305031920.048127 1.90346 -0.934118 0.450204 -0.00815191 -0.624226 -0.544354 0.560316
1305031920.081263 1.89175 -0.942279 0.457736 -0.0165487 -0.633898 -0.540408 0.553045
1305031920.116134 1.88169 -0.948532 0.467359 -0.0197883 -0.644476 -0.535481 0.545452
1305031920.148679 1.87334 -0.952408 0.479261 -0.0214664 -0.652325 -0.532614 0.538826
1305031920.180544 1.86243 -0.958198 0.491079 -0.0222549 -0.657468 -0.53164 0.533478
1305031920.217426 1.85206 -0.963057 0.505375 -0.0207856 -0.658774 -0.531895 0.531669
1305031920.248168 1.8363 -0.970927 0.513658 -0.0190647 -0.655303 -0.531882 0.536018
1305031920.280534 1.82401 -0.976158 0.52423 -0.013233 -0.652238 -0.52832 0.543404
1305031920.316524 1.81055 -0.984478 0.536879 -0.0079923 -0.648192 -0.52484 0.551658
1305031920.349842 1.79722 -0.991985 0.548308 -0.00282835 -0.644288 -0.51769 0.562923
1305031920.380357 1.78722 -0.996106 0.559868 0.00237661 -0.638863 -0.509797 0.576156
1305031920.417274 1.7723 -1.00342 0.56506 0.00643349 -0.630183 -0.503199 0.591286
1305031920.448025 1.76092 -1.00955 0.572554 0.0131133 -0.624054 -0.495214 0.604275
1305031920.481785 1.74949 -1.01544 0.576399 0.0189353 -0.617619 -0.488169 0.616343
1305031920.517298 1.73724 -1.02259 0.578113 0.0255231 -0.611865 -0.481424 0.627057
1305031920.547964 1.73 -1.02574 0.579657 0.032615 -0.607994 -0.474292 0.635867
1305031920.581456 1.72222 -1.02978 0.58113 0.0380052 -0.606572 -0.469403 0.640536
1305031920.617995 1.71153 -1.03704 0.582854 0.0427492 -0.605738 -0.464325 0.644714
1305031920.649397 1.70371 -1.04427 0.587646 0.0481877 -0.604919 -0.456902 0.650378
1305031920.680130 1.69668 -1.05273 0.593851 0.0528903 -0.599569 -0.449879 0.659794
1305031920.717318 1.68982 -1.06176 0.596431 0.0596848 -0.58881 -0.441343 0.674505
1305031920.747997 1.68511 -1.06985 0.599866 0.0693606 -0.578841 -0.431667 0.688329
1305031920.780346 1.68081 -1.07803 0.602382 0.0779573 -0.568005 -0.422907 0.701742
1305031920.813643 1.67757 -1.08586 0.606168 0.0865483 -0.557487 -0.412108 0.715461
1305031920.848339 1.67367 -1.09449 0.609802 0.0939789 -0.549855 -0.404302 0.724823
1305031920.879246 1.66828 -1.10457 0.613397 0.10068 -0.542311 -0.397234 0.733462
1305031920.915238 1.66377 -1.11358 0.617988 0.106973 -0.534855 -0.387569 0.743154
1305031920.947777 1.66106 -1.12075 0.625121 0.111153 -0.526841 -0.377119 0.753568
1305031920.981269 1.65365 -1.1343 0.62812 0.112769 -0.516003 -0.370048 0.764257
1305031921.015897 1.65001 -1.14345 0.63021 0.116015 -0.505424 -0.362176 0.774542
1305031921.046752 1.64601 -1.15394 0.635141 0.12026 -0.495695 -0.356668 0.782696
1305031921.081623 1.64119 -1.16337 0.639258 0.122974 -0.485138 -0.354575 0.789807
1305031921.116426 1.63722 -1.17136 0.64428 0.123417 -0.47494 -0.350621 0.797662
1305031921.147542 1.63482 -1.18127 0.650577 0.122196 -0.465531 -0.351057 0.803186
1305031921.183591 1.6302 -1.19055 0.654931 0.121278 -0.453367 -0.352665 0.809554
1305031921.216248 1.62302 -1.20602 0.656218 0.122287 -0.441142 -0.355761 0.814784
1305031921.247511 1.62025 -1.21513 0.659923 0.127606 -0.431841 -0.354766 0.819372
1305031921.283682 1.6176 -1.22473 0.66269 0.132543 -0.423792 -0.353224 0.823447
1305031921.316687 1.61674 -1.23071 0.667331 0.136257 -0.41825 -0.349431 0.827284
1305031921.348715 1.61584 -1.2405 0.671886 0.136547 -0.414079 -0.34486 0.831243
1305031921.383334 1.61487 -1.24975 0.675449 0.136241 -0.410679 -0.340431 0.834798
1305031921.417533 1.61333 -1.2592 0.679114 0.136994 -0.406187 -0.336775 0.838348
1305031921.447829 1.61357 -1.26568 0.683881 0.138597 -0.400273 -0.330144 0.843551
1305031921.483449 1.61359 -1.27374 0.687278 0.137766 -0.394332 -0.322682 0.849352
1305031921.516337 1.61369 -1.2816 0.692281 0.138523 -0.386979 -0.315465 0.855302
1305031921.547693 1.6137 -1.28966 0.697459 0.141041 -0.376768 -0.309341 0.861662
1305031921.584755 1.61254 -1.30065 0.701153 0.14606 -0.366101 -0.302169 0.867946
1305031921.616860 1.61461 -1.30283 0.706788 0.153959 -0.355139 -0.295369 0.873459
1305031921.648077 1.61506 -1.31069 0.712477 0.153009 -0.341928 -0.287759 0.881401
1305031921.684108 1.61638 -1.32181 0.719628 0.153091 -0.32692 -0.277956 0.890183
1305031921.717161 1.61963 -1.32804 0.728025 0.157053 -0.310547 -0.269261 0.897994
1305031921.749472 1.62213 -1.33331 0.735908 0.15943 -0.291399 -0.26018 0.906629
1305031921.783343 1.62033 -1.33991 0.741427 0.159706 -0.272135 -0.253107 0.914535
1305031921.815490 1.61759 -1.34193 0.747161 0.160186 -0.256269 -0.246718 0.920759
1305031921.847815 1.613 -1.34728 0.752373 0.156826 -0.245145 -0.241941 0.925621
1305031921.883647 1.60799 -1.35164 0.755781 0.155395 -0.238448 -0.238201 0.928577
1305031921.915912 1.60839 -1.35089 0.763647 0.155341 -0.231526 -0.235603 0.930997
1305031921.947748 1.60097 -1.35659 0.767113 0.151133 -0.220569 -0.231802 0.935295
1305031921.983963 1.59554 -1.36168 0.771428 0.150404 -0.209625 -0.224598 0.939676
1305031922.017509 1.59339 -1.36409 0.776349 0.15048 -0.196203 -0.217454 0.944232
1305031922.048087 1.58969 -1.36462 0.780411 0.149713 -0.18323 -0.211872 0.948221
1305031922.084015 1.58407 -1.36644 0.783572 0.147831 -0.171087 -0.204999 0.952287
1305031922.117449 1.57829 -1.36877 0.785477 0.14627 -0.161409 -0.199203 0.955443
1305031922.150410 1.57286 -1.37185 0.787238 0.144639 -0.151634 -0.19368 0.958423
1305031922.184064 1.56899 -1.37114 0.789898 0.143003 -0.141414 -0.187045 0.961544
1305031922.217879 1.56224 -1.37274 0.790532 0.140732 -0.131849 -0.182721 0.964066
1305031922.248353 1.56078 -1.37028 0.792894 0.14103 -0.123387 -0.179332 0.965778
1305031922.284278 1.55967 -1.36947 0.795301 0.139074 -0.11396 -0.176132 0.967806
1305031922.315988 1.55557 -1.36853 0.797106 0.135572 -0.102382 -0.173842 0.970009
1305031922.348617 1.55203 -1.36666 0.79867 0.131703 -0.0898944 -0.171742 0.972151
1305031922.384534 1.5475 -1.36379 0.800025 0.128952 -0.0796978 -0.168869 0.973911
1305031922.414362 1.54578 -1.36096 0.802627 0.125932 -0.0708982 -0.166295 0.975428
1305031922.449565 1.54472 -1.35692 0.806112 0.121201 -0.0604584 -0.16312 0.977265
1305031922.483598 1.5425 -1.35287 0.80826 0.118126 -0.0522167 -0.159941 0.978641
1305031922.517313 1.54012 -1.34815 0.810668 0.115862 -0.0443748 -0.1569 0.97979
1305031922.551135 1.5392 -1.34421 0.814122 0.111729 -0.0370134 -0.152862 0.981214
1305031922.584494 1.53738 -1.34039 0.81614 0.109453 -0.0297501 -0.151464 0.981934
1305031922.616826 1.53521 -1.33885 0.818239 0.105661 -0.0198791 -0.150559 0.982737
1305031922.651650 1.53309 -1.3354 0.82034 0.103708 -0.0116936 -0.147782 0.983498
1305031922.684543 1.53142 -1.33339 0.822052 0.102102 -0.00386797 -0.147056 0.983837
1305031922.718051 1.53457 -1.33339 0.823599 0.100262 0.00552567 -0.144479 0.9844
1305031922.752032 1.53618 -1.33251 0.824249 0.102054 0.0132451 -0.140053 0.984782
1305031922.784245 1.53829 -1.3308 0.824611 0.105374 0.0201417 -0.133986 0.985159
1305031922.818079 1.54123 -1.32895 0.82481 0.108523 0.0269894 -0.127718 0.985486
1305031922.851561 1.54472 -1.32848 0.824781 0.111433 0.0340287 -0.123047 0.985537
1305031922.883570 1.54785 -1.3296 0.824223 0.11424 0.042403 -0.117448 0.985575
1305031922.916045 1.55213 -1.32834 0.823591 0.118597 0.0498453 -0.112433 0.985296
1305031922.951632 1.55626 -1.32705 0.823614 0.120881 0.0562127 -0.10786 0.985187
1305031922.983106 1.56079 -1.32683 0.823999 0.120759 0.0605708 -0.10151 0.985619
1305031923.016127 1.56539 -1.32566 0.823753 0.120249 0.0632434 -0.0980694 0.985862
1305031923.051643 1.57219 -1.32364 0.823715 0.119862 0.0671888 -0.0933821 0.986103
1305031923.083189 1.57706 -1.32214 0.822993 0.120175 0.0704136 -0.0877142 0.98636
1305031923.117556 1.58236 -1.32007 0.822002 0.120777 0.0735397 -0.0858497 0.986222
1305031923.152033 1.58792 -1.31974 0.821794 0.120246 0.0795776 -0.0823236 0.986119
1305031923.183804 1.5948 -1.31848 0.82 0.123301 0.0847567 -0.078507 0.985622
1305031923.215945 1.59928 -1.31786 0.817685 0.130943 0.0914564 -0.0780425 0.984073
1305031923.251678 1.60439 -1.31751 0.815833 0.135661 0.0986105 -0.0754094 0.982947
1305031923.283836 1.61088 -1.31623 0.815513 0.1342 0.105967 -0.0679076 0.982929
1305031923.317750 1.61756 -1.31425 0.814555 0.132503 0.111859 -0.0584456 0.983115
1305031923.351741 1.6237 -1.31155 0.812976 0.131973 0.11667 -0.0505742 0.983063
1305031923.384405 1.63145 -1.30681 0.811279 0.130873 0.121055 -0.0440215 0.982995
1305031923.417551 1.63629 -1.30445 0.808748 0.125615 0.127041 -0.0359107 0.983256
1305031923.452014 1.64263 -1.2997 0.805042 0.124372 0.134004 -0.0274992 0.982761
1305031923.483984 1.65007 -1.29581 0.800525 0.124501 0.140972 -0.0184152 0.981981
1305031923.517826 1.65675 -1.29304 0.794475 0.128914 0.147193 -0.0113554 0.980605
1305031923.551611 1.66588 -1.28987 0.786742 0.135931 0.150239 -0.00514673 0.979247
1305031923.584004 1.67341 -1.28719 0.778792 0.140395 0.152181 0.000999332 0.97833
1305031923.617213 1.68209 -1.28315 0.769827 0.144988 0.152693 0.00630623 0.97756
1305031923.651604 1.69069 -1.27902 0.76011 0.146763 0.153137 0.012663 0.977164
1305031923.683339 1.6994 -1.27278 0.749722 0.149756 0.153234 0.0194218 0.976583
1305031923.719218 1.70822 -1.26602 0.73913 0.152621 0.15394 0.0238787 0.97593
1305031923.751229 1.7158 -1.25895 0.728568 0.152894 0.155162 0.0274971 0.975598
1305031923.784138 1.72368 -1.24924 0.71833 0.156267 0.15705 0.0286003 0.97473
1305031923.819707 1.73201 -1.24 0.708561 0.155017 0.15978 0.0287264 0.974482
1305031923.848797 1.73925 -1.23213 0.697287 0.156534 0.162076 0.0299616 0.973823
1305031923.883914 1.74679 -1.22323 0.686252 0.162054 0.162654 0.0283102 0.972872
1305031923.919849 1.75493 -1.21259 0.675205 0.166675 0.163942 0.0222829 0.972032
1305031923.952341 1.76211 -1.20052 0.666024 0.169665 0.166531 0.016823 0.971184
1305031923.985402 1.76983 -1.18915 0.657165 0.165247 0.169223 0.013528 0.971532
1305031924.020347 1.77594 -1.18167 0.645518 0.164389 0.17295 0.0102062 0.971061
1305031924.052305 1.78663 -1.16888 0.634969 0.171135 0.175257 0.00840747 0.969498
1305031924.084935 1.79696 -1.15509 0.627378 0.169558 0.177636 0.0115523 0.96931
1305031924.120309 1.80371 -1.14404 0.61863 0.166247 0.180086 0.0135044 0.969406
1305031924.149942 1.81138 -1.13438 0.609947 0.167381 0.180613 0.0110344 0.969144
1305031924.183240 1.81866 -1.12413 0.602815 0.164942 0.179529 0.0112241 0.969761
1305031924.221139 1.8266 -1.11252 0.594509 0.164189 0.175689 0.00965208 0.970609
1305031924.251933 1.83395 -1.10166 0.586067 0.164818 0.171488 0.00561192 0.971285
1305031924.284047 1.84033 -1.09185 0.576881 0.164612 0.16844 0.00285046 0.971866
1305031924.319056 1.84827 -1.07923 0.568186 0.164349 0.164763 0.00277443 0.97254
1305031924.351287 1.85415 -1.06794 0.559537 0.162882 0.161865 0.00190526 0.973276
1305031924.383380 1.85973 -1.05828 0.550806 0.162343 0.156901 0.000187699 0.97418
1305031924.419225 1.86275 -1.04725 0.541993 0.161967 0.151353 -0.0022831 0.975117
1305031924.452792 1.86635 -1.03666 0.533413 0.161586 0.145983 -0.005011 0.975989
1305031924.483315 1.8695 -1.02987 0.524171 0.161942 0.141257 -0.0082978 0.976603
1305031924.519657 1.87326 -1.02116 0.515941 0.164203 0.133912 -0.0105611 0.977238
1305031924.552273 1.87243 -1.01419 0.506972 0.166146 0.126469 -0.0121108 0.977883
1305031924.584109 1.87302 -1.00747 0.49841 0.171121 0.116352 -0.0143603 0.97825
1305031924.620515 1.87645 -0.998457 0.491022 0.177134 0.107869 -0.0177768 0.978096
1305031924.652060 1.87905 -0.990784 0.483491 0.18367 0.102203 -0.0182378 0.97749
1305031924.684319 1.88324 -0.981083 0.477448 0.191117 0.0958674 -0.0180797 0.976707
1305031924.719995 1.88572 -0.973406 0.470966 0.196338 0.0915213 -0.0191338 0.976068
1305031924.751699 1.88891 -0.96484 0.46479 0.202477 0.0874685 -0.0211167 0.975144
1305031924.783411 1.89477 -0.955408 0.459821 0.205661 0.0853351 -0.023417 0.974614
1305031924.819277 1.89921 -0.947792 0.455241 0.207147 0.0857294 -0.023416 0.974265
1305031924.851149 1.90456 -0.936683 0.450614 0.209644 0.0859921 -0.0226955 0.973725
1305031924.887231 1.91 -0.925853 0.447147 0.207373 0.0856079 -0.0218164 0.974265
1305031924.919219 1.91134 -0.917538 0.443112 0.202637 0.0844144 -0.0208617 0.975386
1305031924.951326 1.91203 -0.909547 0.43894 0.201856 0.0809727 -0.0217785 0.975819
1305031924.987062 1.91342 -0.899662 0.434462 0.202471 0.0776526 -0.0243155 0.975902
1305031925.019418 1.91335 -0.890994 0.429754 0.204512 0.0752352 -0.0276308 0.975577
1305031925.051227 1.9148 -0.883411 0.424702 0.207866 0.0733187 -0.0311544 0.974908
1305031925.086881 1.91755 -0.874916 0.419623 0.213032 0.0721629 -0.0340778 0.973781
1305031925.119070 1.9214 -0.86517 0.414923 0.21385 0.069627 -0.0343478 0.973776
1305031925.150861 1.92132 -0.854569 0.410368 0.209074 0.0681015 -0.0323551 0.974989
1305031925.186995 1.92008 -0.848347 0.404481 0.205974 0.0658306 -0.0324657 0.975801
1305031925.219143 1.92112 -0.838784 0.398641 0.207688 0.0622748 -0.0345941 0.975598
1305031925.250215 1.92307 -0.827465 0.393873 0.206543 0.0584716 -0.0369237 0.975991
1305031925.287610 1.92346 -0.818255 0.388699 0.20384 0.0552702 -0.0417396 0.976551
1305031925.318360 1.92571 -0.806042 0.384338 0.202237 0.053138 -0.0467394 0.976776
1305031925.351623 1.92716 -0.794602 0.380292 0.19779 0.0525694 -0.0505108 0.97753
1305031925.386446 1.92736 -0.782906 0.376158 0.194076 0.0526446 -0.0563911 0.977948
1305031925.420497 1.93083 -0.77114 0.37258 0.192381 0.0515254 -0.061951 0.978007
1305031925.451669 1.93262 -0.761462 0.367502 0.192829 0.0503772 -0.0649828 0.977781
1305031925.487976 1.93676 -0.74814 0.362576 0.197454 0.0519094 -0.0679651 0.976575
1305031925.520197 1.94328 -0.7365 0.357448 0.203375 0.0559525 -0.067095 0.975195
1305031925.551723 1.95011 -0.724334 0.351613 0.209744 0.0608753 -0.0628025 0.973837
1305031925.587951 1.95761 -0.712927 0.345733 0.21366 0.0655503 -0.0555854 0.97312
1305031925.620389 1.9668 -0.698902 0.34119 0.217668 0.0701975 -0.0497053 0.972225
1305031925.652177 1.97608 -0.684391 0.337434 0.218909 0.0747507 -0.0435544 0.971902
1305031925.688138 1.98471 -0.676794 0.332727 0.215577 0.0765565 -0.0382076 0.972731
1305031925.719963 1.99274 -0.667062 0.329287 0.214269 0.0758893 -0.0360704 0.973154
1305031925.752010 2.00259 -0.656039 0.327185 0.212594 0.0741313 -0.0343439 0.973719
1305031925.788128 2.0136 -0.643422 0.32563 0.209307 0.0737737 -0.0306796 0.97458
1305031925.819737 2.02458 -0.630236 0.324522 0.204673 0.0757561 -0.0270963 0.975518
1305031925.852900 2.03525 -0.620212 0.322004 0.196434 0.0795 -0.0232589 0.977012
1305031925.887783 2.04443 -0.610397 0.319278 0.188219 0.0844857 -0.0191693 0.978299
1305031925.917070 2.0519 -0.600021 0.31567 0.180848 0.089714 -0.013137 0.979323
1305031925.952071 2.05989 -0.589714 0.311878 0.17439 0.0924351 -0.00618677 0.980309
1305031925.987927 2.06783 -0.580484 0.307149 0.1658 0.0943125 -0.0009215 0.981639
1305031926.019599 2.07557 -0.570857 0.302106 0.159788 0.0950806 0.00395979 0.982554
1305031926.051425 2.08208 -0.560159 0.296348 0.15615 0.0952357 0.00941133 0.983086
1305031926.087671 2.08903 -0.550264 0.289735 0.151902 0.0968702 0.0130795 0.98355
1305031926.119488 2.09533 -0.540213 0.282328 0.149465 0.101257 0.0146686 0.983459
1305031926.155476 2.10308 -0.529667 0.274319 0.147128 0.105569 0.0166128 0.983327
1305031926.187287 2.1114 -0.519257 0.265485 0.143234 0.11072 0.0201253 0.98327
1305031926.219471 2.11795 -0.508863 0.256272 0.142922 0.11665 0.0235302 0.982554
1305031926.255515 2.12533 -0.498168 0.24694 0.141711 0.122352 0.0267225 0.981954
1305031926.287524 2.13184 -0.485405 0.237582 0.140148 0.1287 0.02853 0.981316
1305031926.319314 2.13898 -0.473513 0.227358 0.139683 0.135486 0.0301413 0.98042
1305031926.355226 2.14566 -0.461743 0.216589 0.139029 0.144413 0.0343377 0.9791
1305031926.387186 2.15372 -0.452999 0.204582 0.138529 0.152863 0.0383515 0.977738
1305031926.416195 2.15925 -0.445378 0.193186 0.138144 0.160801 0.0432247 0.976315
1305031926.456138 2.16449 -0.435616 0.18156 0.138021 0.168271 0.0487779 0.974811
1305031926.487337 2.17018 -0.425828 0.169628 0.138207 0.175564 0.0546398 0.973186
1305031926.519488 2.17484 -0.419056 0.157107 0.139408 0.183416 0.0617154 0.971141
1305031926.555508 2.17922 -0.411236 0.145031 0.141186 0.191271 0.070006 0.968804
1305031926.587389 2.18354 -0.403316 0.132812 0.142974 0.198426 0.0788782 0.966418
1305031926.617031 2.18716 -0.394599 0.122066 0.144324 0.205149 0.0889303 0.963938
1305031926.655592 2.18815 -0.385401 0.114069 0.145134 0.212025 0.100013 0.961238
1305031926.686940 2.18724 -0.376845 0.108106 0.145957 0.21957 0.111148 0.958192
1305031926.716774 2.1888 -0.366977 0.101713 0.147129 0.22846 0.119461 0.954928
1305031926.754636 2.19055 -0.358807 0.096209 0.146695 0.239335 0.127794 0.951246
1305031926.787267 2.19462 -0.348673 0.0893172 0.145805 0.250916 0.138757 0.946852
1305031926.817567 2.19748 -0.338341 0.08339 0.144779 0.262628 0.150937 0.941957
1305031926.856453 2.20057 -0.328456 0.0775224 0.14356 0.275101 0.164583 0.936281
1305031926.885854 2.20312 -0.319933 0.0724636 0.141733 0.288614 0.181522 0.929335
1305031926.920915 2.20321 -0.308232 0.0693614 0.140858 0.30414 0.197443 0.921235
1305031926.956342 2.20544 -0.29635 0.0644395 0.139462 0.321057 0.212226 0.912378
1305031926.988250 2.20672 -0.287536 0.061207 0.134919 0.337315 0.225195 0.904048
1305031927.021193 2.20867 -0.277319 0.0569256 0.128548 0.3519 0.238534 0.89596
1305031927.056355 2.20931 -0.266712 0.0523193 0.123441 0.366318 0.25249 0.88703
1305031927.088782 2.20779 -0.255148 0.0510619 0.119747 0.379208 0.266679 0.877921
1305031927.120454 2.20716 -0.24385 0.0496182 0.114596 0.389211 0.28123 0.869651
1305031927.156388 2.20569 -0.230679 0.0484099 0.109099 0.398926 0.293504 0.861865
1305031927.188222 2.20257 -0.223464 0.0497923 0.101569 0.409555 0.305965 0.853425
1305031927.220398 2.20007 -0.212621 0.0509875 0.0934787 0.416574 0.317457 0.846728
1305031927.255554 2.19938 -0.199511 0.050267 0.0829868 0.418933 0.329332 0.84211
1305031927.288179 2.19901 -0.184598 0.0482884 0.0740015 0.419713 0.337626 0.83927
1305031927.319728 2.19825 -0.169755 0.0480087 0.0663221 0.42141 0.345937 0.835669
1305031927.355704 2.19674 -0.151286 0.0474192 0.0617572 0.423684 0.355306 0.830925
1305031927.387697 2.19706 -0.134928 0.0458758 0.0565888 0.426814 0.365593 0.825209
1305031927.423646 2.19651 -0.122323 0.0448125 0.0503011 0.430797 0.374901 0.819349
1305031927.455842 2.19834 -0.109271 0.0399871 0.0450218 0.432492 0.38367 0.814691
1305031927.487526 2.19875 -0.093657 0.0365487 0.0397075 0.433364 0.38969 0.811641
1305031927.523735 2.19627 -0.0776025 0.0344322 0.0353276 0.434368 0.394214 0.809118
1305031927.555610 2.19503 -0.0651803 0.0327524 0.0313656 0.435453 0.396538 0.807561
1305031927.587778 2.19604 -0.0552654 0.0299234 0.0256318 0.434914 0.397808 0.807429
1305031927.623566 2.19964 -0.0477519 0.0262034 0.0162058 0.432138 0.397609 0.80926
1305031927.655615 2.19936 -0.0373931 0.024079 0.00871026 0.428917 0.397246 0.811264
1305031927.687849 2.19824 -0.0256185 0.0242215 0.00403154 0.426503 0.391409 0.8154
1305031927.720304 2.19858 -0.0134136 0.0234469 -0.00272119 0.423875 0.38342 0.820556
1305031927.755615 2.19785 -0.00414179 0.0235106 -0.0094838 0.422077 0.377041 0.824379
1305031927.784053 2.19785 -0.00414179 0.0235106 -0.0094838 0.422077 0.377041 0.824379
1305031927.825135 2.19966 0.00708809 0.0198925 -0.0127959 0.420371 0.372456 0.827285
1305031927.855551 2.2009 0.0199473 0.0161147 -0.0149589 0.419346 0.369302 0.829181
1305031927.887591 2.20288 0.0320789 0.0118612 -0.017816 0.418388 0.368457 0.829984
1305031927.923620 2.20883 0.0386093 0.00371768 -0.0208413 0.417502 0.368101 0.830518
1305031927.955459 2.21382 0.0497746 -0.00392401 -0.02086 0.41756 0.36667 0.831121
1305031927.987655 2.21827 0.0603178 -0.0115258 -0.0218562 0.416093 0.367383 0.831516
1305031928.023669 2.22508 0.0711581 -0.0213665 -0.023438 0.415092 0.367959 0.831719
1305031928.055649 2.22875 0.0832529 -0.0292435 -0.0240498 0.415422 0.36775 0.831629
1305031928.087657 2.23241 0.0952845 -0.0369758 -0.0265719 0.415255 0.369355 0.830924
1305031928.123611 2.23709 0.1082 -0.0466603 -0.0285136 0.415346 0.37069 0.830219
1305031928.153645 2.2422 0.118386 -0.0565067 -0.0307941 0.415729 0.371129 0.82975
1305031928.185349 2.24847 0.124767 -0.0676481 -0.0343451 0.417957 0.372096 0.828056
1305031928.223567 2.25176 0.137302 -0.0778957 -0.0352535 0.422947 0.372057 0.825498
1305031928.256019 2.25398 0.150295 -0.0869435 -0.0360412 0.428758 0.374015 0.821572
1305031928.287847 2.25492 0.159935 -0.0944069 -0.0372136 0.43458 0.378002 0.816621
1305031928.324414 2.2559 0.170087 -0.104556 -0.036256 0.439125 0.382415 0.812166
1305031928.356445 2.25739 0.179002 -0.115279 -0.0352706 0.443656 0.387983 0.80709
1305031928.388295 2.2598 0.187078 -0.126504 -0.0334369 0.448019 0.394833 0.801416
1305031928.424766 2.26046 0.194241 -0.136773 -0.0298384 0.453924 0.40279 0.794244
1305031928.456406 2.26102 0.202464 -0.147508 -0.0253422 0.462656 0.411558 0.78481
1305031928.489516 2.26168 0.208612 -0.157294 -0.0196829 0.472313 0.422802 0.773157
1305031928.524415 2.26549 0.20958 -0.167658 -0.0132915 0.481945 0.435261 0.760329
1305031928.556287 2.2668 0.212101 -0.177384 -0.00480943 0.491621 0.444883 0.748575
1305031928.588557 2.26516 0.217994 -0.188532 0.00329279 0.501072 0.451591 0.738229
1305031928.624251 2.263 0.223269 -0.200108 0.0113423 0.5128 0.456346 0.727087
1305031928.656233 2.26339 0.224604 -0.213116 0.0193732 0.525321 0.45957 0.715862
1305031928.691555 2.26386 0.224775 -0.225621 0.0273261 0.537733 0.460653 0.705617
1305031928.723927 2.26386 0.223685 -0.236658 0.0341275 0.549678 0.459807 0.696611
1305031928.755499 2.26299 0.222506 -0.247798 0.0418263 0.561319 0.459527 0.687028
1305031928.791463 2.26354 0.218397 -0.259744 0.0495171 0.572235 0.460329 0.676899
1305031928.823577 2.26256 0.214613 -0.271071 0.0574629 0.583194 0.458699 0.667965
1305031928.855468 2.2617 0.210883 -0.281885 0.0656979 0.593948 0.456807 0.658967
1305031928.891499 2.26053 0.206313 -0.292105 0.0739205 0.605052 0.454278 0.649677
1305031928.923473 2.25908 0.200963 -0.301678 0.0822551 0.616282 0.451301 0.640123
1305031928.955544 2.25734 0.195792 -0.310229 0.0919147 0.628564 0.445821 0.630637
1305031928.991477 2.25511 0.190142 -0.319811 0.101464 0.641754 0.439248 0.620417
1305031929.023472 2.25224 0.183199 -0.323925 0.108581 0.656317 0.432688 0.608473
1305031929.052047 2.25016 0.174272 -0.332907 0.115883 0.670194 0.426275 0.596406
1305031929.091469 2.24786 0.165718 -0.342761 0.122494 0.684466 0.418779 0.58406
1305031929.123397 2.24543 0.157059 -0.351796 0.128579 0.69864 0.412226 0.570473
1305031929.155442 2.24154 0.149347 -0.3612 0.136561 0.711716 0.405896 0.55683
1305031929.191433 2.23863 0.138846 -0.368249 0.143826 0.723877 0.400658 0.542945
1305031929.224389 2.23501 0.129733 -0.374256 0.152019 0.73526 0.396346 0.528387
1305031929.256040 2.23157 0.118834 -0.381512 0.162788 0.746316 0.392307 0.512453
1305031929.292331 2.22726 0.107634 -0.388401 0.172537 0.756911 0.386573 0.497874
1305031929.324071 2.22354 0.0945636 -0.394928 0.179214 0.766936 0.381366 0.483996
1305031929.356012 2.219 0.0822818 -0.401635 0.18725 0.775312 0.377605 0.470365
1305031929.391503 2.21524 0.0697041 -0.405492 0.195761 0.782474 0.373692 0.458003
1305031929.423543 2.21111 0.0572533 -0.409643 0.204801 0.787471 0.370082 0.448313
1305031929.455568 2.20815 0.0435563 -0.412455 0.210463 0.793523 0.363588 0.440261
1305031929.491502 2.20342 0.031321 -0.414458 0.216062 0.799291 0.357392 0.432114
1305031929.523520 2.198 0.0187853 -0.41721 0.221999 0.80373 0.352511 0.424819
1305031929.555525 2.19158 0.00740953 -0.420912 0.228069 0.808157 0.346915 0.417753
1305031929.591341 2.1873 -0.00509431 -0.419991 0.232383 0.813241 0.340809 0.410471
1305031929.627102 2.18294 -0.0181586 -0.419945 0.23668 0.818249 0.333517 0.404003
1305031929.652934 2.17714 -0.0333087 -0.4238 0.23938 0.823444 0.32571 0.398185
1305031929.688977 2.17487 -0.052044 -0.419537 0.240811 0.829683 0.316975 0.391361
1305031929.722904 2.1693 -0.0657505 -0.419101 0.244383 0.834365 0.308283 0.3861
1305031929.755544 2.16597 -0.0759717 -0.416127 0.248381 0.837689 0.299949 0.382903
1305031929.791661 2.16313 -0.0827983 -0.413308 0.253248 0.838923 0.292246 0.382969
1305031929.824100 2.15975 -0.0987244 -0.416053 0.257503 0.840007 0.285413 0.382909
1305031929.859997 2.15628 -0.109489 -0.417416 0.262051 0.841016 0.27781 0.383201
1305031929.892100 2.15116 -0.116928 -0.41957 0.265926 0.841472 0.270411 0.38482
1305031929.920589 2.14459 -0.123889 -0.423622 0.268625 0.84212 0.262862 0.386753
1305031929.960336 2.14093 -0.130465 -0.423681 0.270161 0.843976 0.255596 0.386508
1305031929.992281 2.13452 -0.139871 -0.428063 0.268344 0.846342 0.251206 0.385477
1305031930.024129 2.12853 -0.144391 -0.429183 0.268552 0.848432 0.249201 0.382023
1305031930.059766 2.12305 -0.144862 -0.428639 0.269985 0.849697 0.249655 0.377883
1305031930.088504 2.11594 -0.143235 -0.43077 0.270855 0.849888 0.252392 0.375002
1305031930.122266 2.11085 -0.139205 -0.430072 0.269778 0.850559 0.254989 0.372492
1305031930.159452 2.10532 -0.135421 -0.429897 0.264552 0.852489 0.257441 0.370134
1305031930.191333 2.0989 -0.127052 -0.425943 0.261227 0.855141 0.260223 0.364389
1305031930.223366 2.09046 -0.112191 -0.426629 0.257038 0.857782 0.26325 0.358945
1305031930.259685 2.08299 -0.102589 -0.427652 0.250071 0.860736 0.268247 0.353046
1305031930.291415 2.07495 -0.0899505 -0.426819 0.244592 0.863891 0.273328 0.345193
1305031930.324425 2.06726 -0.0751186 -0.422068 0.239275 0.866508 0.27978 0.337098
1305031930.360687 2.05695 -0.0661624 -0.425838 0.230722 0.868727 0.287492 0.330801
1305031930.392204 2.04374 -0.0518355 -0.429185 0.223427 0.870707 0.294542 0.324338
1305031930.424494 2.03042 -0.031663 -0.429371 0.21954 0.871384 0.302493 0.31779
1305031930.460645 2.0198 -0.0198381 -0.427468 0.213576 0.871644 0.312302 0.31159
1305031930.491893 2.01055 -0.00838719 -0.420931 0.209813 0.870068 0.324361 0.306187
1305031930.523304 2.00373 0.00474473 -0.415573 0.205918 0.867403 0.337755 0.30188
1305031930.559268 1.99831 0.0176598 -0.407763 0.200673 0.865925 0.348094 0.297884
1305031930.591038 1.99193 0.0308805 -0.399387 0.193119 0.865632 0.355901 0.294484
1305031930.620257 1.98528 0.0436485 -0.390343 0.186446 0.8635 0.367192 0.291165
1305031930.659428 1.98265 0.0518937 -0.384929 0.179287 0.86006 0.379542 0.290001
1305031930.691306 1.97952 0.0635119 -0.376114 0.175918 0.855499 0.39137 0.289834
1305031930.723254 1.97748 0.0703625 -0.373543 0.172602 0.849386 0.403781 0.292768
1305031930.759257 1.97292 0.0834713 -0.366914 0.169221 0.843982 0.413967 0.296124
1305031930.791524 1.9706 0.0913967 -0.363487 0.163688 0.838378 0.424895 0.299654
1305031930.823348 1.96642 0.0989042 -0.359963 0.160544 0.833571 0.433923 0.301821
1305031930.860005 1.96122 0.10877 -0.351357 0.156175 0.830574 0.440377 0.303023
1305031930.887927 1.95747 0.11564 -0.347715 0.15053 0.82662 0.449702 0.303
1305031930.923290 1.95284 0.123951 -0.341624 0.146322 0.822737 0.45839 0.302609
1305031930.959881 1.94849 0.132614 -0.334318 0.143342 0.818749 0.466921 0.301808
1305031930.991760 1.94317 0.142845 -0.327069 0.139466 0.8144 0.475831 0.301473
1305031931.023642 1.93945 0.15178 -0.320563 0.134037 0.809301 0.48629 0.30098
1305031931.059938 1.93557 0.161014 -0.313253 0.128553 0.804604 0.4957 0.300613
1305031931.091660 1.93133 0.17066 -0.307382 0.12371 0.799003 0.506928 0.298855
1305031931.126327 1.92857 0.177349 -0.304592 0.119587 0.793191 0.518825 0.295581
1305031931.156194 1.92438 0.187031 -0.299499 0.114518 0.788561 0.528929 0.292047
1305031931.187879 1.91954 0.196535 -0.293272 0.108803 0.784615 0.539307 0.285814
1305031931.226834 1.91484 0.20394 -0.286543 0.101933 0.780138 0.551458 0.277288
1305031931.259538 1.91237 0.209078 -0.282739 0.0933231 0.775583 0.564162 0.267365
1305031931.291735 1.90861 0.216354 -0.277352 0.0861166 0.772177 0.574743 0.256897
1305031931.327534 1.9068 0.222187 -0.275162 0.07922 0.76898 0.585407 0.244322
1305031931.359406 1.90554 0.228006 -0.273118 0.0726133 0.766764 0.594673 0.230574
1305031931.391729 1.9049 0.233411 -0.269884 0.0687214 0.764433 0.603467 0.216212
1305031931.427416 1.90452 0.239158 -0.267479 0.0664164 0.761864 0.611728 0.202338
1305031931.459719 1.90646 0.2441 -0.267564 0.0648979 0.759356 0.619213 0.189056
1305031931.491781 1.90937 0.248999 -0.266348 0.0637654 0.758169 0.624545 0.176229
1305031931.527311 1.913 0.254835 -0.26383 0.0627682 0.756595 0.629843 0.164079
1305031931.559707 1.91741 0.259301 -0.266626 0.0641953 0.753151 0.637087 0.15087
1305031931.590720 1.92419 0.262641 -0.267529 0.0667698 0.752456 0.640582 0.137866
1305031931.627134 1.92923 0.267254 -0.266014 0.0677605 0.752487 0.642156 0.129643
1305031931.659798 1.93562 0.270873 -0.267186 0.0674936 0.751688 0.64451 0.122545
1305031931.691463 1.9411 0.274909 -0.265901 0.0659367 0.752503 0.644699 0.117281
1305031931.727210 1.94892 0.279282 -0.26427 0.0640485 0.752984 0.645466 0.110847
1305031931.759394 1.95816 0.283764 -0.261783 0.0616992 0.75311 0.646305 0.106343
1305031931.791463 1.96714 0.288991 -0.259129 0.0596233 0.751636 0.648771 0.102884
1305031931.827415 1.97747 0.293924 -0.257474 0.0612578 0.74934 0.652087 0.0975666
1305031931.859949 1.98634 0.299807 -0.252407 0.0650846 0.746604 0.655763 0.0912255
1305031931.891964 1.99589 0.304995 -0.252088 0.0703836 0.741246 0.662277 0.0835966
1305031931.927455 2.00248 0.310423 -0.254668 0.0746747 0.73762 0.666343 0.0795449
1305031931.959755 2.01078 0.314985 -0.252468 0.0786214 0.736971 0.667198 0.0744304
1305031931.991729 2.01861 0.319747 -0.252282 0.0833355 0.735327 0.668894 0.0702221
1305031932.026867 2.02533 0.324444 -0.253067 0.0874228 0.734878 0.669407 0.0648552
1305031932.058924 2.03282 0.329099 -0.25455 0.0922808 0.73439 0.669849 0.0588094
1305031932.092565 2.03899 0.334219 -0.25255 0.0954378 0.73474 0.669342 0.0550368
1305031932.127607 2.048 0.339106 -0.255483 0.0996254 0.732423 0.671696 0.0495534
1305031932.159854 2.06016 0.343327 -0.259714 0.106239 0.730589 0.672824 0.0475514
1305031932.192165 2.06993 0.347686 -0.261835 0.110542 0.729049 0.673438 0.0524276
1305031932.227671 2.07932 0.351893 -0.268589 0.114308 0.727085 0.674374 0.0591631
1305031932.259182 2.0889 0.356066 -0.274552 0.117217 0.72621 0.674059 0.0672661
1305031932.291317 2.09687 0.359621 -0.284071 0.119873 0.724791 0.674119 0.0766283
1305031932.326984 2.10499 0.363204 -0.290615 0.120712 0.725649 0.672128 0.0843004
1305031932.359352 2.1117 0.367482 -0.299682 0.122319 0.725928 0.670817 0.0898332
1305031932.395192 2.11936 0.370801 -0.30877 0.124399 0.727379 0.667966 0.0962631
1305031932.427402 2.12575 0.376042 -0.31648 0.127236 0.729474 0.663833 0.104903
1305031932.460162 2.13383 0.380653 -0.323217 0.130742 0.730328 0.660868 0.113052
1305031932.495912 2.14123 0.385206 -0.332719 0.134801 0.729976 0.658708 0.122747
1305031932.527699 2.14909 0.389627 -0.341853 0.137065 0.729993 0.656198 0.133141
1305031932.556042 2.15754 0.39333 -0.352396 0.139846 0.729956 0.653585 0.142946
1305031932.593841 2.16455 0.396727 -0.361886 0.141593 0.731041 0.649258 0.154904
1305031932.627666 2.17312 0.398874 -0.370564 0.142574 0.731998 0.644591 0.168386
1305031932.659769 2.18056 0.40084 -0.382096 0.143451 0.732498 0.639794 0.18312
1305031932.695841 2.18742 0.402241 -0.391091 0.144383 0.733538 0.634098 0.197474
1305031932.727524 2.19529 0.402974 -0.402742 0.145005 0.734514 0.628416 0.211083
1305031932.759892 2.20181 0.403801 -0.412324 0.145381 0.736371 0.621673 0.223928
1305031932.795486 2.2104 0.402958 -0.423765 0.147562 0.738087 0.615022 0.234949
1305031932.827627 2.21857 0.401814 -0.432321 0.150275 0.740679 0.606812 0.246154
1305031932.859777 2.22562 0.401988 -0.441713 0.15142 0.7435 0.59869 0.256613
1305031932.896209 2.23373 0.401007 -0.453937 0.151954 0.747094 0.590326 0.265096
1305031932.928147 2.24059 0.401435 -0.462295 0.153199 0.752824 0.579228 0.272546
1305031932.959759 2.24706 0.402942 -0.466942 0.154624 0.755702 0.571464 0.280062
1305031932.995065 2.25386 0.404607 -0.475292 0.153562 0.757504 0.565739 0.287309
1305031933.026975 2.26098 0.405393 -0.482955 0.151248 0.761988 0.558886 0.290076
1305031933.059632 2.26574 0.409485 -0.485609 0.149625 0.767342 0.552096 0.289809
1305031933.095661 2.26971 0.4145 -0.488903 0.148219 0.769847 0.549713 0.288414
1305031933.127608 2.27445 0.41889 -0.494683 0.146818 0.773805 0.547672 0.282358
1305031933.159744 2.2761 0.424772 -0.495427 0.145637 0.780635 0.543415 0.272211
1305031933.195887 2.27918 0.428107 -0.498156 0.143785 0.785458 0.543398 0.259037
1305031933.227642 2.28215 0.430201 -0.501527 0.141537 0.789475 0.543483 0.247635
1305031933.259844 2.28486 0.431171 -0.503515 0.139046 0.793076 0.54297 0.238496
1305031933.296061 2.28692 0.432819 -0.505585 0.136831 0.796661 0.541609 0.230801
1305031933.327953 2.28657 0.435987 -0.504684 0.136529 0.799172 0.541173 0.223194
1305031933.359852 2.28582 0.43879 -0.503085 0.136997 0.80034 0.542485 0.215401
1305031933.395603 2.28395 0.440693 -0.505427 0.137112 0.801142 0.544175 0.207954
1305031933.427651 2.27997 0.444752 -0.502939 0.138596 0.801685 0.545616 0.200986
1305031933.459920 2.27765 0.446768 -0.50285 0.13889 0.800858 0.549443 0.193516
1305031933.495920 2.2741 0.448651 -0.503137 0.139737 0.801004 0.55188 0.185188
1305031933.527835 2.26901 0.451218 -0.501163 0.139293 0.802125 0.553124 0.176769
1305031933.564265 2.26389 0.453972 -0.499791 0.138059 0.803149 0.554779 0.167665
1305031933.595687 2.25775 0.456452 -0.498834 0.138294 0.804139 0.55675 0.155769
1305031933.626979 2.25114 0.4587 -0.497613 0.138511 0.805243 0.558621 0.14262
1305031933.663105 2.24504 0.460612 -0.494222 0.137876 0.806553 0.560635 0.127084
1305031933.695772 2.23937 0.4617 -0.48995 0.137024 0.807282 0.563597 0.108985
1305031933.727622 2.23374 0.462382 -0.485507 0.136746 0.807459 0.566666 0.0905588
1305031933.763831 2.22883 0.462585 -0.481955 0.13636 0.806797 0.570349 0.0720161
1305031933.795823 2.22381 0.461892 -0.477489 0.135455 0.80634 0.57303 0.0557156
1305031933.827513 2.21845 0.462589 -0.468924 0.133159 0.806887 0.574037 0.041032
1305031933.863871 2.21394 0.462752 -0.461439 0.130651 0.805641 0.577217 0.0263153
1305031933.895826 2.20803 0.462872 -0.454703 0.128661 0.803687 0.580804 0.0141672
1305031933.927864 2.20224 0.462588 -0.448266 0.125909 0.801668 0.584344 0.00414857
1305031933.964067 2.19571 0.462009 -0.440886 0.123203 0.799634 0.587694 -0.00473442
1305031933.996159 2.1905 0.461572 -0.43258 0.121441 0.797227 0.591204 -0.0126055
1305031934.025036 2.18384 0.460104 -0.424939 0.119608 0.794518 0.595078 -0.0177866
1305031934.062070 2.1759 0.458931 -0.41599 0.116903 0.792344 0.598365 -0.0220009
1305031934.095754 2.16877 0.457636 -0.406876 0.113675 0.790251 0.601524 -0.0273694
1305031934.123903 2.15924 0.456031 -0.397227 0.110983 0.787679 0.605098 -0.0331828
1305031934.163843 2.15061 0.453576 -0.3893 0.108146 0.784925 0.608731 -0.0405524
1305031934.196078 2.14392 0.451585 -0.379864 0.10447 0.783292 0.610985 -0.0472842
1305031934.226959 2.13565 0.449006 -0.372027 0.101329 0.780422 0.614598 -0.0542512
1305031934.263347 2.12482 0.44496 -0.364801 0.100371 0.777493 0.617819 -0.0610736
1305031934.295644 2.11668 0.441629 -0.356335 0.0986417 0.776138 0.619322 -0.0657296
1305031934.327544 2.10678 0.438427 -0.347267 0.0971999 0.773702 0.622385 -0.0676308
1305031934.363432 2.09729 0.434397 -0.342851 0.0970139 0.770322 0.626476 -0.0687016
1305031934.395278 2.08711 0.430689 -0.336669 0.0959826 0.769211 0.628224 -0.0665977
1305031934.427107 2.07626 0.426906 -0.33241 0.0943456 0.76798 0.630385 -0.0626133
1305031934.460046 2.0654 0.422263 -0.329667 0.0912047 0.768093 0.631233 -0.0570832
1305031934.495228 2.05346 0.418312 -0.322936 0.083977 0.770879 0.629511 -0.0490886
1305031934.527409 2.0403 0.414083 -0.317546 0.0759955 0.771739 0.629876 -0.0435787
1305031934.563395 2.02546 0.409169 -0.316325 0.0714153 0.772213 0.630018 -0.0407986
1305031934.595082 2.01201 0.404082 -0.311995 0.068318 0.773851 0.628437 -0.0394135
1305031934.627102 1.99815 0.399695 -0.307288 0.0656614 0.774444 0.628138 -0.0369895
1305031934.662910 1.98558 0.394528 -0.306708 0.0639531 0.77461 0.628347 -0.0327075
1305031934.694817 1.96943 0.390149 -0.302483 0.0603449 0.777505 0.625446 -0.0257481
1305031934.726749 1.95461 0.385897 -0.299218 0.0567298 0.778958 0.624158 -0.020788
1305031934.762903 1.94003 0.381069 -0.297513 0.0535176 0.780478 0.622724 -0.0142938
1305031934.794831 1.92392 0.377654 -0.29485 0.0498622 0.782576 0.620525 -0.00606188
1305031934.830983 1.90694 0.373606 -0.293372 0.046891 0.783688 0.619381 0.00110609
1305031934.862668 1.89115 0.368667 -0.292233 0.043748 0.785559 0.617184 0.00821753
1305031934.894445 1.87567 0.364829 -0.289871 0.0398421 0.78815 0.61398 0.0161495
1305031934.931747 1.85876 0.359792 -0.290011 0.0367906 0.790242 0.611159 0.0254865
1305031934.963384 1.84048 0.355395 -0.289469 0.0329849 0.794332 0.60556 0.0353011
1305031934.995132 1.82233 0.350378 -0.290356 0.028009 0.798935 0.599098 0.0447215
1305031935.033022 1.8047 0.345765 -0.290644 0.024166 0.803584 0.592351 0.0528178
1305031935.063116 1.7869 0.340794 -0.292864 0.0237554 0.807502 0.586438 0.0588754
1305031935.095058 1.76878 0.337213 -0.293237 0.0251099 0.811634 0.57996 0.0653111
1305031935.130727 1.75021 0.335461 -0.292047 0.0249914 0.814425 0.575419 0.0705682
1305031935.162214 1.73278 0.33238 -0.297596 0.0253603 0.815035 0.574193 0.0733325
1305031935.194899 1.71801 0.330114 -0.301286 0.0275545 0.817066 0.57098 0.0750069
1305031935.231025 1.70573 0.32871 -0.303588 0.0320286 0.818175 0.569099 0.0754305
1305031935.260736 1.69381 0.327468 -0.307207 0.0378783 0.817985 0.568906 0.0762396
1305031935.295152 1.67917 0.326521 -0.31112 0.0423558 0.818001 0.56828 0.0783496
1305031935.330960 1.6614 0.326355 -0.314972 0.0447971 0.817966 0.568039 0.0791007
1305031935.363255 1.64263 0.326342 -0.319853 0.0483802 0.818235 0.567712 0.0765173
1305031935.394932 1.62393 0.326797 -0.32589 0.0532888 0.81757 0.568872 0.0715846
1305031935.430905 1.60745 0.326562 -0.331645 0.0595906 0.817112 0.56992 0.0629987
1305031935.463017 1.59259 0.325916 -0.337663 0.0661971 0.81656 0.570859 0.0544809
1305031935.493044 1.57886 0.324073 -0.346354 0.0712158 0.81655 0.570904 0.0473612
1305031935.530045 1.56498 0.322269 -0.35427 0.0758597 0.818636 0.567925 0.0392617
1305031935.562732 1.5527 0.320213 -0.361782 0.0806396 0.821669 0.563413 0.0303801
1305031935.594819 1.53571 0.318322 -0.370368 0.0839984 0.825913 0.557114 0.020904
1305031935.631390 1.52282 0.315085 -0.377008 0.0846058 0.831656 0.548743 0.00840349
1305031935.663543 1.51055 0.311315 -0.381941 0.0839359 0.83928 0.537142 -0.00651101
1305031935.695531 1.49943 0.306445 -0.387019 0.0774894 0.847346 0.524911 -0.0216566
1305031935.731180 1.48704 0.301088 -0.393128 0.0680847 0.855173 0.512419 -0.0383396
1305031935.763521 1.4726 0.296281 -0.400185 0.0560198 0.8629 0.498947 -0.057599
1305031935.795359 1.46349 0.293551 -0.401893 0.044298 0.869523 0.485562 -0.0787222
1305031935.831205 1.45736 0.289807 -0.404708 0.0351274 0.873679 0.475469 -0.0968528
1305031935.863651 1.44613 0.283846 -0.407222 0.0289218 0.876897 0.466821 -0.110874
1305031935.895325 1.43802 0.279824 -0.410814 0.0247803 0.879608 0.458572 -0.124047
1305031935.931428 1.42955 0.276589 -0.415621 0.0210348 0.882496 0.450104 -0.134775
1305031935.963243 1.42087 0.270486 -0.426549 0.0150439 0.885543 0.441961 -0.142331
1305031935.995756 1.41401 0.269003 -0.431885 0.00783352 0.889303 0.432673 -0.147894
1305031936.031927 1.40572 0.262709 -0.440616 -0.000383679 0.892343 0.424791 -0.152565
1305031936.063602 1.39637 0.260119 -0.443868 -0.0069539 0.895244 0.416655 -0.157759
1305031936.099066 1.38267 0.25645 -0.446786 -0.0119157 0.897573 0.4093 -0.163385
1305031936.130808 1.36918 0.251375 -0.451458 -0.0163872 0.899289 0.402543 -0.170204
1305031936.163443 1.35967 0.246292 -0.45823 -0.0176832 0.900044 0.397194 -0.178449
1305031936.200045 1.34803 0.243354 -0.461474 -0.0181136 0.900417 0.393196 -0.185248
1305031936.231637 1.34051 0.242888 -0.466444 -0.0179381 0.90146 0.386712 -0.193655
1305031936.262854 1.33134 0.239141 -0.469742 -0.0182094 0.902685 0.379842 -0.201367
1305031936.299656 1.32565 0.239786 -0.470598 -0.0173712 0.903803 0.372235 -0.210428
1305031936.331649 1.31728 0.239064 -0.471965 -0.0131297 0.905214 0.36379 -0.219253
1305031936.363578 1.30927 0.238088 -0.472834 -0.00649895 0.906649 0.35512 -0.227673
1305031936.399525 1.30022 0.240023 -0.470213 -0.00122544 0.907721 0.346973 -0.235903
1305031936.431784 1.29156 0.241623 -0.468509 0.0025578 0.908368 0.339805 -0.243707
1305031936.463134 1.28228 0.244217 -0.465549 0.00465031 0.909185 0.333161 -0.249728
1305031936.499445 1.274 0.246159 -0.464668 0.00731343 0.910066 0.32622 -0.25555
1305031936.531202 1.26455 0.247782 -0.463792 0.00923181 0.91111 0.319816 -0.259828
1305031936.563251 1.25335 0.248722 -0.464756 0.0105667 0.912229 0.314975 -0.261756
1305031936.599685 1.24196 0.248899 -0.465375 0.0143105 0.913307 0.311027 -0.26254
1305031936.631518 1.23197 0.254204 -0.463571 0.0180275 0.914667 0.306554 -0.262838
1305031936.663832 1.22123 0.259688 -0.461028 0.0179459 0.915301 0.304562 -0.262951
1305031936.699970 1.21118 0.267009 -0.458576 0.0153932 0.915432 0.302258 -0.265305
1305031936.731597 1.20032 0.271729 -0.457673 0.0162195 0.915538 0.29889 -0.268687
1305031936.763730 1.18762 0.280581 -0.453731 0.0183343 0.915572 0.298904 -0.268418
1305031936.799809 1.17397 0.289095 -0.449825 0.0200424 0.914955 0.301388 -0.267619
1305031936.831892 1.16119 0.299001 -0.44633 0.0258359 0.914209 0.303785 -0.266963
1305031936.863697 1.14697 0.308837 -0.443685 0.0320351 0.912553 0.310635 -0.264058
1305031936.900115 1.13085 0.317948 -0.442113 0.0375024 0.910157 0.32107 -0.259079
1305031936.931480 1.1176 0.329018 -0.44089 0.0424577 0.907532 0.332596 -0.252908
1305031936.963897 1.10278 0.341624 -0.436564 0.0448296 0.904272 0.346254 -0.245747
1305031937.000148 1.08728 0.352373 -0.433807 0.0492409 0.900284 0.359735 -0.240114
1305031937.032120 1.07556 0.365068 -0.431105 0.0542288 0.897251 0.370196 -0.234423
1305031937.060179 1.0619 0.37366 -0.43266 0.0614612 0.89334 0.383708 -0.225686
1305031937.097948 1.05075 0.383676 -0.433356 0.0684013 0.889666 0.396404 -0.216055
1305031937.131381 1.03819 0.393118 -0.431402 0.0718326 0.886577 0.407559 -0.206681
1305031937.162199 1.02649 0.403732 -0.427041 0.0778228 0.882257 0.418544 -0.200966
1305031937.199678 1.0155 0.41546 -0.423094 0.0837693 0.877537 0.429436 -0.196205
1305031937.231385 1.00808 0.429861 -0.416285 0.090813 0.872904 0.439762 -0.19079
1305031937.263361 1.00127 0.441914 -0.412031 0.098039 0.866702 0.452809 -0.184877
1305031937.299172 0.992728 0.454964 -0.405458 0.104825 0.860642 0.464641 -0.180046
1305031937.331472 0.987055 0.46871 -0.399487 0.112373 0.854464 0.475666 -0.176086
1305031937.367035 0.980556 0.478843 -0.395633 0.116121 0.84792 0.487627 -0.172535
1305031937.399644 0.975111 0.489893 -0.389974 0.117988 0.84181 0.49758 -0.172769
1305031937.431305 0.966382 0.497965 -0.387009 0.121189 0.835165 0.508119 -0.172125
1305031937.467256 0.960851 0.507577 -0.383051 0.124592 0.828675 0.518614 -0.169744
1305031937.499237 0.958257 0.517843 -0.379566 0.126022 0.821628 0.530452 -0.166333
1305031937.531606 0.957257 0.530993 -0.371103 0.127498 0.813895 0.54281 -0.163329
1305031937.566400 0.954972 0.543286 -0.361525 0.130508 0.805567 0.555017 -0.161201
1305031937.599586 0.952117 0.55468 -0.353753 0.133784 0.796865 0.567304 -0.158978
1305031937.627766 0.948098 0.56562 -0.343122 0.135027 0.789141 0.578234 -0.157065
1305031937.667658 0.945621 0.57738 -0.334424 0.135953 0.780747 0.588967 -0.158332
1305031937.699645 0.940883 0.587099 -0.325502 0.136531 0.772393 0.599459 -0.15943
1305031937.731732 0.934875 0.595551 -0.318862 0.137624 0.765132 0.6077 -0.162276
1305031937.767791 0.927854 0.603583 -0.313685 0.138795 0.757718 0.616251 -0.163811
1305031937.799732 0.920574 0.609673 -0.309438 0.137514 0.751945 0.623212 -0.165152
1305031937.831889 0.912045 0.617078 -0.305114 0.136402 0.746746 0.628829 -0.168345
1305031937.867758 0.903638 0.624429 -0.302643 0.136632 0.739949 0.635585 -0.172741
1305031937.899933 0.895582 0.632539 -0.296459 0.136557 0.734156 0.64069 -0.178558
1305031937.931831 0.887172 0.64098 -0.2932 0.136256 0.727342 0.646242 -0.186489
1305031937.968127 0.880065 0.649079 -0.287533 0.13531 0.71985 0.651824 -0.196554
1305031938.000042 0.872754 0.657082 -0.280591 0.134737 0.713515 0.655364 -0.207943
1305031938.031836 0.861544 0.663585 -0.275125 0.134159 0.706464 0.659917 -0.217761
1305031938.067761 0.849323 0.668143 -0.269467 0.134853 0.699935 0.662923 -0.228996
1305031938.100010 0.838246 0.673589 -0.261753 0.135313 0.694793 0.664412 -0.239813
1305031938.131856 0.82866 0.679029 -0.257678 0.134714 0.687188 0.668736 -0.249835
1305031938.168307 0.818807 0.683659 -0.250539 0.136751 0.678907 0.671958 -0.262406
1305031938.199974 0.808802 0.687505 -0.244096 0.142153 0.669264 0.675403 -0.275153
1305031938.231649 0.801705 0.692044 -0.235544 0.145069 0.660498 0.678999 -0.285759
1305031938.267768 0.795136 0.694867 -0.229476 0.14601 0.652362 0.68127 -0.298289
1305031938.300089 0.787444 0.696296 -0.219094 0.144993 0.646666 0.681351 -0.310741
1305031938.331736 0.782573 0.698309 -0.211248 0.141172 0.642419 0.680328 -0.323299
1305031938.367715 0.776437 0.699503 -0.207291 0.137568 0.637571 0.679955 -0.335022
1305031938.400257 0.769363 0.699518 -0.205935 0.135286 0.632416 0.679425 -0.346596
1305031938.431934 0.763717 0.698098 -0.20519 0.13 0.628146 0.678418 -0.358164
1305031938.468046 0.754877 0.69406 -0.203344 0.123927 0.625693 0.676121 -0.368795
1305031938.496114 0.749985 0.691078 -0.203375 0.118825 0.623331 0.673538 -0.379058
1305031938.535972 0.74544 0.687075 -0.203722 0.111591 0.621814 0.671624 -0.387059
1305031938.563904 0.737944 0.680703 -0.203971 0.102996 0.622597 0.66733 -0.395519
1305031938.598200 0.728745 0.674593 -0.206267 0.0938516 0.623587 0.663856 -0.402028
1305031938.637455 0.721785 0.667013 -0.209496 0.0841458 0.624588 0.65984 -0.409171
1305031938.667115 0.715508 0.658039 -0.211872 0.0744646 0.627815 0.652478 -0.417822
1305031938.699613 0.708974 0.648622 -0.21549 0.0637258 0.631646 0.646242 -0.423478
1305031938.735353 0.705102 0.639442 -0.218456 0.0508161 0.636953 0.638304 -0.429273
1305031938.767438 0.700538 0.62909 -0.226127 0.0372049 0.641482 0.63027 -0.435748
1305031938.799553 0.698443 0.619457 -0.231475 0.0224627 0.646345 0.622018 -0.441393
1305031938.835081 0.698384 0.610111 -0.238257 0.00656523 0.651289 0.612477 -0.447941
1305031938.867115 0.698492 0.600238 -0.244959 -0.00933894 0.656139 0.602593 -0.454176
1305031938.899948 0.699308 0.590284 -0.251741 -0.0259459 0.660777 0.592151 -0.460497
1305031938.935595 0.6971 0.580149 -0.252451 -0.038414 0.66584 0.579876 -0.467894
1305031938.967685 0.69328 0.569242 -0.253234 -0.0468346 0.670856 0.567165 -0.475481
1305031939.000242 0.688472 0.555826 -0.25838 -0.0531427 0.675265 0.556007 -0.481715
1305031939.035825 0.687929 0.545605 -0.264244 -0.0609624 0.679208 0.546389 -0.48623
1305031939.067934 0.687927 0.535924 -0.269111 -0.0686976 0.683185 0.536935 -0.490143
1305031939.099862 0.68838 0.526203 -0.274967 -0.0748392 0.687543 0.526918 -0.494006
1305031939.135566 0.688577 0.51564 -0.28116 -0.0812042 0.691868 0.516678 -0.497763
1305031939.167694 0.689334 0.506196 -0.283098 -0.0895181 0.697686 0.505318 -0.499874
1305031939.200214 0.689877 0.494151 -0.290116 0.097607 -0.703482 -0.494231 0.50132
1305031939.235712 0.691551 0.48485 -0.294361 0.104362 -0.709977 -0.481306 0.503375
1305031939.267640 0.692189 0.474234 -0.299337 0.111013 -0.716514 -0.468162 0.505082
1305031939.300206 0.694209 0.466463 -0.303231 0.11969 -0.722347 -0.455646 0.506238
1305031939.335053 0.694878 0.45626 -0.306795 0.129571 -0.728348 -0.44226 0.507077
1305031939.367490 0.696595 0.448038 -0.30996 0.13907 -0.735152 -0.425541 0.509044
1305031939.399885 0.698864 0.438072 -0.315123 0.151991 -0.742216 -0.408238 0.50927
1305031939.435410 0.701098 0.427878 -0.320669 0.160643 -0.748403 -0.393254 0.509351
1305031939.467647 0.702265 0.41826 -0.323828 0.167277 -0.753714 -0.381856 0.508054
1305031939.499844 0.703344 0.408399 -0.326809 0.171021 -0.758635 -0.372524 0.50641
1305031939.535364 0.705237 0.399745 -0.329033 0.173449 -0.763271 -0.363805 0.504954
1305031939.567564 0.706311 0.389997 -0.329918 0.177835 -0.765841 -0.35672 0.504592
1305031939.600160 0.707563 0.379926 -0.330265 0.181447 -0.767783 -0.349655 0.5053
1305031939.635762 0.709571 0.372012 -0.32831 0.184037 -0.76934 -0.342905 0.506619
1305031939.667415 0.710965 0.364026 -0.326835 0.18414 -0.770503 -0.336998 0.508773
1305031939.700124 0.713059 0.35917 -0.325287 0.183591 -0.770696 -0.332357 0.511724
1305031939.735464 0.712591 0.352413 -0.321337 0.182309 -0.769726 -0.329986 0.515165
1305031939.767882 0.711728 0.344983 -0.318301 0.179859 -0.768134 -0.326825 0.52039
1305031939.803685 0.710107 0.338661 -0.311552 0.178954 -0.765768 -0.323956 0.525954
1305031939.835759 0.707376 0.332206 -0.306138 0.178448 -0.761128 -0.322269 0.533838
1305031939.863918 0.705129 0.327136 -0.300743 0.177405 -0.755906 -0.319836 0.54299
1305031939.903642 0.702516 0.322248 -0.294336 0.175986 -0.74995 -0.317361 0.55307
1305031939.936002 0.699438 0.320481 -0.284959 0.175452 -0.743031 -0.315837 0.563355
1305031939.967674 0.696301 0.322522 -0.274904 0.172732 -0.734175 -0.317076 0.57499
1305031940.005613 0.690772 0.322044 -0.269093 0.170911 -0.723158 -0.322253 0.586502
1305031940.031897 0.68539 0.323461 -0.262904 0.167297 -0.711976 -0.32525 0.599428
1305031940.067499 0.679606 0.324494 -0.255805 0.166041 -0.700251 -0.328434 0.611727
1305031940.104322 0.67357 0.322557 -0.252903 0.169061 -0.688627 -0.331035 0.622597
1305031940.135843 0.666388 0.322071 -0.250523 0.175518 -0.676925 -0.331323 0.633397
1305031940.168748 0.659536 0.321816 -0.248831 0.179707 -0.666913 -0.330349 0.643274
1305031940.200119 0.65418 0.32643 -0.247099 0.182091 -0.65849 -0.326396 0.653222
1305031940.235303 0.648056 0.331614 -0.244553 0.181761 -0.651638 -0.322665 0.66198
1305031940.267548 0.642084 0.338315 -0.242894 0.180384 -0.644096 -0.318651 0.671613
1305031940.300057 0.635002 0.343069 -0.240608 0.179146 -0.635022 -0.31474 0.682344
1305031940.335962 0.6272 0.348058 -0.239388 0.178077 -0.622808 -0.309076 0.696326
1305031940.367240 0.621754 0.357405 -0.236944 0.177063 -0.607979 -0.304495 0.711543
1305031940.403701 0.616585 0.365711 -0.232628 0.17161 -0.592139 -0.300145 0.727897
1305031940.435753 0.611339 0.374756 -0.229451 0.166154 -0.575966 -0.294036 0.744446
1305031940.467066 0.606726 0.386478 -0.225032 0.160414 -0.560326 -0.286376 0.760454
1305031940.503814 0.601172 0.397773 -0.220907 0.155707 -0.54537 -0.281433 0.77403
1305031940.535239 0.601172 0.397773 -0.220907 0.155707 -0.54537 -0.281433 0.77403
1305031940.566964 0.597177 0.411166 -0.217616 0.152824 -0.53489 -0.277187 0.783393
1305031940.603395 0.592095 0.417893 -0.214653 0.150254 -0.525308 -0.275071 0.791082
1305031940.635226 0.586588 0.422432 -0.211993 0.151328 -0.515578 -0.273072 0.797942
1305031940.666993 0.582564 0.430606 -0.210016 0.153039 -0.504677 -0.267907 0.806291
1305031940.703234 0.577317 0.431296 -0.207895 0.152415 -0.494617 -0.265331 0.813464
1305031940.735222 0.569658 0.434084 -0.205507 0.15344 -0.484223 -0.264354 0.819818
1305031940.766929 0.563765 0.437925 -0.203209 0.152421 -0.474826 -0.261526 0.826385
1305031940.803100 0.557017 0.43971 -0.199584 0.150426 -0.465773 -0.260597 0.832176
1305031940.835097 0.549804 0.438771 -0.193389 0.147085 -0.457434 -0.259818 0.837624
1305031940.867019 0.542427 0.443621 -0.18653 0.145239 -0.449108 -0.261533 0.841907
1305031940.903314 0.533824 0.449487 -0.180601 0.142183 -0.43938 -0.265891 0.846186
1305031940.935305 0.524779 0.45525 -0.173885 0.139131 -0.429699 -0.270144 0.850308
1305031940.967150 0.5145 0.459499 -0.166797 0.135765 -0.419955 -0.274547 0.854301
1305031941.003186 0.503876 0.465026 -0.158115 0.133078 -0.410539 -0.278034 0.858164
1305031941.035260 0.495228 0.469551 -0.147831 0.13166 -0.403291 -0.281277 0.860759
1305031941.071076 0.484326 0.474542 -0.138878 0.130229 -0.396766 -0.283971 0.863121
1305031941.103456 0.470006 0.477469 -0.132644 0.127705 -0.390226 -0.286918 0.865502
1305031941.135554 0.457608 0.481389 -0.124715 0.125384 -0.384092 -0.289122 0.867848
1305031941.171171 0.445246 0.482406 -0.11506 0.122346 -0.377599 -0.288956 0.87118
1305031941.203532 0.432092 0.480889 -0.106253 0.119385 -0.371344 -0.286743 0.875002
1305031941.235196 0.420236 0.484524 -0.0965209 0.119745 -0.364311 -0.282791 0.879186
1305031941.271139 0.406294 0.486221 -0.088997 0.118688 -0.356084 -0.277804 0.884275
1305031941.303377 0.393498 0.483596 -0.080271 0.117324 -0.348246 -0.272899 0.889093
1305031941.335303 0.380218 0.482214 -0.0726075 0.117137 -0.338808 -0.266221 0.894771
1305031941.371617 0.366336 0.482774 -0.064376 0.115424 -0.329885 -0.256861 0.901041
1305031941.403877 0.352194 0.483722 -0.0579053 0.109556 -0.323144 -0.246005 0.907225
1305031941.435687 0.338856 0.483761 -0.0509009 0.101266 -0.318051 -0.234722 0.912959
1305031941.469619 0.325454 0.479044 -0.0448838 0.0915431 -0.31468 -0.219056 0.919027
1305031941.501518 0.312831 0.476367 -0.039119 0.0829654 -0.312598 -0.20374 0.924061
1305031941.534653 0.302309 0.471631 -0.0317403 0.0764605 -0.308272 -0.195286 0.927893
1305031941.570302 0.294153 0.465873 -0.0225833 0.0740818 -0.300606 -0.189823 0.931727
1305031941.603072 0.284825 0.466571 -0.0155374 0.0736209 -0.288332 -0.183302 0.936934
1305031941.635675 0.275055 0.46954 -0.00931189 0.071525 -0.274559 -0.178471 0.942152
1305031941.671562 0.263171 0.471684 -0.0043499 0.0666948 -0.260864 -0.172934 0.947415
1305031941.703773 0.249557 0.466926 -0.000734743 0.062585 -0.248944 -0.164499 0.952392
1305031941.735592 0.236975 0.46715 0.00391245 0.0638409 -0.238949 -0.15883 0.955825
1305031941.767812 0.223508 0.471162 0.00867424 0.0651091 -0.228834 -0.157289 0.958465
1305031941.800828 0.208887 0.47236 0.0136485 0.0655665 -0.220131 -0.157485 0.960438
1305031941.832014 0.194031 0.472042 0.0175631 0.0674803 -0.211958 -0.158303 0.962008
1305031941.871824 0.179648 0.476007 0.0211501 0.0712805 -0.205858 -0.158073 0.963096
1305031941.903043 0.163482 0.475118 0.0256367 0.0747987 -0.200717 -0.157453 0.964016
1305031941.935190 0.148155 0.478024 0.0297883 0.0823514 -0.196428 -0.15524 0.964642
1305031941.971085 0.133891 0.482733 0.0328169 0.0890435 -0.192354 -0.152663 0.96528
1305031942.003159 0.118143 0.484618 0.0362936 0.0957169 -0.188644 -0.148641 0.966001
1305031942.035444 0.10259 0.489703 0.0392623 0.101785 -0.186154 -0.146179 0.966239
1305031942.071092 0.0869189 0.495533 0.0411947 0.107883 -0.186844 -0.144212 0.96574
1305031942.099769 0.075359 0.507793 0.0471502 0.11057 -0.187791 -0.145746 0.965022
1305031942.135205 0.0609122 0.511987 0.0518064 0.102942 -0.185172 -0.149333 0.965823
1305031942.170762 0.0448823 0.513966 0.0564782 0.0997154 -0.181371 -0.153147 0.966285
1305031942.203125 0.0347039 0.519031 0.0622463 0.0988491 -0.178375 -0.157133 0.966292
1305031942.239026 0.0223423 0.524303 0.0679371 0.093938 -0.174132 -0.159874 0.967106
1305031942.271143 0.0116271 0.529956 0.0735076 0.0921333 -0.168927 -0.161467 0.967938
1305031942.303198 0.00322893 0.539873 0.079898 0.0862554 -0.164447 -0.161768 0.9692
1305031942.335609 -0.00683628 0.541866 0.0864955 0.0767735 -0.161625 -0.161549 0.970508
1305031942.370779 -0.0159324 0.550454 0.0923109 0.0703934 -0.159633 -0.159644 0.971636
1305031942.402950 -0.0260832 0.553579 0.0978088 0.0604569 -0.158752 -0.159189 0.972523
1305031942.439272 -0.0364962 0.551868 0.10359 0.0536774 -0.159529 -0.162552 0.972238
1305031942.472314 -0.0455308 0.549896 0.110621 0.0535544 -0.161071 -0.165191 0.971545
1305031942.503687 -0.0530434 0.554871 0.115467 0.0564095 -0.160602 -0.164937 0.971504
1305031942.539471 -0.0614184 0.555506 0.12057 0.0548673 -0.160865 -0.163452 0.9718
1305031942.571873 -0.0698763 0.553853 0.126281 0.0557784 -0.163445 -0.16366 0.971283
1305031942.601458 -0.076852 0.556252 0.13176 0.0576448 -0.167468 -0.165055 0.970252
1305031942.639952 -0.0829446 0.556957 0.138199 0.0582199 -0.171289 -0.16637 0.969325
1305031942.667679 -0.0903338 0.558799 0.14372 0.0577624 -0.174435 -0.169337 0.968277
1305031942.704026 -0.09701 0.560037 0.150241 0.053931 -0.178541 -0.174022 0.966918
1305031942.739823 -0.103078 0.557932 0.159114 0.0503893 -0.181627 -0.180606 0.965326
1305031942.771728 -0.10942 0.556984 0.167212 0.0470137 -0.182458 -0.184183 0.964663
1305031942.801585 -0.11567 0.551448 0.174964 0.0438522 -0.18232 -0.186642 0.964366
1305031942.841069 -0.122238 0.547817 0.181609 0.0429653 -0.181094 -0.189292 0.96412
1305031942.867914 -0.130763 0.544569 0.186752 0.0397321 -0.181346 -0.191143 0.963846
1305031942.903971 -0.137008 0.541708 0.193695 0.0376767 -0.184353 -0.193273 0.962933
1305031942.936255 -0.142043 0.53903 0.200324 0.0343779 -0.187173 -0.195099 0.962144
1305031942.970947 -0.146227 0.53327 0.208335 0.0327326 -0.189441 -0.19745 0.961277
1305031943.001126 -0.150998 0.528306 0.213697 0.0326949 -0.189141 -0.199756 0.960861
1305031943.039973 -0.156884 0.519677 0.218582 0.0320974 -0.191247 -0.203103 0.959762
1305031943.071764 -0.159437 0.514036 0.224847 0.0337541 -0.195839 -0.206862 0.957975
1305031943.104196 -0.160687 0.509378 0.232328 0.0330906 -0.199976 -0.210244 0.956406
1305031943.139631 -0.164654 0.499484 0.238598 0.0308303 -0.201952 -0.211219 0.955851
1305031943.171931 -0.166663 0.489981 0.245233 0.030143 -0.203528 -0.20963 0.955889
1305031943.201583 -0.168906 0.478441 0.251122 0.0284288 -0.204739 -0.207721 0.956099
1305031943.240026 -0.169192 0.465863 0.257921 0.0281032 -0.205882 -0.206727 0.956079
1305031943.272012 -0.169665 0.452814 0.264065 0.0278751 -0.206703 -0.205633 0.956144
1305031943.303977 -0.172789 0.4381 0.267968 0.0283328 -0.207539 -0.203599 0.956385
1305031943.339953 -0.173708 0.422282 0.272203 0.0323575 -0.210506 -0.202761 0.955787
1305031943.371795 -0.175551 0.404654 0.274785 0.0371667 -0.213074 -0.201247 0.955363
1305031943.404597 -0.175283 0.386873 0.277473 0.0424538 -0.215997 -0.198732 0.955012
1305031943.440230 -0.175792 0.369823 0.279598 0.0480447 -0.218783 -0.19597 0.954684
1305031943.471442 -0.173811 0.353109 0.281429 0.0559466 -0.221434 -0.195052 0.95383
1305031943.509496 -0.171079 0.339263 0.283036 0.0614864 -0.222396 -0.194617 0.953354
1305031943.539543 -0.171554 0.321906 0.283176 0.0658327 -0.222276 -0.192951 0.95343
1305031943.570040 -0.170128 0.304143 0.28249 0.0709564 -0.223233 -0.191563 0.953119
1305031943.607498 -0.166922 0.292303 0.282993 0.0743164 -0.223592 -0.189083 0.953274
1305031943.638034 -0.163287 0.279714 0.282804 0.073589 -0.222859 -0.189216 0.953476
1305031943.671539 -0.161727 0.266164 0.281943 0.0741583 -0.220458 -0.189524 0.953929
1305031943.707262 -0.162388 0.25106 0.27876 0.0805695 -0.218885 -0.188711 0.953932
1305031943.739461 -0.16298 0.234501 0.274106 0.0908539 -0.219156 -0.18907 0.952874
1305031943.771360 -0.162685 0.223366 0.270999 0.0990286 -0.21947 -0.190663 0.951669
1305031943.806840 -0.164641 0.209907 0.266608 0.103904 -0.219911 -0.192498 0.950677
1305031943.837771 -0.166807 0.196959 0.262254 0.107892 -0.220851 -0.194276 0.949653
1305031943.867799 -0.17092 0.183714 0.257286 0.112207 -0.222238 -0.195985 0.948477
1305031943.907228 -0.173984 0.169915 0.251637 0.1208 -0.225545 -0.197708 0.946281
1305031943.935818 -0.178572 0.159881 0.247462 0.127816 -0.228761 -0.197586 0.944612
1305031943.971293 -0.182959 0.146681 0.242086 0.137844 -0.233451 -0.196045 0.942373
1305031944.007774 -0.18253 0.138159 0.239892 0.149364 -0.235213 -0.194742 0.940447
1305031944.040559 -0.182732 0.128192 0.236732 0.156681 -0.232538 -0.190569 0.940776
1305031944.070907 -0.184322 0.118907 0.232032 0.16809 -0.227116 -0.184499 0.941342
1305031944.107412 -0.181931 0.111839 0.22883 0.17921 -0.220883 -0.177551 0.942109
1305031944.139679 -0.18229 0.104794 0.223836 0.187528 -0.215185 -0.168856 0.943407
1305031944.171401 -0.181224 0.100319 0.219474 0.194604 -0.211364 -0.160998 0.944211
1305031944.207026 -0.179813 0.0988035 0.216636 0.201002 -0.208458 -0.154871 0.944541
1305031944.239359 -0.177221 0.0956889 0.213174 0.203745 -0.206765 -0.15006 0.945102
1305031944.270986 -0.173161 0.0922663 0.209941 0.206042 -0.204348 -0.145468 0.945848
1305031944.306965 -0.17044 0.0891759 0.2054 0.207029 -0.199405 -0.139301 0.947614
1305031944.339327 -0.163949 0.0875306 0.202679 0.209323 -0.194018 -0.132877 0.94915
1305031944.370764 -0.15647 0.0897476 0.200995 0.211788 -0.187232 -0.125093 0.951021
1305031944.406240 -0.147635 0.0913604 0.199591 0.212151 -0.181406 -0.115489 0.953282
1305031944.438740 -0.140001 0.0981637 0.199362 0.211931 -0.17289 -0.105632 0.956052
1305031944.471315 -0.132207 0.097382 0.196168 0.206473 -0.159732 -0.092093 0.960923
1305031944.506966 -0.123957 0.0957236 0.19073 0.203836 -0.145089 -0.0797793 0.964902
1305031944.539090 -0.120779 0.104332 0.186375 0.204129 -0.12927 -0.0702082 0.967828
1305031944.571543 -0.11878 0.111347 0.182222 0.201141 -0.11532 -0.0608918 0.970843
1305031944.607255 -0.108705 0.117001 0.180531 0.197164 -0.105264 -0.0550693 0.973146
1305031944.639988 -0.101976 0.122419 0.178076 0.191144 -0.0946958 -0.0508962 0.975657
1305031944.671797 -0.0949915 0.127567 0.175177 0.18448 -0.0835279 -0.0485991 0.978074
1305031944.707795 -0.0874871 0.134993 0.174108 0.176179 -0.0695594 -0.0467937 0.980782
1305031944.739963 -0.0794259 0.131715 0.171071 0.166274 -0.0550467 -0.0401153 0.983724
1305031944.780883 -0.0720055 0.131673 0.168181 0.162877 -0.0403902 -0.0342826 0.985223
1305031944.807934 -0.0662583 0.135546 0.166612 0.159824 -0.0268977 -0.0316395 0.986272
1305031944.839961 -0.0596521 0.141019 0.165727 0.155583 -0.0175164 -0.0288963 0.987245
1305031944.875727 -0.0521246 0.142525 0.165483 0.149163 -0.011028 -0.0244024 0.98845
1305031944.903822 -0.044475 0.144506 0.165032 0.145442 -0.0054787 -0.020665 0.989136
1305031944.939709 -0.036986 0.149987 0.165725 0.142572 0.00165308 -0.0189497 0.989602
1305031944.979551 -0.0258725 0.144949 0.163436 0.1378 0.00835044 -0.015861 0.990298
1305031945.007456 -0.0178122 0.130041 0.158639 0.139511 0.0137837 -0.00687463 0.990101
1305031945.039953 -0.0104164 0.120006 0.154136 0.154291 0.0168665 0.00190634 0.98788
1305031945.079450 -0.00607608 0.119986 0.151305 0.174283 0.0186308 0.00855253 0.984482
1305031945.107554 0.0010482 0.112151 0.146354 0.188999 0.0155489 0.0158883 0.981726
1305031945.135938 0.00622696 0.101538 0.139431 0.208801 0.0132405 0.0169441 0.977722
1305031945.179287 0.0116333 0.097798 0.134858 0.227387 0.0109961 0.0169821 0.973594
1305031945.207131 0.0164134 0.0949272 0.130413 0.245063 0.00822931 0.0157649 0.969344
1305031945.238880 0.0216618 0.0987174 0.129754 0.259828 0.0108977 0.00838009 0.965557
1305031945.276136 0.0286165 0.0945972 0.127159 0.265742 0.0157123 0.0030724 0.963911
1305031945.306364 0.0352556 0.0897695 0.123474 0.270671 0.0179051 0.00266094 0.962502
1305031945.338954 0.0401691 0.0798988 0.116319 0.278897 0.0164561 0.00413086 0.960171
1305031945.374695 0.0461913 0.0784023 0.113596 0.288482 0.011973 0.0055596 0.957394
1305031945.406595 0.0537373 0.0747 0.110241 0.295231 0.0055273 0.00707576 0.955384
1305031945.435557 0.0598423 0.0663542 0.103225 0.305503 -0.000745087 0.00500789 0.952178
1305031945.477504 0.0664298 0.0611503 0.0983473 0.317206 -0.00438874 0.000677382 0.948346
1305031945.506448 0.0765399 0.0612001 0.0976972 0.323728 -0.0057768 -0.00487587 0.94612
1305031945.538432 0.0865293 0.0562515 0.0933337 0.328472 -0.00441804 -0.00951507 0.944455
1305031945.575422 0.0995847 0.0575352 0.0935721 0.337353 0.00150173 -0.0131839 0.941285
1305031945.606045 0.108554 0.0677818 0.102685 0.342334 0.00919016 -0.0110485 0.939468
1305031945.638328 0.120966 0.0685634 0.105011 0.3412 0.0124522 -0.00713888 0.939881
1305031945.677317 0.131452 0.0722524 0.110009 0.339697 0.0148216 -0.00629797 0.940397
1305031945.706227 0.142452 0.0780056 0.11569 0.335175 0.0169176 -0.00607846 0.941985
1305031945.738707 0.155171 0.0810897 0.118561 0.330003 0.0196658 -0.00642382 0.943753
1305031945.772817 0.16656 0.0848252 0.123568 0.323711 0.0251488 -0.00630944 0.945801
1305031945.806249 0.176418 0.0896455 0.127415 0.31258 0.031373 -0.00441112 0.949363
1305031945.838302 0.18717 0.0939434 0.130097 0.300639 0.0360557 -0.00287824 0.953052
1305031945.877342 0.196718 0.105621 0.136267 0.288645 0.0413444 -0.00164003 0.956542
1305031945.909465 0.209086 0.120342 0.142873 0.272217 0.045549 0.00254112 0.961154
1305031945.935652 0.221202 0.130784 0.146818 0.2564 0.0512179 0.0082464 0.965178
1305031945.977263 0.233475 0.141509 0.15084 0.241323 0.0593415 0.0133059 0.968537
1305031946.005994 0.24546 0.152039 0.153794 0.224594 0.0695784 0.0202213 0.971755
1305031946.043263 0.256193 0.158926 0.153796 0.207178 0.0804538 0.0278138 0.974593
1305031946.075402 0.26693 0.166143 0.15465 0.194872 0.0881559 0.0351672 0.976226
1305031946.107156 0.275376 0.171365 0.154051 0.184197 0.0963831 0.0428698 0.977212
1305031946.147686 0.283277 0.174789 0.150667 0.174907 0.103838 0.0484761 0.977893
1305031946.175861 0.290221 0.1811 0.147647 0.170086 0.10952 0.0506217 0.978015
1305031946.207053 0.296127 0.189123 0.14568 0.164859 0.11417 0.0537342 0.978212
1305031946.247192 0.301118 0.195483 0.141052 0.15728 0.117837 0.0583606 0.97876
1305031946.276972 0.30446 0.20218 0.136068 0.149726 0.11805 0.0608947 0.979764
1305031946.306937 0.307014 0.211369 0.12993 0.142189 0.114445 0.0589977 0.98143
1305031946.347086 0.307071 0.221995 0.12299 0.134343 0.10968 0.0558806 0.98326
1305031946.378747 0.307052 0.232609 0.114105 0.126751 0.105794 0.053542 0.984822
1305031946.406531 0.305883 0.242133 0.103819 0.118826 0.103383 0.0510823 0.986196
1305031946.447353 0.303665 0.252775 0.0918114 0.113717 0.100575 0.0501395 0.987137
1305031946.473076 0.303351 0.266147 0.078756 0.111255 0.097004 0.0503539 0.987764
1305031946.506597 0.303002 0.279542 0.0656233 0.108558 0.093501 0.0503738 0.9884
1305031946.546018 0.301236 0.290826 0.0517834 0.105504 0.0916918 0.0510399 0.988866
1305031946.577280 0.300304 0.303409 0.0384591 0.104797 0.0911879 0.052141 0.988931
1305031946.606485 0.299312 0.315908 0.0249835 0.103521 0.0926103 0.0544493 0.988808
1305031946.645981 0.300783 0.327214 0.00968074 0.102164 0.0961203 0.0566793 0.988489
1305031946.678050 0.301249 0.339206 -0.00509025 0.101763 0.100781 0.0578055 0.988001
1305031946.706532 0.301262 0.350348 -0.0197758 0.101346 0.106121 0.0573705 0.98751
1305031946.743717 0.299572 0.362622 -0.0326023 0.101038 0.110819 0.0563993 0.987081
1305031946.774660 0.297647 0.374206 -0.0451516 0.0981435 0.113439 0.0557827 0.987111
1305031946.806659 0.298352 0.384218 -0.0597128 0.0933371 0.116442 0.0557543 0.987229
1305031946.842679 0.29776 0.392522 -0.0733894 0.0895817 0.119272 0.0575947 0.987133
1305031946.874721 0.296476 0.399098 -0.0874058 0.086883 0.120865 0.0576821 0.987176
1305031946.906633 0.294055 0.407523 -0.101292 0.0874083 0.1209 0.0581659 0.987097
1305031946.942686 0.292976 0.419085 -0.114026 0.0885967 0.117396 0.0583723 0.987401
1305031946.974825 0.29419 0.430789 -0.126074 0.0868502 0.114055 0.0577827 0.987983
1305031947.006833 0.294676 0.438747 -0.137172 0.0822189 0.111788 0.0573742 0.988662
1305031947.042914 0.298306 0.445743 -0.148912 0.0789908 0.107165 0.0562052 0.989503
1305031947.074589 0.303526 0.453642 -0.159338 0.0775282 0.104967 0.0552723 0.989907
1305031947.106663 0.30854 0.458071 -0.169766 0.0770091 0.105747 0.0532898 0.989973
1305031947.142937 0.314302 0.469316 -0.177119 0.0801316 0.108297 0.0491663 0.989663
1305031947.174651 0.320791 0.477072 -0.183498 0.079313 0.111955 0.0508422 0.989237
1305031947.210803 0.330411 0.481345 -0.189999 0.0779013 0.112467 0.0528977 0.989184
1305031947.242625 0.339188 0.487205 -0.194288 0.0782688 0.112679 0.0524308 0.989155
1305031947.274786 0.349132 0.494725 -0.197434 0.0775004 0.111196 0.0478254 0.989617
1305031947.309122 0.359289 0.505145 -0.198432 0.0740886 0.10846 0.0431063 0.990398
1305031947.339718 0.371972 0.50679 -0.200334 0.0657037 0.105578 0.0405767 0.991408
1305031947.373087 0.386413 0.506256 -0.202133 0.0599832 0.100999 0.0327436 0.992537
1305031947.407848 0.39917 0.50782 -0.202177 0.0580036 0.0967869 0.0242014 0.993319
1305031947.442996 0.415704 0.508924 -0.203616 0.056443 0.0903608 0.0203344 0.9941
1305031947.475248 0.430814 0.504152 -0.20521 0.0574698 0.083452 0.0176495 0.994697
1305031947.511457 0.447396 0.506504 -0.207452 0.0639085 0.0751921 0.0100655 0.995068
1305031947.543322 0.463973 0.511567 -0.208308 0.0700517 0.0649242 0.00205978 0.995426
1305031947.572475 0.479751 0.515041 -0.209525 0.0723202 0.0542813 -0.00358833 0.995897
1305031947.611625 0.496331 0.517786 -0.212217 0.0737616 0.041926 -0.0157179 0.99627
1305031947.643731 0.516414 0.5169 -0.215128 0.0753266 0.0308711 -0.0289806 0.99626
1305031947.675360 0.533853 0.515812 -0.218028 0.0790061 0.0207297 -0.0385602 0.995912
1305031947.711025 0.551427 0.516196 -0.221271 0.0850404 0.00831863 -0.0505099 0.995062
1305031947.743304 0.56932 0.520511 -0.224301 0.0934575 -0.00303059 -0.0655546 0.993458
1305031947.775461 0.587476 0.519909 -0.227265 0.100635 -0.0138377 -0.0792862 0.991663
1305031947.811424 0.609124 0.529105 -0.227285 0.110527 -0.0222877 -0.0918774 0.989366
1305031947.841415 0.625138 0.529646 -0.229886 0.112349 -0.0274323 -0.0994959 0.988294
1305031947.875442 0.641024 0.533322 -0.231527 0.118786 -0.034586 -0.110853 0.986106
1305031947.911295 0.657314 0.539104 -0.230578 0.122341 -0.0408676 -0.12139 0.984188
1305031947.943516 0.671265 0.537978 -0.231601 0.122952 -0.0481803 -0.13082 0.982572
1305031947.975273 0.686825 0.542704 -0.229837 0.124358 -0.0553933 -0.139276 0.980851
1305031948.011498 0.700907 0.543449 -0.229233 0.12153 -0.0607876 -0.14557 0.979972
1305031948.043239 0.712957 0.538934 -0.229283 0.119305 -0.0659245 -0.14974 0.979285
1305031948.075218 0.72795 0.538113 -0.227982 0.121887 -0.0697662 -0.15218 0.978324
1305031948.111315 0.742711 0.536969 -0.226871 0.123916 -0.0723881 -0.154348 0.977538
1305031948.143226 0.756063 0.537793 -0.224692 0.125828 -0.077079 -0.15613 0.976652
1305031948.175007 0.768029 0.533719 -0.222988 0.125794 -0.0832724 -0.159221 0.975649
1305031948.211235 0.782402 0.530921 -0.219023 0.128011 -0.090577 -0.165501 0.973662
1305031948.243210 0.797285 0.528464 -0.213257 0.129453 -0.0977587 -0.172362 0.971584
1305031948.275446 0.810187 0.52436 -0.20723 0.128631 -0.105089 -0.176385 0.970205
1305031948.311425 0.825879 0.520254 -0.200004 0.1285 -0.113724 -0.178701 0.968824
1305031948.343521 0.845583 0.516089 -0.190277 0.127939 -0.119207 -0.17954 0.968084
1305031948.375447 0.866094 0.508477 -0.181341 0.124603 -0.119982 -0.180295 0.968283
1305031948.411285 0.88487 0.500233 -0.172446 0.122838 -0.119707 -0.181398 0.968337
1305031948.443647 0.90505 0.497638 -0.160983 0.121359 -0.118257 -0.182749 0.968447
1305031948.480437 0.921323 0.48629 -0.151258 0.113783 -0.116042 -0.181953 0.969784
1305031948.514284 0.937784 0.476827 -0.14165 0.108777 -0.115519 -0.181938 0.970423
1305031948.542869 0.95641 0.466974 -0.131457 0.104275 -0.114887 -0.183701 0.97066
1305031948.580687 0.972906 0.454816 -0.12296 0.099571 -0.111848 -0.184704 0.971319
1305031948.611060 0.989941 0.445141 -0.113769 0.0979922 -0.108388 -0.187705 0.971296
1305031948.644895 1.0059 0.435782 -0.105275 0.094776 -0.10387 -0.19176 0.971317
1305031948.681662 1.02116 0.425052 -0.0975894 0.0922259 -0.100216 -0.195759 0.971149
1305031948.714453 1.0387 0.4183 -0.0888299 0.0914676 -0.0960333 -0.201633 0.970441
1305031948.746432 1.05476 0.409439 -0.0806242 0.0878143 -0.0900696 -0.20466 0.970717
1305031948.780858 1.06959 0.402695 -0.0722115 0.0851055 -0.0864478 -0.203426 0.971546
1305031948.812389 1.08622 0.396569 -0.062962 0.0808314 -0.0829613 -0.201409 0.972635
1305031948.841687 1.10137 0.39005 -0.0538732 0.0750139 -0.0788221 -0.198049 0.974134
1305031948.880529 1.11886 0.387288 -0.0440301 0.067871 -0.0759903 -0.194364 0.975624
1305031948.915493 1.13544 0.381614 -0.0338306 0.0556143 -0.0726204 -0.189648 0.977582
1305031948.943231 1.15027 0.376098 -0.0234726 0.0447286 -0.0714316 -0.184748 0.979166
1305031948.979038 1.1651 0.375336 -0.0119981 0.0331833 -0.071495 -0.180805 0.980355
1305031949.014896 1.18053 0.372482 0.000223749 0.0159807 -0.0733346 -0.180717 0.980667
1305031949.044596 1.19472 0.369594 0.0120289 7.99347e-05 -0.0736584 -0.182005 0.980535
1305031949.082201 1.20693 0.369331 0.0238536 -0.0155907 -0.070326 -0.181818 0.98069
1305031949.114284 1.21532 0.366628 0.035338 -0.0305792 -0.0691193 -0.181389 0.980503
1305031949.144262 1.22682 0.366257 0.0467945 -0.0457438 -0.0734723 -0.183544 0.979194
1305031949.180779 1.23598 0.363942 0.0572595 -0.058815 -0.0784885 -0.188089 0.977242
1305031949.214247 1.24662 0.362434 0.0672501 -0.069565 -0.0865203 -0.193902 0.974719
1305031949.247701 1.25662 0.360916 0.0765428 -0.0801987 -0.0958338 -0.202466 0.971283
1305031949.281444 1.26655 0.358424 0.0852115 -0.0897416 -0.10548 -0.211469 0.967523
1305031949.311257 1.27667 0.354191 0.0935606 -0.0966347 -0.114886 -0.220484 0.963768
1305031949.341972 1.28758 0.351096 0.10035 -0.099505 -0.123006 -0.22938 0.960392
1305031949.380234 1.29817 0.348345 0.105877 -0.104122 -0.129232 -0.240401 0.956381
1305031949.410764 1.3097 0.34237 0.111436 -0.10884 -0.133596 -0.254 0.95173
1305031949.443117 1.31971 0.332113 0.116563 -0.109558 -0.137861 -0.265989 0.947756
1305031949.479260 1.32933 0.325188 0.11861 -0.107363 -0.143621 -0.274592 0.944693
1305031949.510843 1.33831 0.316923 0.120372 -0.107647 -0.14983 -0.281864 0.94155
1305031949.541920 1.34839 0.305353 0.122177 -0.10722 -0.157833 -0.289103 0.93809
1305031949.580836 1.3565 0.292518 0.122635 -0.102399 -0.167227 -0.295399 0.935034
1305031949.614433 1.3635 0.280483 0.121758 -0.0945739 -0.176882 -0.301798 0.932034
1305031949.646345 1.3685 0.267596 0.120493 -0.0868226 -0.18492 -0.308472 0.929038
1305031949.680760 1.3685 0.267596 0.120493 -0.0868226 -0.18492 -0.308472 0.929038
1305031949.714490 1.37451 0.256237 0.117995 -0.0716368 -0.193679 -0.311554 0.927519
1305031949.749412 1.37787 0.245331 0.114664 -0.0581004 -0.198147 -0.313136 0.926989
1305031949.781235 1.37787 0.245331 0.114664 -0.0581004 -0.198147 -0.313136 0.926989
1305031949.811436 1.37901 0.232391 0.110639 -0.0426319 -0.202991 -0.310153 0.927784
1305031949.845215 1.37985 0.220136 0.106468 -0.0257742 -0.207218 -0.309348 0.927739
1305031949.880626 1.37924 0.207076 0.102114 -0.00975443 -0.211716 -0.306896 0.927845
1305031949.914703 1.37926 0.19408 0.097544 0.00930217 -0.217822 -0.30405 0.927373
1305031949.948731 1.38193 0.182738 0.0935936 0.0300604 -0.222176 -0.30213 0.926527
1305031949.981207 1.38546 0.171705 0.0899861 0.0496221 -0.222171 -0.30057 0.926194
1305031950.011524 1.38708 0.159622 0.0864045 0.0681898 -0.219497 -0.296263 0.927038
1305031950.047520 1.38967 0.147025 0.0827519 0.0869027 -0.216879 -0.288992 0.928383
1305031950.080195 1.3932 0.132892 0.0793474 0.104906 -0.214358 -0.278468 0.930323
1305031950.111190 1.39555 0.119396 0.0757958 0.122047 -0.21197 -0.266698 0.932226
1305031950.147985 1.3959 0.101245 0.0705705 0.141591 -0.211246 -0.254717 0.932977
1305031950.181754 1.39678 0.0840418 0.0645411 0.16894 -0.212881 -0.238437 0.932357
1305031950.211149 1.39812 0.0665867 0.0587543 0.194471 -0.213483 -0.223641 0.930909
1305031950.247238 1.40024 0.0454094 0.0522544 0.221556 -0.212717 -0.213152 0.927486
1305031950.279213 1.4012 0.0270623 0.0456819 0.244693 -0.21078 -0.2059 0.923744
1305031950.307722 1.40199 0.0145687 0.0404733 0.263175 -0.207793 -0.201783 0.920242
1305031950.346992 1.40225 0.00556742 0.0375993 0.28144 -0.20494 -0.197611 0.916374
1305031950.378386 1.40153 -0.0107787 0.0310791 0.298081 -0.204635 -0.1934 0.912069
1305031950.410330 1.39846 -0.0221986 0.0254239 0.314896 -0.204922 -0.190691 0.906909
1305031950.447451 1.39401 -0.0362313 0.0170191 0.328754 -0.207439 -0.190175 0.901512
1305031950.478952 1.39124 -0.0458447 0.0108989 0.341435 -0.211463 -0.189615 0.895964
1305031950.510402 1.38952 -0.0489004 0.00995382 0.352573 -0.21456 -0.188874 0.891057
1305031950.546397 1.39383 -0.0465319 0.0162087 0.360507 -0.217426 -0.187329 0.887507
1305031950.578462 1.40081 -0.0500399 0.0185304 0.362302 -0.218296 -0.185092 0.887032
1305031950.610212 1.40448 -0.0489559 0.0248679 0.361564 -0.217837 -0.180814 0.888327
1305031950.646840 1.41171 -0.0437309 0.0369947 0.359004 -0.216445 -0.176344 0.890601
1305031950.678650 1.41339 -0.0366845 0.0491738 0.352827 -0.215017 -0.173762 0.893917
1305031950.707517 1.41543 -0.0349352 0.0577807 0.343003 -0.215302 -0.173656 0.897684
1305031950.746448 1.41747 -0.0262034 0.0701511 0.331538 -0.215556 -0.176128 0.901442
1305031950.778662 1.42022 -0.0213677 0.080866 0.315994 -0.216679 -0.179573 0.906064
