1305031229.528784 0 0 0 0 0 0 1
1305031229.564442 -0.00916587 0.00312635 0.00646823 -0.00656272 -0.0250392 0.0119293 0.999594
1305031229.596617 -0.0181961 0.00345619 0.00685716 -0.00647644 -0.0503086 0.0107131 0.998655
1305031229.628790 -0.0224419 0.00475695 0.0101299 -0.00905369 -0.0667264 0.0147996 0.99762
1305031229.664358 -0.0256471 0.00211609 0.0122118 -0.0127663 -0.08678 0.0148969 0.996034
1305031229.696843 -0.0310316 0.0015653 0.0131035 -0.0126895 -0.0984013 0.0189061 0.994886
1305031229.729077 -0.0376344 0.0037126 0.0157398 -0.0121908 -0.111006 0.0231625 0.993475
1305031229.764869 -0.0424755 0.00156558 0.0175119 -0.0132835 -0.130473 0.0271219 0.990992
1305031229.796923 -0.0477442 -9.98926e-05 0.0182957 -0.0145969 -0.144559 0.0323464 0.98886
1305031229.825630 -0.052199 0.000818501 0.0201219 -0.0145448 -0.16245 0.0371864 0.985908
1305031229.863062 -0.0573231 0.00214806 0.0209244 -0.0140346 -0.182925 0.0426417 0.982101
1305031229.896938 -0.0632863 0.00267504 0.0207028 -0.0130841 -0.2019 0.0472736 0.978177
1305031229.926255 -0.0682932 0.00374104 0.0218343 -0.0112995 -0.224287 0.0496083 0.973194
1305031229.966241 -0.0730523 0.00461333 0.0220844 -0.0102291 -0.246608 0.0530574 0.967608
1305031229.997931 -0.0769862 0.0054235 0.0228895 -0.00952949 -0.265529 0.0559111 0.962433
1305031230.030002 -0.0789763 0.00493106 0.0242158 -0.00927379 -0.282136 0.0565951 0.957659
1305031230.065696 -0.0843044 0.00296951 0.0225714 -0.00976174 -0.295561 0.0585674 0.953477
1305031230.098274 -0.0894666 0.00405151 0.0203853 -0.0085273 -0.308338 0.0619524 0.949219
1305031230.129935 -0.0936636 0.00563516 0.019244 -0.00766677 -0.32085 0.0634161 0.944973
1305031230.165780 -0.0991984 0.00586668 0.0170016 -0.00803812 -0.332891 0.0650875 0.940682
1305031230.197782 -0.104237 0.00660454 0.0152367 -0.00765335 -0.344987 0.0663771 0.936226
1305031230.229853 -0.110772 0.00743656 0.0119321 -0.00715352 -0.357019 0.0682199 0.931575
1305031230.265590 -0.116351 0.00733117 0.00927111 -0.00754785 -0.370253 0.0709349 0.926188
1305031230.297993 -0.119662 0.00790667 0.00864374 -0.00782266 -0.384464 0.0723002 0.920271
1305031230.335112 -0.123362 0.00576231 0.00604177 -0.00854511 -0.397765 0.0738539 0.91447
1305031230.365680 -0.127868 0.00666194 0.00377513 -0.00636713 -0.411427 0.074516 0.908369
1305031230.397329 -0.132644 0.0057935 0.00088707 -0.007289 -0.426133 0.0751982 0.9015
1305031230.436814 -0.136954 0.00497615 -0.00185524 -0.0088425 -0.441621 0.0772803 0.893824
1305031230.465312 -0.141465 0.0024396 -0.00509151 -0.0111493 -0.459422 0.0791022 0.884619
1305031230.497300 -0.148121 0.00114448 -0.00968619 -0.012735 -0.480794 0.0806444 0.873024
1305031230.530192 -0.154536 -0.0013461 -0.0137136 -0.0165166 -0.504136 0.0839696 0.859374
1305031230.566115 -0.154536 -0.0013461 -0.0137136 -0.0165166 -0.504136 0.0839696 0.859374
1305031230.598843 -0.158964 -0.00222403 -0.0155192 -0.0187626 -0.528619 0.0854052 0.844344
1305031230.631914 -0.163656 -0.00407999 -0.0175633 -0.0207273 -0.551496 0.0855741 0.829518
1305031230.666047 -0.168243 -0.00119504 -0.0192563 -0.0211212 -0.571834 0.0855517 0.815623
1305031230.697945 -0.173689 -0.00505932 -0.0202163 -0.0239564 -0.588547 0.0842204 0.803707
1305031230.733641 -0.176029 -0.00775095 -0.0192284 -0.0258632 -0.604197 0.083948 0.791978
1305031230.765924 -0.180648 -0.00986316 -0.0227699 -0.0282059 -0.619346 0.0843875 0.78006
1305031230.797323 -0.184209 -0.0134203 -0.0266468 -0.0302806 -0.634967 0.0853262 0.767215
1305031230.831757 -0.191176 -0.0168479 -0.0330659 -0.0300423 -0.649782 0.0884899 0.754354
1305031230.865542 -0.197041 -0.0203832 -0.0378842 -0.0305495 -0.665623 0.0915913 0.740016
1305031230.897394 -0.204668 -0.02249 -0.0443398 -0.0296168 -0.682138 0.093705 0.72459
1305031230.937310 -0.21572 -0.0195796 -0.0630668 -0.0249314 -0.694948 0.0940275 0.71245
1305031230.965035 -0.21572 -0.0195796 -0.0630668 -0.0249314 -0.694948 0.0940275 0.71245
1305031230.997124 -0.218828 -0.01465 -0.0689198 -0.0222441 -0.700584 0.0929826 0.707136
1305031231.036750 -0.218828 -0.01465 -0.0689198 -0.0222441 -0.700584 0.0929826 0.707136
1305031231.064474 -0.218828 -0.01465 -0.0689198 -0.0222441 -0.700584 0.0929826 0.707136
1305031231.096788 -0.217435 -0.00888207 -0.0662267 -0.0208982 -0.699925 0.0918244 0.707981
1305031231.134711 -0.217435 -0.00888207 -0.0662267 -0.0208982 -0.699925 0.0918244 0.707981
1305031231.165276 -0.213681 -0.00491843 -0.0612895 -0.0207761 -0.698843 0.0923054 0.708989
1305031231.197771 -0.207703 0.00298397 -0.0492938 -0.0191753 -0.696528 0.0894278 0.711677
1305031231.234468 -0.199194 -0.0107026 -0.0232773 -0.0188858 -0.690999 0.0821665 0.717922
1305031231.265635 -0.199194 -0.0107026 -0.0232773 -0.0188858 -0.690999 0.0821665 0.717922
1305031231.297861 -0.198745 -0.00264884 -0.0239863 -0.0167945 -0.67132 0.0796193 0.736688
1305031231.335152 -0.195976 0.00181942 -0.0195532 -0.0157059 -0.648363 0.0774284 0.757221
1305031231.365077 -0.190888 0.0028398 -0.00942747 -0.0158515 -0.626238 0.0741224 0.775939
1305031231.397330 -0.186248 0.00374923 -0.00163829 -0.0157185 -0.60401 0.0725473 0.793512
1305031231.436858 -0.183271 0.00652434 0.00386724 -0.0159983 -0.582473 0.073067 0.809401
1305031231.464989 -0.180599 0.00987422 0.00674458 -0.0188418 -0.564879 0.0726702 0.821751
1305031231.499244 -0.177318 0.0113664 0.0106828 -0.0213094 -0.548694 0.0712924 0.832705
1305031231.533196 -0.174428 0.0137599 0.0143214 -0.0224842 -0.532559 0.0698751 0.843204
1305031231.565068 -0.17062 0.0160227 0.0185227 -0.02385 -0.517227 0.069466 0.852691
1305031231.601317 -0.168669 0.0191721 0.0212112 -0.0247572 -0.502417 0.067742 0.861612
1305031231.633159 -0.165478 0.0204706 0.0246016 -0.0255376 -0.487009 0.0659114 0.870532
1305031231.665055 -0.162202 0.0223321 0.0280005 -0.0251077 -0.471697 0.0649855 0.879004
1305031231.703508 -0.159719 0.0268736 0.0310031 -0.0235617 -0.455886 0.0643255 0.887398
1305031231.733938 -0.156412 0.0291002 0.0342064 -0.0235949 -0.439704 0.0622335 0.895673
1305031231.765509 -0.151867 0.0319273 0.038712 -0.0217957 -0.421057 0.0558774 0.905049
1305031231.801191 -0.147191 0.0333548 0.0426332 -0.0215873 -0.39959 0.050221 0.915063
1305031231.833292 -0.142472 0.0349936 0.0454728 -0.0212791 -0.376865 0.0445047 0.924954
1305031231.864959 -0.139055 0.0352193 0.046141 -0.0199731 -0.350485 0.0377732 0.935593
1305031231.901270 -0.134782 0.0346723 0.0463748 -0.0186692 -0.322709 0.0304566 0.945824
1305031231.933046 -0.130227 0.0324618 0.046507 -0.0193715 -0.297981 0.0250364 0.954047
1305031231.965030 -0.124883 0.0328096 0.0470013 -0.0177269 -0.275157 0.0193975 0.96104
1305031232.000720 -0.120532 0.0370788 0.0478581 -0.0148197 -0.254706 0.0156311 0.966779
1305031232.033203 -0.116782 0.038945 0.0476125 -0.0137224 -0.236012 0.0138476 0.971554
1305031232.065145 -0.114126 0.0411891 0.0465559 -0.0111746 -0.214442 0.0114285 0.976606
1305031232.100799 -0.110734 0.0440457 0.0461617 -0.00892567 -0.193654 0.00939631 0.980984
1305031232.132838 -0.107427 0.0461361 0.0453814 -0.00714345 -0.174833 0.0074109 0.984544
1305031232.165052 -0.104356 0.0463139 0.0440184 -0.00546808 -0.158324 0.00537897 0.987357
1305031232.199224 -0.0991749 0.0439062 0.0443097 -0.00457021 -0.142636 0.00183863 0.989763
1305031232.236468 -0.0946681 0.0442021 0.0435774 -0.00409842 -0.124871 -0.000865893 0.992164
1305031232.262698 -0.0916933 0.0435888 0.0413449 -0.00297063 -0.107381 -0.00487363 0.994202
1305031232.298025 -0.0871036 0.044182 0.0402608 -0.00215234 -0.0881141 -0.00746802 0.99608
1305031232.332143 -0.0856347 0.0459579 0.0388651 -0.00146493 -0.0693056 -0.0106341 0.997538
1305031232.364749 -0.0841704 0.0484956 0.0376384 0.000476915 -0.0528923 -0.0135229 0.998509
1305031232.400878 -0.082739 0.0503635 0.0364078 0.00079145 -0.039257 -0.0166631 0.99909
1305031232.433144 -0.0819078 0.050101 0.0351067 0.000111123 -0.0282417 -0.0188906 0.999423
1305031232.464721 -0.0818901 0.050174 0.0338494 0.000809518 -0.0197505 -0.0215239 0.999573
1305031232.501526 -0.0798806 0.0502858 0.0322796 0.00135776 -0.0112906 -0.0240417 0.999646
1305031232.532464 -0.0770206 0.0500366 0.0308203 0.0011735 -2.21405e-06 -0.0270716 0.999633
1305031232.564745 -0.0746219 0.0498144 0.0290406 0.00125745 0.011912 -0.0304598 0.999464
1305031232.600350 -0.071911 0.0502577 0.0271446 0.00209712 0.0240587 -0.0327206 0.999173
1305031232.629427 -0.0666785 0.0516911 0.0247623 0.00221434 0.0385281 -0.0362502 0.998597
1305031232.664708 -0.0649092 0.0512991 0.0216631 0.00204079 0.0538277 -0.039494 0.997767
1305031232.700509 -0.0634782 0.0506422 0.018955 0.00403506 0.066761 -0.0432878 0.996821
1305031232.732798 -0.0594582 0.0509575 0.0159756 0.00531314 0.0801819 -0.0477837 0.99562
1305031232.768460 -0.055984 0.0495799 0.0128956 0.00409474 0.0970707 -0.0523439 0.993892
1305031232.804538 -0.0542152 0.0461621 0.00941047 0.00417369 0.113678 -0.0571775 0.991862
1305031232.834645 -0.0510316 0.0464861 0.00617514 0.00629755 0.128748 -0.0608971 0.989786
1305031232.868557 -0.0497994 0.0457668 0.00296537 0.00610872 0.142416 -0.0631818 0.987769
1305031232.904183 -0.0500182 0.0448843 0.000228251 0.00686946 0.1524 -0.0621204 0.986341
1305031232.933000 -0.0496695 0.0460497 -0.00196907 0.00841244 0.157043 -0.0578554 0.98586
1305031232.968364 -0.0487838 0.0450094 -0.00416702 0.00904107 0.157601 -0.0555688 0.985897
1305031233.001151 -0.0482355 0.0480178 -0.00497958 0.0103795 0.157669 -0.0503843 0.986151
1305031233.033022 -0.0565316 0.0521702 -0.00302246 0.010497 0.151688 -0.0387788 0.987612
1305031233.068843 -0.0612667 0.054551 -0.000967332 0.014156 0.131693 -0.0299092 0.990738
1305031233.100447 -0.0719785 0.0639228 0.00504613 0.0195604 0.109567 -0.013799 0.993691
1305031233.132892 -0.0824963 0.0589441 0.00789984 0.0163575 0.0853337 -0.00767707 0.996189
1305031233.168480 -0.0835485 0.0606107 0.00946457 0.0139418 0.0728273 -0.00647549 0.997226
1305031233.200634 -0.0850328 0.0614411 0.0117213 0.00781021 0.0663583 -0.0043802 0.997756
1305031233.233009 -0.0904709 0.0634292 0.0147976 0.00259837 0.0608703 -0.000326212 0.998142
1305031233.268468 -0.101657 0.0675699 0.0179326 0.00295972 0.045374 0.0061772 0.998947
1305031233.300395 -0.112758 0.0741814 0.0230588 0.0046466 0.0202747 0.014502 0.999678
1305031233.332530 -0.121186 0.0745744 0.0284651 0.000114445 -0.0277544 0.0243678 0.999318
1305031233.368630 -0.130091 0.0728506 0.0302145 -0.0018437 -0.0675251 0.0344311 0.997122
1305031233.400893 -0.14023 0.0757448 0.0320095 -0.0030188 -0.103202 0.0430176 0.993725
1305031233.433008 -0.152436 0.0736044 0.0318653 -0.005265 -0.13845 0.0469263 0.989243
1305031233.468787 -0.158441 0.0735325 0.0324294 -0.00480114 -0.163904 0.0523188 0.985076
1305031233.500736 -0.164067 0.0753682 0.0326607 -0.00363124 -0.177746 0.053237 0.982629
1305031233.534161 -0.168852 0.0730013 0.0331492 -0.00365766 -0.189361 0.0513845 0.980555
1305031233.569727 -0.174075 0.0716276 0.033499 -0.00364407 -0.204301 0.0521502 0.977511
1305031233.601275 -0.174075 0.0716276 0.033499 -0.00364407 -0.204301 0.0521502 0.977511
1305031233.633041 -0.178299 0.0704295 0.0336565 -0.00232256 -0.229789 0.0558006 0.971637
1305031233.671783 -0.180211 0.072589 0.0352691 -0.000314605 -0.254085 0.0589421 0.965384
1305031233.702296 -0.183095 0.074224 0.0354815 0.000620481 -0.271593 0.0606174 0.960501
1305031233.731201 -0.184103 0.0797371 0.0356352 0.00430489 -0.279899 0.0598465 0.958153
1305031233.769160 -0.183561 0.0852341 0.0359347 0.00652877 -0.278447 0.0561728 0.958785
1305031233.799768 -0.181777 0.0866592 0.0368363 0.00527913 -0.271799 0.0520723 0.96093
1305031233.833831 -0.178782 0.083707 0.0379217 0.0023008 -0.266813 0.0489978 0.962499
1305031233.865570 -0.176568 0.0809221 0.0384948 0.00236536 -0.265976 0.0484659 0.962758
1305031233.898697 -0.175807 0.0816418 0.0386033 0.00341433 -0.267584 0.0496415 0.962249
1305031233.932003 -0.174363 0.0806196 0.0390816 0.00450015 -0.269416 0.0515324 0.961634
1305031233.968159 -0.172275 0.0807224 0.0400123 0.00892212 -0.269212 0.0527769 0.961592
1305031233.998938 -0.167763 0.0779964 0.0417932 0.0137247 -0.267997 0.0528307 0.961872
1305031234.037068 -0.167763 0.0779964 0.0417932 0.0137247 -0.267997 0.0528307 0.961872
1305031234.068756 -0.165067 0.0787077 0.0426895 0.0215825 -0.263062 0.0542973 0.963008
1305031234.099741 -0.162863 0.0767367 0.0428609 0.0296673 -0.257531 0.0561437 0.964181
1305031234.135069 -0.161239 0.0747309 0.0427764 0.0392847 -0.253082 0.0576699 0.964925
1305031234.165901 -0.160889 0.0777682 0.0431255 0.0511017 -0.249065 0.0594468 0.965309
1305031234.201004 -0.160021 0.0740239 0.0434444 0.057651 -0.245912 0.0623955 0.965562
1305031234.238575 -0.15926 0.0739872 0.0437416 0.0699436 -0.243256 0.0656142 0.965209
1305031234.265510 -0.158411 0.0760876 0.0453997 0.0807689 -0.241432 0.0670029 0.964727
1305031234.302455 -0.158241 0.0741108 0.0454605 0.087543 -0.238854 0.069782 0.964581
1305031234.338458 -0.15846 0.0714968 0.0450038 0.0975241 -0.236639 0.0725936 0.963961
1305031234.366181 -0.157059 0.0725115 0.046456 0.108843 -0.236206 0.0741672 0.962735
1305031234.400035 -0.15616 0.07027 0.0466071 0.117354 -0.234817 0.07645 0.961896
1305031234.436771 -0.155321 0.0669294 0.0457889 0.127401 -0.232833 0.0789745 0.960896
1305031234.467606 -0.153778 0.0642722 0.0450581 0.141947 -0.230056 0.0810951 0.959348
1305031234.497781 -0.151694 0.0635338 0.0456235 0.15541 -0.227651 0.0831451 0.957658
1305031234.537671 -0.149941 0.0583037 0.0425388 0.169011 -0.22429 0.0875986 0.955749
1305031234.569037 -0.14922 0.056609 0.0408926 0.187581 -0.223203 0.0914372 0.952173
1305031234.598248 -0.149781 0.0539549 0.038655 0.202339 -0.22263 0.0953363 0.948897
1305031234.633649 -0.147475 0.0482329 0.0350044 0.217585 -0.220822 0.0989419 0.945571
1305031234.665859 -0.147492 0.045857 0.032198 0.234421 -0.218139 0.100979 0.941948
1305031234.698732 -0.146149 0.0426592 0.0291616 0.250355 -0.215059 0.102542 0.93838
1305031234.734437 -0.1469 0.0415839 0.0266841 0.266359 -0.212108 0.104608 0.934409
1305031234.768972 -0.146129 0.039448 0.0232518 0.282914 -0.209281 0.106959 0.929904
1305031234.801553 -0.150458 0.0426387 0.0223845 0.300826 -0.206094 0.110632 0.924548
1305031234.837808 -0.148397 0.0416509 0.0212926 0.311404 -0.204515 0.110686 0.921385
1305031234.869321 -0.148172 0.0399978 0.0182508 0.322257 -0.20172 0.111299 0.91819
1305031234.901998 -0.149621 0.044365 0.021782 0.33054 -0.200085 0.111841 0.915533
1305031234.938161 -0.154117 0.0538746 0.028508 0.334474 -0.198717 0.11113 0.914488
1305031234.973080 -0.156071 0.0603754 0.0351696 0.331397 -0.200287 0.112216 0.915133
1305031235.005083 -0.164797 0.0654168 0.0400445 0.324594 -0.202426 0.111325 0.917207
1305031235.039972 -0.165609 0.0664087 0.0440201 0.316146 -0.205626 0.109923 0.919612
1305031235.072940 -0.16996 0.0707583 0.050518 0.306977 -0.209523 0.109198 0.921923
1305031235.099591 -0.170876 0.0738697 0.0562384 0.295763 -0.212647 0.106504 0.925182
1305031235.136271 -0.172405 0.0706732 0.0568307 0.283358 -0.213697 0.105519 0.928928
1305031235.166371 -0.174502 0.0744236 0.0606395 0.275609 -0.215874 0.101872 0.931161
1305031235.199847 -0.175134 0.07947 0.0660838 0.260916 -0.218651 0.0992447 0.935021
1305031235.237570 -0.17619 0.0803266 0.0684914 0.248544 -0.219565 0.0984525 0.938256
1305031235.269039 -0.177268 0.0828625 0.0713118 0.236192 -0.221361 0.0945376 0.941422
1305031235.306487 -0.176963 0.0867177 0.0754356 0.224035 -0.222561 0.0903496 0.944517
1305031235.338000 -0.177338 0.0913994 0.0803232 0.20854 -0.222967 0.085975 0.94837
1305031235.369888 -0.17771 0.0939804 0.0831847 0.192541 -0.222982 0.0818447 0.952107
1305031235.406016 -0.179337 0.0985608 0.0865102 0.179214 -0.224358 0.0797165 0.954563
1305031235.438153 -0.180967 0.102409 0.0909296 0.158715 -0.227685 0.0772492 0.957602
1305031235.470059 -0.183405 0.104767 0.0931473 0.140964 -0.229138 0.0771736 0.960036
1305031235.505985 -0.186442 0.108533 0.0954878 0.12405 -0.231399 0.0759864 0.961921
1305031235.538554 -0.187898 0.113249 0.098738 0.107038 -0.234353 0.0738948 0.963411
1305031235.570365 -0.188529 0.114652 0.101406 0.0888783 -0.236541 0.0719834 0.964866
1305031235.606006 -0.190397 0.121136 0.104728 0.0725052 -0.238382 0.068879 0.966009
1305031235.638951 -0.192348 0.122598 0.106618 0.0527512 -0.239636 0.0656673 0.967202
1305031235.670516 -0.194621 0.128435 0.109047 0.0350066 -0.241387 0.0643866 0.967658
1305031235.705778 -0.195233 0.131787 0.112435 0.0152549 -0.244207 0.0617169 0.967637
1305031235.738797 -0.197626 0.1366 0.114521 -0.00338228 -0.246502 0.0607923 0.967228
1305031235.769630 -0.199791 0.142195 0.117197 -0.0212737 -0.248992 0.0578812 0.96654
1305031235.807225 -0.201012 0.145153 0.119936 -0.0420917 -0.250481 0.0554695 0.965614
1305031235.838812 -0.201541 0.149018 0.122831 -0.0604892 -0.251714 0.0531353 0.964447
1305031235.870067 -0.204782 0.153061 0.123507 -0.0784668 -0.250831 0.0523276 0.963425
1305031235.906111 -0.20672 0.157293 0.124821 -0.0952788 -0.250173 0.0510187 0.96215
1305031235.938233 -0.20766 0.161438 0.125829 -0.111493 -0.250043 0.05046 0.960469
1305031235.970011 -0.20766 0.161438 0.125829 -0.111493 -0.250043 0.05046 0.960469
1305031236.006853 -0.207447 0.164354 0.127942 -0.125769 -0.251008 0.0472211 0.958617
1305031236.038048 -0.208166 0.169905 0.128729 -0.136288 -0.251293 0.0459753 0.957164
1305031236.069878 -0.208166 0.169905 0.128729 -0.136288 -0.251293 0.0459753 0.957164
1305031236.105872 -0.208119 0.171083 0.130801 -0.145862 -0.251178 0.0433102 0.955907
1305031236.138325 -0.208906 0.174535 0.131359 -0.151456 -0.250337 0.0405485 0.955379
1305031236.170933 -0.209237 0.176004 0.132605 -0.157117 -0.249641 0.0399977 0.95467
1305031236.207190 -0.209386 0.179356 0.133337 -0.162212 -0.249029 0.0393247 0.954005
1305031236.238375 -0.209466 0.179534 0.134321 -0.165113 -0.246925 0.0359083 0.954189
1305031236.269959 -0.21061 0.177003 0.135 -0.163689 -0.245225 0.0326331 0.95499
1305031236.306994 -0.210093 0.173572 0.135512 -0.160991 -0.243121 0.0335206 0.955955
1305031236.339217 -0.209979 0.166626 0.13598 -0.155762 -0.241519 0.0350055 0.957174
1305031236.370096 -0.209111 0.162384 0.134567 -0.147362 -0.241754 0.0373589 0.958355
1305031236.405869 -0.209089 0.157165 0.132086 -0.137902 -0.241627 0.0401959 0.959679
1305031236.438788 -0.208767 0.150889 0.129722 -0.127227 -0.240721 0.0437659 0.961224
1305031236.475141 -0.208147 0.144093 0.126465 -0.115161 -0.238842 0.0479428 0.963013
1305031236.507721 -0.208147 0.144093 0.126465 -0.115161 -0.238842 0.0479428 0.963013
1305031236.538645 -0.208058 0.136871 0.122502 -0.102507 -0.237189 0.050691 0.964709
1305031236.574095 -0.206879 0.131814 0.118384 -0.0873085 -0.235954 0.0510753 0.966485
1305031236.605757 -0.205418 0.125325 0.114721 -0.0736075 -0.234562 0.0516036 0.967936
1305031236.638401 -0.203736 0.118811 0.110439 -0.0576411 -0.233229 0.0530188 0.969263
1305031236.675147 -0.202266 0.113832 0.105915 -0.0420311 -0.232886 0.053078 0.970145
1305031236.703362 -0.200517 0.107959 0.101303 -0.0277095 -0.233312 0.0541476 0.970498
1305031236.733922 -0.199592 0.102927 0.0959796 -0.0108844 -0.233371 0.0551027 0.970764
1305031236.774041 -0.199138 0.0994507 0.0907926 0.0044907 -0.232787 0.0570967 0.97084
1305031236.802588 -0.198182 0.0939327 0.084894 0.0211151 -0.231885 0.0583378 0.970763
1305031236.836415 -0.196773 0.0906718 0.0797399 0.0399154 -0.23119 0.0577491 0.970373
1305031236.874398 -0.196687 0.0875121 0.0732416 0.0565462 -0.228655 0.0592613 0.970056
1305031236.906069 -0.195946 0.0824965 0.0663693 0.0741735 -0.226939 0.058953 0.969289
1305031236.934437 -0.194338 0.0775394 0.0602883 0.0909448 -0.226645 0.059656 0.967885
1305031236.974400 -0.192294 0.0735923 0.0538828 0.10749 -0.22688 0.0612461 0.966033
1305031237.007426 -0.190419 0.0690358 0.0467732 0.124207 -0.226907 0.0628153 0.963919
1305031237.037024 -0.188611 0.0680038 0.0406188 0.144457 -0.226904 0.0633729 0.961057
1305031237.073427 -0.18593 0.0643807 0.0343693 0.160587 -0.225705 0.0643262 0.958713
1305031237.105968 -0.184032 0.060989 0.0279104 0.177951 -0.22323 0.0657785 0.956125
1305031237.137832 -0.180722 0.0577935 0.0214055 0.198038 -0.22044 0.0664033 0.952774
1305031237.171227 -0.179326 0.0582032 0.0165135 0.216237 -0.217374 0.0695124 0.949293
1305031237.204229 -0.17658 0.0532763 0.00976194 0.229699 -0.215241 0.0728424 0.946363
1305031237.237569 -0.174333 0.0520034 0.00494519 0.246461 -0.213107 0.0765584 0.942328
1305031237.274659 -0.170777 0.0498269 0.000683419 0.259488 -0.21112 0.0790777 0.939064
1305031237.305810 -0.170979 0.047618 -0.00549891 0.273341 -0.206509 0.0808331 0.936005
1305031237.337142 -0.168794 0.0468962 -0.0103116 0.286044 -0.201402 0.0816278 0.933249
1305031237.374166 -0.166983 0.0448618 -0.0161134 0.298951 -0.197303 0.0838668 0.929874
1305031237.405734 -0.165038 0.0467538 -0.0187454 0.311119 -0.194833 0.084928 0.9263
1305031237.437722 -0.163001 0.0484242 -0.0213996 0.321171 -0.192944 0.0870656 0.923061
1305031237.474128 -0.163379 0.0472773 -0.0271397 0.330215 -0.190614 0.0919835 0.919871
1305031237.506045 -0.164349 0.0502024 -0.0277383 0.340894 -0.189512 0.095102 0.915878
1305031237.537650 -0.160721 0.0512564 -0.0292685 0.347618 -0.189686 0.096945 0.913117
1305031237.573948 -0.162727 0.047335 -0.037082 0.35477 -0.187081 0.100341 0.910533
1305031237.606813 -0.168669 0.0530675 -0.0368387 0.362559 -0.186344 0.101922 0.907435
1305031237.637855 -0.165852 0.0545981 -0.0361066 0.367864 -0.185551 0.102284 0.90542
1305031237.675276 -0.173112 0.0527104 -0.0431932 0.369448 -0.183644 0.102902 0.905094
1305031237.707118 -0.171222 0.0510005 -0.0455872 0.370975 -0.182883 0.103629 0.90454
1305031237.741667 -0.171734 0.0563571 -0.0408765 0.371845 -0.182545 0.10435 0.904168
1305031237.774306 -0.170701 0.0549476 -0.0426083 0.370324 -0.183796 0.104683 0.9045
1305031237.806496 -0.169669 0.0532041 -0.0431861 0.373498 -0.182328 0.105873 0.903353
1305031237.843031 -0.174367 0.0605466 -0.0401836 0.374525 -0.181625 0.10516 0.903153
1305031237.875422 -0.172456 0.0600084 -0.0409003 0.3703 -0.184245 0.106755 0.904177
1305031237.907784 -0.166256 0.0528738 -0.0439859 0.372171 -0.18503 0.109774 0.902886
1305031237.944187 -0.173442 0.0629262 -0.0389165 0.373388 -0.185873 0.108835 0.902323
1305031237.973810 -0.173523 0.0674685 -0.0337905 0.367022 -0.189708 0.108622 0.904161
1305031238.006932 -0.179114 0.0700276 -0.0304679 0.358597 -0.194202 0.109549 0.906473
1305031238.043140 -0.181162 0.0748432 -0.0237668 0.34906 -0.201129 0.106244 0.909075
1305031238.074032 -0.187819 0.0828815 -0.0166914 0.337212 -0.205478 0.100225 0.913248
1305031238.106588 -0.192723 0.0887918 -0.00974541 0.319758 -0.207646 0.0916894 0.919908
1305031238.143328 -0.194293 0.089127 -0.00611048 0.30129 -0.208103 0.0846933 0.926685
1305031238.172300 -0.203348 0.0957475 -0.00129659 0.282275 -0.208554 0.0758015 0.933317
1305031238.205426 -0.205551 0.0951815 0.00310681 0.258033 -0.212925 0.0724209 0.939594
1305031238.240147 -0.207928 0.0989574 0.00852027 0.240366 -0.217818 0.0684411 0.943448
1305031238.272527 -0.211369 0.102178 0.0126922 0.222267 -0.220871 0.061229 0.947663
1305031238.306053 -0.215345 0.10832 0.0179493 0.203811 -0.222043 0.0554422 0.951885
1305031238.342596 -0.218913 0.107924 0.0210965 0.179851 -0.222726 0.0514343 0.956766
1305031238.374104 -0.222233 0.111891 0.0255862 0.161965 -0.224068 0.0476101 0.959841
1305031238.406036 -0.225331 0.113867 0.0296085 0.142035 -0.225284 0.0416935 0.962982
1305031238.443424 -0.229129 0.114851 0.0323568 0.121913 -0.225046 0.0371514 0.965977
1305031238.474082 -0.232905 0.116419 0.0343426 0.104772 -0.224652 0.0337236 0.968203
1305031238.505811 -0.235537 0.115598 0.0358636 0.0876719 -0.22567 0.0296509 0.969798
1305031238.543264 -0.23703 0.115528 0.0373798 0.0753546 -0.227449 0.0269446 0.970496
1305031238.574184 -0.238425 0.119686 0.0401193 0.0654892 -0.229966 0.0231826 0.970716
1305031238.605825 -0.240865 0.123453 0.0421316 0.0538252 -0.232065 0.0207955 0.970987
1305031238.642759 -0.241973 0.126923 0.0443858 0.0414538 -0.233795 0.0177983 0.971239
1305031238.673813 -0.244755 0.130793 0.0454564 0.0295622 -0.233145 0.0153623 0.971871
1305031238.705189 -0.2462 0.135486 0.0475784 0.0175355 -0.232811 0.012087 0.972289
1305031238.741307 -0.247848 0.137646 0.0487528 0.00276273 -0.233089 0.0096862 0.972403
1305031238.771796 -0.249988 0.139823 0.049352 -0.00963049 -0.233841 0.00888542 0.972187
1305031238.807019 -0.251415 0.144036 0.0507015 -0.0191476 -0.235444 0.0073279 0.971672
1305031238.842940 -0.252473 0.147046 0.0524834 -0.0309149 -0.236711 0.00463867 0.971077
1305031238.873723 -0.253172 0.146634 0.0528846 -0.0441853 -0.237088 0.00450265 0.970472
1305031238.906172 -0.253172 0.146634 0.0528846 -0.0441853 -0.237088 0.00450265 0.970472
1305031238.942786 -0.253438 0.148574 0.0539362 -0.0493777 -0.237982 0.00394924 0.970006
1305031238.972308 -0.255507 0.149693 0.0537435 -0.057395 -0.237814 0.00317333 0.969608
1305031239.010483 -0.255323 0.151661 0.0543333 -0.0616071 -0.236986 0.000342213 0.969558
1305031239.040879 -0.255796 0.152693 0.0550378 -0.068265 -0.235808 -0.00246355 0.969396
1305031239.074661 -0.256823 0.151572 0.0549924 -0.0758257 -0.23531 -0.00345071 0.968952
1305031239.110906 -0.256463 0.149872 0.0553872 -0.0782562 -0.235355 -0.00498204 0.968741
1305031239.141779 -0.257776 0.148247 0.0547969 -0.0792443 -0.234485 -0.00567435 0.968868
1305031239.175750 -0.25636 0.145087 0.0550339 -0.0776541 -0.23324 -0.00549357 0.969298
1305031239.209645 -0.256599 0.14371 0.0532577 -0.0733607 -0.231572 -0.00432018 0.970038
1305031239.241710 -0.256011 0.142291 0.0528086 -0.0698196 -0.231865 -0.00374958 0.970232
1305031239.273820 -0.25491 0.139011 0.0525871 -0.0645064 -0.233584 -0.00203429 0.970192
1305031239.310177 -0.254434 0.137845 0.0518473 -0.0567475 -0.234141 0.000872127 0.970545
1305031239.341970 -0.255192 0.136387 0.0499822 -0.0480469 -0.233401 0.00416634 0.971184
1305031239.375024 -0.255144 0.133695 0.0488606 -0.0390018 -0.233005 0.00680236 0.971669
1305031239.410631 -0.255439 0.131665 0.0473634 -0.0290662 -0.232633 0.0102169 0.972076
1305031239.441542 -0.255291 0.126872 0.0460274 -0.0194591 -0.233233 0.0136593 0.97213
1305031239.473318 -0.254005 0.124103 0.0451471 -0.00656967 -0.234656 0.0161461 0.971922
1305031239.509739 -0.253371 0.122096 0.044171 0.00505088 -0.234976 0.0192221 0.971798
1305031239.543802 -0.25444 0.120393 0.04203 0.0177616 -0.233605 0.0229666 0.971898
1305031239.576116 -0.253686 0.119721 0.0408524 0.0318282 -0.23118 0.0245348 0.972081
1305031239.611161 -0.25261 0.117011 0.0395916 0.0443991 -0.227674 0.02543 0.972392
1305031239.641422 -0.252671 0.113097 0.0372503 0.0568916 -0.224147 0.027531 0.972504
1305031239.671056 -0.249642 0.110036 0.0370192 0.0711497 -0.222516 0.02813 0.971922
1305031239.707555 -0.247615 0.104864 0.0350702 0.0823905 -0.221227 0.0308453 0.971246
1305031239.741755 -0.245319 0.0986324 0.0323719 0.0960906 -0.220538 0.0336082 0.970052
1305031239.771260 -0.242107 0.0922155 0.0297444 0.111281 -0.220386 0.037326 0.968325
1305031239.806087 -0.239251 0.0852915 0.02587 0.128684 -0.219852 0.0439707 0.966008
1305031239.839289 -0.238556 0.0839807 0.0221377 0.148777 -0.219489 0.0545319 0.962661
1305031239.874430 -0.236949 0.0835392 0.0199609 0.168194 -0.222628 0.0559146 0.958656
1305031239.909062 -0.232671 0.0799897 0.017669 0.185429 -0.224208 0.0571456 0.95503
1305031239.940373 -0.229493 0.0783764 0.015241 0.203199 -0.222804 0.0577978 0.951697
1305031239.971067 -0.226833 0.0769804 0.0128279 0.219315 -0.220021 0.0574323 0.948785
1305031240.008865 -0.226531 0.0712085 0.00668598 0.232169 -0.21607 0.0598832 0.94648
1305031240.039660 -0.225097 0.0683479 0.00224106 0.247238 -0.214233 0.0643119 0.942784
1305031240.071187 -0.22415 0.0668893 -0.00197179 0.261038 -0.213334 0.0681107 0.938993
1305031240.109346 -0.221696 0.0601211 -0.00869515 0.275023 -0.212706 0.0710544 0.934917
1305031240.143502 -0.219871 0.0540622 -0.016189 0.293372 -0.211058 0.0741821 0.929454
1305031240.177577 -0.220731 0.0548271 -0.0196026 0.311513 -0.209624 0.0779479 0.923548
1305031240.209331 -0.217028 0.0535511 -0.0231292 0.326395 -0.208744 0.0821465 0.918229
1305031240.241005 -0.219284 0.0529987 -0.0303313 0.350029 -0.205495 0.0872435 0.909747
1305031240.277434 -0.212951 0.0560053 -0.0280216 0.36466 -0.20639 0.0915377 0.903353
1305031240.308929 -0.208898 0.0447881 -0.0420441 0.376723 -0.204 0.0963994 0.898427
1305031240.342273 -0.2096 0.0453494 -0.0452028 0.39287 -0.202586 0.102195 0.891161
1305031240.377426 -0.20301 0.0487259 -0.0432605 0.406554 -0.200112 0.10436 0.885312
1305031240.409111 -0.197458 0.0479774 -0.0470156 0.418292 -0.196624 0.107797 0.880199
1305031240.441786 -0.199255 0.0524215 -0.0459912 0.427892 -0.196281 0.113562 0.87492
1305031240.477639 -0.201101 0.0563015 -0.0454369 0.435384 -0.195363 0.11461 0.871286
1305031240.508449 -0.198971 0.0589684 -0.0453988 0.441196 -0.193571 0.115265 0.868672
1305031240.541270 -0.194631 0.0548265 -0.0492005 0.44441 -0.194252 0.119013 0.866373
1305031240.575909 -0.201562 0.0627116 -0.044748 0.445728 -0.195227 0.119445 0.865417
1305031240.610134 -0.201376 0.0664405 -0.0397102 0.444177 -0.195484 0.118127 0.866336
1305031240.639823 -0.205306 0.0610466 -0.0435687 0.437139 -0.197101 0.11752 0.869626
1305031240.674757 -0.20288 0.0613317 -0.0401359 0.430706 -0.199192 0.113914 0.872834
1305031240.707932 -0.203287 0.0646126 -0.0341642 0.426222 -0.199174 0.111936 0.875291
1305031240.743958 -0.203346 0.0720356 -0.0229265 0.417321 -0.201826 0.109178 0.879312
1305031240.776833 -0.195183 0.0658771 -0.0249442 0.408076 -0.201035 0.104637 0.88437
1305031240.809625 -0.199168 0.0721334 -0.0167957 0.401879 -0.201074 0.101874 0.887516
1305031240.842596 -0.199849 0.0796625 -0.00690503 0.391018 -0.201817 0.0961143 0.892825
1305031240.879410 -0.20002 0.0780212 -0.00488859 0.377211 -0.200535 0.0930698 0.899353
1305031240.908450 -0.205702 0.0815099 -0.000441354 0.366081 -0.199507 0.0881591 0.90466
1305031240.942319 -0.211176 0.0901269 0.00843575 0.352845 -0.19828 0.0796451 0.910957
1305031240.977936 -0.20879 0.0863818 0.0108522 0.3309 -0.19846 0.077951 0.919262
1305031241.008303 -0.211924 0.0944707 0.0187743 0.317782 -0.199073 0.0730706 0.924146
1305031241.040148 -0.21272 0.0973582 0.0258646 0.294024 -0.200717 0.068474 0.931973
1305031241.075933 -0.213299 0.101871 0.0317236 0.27558 -0.202658 0.069715 0.937083
1305031241.106556 -0.217149 0.103964 0.0359887 0.255484 -0.206931 0.0682859 0.941936
1305031241.140052 -0.219897 0.105134 0.0398512 0.233637 -0.210932 0.0660018 0.946871
1305031241.178182 -0.222646 0.109407 0.0446237 0.215144 -0.214458 0.0636558 0.950615
1305031241.210679 -0.225179 0.1126 0.048541 0.195768 -0.21692 0.059398 0.954512
1305031241.239315 -0.227203 0.112579 0.0507166 0.175677 -0.218077 0.0546614 0.958432
1305031241.276847 -0.2282 0.114682 0.0537474 0.160128 -0.217446 0.0502633 0.961535
1305031241.306330 -0.230634 0.12145 0.0576352 0.145286 -0.216152 0.0472319 0.964334
1305031241.342476 -0.23075 0.125616 0.0610428 0.123386 -0.216348 0.0483615 0.96728
1305031241.379515 -0.232459 0.127022 0.0622596 0.100969 -0.218076 0.0528364 0.969256
1305031241.409682 -0.236147 0.133031 0.0632592 0.0848951 -0.222391 0.0576458 0.969542
1305031241.445546 -0.238002 0.138486 0.0660967 0.0685325 -0.22928 0.0584835 0.969182
1305031241.477507 -0.240009 0.141474 0.0668053 0.0540142 -0.233203 0.0592158 0.969119
1305031241.509849 -0.24115 0.142096 0.0677103 0.0484905 -0.231698 0.0577965 0.969858
1305031241.547730 -0.24048 0.141119 0.0687456 0.0493669 -0.228355 0.0523707 0.970914
1305031241.578395 -0.2396 0.140164 0.0685866 0.052121 -0.225211 0.0489725 0.971682
1305031241.609264 -0.238078 0.137884 0.0687388 0.0529152 -0.224276 0.0481815 0.971894
1305031241.647584 -0.236779 0.132128 0.0671828 0.0573393 -0.224737 0.0468404 0.971603
1305031241.678366 -0.23703 0.135513 0.0655571 0.0654733 -0.224588 0.0469116 0.971119
1305031241.709827 -0.236107 0.135382 0.064671 0.0693497 -0.223754 0.0447864 0.971143
1305031241.747102 -0.236046 0.13593 0.0632833 0.0740286 -0.222576 0.0417116 0.971205
1305031241.778268 -0.236091 0.135036 0.0621701 0.0775713 -0.221763 0.0395627 0.971205
1305031241.809829 -0.237823 0.137286 0.0605372 0.0811398 -0.221148 0.0380655 0.971113
1305031241.846436 -0.238265 0.133232 0.0590426 0.0819365 -0.222896 0.0328324 0.970838
1305031241.878799 -0.239663 0.133317 0.0577928 0.0886162 -0.226282 0.0266096 0.969657
1305031241.911487 -0.242167 0.13751 0.0575605 0.0917321 -0.229398 0.0206948 0.968779
1305031241.947705 -0.245415 0.135805 0.0552068 0.0919026 -0.230819 0.0111054 0.968583
1305031241.978343 -0.246589 0.13595 0.0546247 0.0957151 -0.23162 -0.00260927 0.968083
1305031242.010570 -0.249346 0.138218 0.0539226 0.0978713 -0.230102 -0.0174269 0.968076
1305031242.046360 -0.251602 0.138662 0.0526443 0.097168 -0.226012 -0.0340728 0.968667
1305031242.079549 -0.25185 0.138568 0.0521289 0.0968157 -0.21913 -0.0524237 0.969464
1305031242.110584 -0.253267 0.137181 0.0508826 0.0958092 -0.212066 -0.0726079 0.969833
1305031242.146605 -0.253475 0.136053 0.050233 0.0950528 -0.204824 -0.0915853 0.969858
1305031242.179708 -0.25343 0.134153 0.0496909 0.0936093 -0.197608 -0.110075 0.969573
1305031242.208725 -0.255233 0.13239 0.0481257 0.0924481 -0.193849 -0.126095 0.968492
1305031242.247809 -0.255159 0.129706 0.0470495 0.0924989 -0.192349 -0.141556 0.966648
1305031242.279498 -0.256202 0.128621 0.0458903 0.0946022 -0.1907 -0.157568 0.964291
1305031242.309764 -0.255662 0.127888 0.0452621 0.0978436 -0.187905 -0.176139 0.961298
1305031242.347127 -0.254576 0.124325 0.0445856 0.10166 -0.182011 -0.195581 0.958272
1305031242.378479 -0.253829 0.123762 0.0442486 0.106126 -0.176757 -0.212185 0.955234
1305031242.410997 -0.252815 0.122445 0.0432698 0.108491 -0.172336 -0.228578 0.951989
1305031242.447099 -0.254966 0.119827 0.0401297 0.112315 -0.167797 -0.246588 0.947852
1305031242.477647 -0.256493 0.119778 0.037275 0.11683 -0.1627 -0.265447 0.943089
1305031242.509726 -0.259774 0.116875 0.0331968 0.121633 -0.154185 -0.28955 0.9368
1305031242.548546 -0.263635 0.116388 0.0300588 0.129342 -0.148442 -0.313841 0.928838
1305031242.574843 -0.264136 0.116322 0.0285082 0.134466 -0.146104 -0.339006 0.919591
1305031242.606115 -0.265115 0.115379 0.0266931 0.135851 -0.140301 -0.362991 0.911097
1305031242.643811 -0.265115 0.115379 0.0266931 0.135851 -0.140301 -0.362991 0.911097
1305031242.675202 -0.265115 0.115379 0.0266931 0.135851 -0.140301 -0.362991 0.911097
1305031242.713982 -0.269588 0.115489 0.0242877 0.140995 -0.139077 -0.387693 0.900262
1305031242.745258 -0.274959 0.116978 0.0211948 0.141997 -0.136994 -0.412063 0.889535
1305031242.777540 -0.277167 0.117273 0.0203751 0.140826 -0.131815 -0.434691 0.87968
1305031242.814071 -0.280242 0.119757 0.0204204 0.141337 -0.129907 -0.451747 0.871248
1305031242.844318 -0.285139 0.122704 0.0190228 0.138164 -0.130126 -0.466611 0.863859
1305031242.874088 -0.288965 0.125397 0.018039 0.133922 -0.12941 -0.484588 0.854688
1305031242.913707 -0.293916 0.127943 0.0166442 0.130459 -0.124835 -0.5055 0.843722
1305031242.944438 -0.294663 0.131019 0.0182253 0.127712 -0.119009 -0.526008 0.832372
1305031242.976062 -0.299456 0.13566 0.0182227 0.124369 -0.11503 -0.541921 0.823178
1305031243.014166 -0.302108 0.140202 0.0189739 0.118301 -0.110854 -0.55644 0.814918
1305031243.046910 -0.303765 0.143765 0.0201981 0.113997 -0.109262 -0.567184 0.808312
1305031243.078045 -0.306237 0.14749 0.0197486 0.109374 -0.10679 -0.579527 0.800489
1305031243.113615 -0.308373 0.150487 0.0191992 0.106211 -0.102687 -0.590907 0.793097
1305031243.145816 -0.310295 0.153176 0.0185758 0.105606 -0.0978618 -0.600643 0.786446
1305031243.178076 -0.308739 0.153636 0.0197185 0.10622 -0.0936363 -0.602545 0.785423
1305031243.213658 -0.306235 0.152947 0.0204365 0.109021 -0.0993603 -0.59069 0.793302
1305031243.245561 -0.306219 0.151278 0.0191199 0.110372 -0.106607 -0.579038 0.800729
1305031243.278180 -0.302257 0.145517 0.0197824 0.11386 -0.109338 -0.56505 0.809815
1305031243.314271 -0.298854 0.143038 0.0205578 0.122263 -0.117731 -0.539071 0.824981
1305031243.346036 -0.2995 0.140857 0.0194152 0.124826 -0.125936 -0.519976 0.835574
1305031243.378935 -0.299691 0.135694 0.0204981 0.128369 -0.127342 -0.498448 0.847853
1305031243.413974 -0.298227 0.139307 0.022773 0.134419 -0.133649 -0.470112 0.862011
1305031243.447091 -0.302239 0.136539 0.0220313 0.136727 -0.138368 -0.452069 0.870513
1305031243.478037 -0.302239 0.136539 0.0220313 0.136727 -0.138368 -0.452069 0.870513
1305031243.515401 -0.300781 0.137264 0.0245766 0.140128 -0.139431 -0.432038 0.879924
1305031243.545943 -0.302973 0.136055 0.026066 0.141542 -0.136906 -0.415068 0.888224
1305031243.577984 -0.303282 0.137087 0.0281757 0.145556 -0.137033 -0.39363 0.897269
1305031243.614055 -0.306964 0.136913 0.0281229 0.148536 -0.140114 -0.371516 0.905694
1305031243.646187 -0.306964 0.136913 0.0281229 0.148536 -0.140114 -0.371516 0.905694
1305031243.678280 -0.306964 0.136913 0.0281229 0.148536 -0.140114 -0.371516 0.905694
1305031243.714296 -0.303198 0.137083 0.0296709 0.158292 -0.145052 -0.342822 0.914536
1305031243.747378 -0.303198 0.137083 0.0296709 0.158292 -0.145052 -0.342822 0.914536
1305031243.779036 -0.304601 0.129258 0.0264833 0.160364 -0.146175 -0.301592 0.928417
1305031243.814193 -0.30036 0.126832 0.0268199 0.167565 -0.161837 -0.261544 0.936657
1305031243.846292 -0.2899 0.121522 0.0287276 0.173434 -0.172401 -0.223583 0.943509
1305031243.878809 -0.283973 0.120035 0.0300379 0.180015 -0.180005 -0.180266 0.950104
1305031243.914000 -0.279916 0.119665 0.0303629 0.186002 -0.190379 -0.141685 0.953459
1305031243.947078 -0.272849 0.122905 0.0335506 0.192418 -0.200729 -0.108029 0.95447
1305031243.981652 -0.267979 0.123467 0.0348485 0.195872 -0.206314 -0.079216 0.955402
1305031244.011270 -0.263087 0.123213 0.0362329 0.200718 -0.209555 -0.0548561 0.9554
1305031244.043823 -0.259947 0.131184 0.0392053 0.206242 -0.210779 -0.0325849 0.954974
1305031244.081809 -0.258132 0.134752 0.0417902 0.205441 -0.212986 -0.0143842 0.955104
1305031244.112790 -0.256124 0.132878 0.0428551 0.203178 -0.216275 0.00560526 0.954941
1305031244.148495 -0.256481 0.138772 0.0451559 0.203514 -0.222217 0.0259825 0.953167
1305031244.182431 -0.253556 0.142117 0.0491729 0.19985 -0.228844 0.0455139 0.95164
1305031244.212401 -0.251797 0.14356 0.0518823 0.195388 -0.232033 0.0681284 0.950443
1305031244.247347 -0.248477 0.147542 0.0551025 0.191984 -0.234552 0.0908928 0.948613
1305031244.283147 -0.24416 0.151837 0.0582017 0.187635 -0.237041 0.115147 0.946227
1305031244.313795 -0.23835 0.156293 0.061684 0.183071 -0.238011 0.141684 0.943272
1305031244.345960 -0.23336 0.160792 0.0646844 0.178748 -0.234089 0.167124 0.940915
1305031244.380856 -0.231811 0.165836 0.065538 0.174517 -0.228719 0.194169 0.937833
1305031244.413019 -0.2294 0.170647 0.0668016 0.172368 -0.226091 0.22144 0.932811
1305031244.445167 -0.227915 0.17805 0.0690673 0.171457 -0.221872 0.246004 0.927824
1305031244.480659 -0.229166 0.18474 0.0701123 0.169147 -0.217764 0.269089 0.9228
1305031244.514228 -0.231491 0.187715 0.0706701 0.166412 -0.216708 0.290299 0.9171
1305031244.546214 -0.233126 0.192613 0.0733248 0.16522 -0.215799 0.306072 0.912389
1305031244.580805 -0.234007 0.195209 0.0761424 0.160644 -0.213532 0.32182 0.908311
1305031244.613277 -0.234872 0.196845 0.078295 0.156096 -0.212367 0.339461 0.90294
1305031244.642840 -0.235885 0.200099 0.0811944 0.15252 -0.212852 0.355416 0.89728
1305031244.680610 -0.23507 0.202496 0.0842452 0.146922 -0.212787 0.371087 0.891869
1305031244.715250 -0.235664 0.207281 0.0873871 0.139666 -0.212189 0.38728 0.886275
1305031244.745888 -0.236915 0.208237 0.0880641 0.128248 -0.211869 0.408308 0.878606
1305031244.781851 -0.237741 0.208273 0.0877434 0.120925 -0.214936 0.427327 0.869811
1305031244.814094 -0.236165 0.208707 0.0884459 0.116689 -0.220471 0.445404 0.859879
1305031244.841822 -0.232657 0.20835 0.0891856 0.116587 -0.223646 0.460088 0.851298
1305031244.881801 -0.232722 0.21183 0.0893018 0.119322 -0.225491 0.470635 0.844641
1305031244.914908 -0.232203 0.215241 0.090166 0.119499 -0.228957 0.480713 0.837982
1305031244.945868 -0.232044 0.217001 0.0906311 0.119966 -0.231991 0.490271 0.831518
1305031244.981800 -0.232085 0.22054 0.0918919 0.120128 -0.235056 0.496062 0.827188
1305031245.014055 -0.228747 0.219087 0.0929272 0.119862 -0.236132 0.501431 0.823676
1305031245.046440 -0.233658 0.222152 0.0928409 0.123873 -0.237985 0.500213 0.82329
1305031245.081769 -0.231765 0.220307 0.0946054 0.121835 -0.241404 0.500566 0.822383
1305031245.114315 -0.232311 0.217285 0.0941215 0.125916 -0.242228 0.497122 0.823614
1305031245.145710 -0.236542 0.216523 0.093689 0.130765 -0.245877 0.487152 0.827725
1305031245.181871 -0.236699 0.209796 0.0922135 0.132741 -0.248425 0.477474 0.832276
1305031245.214094 -0.236829 0.201373 0.0887821 0.140659 -0.250173 0.460644 0.839902
1305031245.248795 -0.241514 0.1976 0.0849636 0.151225 -0.252005 0.436164 0.85052
1305031245.280795 -0.24591 0.192702 0.0801006 0.154205 -0.254267 0.414048 0.86031
1305031245.314318 -0.243396 0.182885 0.075871 0.157163 -0.255323 0.390808 0.870275
1305031245.349181 -0.24177 0.177478 0.0714113 0.165706 -0.24932 0.358949 0.884046
1305031245.380686 -0.241242 0.173555 0.0666586 0.173245 -0.241326 0.327116 0.897075
1305031245.413311 -0.240067 0.171467 0.0626946 0.174086 -0.234318 0.300503 0.908013
1305031245.448997 -0.240772 0.16343 0.0542926 0.172935 -0.231136 0.281304 0.915171
1305031245.484671 -0.240179 0.158975 0.0490371 0.180483 -0.228956 0.253522 0.922351
1305031245.512432 -0.242061 0.158161 0.0443559 0.184162 -0.224175 0.227834 0.929474
1305031245.548146 -0.244605 0.157882 0.0399327 0.184651 -0.223086 0.204184 0.935118
1305031245.578689 -0.242827 0.155063 0.0378044 0.183257 -0.220248 0.179366 0.941135
1305031245.610475 -0.245642 0.152161 0.0325266 0.184518 -0.21609 0.156457 0.945928
1305031245.649463 -0.248464 0.153202 0.0298273 0.186082 -0.216253 0.132996 0.949168
1305031245.680235 -0.247655 0.152669 0.0292134 0.182805 -0.215007 0.110901 0.952919
1305031245.711032 -0.248042 0.152149 0.0280592 0.180188 -0.211688 0.0899917 0.956359
1305031245.749775 -0.248116 0.154359 0.0279892 0.1782 -0.206307 0.0675344 0.959751
1305031245.781850 -0.248108 0.153521 0.02751 0.17447 -0.197026 0.0448567 0.963706
1305031245.813569 -0.248247 0.153994 0.026959 0.170945 -0.185193 0.0223441 0.967462
1305031245.849109 -0.250141 0.152398 0.0250292 0.165209 -0.172167 -0.00106137 0.971115
1305031245.882028 -0.250794 0.152855 0.0246519 0.161332 -0.162714 -0.0221867 0.973141
1305031245.912608 -0.252426 0.151189 0.0226186 0.155011 -0.154257 -0.041566 0.974909
1305031245.945896 -0.253919 0.14959 0.0209845 0.151372 -0.149108 -0.0622173 0.975183
1305031245.980818 -0.255582 0.150116 0.0193781 0.149459 -0.144954 -0.0833323 0.974529
1305031246.011003 -0.257719 0.148577 0.0168611 0.146511 -0.139584 -0.105627 0.973598
1305031246.048393 -0.260564 0.146413 0.0140331 0.145718 -0.13586 -0.126388 0.971769
1305031246.080525 -0.265182 0.144423 0.0102566 0.146132 -0.134434 -0.148382 0.968791
1305031246.112356 -0.271651 0.142939 0.0062995 0.149999 -0.135551 -0.174462 0.963685
1305031246.148449 -0.273492 0.14039 0.00402702 0.153879 -0.135544 -0.202605 0.957549
1305031246.180596 -0.274402 0.139412 0.00269284 0.154163 -0.129988 -0.225865 0.953059
1305031246.211137 -0.278407 0.135337 -0.000350135 0.153344 -0.124412 -0.250066 0.947879
1305031246.246969 -0.282593 0.133856 -0.00311029 0.156244 -0.122879 -0.276145 0.940336
1305031246.279696 -0.286624 0.131208 -0.00604711 0.160103 -0.119409 -0.305135 0.931129
1305031246.312473 -0.289908 0.130183 -0.0081985 0.164746 -0.113197 -0.333741 0.921228
1305031246.348272 -0.293457 0.127245 -0.0106643 0.168438 -0.105322 -0.36547 0.909378
1305031246.378206 -0.296088 0.126118 -0.0114534 0.173858 -0.0967888 -0.393272 0.897631
1305031246.415637 -0.298441 0.126918 -0.0113901 0.176362 -0.0908513 -0.417292 0.886854
1305031246.445289 -0.302277 0.127196 -0.0122443 0.179707 -0.0857038 -0.445199 0.873017
1305031246.477465 -0.305813 0.127874 -0.01251 0.182437 -0.0782645 -0.471902 0.859011
1305031246.516395 -0.310017 0.128981 -0.0125577 0.18569 -0.0707067 -0.4964 0.845048
1305031246.549175 -0.313312 0.131558 -0.0117922 0.18837 -0.0648561 -0.517547 0.832139
1305031246.579511 -0.317065 0.135385 -0.0107912 0.190393 -0.0632246 -0.538687 0.818272
1305031246.616453 -0.323009 0.139045 -0.0117632 0.193862 -0.0619371 -0.563351 0.80076
1305031246.647763 -0.326689 0.14236 -0.0117378 0.195285 -0.0592361 -0.581218 0.787744
1305031246.680758 -0.329686 0.146093 -0.0108424 0.196775 -0.0582733 -0.600371 0.772941
1305031246.716974 -0.334446 0.150166 -0.0114154 0.199769 -0.0590913 -0.621559 0.755159
1305031246.749166 -0.337233 0.154793 -0.011331 0.200267 -0.0582392 -0.642552 0.737311
1305031246.780817 -0.341851 0.159231 -0.0124717 0.201369 -0.0594345 -0.66113 0.720295
1305031246.816808 -0.345796 0.162671 -0.0142855 0.200193 -0.060734 -0.679157 0.703549
1305031246.848812 -0.344912 0.16647 -0.0139007 0.193968 -0.0583254 -0.695383 0.689505
1305031246.880643 -0.346451 0.170787 -0.0139097 0.190176 -0.0568028 -0.711678 0.673885
1305031246.916671 -0.348253 0.174865 -0.0157597 0.189042 -0.0587786 -0.727469 0.656961
1305031246.949534 -0.347356 0.179362 -0.0175635 0.18584 -0.0619954 -0.741638 0.641555
1305031246.977597 -0.347259 0.183152 -0.0192168 0.175001 -0.0615826 -0.755411 0.62844
1305031247.016790 -0.34645 0.186792 -0.0196935 0.165947 -0.0616487 -0.769503 0.613617
1305031247.047934 -0.347695 0.191139 -0.0220633 0.155765 -0.0636284 -0.782613 0.599337
1305031247.077890 -0.346293 0.195297 -0.0232004 0.146697 -0.0642415 -0.795946 0.583801
1305031247.116213 -0.347452 0.198897 -0.0254182 0.142835 -0.0609016 -0.807965 0.568403
1305031247.147366 -0.347873 0.200138 -0.0273834 0.138505 -0.0561024 -0.813879 0.561489
1305031247.179692 -0.344684 0.199175 -0.0279639 0.133652 -0.0562997 -0.816522 0.558802
1305031247.216943 -0.34384 0.199787 -0.0288544 0.128408 -0.05656 -0.818258 0.557464
1305031247.248793 -0.343567 0.200747 -0.028977 0.12905 -0.0556249 -0.819318 0.55585
1305031247.279422 -0.346188 0.19859 -0.0308839 0.131763 -0.0565577 -0.813592 0.563478
1305031247.316643 -0.344156 0.19597 -0.030247 0.132918 -0.0639363 -0.803812 0.576309
1305031247.347790 -0.345735 0.196707 -0.030505 0.134965 -0.0724407 -0.793155 0.589441
1305031247.378611 -0.345149 0.196893 -0.0294216 0.138894 -0.0805355 -0.778884 0.606269
1305031247.416862 -0.345591 0.197201 -0.0283236 0.142442 -0.0940961 -0.760376 0.626645
1305031247.448770 -0.346615 0.199263 -0.0276652 0.144321 -0.106211 -0.74442 0.643218
1305031247.480263 -0.348618 0.200765 -0.026094 0.148114 -0.112496 -0.727455 0.660467
1305031247.517846 -0.349728 0.201953 -0.0248987 0.153401 -0.123808 -0.70422 0.682066
1305031247.545901 -0.348581 0.202327 -0.0231532 0.156711 -0.133638 -0.685054 0.698773
1305031247.577921 -0.350823 0.203368 -0.0234258 0.162009 -0.142335 -0.662393 0.717446
1305031247.615280 -0.349992 0.203457 -0.0227498 0.165644 -0.150141 -0.640464 0.734728
1305031247.648400 -0.348618 0.200982 -0.02178 0.166927 -0.153111 -0.619189 0.751862
1305031247.683558 -0.348618 0.200982 -0.02178 0.166927 -0.153111 -0.619189 0.751862
1305031247.715961 -0.346529 0.198954 -0.0212648 0.170557 -0.160017 -0.589422 0.773231
1305031247.746902 -0.344625 0.196154 -0.0206214 0.166518 -0.16327 -0.554484 0.798851
1305031247.782261 -0.34697 0.18923 -0.0231042 0.164774 -0.168969 -0.519989 0.820921
1305031247.813983 -0.345206 0.183106 -0.0257728 0.171675 -0.180252 -0.4898 0.835544
1305031247.848442 -0.336227 0.177375 -0.0238837 0.181443 -0.182776 -0.465873 0.846542
1305031247.882072 -0.341334 0.167389 -0.0309788 0.186689 -0.174118 -0.440974 0.860449
1305031247.917332 -0.335773 0.170324 -0.0321821 0.201906 -0.17807 -0.409881 0.871506
1305031247.949686 -0.328761 0.173123 -0.0318378 0.209347 -0.182962 -0.388303 0.878589
1305031247.986145 -0.328626 0.16347 -0.0377983 0.212688 -0.180492 -0.368663 0.886721
1305031248.018156 -0.325121 0.164233 -0.0400222 0.222821 -0.1797 -0.337192 0.896861
1305031248.049914 -0.321182 0.165361 -0.0425335 0.230139 -0.185346 -0.311593 0.903102
1305031248.085746 -0.314418 0.158617 -0.0458726 0.234669 -0.190168 -0.286665 0.90917
1305031248.117579 -0.306859 0.153699 -0.0484896 0.241376 -0.191144 -0.256431 0.916212
1305031248.149346 -0.297659 0.155159 -0.047885 0.250049 -0.196597 -0.228264 0.920174
1305031248.184863 -0.287399 0.15495 -0.0470673 0.255512 -0.200747 -0.201451 0.92403
1305031248.216769 -0.276959 0.154266 -0.0457038 0.259681 -0.202012 -0.17139 0.928646
1305031248.248851 -0.276382 0.155715 -0.0483606 0.262824 -0.203945 -0.142833 0.932164
1305031248.284740 -0.267476 0.161174 -0.0447555 0.265072 -0.210012 -0.114137 0.934133
1305031248.316181 -0.260011 0.16518 -0.042079 0.262313 -0.209865 -0.0880705 0.937759
1305031248.348843 -0.26137 0.161991 -0.0454986 0.259381 -0.207465 -0.0648609 0.940996
1305031248.388197 -0.260114 0.164663 -0.0463732 0.259121 -0.210555 -0.0406401 0.941738
1305031248.415507 -0.256534 0.166293 -0.0454682 0.256772 -0.214513 -0.0191836 0.94217
1305031248.448252 -0.254163 0.166279 -0.0468348 0.25471 -0.216753 0.00261409 0.942409
1305031248.485297 -0.254707 0.165874 -0.0502898 0.256042 -0.21749 0.0216278 0.941633
1305031248.515431 -0.252055 0.172909 -0.048094 0.260441 -0.218178 0.0360279 0.939825
1305031248.547003 -0.248728 0.176532 -0.0460592 0.258966 -0.215631 0.0496572 0.940199
1305031248.586058 -0.245575 0.174356 -0.0471099 0.257117 -0.208214 0.0707579 0.941027
1305031248.618038 -0.247668 0.17663 -0.0498107 0.25853 -0.203834 0.0915142 0.939808
1305031248.649439 -0.249115 0.178682 -0.0511207 0.260012 -0.204762 0.110985 0.937096
1305031248.686028 -0.248096 0.181643 -0.0509531 0.259795 -0.207495 0.133736 0.933578
1305031248.719923 -0.245071 0.18595 -0.0496331 0.2599 -0.209597 0.156208 0.92958
1305031248.749837 -0.241707 0.186866 -0.0492238 0.258792 -0.211464 0.176965 0.925739
1305031248.785675 -0.238255 0.187631 -0.0487193 0.261624 -0.21078 0.197445 0.920945
1305031248.818141 -0.23412 0.196422 -0.0433801 0.264357 -0.207852 0.213695 0.917195
1305031248.849679 -0.227695 0.200969 -0.0397933 0.262626 -0.202557 0.231543 0.914542
1305031248.885593 -0.222293 0.206991 -0.0346176 0.264757 -0.194662 0.244597 0.912241
1305031248.917882 -0.220334 0.212978 -0.0299772 0.265112 -0.187254 0.25551 0.910696
1305031248.952681 -0.214476 0.215928 -0.0262341 0.262809 -0.180405 0.268181 0.909101
1305031248.984554 -0.211693 0.221702 -0.0219545 0.263038 -0.170768 0.282084 0.906685
1305031249.016951 -0.210583 0.226726 -0.017954 0.26119 -0.165709 0.295874 0.903758
1305031249.052366 -0.211257 0.23265 -0.0142303 0.260499 -0.16461 0.307497 0.900272
1305031249.084503 -0.20929 0.235496 -0.00977958 0.257452 -0.166315 0.317787 0.897256
1305031249.116884 -0.211175 0.236871 -0.00671712 0.256194 -0.166057 0.323559 0.8956
1305031249.153447 -0.213434 0.243053 -0.000564678 0.254399 -0.165381 0.326376 0.895215
1305031249.184739 -0.213837 0.242602 0.00276698 0.246379 -0.167731 0.330124 0.895646
1305031249.216865 -0.217288 0.239497 0.00296049 0.242725 -0.171608 0.335853 0.893777
1305031249.253224 -0.219647 0.239627 0.00565682 0.239581 -0.18031 0.341527 0.890757
1305031249.284804 -0.220922 0.233499 0.00454667 0.234987 -0.18913 0.349266 0.887144
1305031249.317434 -0.225624 0.233819 0.00625977 0.236871 -0.19616 0.350046 0.884806
1305031249.352736 -0.227101 0.23464 0.00856454 0.232998 -0.200706 0.351245 0.884339
1305031249.384754 -0.227821 0.22743 0.00480848 0.230456 -0.201592 0.351851 0.884563
1305031249.417834 -0.227192 0.224075 0.00262736 0.237857 -0.200231 0.339407 0.887769
1305031249.453722 -0.227698 0.221679 0.00135291 0.244976 -0.195131 0.320066 0.89413
1305031249.485915 -0.229016 0.220351 -0.000509824 0.249185 -0.188991 0.297032 0.902198
1305031249.517734 -0.227311 0.216044 -0.00492424 0.252865 -0.18145 0.271814 0.910633
1305031249.554325 -0.226318 0.211606 -0.00972274 0.261302 -0.173654 0.243125 0.917854
1305031249.585905 -0.228884 0.212294 -0.0113809 0.265165 -0.166201 0.214619 0.925204
1305031249.618079 -0.230453 0.206123 -0.0162454 0.263667 -0.161915 0.186538 0.932452
1305031249.654213 -0.230354 0.204294 -0.0179559 0.2667 -0.158331 0.155471 0.937887
1305031249.685674 -0.231634 0.206584 -0.0174253 0.264419 -0.148797 0.123362 0.944841
1305031249.717790 -0.234384 0.202423 -0.0198072 0.257455 -0.140314 0.0915553 0.951655
1305031249.753962 -0.228231 0.201187 -0.0181603 0.252948 -0.130198 0.0619069 0.956678
1305031249.785417 -0.22861 0.197372 -0.020893 0.245218 -0.113562 0.0342561 0.962184
1305031249.818602 -0.231251 0.193225 -0.0236064 0.241332 -0.100124 0.0028478 0.965259
1305031249.853747 -0.231172 0.189482 -0.02429 0.238502 -0.0821536 -0.0266199 0.967295
1305031249.885525 -0.231584 0.189981 -0.0238875 0.234239 -0.0592504 -0.0534741 0.968897
1305031249.917065 -0.232093 0.18611 -0.025146 0.230498 -0.0401289 -0.0763114 0.969245
1305031249.953398 -0.231309 0.18174 -0.026765 0.229202 -0.0254239 -0.0962532 0.968275
1305031249.985179 -0.231524 0.178316 -0.0273537 0.228242 -0.0136272 -0.113516 0.966868
1305031250.016440 -0.231456 0.177535 -0.0265969 0.226033 -0.00163069 -0.13101 0.965268
1305031250.053194 -0.233561 0.174686 -0.0278308 0.226486 0.0116714 -0.155503 0.96145
1305031250.084507 -0.23743 0.172261 -0.0281768 0.229288 0.0211095 -0.18411 0.955555
1305031250.120850 -0.241366 0.169552 -0.0271447 0.229042 0.0263912 -0.208462 0.950467
1305031250.153248 -0.244336 0.168781 -0.0242944 0.227327 0.0241194 -0.233037 0.945217
1305031250.185328 -0.254265 0.164083 -0.0247176 0.223938 0.014576 -0.263939 0.93807
1305031250.221446 -0.264994 0.162139 -0.025532 0.220017 0.0100081 -0.288959 0.931662
1305031250.253735 -0.268516 0.161417 -0.0227729 0.214291 0.00770834 -0.309387 0.926445
1305031250.285224 -0.276813 0.158798 -0.0225347 0.213295 0.000753183 -0.336501 0.917209
1305031250.320862 -0.282674 0.159468 -0.0217965 0.214492 -0.00430252 -0.362492 0.906959
1305031250.351700 -0.290083 0.159131 -0.0217444 0.214541 -0.0061471 -0.390787 0.895109
1305031250.385149 -0.296537 0.157913 -0.0222248 0.213529 -0.00288034 -0.417055 0.883438
1305031250.421536 -0.301557 0.156656 -0.0223444 0.212462 0.00551454 -0.440387 0.872289
1305031250.454018 -0.30221 0.158035 -0.0193236 0.210102 0.0132182 -0.457368 0.864001
1305031250.485613 -0.304321 0.159203 -0.0163241 0.205364 0.0175792 -0.476575 0.85463
1305031250.521538 -0.310272 0.159488 -0.0157263 0.200579 0.0224534 -0.495271 0.844968
1305031250.553658 -0.312233 0.160601 -0.0134447 0.195385 0.0284517 -0.508494 0.838122
1305031250.585379 -0.313893 0.162123 -0.00996397 0.190309 0.0330784 -0.519188 0.832546
1305031250.621303 -0.317312 0.163622 -0.00784651 0.187163 0.0354633 -0.533166 0.824285
1305031250.653544 -0.321651 0.165968 -0.00662071 0.186094 0.0388968 -0.546734 0.815438
1305031250.685297 -0.32069 0.168238 -0.002665 0.183717 0.039383 -0.55806 0.808249
1305031250.721640 -0.322938 0.172075 0.000760959 0.180463 0.0378105 -0.575216 0.796951
1305031250.753428 -0.327436 0.17473 0.0017448 0.178785 0.0384636 -0.59202 0.7849
1305031250.785365 -0.327523 0.177346 0.0044612 0.177382 0.0394744 -0.598485 0.780252
1305031250.821793 -0.326154 0.180591 0.00803114 0.174933 0.0370878 -0.6021 0.778138
1305031250.853828 -0.327789 0.182577 0.00959017 0.174628 0.0337142 -0.605825 0.775464
1305031250.882014 -0.328029 0.183161 0.0100253 0.17725 0.0288243 -0.607293 0.773916
1305031250.921800 -0.331318 0.183738 0.00909087 0.179097 0.0235515 -0.608765 0.772512
1305031250.953542 -0.337218 0.185398 0.00698316 0.179116 0.0237181 -0.610941 0.770783
1305031250.985308 -0.337225 0.18467 0.0067684 0.182387 0.022188 -0.606331 0.773696
1305031251.021488 -0.336584 0.184662 0.00587462 0.184881 0.0149693 -0.598369 0.779455
1305031251.053468 -0.334875 0.184528 0.00547936 0.185413 0.00784996 -0.591738 0.784479
1305031251.085186 -0.335197 0.183289 0.00406343 0.188048 0.00205883 -0.582176 0.791015
1305031251.121445 -0.335022 0.181602 0.0015149 0.194474 -0.00556724 -0.56873 0.799184
1305031251.153781 -0.332224 0.180083 -0.00145216 0.199056 -0.0119144 -0.551507 0.809984
1305031251.185160 -0.330305 0.17499 -0.00479288 0.201727 -0.016657 -0.527945 0.824804
1305031251.220466 -0.327726 0.170845 -0.00813777 0.207376 -0.0256655 -0.499988 0.840445
1305031251.252424 -0.32191 0.167723 -0.0110144 0.213675 -0.0385152 -0.4729 0.853947
1305031251.284482 -0.317004 0.163143 -0.0140898 0.218042 -0.0501954 -0.441979 0.868673
1305031251.319004 -0.310298 0.159419 -0.0162526 0.222297 -0.0608035 -0.404498 0.885024
1305031251.353244 -0.305172 0.157338 -0.0184699 0.226537 -0.0701015 -0.368552 0.898853
1305031251.387007 -0.296822 0.160089 -0.0176468 0.230465 -0.0797242 -0.335178 0.910047
1305031251.421050 -0.294686 0.15522 -0.0210035 0.230526 -0.0883103 -0.304616 0.919928
1305031251.449663 -0.286787 0.155572 -0.0200237 0.23444 -0.097833 -0.269149 0.928991
1305031251.489014 -0.28201 0.15721 -0.0198003 0.235661 -0.106394 -0.234898 0.936999
1305031251.520773 -0.276167 0.157286 -0.0197653 0.23608 -0.114461 -0.203141 0.943344
1305031251.553045 -0.269484 0.155256 -0.0200677 0.235274 -0.119961 -0.168512 0.949663
1305031251.588760 -0.264591 0.157334 -0.0186898 0.235939 -0.125863 -0.134174 0.954195
1305031251.620874 -0.263406 0.157884 -0.0190136 0.234512 -0.133352 -0.103503 0.957344
1305031251.652875 -0.262978 0.156637 -0.0206448 0.233035 -0.144079 -0.0694294 0.959227
1305031251.689768 -0.262596 0.159907 -0.0205364 0.232462 -0.159352 -0.0356626 0.958799
1305031251.720461 -0.261057 0.160925 -0.019722 0.229561 -0.176812 -0.00468381 0.957088
1305031251.753144 -0.261282 0.158271 -0.0215435 0.226815 -0.192018 0.0270918 0.954437
1305031251.789250 -0.262093 0.162076 -0.0222656 0.227894 -0.208094 0.0600152 0.949294
1305031251.820979 -0.264671 0.165831 -0.022931 0.225722 -0.225975 0.0901808 0.94332
1305031251.853797 -0.26544 0.164416 -0.0250454 0.223964 -0.242214 0.118542 0.936547
1305031251.889654 -0.266431 0.164823 -0.0265988 0.228632 -0.257756 0.144807 0.927534
1305031251.921930 -0.265037 0.169938 -0.024935 0.232615 -0.272187 0.166698 0.918704
1305031251.953837 -0.264768 0.172752 -0.0234842 0.231778 -0.279591 0.188254 0.912506
1305031251.989807 -0.265686 0.173867 -0.0232574 0.231066 -0.284615 0.207945 0.906842
1305031252.022160 -0.262536 0.172618 -0.0224664 0.230302 -0.290594 0.228095 0.900272
1305031252.053762 -0.257297 0.178433 -0.0182216 0.22926 -0.297053 0.254226 0.891386
1305031252.089562 -0.25211 0.186732 -0.01283 0.224668 -0.301466 0.28174 0.88276
1305031252.122152 -0.247325 0.190768 -0.00955312 0.21803 -0.303523 0.312245 0.873407
1305031252.153971 -0.239645 0.193857 -0.0053607 0.213329 -0.305675 0.340591 0.863163
1305031252.189789 -0.235394 0.200545 -0.00102495 0.211863 -0.302894 0.365882 0.854108
1305031252.222086 -0.24177 0.212782 0.00358021 0.205215 -0.297968 0.38672 0.848263
1305031252.253064 -0.242057 0.217504 0.00768986 0.190035 -0.296571 0.408519 0.842048
1305031252.288878 -0.239977 0.219281 0.0107907 0.183237 -0.292112 0.426862 0.835992
1305031252.320609 -0.242129 0.223586 0.0125175 0.18019 -0.286826 0.439079 0.832149
1305031252.352855 -0.242605 0.226717 0.0150733 0.172028 -0.284121 0.451545 0.828124
1305031252.389319 -0.244782 0.228698 0.0160268 0.165979 -0.281069 0.464414 0.823268
1305031252.421702 -0.248464 0.231957 0.0165494 0.15857 -0.284078 0.475758 0.817196
1305031252.453825 -0.24632 0.232959 0.0186012 0.152189 -0.287599 0.485995 0.811131
1305031252.489559 -0.249874 0.234925 0.0187266 0.149262 -0.288722 0.490875 0.808333
1305031252.522170 -0.250128 0.235226 0.0192827 0.145106 -0.29013 0.4958 0.805575
1305031252.553774 -0.253213 0.235174 0.0180218 0.144071 -0.292421 0.500209 0.8022
1305031252.589746 -0.257966 0.236073 0.017175 0.140936 -0.298538 0.504416 0.797857
1305031252.622125 -0.252488 0.234992 0.0204917 0.139984 -0.304516 0.507439 0.793839
1305031252.657856 -0.251689 0.232781 0.0205035 0.144768 -0.305969 0.502709 0.79543
1305031252.688998 -0.24961 0.229258 0.0209873 0.153199 -0.302853 0.488496 0.803854
1305031252.721654 -0.25189 0.22786 0.0200938 0.164507 -0.292363 0.463884 0.819923
1305031252.757822 -0.254075 0.223751 0.0177328 0.174299 -0.274253 0.431927 0.841335
1305031252.789692 -0.252807 0.223356 0.0175677 0.189531 -0.249792 0.398482 0.861913
1305031252.822405 -0.264531 0.229321 0.0139161 0.198416 -0.229047 0.369003 0.878638
1305031252.853978 -0.263912 0.227552 0.0129001 0.199448 -0.21835 0.347799 0.889707
1305031252.889729 -0.264445 0.227618 0.0122211 0.203307 -0.210125 0.32807 0.898267
1305031252.920672 -0.267882 0.226681 0.0109239 0.205353 -0.203728 0.305613 0.907153
1305031252.957865 -0.269538 0.223605 0.00981788 0.208492 -0.196565 0.278733 0.916625
1305031252.989424 -0.271006 0.222071 0.00893769 0.211474 -0.18967 0.250481 0.925507
1305031253.019696 -0.272689 0.220387 0.0095591 0.212317 -0.182285 0.218562 0.934839
1305031253.057426 -0.275433 0.21766 0.00884236 0.211242 -0.175497 0.190135 0.942564
1305031253.089550 -0.276735 0.213291 0.00718036 0.212442 -0.170814 0.164532 0.947956
1305031253.119724 -0.280817 0.209499 0.0042662 0.217183 -0.164834 0.13709 0.952296
1305031253.157384 -0.288278 0.206216 6.32107e-05 0.22459 -0.162586 0.110843 0.954379
1305031253.189218 -0.289786 0.205787 0.000683427 0.229824 -0.167601 0.0867987 0.954755
1305031253.218027 -0.291673 0.206044 0.00117573 0.228146 -0.171244 0.0756641 0.955458
1305031253.257847 -0.295435 0.20397 -1.40255e-05 0.222486 -0.178291 0.0725843 0.955742
1305031253.289742 -0.296146 0.200829 -0.000207574 0.217745 -0.189126 0.0710647 0.954865
1305031253.322007 -0.293782 0.195997 9.45784e-05 0.21546 -0.197005 0.0725792 0.953676
1305031253.357830 -0.293957 0.192982 -0.000837426 0.219206 -0.200436 0.0776902 0.951703
1305031253.388097 -0.29415 0.193885 -0.000180263 0.223795 -0.203007 0.0817636 0.949747
1305031253.421352 -0.295118 0.191246 -0.00115689 0.227012 -0.204077 0.0857099 0.948405
1305031253.457963 -0.2946 0.191865 -4.55911e-05 0.232653 -0.203905 0.0862533 0.947025
1305031253.489690 -0.294144 0.19275 0.0012545 0.235998 -0.201317 0.0848142 0.946881
1305031253.520734 -0.294054 0.190363 0.000448788 0.237154 -0.199043 0.085013 0.947055
1305031253.557854 -0.296299 0.189985 -0.000126887 0.24049 -0.198227 0.0864344 0.946256
1305031253.589805 -0.300177 0.195123 0.00185924 0.241633 -0.200104 0.0862052 0.94559
