1305031102.160407 0 0 0 0 0 0 1
1305031102.194330 -0.00377811 0.00189016 0.0122043 -0.00120605 -0.00246374 -0.00101023 0.999996
1305031102.226738 -0.00593906 0.00690408 0.0244502 -0.00432289 -0.00556527 -0.00229658 0.999973
1305031102.262886 -0.00825369 0.00787092 0.0369855 -0.010299 -0.00789797 -0.00202791 0.999914
1305031102.295279 -0.00979944 0.00983037 0.0493434 -0.0150706 -0.0102641 -0.00158567 0.999832
1305031102.329195 -0.0109919 0.0102444 0.0611894 -0.0193713 -0.0118975 -0.000782715 0.999741
1305031102.363013 -0.0118542 0.011538 0.072978 -0.0214586 -0.0135346 0.000955241 0.999678
1305031102.394772 -0.0141381 0.0157871 0.0838319 -0.0223301 -0.0143363 0.00143327 0.999647
1305031102.427815 -0.0155249 0.0192235 0.0956495 -0.0237367 -0.0170586 0.000372106 0.999573
1305031102.462395 -0.0160833 0.0255767 0.107238 -0.0275713 -0.0205438 9.77782e-05 0.999409
1305031102.494271 -0.0176114 0.0267758 0.11952 -0.0345159 -0.0217454 -0.000402974 0.999167
1305031102.526330 -0.0187806 0.0276737 0.131571 -0.0395943 -0.020237 -0.00160811 0.99901
1305031102.562224 -0.0203411 0.0276634 0.14368 -0.0441266 -0.0185267 -0.0042119 0.998845
1305031102.594158 -0.0207693 0.0242867 0.155833 -0.0466269 -0.0166977 -0.00553548 0.998757
1305031102.626818 -0.0208823 0.0234778 0.167877 -0.0441397 -0.0145982 -0.00513684 0.998905
1305031102.663273 -0.02281 0.0310381 0.178499 -0.0406284 -0.0138066 -0.00348269 0.999073
1305031102.695165 -0.0232104 0.0339121 0.190838 -0.0417793 -0.0152986 -0.00342366 0.999004
1305031102.728423 -0.0235959 0.0357324 0.203457 -0.0422295 -0.0156589 -0.00219385 0.998983
1305031102.763549 -0.0236507 0.0420795 0.21522 -0.0423032 -0.0154175 -0.000586135 0.998986
1305031102.794978 -0.0232477 0.0436178 0.228206 -0.0444926 -0.0133544 -0.00261276 0.998917
1305031102.828537 -0.023587 0.0473204 0.240363 -0.0455057 -0.0103747 -0.00345887 0.998904
1305031102.862808 -0.0239604 0.0478155 0.252496 -0.0476092 -0.0064377 -0.00441811 0.998836
1305031102.894167 -0.024085 0.0497563 0.264255 -0.0474379 -0.00445224 -0.00693209 0.99884
1305031102.926851 -0.0251709 0.0527825 0.275408 -0.0469846 -0.00254937 -0.00800858 0.99886
1305031102.962137 -0.0274586 0.0539709 0.287128 -0.047632 -0.00303441 -0.00928377 0.998817
1305031102.994164 -0.0306812 0.0572105 0.298347 -0.0483239 -0.00869923 -0.0083046 0.998759
1305031103.027881 -0.0327491 0.0607503 0.309248 -0.0493184 -0.01378 -0.00552081 0.998673
1305031103.062273 -0.0337019 0.0638662 0.319665 -0.0508653 -0.0191675 -0.00286572 0.998517
1305031103.094040 -0.0337717 0.0657229 0.329411 -0.0502977 -0.0210089 -0.00116738 0.998513
1305031103.129109 -0.0341965 0.0716567 0.338227 -0.0485054 -0.020702 -1.80675e-05 0.998608
1305031103.162795 -0.0349215 0.0743312 0.347256 -0.0499218 -0.0202027 0.0011251 0.998548
1305031103.191061 -0.0355596 0.0797265 0.355563 -0.0501185 -0.0186353 0.00169151 0.998568
1305031103.227845 -0.0364062 0.0842073 0.363931 -0.0548919 -0.0185007 0.00351776 0.998315
1305031103.262576 -0.0366942 0.0876807 0.371582 -0.0614134 -0.0184943 0.00631525 0.997921
1305031103.294208 -0.0383202 0.087207 0.378267 -0.0717605 -0.0215009 0.0107369 0.997132
1305031103.327550 -0.0400643 0.0851458 0.382631 -0.0785503 -0.029136 0.0115229 0.996418
1305031103.362405 -0.0386547 0.0865234 0.384466 -0.0792423 -0.0325127 0.0111824 0.996262
1305031103.394162 -0.0380399 0.0845597 0.384902 -0.0836837 -0.0310407 0.0132539 0.995921
1305031103.428437 -0.0380751 0.0792724 0.384209 -0.0871093 -0.0309886 0.0145899 0.99561
1305031103.463886 -0.0382784 0.0762687 0.381201 -0.087705 -0.0336549 0.0137095 0.995483
1305031103.494472 -0.0388806 0.0714188 0.376676 -0.0885973 -0.0355796 0.012376 0.995355
1305031103.531502 -0.0394423 0.0656799 0.370295 -0.0874461 -0.0367348 0.0102991 0.995438
1305031103.562651 -0.0391487 0.0597531 0.36252 -0.0843859 -0.0378963 0.00828178 0.995678
1305031103.595310 -0.0396772 0.056249 0.353158 -0.0805447 -0.0391098 0.00937971 0.995939
1305031103.631376 -0.0401169 0.0504755 0.343781 -0.0790405 -0.0420532 0.0109286 0.995924
1305031103.663594 -0.0403324 0.0450942 0.333394 -0.0769002 -0.0457146 0.0117867 0.99592
1305031103.694695 -0.039828 0.0407101 0.322062 -0.0744918 -0.047883 0.0122865 0.995996
1305031103.731542 -0.0379768 0.0354762 0.310462 -0.0725914 -0.0491334 0.0115171 0.996084
1305031103.762865 -0.0366855 0.0288674 0.298435 -0.0706324 -0.0491541 0.0100238 0.99624
1305031103.794329 -0.0361924 0.026618 0.284634 -0.0670556 -0.0484144 0.00703312 0.996549
1305031103.830367 -0.0361261 0.0253355 0.270861 -0.0667282 -0.0469209 0.0040989 0.996659
1305031103.862379 -0.0370961 0.0238352 0.257617 -0.0697556 -0.0464941 0.00220005 0.996478
1305031103.894237 -0.0379411 0.0144784 0.245306 -0.0769538 -0.0487931 0.000655113 0.99584
1305031103.930503 -0.0375702 0.00746375 0.23182 -0.0768815 -0.0525524 -0.00115446 0.995654
1305031103.962461 -0.0368045 0.00363897 0.217155 -0.0750479 -0.0553834 -0.00262243 0.995637
1305031103.994365 -0.0357268 -0.00141038 0.20275 -0.0731654 -0.0565772 -0.00360877 0.995707
1305031104.030279 -0.0336117 -0.00780024 0.188539 -0.0691489 -0.0564239 -0.00544077 0.995995
1305031104.062542 -0.03139 -0.0102089 0.173244 -0.0618689 -0.0532845 -0.00779341 0.99663
1305031104.095305 -0.0274109 -0.0125315 0.158882 -0.0578894 -0.0498735 -0.0113104 0.997012
1305031104.131292 -0.0244548 -0.0182779 0.145318 -0.0550639 -0.0444495 -0.0132687 0.997405
1305031104.163440 -0.0227819 -0.0226738 0.131663 -0.0505403 -0.0398824 -0.0144158 0.997821
1305031104.194053 -0.0217374 -0.0251924 0.117767 -0.0462065 -0.0370879 -0.0149142 0.998132
1305031104.227247 -0.0201287 -0.0295456 0.104798 -0.0423299 -0.0351908 -0.0149919 0.998371
1305031104.263335 -0.0184343 -0.0323455 0.0918112 -0.0377554 -0.0334798 -0.0154458 0.998607
1305031104.294957 -0.0155505 -0.034079 0.0794726 -0.0330451 -0.0316368 -0.0168714 0.998811
1305031104.331403 -0.0140173 -0.0358838 0.0676269 -0.029151 -0.0289278 -0.0174373 0.999004
1305031104.363345 -0.0128798 -0.0367251 0.0560083 -0.0260016 -0.0251397 -0.0182577 0.999179
1305031104.395019 -0.0122481 -0.0368888 0.0453429 -0.0235192 -0.0205266 -0.0183462 0.999344
1305031104.431435 -0.0133657 -0.0373998 0.0349332 -0.0219755 -0.0168104 -0.0174506 0.999465
1305031104.463413 -0.0165748 -0.036312 0.0247662 -0.0208331 -0.0150102 -0.016217 0.999539
1305031104.495673 -0.0201133 -0.0376205 0.0155441 -0.0209708 -0.0154492 -0.0146015 0.999554
1305031104.531450 -0.0231359 -0.0412091 0.00610012 -0.0205677 -0.0169724 -0.0126965 0.999564
1305031104.563149 -0.022105 -0.0430712 -0.00380348 -0.0173271 -0.0184793 -0.0121635 0.999605
1305031104.595033 -0.0204902 -0.0473988 -0.0140871 -0.0130522 -0.0177002 -0.0118169 0.999688
1305031104.631368 -0.0198101 -0.0518729 -0.0257086 -0.00359043 -0.0118477 -0.0102562 0.999871
1305031104.659863 -0.0170153 -0.0510255 -0.0379722 0.00889994 -0.0050262 -0.0107853 0.99989
1305031104.695185 -0.0178515 -0.053809 -0.0500375 0.0208038 0.00359178 -0.0100583 0.999727
1305031104.730936 -0.0154041 -0.0544804 -0.0613124 0.0351535 0.0103577 -0.00822308 0.999294
1305031104.763178 -0.0108405 -0.0547725 -0.0718797 0.0482212 0.0164526 -0.00688661 0.998677
1305031104.799499 -0.00806474 -0.0537317 -0.0816083 0.0603824 0.0223882 -0.00492861 0.997912
1305031104.830961 -0.00498617 -0.0501095 -0.0894421 0.0716492 0.0282159 -0.00236561 0.997028
1305031104.863256 -0.00124459 -0.0460936 -0.0949611 0.0802556 0.0328558 0.000289422 0.996233
1305031104.899165 0.00169505 -0.0419736 -0.0987229 0.0856051 0.034592 0.0033409 0.995723
1305031104.931091 0.00304564 -0.0382086 -0.0998178 0.0880495 0.035435 0.00603638 0.995467
1305031104.959750 0.00439423 -0.0349892 -0.098319 0.0891685 0.0358088 0.00702929 0.995348
1305031104.998342 0.00601917 -0.0271837 -0.0937158 0.0889729 0.0346965 0.00815201 0.995396
1305031105.030427 0.00592319 -0.020575 -0.0870502 0.0856864 0.034708 0.00833615 0.995683
1305031105.062445 0.00750342 -0.0167396 -0.0792202 0.0801522 0.0337266 0.00670841 0.996189
1305031105.097639 0.00624754 -0.0133975 -0.069652 0.0739157 0.0333467 0.00487403 0.996695
1305031105.130269 0.00488751 -0.0114064 -0.058377 0.0685077 0.0324182 0.00335351 0.997118
1305031105.159979 0.00542305 -0.00303821 -0.0452874 0.0631897 0.0289388 1.99788e-05 0.997582
1305031105.198212 0.0030528 -0.000399062 -0.0303496 0.0497795 0.026201 -0.00260576 0.998413
1305031105.228250 -0.00197245 -0.00243649 -0.0158698 0.0378584 0.0227209 -0.00462317 0.999014
1305031105.262389 -0.00636414 0.0010393 -0.00099312 0.0294828 0.0176149 -0.00570366 0.999394
1305031105.298501 -0.0108805 0.00409977 0.0137913 0.0193534 0.0123807 -0.00575935 0.999719
1305031105.328878 -0.0141083 0.00440093 0.0281289 0.00899167 0.00569323 -0.00567748 0.999927
1305031105.362286 -0.0176181 0.00271915 0.0422743 0.00075313 0.000551198 -0.00508002 0.999987
1305031105.398191 -0.0199249 0.00521291 0.0558989 -0.00225222 -0.00381531 -0.00530501 0.999976
1305031105.430336 -0.0213483 0.00860364 0.0697261 -0.00771223 -0.00863147 -0.00696716 0.999909
1305031105.461421 -0.0264087 0.00891626 0.0833227 -0.0140357 -0.0103565 -0.00587279 0.999831
1305031105.497931 -0.0276145 0.0111894 0.0972031 -0.0170639 -0.0138021 -0.00696264 0.999735
1305031105.529583 -0.0288545 0.0137484 0.110691 -0.0212763 -0.0154366 -0.00705822 0.99963
1305031105.562109 -0.0304684 0.0146075 0.124611 -0.0248832 -0.01568 -0.00646801 0.999546
1305031105.597193 -0.0316592 0.0160192 0.13836 -0.028035 -0.0167609 -0.00573246 0.99945
1305031105.627128 -0.030997 0.0151456 0.152676 -0.030918 -0.0177645 -0.00475647 0.999353
1305031105.659104 -0.0324199 0.0187077 0.166332 -0.0309438 -0.0179392 -0.00219945 0.999358
1305031105.698235 -0.032861 0.0210008 0.180116 -0.0324035 -0.0179554 -0.00119408 0.999313
1305031105.730336 -0.0316232 0.0206852 0.19442 -0.0317653 -0.0152065 -0.00123761 0.999379
1305031105.762384 -0.0309399 0.0255251 0.207969 -0.0299088 -0.0114177 -0.00105567 0.999487
1305031105.798056 -0.0289802 0.0258342 0.222418 -0.0304997 -0.00662096 -0.00117309 0.999512
1305031105.830008 -0.0271404 0.0287299 0.236376 -0.028858 -0.00260462 -3.19779e-05 0.99958
1305031105.862238 -0.0239444 0.0314431 0.250174 -0.027227 0.000586498 0.000758319 0.999629
1305031105.898018 -0.0217575 0.0369649 0.263573 -0.0266658 0.0049476 0.00337032 0.999626
1305031105.929855 -0.0202516 0.0403943 0.276819 -0.029357 0.00856026 0.00778027 0.999502
1305031105.966193 -0.0190423 0.046172 0.289187 -0.0313129 0.0113206 0.00957145 0.9994
1305031105.998271 -0.0192103 0.0508701 0.301529 -0.0355093 0.0137512 0.011806 0.999205
1305031106.030147 -0.018021 0.0554847 0.313518 -0.0395244 0.0158551 0.0131979 0.999006
1305031106.066060 -0.0182758 0.0589721 0.3255 -0.0443079 0.0178467 0.0150579 0.998745
1305031106.096295 -0.0219963 0.0655183 0.336137 -0.0469881 0.0202586 0.0163938 0.998555
1305031106.130445 -0.0233324 0.071243 0.347219 -0.0516541 0.0204636 0.0171872 0.998307
1305031106.166330 -0.0245132 0.0731703 0.35784 -0.0587223 0.0189672 0.0189323 0.997915
1305031106.195074 -0.025881 0.0761224 0.367473 -0.0624753 0.0179287 0.0196934 0.997691
1305031106.230058 -0.0266601 0.075777 0.376932 -0.0664544 0.0161397 0.0204364 0.99745
1305031106.265976 -0.0274915 0.0791169 0.384482 -0.0663143 0.0148631 0.023612 0.997409
1305031106.298174 -0.0280185 0.0833741 0.391099 -0.0674545 0.0133742 0.0247214 0.997326
1305031106.330215 -0.0287588 0.0871731 0.3967 -0.0709062 0.012576 0.0276517 0.99702
1305031106.366158 -0.0293538 0.0914046 0.4011 -0.0764411 0.0113731 0.0257089 0.996678
1305031106.398281 -0.0291537 0.0905381 0.403885 -0.0863274 0.0125692 0.0185221 0.996015
1305031106.430639 -0.0283171 0.0851372 0.404949 -0.0936581 0.0171983 0.0126346 0.995376
1305031106.466046 -0.0290336 0.081475 0.402937 -0.0956855 0.0197401 0.00952623 0.99517
1305031106.498096 -0.0297895 0.0775104 0.398948 -0.0966452 0.018337 0.00880552 0.995111
1305031106.528267 -0.030571 0.0717709 0.393029 -0.0963847 0.0145769 0.00802163 0.995205
1305031106.564414 -0.0316478 0.0678845 0.384604 -0.0938402 0.0112583 0.00619515 0.995504
1305031106.597879 -0.0329184 0.0647967 0.374881 -0.0910726 0.00985385 0.00468829 0.995784
1305031106.630776 -0.0347213 0.0618463 0.364146 -0.0915615 0.00723974 0.0020429 0.995771
1305031106.667282 -0.035066 0.0557276 0.35277 -0.0920164 0.00447904 -0.000744478 0.995747
1305031106.699110 -0.0360196 0.0532061 0.340031 -0.0902698 0.001153 -0.000940996 0.995916
1305031106.729550 -0.0379406 0.0479466 0.327193 -0.0925292 -0.00379238 -0.000376293 0.995703
1305031106.767126 -0.0387417 0.0441229 0.313256 -0.0912373 -0.00966934 0.000229812 0.995782
1305031106.798309 -0.0392553 0.0411369 0.298536 -0.0899548 -0.0147773 -2.73824e-05 0.995836
1305031106.830652 -0.0394208 0.0389862 0.283277 -0.0900912 -0.018469 -0.000362058 0.995762
1305031106.866893 -0.0403065 0.0298237 0.268787 -0.0917593 -0.0221174 -0.00211001 0.995533
1305031106.897828 -0.0408597 0.0252088 0.251719 -0.0860858 -0.0232955 -0.00676965 0.995992
1305031106.930797 -0.0416022 0.0250584 0.233436 -0.0818138 -0.0221951 -0.0112362 0.996337
1305031106.967232 -0.0418899 0.0173387 0.217007 -0.0808035 -0.0210132 -0.0154395 0.996389
1305031106.998876 -0.0414546 0.0104472 0.200222 -0.0750224 -0.0190677 -0.0196965 0.996805
1305031107.030348 -0.0425628 0.014091 0.180923 -0.0677131 -0.0158016 -0.0222606 0.997331
1305031107.066405 -0.0420645 0.00690821 0.165488 -0.0683546 -0.0139615 -0.024343 0.997266
1305031107.098268 -0.0435491 0.00210396 0.149172 -0.0637924 -0.0133153 -0.02427 0.997579
1305031107.130308 -0.0432833 0.0015412 0.132925 -0.0587564 -0.014215 -0.0254308 0.997847
1305031107.165964 -0.0421426 -0.000184018 0.118296 -0.0569045 -0.0133163 -0.0258703 0.997956
1305031107.198208 -0.0429581 -0.00564414 0.104103 -0.05472 -0.0110245 -0.0266264 0.998086
1305031107.235026 -0.0418703 -0.00950812 0.0901083 -0.0482734 -0.00861132 -0.0278445 0.998409
1305031107.267071 -0.039938 -0.0114612 0.0762562 -0.0422789 -0.00624062 -0.0284156 0.998682
1305031107.299273 -0.0385185 -0.0150327 0.0629634 -0.0367707 -0.0027582 -0.0283232 0.998918
1305031107.334800 -0.0387425 -0.0196197 0.0499618 -0.0293942 0.00145069 -0.0286444 0.999156
1305031107.367183 -0.0375244 -0.0219902 0.0379055 -0.0181236 0.00487595 -0.0297179 0.999382
1305031107.399345 -0.0331725 -0.0199577 0.0276998 -0.00850741 0.00831902 -0.0307787 0.999455
1305031107.434926 -0.0316171 -0.0198102 0.0198757 -0.00175916 0.012636 -0.0313271 0.999428
1305031107.467141 -0.0266906 -0.0175603 0.0135999 0.00389523 0.0158002 -0.0315763 0.999369
1305031107.498426 -0.0233695 -0.0159097 0.00909301 0.00752577 0.0196836 -0.0307226 0.999306
1305031107.534830 -0.0184687 -0.0105792 0.00621017 0.00941052 0.0217119 -0.0302268 0.999263
1305031107.567015 -0.0154956 -0.0109433 0.00592071 0.00722959 0.0240187 -0.027635 0.999303
1305031107.598904 -0.0133841 -0.0118486 0.00619167 0.00737833 0.0257428 -0.0248199 0.999333
1305031107.634944 -0.00982889 -0.00603276 0.00682085 0.00824379 0.0262919 -0.0237966 0.999337
1305031107.667179 -0.010238 -0.00384805 0.00850078 0.0058666 0.028125 -0.0228158 0.999327
1305031107.699390 -0.00978541 -0.00117052 0.0105943 0.00531176 0.0286237 -0.0223644 0.999326
1305031107.735041 -0.00972673 0.00390242 0.0125078 0.00479645 0.0282107 -0.0215694 0.999358
1305031107.767895 -0.0116286 0.00873968 0.0145264 0.00260007 0.0271834 -0.021425 0.999397
1305031107.799544 -0.0123554 0.0094515 0.0166402 -0.000177426 0.0246196 -0.0225594 0.999442
1305031107.835751 -0.0117873 0.0112743 0.019124 -0.00233308 0.0230875 -0.0227364 0.999472
1305031107.863505 -0.0114691 0.0117153 0.0208678 -0.00487397 0.0234225 -0.0239318 0.999427
1305031107.899222 -0.010467 0.0118501 0.0224284 -0.00500355 0.0256687 -0.0277085 0.999274
1305031107.933609 -0.00778767 0.0108495 0.0243084 -0.00445496 0.0286041 -0.0294839 0.999146
1305031107.964840 -0.00260755 0.0108884 0.0255017 -0.00220632 0.031504 -0.0304019 0.999039
1305031107.998469 0.00453181 0.00973137 0.0267427 0.000103579 0.0352866 -0.0309143 0.998899
1305031108.034824 0.0132053 0.0103886 0.0282409 0.00371699 0.0396429 -0.0328911 0.998666
1305031108.067271 0.0261564 0.010706 0.0307466 0.00596323 0.0458617 -0.0302068 0.998473
1305031108.099365 0.0359011 0.0111178 0.0327266 0.00797227 0.0544303 -0.0256235 0.998157
1305031108.135281 0.0480566 0.0101996 0.0352386 0.0106222 0.0586641 -0.0259395 0.997884
1305031108.167357 0.0610026 0.0127055 0.0375467 0.0127292 0.06151 -0.0234339 0.99775
1305031108.199225 0.072906 0.0160158 0.0404664 0.0105936 0.0636307 -0.0205172 0.997706
1305031108.235213 0.0837771 0.0149915 0.0432965 0.00640586 0.0656482 -0.0216934 0.997586
1305031108.267660 0.0970204 0.012573 0.0459812 0.00573988 0.0692016 -0.0227916 0.997326
1305031108.299547 0.109986 0.0161906 0.0481726 0.00564379 0.0721282 -0.0220086 0.997137
1305031108.335019 0.120109 0.0205467 0.0505448 0.00227535 0.0719202 -0.0210813 0.997185
1305031108.367285 0.130975 0.0224256 0.0536403 -0.00314963 0.070326 -0.0176894 0.997362
1305031108.399284 0.141642 0.0235702 0.0567889 -0.00837465 0.066958 -0.0123105 0.997645
1305031108.435023 0.153468 0.0255646 0.0591836 -0.0123828 0.0637038 -0.00659531 0.99787
1305031108.467680 0.164974 0.0259464 0.0612021 -0.0169369 0.0629691 -3.8429e-05 0.997872
1305031108.503548 0.176677 0.0261637 0.0623786 -0.0186953 0.0632481 0.0065636 0.997801
1305031108.534811 0.189632 0.0259044 0.0624901 -0.0166013 0.0684078 0.00961243 0.997473
1305031108.567154 0.202347 0.0258151 0.0630954 -0.0120182 0.0751548 0.0082719 0.997065
1305031108.603547 0.214609 0.0294363 0.0634409 -0.00888594 0.0792013 0.00666808 0.996797
1305031108.634212 0.227974 0.029807 0.0643677 -0.00874157 0.0852786 0.0076649 0.996289
1305031108.667189 0.240034 0.0327367 0.0649862 -0.00865852 0.0899906 0.00950769 0.99586
1305031108.703346 0.254316 0.036698 0.0652735 -0.0104378 0.0945675 0.0127482 0.995382
1305031108.735052 0.2653 0.0367606 0.0651511 -0.0136495 0.100959 0.0164394 0.994661
1305031108.767031 0.275168 0.0373564 0.0648144 -0.0142434 0.105157 0.0186393 0.994179
1305031108.803370 0.285147 0.038957 0.064015 -0.0150556 0.107602 0.0211738 0.993854
1305031108.835163 0.292905 0.0382234 0.0628396 -0.0160648 0.108535 0.0267979 0.993601
1305031108.867534 0.298962 0.0375488 0.0611378 -0.0148172 0.106598 0.0328205 0.99365
1305031108.903540 0.302067 0.0371109 0.0590917 -0.0128506 0.102461 0.0385253 0.993908
1305031108.935116 0.302885 0.0340751 0.0562952 -0.0103593 0.0991235 0.043015 0.994091
1305031108.967245 0.301068 0.034336 0.0540451 -0.0051668 0.0954258 0.0430301 0.994493
1305031109.003064 0.295381 0.0358209 0.0530651 -0.00259568 0.0911832 0.0409488 0.994988
1305031109.034955 0.29068 0.0361298 0.0511588 -0.00274668 0.0895701 0.0397659 0.995183
1305031109.067091 0.283688 0.0364819 0.0505795 -0.00193043 0.0886351 0.0362466 0.995403
1305031109.103294 0.275112 0.0398228 0.0501276 -0.00344232 0.0875041 0.031786 0.995651
1305031109.134968 0.265838 0.0379065 0.0496269 -0.00751325 0.0866965 0.0295271 0.995769
1305031109.165848 0.253804 0.0385478 0.04955 -0.00743225 0.0840677 0.0270543 0.996065
1305031109.203388 0.243035 0.0425076 0.0497334 -0.00792414 0.0786087 0.0251336 0.996557
1305031109.234324 0.230975 0.0475138 0.0511334 -0.0133312 0.0751645 0.0288797 0.996664
1305031109.266325 0.21709 0.0485539 0.0517605 -0.0202267 0.072723 0.03422 0.99656
1305031109.303457 0.202346 0.0507111 0.051654 -0.0185314 0.0680653 0.0386139 0.996761
1305031109.334602 0.188604 0.0547597 0.0523236 -0.0159055 0.0595131 0.0391673 0.997332
1305031109.364882 0.17354 0.05746 0.052863 -0.0184791 0.051911 0.0386911 0.997731
1305031109.403386 0.156928 0.0582897 0.0532091 -0.0198742 0.0458811 0.0378716 0.998031
1305031109.434469 0.142501 0.062408 0.0536538 -0.0197806 0.0405845 0.0324427 0.998453
1305031109.467362 0.126476 0.063948 0.0539347 -0.0234002 0.0374695 0.0267963 0.998664
1305031109.503193 0.111637 0.0625095 0.0534601 -0.026306 0.0362688 0.0233159 0.998724
1305031109.535715 0.0973105 0.060067 0.0524939 -0.0266171 0.034775 0.0192458 0.998855
1305031109.567452 0.084678 0.0601835 0.0513547 -0.0248555 0.0336021 0.0171309 0.998979
1305031109.603601 0.0717933 0.0611206 0.0508079 -0.0245231 0.0329413 0.0161194 0.999026
1305031109.635323 0.0581516 0.0623723 0.0502879 -0.0243857 0.0320452 0.0139318 0.999092
1305031109.667570 0.0460698 0.063735 0.050441 -0.0252039 0.0314321 0.0140564 0.999089
1305031109.703265 0.0334555 0.066139 0.0511498 -0.0269643 0.0303376 0.0156358 0.999054
1305031109.735059 0.0204412 0.0685251 0.05269 -0.029736 0.0275985 0.0151052 0.999063
1305031109.767470 0.00850268 0.069319 0.0547924 -0.0338859 0.0248611 0.0146128 0.99901
1305031109.803396 -0.0050914 0.0704643 0.0568938 -0.0361511 0.0242275 0.0149568 0.998941
1305031109.834910 -0.0181101 0.0730301 0.0592533 -0.0381493 0.0231427 0.0143418 0.998901
1305031109.871271 -0.0331532 0.0760736 0.0620246 -0.0406692 0.0217429 0.0144028 0.998832
1305031109.900535 -0.0496514 0.0767999 0.0652948 -0.0441138 0.0193658 0.012554 0.99876
1305031109.934960 -0.0668266 0.0782552 0.0689602 -0.0442512 0.0161204 0.00779123 0.99886
1305031109.970213 -0.0830769 0.0847675 0.0724223 -0.0453696 0.0152049 0.00428776 0.998845
1305031109.999657 -0.0995163 0.0847417 0.0769303 -0.049403 0.0142505 -0.00132192 0.998676
1305031110.031356 -0.114601 0.0871935 0.0807463 -0.0513751 0.0133455 -0.00828316 0.998556
1305031110.068125 -0.128655 0.087762 0.0846312 -0.0541301 0.0138049 -0.0141143 0.998339
1305031110.101397 -0.141839 0.09095 0.0880581 -0.0562805 0.0138396 -0.0192438 0.998134
1305031110.132317 -0.155456 0.0884445 0.0921113 -0.0620369 0.0123787 -0.0226241 0.997741
1305031110.168323 -0.167773 0.0883572 0.0954085 -0.062918 0.0088045 -0.0253531 0.997658
1305031110.203162 -0.179721 0.0924011 0.0981046 -0.0644381 0.00605588 -0.0266859 0.997546
1305031110.234909 -0.191055 0.0890171 0.100889 -0.0689956 0.00300882 -0.0277447 0.997227
1305031110.271394 -0.203427 0.0887032 0.102545 -0.0689872 -0.00027918 -0.0268447 0.997256
1305031110.303648 -0.214032 0.0893946 0.103745 -0.0669589 -0.00345618 -0.0277854 0.997363
1305031110.331570 -0.225697 0.0913662 0.104617 -0.0642873 -0.00682969 -0.0289308 0.997489
1305031110.371607 -0.23888 0.0936292 0.105242 -0.0631887 -0.0109024 -0.0304414 0.997478
1305031110.403480 -0.253794 0.0951949 0.106173 -0.0621159 -0.0150654 -0.0333028 0.997399
1305031110.435647 -0.266831 0.101846 0.10639 -0.0615277 -0.0207841 -0.036002 0.997239
1305031110.470588 -0.281022 0.103467 0.107546 -0.0660435 -0.0252101 -0.0396471 0.99671
1305031110.502539 -0.297733 0.102033 0.109246 -0.0691277 -0.0300247 -0.0444526 0.996165
1305031110.534532 -0.309747 0.104242 0.110317 -0.0695476 -0.0368876 -0.0491746 0.995683
1305031110.571676 -0.322126 0.109426 0.111109 -0.0708866 -0.0421306 -0.0530658 0.99518
1305031110.604289 -0.334703 0.111177 0.112567 -0.0759926 -0.0460855 -0.0569991 0.994411
1305031110.635485 -0.345025 0.107035 0.114121 -0.0806807 -0.0485495 -0.0615556 0.993652
1305031110.671775 -0.353199 0.108054 0.114577 -0.0790525 -0.0507233 -0.0654967 0.993422
1305031110.699957 -0.358604 0.113489 0.113996 -0.0792006 -0.053572 -0.0682711 0.993074
1305031110.735440 -0.366745 0.11091 0.115316 -0.083053 -0.054401 -0.0694636 0.992632
1305031110.769734 -0.373042 0.109993 0.115796 -0.0837084 -0.0554336 -0.0703988 0.992454
1305031110.799684 -0.37615 0.111868 0.115398 -0.0837482 -0.056854 -0.0716595 0.99228
1305031110.835248 -0.378971 0.112876 0.115555 -0.0845374 -0.0574489 -0.0739208 0.992012
1305031110.871293 -0.38112 0.111773 0.115777 -0.0864021 -0.0595986 -0.0757634 0.991586
1305031110.901900 -0.379676 0.112306 0.115862 -0.0863743 -0.0616542 -0.0755161 0.991481
1305031110.938668 -0.378725 0.112368 0.116113 -0.0872116 -0.063202 -0.0759258 0.991279
1305031110.971316 -0.374522 0.113872 0.115942 -0.0866237 -0.0649095 -0.0763566 0.991188
1305031111.003669 -0.367253 0.116551 0.115725 -0.0864909 -0.0635332 -0.0766703 0.991264
1305031111.039669 -0.36002 0.114246 0.116212 -0.0880703 -0.0583782 -0.0754381 0.991537
1305031111.071605 -0.351681 0.116557 0.115745 -0.0864576 -0.0542921 -0.0733708 0.992066
1305031111.103658 -0.342697 0.117619 0.115528 -0.0880916 -0.0529943 -0.0711277 0.992155
1305031111.139211 -0.334334 0.11439 0.115535 -0.0894105 -0.0505735 -0.0675594 0.992413
1305031111.170937 -0.325106 0.112308 0.114888 -0.0877686 -0.0482243 -0.068112 0.992639
1305031111.199395 -0.311569 0.11273 0.113678 -0.0847665 -0.0442111 -0.0678665 0.993103
1305031111.236670 -0.300387 0.112653 0.112385 -0.0832793 -0.0374605 -0.0654197 0.993671
1305031111.269939 -0.290526 0.107566 0.111623 -0.0833477 -0.0361256 -0.0652624 0.993725
1305031111.302311 -0.275869 0.107215 0.110202 -0.0783121 -0.0340339 -0.0625609 0.994382
1305031111.339460 -0.265943 0.112689 0.108893 -0.0746077 -0.0309367 -0.0583121 0.995026
1305031111.370908 -0.254823 0.10858 0.108604 -0.0792603 -0.0345953 -0.0568493 0.99463
1305031111.402911 -0.240211 0.101905 0.10872 -0.0787616 -0.0367411 -0.0547805 0.994709
1305031111.438948 -0.228847 0.105529 0.10757 -0.0739879 -0.0396957 -0.0555223 0.994921
1305031111.470919 -0.213011 0.102464 0.107027 -0.074663 -0.0433277 -0.0603665 0.994437
1305031111.503531 -0.213011 0.102464 0.107027 -0.074663 -0.0433277 -0.0603665 0.994437
1305031111.539482 -0.197571 0.0998776 0.105656 -0.0713908 -0.0356178 -0.0594005 0.995041
1305031111.571320 -0.179659 0.0973929 0.104736 -0.0669212 -0.0304038 -0.0577568 0.995621
1305031111.603391 -0.179659 0.0973929 0.104736 -0.0669212 -0.0304038 -0.0577568 0.995621
1305031111.639405 -0.166972 0.0909314 0.105115 -0.069316 -0.0296871 -0.0505547 0.995871
1305031111.671252 -0.151076 0.087946 0.103797 -0.0645034 -0.0285218 -0.043254 0.996572
1305031111.703791 -0.135238 0.0942725 0.102063 -0.0582908 -0.0211655 -0.0375364 0.997369
1305031111.739504 -0.117954 0.0886419 0.101388 -0.0585834 -0.014062 -0.0374958 0.997479
1305031111.771228 -0.117954 0.0886419 0.101388 -0.0585834 -0.014062 -0.0374958 0.997479
1305031111.800077 -0.100601 0.088918 0.10088 -0.0551758 0.00117552 -0.0357011 0.997838
1305031111.839333 -0.0861848 0.0853227 0.100594 -0.0527345 0.0113783 -0.0356326 0.997908
1305031111.870985 -0.0724059 0.0887721 0.0993694 -0.049092 0.0194142 -0.032385 0.99808
1305031111.903356 -0.0581253 0.0855371 0.100055 -0.0510274 0.022206 -0.0276889 0.998066
1305031111.939680 -0.0454976 0.0811145 0.101244 -0.0508282 0.019276 -0.020973 0.998301
1305031111.971494 -0.0325292 0.0820726 0.100531 -0.0486047 0.0171744 -0.0120627 0.998598
1305031112.003596 -0.0168862 0.0846732 0.0993165 -0.0460499 0.0205662 -0.00746695 0.998699
1305031112.039412 -0.00364291 0.0829027 0.0985504 -0.0432455 0.0287223 -0.00923322 0.998609
1305031112.070731 0.0132114 0.0814209 0.0979432 -0.0397487 0.0363226 -0.0120775 0.998476
1305031112.102495 0.0277075 0.078721 0.0975956 -0.0380455 0.0468967 -0.0122627 0.9981
1305031112.139107 0.0408277 0.0759137 0.0967451 -0.0368929 0.0516448 -0.0181987 0.997818
1305031112.169345 0.0565032 0.0763776 0.0963591 -0.0364622 0.0582668 -0.023211 0.997365
1305031112.207733 0.0690291 0.0724362 0.0967539 -0.0396096 0.0704925 -0.0272733 0.996352
1305031112.235657 0.0816174 0.0676542 0.0960966 -0.0382855 0.0806292 -0.032432 0.99548
1305031112.269488 0.0966175 0.0633715 0.0955052 -0.032927 0.0880175 -0.0361763 0.994917
1305031112.303591 0.108461 0.0585041 0.0948555 -0.0293595 0.0918684 -0.0380064 0.994612
1305031112.335789 0.121572 0.0538794 0.0939539 -0.0239907 0.0923383 -0.0383075 0.994701
1305031112.371231 0.134484 0.0518201 0.0932012 -0.0188967 0.0911098 -0.0355866 0.995025
1305031112.407491 0.146641 0.0502589 0.0928478 -0.0157635 0.0886356 -0.031568 0.995439
1305031112.439064 0.158479 0.0477941 0.092517 -0.0146196 0.0868205 -0.0268134 0.995756
1305031112.471066 0.170618 0.0459944 0.0915102 -0.0123068 0.0853967 -0.0197888 0.996074
1305031112.506669 0.1804 0.0456767 0.0906973 -0.0093584 0.0830749 -0.0101225 0.996448
1305031112.538310 0.19055 0.0450587 0.0897278 -0.00729579 0.0794748 -0.00457262 0.9968
1305031112.567470 0.199039 0.045187 0.0891753 -0.00460307 0.0764771 -0.000145432 0.997061
1305031112.606742 0.208446 0.0463448 0.0888303 -0.00258039 0.0735657 0.00535058 0.997273
1305031112.639418 0.218285 0.04842 0.0881881 -0.00325383 0.0759614 0.0120547 0.997033
1305031112.671325 0.225784 0.0493345 0.0883563 -0.00521447 0.0820564 0.0182286 0.996447
1305031112.707325 0.232819 0.0512068 0.0882154 -0.00632736 0.0864818 0.0208844 0.996014
1305031112.739546 0.236016 0.0550201 0.0893493 -0.0076464 0.090224 0.023239 0.995621
1305031112.771523 0.239675 0.0615453 0.0903085 -0.0118003 0.0930231 0.0263586 0.995245
1305031112.807539 0.239775 0.0622774 0.0913359 -0.016572 0.0958934 0.0282957 0.994851
1305031112.839560 0.234999 0.0629239 0.0937002 -0.0178396 0.0947597 0.0273291 0.994965
1305031112.871083 0.232314 0.0648976 0.0952747 -0.020985 0.0903846 0.0268048 0.995325
1305031112.907246 0.22858 0.0663758 0.0963645 -0.0237649 0.0883277 0.0299708 0.995357
1305031112.939323 0.221799 0.0662431 0.097401 -0.0264242 0.0850505 0.0312526 0.995536
1305031112.971164 0.213637 0.0659054 0.0976101 -0.0279701 0.0810953 0.0295953 0.995874
1305031113.007166 0.205157 0.0663109 0.0974066 -0.0288 0.0779506 0.0290157 0.996119
1305031113.039492 0.197112 0.0680253 0.0970336 -0.031285 0.0766585 0.0285526 0.996157
1305031113.071210 0.186559 0.0667451 0.0962957 -0.0350336 0.0765474 0.0259479 0.996112
1305031113.107662 0.175009 0.0664136 0.0950411 -0.0332744 0.0742157 0.0209674 0.996466
1305031113.139664 0.163038 0.0666148 0.0944778 -0.033075 0.0710474 0.0171189 0.996777
1305031113.171088 0.151622 0.0679687 0.0936216 -0.036255 0.0699859 0.016396 0.996754
1305031113.207181 0.137361 0.0675541 0.0927137 -0.0365501 0.0682571 0.0186296 0.996824
1305031113.239732 0.123539 0.0693347 0.0920544 -0.0348353 0.0631612 0.0203394 0.997188
1305031113.271470 0.108867 0.0714688 0.0920749 -0.0369779 0.0581477 0.0215366 0.99739
1305031113.307323 0.091697 0.0701219 0.09141 -0.0367151 0.0542209 0.0252169 0.997535
1305031113.339396 0.0739756 0.0707268 0.0910212 -0.030161 0.0478592 0.0276445 0.998016
1305031113.371377 0.0581831 0.0731009 0.0933172 -0.028256 0.039461 0.0240418 0.998532
1305031113.407351 0.0387841 0.0710038 0.0953416 -0.0318138 0.033355 0.0230092 0.998672
1305031113.439787 0.0179534 0.0716153 0.0966691 -0.029116 0.0289085 0.0213263 0.99893
1305031113.475657 0.000441763 0.0740779 0.0991719 -0.0288266 0.0227491 0.0137938 0.99923
1305031113.507987 -0.0166141 0.0727897 0.10186 -0.033583 0.0169431 0.00935979 0.999248
1305031113.539417 -0.0352528 0.0724826 0.103908 -0.0369031 0.0126855 0.00802147 0.999206
1305031113.574964 -0.0552215 0.0720989 0.10511 -0.0379671 0.00908519 0.00508537 0.999225
1305031113.607216 -0.0730683 0.0759358 0.106336 -0.0378647 0.00653299 3.11199e-05 0.999262
1305031113.638418 -0.0898329 0.0769282 0.107699 -0.0403635 0.00601926 -0.00389969 0.999159
1305031113.674244 -0.104805 0.0767081 0.109041 -0.0429858 0.00679631 -0.00765192 0.999023
1305031113.704256 -0.120199 0.0775043 0.109951 -0.0435227 0.00812842 -0.0116114 0.998952
1305031113.736263 -0.133234 0.0786012 0.110931 -0.042916 0.00960553 -0.0172397 0.998884
1305031113.774168 -0.147078 0.0791924 0.112232 -0.0424962 0.012423 -0.0225639 0.998765
1305031113.805795 -0.160536 0.0796049 0.113875 -0.0413337 0.0143642 -0.0256687 0.998712
1305031113.838437 -0.173334 0.0825717 0.115299 -0.0400342 0.0159597 -0.0276999 0.998687
1305031113.874200 -0.188084 0.0816533 0.117544 -0.0414069 0.0185831 -0.0310279 0.998488
1305031113.906361 -0.202529 0.0803045 0.119461 -0.039392 0.0183027 -0.0333721 0.998499
1305031113.938561 -0.214468 0.0836258 0.120563 -0.0360896 0.0177825 -0.0354117 0.998563
1305031113.974245 -0.22865 0.0847242 0.122033 -0.0330466 0.0209244 -0.0385843 0.99849
1305031114.007082 -0.244385 0.0865576 0.123478 -0.0294913 0.0230444 -0.0438872 0.998335
1305031114.038546 -0.259015 0.087361 0.125603 -0.0270306 0.0231313 -0.0477985 0.998223
1305031114.074298 -0.276619 0.0871397 0.127982 -0.0259772 0.0201924 -0.0479541 0.998307
1305031114.106402 -0.293301 0.090276 0.129465 -0.0227941 0.0163217 -0.049134 0.998399
1305031114.138562 -0.309535 0.093926 0.131664 -0.0209161 0.0121273 -0.0525488 0.998326
1305031114.174114 -0.325152 0.0935202 0.134134 -0.020927 0.00927989 -0.055519 0.998195
1305031114.206255 -0.338997 0.0970289 0.136159 -0.01667 0.008772 -0.058401 0.998115
1305031114.238473 -0.353295 0.103295 0.13877 -0.0155679 0.00818335 -0.0613945 0.997959
1305031114.271075 -0.371933 0.101613 0.143113 -0.0178116 0.00629642 -0.0630021 0.997835
1305031114.306710 -0.387763 0.103705 0.146151 -0.0178265 -1.26329e-05 -0.0642131 0.997777
1305031114.338919 -0.399588 0.104876 0.148445 -0.0197266 -0.0071583 -0.0665127 0.997565
1305031114.374307 -0.409302 0.104924 0.150454 -0.0211259 -0.0114214 -0.0706791 0.99721
1305031114.406591 -0.421969 0.104816 0.1528 -0.0209553 -0.0116269 -0.0749471 0.9969
1305031114.438540 -0.435881 0.104887 0.154822 -0.020807 -0.01315 -0.0783793 0.99662
1305031114.474489 -0.451032 0.103829 0.157438 -0.0220109 -0.0167899 -0.0790387 0.996487
1305031114.506573 -0.46308 0.104444 0.159211 -0.0223185 -0.023482 -0.0805989 0.99622
1305031114.539953 -0.469099 0.106883 0.160674 -0.023785 -0.0309057 -0.0821086 0.99586
1305031114.575185 -0.473544 0.103824 0.162635 -0.0275484 -0.0338667 -0.0807147 0.995781
1305031114.607560 -0.479437 0.10562 0.163762 -0.0282303 -0.0340173 -0.077506 0.996011
1305031114.644150 -0.484402 0.108027 0.165088 -0.0310475 -0.0350452 -0.0750893 0.996077
1305031114.675655 -0.490963 0.10487 0.167201 -0.0365861 -0.0386463 -0.0751163 0.995754
1305031114.706141 -0.496493 0.102593 0.168366 -0.0391368 -0.0435583 -0.0740151 0.995536
1305031114.743276 -0.499271 0.100827 0.168338 -0.0398985 -0.0467654 -0.0741267 0.995352
1305031114.774847 -0.500584 0.0995249 0.167905 -0.0391173 -0.0493066 -0.0784922 0.994926
1305031114.807310 -0.50008 0.102445 0.166635 -0.0365265 -0.0501441 -0.0809854 0.994783
1305031114.842137 -0.498632 0.103624 0.165828 -0.0367957 -0.0501446 -0.0821561 0.994677
1305031114.875056 -0.496942 0.105682 0.165243 -0.0360545 -0.0506563 -0.0836078 0.994557
1305031114.907504 -0.49365 0.107691 0.165096 -0.0363449 -0.0505989 -0.0823785 0.994652
1305031114.943264 -0.488541 0.111952 0.164836 -0.0366397 -0.0515533 -0.0837608 0.994477
1305031114.975411 -0.480786 0.114157 0.1646 -0.0388801 -0.0503244 -0.084827 0.994364
1305031115.007179 -0.472497 0.119243 0.16488 -0.0399357 -0.0493731 -0.0854845 0.994314
1305031115.043530 -0.462088 0.121101 0.165594 -0.0441904 -0.0488221 -0.0857163 0.994141
1305031115.071577 -0.451283 0.119694 0.167011 -0.0469959 -0.0461392 -0.0860355 0.994113
1305031115.107074 -0.440634 0.12209 0.167874 -0.048635 -0.0434557 -0.0861816 0.994142
1305031115.143294 -0.423007 0.121218 0.168973 -0.0513904 -0.039544 -0.0856774 0.994211
1305031115.172642 -0.412079 0.121011 0.170893 -0.0518367 -0.0325594 -0.0836436 0.994614
1305031115.206453 -0.39843 0.120003 0.172435 -0.0535484 -0.0315597 -0.0813989 0.994742
1305031115.240975 -0.38118 0.114487 0.174644 -0.053046 -0.0293095 -0.0781604 0.995097
1305031115.273468 -0.363816 0.116119 0.176549 -0.0476101 -0.0267532 -0.0754426 0.995654
1305031115.305534 -0.344724 0.115624 0.178217 -0.0479486 -0.0261397 -0.0703608 0.996026
1305031115.343426 -0.323168 0.11096 0.181252 -0.0458815 -0.0209024 -0.066858 0.996488
1305031115.375054 -0.304978 0.118335 0.183292 -0.0412204 -0.0148381 -0.0624592 0.997086
1305031115.406164 -0.292681 0.119517 0.186 -0.0472499 -0.016417 -0.0556381 0.997197
1305031115.443040 -0.273039 0.117163 0.188129 -0.0526117 -0.023401 -0.0525657 0.996956
1305031115.474863 -0.254648 0.117617 0.190069 -0.0553119 -0.0237877 -0.0466255 0.997096
1305031115.507440 -0.236524 0.116033 0.191378 -0.0597042 -0.0243978 -0.0408963 0.99708
1305031115.543620 -0.2152 0.112826 0.191733 -0.061181 -0.0188529 -0.0369798 0.997263
1305031115.575290 -0.192321 0.109289 0.191165 -0.060807 -0.00811612 -0.0329346 0.997573
1305031115.607428 -0.174472 0.105735 0.189456 -0.0610553 7.50451e-05 -0.026744 0.997776
1305031115.643254 -0.153932 0.102787 0.187745 -0.0601574 0.00486737 -0.0208728 0.997959
1305031115.675106 -0.135924 0.0997133 0.185825 -0.0590768 0.00968662 -0.0117043 0.998138
1305031115.706301 -0.119866 0.0992664 0.182854 -0.0575289 0.00976694 -0.00117873 0.998295
1305031115.742905 -0.0999289 0.101204 0.180134 -0.0556983 0.0110732 0.00517914 0.998373
1305031115.774329 -0.0799585 0.0985979 0.177301 -0.0549578 0.0182987 0.0100294 0.998271
1305031115.806425 -0.0631909 0.0995961 0.174002 -0.0527351 0.0266443 0.0177462 0.998095
1305031115.841936 -0.0434022 0.102103 0.171433 -0.0516975 0.034458 0.0235835 0.997789
1305031115.875347 -0.026797 0.0989563 0.170275 -0.0535279 0.041968 0.0303631 0.997222
1305031115.910716 -0.0121718 0.0984886 0.168956 -0.0511052 0.0451388 0.0365499 0.997003
1305031115.942015 0.00312753 0.102695 0.167935 -0.0480959 0.0496442 0.0417435 0.996735
1305031115.973799 0.0175632 0.104278 0.167873 -0.0483555 0.0552267 0.0471418 0.996187
1305031116.010843 0.0317758 0.10735 0.16804 -0.048672 0.0613121 0.0519319 0.995578
1305031116.042618 0.0467669 0.10867 0.168724 -0.0503356 0.0714692 0.0542514 0.994694
1305031116.071527 0.0607007 0.110944 0.16957 -0.0526581 0.0820656 0.05662 0.993623
1305031116.108247 0.0737751 0.114372 0.170853 -0.0571373 0.0914859 0.060484 0.992324
1305031116.143447 0.0872484 0.114041 0.172227 -0.063165 0.100332 0.0642384 0.990867
1305031116.174891 0.0985177 0.114321 0.173592 -0.0657593 0.106569 0.0677035 0.989816
1305031116.211320 0.110871 0.117529 0.173818 -0.0673349 0.110678 0.0704556 0.989066
1305031116.242720 0.123637 0.117607 0.174039 -0.070838 0.115408 0.0744634 0.987987
1305031116.274421 0.134892 0.116278 0.173791 -0.0718074 0.12207 0.077815 0.986857
1305031116.310686 0.144528 0.118702 0.172084 -0.0718457 0.130522 0.0809697 0.985518
1305031116.342459 0.154043 0.117318 0.170552 -0.0747955 0.137316 0.0851453 0.984023
1305031116.374490 0.160549 0.112876 0.169229 -0.0738777 0.141774 0.08827 0.983184
1305031116.409631 0.166414 0.112045 0.166703 -0.0688863 0.143168 0.0880074 0.983368
1305031116.442496 0.171176 0.113489 0.164282 -0.0674255 0.143718 0.0934294 0.982889
1305031116.473394 0.172387 0.111547 0.162862 -0.0703537 0.145667 0.102562 0.981485
1305031116.510576 0.170552 0.110923 0.16088 -0.0690357 0.146588 0.103861 0.981305
1305031116.542695 0.165347 0.109077 0.159753 -0.0680395 0.146533 0.0991867 0.981866
1305031116.574389 0.158504 0.108968 0.158901 -0.0669097 0.147007 0.094796 0.982306
1305031116.610891 0.147975 0.107914 0.159109 -0.0677031 0.14533 0.092355 0.982734
1305031116.642664 0.134777 0.106862 0.159548 -0.0667976 0.141087 0.0864731 0.983949
1305031116.674523 0.121544 0.10562 0.160401 -0.0665853 0.136439 0.0794877 0.985207
1305031116.710942 0.105266 0.103283 0.161365 -0.0677309 0.133686 0.0726028 0.986037
1305031116.740575 0.0887205 0.102606 0.162389 -0.0691695 0.130717 0.0618103 0.98707
1305031116.775059 0.0722081 0.104091 0.162744 -0.0707758 0.127887 0.0516081 0.987913
1305031116.811343 0.0560815 0.104902 0.162704 -0.0726728 0.124999 0.0420577 0.988598
1305031116.840370 0.0381983 0.105352 0.162763 -0.0718458 0.119724 0.0342598 0.989611
1305031116.871726 0.0201264 0.107472 0.163044 -0.0710125 0.111048 0.0273601 0.990897
1305031116.907955 0.00177081 0.110484 0.164248 -0.0709148 0.102891 0.0225901 0.991904
1305031116.940626 -0.0174695 0.114587 0.165329 -0.069382 0.0927173 0.0172804 0.993122
1305031116.974656 -0.0361396 0.118252 0.167013 -0.0697134 0.0811689 0.00777574 0.994229
1305031117.008812 -0.0525997 0.119731 0.168734 -0.0688609 0.0689209 -0.00456749 0.995232
1305031117.042065 -0.0673481 0.123048 0.170804 -0.0676026 0.0575695 -0.012791 0.995968
1305031117.071181 -0.0845186 0.128553 0.172103 -0.0678277 0.0495171 -0.0180555 0.996304
1305031117.110454 -0.101511 0.131372 0.173653 -0.0701325 0.0414661 -0.0212351 0.996449
1305031117.142383 -0.117317 0.135449 0.175525 -0.071177 0.0328 -0.020475 0.996714
1305031117.175059 -0.129598 0.140563 0.177181 -0.0727208 0.024967 -0.0229119 0.996776
1305031117.207753 -0.142816 0.143333 0.178884 -0.0750662 0.019251 -0.0264907 0.996641
1305031117.241340 -0.150306 0.14794 0.180431 -0.0760362 0.0160047 -0.0276351 0.996594
1305031117.276516 -0.154732 0.151338 0.181815 -0.079518 0.0159138 -0.031144 0.99622
1305031117.310121 -0.158775 0.150028 0.183213 -0.0842817 0.0182953 -0.034469 0.995678
1305031117.341044 -0.161868 0.146195 0.184594 -0.0881766 0.0192487 -0.0352884 0.995293
1305031117.375067 -0.163576 0.141741 0.185051 -0.0898769 0.0191155 -0.0362866 0.995108
1305031117.408538 -0.166324 0.137306 0.18487 -0.089679 0.0193281 -0.0352497 0.995159
1305031117.442208 -0.167044 0.132219 0.184677 -0.0881087 0.0177363 -0.0341096 0.995369
1305031117.475651 -0.167405 0.128268 0.183937 -0.0858212 0.016612 -0.0326651 0.995636
1305031117.508882 -0.168231 0.120215 0.184118 -0.0845806 0.0154279 -0.0313754 0.995803
1305031117.539736 -0.168582 0.11338 0.183968 -0.0808698 0.0140135 -0.0303979 0.996162
1305031117.577860 -0.170059 0.108539 0.184063 -0.0767574 0.0129188 -0.0313475 0.996473
1305031117.607777 -0.171191 0.103696 0.18479 -0.0744473 0.0115447 -0.0313011 0.996667
1305031117.643284 -0.172292 0.0958324 0.186848 -0.0738211 0.00996263 -0.029829 0.996776
1305031117.675483 -0.172429 0.0894799 0.189404 -0.0721741 0.00748722 -0.0290673 0.99694
1305031117.711215 -0.172441 0.0813993 0.192536 -0.0731547 0.00498616 -0.0269396 0.996944
1305031117.742995 -0.171767 0.0712641 0.196262 -0.0740492 0.00227974 -0.0241152 0.99696
1305031117.778969 -0.171646 0.0626042 0.199789 -0.0735591 -5.89373e-05 -0.0215167 0.997059
1305031117.811060 -0.171037 0.0533341 0.203546 -0.0746696 -0.00247181 -0.0195904 0.997013
1305031117.843307 -0.170166 0.041332 0.207499 -0.0750062 -0.00376083 -0.0186005 0.997002
1305031117.879467 -0.170647 0.0332502 0.211015 -0.072498 -0.00142031 -0.0181874 0.997202
1305031117.908762 -0.171936 0.022669 0.215381 -0.0728532 0.00150576 -0.0176126 0.997186
1305031117.943272 -0.172502 0.0126455 0.219953 -0.0720075 0.00296587 -0.0180521 0.997236
1305031117.979263 -0.173339 0.00493863 0.224564 -0.0719655 0.0052249 -0.0182757 0.997226
1305031118.011013 -0.173909 -0.00598873 0.22971 -0.0751625 0.00609895 -0.0180371 0.996989
1305031118.043549 -0.17443 -0.0172889 0.234847 -0.0759011 0.0073947 -0.0172861 0.996938
1305031118.079369 -0.174353 -0.026635 0.239683 -0.0753425 0.00832742 -0.0189785 0.996942
1305031118.110863 -0.173979 -0.0370994 0.244457 -0.0753752 0.0107054 -0.0219774 0.996856
1305031118.142285 -0.175033 -0.0466886 0.248623 -0.0742457 0.0164318 -0.0224894 0.996851
1305031118.178170 -0.176195 -0.0561265 0.252547 -0.0736192 0.0198965 -0.0247752 0.99678
1305031118.210782 -0.177236 -0.0691968 0.257316 -0.0731452 0.0229759 -0.0244537 0.996757
1305031118.242948 -0.178949 -0.0788071 0.260569 -0.0699911 0.0238329 -0.0230531 0.996996
1305031118.278991 -0.18003 -0.0893115 0.263839 -0.0671823 0.0234562 -0.0235837 0.997186
1305031118.310731 -0.181056 -0.100713 0.267402 -0.0632279 0.0240566 -0.0229354 0.997445
1305031118.342079 -0.179597 -0.107906 0.26989 -0.0572326 0.0234941 -0.0241655 0.997792
1305031118.377003 -0.179822 -0.116228 0.272924 -0.0538174 0.0255872 -0.025569 0.997895
1305031118.408818 -0.181386 -0.122841 0.275968 -0.0505546 0.0251982 -0.0270047 0.998038
1305031118.445703 -0.180053 -0.125898 0.278494 -0.0485761 0.0232528 -0.0263826 0.9982
1305031118.477869 -0.178838 -0.129894 0.281133 -0.0488252 0.0229149 -0.0240826 0.998254
1305031118.510201 -0.177477 -0.13145 0.282897 -0.0476594 0.0220341 -0.0217556 0.998384
1305031118.545199 -0.176939 -0.127268 0.283299 -0.0460078 0.0224577 -0.0224661 0.998436
1305031118.576377 -0.175743 -0.125426 0.284074 -0.0481451 0.0227275 -0.0238217 0.998298
1305031118.610869 -0.175024 -0.121113 0.283852 -0.0490348 0.0241936 -0.0251193 0.998188
1305031118.645331 -0.174215 -0.114679 0.282789 -0.0493115 0.0260432 -0.0284658 0.998038
1305031118.675082 -0.173219 -0.106682 0.281283 -0.0510338 0.0271882 -0.0309467 0.997847
1305031118.710140 -0.172348 -0.100969 0.279938 -0.0535486 0.0275749 -0.0328845 0.997643
1305031118.746801 -0.174359 -0.0948882 0.277662 -0.0531377 0.026861 -0.0335004 0.997664
1305031118.778790 -0.174236 -0.0819277 0.273809 -0.051464 0.0231195 -0.0326279 0.997874
1305031118.810703 -0.173435 -0.0720627 0.27027 -0.0560433 0.0205762 -0.0339458 0.997639
1305031118.846774 -0.173094 -0.0685846 0.267019 -0.0575901 0.0200666 -0.0332009 0.997586
1305031118.875402 -0.171397 -0.0526352 0.259979 -0.0520894 0.0206066 -0.0348281 0.997822
1305031118.909608 -0.170981 -0.0402114 0.254169 -0.0537836 0.0217471 -0.0391761 0.997547
1305031118.947009 -0.171359 -0.0309883 0.248904 -0.0544506 0.0229137 -0.0403068 0.997439
1305031118.979394 -0.17179 -0.0162714 0.242198 -0.0529484 0.0238276 -0.044385 0.997326
1305031119.009712 -0.173091 -0.00323513 0.236214 -0.0553 0.02414 -0.0472223 0.99706
1305031119.047180 -0.175001 0.00718572 0.230428 -0.0583673 0.0248266 -0.0473478 0.996863
1305031119.078966 -0.178391 0.0174117 0.224861 -0.0596038 0.0250509 -0.0457419 0.996859
1305031119.110884 -0.1798 0.028383 0.218667 -0.0596359 0.0222233 -0.0453157 0.996943
1305031119.147629 -0.180136 0.0399013 0.212572 -0.0592441 0.0187551 -0.0443274 0.997082
1305031119.179262 -0.182396 0.0503814 0.206577 -0.0597111 0.0158359 -0.0433479 0.997148
1305031119.210906 -0.182754 0.0603516 0.200313 -0.0580713 0.012862 -0.0432069 0.997294
1305031119.247660 -0.183193 0.0734108 0.194477 -0.0552049 0.0119917 -0.0419168 0.997523
1305031119.279244 -0.185415 0.0843852 0.189392 -0.0544408 0.0114673 -0.0417865 0.997576
1305031119.310755 -0.186147 0.0938784 0.184943 -0.0544381 0.0112886 -0.0405259 0.997631
1305031119.347750 -0.187633 0.102502 0.180832 -0.0544039 0.0105441 -0.0375111 0.997758
1305031119.378631 -0.189933 0.114347 0.176693 -0.052161 0.0094896 -0.0354488 0.997964
1305031119.411492 -0.189331 0.126775 0.172334 -0.0517 0.00812053 -0.0361676 0.997974
1305031119.447726 -0.189954 0.137596 0.168346 -0.0518433 0.0103421 -0.0359692 0.997954
1305031119.477682 -0.191311 0.146515 0.164606 -0.0517188 0.0131627 -0.0362178 0.997918
1305031119.511258 -0.192332 0.160215 0.16097 -0.0501197 0.0152835 -0.0361587 0.997971
1305031119.547414 -0.19411 0.170875 0.157559 -0.051546 0.0162648 -0.0338468 0.997964
1305031119.579569 -0.193797 0.184422 0.154577 -0.0518096 0.0165954 -0.0334326 0.997959
1305031119.615024 -0.194444 0.196955 0.151742 -0.0544929 0.0189677 -0.0330346 0.997787
1305031119.648889 -0.194939 0.208626 0.149239 -0.0566112 0.0201277 -0.0319033 0.997683
1305031119.675566 -0.195469 0.22318 0.146906 -0.0587886 0.0214785 -0.0333484 0.997482
1305031119.715249 -0.194248 0.23481 0.145382 -0.0632817 0.0249645 -0.034447 0.997089
1305031119.744886 -0.196657 0.243934 0.144031 -0.0681044 0.0294163 -0.0285512 0.996836
1305031119.778628 -0.197936 0.254245 0.142839 -0.0705149 0.0292573 -0.0247355 0.996775
1305031119.814571 -0.197756 0.263421 0.141507 -0.0728409 0.0276588 -0.022416 0.996708
1305031119.847445 -0.198122 0.274611 0.139822 -0.0740009 0.0279467 -0.0182788 0.996699
1305031119.879232 -0.198347 0.282743 0.138038 -0.0759228 0.0296526 -0.0160915 0.996543
1305031119.911424 -0.198758 0.291695 0.136181 -0.074537 0.0316962 -0.0163311 0.996581
1305031119.947462 -0.200093 0.303108 0.133926 -0.0760308 0.0338237 -0.0150239 0.996418
1305031119.979546 -0.200961 0.30977 0.13206 -0.0795847 0.0366136 -0.0157288 0.996031
1305031120.015283 -0.200232 0.318427 0.130666 -0.0806477 0.0395571 -0.0163793 0.995823
1305031120.047310 -0.200291 0.325243 0.129076 -0.0872255 0.0416214 -0.0143296 0.995216
1305031120.075690 -0.201635 0.325106 0.128666 -0.0923192 0.041293 -0.0124581 0.994795
1305031120.115249 -0.201856 0.328408 0.127715 -0.0923399 0.0387747 -0.010596 0.994916
1305031120.148175 -0.202575 0.330329 0.127281 -0.0939288 0.0375907 -0.00952129 0.994823
1305031120.179261 -0.203505 0.326255 0.127783 -0.0949558 0.0380849 -0.00704733 0.994728
1305031120.215260 -0.203866 0.3197 0.128327 -0.0933526 0.038549 -0.00519036 0.994873
1305031120.248018 -0.202867 0.315742 0.128058 -0.0887323 0.0380009 -0.00732797 0.995303
1305031120.279441 -0.202552 0.309612 0.128972 -0.0859553 0.0384409 -0.00967186 0.99551
1305031120.315213 -0.202426 0.301768 0.130626 -0.083661 0.0389144 -0.011805 0.995664
1305031120.347797 -0.201849 0.292035 0.133119 -0.0814358 0.0391272 -0.0141929 0.995809
1305031120.379446 -0.20072 0.283083 0.136267 -0.0790721 0.0388813 -0.0156035 0.995988
1305031120.415490 -0.200122 0.268369 0.141213 -0.0774074 0.0380106 -0.0157848 0.99615
1305031120.447433 -0.199116 0.25648 0.144923 -0.0707595 0.0370842 -0.0162961 0.996671
1305031120.475582 -0.197728 0.248755 0.14955 -0.065497 0.0359242 -0.0153959 0.997087
1305031120.514877 -0.195761 0.233444 0.15487 -0.0625986 0.0339722 -0.015025 0.997347
1305031120.547807 -0.193973 0.222547 0.159664 -0.0559978 0.0303959 -0.0139596 0.99787
1305031120.579559 -0.193062 0.214712 0.164441 -0.0502448 0.0265838 -0.0111143 0.998321
1305031120.615271 -0.191933 0.203885 0.169284 -0.048071 0.0219855 -0.00811356 0.998569
1305031120.646607 -0.189231 0.193318 0.173619 -0.0440861 0.0177955 -0.00808929 0.998836
1305031120.678467 -0.187448 0.186108 0.177806 -0.039625 0.0151408 -0.00778149 0.99907
1305031120.714553 -0.186023 0.176217 0.182087 -0.03818 0.0139662 -0.00708128 0.999148
1305031120.747396 -0.184846 0.165991 0.186373 -0.0372399 0.0118874 -0.00700645 0.999211
1305031120.779908 -0.184027 0.154336 0.190519 -0.0366092 0.00944154 -0.00669333 0.999263
1305031120.814905 -0.181612 0.144362 0.194215 -0.0342475 0.00764713 -0.00766648 0.999355
1305031120.847942 -0.180961 0.136703 0.197194 -0.0335481 0.00672874 -0.00891638 0.999375
1305031120.883454 -0.180523 0.123761 0.20075 -0.0344969 0.00632016 -0.0107609 0.999327
1305031120.915454 -0.180901 0.116044 0.203511 -0.0317331 0.00801931 -0.012214 0.99939
1305031120.947509 -0.181533 0.106435 0.206575 -0.0322278 0.00896755 -0.0134324 0.99935
1305031120.983390 -0.181769 0.0967576 0.209222 -0.0323365 0.00948527 -0.0153737 0.999314
1305031121.015029 -0.182962 0.085597 0.212215 -0.0323084 0.00937668 -0.0164559 0.999298
1305031121.047755 -0.18263 0.0767488 0.214579 -0.0308412 0.00893304 -0.0176541 0.999328
1305031121.083117 -0.183417 0.0652168 0.21692 -0.0318437 0.00899318 -0.0184704 0.999282
1305031121.114878 -0.183446 0.0546421 0.218984 -0.0300835 0.00721639 -0.0191249 0.999338
1305031121.147355 -0.184939 0.0458828 0.220962 -0.0281822 0.00674753 -0.0191451 0.999397
1305031121.183281 -0.187138 0.0356061 0.223351 -0.0271098 0.00632808 -0.0197212 0.999418
1305031121.211431 -0.18772 0.0257936 0.225356 -0.0252336 0.00605596 -0.0203028 0.999457
1305031121.247201 -0.188331 0.0169656 0.227515 -0.0226619 0.00761115 -0.0210622 0.999492
1305031121.282822 -0.189128 0.00750086 0.229906 -0.022799 0.00717725 -0.0202306 0.99951
1305031121.313588 -0.189695 -0.00373396 0.232842 -0.0219686 0.0070775 -0.0183524 0.999565
1305031121.347540 -0.191203 -0.0131816 0.235578 -0.0194001 0.00715434 -0.0184897 0.999615
1305031121.383248 -0.191926 -0.0229996 0.238159 -0.0184649 0.00591017 -0.0175885 0.999657
1305031121.414328 -0.192559 -0.0338817 0.240827 -0.0152119 0.00680811 -0.0184064 0.999692
1305031121.447024 -0.192872 -0.0419859 0.242874 -0.0124931 0.00719586 -0.0192864 0.99971
1305031121.483015 -0.193934 -0.0517821 0.245819 -0.011573 0.00892602 -0.0179887 0.999731
1305031121.514164 -0.194735 -0.062329 0.24805 -0.00898844 0.0112177 -0.0172344 0.999748
1305031121.546810 -0.19467 -0.0685372 0.249963 -0.0079641 0.0111809 -0.0176898 0.999749
1305031121.583213 -0.193022 -0.0784481 0.252857 -0.0105889 0.0117344 -0.0178694 0.999715
1305031121.614719 -0.193147 -0.0889335 0.255398 -0.0111064 0.0131827 -0.0189399 0.999672
1305031121.646966 -0.192371 -0.0954115 0.257058 -0.0100751 0.0154531 -0.0215897 0.999597
1305031121.683211 -0.193893 -0.101901 0.259076 -0.0111545 0.0196547 -0.024641 0.999441
1305031121.714528 -0.195572 -0.111605 0.262053 -0.0134862 0.0218983 -0.023287 0.999398
1305031121.746484 -0.195923 -0.11686 0.264369 -0.0142304 0.0218066 -0.0233588 0.999388
1305031121.782871 -0.195919 -0.123633 0.267284 -0.0166337 0.0221825 -0.021742 0.999379
1305031121.811545 -0.194747 -0.128903 0.269619 -0.0178395 0.0227665 -0.0193011 0.999395
1305031121.846870 -0.19221 -0.132393 0.271639 -0.0194055 0.023656 -0.0175572 0.999378
1305031121.882123 -0.191127 -0.135206 0.273353 -0.0215434 0.0240453 -0.0119639 0.999407
1305031121.914943 -0.190493 -0.134216 0.274228 -0.0224461 0.0227168 -0.00777722 0.99946
1305031121.947318 -0.190044 -0.135123 0.275219 -0.0234361 0.0207807 -0.00734994 0.999482
1305031121.982935 -0.188709 -0.131631 0.274914 -0.0224283 0.0198274 -0.00850979 0.999516
1305031122.014424 -0.189254 -0.126834 0.274083 -0.022686 0.0207564 -0.00916087 0.999485
1305031122.046908 -0.189285 -0.122606 0.272822 -0.0225256 0.0200374 -0.0116175 0.999478
1305031122.082969 -0.18947 -0.11553 0.270537 -0.0216728 0.0194409 -0.0155856 0.999455
1305031122.114688 -0.189017 -0.108285 0.267908 -0.0208428 0.0192816 -0.0194004 0.999409
1305031122.150748 -0.188707 -0.0972631 0.264483 -0.0204572 0.0189669 -0.0240287 0.999322
1305031122.183052 -0.186671 -0.0880835 0.261068 -0.0200937 0.0190234 -0.0292834 0.999188
1305031122.214969 -0.186682 -0.0729122 0.256758 -0.0190958 0.0203238 -0.0354158 0.998983
1305031122.251355 -0.185693 -0.0614731 0.253867 -0.0248479 0.0207839 -0.0389071 0.998718
1305031122.283866 -0.187778 -0.0513781 0.250773 -0.0269252 0.0214916 -0.0401001 0.998602
1305031122.314309 -0.188041 -0.0340263 0.246231 -0.0286406 0.0193016 -0.0441613 0.998427
1305031122.351351 -0.189137 -0.0230989 0.243022 -0.0359914 0.016953 -0.0477048 0.998069
1305031122.382678 -0.190408 -0.0112472 0.238833 -0.0404605 0.0155744 -0.0483885 0.997887
1305031122.415008 -0.192512 -0.000730305 0.234384 -0.0452184 0.0129924 -0.0476402 0.997756
1305031122.451272 -0.194441 0.0116215 0.228677 -0.0467842 0.00922077 -0.0465193 0.997779
1305031122.483388 -0.1975 0.0239733 0.22365 -0.0487062 0.00581145 -0.0455195 0.997758
1305031122.515135 -0.199989 0.0354643 0.218561 -0.0502286 0.00255429 -0.0461919 0.997666
1305031122.551510 -0.201304 0.0478844 0.213211 -0.0508243 0.00145869 -0.047887 0.997558
1305031122.583217 -0.202179 0.0578583 0.208458 -0.0525825 0.00270753 -0.0497437 0.997373
1305031122.615017 -0.203665 0.0666058 0.204143 -0.0541108 0.00363423 -0.0492477 0.997313
1305031122.648810 -0.205891 0.0761045 0.199595 -0.0533614 0.00283212 -0.0477414 0.997429
1305031122.683420 -0.207029 0.0890129 0.194599 -0.0516366 0.00191528 -0.0468114 0.997566
1305031122.715219 -0.208965 0.099975 0.190697 -0.0511125 0.000588635 -0.0436693 0.997738
1305031122.751309 -0.21021 0.11336 0.186693 -0.0497164 -0.00189175 -0.0423255 0.997864
1305031122.783438 -0.210646 0.128759 0.18361 -0.0496881 -0.00261098 -0.0435333 0.997812
1305031122.812565 -0.2105 0.139665 0.181162 -0.0541327 -0.00206959 -0.0444536 0.997542
1305031122.851486 -0.209917 0.148251 0.178985 -0.0573013 0.000187314 -0.0469092 0.997254
1305031122.883775 -0.208386 0.15908 0.176212 -0.0589855 0.00555836 -0.0479637 0.99709
1305031122.914585 -0.210144 0.167206 0.173993 -0.0627155 0.0102057 -0.0461821 0.99691
1305031122.951413 -0.212056 0.174893 0.171519 -0.0644668 0.0122591 -0.0447529 0.99684
1305031122.983000 -0.21209 0.184096 0.168908 -0.0650131 0.0125433 -0.0419715 0.996922
1305031123.015462 -0.213103 0.192252 0.166383 -0.0673783 0.0119561 -0.0381541 0.996926
1305031123.051838 -0.212911 0.198245 0.163914 -0.0683054 0.0118029 -0.036954 0.99691
1305031123.082992 -0.213069 0.208043 0.160982 -0.0666298 0.0125557 -0.0352219 0.997077
1305031123.113939 -0.213137 0.220571 0.1583 -0.0667036 0.0137055 -0.0326923 0.997143
1305031123.150840 -0.212654 0.229529 0.156633 -0.0695086 0.0146174 -0.03239 0.996948
1305031123.182176 -0.212553 0.240341 0.154945 -0.0710344 0.0156817 -0.0321113 0.996834
1305031123.214724 -0.21081 0.253107 0.153206 -0.0731491 0.0191002 -0.0325575 0.996606
1305031123.250641 -0.210006 0.265993 0.152247 -0.0764201 0.0235523 -0.0334932 0.996235
1305031123.282363 -0.208466 0.277279 0.15142 -0.0834539 0.026325 -0.03226 0.995641
1305031123.320992 -0.207705 0.287568 0.150503 -0.0896223 0.0300239 -0.0294039 0.995089
1305031123.350493 -0.207019 0.297589 0.149869 -0.0938881 0.0342919 -0.0292566 0.994562
1305031123.382263 -0.205551 0.308039 0.148564 -0.0973957 0.0383545 -0.0269087 0.994142
1305031123.421343 -0.206028 0.316404 0.147518 -0.101134 0.0443402 -0.0225807 0.993628
1305031123.451266 -0.206028 0.316404 0.147518 -0.101134 0.0443402 -0.0225807 0.993628
1305031123.483605 -0.204444 0.326351 0.146067 -0.103463 0.0457139 -0.0185839 0.993408
1305031123.519725 -0.204276 0.334882 0.144288 -0.106645 0.0480827 -0.0138644 0.993037
1305031123.551573 -0.20425 0.3423 0.142929 -0.108423 0.0489544 -0.0111914 0.992836
1305031123.579616 -0.203377 0.350309 0.141385 -0.110382 0.0487512 -0.00791314 0.992661
1305031123.620387 -0.200454 0.357975 0.139991 -0.111137 0.0489854 -0.00616793 0.992578
1305031123.652430 -0.198395 0.367519 0.1385 -0.11306 0.0502526 -0.00616675 0.992297
1305031123.683785 -0.196503 0.376199 0.137133 -0.116007 0.0530764 -0.00496234 0.991817
1305031123.719975 -0.195446 0.383607 0.136013 -0.119299 0.0566868 -0.00341688 0.991233
1305031123.751980 -0.194516 0.386393 0.135512 -0.124332 0.0595595 -0.00141637 0.990451
1305031123.784138 -0.193335 0.389193 0.13438 -0.126539 0.0598934 8.36519e-05 0.990152
1305031123.819696 -0.193426 0.390909 0.133455 -0.127985 0.0593629 0.00138461 0.989997
1305031123.851551 -0.19259 0.391252 0.132573 -0.129341 0.0591729 0.00278442 0.989829
1305031123.883819 -0.192519 0.387179 0.132558 -0.131678 0.0583344 0.003644 0.989568
1305031123.915794 -0.192536 0.383437 0.13223 -0.130525 0.0568855 0.00319549 0.989807
1305031123.951530 -0.192958 0.384306 0.131689 -0.127401 0.0565367 0.00354562 0.990232
1305031123.983421 -0.193906 0.3793 0.133097 -0.130255 0.0556237 0.00574865 0.989902
1305031124.019737 -0.193655 0.37019 0.135655 -0.129287 0.0522757 0.00593839 0.99021
1305031124.051531 -0.195505 0.365408 0.136848 -0.123949 0.0493923 0.00603363 0.99104
1305031124.083902 -0.195447 0.361623 0.13908 -0.121115 0.0464564 0.00693942 0.991526
1305031124.119669 -0.195447 0.361623 0.13908 -0.121115 0.0464564 0.00693942 0.991526
1305031124.147458 -0.195447 0.361623 0.13908 -0.121115 0.0464564 0.00693942 0.991526
1305031124.182707 -0.195739 0.353507 0.142641 -0.119645 0.0456653 0.00475743 0.991755
1305031124.217179 -0.196593 0.339839 0.147017 -0.118142 0.0443922 0.00222671 0.992001
1305031124.249340 -0.195275 0.330007 0.149369 -0.112425 0.0429818 5.47909e-05 0.99273
1305031124.282555 -0.195822 0.322701 0.15175 -0.110097 0.0402685 -2.90644e-05 0.993105
1305031124.316782 -0.19679 0.310783 0.156008 -0.109336 0.0360521 0.000259352 0.993351
1305031124.350371 -0.195586 0.300612 0.158117 -0.10445 0.0321986 -0.000920572 0.994008
1305031124.382432 -0.196306 0.291727 0.160624 -0.100277 0.0298603 -0.00210048 0.994509
1305031124.418555 -0.19743 0.279283 0.163404 -0.0968614 0.0286475 -0.00203979 0.994883
1305031124.450256 -0.195639 0.266652 0.1657 -0.0914507 0.0263852 -0.00459937 0.995449
1305031124.480126 -0.195586 0.25522 0.168028 -0.0851112 0.0250394 -0.00784074 0.996026
1305031124.516737 -0.196008 0.242877 0.170122 -0.079416 0.0234442 -0.0100592 0.996515
1305031124.550503 -0.196551 0.233802 0.172764 -0.07365 0.0217219 -0.0124758 0.99697
1305031124.584606 -0.197326 0.2222 0.175461 -0.0703025 0.0199623 -0.0147328 0.997217
1305031124.617653 -0.196945 0.20828 0.178937 -0.0670416 0.0171289 -0.0175022 0.99745
1305031124.651313 -0.19739 0.197149 0.182343 -0.0625622 0.0149115 -0.0194919 0.997739
1305031124.685473 -0.197112 0.183538 0.186049 -0.0600791 0.0126925 -0.0215007 0.997881
1305031124.715791 -0.195679 0.171594 0.189728 -0.0557663 0.0114573 -0.0238869 0.998092
1305031124.749941 -0.1953 0.15987 0.193725 -0.0530075 0.0114424 -0.0256931 0.998198
1305031124.785178 -0.195647 0.145533 0.198437 -0.0513195 0.0104795 -0.0267323 0.998269
1305031124.816641 -0.195353 0.134893 0.203037 -0.0482956 0.00914426 -0.0268533 0.99843
1305031124.850559 -0.195577 0.122623 0.208525 -0.0479409 0.00811785 -0.0274146 0.998441
1305031124.883594 -0.194246 0.107769 0.214884 -0.0475515 0.00700443 -0.0287063 0.998432
1305031124.918770 -0.192663 0.0979207 0.220305 -0.0450414 0.00837278 -0.0298125 0.998505
1305031124.950748 -0.192252 0.0880654 0.226183 -0.0465541 0.00939972 -0.0299169 0.998423
1305031124.986460 -0.193498 0.0721244 0.232463 -0.0490328 0.0112324 -0.0279665 0.998342
1305031125.019467 -0.195775 0.0588291 0.238331 -0.0458005 0.0103629 -0.0254251 0.998573
1305031125.050798 -0.193648 0.0511516 0.243086 -0.0420301 0.00645268 -0.025865 0.998761
1305031125.083480 -0.191773 0.0411548 0.248325 -0.0423916 0.0060868 -0.0243737 0.998785
1305031125.119029 -0.193933 0.0298101 0.252843 -0.042464 0.00679574 -0.0212304 0.998849
1305031125.151037 -0.193763 0.0184306 0.256859 -0.0402868 0.00566703 -0.0230012 0.998907
1305031125.187064 -0.192124 0.0121574 0.260111 -0.0385165 0.00630234 -0.0252045 0.99892
1305031125.219018 -0.19453 0.00180946 0.264231 -0.0421557 0.00911456 -0.0237288 0.998788
1305031125.250642 -0.197888 -0.00844695 0.267872 -0.0419825 0.0107475 -0.0250299 0.998747
1305031125.286396 -0.198886 -0.0163157 0.270166 -0.0390142 0.0106153 -0.0271851 0.998812
1305031125.319140 -0.199424 -0.0250963 0.273463 -0.0387668 0.0120133 -0.027054 0.99881
1305031125.348899 -0.200828 -0.0333944 0.276529 -0.0362535 0.0141193 -0.0280548 0.998849
1305031125.386792 -0.199828 -0.0380889 0.278867 -0.0348373 0.0147006 -0.0334526 0.998725
1305031125.419574 -0.199581 -0.0464809 0.282447 -0.0362099 0.0200306 -0.0349373 0.998532
1305031125.451232 -0.200536 -0.051966 0.285606 -0.0382642 0.025716 -0.0368691 0.998256
1305031125.486999 -0.200917 -0.0617345 0.288931 -0.0405178 0.0303228 -0.0377835 0.998004
1305031125.519354 -0.201367 -0.0635503 0.290008 -0.038914 0.0337029 -0.0392331 0.997903
1305031125.551050 -0.201234 -0.0667355 0.291377 -0.0399751 0.03656 -0.0410694 0.997687
1305031125.585303 -0.200429 -0.0696486 0.292131 -0.0417232 0.0396995 -0.0435869 0.997388
1305031125.617870 -0.199848 -0.0731126 0.292103 -0.0423046 0.0429964 -0.0445463 0.997185
1305031125.650354 -0.201975 -0.0771581 0.291054 -0.0398942 0.0446402 -0.0412628 0.997353
1305031125.684602 -0.203768 -0.0730445 0.288264 -0.0345353 0.0416203 -0.0389886 0.997775
1305031125.715669 -0.203717 -0.0703365 0.28539 -0.0325678 0.0362949 -0.0388157 0.998056
1305031125.751292 -0.201714 -0.0643308 0.281517 -0.0279385 0.0320848 -0.0373513 0.998396
1305031125.786805 -0.202354 -0.0540524 0.27738 -0.0256509 0.0311335 -0.0400688 0.998382
1305031125.819450 -0.203238 -0.0469477 0.273904 -0.0254976 0.0316298 -0.0424943 0.99827
1305031125.854774 -0.202121 -0.0368517 0.270362 -0.0263356 0.0325203 -0.0440348 0.998153
1305031125.886645 -0.204554 -0.0286066 0.267442 -0.026874 0.0334529 -0.0440103 0.998109
1305031125.919334 -0.205887 -0.0173014 0.264054 -0.0284604 0.0311386 -0.0432033 0.998175
1305031125.955252 -0.208477 -0.0104296 0.261816 -0.0326905 0.026565 -0.0403172 0.998299
1305031125.987094 -0.207036 0.000760125 0.258281 -0.0328066 0.0186793 -0.0372205 0.998594
1305031126.019572 -0.204869 0.0142166 0.254773 -0.0337532 0.0121808 -0.0373028 0.99866
1305031126.055038 -0.202088 0.02722 0.251999 -0.0358685 0.00878142 -0.0385371 0.998575
1305031126.087076 -0.199682 0.0404931 0.249934 -0.0389424 0.00942787 -0.0382 0.998467
1305031126.119452 -0.198646 0.0523561 0.247787 -0.0428865 0.0102336 -0.0386298 0.99828
1305031126.155000 -0.196481 0.0667773 0.24543 -0.0443696 0.0108392 -0.0376357 0.998247
1305031126.187174 -0.195432 0.0831884 0.242976 -0.0482449 0.0111637 -0.0363033 0.998113
1305031126.219473 -0.195157 0.0942498 0.240973 -0.054087 0.0109683 -0.0354397 0.997847
1305031126.255236 -0.193719 0.109216 0.237985 -0.0555469 0.0119702 -0.0356563 0.997747
1305031126.287105 -0.193858 0.123377 0.235325 -0.058607 0.0140363 -0.0362695 0.997523
1305031126.319787 -0.193299 0.137606 0.232803 -0.0617544 0.0169739 -0.0377489 0.997233
1305031126.355415 -0.193948 0.148728 0.230479 -0.0666347 0.0214213 -0.0386153 0.9968
1305031126.387483 -0.194632 0.160197 0.227467 -0.0702223 0.0253115 -0.0393732 0.996433
1305031126.419793 -0.194051 0.171279 0.224752 -0.0742226 0.0269055 -0.0415023 0.996014
1305031126.455380 -0.194386 0.180603 0.221617 -0.0793142 0.0288977 -0.0411914 0.995579
1305031126.490386 -0.195497 0.189759 0.218359 -0.082155 0.0301821 -0.0378784 0.995442
1305031126.522321 -0.195722 0.203993 0.214834 -0.0827821 0.029018 -0.0357423 0.995504
1305031126.558209 -0.195035 0.216229 0.211743 -0.087343 0.028102 -0.0350065 0.995166
1305031126.590176 -0.194121 0.225064 0.209615 -0.0919621 0.0295129 -0.0335552 0.994759
1305031126.618687 -0.192306 0.234886 0.207217 -0.0959665 0.031275 -0.0320708 0.994376
1305031126.654474 -0.192024 0.240698 0.205167 -0.101168 0.0331855 -0.0296556 0.993873
1305031126.690022 -0.190056 0.24607 0.202856 -0.103377 0.0347252 -0.0263011 0.993688
1305031126.715770 -0.188639 0.254084 0.199899 -0.104679 0.0360485 -0.0225839 0.993596
1305031126.755374 -0.186787 0.257755 0.197642 -0.106788 0.0373355 -0.0199899 0.993379
1305031126.787565 -0.184908 0.262457 0.194653 -0.106285 0.0380346 -0.0171109 0.993461
1305031126.819929 -0.183684 0.267516 0.191644 -0.106219 0.0394361 -0.0157404 0.993436
1305031126.858378 -0.183036 0.271805 0.18904 -0.105883 0.0427042 -0.0157748 0.993336
1305031126.888154 -0.18177 0.273841 0.186778 -0.106944 0.0448711 -0.0154599 0.993132
1305031126.919409 -0.181114 0.276007 0.184716 -0.107197 0.0467697 -0.0157334 0.993013
1305031126.955501 -0.179691 0.277717 0.182891 -0.107312 0.048071 -0.0157024 0.992938
1305031126.987316 -0.178573 0.277693 0.181897 -0.108071 0.0473067 -0.0145564 0.99291
1305031127.019524 -0.178808 0.276884 0.1814 -0.107367 0.0466177 -0.0139188 0.993028
1305031127.053318 -0.17812 0.276987 0.180805 -0.106262 0.0457502 -0.0135683 0.993192
1305031127.088649 -0.178413 0.277157 0.180656 -0.106221 0.0455856 -0.0128123 0.993214
1305031127.120963 -0.179146 0.273684 0.181558 -0.107267 0.0444901 -0.0121169 0.99316
1305031127.157692 -0.179317 0.271185 0.182109 -0.106692 0.0414129 -0.0115031 0.993363
1305031127.187500 -0.179583 0.270055 0.182588 -0.104598 0.0383285 -0.0118245 0.993705
1305031127.221831 -0.180502 0.269184 0.183291 -0.103481 0.0367528 -0.0121641 0.993878
1305031127.259761 -0.179741 0.265855 0.184669 -0.102478 0.0360888 -0.0133362 0.993991
1305031127.287038 -0.180038 0.263694 0.18562 -0.100091 0.0360874 -0.014375 0.99422
1305031127.320468 -0.179247 0.261575 0.186958 -0.0999681 0.0350553 -0.015252 0.994256
1305031127.353407 -0.18055 0.255687 0.189735 -0.100204 0.0340528 -0.0155562 0.994262
1305031127.383713 -0.181096 0.253764 0.190893 -0.0973905 0.0328662 -0.0161481 0.994572
1305031127.419650 -0.181285 0.252855 0.192446 -0.0964798 0.031876 -0.0167438 0.994683
1305031127.454246 -0.182112 0.248281 0.195123 -0.0969823 0.030668 -0.0171824 0.994665
1305031127.487200 -0.182126 0.247594 0.196309 -0.0947366 0.029596 -0.0177008 0.994905
1305031127.521900 -0.182647 0.247438 0.197691 -0.0949793 0.0288955 -0.0186473 0.994885
1305031127.553725 -0.183746 0.243862 0.200052 -0.09599 0.0281744 -0.0194316 0.994794
1305031127.586632 -0.184603 0.242909 0.200892 -0.094339 0.0279327 -0.0195024 0.994957
1305031127.620657 -0.185351 0.243687 0.201664 -0.0937847 0.0277044 -0.0193208 0.995019
1305031127.654656 -0.185541 0.241337 0.203296 -0.0951416 0.02743 -0.0183103 0.994917
1305031127.687110 -0.18518 0.23919 0.204011 -0.0944847 0.0270336 -0.0174471 0.995006
1305031127.723210 -0.185405 0.23982 0.204172 -0.0931843 0.0264602 -0.0175019 0.995143
1305031127.754694 -0.1856 0.238935 0.204839 -0.094314 0.0259993 -0.0171272 0.995056
1305031127.787641 -0.186388 0.235604 0.205768 -0.0947329 0.0262024 -0.0168995 0.995014
1305031127.820128 -0.186476 0.235571 0.205331 -0.0930347 0.0259494 -0.0179255 0.995163
1305031127.855132 -0.186831 0.235512 0.205348 -0.0929624 0.0258328 -0.0190659 0.995152
1305031127.887122 -0.187588 0.234156 0.205841 -0.093509 0.0258175 -0.019533 0.995092
1305031127.922560 -0.189335 0.233759 0.206432 -0.0932748 0.0255513 -0.0196206 0.995119
1305031127.955088 -0.189868 0.234278 0.207012 -0.0936153 0.0248886 -0.0194755 0.995107
1305031127.987093 -0.1896 0.233932 0.20835 -0.0953215 0.0240825 -0.0197285 0.99496
1305031128.021776 -0.188886 0.234447 0.209699 -0.096121 0.0236322 -0.0202518 0.994883
1305031128.055718 -0.188297 0.233689 0.211793 -0.0982001 0.0244228 -0.0191534 0.994683
1305031128.087206 -0.18788 0.230414 0.213836 -0.0997258 0.0249638 -0.0180178 0.994539
1305031128.124746 -0.187005 0.229373 0.215018 -0.0991352 0.0244975 -0.0174738 0.994619
1305031128.157782 -0.186195 0.228577 0.216166 -0.0996696 0.0241309 -0.0161507 0.994597
1305031128.187221 -0.185534 0.224925 0.217864 -0.100546 0.0241012 -0.0148816 0.994529
1305031128.225442 -0.185696 0.223975 0.218342 -0.0988113 0.0243928 -0.0143326 0.994704
1305031128.256007 -0.185722 0.224664 0.218545 -0.0983605 0.0240396 -0.0134581 0.994769
1305031128.291275 -0.185205 0.222359 0.219282 -0.0995685 0.0233655 -0.0133207 0.994667
1305031128.324170 -0.185585 0.222042 0.21923 -0.0984626 0.0233749 -0.0139595 0.994768
1305031128.355206 -0.186092 0.22182 0.219295 -0.0984532 0.0233957 -0.0149623 0.994754
1305031128.391397 -0.18719 0.220622 0.219681 -0.0991581 0.0234295 -0.0162242 0.994664
1305031128.423609 -0.188174 0.219295 0.219891 -0.0991202 0.0235407 -0.0174154 0.994645
1305031128.455499 -0.188942 0.218461 0.219944 -0.0989443 0.0238489 -0.018496 0.994635
1305031128.489523 -0.189322 0.217391 0.220105 -0.0994395 0.0238624 -0.0196082 0.994564
1305031128.523604 -0.189324 0.215924 0.220235 -0.0998706 0.0239032 -0.0203444 0.994505
1305031128.555639 -0.188657 0.215457 0.220069 -0.0998241 0.0242241 -0.02096 0.994489
1305031128.591460 -0.188788 0.213405 0.22028 -0.100166 0.0248007 -0.0214282 0.994431
1305031128.623368 -0.188353 0.211675 0.220243 -0.0995018 0.0245555 -0.0215119 0.994502
1305031128.655554 -0.189552 0.211973 0.219986 -0.0985386 0.0240219 -0.020916 0.994623
1305031128.690449 -0.190007 0.210973 0.219752 -0.0986276 0.0228182 -0.021365 0.994633
1305031128.722976 -0.189799 0.210969 0.219218 -0.0975718 0.0225135 -0.0222327 0.994725
1305031128.754646 -0.190392 0.211131 0.2188 -0.0965755 0.0238414 -0.023001 0.994774
